{"generationNumber":27,"Entities":[{"fitness":0,"neuralnetwork":{"inputLayer":{"biases":[0.0,0.0,0.0,0.0,0.0,0.0,0.0,0.0,0.0,0.0,0.0,0.0,0.0,0.0,0.0,0.0,0.0,0.0,0.0,0.0],"values":[0.0,0.0,0.0,0.0,0.0,0.0,0.0,0.0,0.0,0.0,0.0,0.0,0.0,0.0,0.0,0.0,0.0,0.0,0.0,0.0]},"layers":[{"biases":[-0.016958214,0.053155772,-0.06634569,0.14842397,-0.06541852,0.13334468,0.017118247,0.15521784,0.10650818,0.044153593],"values":[0.0,0.0,0.0,0.0,0.0,0.0,0.0,0.0,0.0,0.0],"inputWeights":[[-0.19183476,-0.10790365,-0.01309036,0.17043246,0.16453977,0.12843351,-0.13171299,-0.10684969,-0.10800964,0.10894814,0.0043477407,0.0389657,-0.13576816,0.117494896,0.17028196,-0.13259186,-0.034524284,-0.1487685,-0.06152564,0.06160521],[-0.13215572,-0.13748045,0.22792743,-0.02925175,-0.0516747,0.04478954,-0.10557941,0.25350836,-0.06974444,0.039921258,-0.1104093,-0.121829726,0.08572254,-0.0356807,-0.1644441,-0.122425154,-0.17502858,0.13490242,0.083138525,-0.03772709],[-0.04868381,0.05162257,0.18218915,-0.0058543673,-0.04897401,-0.01767355,0.052281458,-0.13515009,0.038649436,0.10704194,0.030477155,0.08495833,0.09666619,-0.2823056,0.06967982,0.0014614261,0.16895944,0.07956882,-0.04667718,-0.03165443],[-0.2563675,0.11941858,-0.11527178,-0.12741971,-0.13950624,0.15562846,0.00567713,0.16306253,0.07356088,-0.017534552,0.03355401,-0.19228445,-0.23505896,-0.032167837,-0.012514651,0.086931095,-0.19392544,-0.022235366,-0.061280143,0.046153214],[-0.05923752,-0.007242249,-0.090705626,0.0010185039,0.029789897,0.11435436,-0.13626592,-0.104431935,-0.060984597,0.026221938,-0.025702806,0.16636503,-0.16242976,0.16764666,-0.041166686,0.038398355,-0.06079316,0.050456338,-0.036900777,-0.027087312],[0.0665246,0.14100304,-0.00780346,0.04721477,0.1391842,0.0889466,0.10887955,-0.08557083,-0.22407994,0.0017415605,-0.072067305,0.22686,0.037700094,0.04782085,0.013980855,0.1972165,-0.106482886,0.019482033,-0.02666265,-0.0026354932],[-0.07860401,-0.018269708,-0.06428601,-0.08464141,0.06420419,-0.1242677,0.011480916,0.019677425,0.095988646,-0.10294763,-0.053323817,0.026659219,0.07259929,-0.050754152,0.08725256,0.05049069,-0.03904001,-0.21983264,-0.09523463,0.069165766],[-0.049116854,0.032100458,0.058601808,0.12756893,-0.11164741,-0.093342185,0.03424463,-0.12277473,-0.020593036,-0.03746359,0.090292245,-0.14591208,-0.023219919,0.1049646,0.07015785,-0.020440338,0.21632525,0.027154274,-0.058627915,0.12941074],[-0.014471965,0.16170506,0.13035879,0.050510243,-0.0028105804,-0.1766986,-0.035902556,-0.069296025,-0.14741315,-0.046103857,-0.074803755,0.017719617,-0.070074804,-0.005368748,0.0813532,0.2512,0.07317913,0.0066827415,-0.016503572,0.075155824],[0.15320276,0.010284546,0.036973957,-0.025459299,0.040063374,0.003485142,0.17677878,0.03942847,-0.043410186,0.08090301,0.12484623,0.006981895,0.07602091,0.026482368,-0.0820741,0.07802404,-0.032848597,-0.1525614,0.0128276115,0.06401147],[-0.08551528,-0.022551477,7.3881756E-4,-0.12097145,0.08608353,0.047974806,-0.06430193,0.027000448,-0.19428769,-0.07937951,-0.05766625,0.0019677372,-0.05884788,0.065155715,-0.009817724,-0.029210914,-0.09416709,0.06568691,-0.07796363,-0.09457135],[-0.14151,0.17792037,0.009566146,0.1845665,-0.021595214,-0.22600217,0.16854711,0.018692091,0.09893706,0.1290393,-0.06232021,0.20851958,-0.096527554,0.01644987,0.03391783,-0.038466837,0.0019968317,0.08409288,-0.09487648,0.021323366],[0.11248281,0.04361163,-0.030082397,-2.412179E-4,-0.0011867296,-0.19333981,0.080202885,-0.017250419,0.1079993,0.06492798,0.057758044,0.07218162,-0.16554448,-0.13738962,0.0045402064,0.19385827,0.08921864,-0.109307155,-0.06173852,-0.005775326],[0.083599456,0.12924269,0.13083063,-0.12026915,0.029647373,0.046659905,-0.0041207243,0.079416215,0.013787755,0.15836425,-0.0064648017,0.12561786,0.05386113,-0.20468593,0.033004396,0.06896161,-0.03935674,-0.034162816,0.0669182,-0.03216352],[0.063439794,0.15153226,0.1528871,0.014502972,0.07454663,-0.1293262,0.046159673,-0.004066506,-0.17201827,0.05652989,0.10941484,0.02738481,-0.106567234,0.07987212,-0.03617789,-0.012752259,0.048320297,0.21629,0.040297974,-0.1757771],[0.09032778,0.023573555,-0.022793971,0.020591201,0.12733161,-0.30574855,-0.0066632265,-0.007391517,0.12832251,0.010688914,-0.08737341,0.32658595,-0.090302564,0.17569047,0.10202466,0.06071146,0.15457486,0.0034343393,0.006878276,-0.18432139],[0.043965742,-0.04036107,-0.019773157,0.11122149,-0.030572023,-0.07400696,-0.14769529,0.06512835,0.12838021,-0.1947952,0.1307893,0.14107406,0.07688601,-0.001720039,-0.026419053,-0.014755808,-0.20516603,-0.012020723,-0.0401911,-0.10710209],[-0.0070926193,0.07522632,-0.07421005,-0.023888133,-0.14830719,0.04603877,0.078425065,-0.067200504,-0.03350272,-0.12521072,-0.12145806,-0.17429405,0.24667825,0.072499245,0.07981715,-0.09916961,-0.060829856,-0.037303966,0.005095114,0.12539665],[0.025344752,0.034143627,-0.13896328,-0.026914665,0.03179416,-0.28734404,-0.06096263,-0.15229191,0.06290385,0.2506671,0.14622524,-0.029983617,0.006700132,-0.07663264,-0.08109703,-0.0077549038,0.07734485,0.15908463,-0.035220776,0.04795647],[-0.00849351,0.03840198,0.043272756,-0.045538124,0.11229162,-0.30342764,-0.095304236,-0.00618875,-0.11116764,-0.07470457,-0.0058791945,-0.1604011,0.07620171,0.063122384,-0.05092643,-0.06076907,0.062108703,-0.13818102,-0.1348622,-0.13418354]]},{"biases":[-0.11467685,0.13438083,0.008094391,-0.12512037,-0.13137367,0.096919544,0.098837756,0.027106948,0.13889608,0.015288573],"values":[0.0,0.0,0.0,0.0,0.0,0.0,0.0,0.0,0.0,0.0],"inputWeights":[[0.023669224,0.009823176,4.2350477E-4,-0.0056947265,0.061877746,0.10496667,-0.039090488,0.093573935,-0.026769327,0.007848929],[-0.04851669,-0.043823402,0.018459415,0.07780124,-0.014762229,-0.17281088,-0.03446105,0.06537586,0.06815557,-0.013384127],[0.01817439,0.16209072,0.04031353,0.17539589,-0.22862902,-0.22556852,0.066765,0.04040582,0.12870948,-0.110392325],[0.097227015,0.080370285,0.058477182,-0.069962226,0.042523175,-0.041419435,0.06557109,-0.06443272,0.01064872,0.0180006],[-0.07646786,-0.17023173,-0.27553603,0.2540767,0.10623632,0.16968328,0.039773878,0.063012205,-0.018132493,-0.031126926],[-0.14473529,0.014045144,-0.07244517,-0.07760551,0.06060365,0.09754556,-0.026207808,0.09288177,-0.12658602,0.0599801],[0.07576567,0.017505076,-0.08524868,-0.21299525,0.27238894,0.073029175,-0.12555218,0.11294001,0.07521014,-0.022835588],[-0.274408,-0.13800916,-0.06366572,0.14934184,-0.021840673,0.06633413,-0.08849616,-0.12488254,0.22367008,-0.055945728],[0.115875274,0.18819876,0.07857459,0.020290628,-0.04855122,-0.0014553164,-0.122795425,0.025337592,-0.06370939,0.033799913],[0.038518287,-0.066844635,0.01273297,0.030711394,-0.015356765,0.0450683,-0.20435308,-0.0037924582,0.051525444,0.09167855]]},{"biases":[0.037214473],"values":[0.0],"inputWeights":[[-0.13224111,-0.08950725,0.13184622,-0.052714795,-0.09402352,0.07042945,0.045566436,-0.13997796,-0.030296477,-0.14720103],[-0.07824402,0.28879493,-0.129175,-0.05263972,0.006005312,0.089439675,-0.13732876,0.08780795,-0.06935343,-0.13617076],[0.016338034,0.1338921,-0.0759439,-0.026020348,0.114351176,0.03498682,0.0805682,0.10310954,-0.05320776,0.042675108],[-0.008100515,-0.18273349,-0.004579799,-0.008908522,0.033772957,0.13481648,0.13002084,0.06236181,0.027724963,-0.030581046],[-0.011632867,-0.015673578,-0.12284316,-0.06901504,-0.1273626,-0.04944457,0.060955815,0.181339,0.034701418,-0.030075682],[0.059424,-0.023169642,-0.080776736,0.16259259,0.021305874,0.014280487,-0.26879993,-0.1518179,0.046213638,0.045399483],[0.08219671,0.22612582,0.031193364,0.025544766,0.112403445,0.02228587,-0.034637157,-0.107194126,-0.12134651,0.12859641],[-0.14611323,0.013861943,0.10803929,0.049750585,0.01838492,-0.10632151,0.05068415,-0.05009943,0.043340053,-0.02137849],[-0.10940702,-0.20658472,0.017843083,-0.003586247,0.0015239327,-0.11547761,0.01562415,-0.0010818474,-0.14612931,-0.15749592],[-0.06745789,-0.17536578,-0.19145666,0.048810247,0.164497,-0.0311599,-0.020917807,0.050005727,0.045879256,-0.088687636]]}]}},{"fitness":0,"neuralnetwork":{"inputLayer":{"biases":[0.0,0.0,0.0,0.0,0.0,0.0,0.0,0.0,0.0,0.0,0.0,0.0,0.0,0.0,0.0,0.0,0.0,0.0,0.0,0.0],"values":[0.0,0.0,0.0,0.0,0.0,0.0,0.0,0.0,0.0,0.0,0.0,0.0,0.0,0.0,0.0,0.0,0.0,0.0,0.0,0.0]},"layers":[{"biases":[0.023889787,0.12681276,-0.13272054,-0.13759749,-0.020284064,-0.07178958,-0.08096012,-0.15605031,-0.040789314,-0.037812144],"values":[0.0,0.0,0.0,0.0,0.0,0.0,0.0,0.0,0.0,0.0],"inputWeights":[[0.20679381,0.01094185,0.018596454,-0.084313385,0.050309025,-0.04748645,0.10744364,0.17385423,-0.12881579,0.032595493,0.15982059,0.079611905,-0.017251331,-0.037222512,0.07991708,-0.06000165,-0.1644026,0.1591948,0.044145245,-0.09008978],[0.021056423,-0.16850758,-0.014473446,-0.09570309,0.02114282,0.12564752,0.12031275,0.16720593,-0.0010754181,0.015301161,0.09264558,0.028653128,0.0051124673,-0.011754037,0.09976561,-0.100083366,-0.058584724,0.065714575,-0.031455368,-0.11318942],[0.10686098,-0.18484509,-0.21123472,0.046567913,0.028953336,-0.002079577,0.019501008,-0.014064749,-0.12685752,-0.10416884,-0.025538968,-0.08599499,-0.0197494,0.034042478,-0.035970207,-0.065672316,-0.03924187,-0.065018676,0.25171334,-0.037502628],[-0.014076437,-0.05200185,0.143929,0.06795976,-0.037056003,0.14525816,-0.34502736,0.2145172,0.086007796,-0.1417156,-0.017308341,0.03069323,-0.18770666,0.0128467735,0.04713924,0.078220524,0.06694019,0.04583348,-0.21448098,-0.030569596],[-0.19690351,-0.007833084,0.03600798,-0.04526296,-0.02045176,0.22457352,0.23756881,0.12901518,0.098911226,0.013675216,0.062338553,0.12005465,0.11754704,-0.091165826,0.12012092,0.070542105,0.02385829,-0.06830923,0.14991815,-0.08775759],[-0.05882852,0.15435795,0.16516538,0.0020992884,-0.041224226,0.001287115,0.23523282,-0.05561999,0.20387332,0.077881694,0.0514643,-0.035694063,0.07161042,-0.055977825,0.016676085,0.06664375,0.013291122,-0.007271037,0.10332221,-0.11231956],[0.07342471,0.09064956,-0.106437646,0.0017541967,0.058668762,-0.13686085,-0.11284702,-0.06657409,-0.07191691,0.05100236,0.0823783,0.04547366,-0.16435048,-0.19539586,0.040085007,0.007716733,0.04956316,-0.06599912,-0.005130619,-0.019305399],[-0.017910276,0.07808109,0.18931295,-0.13392171,-0.05582045,-0.0788758,0.10908709,0.01284948,-0.20653655,-0.13354495,-0.020540845,-0.16944031,-0.26228315,-0.12753779,0.052419286,0.11437565,0.24100535,-0.17048736,-0.11304622,0.028502755],[0.08708169,-0.07028873,-0.044456314,0.05244622,0.04470227,-0.058696263,0.11653211,0.0636974,0.114157915,0.029340014,0.032512203,0.046820767,-0.016976578,0.058672015,0.0070887627,0.04635337,0.0434753,0.07813755,-0.010782958,0.14507082],[0.16870289,-0.06469438,0.032682527,0.17726259,0.1211354,-0.018599391,-0.039781764,0.06731534,0.1439374,-0.023395445,-0.017081128,0.070794776,0.09117082,-0.041647993,0.0045414134,-0.07801651,0.08243282,-0.055921607,0.14683303,0.04265857],[0.041196052,-0.024911653,0.049206052,0.07675318,0.10028531,-0.038421422,0.17337163,-0.1045244,-0.16173598,-0.009214559,0.07393697,-0.106933504,-0.11269999,0.08218865,-0.06135825,0.024384653,-0.10419492,-0.024189934,-0.063901395,0.13667183],[0.06250939,0.08268378,-0.02167342,0.0468101,0.08898958,0.25596878,0.024257872,0.02146404,0.108513236,0.08795979,-0.056210376,-0.04832114,-0.004536535,0.10356352,-0.15193935,-0.0111742895,0.019314084,-0.008540638,0.0119313765,0.03643844],[0.07526523,-0.015611492,-0.022713825,-0.13563696,0.06100189,0.109480314,-0.15904514,-0.08057731,-0.13673642,-0.017415185,-0.07324109,0.08006034,-0.07817707,0.07043036,0.083635025,-0.24274491,0.0017678624,0.115817524,0.05629032,0.028050303],[-0.17116746,0.17562455,0.1412035,-0.032841418,0.08841739,-0.0053924746,-0.035028346,-0.21010394,0.018737333,-0.041426465,-0.15550724,-0.09665577,-0.29952517,-0.08471317,-0.091735564,0.022196189,-0.071340814,0.07274903,-0.08606125,0.021558922],[-0.12813793,-0.049033273,0.13285826,-0.043743335,-0.21590546,-0.16753487,0.08130225,0.113726355,0.07567645,-0.12514769,-0.24913496,0.28067234,0.05936,-0.11539715,-3.4961512E-4,0.06452423,0.051804814,-0.11516471,-0.038008183,-0.14379652],[0.014927239,0.12850027,-0.043393392,0.07819621,0.092924505,0.10079297,0.23812671,-0.1547368,-0.09781604,-0.05797866,-0.051634606,0.18886217,0.06666848,0.0464228,0.049993988,-0.092373036,-0.08347822,-0.02355426,0.029753849,-0.044840325],[-0.035358712,-0.030811839,-0.05639901,-0.10576625,-0.03435865,-0.22502306,-0.11676333,0.23269308,-0.016970826,0.17070365,0.050664116,-0.064611234,-0.081199616,0.1153786,0.254426,0.025067553,-0.13038135,-0.06733362,0.1254655,0.09007492],[-0.052740503,-0.07277034,0.041191123,-0.03357297,0.012109907,-0.03679301,0.17295842,0.11055615,-0.017420048,-0.083728485,-0.088074416,0.10378519,0.14326778,0.0068144426,-0.018064514,0.049724393,0.12253353,0.050815865,0.05458631,-0.018782401],[-0.023844963,-0.05796125,0.22149265,0.026793854,0.20282203,-0.061236955,-0.053214625,0.1620964,0.08829207,-0.07022089,0.028631369,0.059644572,-0.08738042,-0.13721481,-0.032162722,-0.14238258,0.041903906,-0.008287744,0.07404525,0.013011634],[0.014576023,0.100470215,0.029592829,-0.07556943,0.03226654,0.044551425,0.010118785,-0.0012931214,0.071490236,0.18951689,-0.157436,0.19257651,-0.062230486,0.027439306,-0.019916998,0.07480478,0.036450956,0.064394265,-0.0911282,0.06435389]]},{"biases":[-0.08236616,-0.02841691,-0.027840994,-0.12778687,-0.12356844,-0.048545707,0.038729634,0.11632198,0.012402025,-0.08811063],"values":[0.0,0.0,0.0,0.0,0.0,0.0,0.0,0.0,0.0,0.0],"inputWeights":[[0.077141814,-0.020943321,-0.014692054,-0.039800502,0.1916561,0.0033826919,-0.045409705,-0.017768094,-0.0048330203,0.11662187],[-0.07620752,-0.1352281,0.06252056,-0.051269617,-0.02100735,0.060745634,-0.049622584,-0.027850593,-0.08971864,-0.030953709],[0.15867831,0.15445782,-0.084197044,-0.070139386,0.0038501625,0.18889599,0.089474365,-0.14553301,0.09379335,-0.060378287],[-0.13457285,0.013772666,-0.042198423,-0.019369677,0.0454481,0.03728656,-0.021213958,-0.038224995,-0.08874061,0.121486485],[0.016140211,-0.1273991,-0.060476452,0.16085835,-0.049141865,0.024305802,0.016941367,0.21952932,0.084042184,-0.053007927],[-0.13913073,0.062014576,0.09097718,-0.013852371,-0.12259928,0.011908423,0.06904258,0.025707418,0.081356905,0.104983665],[0.1124127,0.047131866,0.0894826,-0.12482066,0.058078237,0.042486347,0.04848621,8.4204064E-4,-0.03293618,0.03662907],[-0.06779077,-0.11946513,-0.07737639,-0.19207014,-0.016416669,-0.06201205,-0.14096236,-0.037803896,-0.016602417,-0.1022868],[-0.04003944,-0.04900578,-0.029066782,0.1319168,0.08449243,0.031364802,0.08307192,0.118747465,-0.017484855,0.030276306],[0.053613666,0.05491885,0.0646538,0.07629965,-0.005768684,-0.1389956,-6.321748E-4,-0.067793675,-0.027556391,0.0646097]]},{"biases":[0.058202427],"values":[0.0],"inputWeights":[[-0.038863566,0.023510516,0.039647747,-0.029784432,-0.004360039,0.17324631,-0.07595531,0.005215594,0.03137388,0.083656],[-0.07844033,0.077674575,-0.14836703,0.09555978,-0.06456911,0.081651606,-0.02816426,0.13696386,-0.09239159,-0.019008916],[0.069747336,0.034067806,0.106649056,-0.10999961,-0.03869758,0.13100864,0.1423943,0.110644124,0.0997905,-0.083519235],[-0.031956516,-0.10854507,0.18122457,-0.021987451,-0.02820234,0.02327719,-0.09755221,0.008112684,-0.043925956,0.050534245],[0.04550091,-0.06182574,-0.10571443,-0.10343755,-0.0513861,0.07378082,0.10568636,-0.0138735315,0.083102934,-0.0010222077],[0.07849055,0.10509748,0.08559196,-0.032038856,-0.16223495,0.17131723,-0.04332827,-0.043700323,0.048786867,-0.038169608],[0.024815556,-0.069519415,0.012510577,0.03332228,0.003623856,0.07929713,0.08596561,0.07948811,-0.15661417,-0.18525743],[0.10765152,-0.08246923,0.008898902,-0.1958675,0.04150333,-0.079200424,0.0847363,0.13695176,0.06425457,0.07827599],[-0.0542929,-0.042598963,0.15264583,0.03634152,-0.0021677706,0.1441035,-0.005288676,0.032186583,-0.04520877,0.043055184],[-0.024223303,0.0015452032,-0.028351864,-0.084027596,-0.024335012,-0.040929973,0.14052512,-0.09278071,-0.011454135,0.079741545]]}]}},{"fitness":0,"neuralnetwork":{"inputLayer":{"biases":[0.0,0.0,0.0,0.0,0.0,0.0,0.0,0.0,0.0,0.0,0.0,0.0,0.0,0.0,0.0,0.0,0.0,0.0,0.0,0.0],"values":[0.0,0.0,0.0,0.0,0.0,0.0,0.0,0.0,0.0,0.0,0.0,0.0,0.0,0.0,0.0,0.0,0.0,0.0,0.0,0.0]},"layers":[{"biases":[-0.073538005,-0.1739537,0.10698254,0.053947527,0.021915644,0.08000339,-0.08331386,0.013590471,-0.116487004,0.010347361],"values":[0.0,0.0,0.0,0.0,0.0,0.0,0.0,0.0,0.0,0.0],"inputWeights":[[0.07018448,0.08899996,0.13485952,-0.115472324,-0.0032003396,0.084568046,0.087192506,0.24468845,-3.2038233E-4,-0.013217327,0.27409545,-0.2950149,-0.00859182,-0.04876079,0.029696977,-0.07230169,0.050905313,0.053398654,-0.040614538,0.097622305],[-0.013487968,0.14674109,0.043114506,-0.0012396735,0.07373149,0.25761056,-0.009545581,-0.047036078,-0.15626091,0.047030937,-0.062393814,0.027052365,0.03329861,0.024386102,-0.028311314,0.07847879,-0.07592086,-0.08808403,-0.06137971,-0.15880221],[0.022270046,-0.2167698,0.2261867,0.055453997,-0.05058599,0.073263705,0.086615235,-0.07423295,0.12561256,0.072242364,-0.057950348,0.01607434,0.031631023,0.03047369,0.23455426,0.034791354,-0.20570645,-0.026080556,-0.033199914,0.107510544],[0.024537088,-0.16607106,-0.15744403,-0.08615389,-0.11606048,0.041472927,-0.09042033,-0.0436403,-0.04351579,0.019098837,-0.1668412,-0.049586095,-0.09692791,-0.04421,-0.105330594,-0.20451161,-0.08947502,-0.05643453,-0.21375194,0.014039368],[0.06206847,-0.035461824,0.024882797,0.13450715,-0.17171417,-0.03210032,-0.011132602,0.0050662635,-0.007079497,-0.29708472,-0.016128452,-0.2322527,0.10884786,-0.04388322,-0.06760957,0.1344885,-0.16509303,0.056313623,-0.03244987,-0.008380882],[0.0076020546,0.005205096,0.017564079,0.02450158,-0.11698987,0.021364678,-0.028204797,0.040083405,-0.048686218,-0.0060168803,-0.0019567378,-0.03372505,-0.21257275,0.029990511,0.10440979,-0.13013436,-0.0405428,-0.025216814,0.022792451,0.038947396],[-0.026588088,-0.060432352,0.08999875,0.093024924,0.01997178,-0.1183241,0.056257356,0.13643101,-0.21080345,-0.11595455,-0.056615125,-0.07363421,0.06377944,0.20578995,0.04207033,-0.13813467,-0.02223417,-0.12660895,0.11484157,-0.17562388],[0.1085471,-0.09347269,0.008092685,0.021497862,0.14098027,0.0637726,0.011974602,-0.02441402,-0.030416233,-0.06307462,0.037741866,0.069308184,-0.070741534,0.03546866,-0.07265317,-0.059387155,0.054059546,0.054696545,-0.08937722,-0.017909544],[-0.01638049,0.18743733,-0.08038709,-0.15726025,0.014150452,0.026248027,0.06306976,-0.0315487,-0.110110745,0.061150175,-0.08733133,-0.07327176,0.008325373,0.087218165,0.051728666,0.11250707,-0.14830677,0.006306782,-0.063036084,-0.22622904],[-0.079440504,0.12838939,-0.101183735,0.07291482,0.060496848,-0.0790051,-0.1096168,0.14247653,-0.08955192,-0.04646436,0.1248393,0.06759418,-0.05562648,-0.032073095,-0.10402841,0.0654772,-0.14643998,-0.118299015,0.02882376,-0.13439998],[-0.0051820963,0.2280203,0.06175382,-0.018680768,0.075287014,-0.026041115,-0.056673776,0.05300854,-0.021957206,0.01876701,-0.030104134,-0.15598512,-0.039493132,0.029574433,-0.071374,-0.0239083,-0.023835858,-0.1716296,-0.1313429,-0.09457358],[-0.036832184,0.14035483,-0.08343532,0.30258295,-0.16735998,-0.15827973,-0.16344486,0.11179098,0.045050114,0.01843024,0.006262606,-0.025709676,-0.13751163,0.02949725,0.14614876,0.11390725,0.107612126,-0.11020403,0.12360109,-0.0840846],[-0.08654254,-0.033097927,-0.05561001,-0.017661732,-0.0714562,-0.047672097,-0.06805785,-0.098968856,-0.14180087,0.13218664,0.03873839,-0.007744855,-0.025103724,0.04241567,0.10122047,0.051034197,0.123150505,-0.2114754,0.007731879,0.038961295],[0.09707105,-0.23016751,-0.079654284,0.09162982,0.031113083,0.08436771,-0.01588162,-0.116769046,-0.11870429,-0.05046477,-0.025079336,0.11518801,0.1575855,0.1990586,0.0992422,-0.08483235,-0.10472821,-0.12529731,0.07547507,0.13644809],[0.018345524,0.062440395,0.04752996,0.096617386,-0.015053208,-0.057476822,-0.10928391,-0.1623851,-0.037950348,0.055707257,-0.21496405,-0.037132837,0.029673085,-0.1104468,-0.038143374,-0.0834021,0.014274216,0.034637503,-0.057003077,0.14931855],[0.033577614,-0.12387476,0.050012074,0.07065567,-0.08656399,-0.018334238,0.047147874,0.05977404,-0.04690564,-0.112316325,0.020609742,0.05694526,0.13563243,-0.093441196,-0.18154514,-0.11394982,0.078713715,-0.11904704,0.14289498,0.033159085],[0.12722915,-0.109069474,-0.16048178,-0.08041989,-0.0018783076,-0.046713952,0.10793598,-0.03745469,0.02014702,-0.22202297,-0.00980373,-0.081867434,-0.0028878294,-0.09037752,0.05971352,-0.08123388,0.085282356,0.16619028,-0.07357492,-0.051226992],[0.03206574,0.09712858,-0.060295507,-0.017196849,-0.12570557,0.013229829,0.311094,0.021958325,-0.0147999115,0.027649654,-0.012881771,0.070723094,0.043915465,-0.0885682,-0.08750336,-0.12961705,-0.04033002,0.17237253,0.005754099,0.076636754],[-0.07412137,-0.01112479,0.15951401,-0.15628321,0.07960322,0.007311793,0.16726923,-0.07201317,-0.028730517,-0.16397114,-0.0724774,-0.1221229,-0.03244991,-0.043606292,-0.05778494,-0.037454337,0.16651398,-0.07100739,-0.14189225,0.09822223],[-0.040251903,-0.055444185,-0.06357096,0.07035626,-0.17553435,-0.007440743,-0.057886843,-0.018065777,0.10303838,0.016813928,-0.09248409,0.047343787,-0.054609,-0.1778593,-0.04564123,-0.110073194,-0.067341834,-0.06102045,0.15980875,0.027453596]]},{"biases":[0.045068406,-0.11667511,0.13464646,0.050625693,0.23236035,0.19063078,-0.017892437,0.010174075,0.08150287,-0.060239058],"values":[0.0,0.0,0.0,0.0,0.0,0.0,0.0,0.0,0.0,0.0],"inputWeights":[[0.10490208,-0.029180031,0.054134943,0.029760068,0.020084199,-0.02010804,0.022735955,0.061077964,-0.06621972,-0.046003945],[0.019776098,-0.15995993,-0.05001017,-0.025561556,-0.27133858,0.043168765,0.014215273,0.03883962,0.044297516,-0.078154884],[-0.1719435,-0.048345573,0.031567235,0.08302284,0.042481855,0.0508909,-0.22657941,-0.04278427,0.07109841,-0.14036658],[-0.026361596,0.010598766,0.034047876,0.051641483,0.032921672,-0.04401406,0.10614357,0.045919836,0.020367356,0.16354318],[-0.18809718,-0.24173367,-0.08650352,0.06059429,-0.08899155,0.25738952,-0.0613144,0.07375321,0.04638667,-0.024031367],[0.10815441,0.062299863,-0.0069496366,0.002697645,0.06968858,0.07333662,0.10156652,0.15311688,0.028351367,-0.08445999],[-0.00959941,0.020787848,0.13992465,-0.054515235,0.035766233,-6.258836E-4,0.0077640717,0.110292874,-0.042510185,0.054426532],[0.03510306,0.099043235,-0.056600362,0.037150487,-0.07528766,-0.02291619,-0.10423903,-0.070303835,0.055868518,-0.24186713],[0.061595507,-0.064353086,0.027007272,-0.054358434,-0.22741675,0.23549962,0.3183232,-0.011790352,-0.034114048,-0.10045192],[0.011152392,-0.001069793,-0.096895516,-0.07537688,0.18392229,-0.039855644,-0.1259468,-0.009280394,-0.16504171,0.023393735]]},{"biases":[0.10205361],"values":[0.0],"inputWeights":[[-0.022739444,-0.053263612,0.033984043,-0.04060341,0.07180554,0.029901104,-0.18442522,-0.025453275,0.01346068,0.056377117],[-0.15980476,-0.015898377,-0.0017490621,0.10719528,0.051290773,0.039398205,-0.16372159,-0.086383015,0.06372047,-0.12268662],[-0.14209747,0.08093682,0.115420856,0.12782401,0.02233738,-0.08248581,-0.019441212,0.016109426,0.1729404,0.077761725],[-0.18669404,0.058522582,0.013362593,-0.07892238,-0.012777986,0.07204959,0.0065187113,-0.0505423,-0.17995006,-0.019975754],[-0.121498145,-0.18513086,0.038786836,0.024152111,0.20737138,0.051049814,-0.07511922,-0.034113433,0.14048526,0.10736495],[-0.015617,0.040938303,-0.26278213,-0.03519579,0.04315767,-0.028409202,0.047518633,-0.18824318,0.16468573,-0.060023904],[-0.16223986,-0.021499936,0.033350658,0.06388821,-0.22434765,0.12318134,-0.015040391,0.09005024,-0.1359145,-0.12341876],[-0.14135994,0.069367036,0.001417313,-0.16787443,0.047208868,0.11613762,0.07200491,0.065147705,0.06496171,0.051077016],[0.07283239,0.11439411,-0.019137895,-0.030498149,-0.055239797,0.11090773,-0.061483465,-0.13866918,0.11023746,-0.15781412],[4.9383845E-4,-0.009966701,0.049241368,0.08762832,0.007994985,-0.01882956,0.07453429,-0.008270555,-0.10055326,0.087479934]]}]}},{"fitness":0,"neuralnetwork":{"inputLayer":{"biases":[0.0,0.0,0.0,0.0,0.0,0.0,0.0,0.0,0.0,0.0,0.0,0.0,0.0,0.0,0.0,0.0,0.0,0.0,0.0,0.0],"values":[0.0,0.0,0.0,0.0,0.0,0.0,0.0,0.0,0.0,0.0,0.0,0.0,0.0,0.0,0.0,0.0,0.0,0.0,0.0,0.0]},"layers":[{"biases":[-0.07059527,-0.0622309,0.10176544,-0.099595785,-0.009010013,-0.034558497,-0.017412506,-0.06387145,-0.025216246,0.09351739],"values":[0.0,0.0,0.0,0.0,0.0,0.0,0.0,0.0,0.0,0.0],"inputWeights":[[-0.02052835,0.07279491,-0.02488494,-0.09414507,-0.028971361,0.029380377,0.30085576,-0.12020245,0.05002719,0.19492725,-0.16369796,0.0063300338,-0.1478525,-0.13697806,-0.020182908,-0.08963211,-0.10468113,-0.13551286,0.040092774,0.14644392],[-0.077226385,0.022670586,0.1475056,-0.04482167,-0.02736176,0.0867404,0.11577961,0.10682778,0.018210074,0.074230984,-0.05205369,0.021762282,0.20380045,-0.04086731,0.07202151,0.057601724,-0.1283904,-0.15032302,0.0024150829,0.09163836],[0.049039584,-0.1578599,0.03978433,-0.07257879,0.09595652,-0.055761654,0.28472444,-0.05360703,-0.021045635,-0.06767274,-0.04736265,-0.00912244,-0.0767134,0.010342593,-0.10793738,-0.07014688,0.14165959,0.1091622,0.027937746,-0.0038681887],[0.03538477,-0.027364915,-0.18823725,0.018105095,0.040569864,0.0044699023,-0.10254041,0.018339416,-0.21480028,-0.057310823,-0.088654384,-0.04587694,0.14748244,-0.06253122,0.12020178,-0.021872168,0.017877188,-0.09597735,-0.034151312,-0.102313176],[0.040409904,-0.018002177,0.08455291,0.08558218,-0.038278386,-0.02168648,-0.1911887,-0.083451115,-0.11702723,-0.053624015,0.10399477,-0.094490826,-0.03714774,-0.054371122,0.1622414,-0.11385542,0.014316515,0.0147974575,-0.07434391,0.1405452],[0.008079618,0.0016577526,-0.027913108,6.659781E-4,-0.10010687,0.1887133,-0.0588757,0.020763574,-0.016333561,0.053056307,-0.047776002,-0.11230936,0.06546526,-0.009706412,-0.034635235,0.059587944,-0.11196926,0.2041712,0.023029564,0.038384523],[0.008742434,-0.01169387,0.1862524,0.05282644,0.040356692,0.022528563,0.16942859,0.08518554,0.0059008123,0.046915513,-0.03452872,-0.13181818,-0.0027985985,-0.09949181,-0.09136543,-0.027059179,0.024965812,-0.13395934,-0.002898632,0.077837445],[0.0067005805,-0.08304464,-0.008965533,0.008968193,0.17425285,0.056135785,0.014161801,0.09031098,0.14513065,-0.057484828,-0.071204044,0.11827848,-0.087155685,0.06902718,-0.11474784,0.028520666,-0.10501594,0.08624336,-0.01113421,0.029765682],[-0.12792675,-0.07263759,0.23800366,-0.16298905,0.0019633248,-0.03439365,-0.04720795,-0.012736201,0.012919155,-0.13175765,-0.0010029179,-0.08242224,0.13071929,0.08834045,-0.047974188,0.093843915,0.0036762082,0.043684945,0.018054703,0.012342712],[0.06646811,0.0049841153,0.16677219,-0.111458644,0.096287064,0.0023450893,-0.18634373,0.06475504,-0.19220297,-0.09111312,6.760547E-4,-0.22105217,0.0340413,-0.10989052,0.027138239,0.03473393,-0.045469426,0.098343834,0.029608391,-0.13729854],[-0.014541096,0.1367003,0.070881784,0.026184212,0.13451433,0.12055405,-0.03603864,-0.01819599,0.12272854,0.02035925,0.087618396,-0.0017202878,0.07285556,-0.109850645,-0.04290532,2.2908633E-4,-0.0668525,-0.00653054,0.06409712,0.004521585],[-0.032576174,0.19014508,0.15917479,0.1309216,0.007463719,0.044914667,0.017009774,0.057986714,-0.03561074,0.13255696,0.13898952,-0.17723428,-0.21832588,-0.1493035,-0.13850129,0.093114495,-0.18562748,0.07331991,-0.0108587025,0.085254595],[-0.012055346,0.26472428,-0.042162377,-0.010788318,0.07551395,0.012666465,-0.12591885,-0.2785957,-0.06491571,0.03734577,-0.0066853845,-0.064616844,0.0064118817,0.09869698,0.05461751,-0.1385734,-0.094573185,0.034149848,-0.008714525,0.14049956],[0.11322935,-0.08231047,0.07553167,-0.007059063,-0.017463874,-0.043161098,0.0657539,-0.082407996,-0.09177189,-0.048371084,0.044662334,-0.0389894,-0.081083186,-0.22691801,0.06918087,0.14050353,-0.11122738,-0.14867248,-0.12009667,-0.06250129],[-0.11193426,0.14022118,-0.015099784,0.11572653,0.114218004,-0.0065892283,0.041503325,0.0012799891,-0.12892498,-0.09130854,0.018752739,0.13092512,-0.05169665,0.036065273,-0.03857238,0.1343309,-0.029462086,0.023395827,-0.14978226,0.006886544],[-0.13550597,0.109093904,-0.054248244,-0.045005575,-0.07913051,-0.038810715,-0.040678833,0.097866856,0.0292341,-0.06396279,0.09147381,0.07216059,0.03710875,-0.07395098,-0.1430951,0.12734593,-0.008423955,-0.12509839,-0.03696254,-0.13483398],[0.03695409,-0.0014461838,-0.06999319,-0.22514674,-0.08542697,-0.1331565,0.17739953,0.17502841,-0.13904808,-0.0995935,0.050711524,-0.010254516,-0.16514537,-0.057491,0.21590234,-0.018977419,-0.04268085,-0.07188764,-0.18286201,0.043673854],[-0.039330494,-0.02217932,0.23032406,0.03801343,-0.12376428,0.1982873,0.03967458,0.10298822,-0.15697353,-0.08188923,0.22560652,0.045714878,-0.16786121,0.11144342,-0.07138557,-0.01906567,-0.008816742,-0.037121266,-0.005106554,0.064384036],[0.070488214,0.021990389,0.18200766,-0.15647931,-0.15208891,0.1368888,-0.112884805,-0.04447485,-0.015135971,-0.026369745,0.09026768,0.01905011,-0.1422216,0.11324785,0.013096645,0.036371686,-0.0034073165,-0.09397391,-0.016917454,-0.10688277],[0.066977985,0.08280023,0.16086912,0.10617541,-0.031316962,0.14251861,-0.14233579,0.1626779,0.03597061,0.061902314,0.10094425,-0.05250084,0.046566356,0.14211252,0.016753107,0.053736325,0.15022841,-0.052900154,0.11665655,-0.03234133]]},{"biases":[0.05162807,-0.030792441,0.031993672,-0.05484053,-0.19779387,0.095850475,0.031510886,-0.11597526,-0.12970106,0.10748863],"values":[0.0,0.0,0.0,0.0,0.0,0.0,0.0,0.0,0.0,0.0],"inputWeights":[[-0.027276345,0.04157567,0.053960316,-0.07957878,0.013417801,-0.13556953,-0.19142674,0.023701178,-0.03435765,-0.16453654],[0.012217242,-0.009710337,0.026626162,0.0116655575,-0.027877674,-0.0037383218,-0.05752822,-0.045112632,0.055993937,-0.0045562317],[-0.18308361,-0.05760788,-0.09199379,0.066770636,-0.188905,0.099706106,0.0108101,-0.1964295,-0.09537952,0.026207378],[0.028233605,-0.04082921,-0.20035528,0.057807203,0.08016253,0.08524548,-0.06309331,0.17025219,0.16446872,0.13121235],[0.21236047,0.059072394,-0.043733172,-0.08614751,0.040325735,-0.110127494,0.06987574,-0.031887848,-0.0190266,0.19451961],[0.03391364,0.04398149,0.10923876,0.005338502,-0.10012801,-5.5726955E-4,0.11295185,-0.023908872,-0.11525053,0.14624499],[-0.030547483,0.12996364,-0.00993217,0.062061492,-0.23685351,-0.06204329,-0.0690544,0.012436527,0.07705569,-0.10841983],[0.0019007622,-0.14650247,0.17072122,0.051981114,0.13258931,0.1345637,-0.02713645,-0.017789073,0.11234414,-0.097164474],[-0.09071723,-0.0152403405,-0.12192804,-0.14076236,-0.08396615,-0.13602625,0.05172863,-0.04567523,0.06540211,-0.034241218],[-0.043235164,-0.024951495,0.062827654,0.07811772,-0.071620725,-0.003873659,-0.017152809,-0.12566453,0.05274465,-0.14764963]]},{"biases":[-0.0804705],"values":[0.0],"inputWeights":[[-0.0492004,-0.21213579,0.063405134,-0.13317306,-0.11344992,0.15769611,0.06073528,-0.20178148,0.05201008,0.14334683],[0.120397665,0.12819703,-0.18747815,-0.037618425,0.05742305,-0.04025847,-0.058960933,0.1782451,-0.08454492,0.13824609],[0.1854429,0.14415333,-0.024470229,-0.059687175,0.03121143,0.048809823,-0.020648615,0.04090304,-0.16698983,0.15131314],[0.064354956,-0.014592159,0.08049381,-0.1027532,-0.23417188,0.100666285,-0.16387908,-0.018269224,-0.113283575,-0.0362966],[-0.017760552,0.044968527,0.0113301845,-0.05584565,-0.037627723,-0.011860855,0.060042202,-0.14358404,0.037478942,0.10988133],[0.05147678,0.02760505,-0.007409137,-0.07279326,0.09931409,-0.048996497,0.0051297992,-0.07182178,0.16047779,-0.020046428],[0.17930281,0.12009068,0.21488544,-0.0035905044,0.02220266,-0.051569525,-0.09693391,-0.080127604,0.14998384,-0.029528901],[-0.20523931,-0.005690939,0.0014462064,0.16819273,-0.047825642,-0.04063724,-0.011837806,0.019921167,0.021625124,1.223891E-4],[0.02251271,0.14350764,-0.053031232,0.037809998,-0.026630076,0.15401268,-0.030193297,0.18653335,0.09719393,0.08894093],[-0.016721487,0.19101827,0.039138068,-0.045613114,-0.038562886,0.034904905,-0.07831674,0.05009823,0.033946022,-0.11172584]]}]}},{"fitness":0,"neuralnetwork":{"inputLayer":{"biases":[0.0,0.0,0.0,0.0,0.0,0.0,0.0,0.0,0.0,0.0,0.0,0.0,0.0,0.0,0.0,0.0,0.0,0.0,0.0,0.0],"values":[0.0,0.0,0.0,0.0,0.0,0.0,0.0,0.0,0.0,0.0,0.0,0.0,0.0,0.0,0.0,0.0,0.0,0.0,0.0,0.0]},"layers":[{"biases":[0.17212641,0.03677755,0.09142382,-0.058237437,0.15303248,0.06665187,0.009578611,0.07567034,-0.018122727,0.06893141],"values":[0.0,0.0,0.0,0.0,0.0,0.0,0.0,0.0,0.0,0.0],"inputWeights":[[8.080161E-4,-0.10162818,0.042235125,-0.11908998,0.09369327,0.14621875,-0.16280514,0.01900005,0.13799243,0.047867198,0.01709539,-0.060844127,0.008021493,-0.0025385737,-0.104645684,0.08750578,0.16457944,-0.1372848,0.17913173,-0.021163186],[-0.053785622,0.05608819,-0.077630214,0.05393325,-0.040059254,0.1750764,0.0012848249,0.11242894,-0.21071002,-0.022960564,-0.06598608,-0.13435362,-0.33451143,-0.14667873,-0.17839,0.08670402,0.055486992,-0.10885098,-0.2180731,0.038224112],[-0.031423017,-0.08246303,0.11485665,-0.11256444,0.008693538,-0.13375889,0.065128244,-0.04703678,-0.12412881,-0.06899773,0.14106858,-0.0035053513,0.07987703,0.11560428,0.0010709515,0.076298274,0.066622786,-0.10717148,0.00621418,0.036969177],[0.06983129,-0.24852899,-0.11015416,-0.09942432,-0.23292872,0.15888983,0.09779411,0.040764626,0.01608414,0.13274546,-0.033398453,0.07171868,-0.064396866,-0.070965745,-0.07727175,-0.05667385,0.035550553,0.13494638,0.16334754,-0.060972225],[0.06347339,0.16064732,0.02956412,-0.0075834016,0.0848355,-0.014141343,0.01656349,-0.088090345,-0.17971739,-0.04435981,0.034119155,-0.0879802,-0.16099216,0.013042474,0.17355902,0.05523628,-0.16863443,0.14373465,-0.1256103,0.099804014],[-0.24573046,0.09825579,-0.062249053,0.02074754,0.01790689,-0.13497025,-0.02387248,0.12850718,-0.10535437,-0.06287961,0.06578586,-0.014394142,9.7509346E-4,-0.018648826,0.08525316,0.02199604,0.3952277,-0.12132606,-0.1033077,0.07048217],[-0.12626281,0.14199275,0.018287648,0.08063312,-0.19070363,0.08843264,-0.019349622,-0.23092078,0.16475579,0.046764713,0.08305417,-0.021494543,0.046439674,0.18844046,0.004295547,-0.10563096,-0.054770485,0.08548072,0.08885578,0.13789186],[-0.0042892303,0.110149905,0.0728044,0.045671243,-0.089841925,-0.08011828,-0.1629768,-0.016299156,-0.018999832,-0.05346164,-0.037526865,0.023926817,0.024303013,0.068996616,0.011501335,0.04846278,-0.18943635,-0.13767946,0.01760629,-0.1398422],[0.18013313,0.012507524,-0.0855708,0.008059103,0.12616026,0.012886746,-0.08344719,-0.07244179,0.11504387,0.11130124,0.08523099,0.063281246,-0.020121869,-0.077382475,0.1574123,-0.20576724,0.082052305,-0.08508989,-0.16726673,-0.0669623],[-0.044131607,0.18379922,-0.013179597,-0.18954809,-0.05937764,-3.4884686E-4,0.037490565,0.06770808,-0.07936145,-0.010189154,0.022841468,-0.14969324,-0.074434906,0.06919913,6.286783E-5,-0.0817034,-0.01880048,-0.032406185,-0.06802559,0.08634945],[-0.07316879,0.20640565,0.027234318,-0.11003277,0.007993131,-0.1318109,0.109852076,0.068862475,-0.04651674,0.09683431,-0.10291652,-0.039224997,0.18010184,0.03929046,-0.11622991,0.042942837,-0.14897332,0.07353817,0.15281954,-0.058521055],[0.036653623,-0.075210415,0.06882576,-0.07421338,0.055198792,-0.060873557,0.033885814,0.10769179,0.025632393,-0.068715625,0.04631038,0.08256733,0.01087503,-0.026742822,-0.058565933,-0.072569385,-0.11191819,0.1263302,-0.0047222553,-0.006800999],[-0.0600829,-0.083841756,-0.098728314,-0.023490211,0.0533397,0.08727527,0.20034713,-0.040889118,-0.05536459,0.21935363,0.09735085,0.08382809,0.0047209207,-0.04063543,0.089116886,-0.09097133,0.11856797,0.12488472,0.024301952,0.096184984],[0.066564396,-0.117553435,0.0027367931,-0.13809937,-0.07180391,-0.11057143,0.2391838,-0.027260935,0.0749208,0.050561003,0.11850641,0.036636047,0.046804484,-0.19556917,-0.03494956,0.2859174,0.16987403,-0.16826351,-0.019689327,0.036793113],[0.09345906,-0.0039756303,-0.13804206,-0.082890995,-0.09208549,-0.19346559,-0.061166536,-0.09359005,-0.036359426,-0.032889795,0.06084658,-0.07505249,-0.025660364,-0.057360638,-0.1691355,0.1333987,-0.08614661,0.010073902,-0.240242,-0.10616714],[-0.05919853,0.15806122,0.0100797955,0.11583662,-0.17816156,0.15888399,-0.039247237,0.049378574,-0.054452926,-0.19934812,0.004243381,-0.034371864,0.0837439,0.047676012,-0.103673935,0.07328847,-0.12452287,0.0030016848,0.030934902,0.053698134],[-8.7488175E-4,-0.009283008,0.023875598,0.1083467,-0.13278313,0.0115618715,0.035471637,-0.045572087,0.04083859,-0.019595496,0.06533853,-0.03438919,-0.15424426,-0.16202438,0.05695773,0.00988197,-0.25308204,0.11207796,0.11310753,-0.3321819],[0.17983927,0.14262365,-0.12099106,-0.0382178,-0.0023481601,-0.041746497,-0.07478909,0.011478631,0.06491572,-0.03771902,0.055561993,0.067900546,0.13541862,0.09644011,0.04512207,0.09333614,0.0931186,-0.16689943,0.07407652,-0.005445352],[-0.20280518,-0.10121344,-7.2674436E-4,0.0040857266,0.06253847,0.11390182,0.074965805,0.009936866,0.12554084,-0.020592941,0.10086415,0.14029871,-0.07632885,-0.0019209611,0.048352126,0.10345165,0.16068918,0.14364761,-0.04192422,-0.07725924],[0.053436287,-0.117508166,0.040007785,-0.18487804,0.16764702,-0.07666319,0.092889756,0.08303595,-0.014123411,0.04567313,0.03480853,-0.028248368,0.072009675,0.19997141,-0.08940523,0.14714111,-0.06921002,-0.012735561,-0.18075253,0.041618235]]},{"biases":[0.059506778,-0.120182306,0.17322613,0.03112769,0.09034554,0.032311052,0.11491116,-0.021997191,0.10564427,0.14602102],"values":[0.0,0.0,0.0,0.0,0.0,0.0,0.0,0.0,0.0,0.0],"inputWeights":[[-0.17160287,0.14333576,0.08137692,0.10220392,0.18101607,0.11987263,-0.04730004,0.03855817,-0.04197879,-0.04151321],[-0.099330515,-0.026615545,-0.116536975,-0.12302324,0.21119948,-0.05126101,0.050904475,-0.22982019,-0.17973651,0.10614824],[0.0075695547,0.01699654,0.15833426,-0.010360982,-0.07974483,0.12482144,0.05289826,-0.09558248,-0.08616104,-0.011614312],[0.011049963,-0.06512769,-0.020762783,-0.015171076,0.03097009,0.0030427624,-0.14070778,-0.044990025,-0.014288201,-0.014916415],[-0.1012941,-0.029030195,-0.041111253,0.09246224,-0.031097258,0.21998186,0.023200905,3.50447E-5,-0.035136014,-0.02993138],[-0.06250015,0.046598967,0.06319762,0.13834536,0.05073099,-0.12468864,-0.013796501,-0.050577592,-0.05528414,0.0945049],[0.04612936,0.048941005,0.04944793,0.04096432,0.035375908,0.09756519,-0.0043273447,0.24434988,-0.039363764,0.21966918],[-0.07882357,-0.07357613,0.13760379,0.037371237,0.2507529,0.065174215,-0.13573848,0.09866889,-0.048918247,-0.061614685],[7.6107617E-4,0.16465387,0.04711182,-0.07060713,-0.16004574,-0.019600341,-0.13984662,-0.08872565,0.12094571,0.033434965],[0.16102345,0.09587475,0.118717626,-0.046793874,0.1187821,2.5982238E-4,-0.0534671,0.11617586,0.030386731,0.04372391]]},{"biases":[0.05595485],"values":[0.0],"inputWeights":[[0.018836152,-0.108308755,0.048664395,0.03891653,-0.10981,-0.08254525,0.16072968,0.0897054,-0.15189487,-0.012930692],[0.055952005,-0.065202475,0.043186396,0.0022652664,-0.048703507,-0.083968945,-0.03758364,-0.017504236,0.09528842,-0.019126723],[-0.013826838,0.052246016,-0.13613771,0.06326495,-0.15695103,-0.14362206,-0.14589474,-0.001387434,0.018552756,0.16174722],[0.059921928,-0.03564929,-0.19002722,-0.14367396,-0.026438357,0.012162026,-0.09286374,-0.12630884,-0.110056296,0.09707207],[-0.01516106,-0.08081947,0.12079112,0.14533845,-0.0030961186,-0.18018252,-0.0092939455,0.048960373,-0.023995027,-0.21985114],[-0.05886489,-0.02213458,-0.057484496,-0.09567744,0.010245213,0.23010118,0.06063894,0.02294468,0.067299224,-0.09625708],[0.030243663,0.065726474,-0.08432262,-0.007280848,0.011289564,0.12268078,0.06938309,-0.0093071675,0.0162036,0.04364887],[0.041301582,-0.0053272084,0.0033416064,-0.009173818,-0.14013773,0.086994566,0.100028574,-0.1158169,0.084031455,0.110741176],[-0.08098913,0.068723224,-0.027341608,-0.037740987,-0.03138215,-0.09668046,0.09894933,-0.09883303,-0.092081115,-0.22260335],[0.0047016186,-0.17830355,-0.17328478,-0.086402625,-0.09728396,-0.097066216,-0.17326207,0.02128547,0.0431364,-0.10606556]]}]}},{"fitness":0,"neuralnetwork":{"inputLayer":{"biases":[0.0,0.0,0.0,0.0,0.0,0.0,0.0,0.0,0.0,0.0,0.0,0.0,0.0,0.0,0.0,0.0,0.0,0.0,0.0,0.0],"values":[0.0,0.0,0.0,0.0,0.0,0.0,0.0,0.0,0.0,0.0,0.0,0.0,0.0,0.0,0.0,0.0,0.0,0.0,0.0,0.0]},"layers":[{"biases":[-0.0132255275,0.02602015,0.06872597,-0.07369734,-0.04656805,-0.19397789,0.16516954,-0.13326252,-0.16806759,-0.1577633],"values":[0.0,0.0,0.0,0.0,0.0,0.0,0.0,0.0,0.0,0.0],"inputWeights":[[-0.0035885074,0.0021134997,0.061307605,0.031540874,-0.19587241,0.039288156,0.0164002,-0.009403947,-0.0637462,-0.030952608,-0.076541014,0.009450018,-0.012404597,0.011746528,0.12577604,-0.11799357,-0.0104756355,0.100278914,-0.050393987,0.047525384],[0.0144221205,0.029704528,-0.025052408,-0.086652465,-0.15342341,-0.140004,0.03449149,0.119690165,-0.08848325,0.0022607392,-0.03983786,0.12206177,0.19529307,0.0071469815,0.025675066,0.07320674,-0.053337336,-0.06006476,0.027892578,-0.036390815],[-0.02489843,-0.024479749,-0.01722434,-0.055729043,0.015703777,0.011444161,0.1100247,-0.12469348,-0.045827784,0.018246204,0.014640418,-0.006716652,0.025476536,0.049153153,-0.07835203,0.11923122,0.13131794,0.005764637,0.035530586,0.0763505],[-0.013886265,0.093908705,0.040176716,0.036827214,0.10195704,-0.006231619,-0.1226356,-0.08234399,-1.4742791E-4,-0.035339974,0.1776866,-0.09639832,0.040204477,0.044678137,-0.005327927,0.108976014,0.049505517,0.0746459,-0.12221047,-0.06947638],[-0.020128997,0.020237165,-0.053362824,0.0038900636,-0.08011268,0.08368746,-0.0148748625,-0.13417844,0.06996095,0.1278194,-0.075028725,0.09612384,0.1037893,0.062851645,0.06844205,-0.12610102,-0.05409264,0.2936959,-2.7561595E-4,0.07658731],[0.07430232,-0.12960553,-0.007253514,-0.07120197,0.10625041,0.069785364,0.04738049,0.027058624,0.045380514,-0.05600288,-0.09550411,0.30425388,0.060875077,0.06648652,-0.28684995,0.016628485,-0.015586235,-0.003137768,0.0049557798,-0.2156331],[-0.05266832,0.07715034,-0.034860075,-0.052716017,-0.083818555,-0.02800738,0.071271576,0.117775425,-0.025742756,-0.19617042,0.21489386,0.05476098,0.016456734,-0.052049316,-0.104644515,0.16556047,0.024121758,-0.06725432,-0.032301627,-0.27022365],[-0.007683248,-0.13665158,0.006428436,0.0722292,-0.031058995,0.009720146,-0.042084686,0.12665026,-0.0929744,-0.19174728,0.014254605,-0.16659303,-0.32914376,0.032962717,-0.024330417,-0.108024,0.1426781,0.100454405,0.01847114,0.06667428],[0.32087594,0.1101078,-0.0658482,0.0011289185,0.15906185,-0.1259914,-0.14786209,-0.008301495,0.26809394,0.17952693,0.036402017,-0.17249158,0.085070394,-0.11012942,0.013053907,0.062727466,0.017173002,0.04461515,0.014855273,-0.07169579],[-0.030160476,0.025953664,0.113171026,0.027645677,-0.0654642,0.06777281,-0.05787546,-0.064870924,-0.081318535,0.056124773,-0.0335891,-0.019064395,0.002047311,0.0081559755,-0.024848325,-0.029105224,0.069074444,-0.07500943,0.028234087,-0.04163319],[0.09113811,-0.064547434,-0.197558,-0.22641268,-0.12751928,-0.025592502,0.076772965,0.030220438,-0.24508813,-0.022773337,-0.07057062,-0.011513976,0.049726903,-0.02049331,-0.019228853,-0.01523369,0.20555216,-0.011268518,-0.07184941,0.007442529],[-0.05764882,-0.04726104,0.0021975362,-0.008459603,-0.044373855,-0.021800946,0.15141305,0.039627675,-0.08607049,-0.015921159,-0.03525713,-1.5962542E-4,0.04785001,-0.2400529,0.1293861,0.022631723,0.046063215,0.23016933,0.1570128,-0.1751608],[-0.16456866,-9.894128E-4,-0.013055013,0.033016227,0.0031311077,0.0026817443,0.06869449,0.110312045,7.608767E-4,-0.04466431,0.03255326,-0.012683791,-0.021338899,0.15923296,-0.09311132,0.013063082,-0.094854906,0.124289796,0.04176726,0.08513542],[0.12680879,-0.16193347,-0.06632904,0.013943573,-0.034543153,0.12554674,0.050598443,0.14183956,0.023680514,-0.026125504,0.041626967,-0.03123397,0.26743683,0.17299841,0.020013941,-0.14478496,-0.046277598,-0.11023797,-0.0059696017,0.11154093],[-0.061546262,0.0055109896,0.07793707,-0.07288276,0.06036461,0.14554113,0.09879126,-0.002096226,0.0686757,-0.0454449,0.035461776,0.051682953,0.0017390476,-0.0899091,-0.04229591,0.03332468,0.16064645,0.10918727,-0.015974851,0.03271846],[-0.11259435,-0.2722277,-0.0852529,-0.057359256,-0.050016623,0.08850366,0.09814505,0.11695683,-0.13934447,-0.18179505,0.07396623,-0.22298586,-0.0010418926,-0.1893524,0.076678395,-0.1458871,0.12795746,0.0040681036,0.026563622,-0.10826227],[-0.037154716,-0.040278476,-0.033658046,0.0905212,0.034008224,-0.14907321,-0.048173703,-0.04521153,0.06195985,-0.08018021,0.1052401,-0.054583732,-0.13417618,0.05088921,-0.045390204,0.11894477,0.110592976,-0.14338547,-0.19595905,-0.0016831518],[0.041564774,-0.01793118,0.07951292,0.106285654,0.099276684,-0.12452497,-0.06989494,-0.031013636,0.103353254,-0.00151177,0.06948874,0.010736376,0.023739127,-0.107975446,-0.035213586,-0.00352711,0.039003912,0.09288092,-0.008347823,-0.14387907],[0.0054293363,-0.0670926,0.10743879,0.110841386,-0.013993651,0.028939834,0.10633556,-0.07805254,0.02100712,0.111085095,0.009633211,-0.049158487,-0.057877053,0.1218954,0.06744767,-0.17511784,0.09333954,-0.06971157,-0.0260182,-0.058982007],[-0.14752525,0.08365651,-0.08923899,0.13401595,0.037253506,0.119622745,0.12929016,0.039144985,-0.076632425,0.1569969,0.13395886,-0.28076273,-0.057137206,-0.07286116,-0.048699904,-0.025535528,-0.07033721,-0.16552423,0.025529036,-0.026325481]]},{"biases":[-0.15304221,0.05135211,0.12523948,-0.0068355994,0.10379211,-0.07389289,-0.014656956,-0.11143578,0.01915972,-0.10699556],"values":[0.0,0.0,0.0,0.0,0.0,0.0,0.0,0.0,0.0,0.0],"inputWeights":[[-0.10198247,-0.15540779,-0.04456967,0.03520417,-0.06641852,0.061614994,-0.04519842,0.028563399,0.15560971,-0.09345592],[0.09686138,0.05527599,0.08648957,-0.02781259,-0.12731615,0.06553263,-0.17224832,-0.0913961,-0.07499171,-0.079538755],[0.0024963268,0.050352342,0.09376141,0.0067374166,0.055810716,-0.016712375,0.20962954,0.18066514,-0.045139305,-0.09966382],[-0.008190239,-0.017168967,-0.10111906,-0.033054247,-0.04547976,-0.10155973,-0.03984121,-0.0732092,0.067295,-0.08853668],[-0.13675433,-0.10706963,0.09788397,0.07865831,-0.06748744,-0.06692376,-0.18833436,0.12485975,-0.032667797,-0.08408327],[-0.049449738,-0.0575945,0.03368801,-0.11557083,0.11814889,0.26669207,0.13084789,0.05155399,0.06100366,-0.16806099],[0.1290146,0.14653203,-0.20751372,-0.0068352167,0.0691931,0.017680576,-0.07081736,0.012000264,-0.073474735,0.18541063],[0.0035281125,0.0033728702,0.0010800423,0.050145224,-0.014385847,0.032334078,0.10633408,-0.017241225,0.15312052,-0.0017356181],[0.009994891,-0.15251398,0.023318376,0.051800713,0.041207016,0.0707281,0.17105764,-0.015850008,0.086304694,-0.15306444],[-0.16162804,-0.06646249,0.03162674,0.070616215,0.048704695,0.12605006,0.24888787,0.07630703,-0.0031514508,0.09088546]]},{"biases":[0.14861262],"values":[0.0],"inputWeights":[[0.013739772,0.1426832,0.14049295,-0.008079575,-0.06206068,-0.14036995,-0.04891546,0.0851511,0.0115478495,-0.0120530315],[-0.026460906,-0.12311225,0.22748148,-0.033694804,-0.026264869,-0.08236985,-0.101904936,-0.02333916,0.027875895,-0.016557628],[-0.027767008,-0.020048311,-0.029376747,0.04232466,-0.0018611891,-0.1601281,-0.23967427,0.08351782,0.2565234,-0.08493515],[0.05129502,0.093950376,-0.063012876,-2.985432E-4,0.0021477558,-0.048468456,-0.012012549,0.14531212,0.011225994,0.052988525],[0.11632518,-0.06351873,-0.115384266,-0.04748118,0.048107114,-0.030918844,0.051387575,0.035387408,0.15114444,-0.15387523],[0.19091871,0.15057817,-0.031278357,-0.007788505,-0.038361814,0.04301833,0.033234317,0.14259762,-0.23300545,0.11862414],[0.0394426,-0.014705033,0.018040435,-0.056773517,0.08108321,0.05937934,-0.09745925,0.14870337,0.08972804,-0.065800324],[0.08985904,0.19448645,-0.015020993,0.021350408,0.08249898,-0.120675676,-0.079093434,0.055796124,-0.019882435,0.10591208],[-0.13629088,0.0628639,-0.1746276,-0.14664418,0.032547057,-0.109317176,-0.1416903,-0.06110739,-0.018663693,-0.004064635],[-0.028253222,0.10684715,0.05782585,-0.0958387,-0.0071872966,-0.07123335,-0.05329758,0.050720997,0.04723065,-0.08055513]]}]}},{"fitness":0,"neuralnetwork":{"inputLayer":{"biases":[0.0,0.0,0.0,0.0,0.0,0.0,0.0,0.0,0.0,0.0,0.0,0.0,0.0,0.0,0.0,0.0,0.0,0.0,0.0,0.0],"values":[0.0,0.0,0.0,0.0,0.0,0.0,0.0,0.0,0.0,0.0,0.0,0.0,0.0,0.0,0.0,0.0,0.0,0.0,0.0,0.0]},"layers":[{"biases":[-0.06058781,-0.02036027,-0.042940874,-0.06765975,-0.047259513,-0.03942136,0.014269336,0.0074991607,-0.10314944,-0.10825456],"values":[0.0,0.0,0.0,0.0,0.0,0.0,0.0,0.0,0.0,0.0],"inputWeights":[[-0.022665806,-0.13548826,-0.14506868,0.020134306,-0.080824375,0.08991443,-0.07754928,-0.034817677,0.10923205,-0.1276293,0.117039174,0.120000444,-0.099715605,-0.0035318122,-0.062853955,-0.03467917,0.04849443,-0.003462396,-0.014262738,0.030719323],[0.06242973,-0.053817514,0.08011177,0.020746829,0.05157173,0.13316183,-0.0818356,-0.22791542,-0.10212398,-0.15793864,-0.09898142,0.0022325462,-0.072969675,-0.2209689,0.16901335,0.0011066723,0.15583739,0.016682351,-0.07663324,0.0930591],[0.111443296,0.01659155,0.032128267,-0.008847117,0.12642094,0.07896161,-0.05694046,0.047334082,0.03557575,0.044635538,-0.085179955,-0.047580425,0.059503533,0.14042497,0.14514732,-0.07237958,0.012241875,-0.086867765,0.114332736,0.008254098],[-0.055086758,0.024985062,-0.09492362,0.14035206,-0.1800891,0.11902826,0.010632344,-0.032308564,0.044862375,0.1440131,-0.009961218,-7.306966E-4,-0.012778673,-0.06586734,0.08751003,-0.0021073502,0.13507614,0.11112238,0.16291346,-0.024996692],[0.052777454,0.034658603,0.056369547,0.2020051,-0.17404066,-0.03092706,0.1516292,-0.11261025,-0.26217356,0.08888889,0.028984338,0.13811734,0.07055011,0.1407281,0.045350127,-0.045466125,0.07726971,-0.17670766,-0.023238225,-0.02948655],[-0.067063354,-0.17484994,0.024304567,0.038938858,0.024228401,-0.0048879976,-0.075387016,-0.27514544,0.013820379,0.016820291,0.10664106,-0.086988784,-0.072474115,-0.018174207,0.048949808,0.043440778,-0.014265708,0.29661858,0.08437842,-0.17925121],[0.19422641,-0.024078634,-0.14674824,-0.0010685633,-0.08091221,0.138153,-0.10552946,-0.12136328,0.15778531,-0.07193675,-0.055432066,-0.10214504,0.010894344,-0.016298236,0.11313118,-8.0505246E-4,-0.027899776,0.024618665,-0.022128208,0.037738916],[-0.1496468,0.1953848,0.13539013,0.014325382,0.028540375,0.14346267,-0.0036996722,0.1382208,-0.15668997,-0.18273856,-0.11514463,0.1633249,0.064794615,-0.017358141,0.045756806,-0.04963804,0.09307035,0.06838812,-0.08628825,-0.07049049],[-0.042537574,-0.044517096,-0.20376967,0.035502642,0.1726651,-0.017443797,-0.10233977,0.07402811,0.056117628,-0.16854924,0.126649,-0.13866895,-0.039058037,-0.015190063,0.110111944,-0.032586765,0.24141034,0.21187785,0.13384432,-0.04040106],[0.002062075,-0.07198042,-0.055099122,0.07617041,0.043293003,-0.051284224,0.13959724,-0.12318509,-0.032141577,-0.06741743,0.061029617,-0.022781117,-0.09209223,-0.010974498,0.080235,0.18274125,0.34903467,0.012678079,-0.068156034,-0.08844736],[-0.13943313,0.0012354784,-0.00451514,-0.0016517346,0.04825382,-0.1323214,0.14565559,-0.046658363,-0.08315478,0.0877842,0.056381665,0.18833631,0.013985812,0.10159033,0.014607414,-0.03296766,-0.1362283,-0.07741894,0.068691045,0.009312489],[0.08475454,-0.08572173,0.0724484,-0.0968367,0.041715454,-0.034472235,-0.045407686,-0.27202603,0.022059953,0.01916307,-0.18865587,0.15531726,0.011941334,0.035531938,-0.053963713,0.026419807,-0.025578056,-0.22531255,0.04517389,0.08127949],[-0.096619904,-0.06532753,0.052275397,-0.034215417,-0.024673844,0.020994803,0.16535431,0.012277491,-0.041888703,0.06801816,0.016733553,0.004728234,-0.00392246,-0.10751145,-0.0481592,-0.09097973,0.03669346,0.013953219,0.15968852,-0.10353332],[-0.024312437,-0.010168864,-0.018972496,-0.056560174,-0.10154769,-0.16888008,0.14912686,-0.088412516,0.16422963,-0.04397756,0.06275931,0.12982321,-0.054734446,0.11140683,0.010388665,-0.039774504,0.02639156,-0.059872646,-0.05249146,0.11388403],[0.042287726,0.14034587,-0.06353008,0.11737945,-0.15692517,-0.13336635,-0.059737634,0.043778393,0.017939331,-0.09452998,0.12150079,0.04540966,-0.110114835,0.018172912,-0.025854941,-0.050766077,0.2398348,0.015846252,-0.058393426,0.05294954],[-0.09593839,0.10043441,-0.10534545,-0.0042865267,0.133472,0.047348056,-0.120569736,-0.02790896,0.02368402,-0.018143615,-0.09721565,0.0054842858,0.11005766,-0.09584582,0.0034505695,0.033710614,0.12677486,0.011570844,0.0049939733,0.034112137],[0.1323459,-0.04663475,-0.23499624,-0.03659944,-0.01893248,0.20247823,0.052144725,-0.12022072,-0.08414534,-0.049243663,-0.004649109,0.14072628,-0.08689682,0.17305605,-0.23129548,-0.15255712,0.12877999,0.047956705,0.1696375,-0.15135218],[0.12926899,-0.057163585,5.7403155E-4,-0.059004694,0.05293727,-0.08357966,-0.032408074,0.08128455,0.02732831,-0.13986246,0.034942802,0.031537224,0.047641903,0.14671567,0.2209016,0.15272678,0.044181265,-9.511739E-5,-0.033423115,0.003968025],[-0.1703902,-0.15602504,0.03998163,-0.045009304,-0.04244173,0.084923714,0.14464124,-0.02552598,-0.08714908,-0.065381676,0.021811415,0.026510842,-0.083848715,-0.08086785,-0.029992023,-0.01632755,-0.133568,-0.13374934,0.11089774,-0.05309705],[0.054327995,0.03134568,-0.08146634,0.12440651,-0.03204091,-0.2072606,-0.0074167894,-0.07981692,0.17210029,-0.046984218,-0.05448687,0.09297807,0.044729438,-0.09478432,0.04031139,0.06322644,0.065830186,0.056499407,-0.043115858,0.062358774]]},{"biases":[-0.0027982742,0.03278285,0.012223371,0.07208401,0.16997364,0.014453546,-0.045531802,-0.112052195,-0.08654836,-0.022711974],"values":[0.0,0.0,0.0,0.0,0.0,0.0,0.0,0.0,0.0,0.0],"inputWeights":[[-0.051955424,0.047358196,-0.02955437,0.13657817,-0.0011343004,9.686223E-4,0.03144949,-0.015238086,0.20725055,0.025674595],[0.21399452,-0.02892581,0.040460162,0.0056718555,0.02968606,0.1617457,0.025101684,0.029422993,-0.16046266,0.18160406],[-0.03614335,0.019406281,-0.07262687,-0.018936193,0.055897262,-0.053671926,-0.12320117,-0.1005289,-0.1270331,0.028606681],[0.019329278,-0.03837928,-0.016099524,-0.031871047,0.047986966,0.110911205,0.06605717,-0.03941607,-0.038517978,-0.12536447],[-0.02959675,0.05027457,-0.1701311,-0.11936265,-0.14032836,-0.0889366,0.014951495,-0.024433866,0.22026876,0.1110315],[-0.09294596,-0.037051465,0.015026758,-0.048351508,0.015842235,0.068267874,-0.058464397,-0.055320542,-0.005420445,-0.04017608],[-0.057980947,0.13172221,0.0041993726,-0.055191386,-0.0760824,0.10122215,-0.0073252614,0.003965961,-0.006279735,0.032998465],[0.03023803,-0.013876543,-0.0590879,-0.11847,0.05343231,0.1119198,0.15148242,0.10730326,-0.12170439,-0.046899416],[0.10037125,0.14401086,0.058455,0.013532567,0.010756969,0.005518281,0.0035234082,0.0767692,0.15964462,0.08042733],[0.06465574,-0.02767422,0.07201355,-0.06849773,-0.05468449,-0.050153475,-0.13035941,-0.10752884,-0.011055478,-0.077174276]]},{"biases":[0.15733327],"values":[0.0],"inputWeights":[[0.031073755,0.13162866,0.009781868,-0.059273586,0.113785796,0.051366307,-0.08534032,-0.12962535,0.086952515,0.07834576],[-0.10761386,0.078892946,0.11515614,0.13732995,0.017818805,-0.02992101,-0.16607279,-0.0366204,-0.1013905,0.1201004],[-0.092469744,-0.13353002,-0.07985302,0.07950489,0.024178922,-0.25721893,-0.013522614,-0.027114462,-0.09153449,-0.02029048],[-0.027567886,-0.03991883,-0.1018213,-0.16911766,0.05975711,0.086614445,-0.035700843,0.071231715,0.07917992,-0.002041886],[-0.0275512,-0.09945216,-0.09644862,-0.0063776793,0.05908088,0.072354525,-0.075840466,0.091939494,0.027196169,0.11394798],[0.016752556,0.055835154,-0.11965566,0.13147902,0.11114074,-0.0154875005,0.0011149225,-0.054675106,-0.12154961,-0.029257769],[-0.14445165,0.1762089,0.24453261,0.15549016,0.161573,0.13683543,0.06947839,0.18032347,0.202516,-0.047941774],[0.027446227,-0.046767905,0.12784868,-0.11399541,0.20061082,0.045593694,-0.15000759,-0.187764,0.022961965,-0.14941368],[-0.122335546,0.005567983,-0.06381452,-0.039340645,-0.042737555,-0.042421706,-0.07989947,0.1024989,0.015666375,-0.15345058],[-0.23758699,-0.0065245503,-0.05114117,0.006984295,0.22760354,0.1286719,-0.010282727,0.019833397,0.019344214,-0.20940836]]}]}},{"fitness":0,"neuralnetwork":{"inputLayer":{"biases":[0.0,0.0,0.0,0.0,0.0,0.0,0.0,0.0,0.0,0.0,0.0,0.0,0.0,0.0,0.0,0.0,0.0,0.0,0.0,0.0],"values":[0.0,0.0,0.0,0.0,0.0,0.0,0.0,0.0,0.0,0.0,0.0,0.0,0.0,0.0,0.0,0.0,0.0,0.0,0.0,0.0]},"layers":[{"biases":[0.06333172,-0.018364862,-0.030672273,-0.14133394,0.114510246,0.075564936,-0.11124665,0.1652732,-0.088106275,0.086004175],"values":[0.0,0.0,0.0,0.0,0.0,0.0,0.0,0.0,0.0,0.0],"inputWeights":[[0.041606672,-0.026343467,-0.1270058,0.15377085,-0.14522387,0.01603181,0.03973968,0.1804023,0.048743844,0.100325845,0.074100286,0.04779383,-0.008704248,-0.061600294,-0.05468958,-0.09329506,-0.06672995,-0.099333316,0.032946404,0.057798136],[0.060277235,-0.027393654,0.15476426,-0.044142902,-0.016922597,-0.018277848,-0.11552155,-0.13377886,0.18522425,0.093150124,-0.009469619,-0.052435495,0.07940271,0.088212974,0.03252146,0.04889346,-0.07305703,0.007078336,-0.14536531,-0.033144224],[-0.0041182092,-0.061249178,0.039462216,-0.06202047,-0.07092674,0.0077279327,0.27712393,-0.11411647,-0.08664975,-0.019936275,0.042289726,-0.10939885,0.13312541,-0.09655995,-0.07374168,0.061394744,0.1166661,0.030474689,-0.019017735,0.086825326],[-0.026838649,0.014452192,0.07329047,-0.18183999,0.15313989,0.09057432,-0.048574477,-0.087390915,-0.18807882,-0.10477551,0.01237533,0.037061665,0.06506048,-0.10517952,0.22635365,0.14566033,-0.07797522,0.14244539,0.025403097,-0.008063386],[0.02070123,0.18078461,0.04803421,-0.094518356,-0.08487792,0.055514183,-0.029413948,0.0023722623,0.19059342,-0.040303312,0.10455643,0.19004779,-0.11780761,-0.01581409,-0.107333995,0.10519209,-0.08217503,-0.09078536,0.018761616,0.13648757],[-0.14393657,-0.0022276144,0.03697754,-0.22934023,-0.19154574,-0.10903728,-0.060503744,0.15971155,-0.08961967,0.016646711,-0.022007525,-0.037343297,0.20600107,-0.03231798,-0.029012263,0.19176905,-0.13128023,-0.073514566,0.09275785,0.10369313],[0.21709937,-0.3156406,-0.059157383,0.21402386,-0.109294295,-0.17223874,-0.16973193,-0.07857582,-0.068149105,-0.072706744,0.08897248,0.19064178,0.16675839,0.09668703,0.039267313,-0.075474165,0.013651774,0.020135367,-0.2564395,0.12555256],[0.050211683,0.09401563,-0.25635684,0.03909022,-0.008754661,0.10218732,0.15796784,0.06681706,0.054847747,-0.00671305,-0.01855912,-0.061125662,0.10026069,-0.067692176,-0.024471171,-0.12799242,-0.12168343,-0.009284367,-0.072536655,0.062401477],[-0.16833131,0.0076926756,-0.034425426,0.018864559,0.1404135,-0.048808802,-0.07284888,-0.0014861415,0.050152335,0.09966708,0.038495027,0.050647877,0.23445678,-0.065315,-0.07350243,0.038213555,0.07869686,-0.13156538,-0.122134574,-0.09498157],[0.02402704,0.09342619,-0.077453054,0.12359769,0.09546447,0.10701007,0.022198439,0.032126237,0.01783637,-0.091533296,0.07722655,-0.13375011,-0.024844876,0.036936987,-0.01362726,0.20280641,0.008110961,0.060509656,0.061661772,-0.10739375],[0.11067312,-0.007491523,-0.11658238,0.029632756,-0.024661148,-0.010268771,-0.040566888,-0.041912116,0.15763414,0.065071754,-0.06435516,-0.05813199,0.04665849,0.061940707,-0.11677882,0.19167654,0.018282061,0.053763833,0.035950117,0.17098132],[-0.11117508,-0.005751808,-0.053148303,0.051955175,0.061453443,-0.010957104,-0.07092492,0.13122773,0.11681486,0.014743607,0.16944999,0.16848446,-0.122738585,-0.032307196,-0.13169229,0.071045704,0.0149773285,0.01974498,0.13271494,0.04896264],[-0.23569804,-0.11710208,0.033486754,-0.015800642,0.021194184,0.11118102,-0.1255109,-0.108823806,-0.08852112,-0.0649989,0.03711932,0.13608001,0.069191545,-0.075504094,-0.06805663,-0.051823847,0.044577703,0.0615066,-0.21403153,-0.030694896],[-0.03268401,6.7804486E-4,0.09738944,-0.018744612,0.27824256,-0.042305063,0.014507713,0.0064093377,0.08131646,-0.040704254,0.022848792,0.041992035,0.022266245,-0.07209571,0.1551808,-0.046123892,-0.1135471,0.01594576,0.08475613,-0.0075612017],[-0.05170236,-0.0039562723,0.009679677,-0.10776065,0.08022765,-0.048181213,0.2405467,0.036357522,0.05027254,-0.008858216,-0.16108201,-0.05045815,0.115464486,0.033562172,0.14272241,0.04394031,0.14446814,0.12807912,-0.10892599,-0.22481686],[0.0077132233,-0.045409273,-0.010132099,-0.053496573,0.0032856609,-0.09622389,-0.12844467,-0.019375296,-0.051523544,0.098536015,0.12998948,0.033273723,0.03861245,-0.03734776,-0.118828654,0.012699963,0.073485136,-0.035463713,0.05730932,0.1386886],[0.010018127,-0.016189767,0.11164944,-0.04149341,0.08073869,-0.12294251,-0.12022608,0.07828253,-0.1938595,-0.07369522,-0.09398163,0.08899761,0.05901773,0.14291216,0.01608334,0.10785967,-0.08666906,-0.04056053,-0.075804904,0.034620546],[0.24479142,-0.102473386,0.0786638,0.08808901,0.013307938,-0.077039056,-0.1341055,0.09226559,-0.057407744,-0.1027207,-0.12735222,-0.13359766,-0.11320219,0.025338192,-0.11920234,0.054009914,-0.019991674,-0.09141866,0.051254943,-0.16884355],[0.097872294,-0.02301619,0.095711306,0.045054976,0.026822163,-0.08971915,0.15418293,-0.22000685,-0.032508973,-0.010574841,0.005102225,0.104073666,0.026916072,-0.009414274,0.12814766,-0.028009174,0.023754457,0.129679,-0.09839507,0.1939497],[-0.04445845,0.11254451,0.015145824,0.112090595,-0.20449826,-0.07794268,0.0061808177,0.025114508,-0.04185597,0.0337621,0.008163348,-0.015847227,-0.046668474,-0.09934604,0.017287556,-0.04442026,0.12015735,-0.0057388446,0.086382955,-0.14466287]]},{"biases":[-0.18693344,-0.091430694,0.03382873,-0.13444154,-0.09009648,-0.19063784,0.17829835,0.099023774,0.0590148,-0.04540417],"values":[0.0,0.0,0.0,0.0,0.0,0.0,0.0,0.0,0.0,0.0],"inputWeights":[[-0.11317011,0.1703659,0.10451722,-0.10829695,0.15673141,0.013534069,0.17691511,-0.012515878,-0.097423606,-0.087044075],[-0.05228208,-0.09506141,-0.1052312,-0.06397617,0.10342171,-0.12183225,0.011545628,0.05331157,-0.11696391,-0.100700535],[-0.07342641,0.12478304,-0.080785535,0.040851854,0.07671196,0.03503028,0.05445506,-0.19077921,0.12611365,0.07785509],[0.034327023,0.10924453,0.13454363,-0.07796988,-0.07851929,0.12413253,0.05920016,-0.042396866,0.04910723,0.083649926],[0.08299776,-0.06679756,0.0076109525,-0.2542349,-0.13364562,-0.12968953,0.02233461,-0.08217578,-0.1114603,0.10510925],[-0.101547725,0.20732242,-0.15400219,-0.09199787,-0.0369121,0.06955526,-0.0017008585,0.1011498,0.067938074,0.07779152],[-0.16274078,0.17733961,-0.031927373,0.019500183,0.030645542,0.08627031,0.0026532656,0.052651145,0.035753738,-0.09685112],[-0.098238915,0.030779392,-0.055279024,-0.07112072,-0.027654143,-0.015588705,0.01532345,0.004261544,-0.030609356,-0.015834326],[0.14135227,0.05216787,-0.068514645,0.014514556,-0.13517939,-0.060255792,0.07668783,-0.09208516,0.19700527,-0.038819242],[-0.05408559,0.045006655,-1.5193684E-4,-0.12381545,0.055156536,-0.07802102,0.07211585,0.05778253,-0.018708462,-0.09137081]]},{"biases":[0.039107483],"values":[0.0],"inputWeights":[[-0.29175422,-0.041356727,-0.028996058,-0.100617096,0.07731264,-0.004820702,-0.31547147,0.028496394,-0.05701164,-0.10716127],[0.037057854,-0.15484332,0.16898014,-0.074920386,-0.01253373,0.045913246,0.10145235,-0.08944838,0.0036678335,-0.14897299],[0.19048412,0.14097743,0.058511104,-0.0846276,-0.023163045,0.002175165,0.08342869,-0.143436,-0.0105711175,-0.0455246],[0.07484318,-0.041726198,-0.2338476,0.16557577,-0.061088786,0.13639401,-7.3418143E-4,-0.0064099445,-0.29800218,-3.439883E-4],[0.022651987,-0.049556438,-0.07267195,-0.031233702,-0.055891767,0.023953646,0.021858072,-0.0492941,-0.027044542,-0.05044275],[-0.054164506,-0.068279214,0.21750681,-0.050723065,-0.05070766,-0.05995823,-0.1456534,0.24141884,-0.111604325,0.19391923],[-0.070470944,-0.039194793,-0.06877002,0.066066675,0.021264004,-0.12311755,0.10921324,0.12150822,0.16772749,0.041675117],[0.13320325,0.19915287,0.048323937,-0.06913932,0.08252094,0.13953078,-0.117804706,-0.17726387,-0.07526063,0.01705337],[0.16801716,0.1871996,-0.015375898,-0.20743805,-0.1230014,-0.02798735,-0.1196091,-0.055372242,-0.108714424,0.009646759],[-0.021022456,0.003265615,-0.022985863,0.11285382,0.16619849,-0.018609785,-0.079784654,-0.09521658,-0.009772368,0.10402133]]}]}},{"fitness":0,"neuralnetwork":{"inputLayer":{"biases":[0.0,0.0,0.0,0.0,0.0,0.0,0.0,0.0,0.0,0.0,0.0,0.0,0.0,0.0,0.0,0.0,0.0,0.0,0.0,0.0],"values":[0.0,0.0,0.0,0.0,0.0,0.0,0.0,0.0,0.0,0.0,0.0,0.0,0.0,0.0,0.0,0.0,0.0,0.0,0.0,0.0]},"layers":[{"biases":[-0.012920523,0.12434237,0.1334235,-0.07122887,-0.01572755,-0.0027148505,-0.26262403,0.011309859,0.06264827,0.07031621],"values":[0.0,0.0,0.0,0.0,0.0,0.0,0.0,0.0,0.0,0.0],"inputWeights":[[0.03897208,-0.08360694,0.1308855,0.009756745,0.084663205,-0.030493464,-0.06404726,0.024988757,-0.07607416,-0.008517073,-0.031873543,-0.11365959,0.067214034,-0.039952226,0.29670978,0.110229865,0.013967776,-0.05107833,0.16378658,-0.18391864],[-0.041982226,-0.11138995,-0.07828173,0.10793012,0.05060236,-0.025696393,-0.13127555,-0.047143135,-0.025851917,0.11915241,-0.05393326,-0.011176494,-0.028727528,0.1002435,-0.11818657,-0.013022477,-0.052532222,-0.08780455,-0.120168544,0.12254089],[0.031448614,0.03428286,0.008006917,0.007311661,-0.06950945,0.1057231,0.020385772,-0.01547577,0.029841406,0.02355658,0.032158747,0.103555456,-0.09265043,-0.06390101,-0.23370098,0.018943025,-0.04854137,-0.01944803,0.050216105,-0.0048572114],[0.03923353,-0.025618838,0.08881109,-0.032627065,0.05340905,0.07600771,-0.04319217,-0.14167237,0.06763949,0.07808277,0.18665151,0.093412675,0.12563467,0.044716954,0.16786216,-0.09768821,0.04646952,-0.092650265,-0.12548241,0.19332485],[-0.09885896,0.11126451,0.13945533,-0.27509052,0.0031022893,-0.13338146,-0.113742664,0.054775786,-0.009919008,0.03644618,0.06679358,-0.0027503825,0.04378722,-0.024133284,-0.07682606,0.051306743,0.032218058,0.042183414,0.06149497,-0.006921573],[0.019177988,0.020171085,0.091906145,0.017313158,-0.108931966,-0.12419319,0.16873856,-0.017281465,0.039502785,-0.036540743,-0.17008394,-0.03189438,0.08060793,-0.08976297,-0.09462096,0.08166097,0.13853441,-0.05372934,-0.03101906,0.09358942],[0.10299587,-0.0652518,-0.017189708,0.028342742,0.08899439,0.10857431,0.053469427,-0.052787784,0.10322692,0.009460864,0.117408946,0.090090625,-0.072130114,-0.061725676,0.06434403,0.005478628,0.0849554,-0.038976636,-0.14373706,-0.11175544],[-0.14493327,-0.03646215,0.011873473,-0.08373432,0.087559424,-0.04112526,-0.014187965,-0.09631016,-0.003676468,-0.15522231,-0.0083136605,-0.06003703,0.049042035,-0.09730575,0.2121792,0.013062749,0.07889209,-0.08346954,-0.08181414,0.13321984],[-0.07439103,-0.061810575,-0.063280456,-0.18322384,0.057052884,0.020328194,-0.019621406,-0.1330842,0.056770176,-0.07883593,0.21910036,0.08337477,0.09807637,0.07538117,0.13574706,-0.12015288,0.029550068,-0.014467351,0.1272453,-0.03224155],[-0.08791682,-0.02052474,0.034827314,-0.024915582,0.007186584,-0.13228351,-0.06357126,0.0969154,-0.07353709,0.05118689,0.010292572,0.01586922,0.17712957,0.111324616,2.963085E-4,0.02059079,0.08970155,-0.050708722,0.06302737,0.10635967],[0.04429228,-0.20894477,-0.07141361,0.075038105,-0.0024972067,-0.107003964,0.122106396,-0.005103375,0.24036446,-0.06604045,0.11145311,0.06129422,-0.094042994,-0.12304573,-0.08305918,0.04494015,0.27624115,-0.16206759,-0.08832918,-0.06640448],[-0.12742835,-0.07981913,-0.0693038,0.070151895,-0.004041032,-0.1249303,0.0659087,0.18837623,-1.1906234E-4,-0.05462342,0.18300225,0.14579307,0.010897075,-0.15658793,-0.0071276813,-0.026656466,-0.22375329,0.14112885,-0.19097355,0.092107385],[-0.08002352,0.21785016,-0.06070676,-0.005971639,-0.040422093,-0.1673468,0.09037842,0.066770755,-0.1695976,0.012202433,0.010981764,-0.1220398,-0.06304043,-0.07039323,0.21527946,0.14608593,0.17244926,-0.025092937,-0.12457602,-0.0014536711],[0.10634094,0.1228843,0.22261842,0.014309492,0.033247042,-0.005991292,0.07523928,-0.14695874,0.10188615,0.080317035,-0.01877993,-0.0046545,0.14462222,6.76385E-4,0.15826789,0.07190492,-0.11957417,-0.05070871,0.023696769,0.08012391],[0.03163288,-0.060435627,0.011227853,-0.04732484,0.05477436,0.059558075,-0.14459376,-0.07147302,0.043437194,0.15573029,0.029653138,0.06809357,0.042636447,0.023477064,0.050453555,-0.013377873,-0.23494937,0.103253216,0.14400971,-0.0014105635],[-0.09011208,-0.064853154,0.05959386,-0.15822151,0.11430097,0.030335994,-0.09069325,0.16485879,0.20529574,0.04336801,-0.005799959,-0.12297725,0.013374547,-0.0347429,-0.0857032,-0.021980837,-0.06115341,0.028357323,-0.18821631,0.25765353],[-0.004055436,0.05933922,0.033794567,-0.04657576,-0.06702542,-0.097881205,0.1985039,-0.13153185,-0.05382903,0.025825301,-0.036476973,-0.066672094,-0.027483705,0.11574388,0.0074900594,-0.11419705,0.052679565,0.026733007,0.10210038,0.10778682],[0.021980021,-0.029256964,-0.03212296,-0.043819267,-0.034639213,0.16420008,-0.20135212,-0.07432183,-0.16345696,-0.06488743,0.14504772,-0.02608364,-0.019374043,0.077255905,-0.08306115,-0.11561681,-0.10080482,0.053573817,0.10805729,0.2149518],[-0.012964844,0.057388775,-0.039050773,-0.13765302,-0.0554258,0.20300107,-0.09841686,-0.14554422,-0.1339308,-0.0143031,0.19766338,0.033853635,-0.1239824,-0.1572705,-0.10135252,-0.04925973,0.02236531,0.0996665,-0.021365128,-0.01866293],[0.13864389,-0.13339835,0.034970824,0.068159826,-0.02320878,-0.064681575,-0.060659017,0.019429998,-7.026388E-4,-0.016799452,-0.12515543,0.08914598,-0.11407756,-0.04762319,0.060590927,-0.06220656,0.016601494,-0.12795958,-0.011344724,0.121200606]]},{"biases":[0.052444257,-0.11451863,0.05415709,-0.07800662,0.0505206,0.022917569,0.009929456,-0.18195258,0.004259195,-0.020134864],"values":[0.0,0.0,0.0,0.0,0.0,0.0,0.0,0.0,0.0,0.0],"inputWeights":[[0.089234814,0.13514785,0.00453475,0.1716187,-0.038953032,-0.019241454,-0.0038031314,-0.20169085,0.012717467,-0.010212812],[-0.0781691,0.15705049,-0.05737605,0.028167943,0.029910471,-0.0972701,0.027610093,0.074483454,0.19912952,0.19110937],[0.08713322,0.104344495,0.16317406,-0.22920604,0.00574356,-0.035504047,0.12531662,0.078384705,0.094649546,-0.063109085],[0.048542105,0.021852873,0.046909377,0.09182717,0.041109767,0.03578383,0.00966811,-0.15578802,0.015280487,0.119763345],[-0.0641436,-0.103950456,0.013687995,-0.027869288,-0.11083655,-2.3274134E-4,0.08526849,-0.09986734,0.034342077,0.017584356],[0.072586924,-0.06425334,0.08646098,0.034848593,-0.023764709,-0.08641753,-0.014133263,0.176124,-0.078181215,-0.1120704],[0.010746906,0.205712,-0.09709217,0.13227127,-0.06572508,0.043196227,0.17668691,0.14555185,-0.118892156,0.12027236],[0.12907241,-0.12749705,0.05100704,0.010365415,-0.03343709,-0.03641698,-0.12468278,0.057373524,-0.12216029,0.04236985],[0.18030493,0.058243096,-0.06339601,-0.03506289,-0.02801832,-0.08895519,0.054823805,-0.099672094,0.16746686,-0.051715072],[0.041189075,0.13811533,-0.14728478,-0.027003068,-0.07597228,-0.09999964,-0.10800712,-0.2434476,-0.07818387,-0.09470611]]},{"biases":[-0.15762198],"values":[0.0],"inputWeights":[[0.119815834,0.091737576,0.08135022,-0.08455555,-0.12844563,0.047793046,-0.05895274,0.032145884,0.03682247,-0.054877043],[-0.06909857,-7.877439E-4,-0.028359838,0.025644088,-0.054572474,0.12485997,0.031548258,-0.059124637,-0.020182755,0.07772117],[-0.11106802,0.01479624,-0.033076808,-0.059074443,0.059998214,0.11411542,0.097042605,0.09889714,0.06708981,-0.07032634],[-0.014038486,0.09739634,0.069318295,0.13974157,0.18847679,-0.12351706,0.080594,-0.023856273,0.072731785,0.081308],[-0.05187391,-0.02479219,0.2188068,0.314018,-0.10705949,-0.012133779,-0.08126063,-0.017273132,-0.070674,-0.015481686],[0.02066263,-0.15774028,0.080470584,-0.015198164,-0.09919137,0.09506462,-0.08938221,-0.23147026,0.19302876,0.10250011],[0.055410583,-0.039232247,0.18662713,-0.117028266,-0.01990927,-0.014332937,-0.071904354,0.052075695,0.10480506,0.05465099],[-0.012696236,0.0616099,0.1945833,0.2623224,0.13469772,0.07809273,0.05340223,-0.008453052,0.07081014,-0.03471397],[0.06612254,-0.030560618,-0.056484066,0.07903393,0.117659666,0.06348836,0.03198985,-0.17415501,-0.06638506,0.019209513],[0.016719252,-0.060017027,-0.051105924,-0.063920334,-0.045288358,-0.074080616,0.0639285,-0.095970154,0.112086184,-0.091569014]]}]}},{"fitness":0,"neuralnetwork":{"inputLayer":{"biases":[0.0,0.0,0.0,0.0,0.0,0.0,0.0,0.0,0.0,0.0,0.0,0.0,0.0,0.0,0.0,0.0,0.0,0.0,0.0,0.0],"values":[0.0,0.0,0.0,0.0,0.0,0.0,0.0,0.0,0.0,0.0,0.0,0.0,0.0,0.0,0.0,0.0,0.0,0.0,0.0,0.0]},"layers":[{"biases":[0.0691754,0.0021158818,0.15720128,-0.12798373,0.1962659,-0.06255073,0.028618561,-0.0657745,-0.19371095,0.084794305],"values":[0.0,0.0,0.0,0.0,0.0,0.0,0.0,0.0,0.0,0.0],"inputWeights":[[-0.18353756,-0.031882208,0.049599648,-0.025089225,-0.022344174,9.620893E-4,-0.06529498,0.036899913,-0.06725077,0.11150454,-0.009212643,0.017598486,0.0134224165,0.15390043,-0.0033748073,-0.05988598,0.15891252,-0.121035084,0.1963532,-0.20580271],[0.016382623,0.04872275,-0.065588795,0.13505273,0.25257298,-0.086756274,0.11301385,-0.09986825,0.03994998,0.06732973,-0.10047416,0.13939504,0.13354373,0.055544242,0.00654678,-0.12601465,-0.039022267,-0.05048345,-0.079365544,-0.050155304],[0.121895924,-0.040682342,-0.08017883,-0.05259098,0.010156988,0.08455548,-0.060011126,-0.01623097,-0.1421508,0.08215387,0.14266305,0.07207658,0.007065705,-0.23439509,-0.14105365,-0.06756058,0.04559661,0.10882915,-0.05805926,-0.07842117],[0.07776599,0.16359517,-0.02212999,0.03778705,0.056264184,0.114407025,0.063662924,0.19705892,0.070952386,0.10545963,0.12418016,0.051763453,-0.018896408,-0.09838594,0.02694951,-0.04924048,-0.17143993,-0.12680875,-0.1683129,-0.04593917],[0.098347105,0.11780073,-0.18664104,0.049654987,-0.080066875,-0.082787536,-0.1260796,0.05679801,-0.01904346,-0.028281286,0.08900115,0.025491709,0.025591567,-0.027139332,0.23972617,0.19461077,-0.14247207,0.02809102,-0.13776769,0.006538185],[-0.106091246,0.1277537,0.0076546767,0.050319415,0.20344289,-0.111869685,-0.004444698,-0.11707551,0.06346008,0.019461226,0.042020038,0.07630303,-0.09633719,0.06352818,-0.01683009,0.15960287,0.0060236678,0.018353371,-0.16412067,0.19728722],[-0.0901282,-0.062753685,-0.03460201,0.13206375,0.06453747,-0.053419903,-0.025491893,-0.050208185,-0.13726424,-0.0747808,0.09306824,0.11337616,-0.038158618,0.1755149,0.01343701,0.028511673,-0.098063596,0.12584858,0.023446651,-0.040350832],[-0.0019392972,0.045608945,0.070139356,-0.19377165,0.04418588,-0.09118863,-0.07419457,-0.049905542,-0.042881742,0.09861222,-0.07821398,-0.15444864,-0.08772864,0.0034188933,-0.015227197,0.15539753,-0.06538481,0.05592898,-0.009850593,0.071715534],[-0.01667517,0.15301912,-0.09164248,0.05636411,0.0047180885,-0.048765358,0.08425922,0.017039372,-0.076840594,-0.101392776,-0.22992866,-0.101823606,0.017695978,-0.06138868,-0.080200754,-0.09134865,-5.842089E-4,0.111422285,-0.065578945,-0.08933362],[-0.0115947705,0.1711779,-0.06628472,-0.017766848,0.10582062,0.090265125,-0.068414256,-0.07428712,0.18359385,0.0638241,-0.017338995,-0.03972195,-0.1260069,0.0096703805,0.039920103,-0.13689831,0.030694285,-0.1358867,0.006302067,-0.19698596],[0.16760221,0.08186356,0.0014974374,-0.08916097,-0.14093646,0.12676482,-0.077860974,-0.0019913588,0.037562627,0.09334094,-0.003517274,0.08022252,0.12924019,-0.12025859,0.019711943,-0.0748964,-0.004380494,0.030067133,-0.066911794,0.34222195],[0.13820109,-0.027554758,0.03618896,-0.08144603,0.070912294,0.056885473,0.065840475,0.034281254,0.16876759,0.10763934,0.09040843,-0.06865819,0.006178813,0.033132646,0.057610393,0.0775097,-0.1378968,-0.18098542,0.10177411,0.073582575],[-0.12201224,-0.015070392,-0.032774135,-0.2188265,-0.08003382,0.19484127,-0.015081281,-0.019346792,0.08038273,-0.10714388,-0.08029769,0.19757244,-0.09858714,0.10255913,-0.05698355,0.008075058,0.11518971,0.005082395,0.0028028677,0.057995964],[-0.12743293,-0.015003754,0.03318992,-0.10615899,0.13866967,-0.07946438,-0.20835021,-0.14623281,-0.026464384,-0.038763188,-0.030391246,0.099766284,0.025146713,-0.063904144,-0.04192425,0.102355376,0.053564496,0.047530003,-0.010554538,-0.23329753],[0.02605433,-0.07051461,-0.033981435,0.16742125,-0.016848227,0.029210933,-0.038369123,-0.07000728,-0.11859388,0.01631091,0.029533485,-0.07149809,0.23024444,-0.04397606,8.3213206E-4,0.08815525,0.03107916,-0.06999685,0.17519963,-0.12869954],[-0.03807428,0.009468415,-0.20968617,0.031853408,-0.03469702,0.0710997,0.1680284,0.01813017,-0.0927892,-0.04066267,-0.03786853,0.2057524,-0.103221454,-0.098348536,-0.09090249,-0.1936543,-0.05316022,-0.16259661,-0.07689846,-0.020405523],[-0.07782958,0.22379369,0.028742012,-0.064282104,0.07936249,-0.0045827716,-0.09686234,0.040828556,0.09950633,-0.063432515,0.10964099,0.004660365,0.023600318,0.049291044,-0.06439561,0.0761553,0.04556777,-0.009335537,-0.07876127,-0.021866506],[-0.028228868,-0.07715668,-0.2630853,0.02469169,0.058694575,-0.22401509,0.11550772,-0.012924631,-0.11196271,-0.16009817,0.0077864407,0.16053303,-0.082575746,0.17514928,-0.11587997,0.14090861,0.06727044,-0.0966084,-0.047790084,-0.12805454],[-0.049658988,-0.13329853,0.060340513,-0.033863794,-0.123394966,0.27463406,-0.05685518,0.095710106,0.053293027,0.16784437,-0.0969231,0.13922866,-0.024428938,-0.004615117,-0.06784851,-0.12492077,0.044300366,0.044957384,-0.14170115,-0.0556049],[-0.09397828,-0.015074821,0.06769752,0.029816624,-0.030812517,0.022350142,-0.1529569,0.029963732,-0.0057539647,-0.013290957,-0.21677493,0.09207168,-0.049021408,-0.08098888,0.037990436,0.14828394,-0.11509365,0.17701821,0.047468107,-0.020808877]]},{"biases":[0.017469054,-0.13854279,-0.060824856,-0.13473253,-0.16606532,-0.04769022,-0.050046206,-0.043558784,0.17771988,0.12793532],"values":[0.0,0.0,0.0,0.0,0.0,0.0,0.0,0.0,0.0,0.0],"inputWeights":[[0.0051278505,-0.0703031,0.043769892,-0.19856948,0.0959462,0.031383466,0.10219221,0.26319125,-0.041243427,0.22242406],[-0.1676607,0.08251895,-0.088194184,-0.095230885,0.01450471,-0.26434296,-0.17229296,0.017121002,-0.081637286,-0.10901625],[-0.2238625,-0.017244516,-0.015139646,-0.08472084,-0.14789145,0.01841538,0.0049120374,-0.04775824,0.041881543,0.147381],[0.05826078,0.006254258,0.0025194683,0.032450877,0.110355414,-0.013150012,-0.012248315,-0.011129786,0.10864902,-0.08324588],[0.090508536,0.13605161,-0.0014990391,-0.09380406,0.0664524,-0.051892467,0.10263128,-0.010313191,0.14072335,-0.0319913],[-0.011861018,0.07788598,0.050169874,-0.094277985,0.0996346,-0.04166289,-0.13107681,-0.060367744,0.1597005,-0.10685908],[0.03185376,0.004913552,0.039028693,-0.19340514,-0.011650002,-0.06607656,-0.13633612,0.2397567,0.029667767,-0.052294355],[-0.06779512,0.0046212077,0.0049566533,-0.0559062,-0.09441129,-0.08206566,-0.052910514,0.06289975,-0.053373728,0.030239796],[-0.02164198,-0.021317683,0.019035177,-0.051802747,-0.12512323,-0.04669616,0.0572349,0.10425187,0.0076879216,0.06786225],[0.13721742,0.10345397,-0.20804377,0.021931,-0.22371787,0.07816342,0.09117415,-0.020311145,-0.13772674,-0.18236884]]},{"biases":[-0.18781728],"values":[0.0],"inputWeights":[[0.027397895,0.20199272,0.09592124,-0.09854053,0.15158181,0.123407364,-0.10774021,-0.07720174,0.017791072,-0.047468282],[0.1731001,0.037810277,-0.04820694,0.24933231,0.14362656,0.07411563,0.014614004,0.039388176,0.047114696,-0.08871191],[-0.18996431,-0.03967173,0.06927046,-0.021918869,0.025857972,0.15459515,0.013564803,0.15637831,0.04815386,-0.15666875],[0.12208675,0.08481632,0.04836956,-0.14302775,0.037448075,-0.07137301,0.034233622,-0.19691052,0.027315518,0.015306887],[-0.06469247,0.220437,0.034171823,0.07674417,-0.12229782,0.14167584,-0.17417951,-0.013669811,0.100648604,0.0062711826],[0.037061498,0.011168967,0.011955507,0.1603483,-0.06937548,-0.025070198,0.0010751919,0.14740571,0.019736681,-0.05105493],[-0.021273306,-0.065157086,-0.17821324,-0.02308753,-0.012519186,0.023841932,-0.050658967,-7.250371E-4,0.16411357,-0.01666158],[0.1743136,0.05689854,-0.027507532,-0.05812619,0.06904372,0.02584489,-0.053678077,0.17617916,-0.00837408,-0.07024],[-0.049787406,-0.11271579,0.028795749,0.11627784,-0.0076825535,-0.16958748,0.10277572,0.012760827,-0.06021353,-0.019483825],[-0.14370035,0.045572627,-0.10577973,-0.03691492,-0.061421074,0.057435248,-0.07359184,-0.039506704,0.060657732,-0.10148057]]}]}},{"fitness":0,"neuralnetwork":{"inputLayer":{"biases":[0.0,0.0,0.0,0.0,0.0,0.0,0.0,0.0,0.0,0.0,0.0,0.0,0.0,0.0,0.0,0.0,0.0,0.0,0.0,0.0],"values":[0.0,0.0,0.0,0.0,0.0,0.0,0.0,0.0,0.0,0.0,0.0,0.0,0.0,0.0,0.0,0.0,0.0,0.0,0.0,0.0]},"layers":[{"biases":[0.18587007,0.0040722843,0.10837223,0.115445666,-0.03658643,0.061406445,0.12332653,0.14388649,0.076698564,-0.022540797],"values":[0.0,0.0,0.0,0.0,0.0,0.0,0.0,0.0,0.0,0.0],"inputWeights":[[-0.12062499,-0.10331184,-0.08587276,-0.01074017,0.09110703,-0.012513778,0.1338071,0.23211955,0.2004979,0.08432796,0.008245572,0.09022944,0.1430934,-0.06438893,0.22470215,-0.14869338,0.029080076,-0.10940063,-0.026893653,-0.06336753],[0.021914864,-0.14542328,-0.031072779,-0.07012056,0.03854017,0.022143412,0.028814606,0.21025735,-0.17804559,-0.076142706,-0.11457909,-0.13151482,0.039768532,-0.0024325785,0.15753673,-0.14085503,-0.16967958,0.08499523,0.084082,0.012369216],[-0.018582374,-0.07217858,-0.00846142,-0.2147579,-0.020950211,-0.15116285,0.055178627,-0.046030656,0.019539295,-0.008403936,0.10946327,0.16587712,-5.607273E-4,-0.080058254,-0.10645086,0.11943252,-0.06874655,0.10707364,0.12980194,-0.05013794],[0.036980305,-0.11475636,0.06674835,-0.12182833,0.007439529,-0.033520035,-0.10560615,0.0066587245,-0.123036794,0.01747083,-0.038119383,-0.017939897,-0.09915743,-0.037891526,-0.22698332,0.016089411,-0.11256363,0.089213766,-0.16293229,-0.15713653],[-0.08864937,-0.14562802,-0.18030573,-0.090085186,0.1601624,0.049602598,0.032875985,0.0077422014,0.088455334,0.050307803,-0.1341881,-0.048494745,0.054234132,0.10904539,-0.010862486,-0.17912216,-0.04591903,0.24302325,0.08201015,-0.108624674],[0.072258845,-0.094456494,-0.078554034,0.11962284,-0.05460378,0.02800578,-0.004125429,0.0145714795,0.19704185,0.070531555,-0.051962912,-0.15772066,0.12998906,-0.06872696,0.04097295,0.14346652,-0.005053211,-0.05143509,0.097374804,-0.1341498],[0.023156026,0.05284893,0.05773419,-0.06431583,0.019316275,0.1298175,-0.007952337,-0.077064976,0.20624383,0.05744003,-0.17078504,-0.0067014773,0.013862359,-0.19607686,0.031650584,-0.15860033,0.002337849,0.076323114,0.07878791,0.09777075],[-0.058457196,-0.18540591,-0.06753351,0.1630398,-0.1736647,-0.15632801,0.030804966,0.04699048,-0.06256303,0.15062937,0.022303367,0.15792058,0.110523716,0.29010785,-0.048375417,-0.072491266,-0.03795015,-0.11744124,0.06624595,0.02051295],[-0.1345646,-0.050014604,-0.0060297837,0.034056604,-0.0506152,-0.12142272,-0.050379597,0.28098413,-0.0060876673,-0.11927331,-0.06967343,-0.025420777,-0.037611995,0.033123747,0.021249048,-0.10926576,0.05635192,0.15717545,0.101655535,0.03928636],[-0.08600686,0.038173914,0.05297242,-0.045920346,0.018578349,0.022131164,0.049142525,-0.006492242,0.047479972,0.34904715,-0.023882918,0.30610168,-0.065261126,0.106255345,-0.006164077,-0.2590322,-0.023266029,0.05477358,0.034186337,0.0102013],[0.12266706,0.05236576,0.14702424,-0.06292008,-0.013487608,-0.02972518,-0.06501511,0.1379471,0.023053445,-0.11066594,-0.07318673,-0.2427563,0.008014842,0.13906646,-0.113245346,-0.033906803,-0.1721874,-0.030382836,0.1183565,-6.2546093E-4],[0.031386018,-0.15352938,0.049021874,-0.04416513,0.07513094,-0.07014675,-0.15777293,0.08112719,-0.08512163,0.108231604,-0.117156684,0.011199846,0.006558983,0.17828217,0.07769174,-0.1751207,-0.03721231,0.061522145,0.14326519,0.024734616],[0.1432799,0.037962243,-0.057927493,0.13024712,-0.13902554,-0.040104054,-0.088156745,0.22866714,-0.010253392,-0.01549232,0.095763244,-0.01058865,0.015252376,-0.0041596843,-0.10646889,0.020738522,0.08576615,-0.04592301,-0.05831171,0.0223147],[-0.06344601,0.18988802,0.06777902,0.09871384,-0.031302914,-0.048710607,-0.09881427,-0.038800746,0.14235725,0.024349716,0.017829852,-0.029331144,0.080491245,-0.040574323,-0.021224052,-0.004192517,-0.05085774,-0.061237562,-0.035624668,-0.15429609],[-0.10261221,-0.09120522,0.1405487,-0.08823065,0.01826604,-0.16251801,0.025868954,-0.017321317,-0.0114081,-0.11657361,-0.16044605,-0.07714978,-0.09260384,0.0982954,0.2768243,-0.07176935,-0.080162674,-0.036052767,0.03448285,-0.09053969],[0.10375523,0.065343946,0.101746395,-0.092155024,-0.1820847,-0.07785603,0.0128605785,0.0017321286,-0.03997625,0.12426381,-0.071135245,0.005471995,0.13199471,0.013782038,0.05389141,0.09031542,0.1936712,0.090899326,0.111172065,0.14560407],[-0.0547569,0.11165311,-0.058448885,0.0059263483,-0.042110402,-0.17983288,0.086044826,-0.15996672,0.13591406,-0.05722537,-0.11482631,0.045859016,-0.12385046,0.08143787,-0.060583975,-0.12459963,0.056078102,0.10139046,-0.028146341,-0.0046460493],[-0.023324244,-0.019161655,-0.05366547,-0.18236281,0.17921829,-0.034108732,0.03938659,0.0056292317,0.08441362,0.061664876,-0.07077051,0.09159811,-0.13521379,-0.043271508,0.060199913,-0.031917214,0.014815946,-0.14367788,-0.080481,0.08767956],[-0.03458713,-0.09998077,-0.09047378,-0.016831065,0.06009312,0.058563698,-0.07919208,-0.0077753663,0.033403598,0.06951803,0.0055858353,0.07478586,-0.011417053,0.11289143,-0.049803,-0.011671744,-0.023357395,-0.07498636,0.02115631,0.05277386],[0.027911538,-0.094517305,-0.1102965,0.023076726,0.04228557,0.090117685,-0.11352562,0.056678254,0.075717546,-0.23735175,0.041776825,-0.049737897,0.045304358,0.062140718,0.2883007,-0.048124485,-0.0403019,0.040238526,-0.17155945,0.07216735]]},{"biases":[-0.10340101,-0.0952396,0.119140536,0.084184736,0.13393864,-0.18055865,0.1167116,0.04299612,-0.097221375,-0.036463413],"values":[0.0,0.0,0.0,0.0,0.0,0.0,0.0,0.0,0.0,0.0],"inputWeights":[[-0.002239468,-0.004763192,-0.03756431,0.07688288,-0.040944144,0.047497462,-0.16448572,-0.19371334,-0.107282266,-0.008483724],[0.03396127,0.06664866,-0.0393335,0.004467632,-0.17393748,-0.07072881,-0.12165596,-0.054525718,0.038321838,-0.028524913],[0.20090705,0.03797173,0.014426715,0.0164379,-0.057034187,-0.15818533,0.0499579,0.0561675,0.007565144,-0.08759773],[-0.052817043,0.11452504,0.0026673637,0.007598632,0.09116803,-0.054920617,-0.13461807,-0.017111992,0.061130077,0.0138646895],[-0.048337374,-0.083881244,0.10250997,0.06419861,0.07286333,0.15701936,-0.145925,-0.08527973,-0.1235643,0.11046135],[-0.039929617,0.04360965,-0.06661603,-0.10161116,-0.013055778,-0.017644634,-0.06719949,0.12627093,-0.13610017,0.058850132],[-0.041768704,-0.046823133,-0.27789733,0.1716142,-0.064178996,0.20488246,0.015471635,0.05063658,0.025280332,0.09478411],[-0.0031761993,0.077591605,-0.12320779,-0.05842538,0.06822753,-0.12716213,-0.0017985888,0.012606491,-0.083349474,0.07191245],[0.16387731,-0.09273781,0.012378729,-0.08511048,0.1198071,0.1251259,-0.056407113,-0.17920898,0.1021932,0.006671189],[-0.17152722,0.018132614,0.17608808,-0.13609992,-0.103908055,0.0052534034,-0.109354176,0.09964496,-0.006548684,-0.014768721]]},{"biases":[-0.056257583],"values":[0.0],"inputWeights":[[0.10756888,-0.03656026,0.09259344,-0.013657432,0.115454055,-0.0831928,0.14316021,6.4800726E-5,-0.08824268,0.17634967],[0.039712958,-0.03259243,0.019906247,-0.06057206,0.05457771,0.015445875,-0.114383,0.00759637,0.11333096,-0.10129191],[0.0054836096,0.073447354,-0.030990658,-0.075092345,0.12199251,-0.029687785,-0.0063257758,-0.014246566,0.03847999,0.03237265],[0.09322874,-0.068531565,-0.090293966,0.017289758,0.09541332,-0.08721554,-0.082469314,-0.08662036,0.0040282533,0.14335397],[-0.13105851,0.033414345,0.026092166,0.09466219,-0.027002651,-0.17795096,-0.049730442,0.14268307,-0.053338885,-0.15858817],[0.0067244093,-0.0513032,-0.09867589,-0.12143774,-0.08164651,0.119505726,-0.20850395,0.06635092,0.04113367,-0.04625269],[0.05686682,-0.09231708,-0.15530781,0.048135404,-0.0768804,-0.16978034,-0.13040565,0.05301158,0.11180539,-0.05101876],[-0.19147258,0.043766297,-0.0019476883,0.04439562,-0.02531244,-0.041094504,-0.11717284,0.0554391,-0.100669734,0.079374366],[-0.04682466,-0.21646656,-0.10314419,0.029262833,0.008927952,0.1829457,0.05565862,-0.14153907,0.020590106,-0.012587506],[0.11966912,0.1779174,-0.033986352,-0.047498222,0.021550072,0.012759515,0.02597046,-0.109671414,-0.018109985,-0.049705073]]}]}},{"fitness":0,"neuralnetwork":{"inputLayer":{"biases":[0.0,0.0,0.0,0.0,0.0,0.0,0.0,0.0,0.0,0.0,0.0,0.0,0.0,0.0,0.0,0.0,0.0,0.0,0.0,0.0],"values":[0.0,0.0,0.0,0.0,0.0,0.0,0.0,0.0,0.0,0.0,0.0,0.0,0.0,0.0,0.0,0.0,0.0,0.0,0.0,0.0]},"layers":[{"biases":[0.09492366,0.038823206,0.11984424,0.054038636,-0.19583905,0.038099866,-0.044393156,-0.10668083,-0.1509023,0.10667595],"values":[0.0,0.0,0.0,0.0,0.0,0.0,0.0,0.0,0.0,0.0],"inputWeights":[[0.17754306,0.038792334,-0.1264768,0.047359854,-0.11278437,-0.13094683,0.06350035,-0.018012976,-0.031930964,-0.10552562,0.020535523,-0.10258642,-0.114048466,0.073178716,-0.019680282,-0.08057993,0.12756176,-0.055338778,-0.12077406,0.018698936],[-0.1625991,-0.110042356,-0.027488807,0.038347796,0.08034578,-0.063550256,0.006411782,0.10491323,0.10080676,0.12391584,-0.035610083,0.11622655,-0.045994375,0.06225278,-0.09350866,0.039086476,0.06704681,-0.14220954,-0.07416481,0.21136184],[0.01321058,-0.044116065,-0.20997614,0.04522714,0.10107524,0.066019915,0.13048413,-0.124188356,-0.167365,-0.1436854,-0.11479303,-0.13520479,-0.11637881,-0.07455828,-0.1046805,0.011092453,0.13194948,0.056565568,0.03395203,4.622378E-4],[-0.15434894,-0.051879514,0.07830049,0.14713225,0.23824666,-0.05491243,0.01330933,-0.052134406,-0.052720904,-0.040255614,-0.15773964,-0.034024063,0.1480831,-0.037107516,0.04766824,0.06735627,-0.06051904,0.036439314,0.07077899,-0.004862303],[-0.022683468,0.026915545,-0.12656945,0.121871166,-0.091927364,0.13707718,0.18746756,-0.023972753,0.12865709,0.050505955,0.0029566267,-0.080906585,-0.0472455,0.08030922,-0.09235009,-0.11866875,-0.08591401,0.07759889,0.10221251,-0.016385842],[-0.08643312,-0.1116464,-0.1297918,0.038228936,-0.13477655,-0.1273249,-0.024568144,-0.12945117,-0.03412592,-0.019498114,0.024059145,-0.011693548,0.0042563174,-0.1470443,-0.2546337,0.014993756,-0.046503987,-0.013276978,-0.070763014,0.13317238],[0.017039292,0.13648963,0.05323876,0.016371261,0.14803857,-0.1207397,-0.0055458294,0.04434268,-0.0068517374,-0.17784035,0.088937186,0.048585493,-0.07797335,-0.04668144,0.058269456,0.02324118,-0.034105357,0.09779495,0.08852415,-0.18472609],[-0.09799269,0.040976547,0.056677207,-0.047782145,-0.06630356,0.17385115,-0.07328211,0.004202455,-0.060926065,0.012577009,0.14147197,-0.094671376,-0.067434125,-0.0849975,0.052766167,0.042107817,0.098590426,0.045027286,0.023111572,-0.09677308],[-0.052760437,0.044676155,-0.12695326,-0.061672647,-0.16034624,-0.06277267,-0.032879498,0.15287437,0.007479805,0.24854767,0.038339444,0.03509472,-0.14108059,-0.017761445,-0.08448801,0.052373372,0.022396605,-0.25065964,0.14113484,0.012635225],[-0.09320149,-0.0068033994,0.019182066,-0.0045130025,0.31348634,-0.04661528,0.14264806,-0.18660758,-0.12835054,0.3263019,0.10831224,-0.049567357,-0.024450362,-0.012308879,-0.037355702,0.11146451,0.12061944,0.20968398,-0.09872818,-0.026047474],[0.051200263,-0.09978972,-0.008379747,0.05643717,-0.059506867,0.09360327,0.115703784,0.082187474,-0.084557645,-0.0062562847,-0.028982645,-0.057548385,0.04800506,0.16568965,-0.15207264,-0.0016754442,-0.061128024,-0.12252668,-0.03659876,0.015353181],[0.049159683,-0.041607644,-0.15182602,0.0033427407,-0.12848526,-0.118532375,-0.12217302,0.18986909,-0.2253079,0.16446319,0.07591715,0.01732429,-0.01798266,-0.027392102,-0.13677323,0.06589074,0.11030542,-0.12243113,0.08459099,-0.20923305],[0.1268354,0.055683173,0.070235,-0.02746628,0.122663684,0.008640511,-0.04937719,0.0011322754,0.10127274,0.008518732,-0.11433559,0.01878567,0.05862582,0.008258653,-0.047193132,0.067105025,-0.11916645,-0.13899909,-0.029455723,-0.07647603],[0.011424775,0.23671898,0.0069735073,0.21669267,0.09746974,-0.13884424,0.008061015,-1.4131243E-4,-0.06947884,-0.08548313,0.043556485,0.15760604,-0.12571932,-0.027783792,-0.0039967434,0.14032264,0.105302826,0.0036578705,0.04206026,0.08842991],[-0.1773327,-0.07706703,-0.011363437,-0.038458765,0.062417276,-0.07982056,-0.030110715,-0.09478596,-0.08643307,0.090948135,0.09123199,0.003283024,-0.022930324,0.030524189,-0.108964235,0.12656721,-0.0101352595,-0.17265423,0.0270899,-0.12303129],[0.10288712,0.050003137,-0.13976648,-0.11628677,0.20453566,-0.023042526,0.064868405,-0.25082284,-0.008903849,-0.023247272,-0.05202084,0.06384088,-0.11772535,0.101490766,-0.011505255,-0.11295251,0.20449832,0.015721748,-0.12564625,-0.04544639],[-0.04880558,-0.10246365,0.040129747,0.09612285,0.07140978,0.17852268,-0.08348873,0.018074892,-6.247811E-5,0.12758635,-0.027651528,0.063361116,0.18783288,0.15854564,0.0028452256,-0.05135928,-0.33304745,-0.022753218,0.02767067,-0.018298227],[-0.09602793,0.06217818,0.070981674,0.15847416,-0.05989789,0.16263771,-0.080268465,-0.1432402,0.23276304,0.051200707,0.030488746,0.15897943,0.04217784,0.14700301,0.021624189,0.0024726347,0.021473158,0.08131033,-0.19172515,0.044492047],[0.104739256,0.059281275,0.090220965,0.033928428,-0.27158636,-0.0022892128,-0.09733065,0.010995662,-0.05388715,-0.051459372,-0.19717704,-0.25545228,-0.028180601,-0.102974586,-0.0653637,0.024863098,0.06471323,-0.048933197,-0.12339042,0.09624661],[-0.1443799,0.08430613,-0.021606384,-0.019492138,-0.13449627,-0.04035734,0.101777636,0.16655861,-0.116344675,-0.010932804,0.06072603,-0.078522876,0.09882459,0.14776887,0.21105358,-0.1696666,0.09971551,0.044381212,0.07065482,-0.06473432]]},{"biases":[0.10812287,0.0042477227,-0.17030995,0.13860859,0.14188015,-0.09649396,0.14502053,0.066207185,-0.030695068,-0.032082535],"values":[0.0,0.0,0.0,0.0,0.0,0.0,0.0,0.0,0.0,0.0],"inputWeights":[[-0.16706821,-0.11385673,-0.14964648,0.045538448,0.089781895,0.110704586,0.18477698,-0.05834565,0.007176296,0.06815214],[-0.17417695,0.083180495,0.03097714,-0.20877287,-0.029455608,-0.049198646,-0.019298831,0.11675193,-0.08849147,0.0045506144],[0.06600112,-0.032444328,-0.07883379,-0.22212973,-0.007468962,0.014722226,-0.16412604,0.019134566,-0.10184209,-0.10572331],[-0.16302417,0.27154604,-0.036297314,0.018445762,0.2574508,-0.12720695,0.025063919,0.039616685,0.111169435,-0.027482437],[-0.17632224,0.06787489,0.24112256,0.23475477,0.13474037,-0.04475125,-0.05305244,-0.31371692,-0.0042055277,-0.0639184],[-0.012533632,0.0045673396,-0.031393055,-0.19467723,-0.028675074,5.778738E-4,-0.051773954,0.034713525,0.010628642,0.06820853],[0.0010006849,-0.019191027,0.22999953,0.09256248,-0.123281285,-0.07382779,-0.0065885144,0.0080544045,0.014835704,-0.11073442],[0.14202279,-0.057198055,0.07521061,0.11871629,-0.10781125,-0.10234716,-0.093146466,-0.06171416,0.011360063,-0.004018232],[-0.027733458,-0.06531001,-0.0974285,-0.016309122,0.08243107,0.041477468,0.111533016,-0.12726286,-0.030755041,-0.04892979],[-0.03806634,0.056707997,0.0067583197,-0.23727648,-7.365791E-4,0.027040156,0.029209724,0.03991084,0.061053593,-0.014738877]]},{"biases":[-0.09231248],"values":[0.0],"inputWeights":[[-0.02525336,0.045875784,-0.02116562,-3.6125563E-4,0.020390818,0.013887372,-0.0014052725,0.23564951,0.025108581,-0.040923137],[-0.1019125,0.015047621,0.019471154,0.009701606,-0.03443335,-0.060624782,-0.138203,-0.05940941,0.06258399,0.0851899],[-0.02150364,0.025269972,0.024010926,-0.016518015,0.0032128838,0.069505386,0.012154753,0.1003825,0.013343207,0.13954985],[0.14965694,-0.06276325,0.0357693,0.052069563,-0.18424192,0.12879422,-0.07738353,-0.011507401,0.010189961,-0.0385903],[-0.016138854,0.12792584,-0.025349848,0.011836198,-0.11653038,0.088620685,-0.112745985,-0.18986353,0.041033335,-0.028873114],[-0.067642055,0.0168413,-0.089123785,0.043144107,0.018824121,-0.15092859,0.041112583,-0.31874043,0.03713908,-0.12946352],[-0.19039589,-0.04622818,-0.12242622,-0.025312528,-0.016229343,0.04893452,-0.0065762675,-0.13148919,0.050923966,-0.0035419918],[-0.0846177,0.122690216,-0.12716082,0.049615607,0.27190882,-0.01773301,-0.049067523,0.058401495,0.04916206,-0.030395394],[0.0062237326,0.0019431405,0.039627567,0.055757634,0.0014056759,0.040467687,-0.015185354,0.05419178,-0.076064385,0.01914031],[-0.12303594,0.08451943,0.054845333,-0.012876129,-0.11125428,-0.090313986,-0.06518033,0.033949405,-0.17148262,0.12772039]]}]}},{"fitness":0,"neuralnetwork":{"inputLayer":{"biases":[0.0,0.0,0.0,0.0,0.0,0.0,0.0,0.0,0.0,0.0,0.0,0.0,0.0,0.0,0.0,0.0,0.0,0.0,0.0,0.0],"values":[0.0,0.0,0.0,0.0,0.0,0.0,0.0,0.0,0.0,0.0,0.0,0.0,0.0,0.0,0.0,0.0,0.0,0.0,0.0,0.0]},"layers":[{"biases":[-0.01837127,0.05059177,-0.08206193,0.0066052075,0.10299036,-0.09020214,0.05426361,-0.055786237,-0.03801532,0.060220625],"values":[0.0,0.0,0.0,0.0,0.0,0.0,0.0,0.0,0.0,0.0],"inputWeights":[[0.029913161,0.09285149,-0.03446362,-0.04169978,-0.1309563,-0.19498582,-0.059993207,-0.12829728,-0.02971897,-0.14525394,-0.051103495,-0.018504921,-0.15776747,-0.08809583,-0.013371192,-0.16950187,-0.14081246,-0.0010665478,0.19987191,0.00892301],[0.057615574,-0.08707095,-0.017882993,-0.042891882,0.032416746,-0.06514459,-0.023571387,-0.2034719,-0.045805864,-0.02729428,-0.0052859318,0.012089764,0.040856346,0.003698343,-0.08369226,0.0700538,0.18063019,0.087343,-0.07895716,0.10253278],[0.039021708,0.012936849,-0.03911653,-0.2509009,0.012002928,0.09362186,0.13046628,0.058816604,-0.16703404,-0.012182344,-0.06710252,-0.05174567,0.019914426,0.17128241,0.20492563,-0.045752034,-0.06287921,-0.0859825,0.08689965,0.057094853],[-0.039405778,0.12902415,-0.026670415,-0.16824648,0.006890633,-0.2586968,-0.21252683,-0.002270675,-0.071173914,-0.04950245,-0.054194238,0.119515024,-0.03857765,-0.18937515,0.088401504,-0.16730691,-0.033698753,4.4553747E-4,0.093701184,-0.2386265],[-0.10670979,-0.012489905,-0.14661391,-0.0028991252,0.074074455,0.0333243,-0.017511606,0.04576038,-0.05528567,-0.017549576,0.07830326,-0.11892807,0.06582544,0.071491614,0.008601564,-0.047930602,0.08703191,-0.18024519,-0.0023616098,-9.58118E-4],[-0.026067931,0.048413277,-0.05228002,-0.04169643,-0.051416866,-0.07273739,-0.007345593,0.029817196,-0.036280856,-0.06152948,-0.026601968,0.2091736,0.048474807,-0.043984503,0.02449963,-0.20522557,-0.049389996,0.016994502,-0.037687432,0.028634766],[-0.04144437,0.020481432,-0.14573671,0.019431666,0.03432006,0.004197817,-0.050628774,-0.038616523,0.028372169,-3.959474E-4,-0.045910984,-0.063827254,-0.031633012,0.07726363,0.13611872,-0.14209226,0.0059841084,0.04652563,-0.18234122,-0.0045971065],[0.19041476,-0.027407829,0.05223194,-0.13690884,0.0676753,-0.042713895,0.06871415,0.053178545,0.054600336,0.020544235,0.10174152,0.012192168,0.11460207,-0.029826058,0.035440028,0.13060541,-0.13694839,-0.05779409,-0.0214236,-0.11773736],[-0.09608778,0.017329218,0.13099335,-0.044219203,0.11371509,0.20348792,-0.08813543,0.01605822,-0.059132285,0.026695015,0.03958218,0.118154004,0.0050280234,-0.14824373,0.06226358,-0.15885346,0.0948338,-0.0011139857,0.079903916,-0.043879054],[-0.24373005,0.06037705,-0.01848871,-0.048457846,-0.11186361,-0.20620094,-0.057166237,-0.14128968,-0.034718342,-0.044245962,-0.13792424,-0.057506826,0.045822613,0.08726578,0.07203781,-0.08239185,0.13478114,0.013059122,0.05605812,-0.24064271],[-0.1517885,-0.02208189,-0.08656513,-0.12390495,-0.111457884,-0.172716,-0.009723775,0.123821326,-0.07016421,-0.11444922,-0.10534033,0.008955948,-0.12707216,-0.11756701,0.23088749,0.045356058,0.003051753,-0.025914883,-0.14445211,0.011424101],[0.061021417,0.009012499,-0.03513469,-0.16476895,-0.10263168,0.032795507,0.14943472,-0.124737635,0.032139085,0.07800795,0.07495205,-0.12764612,-0.028160926,0.014914827,0.043245234,0.058823697,-0.06390852,0.10688847,0.11156477,0.045233633],[0.12816055,0.2529207,0.015976526,0.05989028,0.30317783,-0.03025527,0.13637444,-0.13257867,-0.061698053,0.12084875,-0.041279387,0.16843766,-0.09043515,0.034487996,-0.06537087,-0.03728481,0.12939914,-0.027601102,0.059344366,-0.026094439],[0.028028257,-0.11168563,-0.059215046,-0.1105567,-0.008659258,0.006432427,-0.099623084,-0.17471251,0.028499862,0.06801916,0.15963668,-0.19937693,-0.07582371,0.02302733,-0.021034556,-0.07495982,-0.16812181,-0.10255825,-0.06165258,-0.04550375],[0.009586706,-0.034642417,-0.20518032,0.08261507,0.20092507,0.04429573,0.09851178,-0.045954905,-0.102829784,0.066773534,0.07381861,0.13016862,0.02403558,-0.12425243,-0.06801068,-0.059382763,0.08035621,0.13276431,0.041180503,-0.008335168],[0.024930257,-0.19992283,-0.27605823,-0.0121140005,-0.11972968,0.023090258,0.1329753,0.123183265,0.07810083,-0.07790073,0.0758838,-0.013543761,-0.038576897,-0.05888357,-0.068480834,-0.14584035,-0.14732924,-0.15192452,0.12906651,-0.040621795],[0.0821421,-0.06563937,0.03929541,-0.13608995,-0.0565146,0.038188607,-0.025817389,-0.027892979,-0.01991068,-0.09218264,0.048501987,0.037598908,0.024828529,0.30303514,-0.054762967,-0.058867283,0.05457922,-0.014894243,-0.055674747,-0.05095794],[-0.048372265,0.25467804,0.11283575,0.10154172,-0.053388625,-0.023057444,-0.110507146,-0.2697445,0.008624636,-0.012665133,0.1624108,-0.056234155,0.046625644,-0.0028590136,0.0042420626,-0.10380413,0.02615249,-0.13665402,0.06202913,-0.16417432],[-0.18205242,0.13017422,0.040453292,-0.0067888875,0.10665673,0.052986804,0.041480884,-0.08665663,0.21900824,-0.01811286,-0.05999919,0.17641625,-0.113398366,-0.09621857,0.04622876,