{"generationNumber":0,"Entities":[{"fitness":0,"neuralnetwork":{"inputLayer":{"biases":[0.0,0.0,0.0,0.0,0.0,0.0,0.0,0.0,0.0,0.0,0.0,0.0,0.0,0.0,0.0,0.0,0.0,0.0,0.0,0.0],"values":[0.0,0.0,0.0,0.0,0.0,0.0,0.0,0.0,0.0,0.0,0.0,0.0,0.0,0.0,0.0,0.0,0.0,0.0,0.0,0.0]},"layers":[{"biases":[-0.0031028937,0.11686257,-0.051062215,-0.030410146,0.01924409,-0.16664128,0.02813097,0.05273276,0.07475627,-0.027471952],"values":[0.0,0.0,0.0,0.0,0.0,0.0,0.0,0.0,0.0,0.0],"inputWeights":[[-0.18577601,0.049842685,0.18232258,-0.1387459,-0.08664485,-0.019872231,0.044308648,-0.11836699,-0.02493102,-0.018381292,-0.022457084,-0.122032136,-0.008405836,-0.2640533,-0.03530821,0.011153594,0.10910514,-0.108318925,-0.013342086,-0.060205843],[0.029430538,-9.5057907E-4,-0.033097733,0.007301276,-0.15375021,-0.12925877,-0.011442638,0.04574479,-0.005431602,-0.063641675,0.11528246,0.058690727,0.013468842,0.05896086,-0.19433624,-0.26748297,-0.023159413,-0.13527745,-0.016766129,-0.08153846],[0.24655245,-0.0628717,0.10978266,-0.019855294,-0.100753434,-0.05692895,-0.06386196,0.20750497,0.0056601674,-0.14263426,0.1683061,0.13075204,-0.09436468,-0.012700919,-5.5512314E-4,-0.20069763,-0.036286097,0.047935683,0.16234484,-0.11290385],[0.048855048,-0.06550394,-0.115026854,-0.10155654,-0.019774277,0.04487412,0.12572934,-0.20898123,-0.06449194,0.084730536,-0.08139286,0.06396633,0.032186367,0.09393369,0.03668563,0.11111974,0.14817303,-0.00879756,0.030829092,-0.16885456],[0.2310421,0.0573719,0.01834019,0.06794966,0.080465116,-0.051688734,0.08950552,-0.019468008,-0.077177495,-0.20021251,0.05711093,-0.061839648,-0.086294726,0.041210506,-0.13088861,0.22151546,0.045948386,0.12153741,-0.035569318,-0.018266592],[0.004766948,0.028405169,-0.16360544,-0.022039108,0.091442525,0.08417113,-0.07456865,0.18293826,0.09453002,-0.07127649,0.10829303,0.3434178,0.09706533,-0.22005297,-0.16768086,-0.10014971,-0.028230408,0.040246803,0.10702376,-0.21578005],[0.063726954,0.10365755,0.063657366,0.13041121,-0.11413683,-0.021668933,-0.06629613,0.062488966,-0.05478317,-0.02054303,0.09014464,0.18264477,-0.15921919,-0.10140241,0.071869835,0.122377634,0.063287385,-0.16595136,0.09586861,-0.040093347],[-0.11777447,-0.18064003,0.10642667,-0.0654865,-0.10080221,-0.004365815,0.0032368915,0.06834243,0.038243286,0.0029624382,-0.0044941995,0.08685387,0.06240761,0.0012163477,0.09119811,-0.021217726,-0.109113656,0.06765998,-0.17463648,0.01597821],[0.045732945,0.20453666,0.07339123,0.015607286,0.13130017,0.050295338,0.17370185,0.04563499,0.027771087,0.06701271,0.06472549,0.018970195,0.17653196,0.09292103,-0.01704528,0.14340366,0.122325875,0.07176892,-0.02368296,0.0787618],[0.01969407,-0.010445954,0.072509184,0.13891083,0.08802089,0.019929284,-0.032372195,0.011036639,0.06646481,0.087368846,-0.1834656,0.0158245,0.05887813,0.068538636,0.09587908,-0.09539181,-0.08605715,-0.283047,0.22949246,0.040152997],[0.07727656,0.09509411,-0.061830148,0.070244186,-0.034223657,0.0037446984,0.34385633,0.10779774,0.15823473,0.03499423,0.015543361,-0.16731071,-0.012127912,-0.15425865,0.0031541076,-0.025687676,0.048918296,-0.02563636,-0.07916836,0.05451294],[-0.013538807,0.095634006,0.06167311,-0.067531414,0.10922027,0.03503316,0.06819646,0.13318919,-0.23759107,0.129521,-0.064190365,0.09490679,-0.24177562,0.027553981,-0.0056118337,0.1308484,-0.07893997,-0.039236717,0.06578568,0.062328283],[0.14711033,-0.15656483,-0.059160575,-0.056037072,-0.069247544,-0.038223878,0.043181453,-0.0877634,0.030947832,-0.04757517,-0.07330015,-0.07395266,-0.2908669,-0.07210235,0.15388767,0.047984447,0.13140926,0.05868658,-0.27607173,-0.101765856],[0.12048025,-0.042308193,-0.04285909,0.17735372,-0.06212278,0.039088983,0.050681207,0.18717623,0.05468035,-0.13391832,0.09335826,0.16566114,-0.1630574,0.08007086,0.14943843,-0.011969577,-0.07890172,0.11301565,0.02964473,-0.09252185],[0.04938803,-0.10908067,0.16038574,0.07336275,0.13244835,0.15752387,-0.058844525,-0.091929376,0.08682233,0.13365886,0.09963567,0.028062839,0.039703432,0.10533014,-0.03583598,-0.11800811,0.20933889,0.1183839,-0.055634826,-0.078809254],[-0.0050542927,0.04716273,0.24661909,0.14633831,0.0066276924,-0.12129573,-0.17167014,-0.02195657,-0.042814095,0.06942502,0.0059429705,-0.10062451,-0.001022517,-0.06178919,-0.0057173376,-0.05635234,0.106800884,0.01683801,-0.046764087,0.10426934],[-0.015906602,0.08463005,-0.051644113,0.08474533,-0.0012953344,0.16680604,-0.1722565,-0.046551906,-0.26389483,0.04423762,0.009625187,-0.0020685387,-0.020987777,0.087586656,0.015647972,-0.14596573,-0.015274596,-0.07499361,0.017421663,0.05191783],[0.0025397884,0.13598637,-0.09237006,0.0044917474,0.17610973,-0.15447384,-0.04568691,0.014231379,0.22648539,-0.0076081823,0.29020873,-0.12900889,-0.021043584,-0.020344505,4.576752E-4,-0.049038883,-0.041152205,-0.04081363,0.20977513,0.0013058847],[-0.06108175,0.111682214,-0.055817716,-0.08038646,0.04943891,-0.11399788,0.04047659,-0.23706698,0.04617946,-0.039786104,-0.020537347,-0.037876107,0.12015741,0.076758005,0.18748575,0.131945,-0.14738353,0.26331493,-0.055379525,-0.17269823],[-0.12938996,-0.10835126,-0.12761894,-0.012175836,-0.16063769,-0.0797477,-0.16797666,-0.099699736,0.014510403,0.02168439,-0.18682534,0.1443956,0.18044105,0.13206345,0.058366023,-0.12568901,-0.07404645,0.054277282,-0.021284115,0.20459218]]},{"biases":[-0.1409569,-0.073789924,0.1080038,0.18280648,-0.11416693,0.0552223,0.052634656,-0.053484697,-0.13753973,0.12655412],"values":[0.0,0.0,0.0,0.0,0.0,0.0,0.0,0.0,0.0,0.0],"inputWeights":[[0.022230715,-0.21510647,0.090027936,-0.027806947,0.12539537,0.036068775,-0.16217798,0.058782607,0.015262099,-0.082783766],[0.043665834,0.05435579,0.061237596,-0.014698245,-0.12192879,-0.046973582,0.17086843,0.059650376,-0.029186955,-0.0181822],[0.01785939,0.09753525,0.005505995,-0.038312525,-0.16322498,0.13115032,-0.025554981,0.14535703,-0.014902054,-0.070530176],[-0.024785738,-0.08492933,0.054521497,0.036263734,0.07216801,-0.1602989,0.16041382,0.05231296,-0.13510697,-0.19230792],[-0.024598785,-0.05205062,0.1096451,-0.03404888,0.21238056,0.019906048,-0.24288057,0.11582399,0.21562238,-0.021028997],[0.008602787,-0.09549383,0.013349667,-0.11921115,0.001828783,-0.10260614,-0.14121605,0.045296524,-0.11015826,-0.13345414],[-0.085491866,-0.02898026,0.08069211,0.08866576,-0.17726426,-0.024631776,0.050637603,-0.09650951,-0.020957958,-0.09789637],[-0.090762995,-0.08281775,-0.0727001,-0.027867757,-0.1990858,-0.10401056,-0.031746496,-0.029799834,-0.09589971,-0.19550607],[-0.107604094,-0.07480978,0.03178095,0.062214684,-0.04599645,-0.015018449,0.16142362,0.071951345,-0.09936051,-0.038910974],[0.008726615,0.04084612,0.020500785,0.10202348,-0.028539512,0.027199166,-0.19279435,0.06876811,-0.12311597,-0.10283279]]},{"biases":[-0.052717056],"values":[0.0],"inputWeights":[[0.040868744,0.13764806,0.08263558,0.049260557,-0.04857817,-0.1588802,0.26027882,-0.051238786,-0.06120984,-0.08924845],[-0.060089134,0.0031891016,0.013515668,-0.048365995,0.070564285,0.036765832,-0.0029784516,-0.017456032,0.11302274,-0.18590875],[-0.12328767,0.059108097,0.06650943,-0.07329929,-0.21508856,-0.12238269,-0.08948714,-0.017859818,0.30550742,-0.10291394],[0.19277658,-0.0078314245,0.120062955,-0.0046749758,0.0072645675,-0.1221535,0.10753063,-0.0084163835,0.053726435,0.0884715],[-0.053445518,0.028954461,0.07053859,0.20064844,0.042938687,-0.101968296,0.09623217,-0.20767769,0.14115033,-0.0613183],[0.024736993,0.022927612,0.036554363,0.03489383,0.11731766,0.038911797,-0.047281962,-0.20943458,0.015516759,-0.19162102],[-0.050740182,-0.06460999,-0.14535517,-0.12813988,0.0032412142,0.0653853,0.066825576,0.035500616,0.09871173,-0.08929786],[0.05096073,-0.019449705,0.1742418,-0.04266958,-0.037986074,0.016919522,-0.19678168,0.029281039,0.029981548,0.0044020927],[-0.12716174,-0.016876386,-0.1374299,-0.11230872,-0.10118291,-0.0052106753,-0.06451275,0.0052754865,-0.03650123,-0.09332864],[-0.08831627,0.046723373,0.021443203,0.066604465,0.06575518,0.021840626,-0.042374905,-0.12165543,0.057726543,-0.064825125]]}]}},{"fitness":0,"neuralnetwork":{"inputLayer":{"biases":[0.0,0.0,0.0,0.0,0.0,0.0,0.0,0.0,0.0,0.0,0.0,0.0,0.0,0.0,0.0,0.0,0.0,0.0,0.0,0.0],"values":[0.0,0.0,0.0,0.0,0.0,0.0,0.0,0.0,0.0,0.0,0.0,0.0,0.0,0.0,0.0,0.0,0.0,0.0,0.0,0.0]},"layers":[{"biases":[-0.030930052,0.14568888,-0.077456936,-0.021502936,0.012320666,-0.13202067,-0.014978018,-0.069285534,-0.03122401,0.18160798],"values":[0.0,0.0,0.0,0.0,0.0,0.0,0.0,0.0,0.0,0.0],"inputWeights":[[-0.09822825,0.10883962,-0.05375693,-0.20067693,-0.0056140055,0.024065295,0.020483622,0.04399391,0.061113555,-0.1641992,0.0311486,-0.052146353,-0.054458212,0.11026921,0.14508885,0.02320498,-0.14323385,0.1334844,-0.07770893,-0.09313208],[0.03153493,-0.08976876,0.047628075,-0.019047394,-0.07019742,-0.11123864,-0.16966017,-0.1082546,0.06093473,-0.079518504,0.027653817,-0.17226876,-0.04084711,0.20992988,0.13296285,-0.029485567,0.026284533,-0.06403138,-0.08977571,0.1355687],[0.00827525,-0.07671345,-0.014354669,-0.034433767,-0.18074512,0.114862934,0.089382626,0.01705968,-0.042298377,0.055357873,0.071485095,-0.042295378,0.01728097,0.12743644,0.10268084,0.12793247,-0.13239919,0.047675382,-0.07468853,0.01864916],[-0.118937455,0.11638112,-0.011808378,0.011492444,0.08752296,-0.1407069,0.07905911,-0.082317255,-0.027728865,0.03579693,0.16892882,-0.12734862,-0.05006966,0.05054742,-0.038613316,-0.0023945377,0.13387212,0.00849553,0.053116158,0.16465428],[0.08769546,-0.09338607,-0.039911475,0.17787546,-0.08747822,0.1270736,-0.010376221,-0.004988812,0.050972365,-0.008636726,0.018082066,-0.124998026,-0.056123108,0.15392047,0.090471864,-0.020806558,-0.06497758,0.11133318,-0.044962633,-0.046335194],[-0.046875022,0.006149925,-0.07263448,-0.006588778,0.025186663,-0.0030908033,0.24323852,0.12465491,0.069702104,-0.02928053,0.01078649,0.093603864,0.056960005,-0.01059376,-0.085842,-0.1875808,-0.04877468,-0.123389095,0.19499981,-0.0230657],[-0.019546013,0.0010753267,0.054444373,0.036492053,0.07530529,-0.07948492,0.11137282,-0.16621129,-0.115539744,0.2048371,0.01731854,0.05451663,-0.052551065,0.07612367,-0.18574211,0.0030993964,0.04053564,-0.09903724,-0.04904078,0.09686695],[-0.05879968,0.044980083,-0.099927716,0.1467425,-0.16552036,0.06901115,0.058925398,0.013785652,-0.009845693,0.010634127,0.08292822,-0.08554911,-0.11500502,0.06349697,0.10348979,-0.06517332,-0.0027061026,-0.008916191,-0.026523476,0.08603784],[0.114131294,-0.05686577,-0.015157564,-0.123505495,-0.0895553,-0.06551093,0.20479088,0.005465959,-0.0765227,-0.07286452,-0.06786307,-0.16943282,-0.058432736,-0.16292256,-0.01964629,0.05785778,0.086831376,-0.24462779,0.01862414,-0.19703598],[0.11610978,-1.6710663E-5,0.21460542,-0.15718351,0.15380575,0.082222804,0.1131621,-0.0048707863,-0.13953859,0.042705107,-0.16165045,-0.112261854,-0.07462153,0.1139644,0.10176936,-0.086710535,-0.055098135,-0.17601083,-8.9782156E-4,0.0067290715],[-0.085254684,-0.038794596,-0.15830661,0.05457115,0.10255799,0.05887483,0.042514853,0.15636563,0.06621621,0.05289346,-0.031926036,0.07013849,0.042715695,-0.008848346,-0.021950755,0.13638465,0.020965863,0.044321284,0.06370117,0.0025794338],[0.17547406,0.19025981,0.074123524,0.16423298,0.0752759,-0.08338059,0.09237106,-0.038825586,0.031908616,-0.17111805,0.17336619,0.11320996,-0.11238182,0.120539546,0.015418789,-0.13155872,0.106394894,0.018152824,0.071456976,0.1363963],[0.10416187,-0.059546057,0.024556331,-0.023673572,-0.13222106,-0.12681282,-0.107814975,0.064701244,-0.017532097,0.0567989,0.04205921,-0.025282098,-0.006694418,-0.054392513,-0.090343334,0.07261511,0.13304248,0.009956722,-0.15648042,-0.014024457],[0.040222064,0.14303242,-0.048211098,-0.08975197,0.042081643,-0.123866126,-0.07964041,-0.06491975,0.1984131,-0.14917152,0.058493864,0.037105042,-0.033661228,0.11958816,-0.14538452,0.06363153,-0.042041246,-0.14016369,0.090628505,0.023487793],[-0.053756434,-0.063283876,-0.093025066,0.083421424,-3.270492E-4,-0.041715123,-0.19271909,-0.078805365,-0.13121113,0.12993711,-0.011683554,0.10026586,0.06841085,-0.19318935,0.10958014,-0.0024068723,0.087030575,0.32865268,-0.011828749,-0.07325256],[-0.0042708977,0.08189368,-0.11897236,0.11232613,0.053314906,-0.04491874,-0.057190638,-0.18744585,0.040332954,0.06340455,-0.15355931,0.13643593,-0.07115285,0.04758438,-0.15971205,-0.15050572,-0.23080212,-0.033456687,0.007167929,0.006917182],[-0.07739259,-0.018693417,-0.11774733,0.07003186,0.07419242,0.08275606,0.14626345,0.042304102,-0.0026891378,0.051860478,-0.09060617,-0.003802253,0.17812349,0.062860645,-0.097645804,0.09972456,-0.0998692,-0.109379455,0.15081038,-0.065160826],[0.043388255,-0.08162065,-0.011886154,-0.23541284,-0.07835249,0.006794109,0.030111723,0.05366479,0.02072012,0.16591135,-0.13556977,0.05573526,4.644293E-4,-0.06334342,0.2579673,-0.1778227,-0.07185884,-0.010740603,0.057907265,0.15307154],[0.2034358,0.2139591,0.054497253,0.15871,-0.18048424,0.21359226,0.0020273742,0.0056442195,0.06562245,0.061861847,-0.019308439,0.13431478,-0.05868591,0.10842384,0.06919793,-0.020553103,0.17060584,-0.034475207,0.035206266,0.16160694],[0.09496039,0.03875872,-0.06291061,-0.17619567,0.044047713,-0.031188676,0.10106978,0.035127174,-0.024460651,0.07473452,0.019524395,-0.21981563,-0.077927746,-0.009869971,0.0828674,0.15316688,0.2115008,0.03271349,0.074716315,-0.06317904]]},{"biases":[-0.03375821,0.029415919,-0.13965319,-0.04484432,-0.04110825,0.07365074,0.03815295,-0.010047605,0.23755047,-0.11042423],"values":[0.0,0.0,0.0,0.0,0.0,0.0,0.0,0.0,0.0,0.0],"inputWeights":[[0.14668022,0.08567337,0.021459946,0.0134529425,0.02700851,-0.100142345,-0.067111604,-0.022235705,-0.08533352,0.017936625],[-0.113722086,0.0022680152,0.020136934,0.01047022,-0.070726,-0.0035639834,-0.03530285,-0.20030269,0.10841102,-0.10020063],[-0.049822595,0.053737186,0.023440737,0.050061848,-0.13268977,0.021333262,-0.17464176,0.11623865,-0.008268062,-0.030556886],[0.046270248,-0.017909355,0.038458787,0.052157827,0.013830543,0.22493424,0.01835746,0.08423565,-0.07848079,-0.07995029],[-0.0735611,0.19240734,0.019995805,0.08862357,-0.04515211,0.06320752,0.108740024,0.0032566348,0.12154363,-0.15317914],[0.105380856,0.05874771,0.06190591,0.0421709,0.01613541,0.041824993,0.003534452,-0.07591401,-0.09034328,-0.10224432],[0.023969116,0.031679653,-0.016447276,0.13579044,0.02984069,-0.07073269,0.07747946,0.058341265,-0.002291502,0.0066193896],[0.12233074,-0.05539271,-0.14337103,0.040453963,-0.002731878,0.08405424,0.21017593,-0.017791806,0.082968146,-0.07811142],[-0.1085522,0.16766642,-0.03985987,-0.09637454,0.0625036,-0.03100898,0.22093236,-0.068123095,0.040706474,-0.0733194],[-0.14035434,-0.01057645,0.07314534,0.13772468,-0.022688765,0.056829527,-0.07489277,0.13802785,0.083753325,0.07528443]]},{"biases":[-0.009564051],"values":[0.0],"inputWeights":[[0.29498926,0.07351335,-0.018286342,-0.061606154,0.09247515,0.09954134,0.13599595,0.13491468,0.103885196,0.085423924],[0.33440542,0.12180065,-0.20183931,-0.08570986,-0.10722947,-0.08997204,-0.002969041,-0.14295578,-0.08927713,-0.07612229],[-0.06778641,0.11897089,-0.038409606,0.03972819,0.020935258,0.058442183,-0.16561049,0.15666272,-0.01605401,-0.013354928],[-0.078712404,0.09773023,0.021739164,0.104700066,-0.07017769,0.100139044,0.06857596,0.04330046,0.027455756,-0.0027225506],[0.062285997,-0.027966086,0.07754695,0.03864273,0.012265069,0.038150307,0.08119881,-0.091850586,0.1730789,-0.011396251],[0.1411,0.11825938,0.09167582,-0.101460405,0.03269154,0.054980654,-0.069068976,0.16348052,0.09377069,-0.08185737],[-0.19059812,0.012403887,-0.004832935,-0.04011723,0.18729319,-0.044802986,-0.009771243,0.07266724,0.23117046,-0.079563275],[0.090506725,0.051485676,0.08637294,0.003472776,-0.123059645,0.004835377,0.016794998,-0.052301012,-0.25391984,-0.11239299],[0.056283996,-0.067743674,0.07745152,0.03706789,0.22475709,-0.10079297,-0.15769841,1.3133924E-4,0.048685897,0.045521665],[0.02251542,-0.061739735,0.10497953,-0.10867541,-0.062389515,0.15735203,0.075329214,-0.11490017,0.053023066,0.14538562]]}]}},{"fitness":0,"neuralnetwork":{"inputLayer":{"biases":[0.0,0.0,0.0,0.0,0.0,0.0,0.0,0.0,0.0,0.0,0.0,0.0,0.0,0.0,0.0,0.0,0.0,0.0,0.0,0.0],"values":[0.0,0.0,0.0,0.0,0.0,0.0,0.0,0.0,0.0,0.0,0.0,0.0,0.0,0.0,0.0,0.0,0.0,0.0,0.0,0.0]},"layers":[{"biases":[0.15605521,0.122908026,-0.08435316,0.085041024,-0.09252043,-0.20331654,-0.08028889,-0.0066837724,0.1573171,-0.22299883],"values":[0.0,0.0,0.0,0.0,0.0,0.0,0.0,0.0,0.0,0.0],"inputWeights":[[-0.1377202,0.015394655,-0.0059981616,-0.008517254,0.026733741,-0.038107593,0.07915461,0.12530963,-0.05140472,-0.067791164,-0.047543325,-0.06142685,0.025724808,-0.13117705,0.07632946,0.011374883,-0.12026073,-0.069970295,-0.06986385,-0.016338984],[-0.10883665,0.040109366,-0.046904296,-0.026747508,0.012609134,-0.08445498,0.19207047,-0.029596578,0.119226255,0.022484152,0.004108868,0.12660362,0.05405724,-0.10534684,0.21537775,0.07969696,-0.015550987,0.049004946,-0.010356206,-0.066492535],[-0.023560787,-0.009973977,0.045089122,-0.06385698,0.09372748,0.22512686,0.17726278,-0.2500483,0.019325137,-0.11225612,-0.043077044,0.11369698,0.19743256,0.042147722,0.047386046,0.034756225,0.087011114,-0.06696542,-0.054396406,0.08362209],[0.023516059,-0.1526056,0.08176223,0.106124856,-0.055988543,0.09752849,0.011751426,0.04444395,-0.057443593,0.037193567,0.0894411,0.083920136,0.08650529,-0.14349836,-0.15536448,-0.021107994,0.052154902,0.2331391,0.09865836,-0.005372814],[-0.050568987,0.042013712,-0.0066523794,0.10691003,-0.21628699,0.107129216,-0.09895237,-0.068598434,-0.09494134,-0.065077506,-0.0039523705,-0.078527614,0.020764502,0.019337496,0.055834427,0.10343572,0.055204585,0.008236916,-0.116618775,0.13662006],[0.1939091,0.046204504,0.10064011,-0.024651712,-0.12513778,0.020515213,-0.02919125,0.024122275,-0.036496103,0.116987854,-0.098534405,0.01862217,0.10109117,-0.07270157,0.06110476,0.1829251,0.05713599,-0.05966736,0.05859922,0.06876527],[-0.12847647,-0.025833463,0.07223303,0.18001863,0.069402054,0.12093081,0.1650084,-0.050767608,0.14272083,0.27007395,0.024287565,0.017350335,0.013386629,0.16818902,-0.20482256,0.060546238,-0.0617074,-0.046465814,0.08417847,-0.05944403],[-0.17084236,-0.0806471,-0.12462775,-0.10159523,-0.05794967,0.26805413,0.1464564,-0.14277855,-0.043096654,0.1486533,-0.11142651,-0.029474989,-0.04273034,0.04389123,-0.0969119,0.09449532,0.093373135,0.053109847,-0.022154292,0.0035276818],[-0.059084307,-0.03800503,-0.01356728,-0.11984838,-0.112838015,0.1700587,0.07518493,0.07093747,0.23682979,0.08977704,-0.095648006,0.24058752,-0.08753179,0.010143656,-0.0032200408,-0.076244354,-0.07916576,0.15370877,-0.101242475,0.059527952],[0.06285534,-0.043231513,0.050918013,0.15950054,-0.10908346,0.086616345,0.111379534,-0.01572633,-0.06082759,-0.058992535,0.10928207,0.091545165,0.12838335,-0.30352604,-0.14082636,-0.092333324,-0.06527445,-0.0031068334,0.052257463,0.15592389],[-0.06818955,-0.041487373,0.1551314,-0.10901742,0.0040267906,-0.037182376,0.1174893,-5.369736E-4,-0.12701288,0.12341615,-0.052212633,0.11987698,0.058322426,0.03528528,-0.09920681,0.085486054,-0.04606757,-0.13859656,0.086920865,-0.10610524],[0.0990594,0.06169057,0.06817774,-0.17761992,-0.101842634,-0.1444167,-0.012048898,-0.011392521,-0.1492548,-0.0036409583,0.0523368,0.08628255,0.0070982194,-0.22506149,-0.07937389,0.20479052,-0.06938491,0.11314334,0.20932594,0.13293388],[0.03586677,0.13320991,0.10181788,0.083662726,0.05083733,0.08310474,0.092529185,-0.0040090843,-0.07021295,-0.1434215,-0.123457626,0.04672995,0.038372226,-0.0091657825,-0.008206878,-0.053742014,0.12719212,-0.14132866,-0.10104488,0.035387427],[0.046366993,-0.11827649,0.09150499,0.012815388,-0.0103671765,-0.1458009,0.108164646,-0.032094724,-0.11302122,0.06874374,0.14434434,-0.084641784,0.17956689,0.05678002,0.03815105,0.033971574,-0.019306937,0.08878456,-0.10309248,0.062076602],[-0.054906264,0.10405705,-0.03454541,-0.10966161,-0.07575097,0.06900152,0.11604515,0.0054676943,-0.09470222,-0.1506176,-0.21274723,-0.061505448,-0.09324621,-0.10745912,-0.02036794,0.12078919,-0.0424994,-0.06853945,0.001165317,-0.080824114],[0.005353751,-0.14928852,-0.16690156,-0.005101957,0.11852553,-0.11370392,0.071792774,-0.036227077,0.12554838,0.024445256,0.04128269,-0.109467275,-0.06864932,0.15003759,0.043710813,0.033488862,-0.03910366,-0.044994306,-0.13671026,0.010450771],[0.048411407,0.049987815,0.032290448,-0.11259136,-0.1350242,0.025704795,-0.07751703,-0.100406334,-0.07553367,-0.037307728,0.0020951107,-0.15137173,-0.10620339,-0.037228897,-0.09253248,-0.080271706,-0.072160736,-0.09508506,-0.022419576,-0.04027169],[-0.081006736,-0.26973838,0.015942918,0.099631175,-0.007115481,-1.5903357E-4,-0.07814872,-0.06917439,-0.21921453,-0.15866521,0.017824963,-0.027061952,0.049254797,0.28609955,0.042559743,0.0070041018,-0.04103419,-0.009758829,0.07110091,-0.11797821],[0.0047542914,-0.030533854,0.068203986,0.1038938,0.21048771,0.064020924,-0.034785107,0.22027606,-0.09509176,-0.20265858,-0.055581834,-0.01011762,-0.044374596,-0.041995864,0.08957131,0.043741867,0.21273209,-0.059076812,-0.0800269,-0.16126564],[0.16011116,-0.04682705,-0.054969225,0.017676936,-7.613997E-4,-0.092810474,-0.051781546,-0.084190875,-0.038830683,0.21436076,-0.063835986,-0.09718776,-0.17178945,0.11554253,-0.1369871,0.029277073,-0.055843618,-0.08744816,0.026035126,0.03320167]]},{"biases":[0.104084164,-0.13864598,-0.090206616,0.1745462,-0.06349689,0.10646384,-0.033206027,0.08077845,0.08329036,-0.26237783],"values":[0.0,0.0,0.0,0.0,0.0,0.0,0.0,0.0,0.0,0.0],"inputWeights":[[-0.0894177,-0.0046216724,0.11379339,0.063077986,0.13419561,0.13942608,-0.12010306,0.088444546,-0.06820647,-0.018075814],[0.14834844,0.04680881,-0.0048396345,-0.24644922,-0.028903164,0.040813614,0.11999963,-0.032273114,0.18649212,-0.14105415],[0.02285352,-0.054354757,-0.22451039,0.014782276,-0.11950881,0.05551225,0.22253579,0.07832027,0.004623237,-0.19294508],[0.0534539,0.11520466,0.043852404,-0.061499473,-0.06440581,0.0061497586,0.1592357,-0.021889498,-0.021004377,0.020040048],[0.18015964,0.068867266,-0.09620044,0.03812527,-0.023911366,-0.123238444,0.015078647,-0.025535835,0.07976533,0.07314212],[0.12732862,-0.07649276,0.08757245,-0.105598405,0.16190226,0.09298552,0.031418417,-0.07213079,0.02372339,-0.024565704],[-0.1501785,0.055359397,0.05092578,0.040104985,0.16384022,0.11442378,-0.005551809,0.039533477,0.27426657,0.13974208],[-0.03155972,0.08665629,0.08993389,0.16481565,0.1054328,0.030906424,0.049406834,-0.04543415,0.052179657,-0.02544004],[-0.008445942,0.14754294,-0.19148578,0.10617997,0.07172048,0.079909295,0.08032825,0.08669068,0.06607912,-0.045140658],[0.048702788,-0.13756856,0.07298586,0.08582791,0.26690686,-0.041637547,0.028642029,0.20347802,0.026939249,-0.09988912]]},{"biases":[0.11468065],"values":[0.0],"inputWeights":[[0.1079709,0.07753077,0.026245557,-0.0648666,0.04289504,-0.07056055,0.088903114,-0.027624622,0.07510568,-0.12082039],[-0.013342707,-0.25246358,-0.088008165,-0.009567231,-0.0018198759,0.019538976,0.010555096,-0.05170022,0.001069056,-0.15704332],[-0.2110268,0.11262466,0.120206386,-0.13647039,0.07027689,-0.10910713,-0.104395635,-0.03847485,-0.05868964,0.049756855],[0.10116905,-0.042253025,0.05073203,-0.018236797,-0.016009578,-0.05434387,0.094415344,-0.021779932,0.020578045,0.15271723],[-0.034325548,0.068668194,0.023148712,-0.08991073,0.09193766,-0.10763076,-0.061907258,0.039662577,-0.056021404,0.019574305],[0.14443387,-0.08708317,0.21597326,-0.052284013,-0.015956488,-0.07568245,0.043168712,0.12389445,0.012136624,0.07335596],[-0.02209733,0.004968892,0.023280278,-0.09323103,0.0941914,-0.068589084,0.034070544,-0.0272389,-0.32155478,0.015567949],[-0.16364229,-0.005523154,-0.023997488,0.17085195,-0.051095426,-0.09129189,0.096243925,0.010313168,-0.15971026,-0.23624873],[0.091892734,0.1415319,0.060205635,0.107313484,0.1439188,-0.109304436,0.15951416,0.040047295,0.15680024,0.11250743],[0.1646377,-0.2394256,0.029478788,0.13504747,0.11604801,-0.057798833,0.09269044,-0.031295974,-0.11717486,0.0797311]]}]}},{"fitness":0,"neuralnetwork":{"inputLayer":{"biases":[0.0,0.0,0.0,0.0,0.0,0.0,0.0,0.0,0.0,0.0,0.0,0.0,0.0,0.0,0.0,0.0,0.0,0.0,0.0,0.0],"values":[0.0,0.0,0.0,0.0,0.0,0.0,0.0,0.0,0.0,0.0,0.0,0.0,0.0,0.0,0.0,0.0,0.0,0.0,0.0,0.0]},"layers":[{"biases":[-0.015166726,0.11943364,0.078062095,0.0017248887,0.13010277,-0.0061294446,-0.077984,-0.13157457,0.017652541,0.03722537],"values":[0.0,0.0,0.0,0.0,0.0,0.0,0.0,0.0,0.0,0.0],"inputWeights":[[-0.031987306,-0.07456811,-0.10465234,-0.039842468,0.041426416,-0.116140455,0.17429043,0.0880407,-0.110527344,0.107994884,0.017811127,0.045947257,-0.054728586,-0.11591534,-0.08096318,-0.012332873,0.17202345,-0.12643115,0.04344534,-0.20245437],[0.03674942,0.17596279,-0.064008534,-0.121817976,-0.08534195,-0.041994423,0.08305648,-0.068109535,-0.07722909,-0.16607107,0.0037398455,-0.11464527,0.025171341,-0.027887989,0.15915182,0.123572215,-0.0807239,0.18460193,0.041917384,0.031049056],[0.05057862,0.0847021,-0.12147586,0.025160078,-0.04902491,-0.04054271,0.04095614,0.059017085,-0.08511222,-0.0058319448,-0.1068144,0.02923269,0.033936564,0.017533826,0.027832745,0.047263682,-0.090377904,-0.11482235,-0.1519421,0.13915883],[0.09410821,-0.09985394,-0.111704506,0.09251655,-0.019834725,0.092236824,0.2343897,-0.2275588,-0.120238796,0.032558594,-0.0012989821,0.05730979,-0.10136064,-0.14820698,0.07796757,0.064490005,0.050356165,-0.019283235,-0.08163369,-0.087922595],[-0.019988153,0.08914823,0.07943724,-0.06292142,-0.105771385,0.14470232,-0.16971508,-0.006533583,0.05630289,0.086522065,0.041533843,-0.023604888,-0.14050284,-0.079782516,-0.13704364,-0.16900338,0.1222483,0.11252607,-0.0072589708,0.027023034],[-0.14289011,-0.021075618,-0.005907975,-0.15482984,0.052250847,0.12905605,0.1523964,-0.06098863,0.16500376,0.17335449,-0.0062050535,-0.05626542,-0.042750686,-0.12450502,0.11703762,-0.038316745,-0.014429845,-0.09904508,-0.12282263,0.08104493],[-0.0073193144,-0.015007582,-0.048239727,-0.033429988,-0.012703165,-0.03451614,0.04709179,0.16612558,-0.009193547,-0.11843859,-0.039092787,0.07677397,0.02885665,-0.08914125,-0.005827041,0.006736751,0.185005,0.18870907,0.104957536,0.03624692],[0.062675476,-0.032945137,0.06796409,-0.0608886,-0.17882183,-0.14384222,0.08038171,-0.123220004,-0.10241178,0.014823716,0.06145523,-0.12203887,0.124959566,-0.038336564,0.00485084,-0.108496696,0.32848585,0.06638781,-0.22191118,-0.040882528],[0.12348051,0.07500098,-0.24853604,-0.011218773,-0.013045657,-0.10259879,-0.066264294,-0.06729014,-0.1441926,0.09938312,0.085499294,-0.022030601,0.15433592,0.07071334,0.05837122,-0.110229015,-0.03143763,0.115015544,0.0831124,-0.044507302],[-0.055505976,-0.088229895,-0.08479534,0.035704184,-0.03708101,-0.04026001,0.018617915,-0.08211599,0.035809543,0.0088901045,0.08459662,0.08467073,-0.061998766,-0.008791472,-0.09212403,-0.0017176175,0.11425118,5.767166E-4,0.0037765424,0.024587238],[0.06275339,-0.030763732,-0.014233823,0.08840929,0.20017758,0.114633776,-0.014057374,-0.112218015,-0.021657718,-0.006386233,-0.08062617,-0.074431874,0.02799448,-0.093187995,-0.07413242,-0.10447576,-0.13845053,0.074420534,0.077037334,-0.13089477],[-0.0910409,-0.018335499,-0.034993097,-0.055868685,-0.07248898,0.0957326,-0.066310376,-0.08532303,0.03283141,0.15335138,-0.08106591,0.15975873,0.12230824,0.09852126,2.6357916E-4,0.035969995,-0.028831974,0.08123728,0.040195566,0.06689936],[0.17404155,0.013950757,-0.04388149,0.03873537,0.17691055,0.041815408,0.22637442,-0.24899016,-0.06386946,0.08850836,-0.0954033,0.14573234,0.08472787,0.24476151,0.05138304,-0.004520796,-0.03653691,0.14838578,0.12649025,0.045942396],[-0.054512367,-0.012739388,0.036074,-0.021693917,0.08047405,0.04877703,0.18372545,0.07016286,0.005255146,-0.1502663,0.0568641,0.2923327,0.08927309,0.09549121,-0.039054617,-0.028411057,0.1534293,0.043891266,-0.16361794,0.003654985],[-0.06926498,0.11253949,-0.20144303,-0.099791326,0.05698777,0.063865975,-0.049570173,0.011529596,-0.001831792,0.06478549,0.14108032,0.061246816,-0.013444336,0.14054716,-0.1380466,-0.05020457,-0.1963375,-0.01592997,0.12507679,-0.16416155],[0.32897532,-0.1339239,0.081960596,0.047182027,-0.06365405,-0.12967148,-0.12190458,-0.07424976,-0.04795202,-0.046503954,-0.049404744,0.062065873,-0.16070509,0.0940158,0.04522316,-0.105365895,-0.12479062,-0.03895603,0.060897715,-0.074403144],[0.12109571,0.045195315,-0.08529526,-0.098451436,0.1252667,0.062328093,-0.022869393,-0.06608172,-0.02776231,0.02493072,-0.062395576,-0.066498876,-0.044092022,-0.019871162,0.05457865,0.05850757,0.059236314,0.10940495,0.070391685,-0.043966766],[-0.028398018,0.08348338,-0.0202426,-0.061082795,-0.19807927,-0.13266656,0.09355468,0.044581767,-0.018048285,-0.026475515,0.080655485,-0.093648106,-0.058099426,-2.0213712E-4,0.09634334,0.031018818,0.098798014,-0.06529754,0.07214366,-0.10226537],[0.06427292,0.044196256,-0.059086,0.03851795,0.002162063,-0.038190722,0.026844192,0.074073255,-0.09835384,-0.042566773,0.072054595,-0.035204194,0.05070113,-0.019886643,-0.04541178,0.101622075,0.08487519,-0.0061221775,-0.024288058,0.0669746],[-0.0526687,0.006267896,0.21210197,-0.01229078,0.0031422577,0.010585739,-0.2379129,0.33224782,-0.14187804,0.054960046,0.25791466,-0.064476505,0.00397124,-0.007992247,0.024164554,-0.05081646,0.12646419,0.023408862,0.032979723,-0.11141436]]},{"biases":[0.12672056,0.008148692,-0.034774654,-0.08038818,0.09917976,0.23389491,0.031762157,-0.04950931,0.08009886,0.19724831],"values":[0.0,0.0,0.0,0.0,0.0,0.0,0.0,0.0,0.0,0.0],"inputWeights":[[0.11046308,-0.023664655,-0.11936454,0.0074868677,-0.014653509,0.13502765,-0.15064283,0.1047606,-0.07082727,-0.07805751],[-0.093026094,0.08559091,0.02903754,0.07027119,-0.20629375,-0.027738772,-0.04677683,0.03786056,0.13037816,0.043891963],[-0.015806511,-0.14703299,0.093434595,-0.007520579,0.025768505,-0.13655873,-0.017156187,0.0952662,-0.072489634,-0.045261003],[0.042728268,-0.072858214,0.044705696,0.09835262,0.09528185,0.09453781,0.08593218,-0.076177485,0.10790916,-0.1174463],[-0.09931534,-0.1023069,0.066190064,-0.07654777,-0.113919735,0.0044428506,-0.100294985,0.106523775,-0.14376706,-0.030657804],[0.08282452,-0.08271791,0.0019187037,0.072675884,-0.08724109,-0.025856812,0.07552668,0.08358511,-0.05654125,-0.06408691],[0.0012069729,0.19786215,-0.10461111,-0.11219202,-0.024059305,-0.0044127745,0.124272645,0.05387391,-0.20285912,0.08115986],[0.015451121,-0.032637574,-0.26153168,0.015155189,0.07016066,-0.10891017,0.12472361,0.043987636,0.06737335,0.042764176],[0.06494865,0.11905588,0.023074064,-0.23142052,-0.1612167,0.12633972,0.1045579,0.05131895,0.025246732,-0.084624685],[0.14926048,0.033841178,-0.08839972,-0.14539577,-0.10787314,0.07050646,0.10791826,-0.027760144,-0.019471565,-0.0012282404]]},{"biases":[-0.065662324],"values":[0.0],"inputWeights":[[-0.07205483,0.022684589,0.06570927,0.028241044,0.1600362,-0.03984135,0.0034416793,-0.023401873,0.039884675,0.07671299],[-0.13156137,0.029918509,0.23170216,0.13257496,0.063990794,0.08853646,-0.0067895474,-0.002023489,-0.052786488,-0.07537566],[0.14233,-0.12211081,0.06900828,-0.18483311,-0.001957403,-0.02104906,-0.08893262,0.0014591601,0.017267037,0.011275591],[-0.097694494,-0.011227983,0.032991216,0.32899353,-0.039337657,-0.100706264,-0.16514489,0.14410436,-0.014923376,-0.022873085],[0.17508867,0.04056864,-0.055583075,0.047929015,-8.337486E-4,-0.1381717,0.087177396,-0.01627527,-0.059659593,-0.06492723],[0.111103706,-0.05792257,-0.13349493,0.026607905,0.05354418,0.02309611,-0.045497622,0.042289637,0.021043062,-0.17177925],[0.023582382,0.11033908,0.07037802,0.0024217449,0.08385664,0.09082344,-0.03716889,0.06443627,-0.0029389,-0.0726903],[-0.115875416,0.07999374,0.14484048,-0.010868637,0.10349193,0.06381328,-0.27038705,-0.06134895,-0.016823625,0.069137566],[0.094960004,0.08803892,0.075270064,-0.07557868,-0.12536728,0.021406159,-0.063147634,-0.07884659,-0.101802066,-0.18589635],[0.09309266,0.02149854,-0.07905909,0.16006452,-0.06960267,-0.06668782,0.13114423,0.02948176,-0.014323039,0.041342318]]}]}},{"fitness":0,"neuralnetwork":{"inputLayer":{"biases":[0.0,0.0,0.0,0.0,0.0,0.0,0.0,0.0,0.0,0.0,0.0,0.0,0.0,0.0,0.0,0.0,0.0,0.0,0.0,0.0],"values":[0.0,0.0,0.0,0.0,0.0,0.0,0.0,0.0,0.0,0.0,0.0,0.0,0.0,0.0,0.0,0.0,0.0,0.0,0.0,0.0]},"layers":[{"biases":[0.0930085,0.012491215,0.07598355,-0.027061516,-0.04158853,-0.011959962,-0.06386086,0.066469535,-0.0060947193,0.11605039],"values":[0.0,0.0,0.0,0.0,0.0,0.0,0.0,0.0,0.0,0.0],"inputWeights":[[0.044566967,-0.012349741,-0.09052433,0.10846147,-0.09711296,-0.06781723,-0.002776892,-0.10188237,0.015422072,-0.082504,-0.0134162,-0.07792615,-0.034806293,0.006747893,0.114173695,0.059295516,0.010183078,-0.08907825,0.06770131,0.047986366],[0.04645761,0.17842685,-0.049050596,-0.084062755,-0.004479946,0.034701232,-0.0023787683,0.053111814,-0.11979892,0.033597007,0.115927264,-0.10524927,0.074795194,0.05449487,-0.06046508,0.019199384,-0.23081727,0.089503594,-0.11815789,0.08700173],[-0.069323085,-0.13850945,-0.07587673,-0.13816433,-0.0677223,-0.2205608,0.19099325,0.19621173,-0.068043746,-0.059237048,-0.03035063,-0.066073984,-0.022727616,0.046928257,0.07782056,0.09597273,0.0048745247,-0.029902969,-0.113799684,0.004248753],[-0.075155824,-0.122491054,0.051507715,-0.04574792,-0.05898187,-0.12339715,0.11449042,-0.0042339037,-0.05833445,-0.08717475,-0.18766683,0.07197744,0.083615854,0.044714347,0.012067826,-0.12535796,-0.085398026,0.094208635,-0.14536594,0.017282108],[0.11948483,-0.0180284,-0.067888096,-0.02867484,-0.11506361,0.039686948,0.029710522,-0.024944855,0.06858183,-0.069393925,-0.048552148,0.057111148,0.12894318,0.109064646,0.042845912,0.018948073,0.14477175,0.059318133,0.105924994,0.18070185],[0.09372706,0.18769196,-0.05746714,-0.0132180005,-0.020754829,0.06649722,0.06314496,0.009435829,-0.060968705,0.05569951,-0.036603156,-0.14271443,-0.05709648,-0.025143174,0.022643857,-0.018367784,0.09267347,-0.035660267,0.027125634,-0.13126218],[0.005684188,-0.035161737,-0.09403365,0.08932538,0.05853113,-0.08981097,0.070961304,0.09734923,-0.035465743,-0.06997742,-0.07316829,0.011046555,-0.26396343,-0.21772577,-0.027117942,-0.08167911,0.01955553,-0.19411224,-0.06271706,-0.08224833],[0.06984944,-0.13711946,-0.019481009,0.07503927,0.13346007,0.017812971,-0.02754617,-0.065531485,-0.14323397,0.028477846,-0.10261919,0.02059603,-0.108471125,0.18090943,0.04556257,0.18594675,0.10677425,0.13693194,-0.0034072169,-0.11518065],[0.057987384,-0.06685933,-0.09252206,0.021307081,0.009110366,-0.12769334,0.028578712,-0.00505165,0.021703217,-0.037060086,-0.13524316,-0.14276497,-0.13585211,0.14472665,0.17197113,-0.04720447,0.08109605,-0.14128424,-0.073967166,-0.17101267],[0.11060871,-0.16483153,0.06906321,0.042127486,-0.026317501,-0.008226944,0.07662532,0.036222186,0.063191675,-0.197328,0.07013739,0.10009095,0.03394209,0.021449815,-0.038240295,0.035988897,-0.21909846,-0.059621077,-0.10908548,0.08474183],[0.1886332,-0.05337613,-0.044271324,0.044074688,0.13549976,-0.124848954,-0.029370027,-0.05867319,-0.08165869,-0.107769646,0.13244535,-0.004007263,-0.005512374,-0.0494908,0.059055008,-0.13970204,-0.07538252,0.024025563,-0.08360356,-0.0909109],[0.08112546,0.055389512,-9.3714235E-4,0.024815354,0.022016337,0.04427503,-0.26796064,0.051120892,-0.039424315,-0.055619776,0.05879755,0.056070127,0.0337155,0.018654104,0.12190849,0.009000176,0.0040425346,-0.07548685,0.06423903,-0.05293267],[-0.12293899,-0.13407882,-0.018182915,0.021644223,0.23194304,-0.04814795,3.4538997E-4,0.090303674,0.16717233,0.016043978,-0.1975417,-0.150623,0.0791757,-0.044669062,0.12083674,-0.0803366,-0.08255876,-0.016860561,0.08822937,0.18662922],[-0.06574853,0.004174215,-0.10723522,0.082215205,0.027891418,-0.31565914,0.07489824,-0.08525234,-0.23946463,-0.13093463,-0.1625095,0.030395724,-0.062978044,0.005064599,-0.033851344,0.016228618,0.15475573,-0.1029708,0.041916847,-0.09945996],[-0.04244474,0.14375447,0.20603648,-0.09881576,-0.080281086,-0.03436031,0.06760006,0.1340997,0.011080013,0.0032473498,-0.07209092,0.21492107,-0.22407728,0.1672358,-0.002602579,-0.011301049,0.024346955,0.19006003,0.023746388,0.025220722],[0.062849365,-0.0598462,-0.017247427,-0.01393294,-0.048931256,0.004477983,-0.041648746,0.03626547,0.1654216,-0.15754747,0.0118266335,-0.08193532,0.036237035,-0.007637026,0.09954857,0.13771798,0.005003887,0.014600749,-8.632756E-4,-0.09854472],[-0.058885913,0.06792305,0.010947945,0.030594742,-0.19089599,0.13740052,0.08427873,-0.01806573,0.04212921,-0.05998117,0.046934966,0.0059610056,-0.03566554,0.08992678,-0.07856213,-0.011789991,-0.022357062,0.017230785,-0.1850753,0.10416837],[0.0911014,-0.077290185,-0.044439975,0.12770376,0.012163285,-0.13807417,-0.024641482,0.06438191,-0.11286386,0.14962637,0.150502,0.1509572,-0.01319794,-0.017649418,0.039711483,-0.06361592,0.11329091,0.108839124,0.122639626,-0.05411907],[0.13732162,-0.047141563,-0.2312326,-0.01897414,-0.080656275,0.032005064,0.11904262,0.037567627,-0.05462642,-0.1203182,0.17276011,-0.013543939,0.121305585,-0.23480774,0.0277868,0.012394179,-0.061895728,0.0044071656,0.09808573,-0.14005104],[-0.101831645,-0.12125235,0.18608163,-0.113600194,-0.09733646,-0.04114289,0.11449972,-0.017812591,0.23476364,0.013496808,0.040279556,0.05518804,-0.09043337,-0.047437668,0.06370389,-0.012522255,-0.15850237,-0.054413944,-0.0048103454,-0.077694185]]},{"biases":[-0.05847709,-0.14621279,-0.04388867,-0.013229248,-0.081461556,-0.08677943,-0.08457614,-0.16473113,-0.13815597,-0.045604493],"values":[0.0,0.0,0.0,0.0,0.0,0.0,0.0,0.0,0.0,0.0],"inputWeights":[[-0.13413018,-0.023903096,0.06478248,-0.0022387446,0.053073164,0.060290758,-0.081887506,0.004573423,-0.012173152,-0.13543071],[0.03616911,-0.028263804,0.04694517,0.2480335,-0.1630271,0.058089856,-0.027763816,0.10102256,-0.04664515,0.04856157],[-0.10403988,-0.025041768,0.06693321,-0.117254056,0.08368155,0.045689117,-0.09855805,-0.02784537,0.10476453,-0.074432336],[0.05591937,0.08614991,-0.16440172,0.037282497,-0.19229127,0.19248532,-0.10586175,-0.0844707,-0.050522428,-0.030737301],[0.032405224,-0.08200986,-0.021558128,-0.019959632,-0.020540275,0.059917253,0.0065535707,0.099181086,-0.06022762,0.09152606],[-0.0346586,-0.07850165,-0.06628743,0.042669903,-0.1223263,-0.14482367,-0.074196786,-0.12793902,-0.092546925,0.019541746],[0.02844765,0.11357286,0.03248773,0.031419385,-0.05225353,0.04239826,-0.13160157,-0.11699092,0.074698895,0.08780973],[-0.12737717,0.07742282,0.10170464,0.04185716,0.018076727,-0.059812516,0.013633847,0.11464436,-0.016097309,-0.099668294],[0.032063242,0.15825056,0.18387058,0.028504165,-0.11871148,0.02172544,0.03762826,-0.0049597444,0.11415625,0.06863445],[-0.052924033,0.14371786,-0.14013067,0.0027154023,-0.1442439,0.12146242,-0.050388303,-0.0013506904,-0.055255562,0.105606735]]},{"biases":[-0.013097142],"values":[0.0],"inputWeights":[[0.20531663,-0.0017207264,0.039643046,-0.11219218,0.13604191,-0.10325364,-0.0068667443,-0.014629281,-0.0013188067,0.03433994],[0.017734414,-0.18107855,-0.16462822,-0.11031102,0.13026835,-0.16226125,-0.09668286,-0.030473907,0.07473651,0.014045242],[-0.10611139,0.03187849,-0.11777344,-0.21615544,-0.06916414,-0.13538465,0.25780138,0.031466145,-0.23085597,0.1954377],[-0.10320609,0.06806699,0.030887296,0.024131326,0.0017530257,-0.050401438,0.026298136,-0.07854518,-0.12019043,-0.03855442],[0.037670687,0.07335627,0.121886276,0.06458431,-0.102160305,0.041833833,-0.01872705,-0.047844067,-0.020640627,-0.056357853],[0.062057864,0.05782134,0.038927656,0.22738361,-0.02705765,0.05741945,0.001647041,7.549425E-4,0.106640674,-0.058911204],[-0.09068433,-0.07020038,0.012703372,-0.08782165,-0.021346703,0.115199685,0.0141016655,0.03953028,-0.09358053,0.13324358],[0.093834214,-0.21512046,0.08303599,0.067579314,-0.050452095,-0.037204593,-0.2543138,0.1391422,0.119386315,0.0018755055],[-0.13859148,0.02549255,-0.047719702,-0.035023954,-0.0013138314,0.021364566,-0.028922455,-0.07693417,0.01945198,-0.113927305],[0.019891426,-0.035522673,-0.061047323,0.03315951,0.11398075,-0.0042298916,-0.15313485,0.09661778,0.038301308,-0.0050801183]]}]}},{"fitness":0,"neuralnetwork":{"inputLayer":{"biases":[0.0,0.0,0.0,0.0,0.0,0.0,0.0,0.0,0.0,0.0,0.0,0.0,0.0,0.0,0.0,0.0,0.0,0.0,0.0,0.0],"values":[0.0,0.0,0.0,0.0,0.0,0.0,0.0,0.0,0.0,0.0,0.0,0.0,0.0,0.0,0.0,0.0,0.0,0.0,0.0,0.0]},"layers":[{"biases":[0.039681338,-0.049662594,0.015844801,0.014248965,0.039614268,0.1322208,-0.05680103,-0.13813272,0.05578564,0.14010367],"values":[0.0,0.0,0.0,0.0,0.0,0.0,0.0,0.0,0.0,0.0],"inputWeights":[[-0.020212296,0.04881127,0.03740898,0.033815335,-0.0056261285,-0.06286068,-0.07916334,0.10834674,-0.0487644,-0.03126136,0.32190582,0.16319789,-0.07725682,-0.15357369,-0.08897066,-0.083638415,0.14185679,-0.022776315,0.02898939,0.067346446],[-0.15205283,0.07461724,-0.01934868,0.05654522,-0.15420954,-0.009019946,0.008854891,0.1909246,0.09260043,0.11186476,-0.016732594,0.035401575,-0.11768989,0.137817,0.072447225,0.040142175,0.09461165,-0.0289216,0.025442313,0.005759441],[9.506678E-4,-0.054514926,-0.01488051,-0.0033999013,-0.098111704,0.08613409,-0.056747295,0.19515167,0.009742334,0.13396849,0.12543377,-0.0132535,-0.057213616,0.22674231,-0.025654647,0.018947748,-0.13941422,-0.087689795,0.08799349,-0.029173149],[-0.17162552,-0.114427045,-0.075123146,0.014171398,-0.18834634,0.08011065,-0.009172627,0.058235176,0.11794941,0.0536314,0.094616815,0.04555554,0.014909298,0.043000143,-0.04497371,-0.21430004,0.115799315,-0.040107857,0.18949996,0.122477554],[-0.0016420407,0.09758428,-0.10209438,-0.0051433654,0.0010344997,-0.013902582,-0.19825011,0.09243334,0.00989396,0.02703552,0.027543165,-0.020899253,-0.017496206,-0.06132945,-0.16493149,0.1261307,0.107412934,-0.016411817,0.0024937706,0.05299617],[-0.14184718,0.114234254,-0.086728975,0.05265697,-0.025053438,-0.11268986,-0.10903214,-0.21834171,-0.24224462,-0.06042891,0.1204208,-0.034293026,0.1458633,-0.06316497,0.052218486,0.093914405,-0.044556163,-0.12566075,0.01646587,0.01671362],[-0.062231172,-0.07321724,-0.06924511,0.11587601,-0.03701911,0.023296956,-0.20841345,-0.026296379,-0.028642705,-0.02996639,0.07354021,-0.08814745,0.07155675,0.0029961197,-0.20228124,-0.15557103,0.121746495,-0.14798258,0.1550157,0.081942484],[0.040110424,-0.06033866,-0.08871946,-0.0020723385,-0.04606234,-0.06642694,-0.09432901,-0.11957722,-0.037853,-0.08370429,-0.12102291,-0.11826329,0.14107686,-0.065292224,0.008992061,-0.0047814273,-0.060575053,-0.08361465,-0.0014771309,0.025634399],[-0.0056933775,-0.03399231,-0.025474336,0.029972719,0.074626274,-0.13932163,-0.02704081,-0.14294076,0.082861416,-0.08489127,0.03911176,-0.07272979,-0.10078446,0.0471758,-0.023945302,0.0061997445,-0.108301006,-0.12607646,0.09562937,-0.0054432168],[0.038913596,0.031930022,-0.07070093,-0.024225127,0.18604577,-0.103605494,0.082385756,-0.0425518,-0.03364996,-0.05816518,0.0016814577,-0.26635963,0.11451764,0.06547254,0.041965574,0.002366856,-0.18637857,0.17913738,-0.048639823,-0.24588871],[-0.15700361,0.0060239527,0.04588705,0.04084587,0.05710031,0.09296046,-0.10071332,0.23677753,-0.091646545,0.0063847504,0.023090726,-0.11484425,0.06709309,-0.073457,0.0071129887,0.076040626,-0.10093872,-0.19073845,0.10692082,0.06408994],[0.006617434,0.07135491,-0.031576164,0.043695487,-0.20738955,0.017000021,0.10694425,0.018413458,-0.13691173,-0.022900563,0.029202059,0.055481512,0.12856148,0.046858415,0.099891454,0.18854563,-0.024886489,-0.33236524,-0.14396282,0.21945646],[-0.07144743,-0.055970278,-0.071664646,-0.09956631,-0.099851795,0.07999675,0.044201862,-0.0012143514,0.045704287,-0.016063785,0.088910356,-0.005680846,-0.0035459457,0.015226136,0.04399006,-0.0501442,0.029938836,0.01174326,0.024988813,-0.08984424],[-0.008709614,0.07523469,-0.1540045,-0.11150229,0.089341186,-0.06471639,-0.07829773,0.16095488,0.10008895,0.21951321,0.16880171,-0.07881318,-0.020749968,0.05888815,0.04537929,-0.114025556,-0.08554518,-0.25397387,0.154747,-0.02414426],[0.0035912099,0.20577595,0.009583465,-0.21448076,-0.044364553,0.10528147,0.06508634,-0.1279017,0.06172292,0.070414454,0.036209565,-0.07297622,-0.07652021,-0.08954052,0.105204344,0.08977322,0.05346339,0.051013045,0.011480709,-0.013386554],[0.13789096,-0.037667435,0.07885088,0.06414507,-0.08265687,-0.016672662,0.12215516,0.09253163,0.15187283,-5.067184E-4,0.09837383,-0.06185976,-0.06673558,0.025939276,-0.0060550817,0.06518294,0.0694402,-0.06318306,-0.07877337,-0.13571495],[-0.061620206,-0.009914587,0.048721604,0.04782508,-0.04927821,-0.040589705,-0.19499277,-0.10532791,-0.05899573,0.013831129,-0.12659967,-0.12585811,0.15095313,0.027346458,-0.0048872246,-0.120596066,-0.08484435,-0.06902941,-0.059653014,-0.08059915],[-0.0109136235,0.013402385,-0.068287924,-0.056349374,0.3079862,-0.0017588937,-0.009058349,-0.10521408,-0.03541052,0.05911754,0.01186528,-0.03140833,0.15300111,0.23185338,0.10666565,0.077626586,0.19117388,-0.13804719,0.10168271,0.047276676],[0.103680685,0.052355494,-0.06440314,-0.038266934,-0.19676824,-0.02923567,0.0048889588,0.043052368,-0.14936453,-0.10652736,-0.027106637,-0.14166251,-0.076263465,0.1693716,0.08295939,0.18517943,-0.23623928,0.06610767,0.14983258,-0.021152183],[0.032046337,0.005864018,-0.11580344,-0.0947983,-0.10929045,-0.0058595845,0.08601965,-0.06605747,0.016919797,-0.028800095,-0.045967296,0.0925885,0.055709947,0.05617224,0.15141277,0.022542289,-0.03590118,0.115929544,-0.03446132,0.048238624]]},{"biases":[-0.0012154577,0.03054172,0.012139238,0.06668033,-0.010784421,-0.041687652,-0.05066415,-0.10074067,0.0320722,-0.07118571],"values":[0.0,0.0,0.0,0.0,0.0,0.0,0.0,0.0,0.0,0.0],"inputWeights":[[0.04299755,0.14949873,0.0094418265,-0.10310701,0.10524547,-0.09015876,-0.16139002,0.16151911,-0.0025722655,-0.053685367],[0.18840268,-0.03805347,0.10112915,0.09032586,0.067208074,-0.046967596,-0.120404795,0.08923477,-0.17887272,0.1530745],[-0.05380347,0.14768597,-0.054433707,-0.1305393,0.17212006,0.020056354,-0.06778089,0.13169809,-0.039320882,0.023826364],[0.0047043515,-0.10531513,0.0074200844,-0.011909235,0.0626639,-0.09861066,0.10090748,0.0876619,-0.028934317,-0.043261677],[-0.01082453,0.0046979617,-0.12751903,-0.16544011,0.011665124,0.07796236,0.034761503,0.03939039,0.1429906,-0.0800308],[-0.0031427287,0.03924542,0.094921745,0.016009498,-0.18827078,-0.08715023,-0.06724716,0.016709354,0.049036957,0.22099912],[-0.013882147,-0.091139846,0.24926068,0.037508998,0.09339188,0.044747993,0.033966158,-0.11877165,-0.046713136,0.3853587],[0.07392776,-0.027869636,0.039398264,0.1140654,-0.0583875,-0.0290823,-0.027373565,-0.035251807,-0.005652523,0.13079008],[-0.053237412,0.022255555,-0.04356857,0.076458424,0.0043208827,-0.01325651,-0.018977573,-0.09407754,0.01981074,-0.09485799],[-0.0061849644,0.18455136,0.009459444,0.11965654,-0.13306817,-0.08393863,-0.064892314,-0.02434877,-0.0826799,-0.08612022]]},{"biases":[0.011796459],"values":[0.0],"inputWeights":[[-0.19516999,0.17504078,0.011507742,-0.0107428245,-0.030556833,0.056737624,-0.04207354,-0.054003347,0.08779868,0.3527319],[-0.18390772,0.13639912,-0.19307618,-0.18790175,-0.023366963,0.0878981,-0.025422385,0.07733487,-0.08217598,-0.018699475],[0.22697212,0.06613806,-0.05505796,-0.115231395,0.002782766,0.13036476,-0.08187673,-0.11759607,0.10520589,-4.7061872E-4],[0.10168595,0.16044614,-0.0784491,0.04140577,-0.028913116,-0.051606957,-0.22407942,0.036769353,-0.14538388,0.0632045],[0.1809901,-0.018708458,0.020108966,-0.06893063,-0.07654554,-0.10104797,-0.11866277,-0.020659545,0.08901405,0.035829976],[0.021186467,0.060683236,0.10570645,0.16052745,-0.07970707,-0.17280902,0.06270653,-0.039818663,-0.004454657,0.057260267],[0.0917336,0.16490737,-0.13302036,0.13972194,-0.033432562,0.22761452,-0.049240075,0.06303669,-0.07059247,-7.535396E-4],[-0.15926614,-0.007628185,0.033942666,-0.011787932,0.14140268,0.039387237,0.13064143,0.124013886,-0.10204371,-0.0872363],[0.030572265,-0.022169538,0.114182174,0.034861565,0.036952056,-0.17612103,-0.16718271,-0.01588399,0.011172054,-0.07367651],[0.09374122,0.027811557,0.2089443,-0.18439375,0.06075442,-0.0031420747,0.059799794,0.06596355,0.027574733,-0.074933186]]}]}},{"fitness":0,"neuralnetwork":{"inputLayer":{"biases":[0.0,0.0,0.0,0.0,0.0,0.0,0.0,0.0,0.0,0.0,0.0,0.0,0.0,0.0,0.0,0.0,0.0,0.0,0.0,0.0],"values":[0.0,0.0,0.0,0.0,0.0,0.0,0.0,0.0,0.0,0.0,0.0,0.0,0.0,0.0,0.0,0.0,0.0,0.0,0.0,0.0]},"layers":[{"biases":[-0.087004416,0.010714332,0.032774903,-0.20412682,0.06646305,0.033278674,0.0033378357,0.05145605,0.099107996,-0.018720148],"values":[0.0,0.0,0.0,0.0,0.0,0.0,0.0,0.0,0.0,0.0],"inputWeights":[[0.15321416,-0.023679348,-2.8228614E-4,0.071812056,-0.04028388,0.04147853,0.07145187,-0.061913893,0.03646745,0.03090572,0.019994635,-0.13705328,-0.22018515,-0.20024088,0.06686862,0.033082895,0.02179027,-0.057350606,0.017684795,0.08324133],[0.10131561,0.046501063,-0.022261264,0.040950842,-0.1219325,0.031677827,-0.010094574,-0.043005813,0.0021187074,0.08358317,-0.11062038,0.059551384,0.13348868,0.05904915,0.26199183,0.039256055,0.22533186,0.07919825,-0.20687357,-0.05707971],[-0.02169561,0.1618453,0.1146167,-0.029704427,-0.024741843,0.026435878,0.1222439,-0.06811146,-0.15543127,-0.06755888,0.03389816,-0.16964728,-0.065891884,0.068373844,0.27650684,0.16598542,0.09913748,0.011675364,0.15605512,-0.007960355],[-0.08681353,-0.15651987,-0.09329358,-0.10338846,0.11955002,-0.043461267,-0.086093694,0.12774572,-0.08683428,0.021504492,0.08567532,0.11065575,-0.037157647,-0.10950964,0.14264587,-0.01772767,0.052674226,0.059758063,-0.0012134538,0.2841938],[-0.04649664,0.15825015,0.14694184,0.004209557,0.097975425,-0.009352477,-5.647239E-5,-0.042293116,0.16070808,-0.045601394,-0.19003108,-0.06120077,0.15147649,0.040033888,-0.010768004,-0.11370566,-0.028794954,0.045568496,-0.048821785,0.1825302],[-0.036222827,0.019378796,0.020950612,-0.081994355,0.02139132,-0.09771587,-0.13108194,0.060616463,-4.3427118E-4,-0.14150581,0.12516148,0.10189044,-0.16297051,-0.046674732,-0.14252615,-0.07158734,-0.0067191995,-0.13469039,-0.1873333,-0.0023270876],[-0.05355261,0.107713394,-0.09713423,-0.042174213,-0.034879368,-0.03308279,0.0100313565,0.21090852,-0.06422306,-0.10505876,0.12976213,-0.091047905,-0.10822477,0.031975478,-0.027761972,-0.03431417,0.029138045,1.413985E-4,0.10862062,0.038724508],[1.1160171E-4,0.00686527,0.0797639,0.10914089,0.10625017,-0.032287594,0.13229166,-0.021887159,-0.037762668,-0.16317256,0.009548257,0.046138685,-0.02256716,-0.021638531,0.0669371,-0.019996217,-0.08726955,-0.057433702,-0.028672047,-0.12807943],[0.056952078,-0.12557922,-0.015965668,0.043125253,0.13987038,0.105076164,0.026097815,-0.06492483,0.0126045495,0.16658042,0.10730401,-0.023613883,0.10810159,-0.009102994,-0.07144472,0.25149408,-0.13418181,-0.22571346,-0.07821468,0.031225896],[-0.051843416,-0.015758187,0.052495614,-0.053644944,0.14461842,0.03340246,0.100187376,0.0931142,-0.17624517,-0.04449914,0.033065796,-0.028395955,0.13727435,-0.062633395,0.01908016,-0.29328647,0.07719883,-0.0577798,0.17549336,0.08202858],[0.11210898,0.0485879,-0.15216525,0.008381711,-0.050762966,8.3636196E-4,-0.22125994,0.0802465,-0.099117406,0.14963599,-0.08996864,0.04359436,0.003290864,0.025328204,-0.08354328,0.06656544,0.04086244,0.035753414,-0.13502198,0.14044257],[-0.08514426,0.01712356,0.0029678934,-0.0149090355,-0.010632551,0.057758752,-0.013398503,0.07622487,0.005454183,-0.20248654,-0.12709202,-0.18569627,0.0061586928,-0.10765701,-0.02255602,0.019739823,-0.15287004,-0.04320718,-0.023966812,-0.042941373],[0.19548161,0.20655565,-0.03709156,-0.060155813,-0.032920774,0.01760813,0.06215876,0.294402,0.15921347,-0.07071353,0.023631535,-0.069906,0.041070525,0.067610346,-0.012760961,-0.047121834,0.09614799,0.097047314,0.020111782,0.02401046],[-0.034487765,-0.09826789,0.026023991,-0.0058001983,-0.19702117,0.010627131,0.077537745,-0.034142256,0.10619172,0.096355334,0.009755684,0.013082986,-0.038068116,-0.13959631,0.08124844,-0.00618329,-0.021893147,0.123511806,-0.056549914,-0.088205755],[-0.15368015,-0.0022398953,0.041815355,0.027611138,-0.0088439025,0.0110937115,0.0026043265,-0.0043687243,-0.11169475,-0.009124706,-0.052157663,-0.010798576,-0.10773906,5.086436E-4,-0.035132334,-0.030894961,-0.25284386,-0.06579472,0.0277174,0.08770305],[-0.078133814,-0.057620008,-0.054635793,-0.13116886,-0.050783407,-0.11161179,-0.18929583,-0.20952354,0.076325476,-0.12573852,-0.105748445,-0.081021085,-0.053105384,0.078687906,-0.07419811,0.08281209,-0.007574798,0.06880836,-0.082688995,0.11093616],[-0.06398699,0.057302542,0.04900708,-0.08684426,0.11082945,0.036510687,-0.10566661,-0.060811255,-0.14740697,-0.08553993,-0.024372913,0.11927315,0.10384328,0.11338175,0.25323492,-0.016304482,0.16815567,-0.008962159,0.17741752,0.013726067],[-0.09946263,-0.08986327,-0.049506985,0.013732407,0.1284242,0.16494033,0.023272833,-0.063272655,0.11347998,-0.0697743,-0.051119987,-0.020481728,-0.114921354,-0.11025365,0.21675056,-0.047283053,0.0060995365,-0.036072195,-0.048754305,-0.19354537],[0.030432194,-0.070888296,-0.017723257,-0.21956512,-0.060009696,-0.021544164,-0.11611279,-0.14848313,0.011649375,-0.005976964,-0.07642955,0.10873191,-0.050672222,0.07840154,-0.036554497,0.05873665,0.08799454,0.012981777,-0.031025963,0.06741491],[-0.010371706,0.020485086,0.031238409,-0.014902709,-0.1337387,0.025662016,0.12402397,0.16472581,-0.013158941,-0.17829937,-0.021584198,0.0702163,0.12889227,0.026204996,-0.06805996,0.08687254,0.044203833,-0.022073872,-0.16064782,-0.06871561]]},{"biases":[0.036887396,0.17553325,-0.06661536,-0.24132757,-0.017480172,0.06506983,-0.09088769,0.08288667,0.00898311,0.058425825],"values":[0.0,0.0,0.0,0.0,0.0,0.0,0.0,0.0,0.0,0.0],"inputWeights":[[0.021778857,-0.06934327,0.102794446,0.016525565,0.0460397,-0.044451267,-0.077145986,-0.0029480509,0.17261596,0.09768689],[0.028485877,-0.18464126,-0.21554528,-0.24061835,-0.1085578,0.0058703623,0.16057362,-0.13774823,-0.21709736,0.0054785865],[0.0026956142,-0.2059703,0.10549801,-0.187789,0.13327472,-0.10226093,0.055185195,-0.12661104,-0.033369787,-0.17512727],[0.03066703,-0.010406261,-0.07258662,-0.020936148,-0.017794972,0.16801009,-0.024168072,0.024301203,0.06927872,0.07999108],[-0.12615964,-0.1067829,-0.06966311,-0.0067535867,-0.02921874,0.05927339,0.09395707,-0.2149083,-0.2853286,0.057655044],[-0.048115715,-0.017174318,-0.08788496,0.05268681,0.037122052,0.028152764,-0.005041686,0.07138015,-0.052630767,-0.12996],[-0.02471652,0.103951186,-0.15870301,-0.035325963,-0.009795789,0.20043172,0.109740995,-0.05406632,0.056608364,-0.059136346],[0.09783084,-0.058453057,-0.029275548,-0.17681795,0.090895645,-0.18414557,0.083349004,0.09179137,0.11507564,0.070174664],[0.020426309,0.07639269,0.08828323,-0.0135115115,-0.032516528,-0.13682134,0.07898716,0.033780966,-0.04708321,-0.01934507],[0.072812356,0.021479571,-0.0033997123,0.08280117,-0.003325617,0.012343203,-0.027967505,-0.12656571,0.05029677,0.06120468]]},{"biases":[-0.103580296],"values":[0.0],"inputWeights":[[-0.25949714,-0.095471844,0.08183525,0.123019785,0.08160613,-0.14074904,0.21729459,-0.043390386,-0.067515284,-0.0037897264],[0.0050614285,0.002686066,-0.0915541,-0.03919681,-0.17246018,0.12455822,-0.007648761,0.03029915,-0.082725175,-0.039673],[-0.05795861,0.1880434,0.025206404,-0.057954032,-0.021888573,0.03473098,-0.11379712,-0.17044018,-0.011525623,0.075380765],[-0.07237011,-0.07837929,-0.040464837,0.1866047,0.07728594,-0.09216001,0.08030433,-0.15995301,0.08809862,0.018200004],[-0.124380745,-0.031137079,0.08379587,0.047485936,0.107648745,0.0678161,0.046552688,0.096616335,0.12117902,0.20558542],[0.19419473,-0.028900834,-0.062109906,-0.23432381,-0.12374896,0.02914273,-4.138364E-5,0.011571072,0.067980014,-0.035962302],[0.16665277,-0.10458161,-0.24926673,0.27132073,0.11306221,0.049064755,0.076098375,0.098365135,0.05289802,0.035698332],[-0.01882358,-0.19234748,-0.016528564,0.041606545,0.016471159,-0.06532268,0.22587675,-0.09083292,-0.13321209,0.07622959],[-0.020969335,0.009978664,0.10413198,0.08477264,0.031960912,0.17969656,0.032605253,0.032542247,0.04496469,-0.1326063],[0.033763953,0.091386415,0.08643967,0.18790604,0.20028828,0.08847287,0.14081465,-0.0802264,0.050550707,-0.03977969]]}]}},{"fitness":0,"neuralnetwork":{"inputLayer":{"biases":[0.0,0.0,0.0,0.0,0.0,0.0,0.0,0.0,0.0,0.0,0.0,0.0,0.0,0.0,0.0,0.0,0.0,0.0,0.0,0.0],"values":[0.0,0.0,0.0,0.0,0.0,0.0,0.0,0.0,0.0,0.0,0.0,0.0,0.0,0.0,0.0,0.0,0.0,0.0,0.0,0.0]},"layers":[{"biases":[-0.12189706,-0.09868228,0.039622292,0.0099181365,-0.020245826,-0.1433854,-0.13110697,0.008942927,0.08859203,-0.02464051],"values":[0.0,0.0,0.0,0.0,0.0,0.0,0.0,0.0,0.0,0.0],"inputWeights":[[0.05639943,0.0593045,-8.885625E-4,-0.039569072,-0.05231619,0.08878534,0.0045787753,0.0058171046,-0.17827466,-0.060990825,-0.05058414,-0.09651123,-0.04005344,-0.068796456,-0.15478742,-0.02758037,-0.088504106,-0.11016175,-0.110677615,0.06651549],[0.058946103,0.039269123,-0.11549927,0.061871864,-0.035559315,0.028926082,0.08855362,0.009086557,0.02450065,0.050195906,0.011462102,0.11269183,-0.027208025,0.055909898,-0.112346254,0.18182305,0.109761685,-0.018003646,-0.01904524,0.03492479],[-0.06358626,0.04168206,-0.038697835,-0.16363858,0.15099287,-0.022794345,0.022540743,-0.10225786,-0.2021327,-0.051413137,-0.019244233,-0.014397375,0.018732276,-0.12803628,0.10553841,0.07803985,0.05140095,0.120269015,-0.23609921,-0.007380427],[-0.01947357,-0.101541825,-0.11799337,-0.04804669,0.11637181,-0.057933386,0.16647209,0.21343566,-0.13170551,0.020623311,-0.19414829,-0.07258067,0.012129735,0.019238193,-0.17025404,0.026531413,0.1265568,-0.0018631113,0.045183185,-0.014836852],[-0.06484053,0.031208916,-0.10727467,-0.02816398,0.04215557,-0.14590546,-0.029900277,0.06961651,-0.1498881,-0.0777131,-0.040007997,-0.060636505,-0.2861805,-0.05874674,0.14061849,-0.044525944,0.10608532,0.012001638,0.017304098,-0.038754623],[0.2070462,0.09597348,-0.17026281,-0.14139633,0.10515743,-0.18578106,0.11001481,0.010121137,0.13657631,-0.112155996,0.15116948,0.017862558,6.627641E-4,0.049891584,-0.05839297,0.050718084,-0.02791307,0.20367993,-0.12821032,-0.06007323],[0.0217179,-0.04365116,-0.03375638,-0.1492925,-0.08966258,-0.022301367,-0.112307124,0.011305267,0.08863235,0.022052854,0.06324373,-0.22021614,-0.057802036,-0.033633415,0.027001398,-0.04004766,0.037339438,-0.08417608,0.033634696,0.036555253],[-0.045543414,-0.015275342,-0.11360006,-0.0497277,0.06567224,0.006761243,0.114678934,0.027904306,-0.118967995,-0.030678904,-0.011211301,0.11193764,0.09187437,-0.098564744,0.040019035,-0.08430981,-0.057275437,-0.08267199,0.21841744,0.1563031],[0.11472399,-0.019088455,0.10267861,-0.05931848,-0.076569185,-0.026210317,-0.0027559754,9.804466E-4,-0.03587016,-0.0030590342,-0.15185535,0.12705901,0.1433155,-0.11738855,-0.054695517,0.03163247,-1.0471E-4,-0.070146404,-0.05028085,-0.02977456],[0.036424093,-0.013529524,0.11090521,-0.079125546,0.1431963,-0.06400554,0.10286626,-0.21792917,-0.23928042,-0.043683387,-0.04954388,0.060378414,0.12138384,0.11421671,-0.090892956,0.06590346,-0.028574703,-0.014558948,-0.09273005,-0.035948396],[-0.031356975,0.057502408,0.068106204,0.13796994,0.040787544,0.06703339,0.13509928,-0.11225714,0.008143235,-0.09425439,0.033696182,0.23059149,-0.1394305,0.03136756,0.06284346,0.16420296,0.046927735,0.039481107,0.0020769218,-0.18277636],[-0.1423769,-0.18152799,-0.093187764,-3.2534133E-4,-0.050949626,-0.08786801,0.05111253,0.103353195,0.011787824,-0.04341119,-8.849004E-4,0.2032623,0.05505033,0.007926263,0.058843378,-0.118200526,0.06652101,0.07918755,0.14534016,-0.061792105],[0.06691834,-0.0336371,-0.010021409,0.017815106,-0.06649661,0.110146254,-0.029986111,0.27187708,0.14169528,-0.0841934,-0.06430914,-0.098451555,0.022679068,-0.085679546,-0.0027313568,0.09969913,-0.03409439,0.09770989,0.031152826,-0.11242017],[0.09625018,-0.15682358,-0.08333913,-0.04614527,-0.15695003,-0.017176624,-0.0628158,-0.0039888383,-0.0671126,0.07472648,-0.06509017,0.03147991,0.06791039,-0.0375101,-0.18660063,-0.28282872,0.0978363,-0.042171907,0.13216312,0.11536951],[-0.10098578,0.036475435,-0.04849759,0.0204766,0.065746,0.14667524,-0.08462675,0.14188021,0.14121212,-0.13386668,-0.051926143,0.014738607,-0.032629978,-0.08443217,0.19179475,0.023431595,0.03289476,-0.07906234,0.08712163,-0.049664274],[0.06354713,0.17940009,0.040552907,-0.06979875,0.2362279,0.23542479,-0.042756516,0.022278912,0.06117575,0.17597508,-0.14054294,-0.10992183,0.03321724,-0.12864424,-0.010108483,-0.21541634,0.04912353,0.12867601,0.08830653,0.1570164],[-0.03822965,-0.075969495,0.039337788,-0.08428765,0.027271045,-0.14582832,0.19028722,-0.15365385,0.012721108,-0.12476024,-0.095667325,0.016076919,0.060748637,-0.013421502,0.25003996,0.14917639,0.008729626,0.052066512,-0.09117054,0.08660275],[-0.028909054,-0.115018725,-0.21420386,-0.006152652,-0.022431701,0.119249135,0.013316946,0.010268749,-0.0350115,0.055953834,-0.020481015,0.06030578,-0.021689234,-0.21939828,0.07729516,-0.064634085,0.03636277,0.0012819864,0.060278516,-0.00595938],[0.015721057,0.051884428,-0.21619622,0.054035526,-0.057219133,0.01748628,0.18707801,0.110310085,0.016305806,-0.100406736,-0.09845406,-0.009884326,0.09037502,-0.05675803,-0.27935287,-0.08240626,-0.11583445,-0.033369068,-0.177991,0.063690454],[-0.13069913,-0.037640095,0.06951392,-0.013004708,-0.0680937,-0.024778694,0.021360474,-0.09592575,0.07219332,-0.119140014,-0.08831313,0.1025427,-0.04813138,0.04505292,-0.20799722,0.052901383,-0.16493168,-0.0960997,-0.038091548,0.037222553]]},{"biases":[0.059166968,-0.08421223,-0.07322055,-0.06819827,0.03387634,0.0884899,-0.11900388,-0.043475643,0.022651639,0.01323021],"values":[0.0,0.0,0.0,0.0,0.0,0.0,0.0,0.0,0.0,0.0],"inputWeights":[[-0.20696652,-0.0746424,0.14318968,0.06228281,0.18186438,-0.007895858,0.012506026,-0.1237521,0.038359944,-0.006874613],[-0.034586404,-0.0397414,-0.070966914,-0.18629009,0.034911282,0.14480485,0.04075639,0.23668076,-0.0033799438,0.24524526],[-0.011894347,-0.07037819,0.078942426,0.11954063,0.03520308,-0.090970136,0.053295515,-0.038788266,-0.07117042,0.052194517],[0.07360437,0.07789977,0.008229363,-0.057893913,-0.15297048,-0.09241127,-0.13455431,0.006345093,0.042880733,-0.014065946],[-0.043100793,-0.11724646,-0.018712353,0.074433416,-0.091096126,0.1641714,0.07003385,0.011008901,0.008953392,-0.060749087],[0.09262916,0.08115105,-0.068441086,0.065428294,0.21273094,0.079025984,0.086679645,0.007475219,-0.121536046,0.0076032085],[-0.02445878,0.072659664,-0.078923516,-0.13863389,0.016342685,0.05052808,0.020991934,0.08408698,-0.027610647,0.022908095],[-0.049676407,0.11152599,0.10162859,-0.059238363,-0.004691906,0.20747897,0.07091009,-0.049948547,-0.0938391,-0.05973113],[0.29138395,0.09715556,0.088182546,-0.027469642,-0.02923433,0.06416918,-0.19887374,-0.050675496,-0.022250915,0.0866307],[0.20589341,0.21946256,0.113861844,0.03452426,0.029259417,-0.04224041,-0.13852528,-0.15395543,0.009586531,0.076270625]]},{"biases":[0.115479045],"values":[0.0],"inputWeights":[[0.11196929,0.047762778,0.1129972,-0.16228482,0.09686368,0.21973515,0.04148645,-0.04422768,-0.07109321,0.26629287],[-0.032348912,-0.09407038,0.043441765,0.06083753,-0.12394324,-0.10688523,-0.07532466,0.03960465,1.8665372E-4,-0.0739869],[0.13578176,0.030072443,-0.033678386,0.008269958,0.04640981,-0.02887497,-0.05344518,0.027632805,0.07584798,0.07673937],[-0.052238762,-0.070186615,0.013467479,0.04195401,0.046914592,-0.018702673,0.010954611,-0.098378964,0.10180471,-0.20679963],[0.012893796,0.0743533,0.08085459,0.06636022,-0.047416285,-0.026459957,0.0066290414,-0.043217957,0.07903892,2.628106E-4],[0.13681786,-0.029863004,0.08385474,-8.3174475E-4,-0.026616372,-0.17040718,0.17362179,0.029532293,0.0935711,0.071557105],[-0.045987953,0.041661553,-0.079300575,0.20632541,-0.08149352,0.110566266,-3.643481E-5,-0.034410857,-0.14173041,0.0109349275],[-0.007222799,0.019580228,0.04020058,-0.20428462,0.17248341,-0.011146928,-0.004783978,-0.07524316,0.012286507,0.2779394],[-0.081567235,0.007758527,-0.12304544,0.0027549216,-0.04134032,-0.1182063,0.18426748,-0.08075582,0.015478472,0.07757332],[0.067866296,-0.059279196,-0.070018396,-0.027548028,-0.03457583,-0.05695096,0.024473192,0.056250915,-0.09988839,0.2654142]]}]}},{"fitness":0,"neuralnetwork":{"inputLayer":{"biases":[0.0,0.0,0.0,0.0,0.0,0.0,0.0,0.0,0.0,0.0,0.0,0.0,0.0,0.0,0.0,0.0,0.0,0.0,0.0,0.0],"values":[0.0,0.0,0.0,0.0,0.0,0.0,0.0,0.0,0.0,0.0,0.0,0.0,0.0,0.0,0.0,0.0,0.0,0.0,0.0,0.0]},"layers":[{"biases":[-0.09467572,-0.035927925,-0.01081851,0.09508561,-0.21377873,-0.20070834,-3.982987E-4,0.124403216,-0.05082729,0.114930965],"values":[0.0,0.0,0.0,0.0,0.0,0.0,0.0,0.0,0.0,0.0],"inputWeights":[[0.094435096,-0.113316774,-0.054866727,-0.082482666,0.11503585,0.078866415,-0.0066509275,0.13128571,-0.012582279,-0.08100132,0.14188395,-0.1210915,0.109964654,0.17242791,0.13052881,0.16678973,-0.05870666,-0.09637139,-0.10258055,0.13510562],[0.1395871,-0.016810875,0.07752141,0.0714538,-0.106191754,-0.03995953,0.02094382,0.022110892,-0.041463338,-0.031213509,0.083622895,-0.021950753,0.03407302,0.13231479,-0.025045073,0.050586406,0.13135275,-0.19801623,0.052385915,0.0073350086],[0.17368792,-0.018334895,-0.079738155,-0.07509381,0.025315521,0.066424266,0.18841024,0.06290492,0.22643813,-0.1221033,-0.015634704,-0.1545085,-0.09809424,0.049507413,0.14674143,-0.24363372,0.014518684,0.059933487,0.0031604685,-0.022925077],[-0.14370619,-0.052636843,0.046897672,-0.1390007,0.124066874,-0.27929887,-0.019333089,0.14222887,0.052062362,0.018533634,0.013483914,-0.058108214,0.13817126,0.11171633,0.02393538,-0.0049574133,0.105834976,0.03675669,-0.026391666,-0.2193353],[-0.1684869,0.14219265,-0.11408217,-0.14382885,0.042813018,0.20716369,0.03458772,0.05650291,-0.06923906,-0.16493236,-0.0883467,0.039693914,0.039052088,-0.029181927,0.060889542,-0.037632793,-0.13717599,0.08992504,0.19611411,-0.13048989],[0.024624635,-0.16042832,-0.058145627,-0.03935898,-0.118346475,0.026237626,0.16891548,0.23291616,-0.31360942,-0.14548054,0.03598919,0.0058886968,0.17696783,-0.010724783,0.12353783,-0.12359226,-0.0174121,0.15500636,0.057928648,0.10799509],[0.022937903,0.06326579,0.022511208,0.044176113,-0.2545703,0.00932856,-0.21862742,-0.13645662,0.043179885,-0.19527316,0.06370166,0.09679689,0.08737577,0.063064866,0.117438756,-0.07885356,-0.09132094,-0.012253065,0.061193854,0.13807245],[-0.045861226,0.15516455,0.0054890593,-0.025121791,0.20707946,-0.039158974,-0.04464056,0.116943106,0.09120736,-0.12742972,-0.047818072,0.037367653,0.019713432,-0.031565204,-0.10450304,-0.16674425,0.07700687,-0.12817569,-0.071625695,0.07144591],[0.111171745,0.049510546,-0.04240619,0.118307084,-0.13062987,-0.19102429,-0.042931225,0.015353952,0.044622026,0.05141477,-0.02672682,-0.13897675,-0.0010200869,0.106441535,0.17064098,-0.11914087,0.21299456,0.10412299,0.070771836,0.078617334],[-0.08352325,-0.04433087,0.046768624,-0.26403996,0.15525691,0.15828253,-0.18403023,0.03477681,0.0477272,0.07061336,0.04914977,-0.035622317,-0.013077473,-0.1877527,0.04761519,-0.11663542,-0.08803818,0.10111526,-0.10799017,-0.011242542],[-0.07429983,0.05289456,-0.049654175,-0.18298304,-0.10821843,-0.12595652,0.0145079885,0.08143575,-0.08139715,-0.087899506,-0.038324267,-0.05938877,0.07201113,0.12108433,-0.011308821,-0.031172896,0.030771,-0.05352245,0.02270604,-0.05010146],[-0.020098114,-0.0031848745,-0.10423491,-0.13846324,0.064304605,-0.07935879,0.13248141,0.09217931,-0.23578241,-0.11533106,0.10147783,-0.08696476,0.027401125,-0.036830388,-0.00280146,0.1296376,-0.047329217,-0.2723546,0.15578288,0.16781998],[0.13811418,0.12221419,0.09250619,0.10337095,-0.063814454,-0.07150308,-0.054100987,-0.13212208,0.047530606,0.012910259,-0.12079972,0.15464683,0.23042835,0.038440768,0.008278396,0.056427643,0.14413647,0.05518744,0.018461604,-0.04297276],[-0.02841991,0.07486856,-0.056033213,0.113873065,0.0041506286,-0.016674886,-0.05020755,0.045877226,0.10276293,0.04830858,0.09467196,-0.042331822,0.041022215,0.1863128,-0.048179466,0.036240276,0.19151561,0.109118655,0.009109875,-0.13907489],[-0.045548294,-0.11179903,-0.041578617,-0.049409397,0.14415984,0.12231611,-0.07765662,-0.1164758,0.034596432,0.048658684,-0.034184594,0.037750274,0.03551011,0.04050911,0.024480201,-0.06080493,-0.01248245,-0.05089285,-0.041665398,0.015083775],[-0.12980859,0.06343871,-0.12849116,0.06634856,0.03185101,0.0619764,-0.07672766,0.061106313,-0.050809544,0.09584631,-0.106897496,6.2903645E-4,-0.14377326,-0.1533866,-0.13025235,-0.064991415,-0.06126764,-0.027091887,-0.113200404,0.039946236],[-0.08436381,-0.06078143,0.11225382,0.0072374553,-0.29456875,0.018838977,-0.019547084,-0.04152558,-0.060044706,0.08864356,-0.1347475,-0.055929597,-0.030275213,0.015033882,-0.13347863,-0.04546128,0.11479575,0.013148793,0.09307844,0.0042681787],[-0.0100571355,0.03856119,-0.111302614,-0.033949655,0.0819637,-0.034649286,0.08100654,-0.16734348,0.13518648,0.03395291,0.021156464,-0.07899365,-0.033675652,-0.1857933,-0.11657251,0.062230065,-0.10917126,-0.0835261,-0.07495513,-0.034717895],[0.028337339,0.18354258,-0.028163243,-0.1158563,-0.1353452,0.081576325,-0.12325589,-0.0086349,0.0102882,-0.16979359,-0.020575043,-0.05978635,-0.10970443,0.078916006,-0.07681672,-0.15924452,-0.21982928,-0.039112955,-0.13531834,0.12839529],[-0.2093811,-0.083059385,0.18356435,-0.12343529,0.10747254,-0.06282424,-0.030615736,0.009915903,0.03507906,-0.032004096,0.07788173,0.07910101,-0.10040662,0.0043915,0.10225942,-0.019995362,0.06574868,0.1057814,0.24189052,-0.13492157]]},{"biases":[-0.08474218,-0.16889736,0.01515147,1.4327798E-4,0.010728128,-0.07072884,-0.079041965,-0.2543528,0.09034168,-4.5421137E-4],"values":[0.0,0.0,0.0,0.0,0.0,0.0,0.0,0.0,0.0,0.0],"inputWeights":[[0.17959586,0.13877471,0.08644037,-0.20645212,0.059530035,-0.01749883,0.023918338,0.11247203,-0.06298447,0.09957409],[0.10626775,-0.01162774,-0.04228271,0.061509702,0.049304683,-0.046334527,0.0986628,0.054839104,-0.0585573,0.047324017],[0.011021797,-0.19187278,-0.046446342,-0.08103909,0.27270785,-0.14382942,-0.030505147,-0.04037078,0.055351302,0.08814481],[-0.20488456,0.14353627,-0.051781762,-0.010989467,-0.02006313,-0.1188691,0.002700921,-0.027067784,-0.018094173,-0.015317531],[-0.06707226,0.0019448224,0.08821934,0.007414496,-0.013422133,0.011273903,0.09422716,0.05930462,0.1259816,-0.07706855],[0.10867369,0.04336976,0.051955353,0.027784606,-0.028689729,0.013465193,0.18251035,0.0072503453,-0.12613177,-0.20472375],[-0.0091273105,0.023326652,-0.047839288,0.09504533,0.023031343,0.11371939,-0.13276456,0.042930957,0.10807418,-0.16590236],[0.24656908,0.010605291,-0.128807,0.11756317,-0.013351361,-0.19284698,-0.008810237,0.10723337,-0.08601911,0.059792012],[0.009269927,-0.026664054,0.058380846,-0.111651085,0.066780895,0.06470139,-0.05253406,0.078279585,-0.036724687,-0.17480828],[0.018569482,-0.20416847,-0.09747099,-0.08689392,-0.009313558,-0.11696464,-0.03055316,0.17208606,0.039394982,0.11413718]]},{"biases":[0.210732],"values":[0.0],"inputWeights":[[0.056634944,-0.037993602,-0.09829568,-0.111550964,0.027644766,0.1715089,-0.006483314,0.08496496,-0.14394818,-0.06323552],[-0.07656258,-0.09987285,-0.15960959,-0.055343565,0.103100725,-0.08476946,0.0645061,0.12426859,0.22592093,0.13485624],[0.014705238,-0.09704422,0.09818273,0.053110525,0.003750454,-0.048708435,-0.07236869,0.1454389,0.012977817,-0.034413848],[-0.006407225,0.013457387,0.104135185,0.028096851,-0.15984426,-0.03951409,-0.18522719,0.17325155,-0.026759706,-0.0114690475],[0.20574051,-0.11052006,0.063547984,0.1526343,-0.024788082,0.071699806,-0.0618643,-0.06252492,0.117683485,-0.07230345],[-0.009853697,-0.031986974,-0.03392908,0.010907689,0.021122709,-0.09629217,0.09674183,0.3170389,-0.09874941,0.11369986],[0.051564496,0.19148298,-0.11836008,-0.09327032,-0.036608495,-0.07920426,-0.055647574,-0.0033556588,-0.07456136,-0.060440507],[-0.13183399,0.045633163,0.044768214,-0.10464549,-0.03674935,-0.10530054,-0.045787767,-0.21921785,0.06887352,-0.012721284],[-0.060026415,-0.07374259,-0.22349036,0.026549838,0.069269985,-0.0047669304,0.0060863565,-0.10701125,0.10172699,-0.037961483],[-0.017878512,0.01764493,-0.03323002,-0.15101926,-0.075085044,0.011398602,0.1837514,-0.087943636,-0.009815732,0.062251035]]}]}},{"fitness":0,"neuralnetwork":{"inputLayer":{"biases":[0.0,0.0,0.0,0.0,0.0,0.0,0.0,0.0,0.0,0.0,0.0,0.0,0.0,0.0,0.0,0.0,0.0,0.0,0.0,0.0],"values":[0.0,0.0,0.0,0.0,0.0,0.0,0.0,0.0,0.0,0.0,0.0,0.0,0.0,0.0,0.0,0.0,0.0,0.0,0.0,0.0]},"layers":[{"biases":[-0.008184109,-0.010402699,0.0076250103,-0.05730428,-0.0130425645,0.07960209,-0.0127255265,0.14924371,0.08773597,0.2044078],"values":[0.0,0.0,0.0,0.0,0.0,0.0,0.0,0.0,0.0,0.0],"inputWeights":[[-0.02946006,-0.06908412,-0.11657827,-0.07862106,0.09613318,0.14787257,-0.047124088,-0.10053591,0.0048379526,0.1270814,-8.274987E-4,-0.081148826,-0.019071693,0.0650774,-0.1339502,0.023293013,0.04988388,-0.04960595,-0.009320716,0.043254714],[0.027415816,2.1744288E-4,0.07134554,0.06508911,-0.11656782,-0.10895408,-0.097980954,0.032374155,-0.1714235,-0.028523875,-0.09068831,0.14286077,0.041890852,-0.13163838,0.08253823,-0.027710376,-0.04983193,0.1398227,-0.11662253,0.039406843],[-0.1434259,-0.013453913,0.1974463,0.061965227,-0.052796513,0.0036095437,-0.027378911,0.024370454,-0.09185918,-0.039191026,0.011242649,0.11637546,0.098337606,-0.027165756,-0.042046286,-0.004669534,-0.15518641,0.03682557,-0.1790932,-0.072465405],[0.09172465,-0.054206602,0.08370891,-0.15512496,0.048430856,-0.02490719,-0.027147466,-0.10601599,-0.1167779,0.08512049,-0.117372714,0.04381727,-0.05546664,-0.059005342,-0.059897467,0.03989699,-0.025467236,-0.096684046,0.1851112,0.13479556],[-0.014256193,0.118340015,-0.04486725,0.037085164,0.17277347,-0.09400729,0.07869119,-0.11769763,0.04778855,-0.023575157,0.022351086,0.24933729,0.068425566,0.045773078,-0.01280684,0.02759537,0.050714817,-0.04175649,-0.21876204,0.07686857],[-0.07392649,-0.012530243,-0.13084391,-0.034214363,0.06998085,0.03746122,0.15377937,0.17594226,0.0076655303,-0.0032376358,-0.020927992,-0.101781584,-0.13843068,0.016927043,-0.15811732,0.051638737,-0.0486073,0.12482023,-0.12581994,0.20614214],[-0.001972571,0.05536697,0.15282804,-0.14953965,0.074297614,-0.122536585,0.15217303,0.12554072,0.084942915,0.04285559,-0.037735216,-0.12815136,-0.015848614,0.09966796,-0.085126676,0.10426139,-0.003461273,0.05897553,-0.014388819,0.062450275],[0.024036126,-0.12573697,0.009388058,-0.12342474,-0.00437524,-0.18151961,-0.12856834,0.086211994,0.13955176,-0.026376942,0.083000466,-0.16842768,0.08996342,0.12623766,0.030349515,-0.09016934,-0.004324097,-0.06790703,-0.15299639,0.015669683],[0.1746085,0.078335054,0.084874645,0.024844263,-0.015103222,0.081418484,0.051068597,-0.23784806,-0.064090215,0.11115978,-0.05828406,-0.04671827,-0.055417426,-0.091991134,0.09668453,-0.030615643,-0.009687358,0.007638422,0.002157207,-0.055724427],[-0.078356385,-0.0056995796,0.023164216,-0.01607712,-0.0659309,0.020723192,0.015030178,-0.055582907,-0.12525973,0.0044025443,-0.18064089,0.10969613,0.12472323,0.18728134,0.024090879,-0.0021670577,0.051123008,0.045618583,-0.10828687,-0.0018554609],[0.03331904,-0.066540815,0.15108468,0.007937367,-0.035423167,0.1312515,-0.0604414,0.049447026,0.019948231,-0.026410166,-0.09364972,-0.020782596,-0.03231087,0.18962586,0.08231988,0.15004407,-0.20966703,0.04215555,0.08241773,-0.12012028],[0.19186279,-0.03971256,-0.061223317,-0.00727838,-0.011530483,0.1371254,0.1365758,-0.12511158,0.04890813,0.013323639,0.05464041,0.07997696,0.1258624,-0.11865755,0.020501636,0.033311434,-0.1155284,-0.0717594,-0.1189411,0.013349749],[-0.17918463,-0.12894514,0.19226544,-0.0397148,-0.015626984,-0.08771949,0.11857171,-0.12651286,-0.049069215,-0.01714397,-0.10813875,-0.024189632,-0.13657641,0.034751397,-0.10992848,0.044187985,0.040713858,0.10481448,-0.10838686,-0.004955469],[-0.07466529,0.30041456,0.011442151,0.029023262,0.026956875,-0.19747788,-0.11681213,-0.005702368,0.044477567,-0.12077002,-0.009241725,0.13412066,-0.07483652,0.06905214,0.048219744,0.06199249,-0.07837031,0.018834269,-0.0655107,0.00813234],[-0.0045348033,-0.1010771,0.106451124,0.06124729,-0.02568303,-0.0012106464,-0.124790736,0.062849276,-0.11889135,-0.2283078,-0.040022206,0.017495167,-0.01877703,0.04058749,-0.1338228,-0.09114636,0.009963426,0.1579234,0.10611658,-0.11207119],[-0.1517242,0.04824245,0.3183995,-0.14718106,0.10504222,0.15352644,0.049967557,-0.17479001,0.036080264,-0.11469228,0.061646253,-0.037173472,-0.022020327,-0.1291951,0.023507329,0.059618346,-0.22407869,0.07476257,-0.042753525,0.06216008],[0.11446824,-0.09440431,0.22345737,0.075545155,-0.00836874,-0.067122765,0.14496861,-9.3849923E-4,0.10025672,0.0054154177,0.015290858,-0.051306378,0.012330053,0.06015208,0.08964532,-0.03968738,-0.056725156,-0.0060303784,0.06943731,-0.059241664],[-0.08044568,0.011040738,-0.035669748,-0.124491155,-0.17746922,-0.10224948,-0.0022520819,0.03501616,-0.18558265,0.15065645,0.08971141,0.08799687,0.17864779,0.16347955,0.110781185,-0.09295768,0.011048432,-0.018275961,0.048206836,-0.050207883],[0.00825366,-0.041799933,-0.12540682,0.042240407,0.014135017,-0.01719122,0.10311411,-0.13983023,-0.03589126,-0.056485336,0.019984333,0.0683503,-0.14615564,0.036536433,-0.092906795,0.12450839,-0.22626963,0.033327654,0.01437484,0.13107897],[-5.2634615E-4,-0.121621504,-0.07820739,-0.15440649,0.06365802,0.2745494,0.14630121,0.03807597,0.18043269,0.0016755118,0.14233667,0.05673948,0.05282964,0.04998138,-0.04008598,0.046913702,0.096835375,-0.001640987,-0.038110603,-0.103241146]]},{"biases":[0.049741674,0.010977749,-0.10196952,-0.14446986,0.06321339,-0.100676484,-0.039436452,0.056600768,-0.03949742,-0.12417123],"values":[0.0,0.0,0.0,0.0,0.0,0.0,0.0,0.0,0.0,0.0],"inputWeights":[[0.11540666,-0.004251315,-0.13229394,0.1201774,0.120444134,0.07029242,-0.08836563,0.024886869,0.038984474,-0.24315403],[0.09103621,-0.15778129,-0.059436053,0.11300008,0.08028234,0.2685431,-0.014128671,0.075780585,0.05171131,-0.023634862],[0.010612199,0.08856536,-0.09846546,-0.023241613,-0.09073975,-0.12563808,-0.07792238,-0.050461352,-0.14609966,0.045694064],[-0.13978821,0.049702153,0.014085982,0.096255474,0.031732757,-0.07810434,-0.10823411,0.12919258,-0.121753186,-0.03937773],[-0.082265325,0.032409377,-0.04382099,0.053736504,0.062199105,0.042599905,-0.06468713,-0.0029227168,-0.2003511,-0.030087324],[-0.08396546,-0.073540464,0.14203864,0.103828706,-0.1590943,0.077266045,0.11646123,0.09621775,-0.21299678,-0.0908652],[0.16613148,-0.1058413,0.06188769,-0.16461803,0.009361941,0.15605338,0.04244585,-0.06942963,-0.15094177,0.166363],[0.16251129,0.093515,-0.004907281,0.003864825,0.101312466,0.07278688,-0.01871845,-0.034477055,0.17722109,0.0881983],[0.17949641,0.003194238,0.0073558325,0.018915972,0.39608273,-0.11664247,0.043150514,-0.048330046,0.025116064,0.1503801],[-9.518571E-4,0.024733247,-0.015647221,0.08104631,-0.059603203,0.05816518,0.07197908,0.0051492457,0.083759,0.003599851]]},{"biases":[-0.04088667],"values":[0.0],"inputWeights":[[0.12753338,-0.18999577,0.020443551,0.02853132,-0.0038441254,0.10320434,0.13317485,-0.049338087,0.049509663,0.2288267],[0.072110645,-0.04792634,0.04804613,-0.09892708,0.0194604,0.032212578,-0.087578155,0.04024195,-0.06687448,0.036996916],[0.050488513,0.014360008,-0.074743375,-0.08070881,-0.12720378,0.015769958,0.08002505,-0.033086196,-0.09041524,-0.12489146],[0.08799797,0.0072661713,-0.03929971,-0.039695628,-0.012803905,-0.04489858,-0.07132349,-0.07089835,0.12637603,-0.0040625692],[0.017458567,-0.11537524,-0.042735554,0.18187669,-0.004694657,0.09968618,-0.02881816,-0.11563973,-0.08360713,-0.22554123],[0.15091641,0.03297712,-0.064586036,0.14682378,0.0047360333,-0.06444085,-0.004797007,-0.08908569,0.1411452,-0.11480922],[0.012214579,-0.100315176,0.052083988,0.033783812,-0.08584742,-0.10048386,-0.07302009,0.06160247,-0.007167569,0.047467574],[0.0880243,-0.046863906,0.010955265,0.04417738,-0.035382073,-0.008778437,-0.13951948,-0.09190364,-0.12214926,-0.084748425],[-0.006161501,5.479725E-4,-0.0073459838,-0.106087044,0.17241009,0.051595192,0.19429979,0.14429171,-0.05116396,0.08838523],[-0.053797007,-0.03844798,0.068527915,0.013733327,-0.07964221,-0.03347768,-0.02622771,-0.04830386,-0.07860295,-0.18956375]]}]}},{"fitness":0,"neuralnetwork":{"inputLayer":{"biases":[0.0,0.0,0.0,0.0,0.0,0.0,0.0,0.0,0.0,0.0,0.0,0.0,0.0,0.0,0.0,0.0,0.0,0.0,0.0,0.0],"values":[0.0,0.0,0.0,0.0,0.0,0.0,0.0,0.0,0.0,0.0,0.0,0.0,0.0,0.0,0.0,0.0,0.0,0.0,0.0,0.0]},"layers":[{"biases":[0.07467436,0.15354264,0.039196562,0.03647617,0.058858845,-0.07227427,-0.019249186,-0.07053143,-0.12902367,0.019389255],"values":[0.0,0.0,0.0,0.0,0.0,0.0,0.0,0.0,0.0,0.0],"inputWeights":[[-0.026316075,-0.1386234,-0.11174833,0.02346981,-0.11171736,-0.003385076,-0.025504658,0.13505054,0.035668895,-0.055700537,0.05835275,0.042260773,0.11322709,0.14319336,-0.08432481,-0.017971426,0.047216743,0.2146106,0.08999007,0.2806074],[-0.090330504,-0.10173441,0.20729369,0.16659997,0.048932057,0.0012107594,-0.048263885,-0.0142719615,-0.026360448,-0.03176189,0.18305825,0.053066775,0.1133789,0.203247,-0.017613541,-0.015023615,0.07803737,0.11582995,0.29313734,-0.2059498],[-0.12796576,0.010248584,0.10743599,0.08741587,-0.0060621817,-0.033292126,-0.054622013,-0.18250734,-0.08208265,0.018558193,0.08242195,0.23412547,0.051999718,-0.07246352,0.042887304,-0.076770194,-0.050548263,0.109709814,0.09758762,-0.28000763],[0.011054813,-0.071799,0.009138225,-0.0070759873,-0.11071699,-0.12346761,-0.023362491,-0.09881799,0.09733677,0.10121752,0.027110934,0.08664407,0.035946175,-0.12600239,0.09050742,-0.07480969,-0.024270264,-0.0024582949,0.09331177,-0.025726605],[0.1058284,-0.078584045,-0.30781758,-0.0053250436,0.00905754,-0.14554109,-0.10106345,-0.13000116,-0.060721897,-0.027844878,-0.048284717,-0.16976304,0.09453249,-0.07597215,-0.038901348,0.13877127,0.11376014,-0.15457313,-0.013636431,-0.085329235],[0.09970114,-0.039777324,0.11852851,0.029666515,-0.018782424,-0.03471445,-0.06376185,-0.109514855,0.102954045,0.018070415,0.07835623,0.027328586,0.008073292,-0.021842275,-0.016591495,0.053060383,0.07068922,0.0091730505,-0.106978744,-0.14850481],[-0.113927074,-0.09295289,-0.0019801212,-0.068088576,0.13247426,0.030087192,-0.021286417,-0.15384589,-0.08666799,-0.034664113,0.01981813,-0.05921197,0.046090282,-0.087276906,-0.030928105,0.019321488,0.036388684,-0.024342805,-0.09713548,0.07499408],[0.105951905,0.02925579,-0.027831497,0.001979955,0.17605501,0.049152482,0.015169186,-0.14166848,-0.03159938,0.005803271,-0.017327737,0.12519579,0.07797778,0.10313515,-0.060194448,0.09585876,0.13207345,-0.07160684,-0.25919762,-0.08626509],[-0.10642013,-0.031069493,-0.043582957,0.27904555,-0.05254895,0.062145665,0.09279707,0.10835367,0.033473097,0.043969054,-0.052531525,-0.097575575,-0.01542824,-0.12478237,0.17162383,-0.045231532,0.055881683,1.7534907E-4,-0.040805575,-0.050216746],[0.10147631,0.0937871,-0.0028238785,0.038089633,-0.08726093,-0.16998622,0.01197537,-0.037771843,0.11872615,-0.010043501,-0.036694054,-0.019154642,-0.03205979,-0.040866334,-0.019329106,-0.17324685,-0.0697319,-0.016903618,-0.013667381,0.0041940627],[-0.050497346,-0.024356505,0.0518023,-0.058993805,-0.093978286,-0.0380287,0.08953479,0.1001463,0.0445285,-0.0623399,0.028243657,-0.09538433,-0.20392741,-0.18548885,-0.034827273,-0.13421808,-0.03699763,-0.021778805,-0.009220495,0.04438966],[-0.095296144,0.048660763,0.19651046,-0.052819036,-0.0805728,0.11156574,-0.039070696,-0.04808442,0.17520268,0.10253388,-0.035942674,0.121861294,-0.052346505,-0.012221915,-0.024893679,-0.004629857,-0.0638269,-7.2553486E-4,0.03961576,-0.15445374],[-0.07304103,-0.054905094,0.13500515,0.08264497,-0.04734522,0.024461148,0.099936515,0.11697224,-0.029738465,0.04792148,0.008878008,0.044939242,0.1681243,0.039919343,-0.18699706,-0.0045087207,-0.14372303,-0.20138419,0.07555249,0.035736784],[0.034237552,-0.016808761,-0.07687201,0.026358519,-0.042743057,-0.14430204,0.29627556,-0.032576412,-0.11177414,0.053023253,0.023392318,-0.20476931,-0.07855482,-0.06571736,-0.10646433,0.11609748,0.07849577,-0.032061286,0.14818726,0.14372113],[-0.102382295,0.043023426,-0.03293043,0.06411916,-0.24613641,-0.089756645,0.25805438,0.14004424,0.026046392,0.114165805,0.18864821,0.17619658,0.14368685,-0.06974696,8.621043E-4,-0.07481605,0.067583114,-0.08238253,0.0030952392,0.033003405],[-0.050561354,0.03676146,-0.146599,-0.23468882,0.055697624,0.055948008,-0.07591805,-0.029498667,0.16118735,0.028342674,-0.02705008,0.08451905,-0.056499083,0.068232544,-0.08077859,0.045688353,-0.07411039,-0.111332014,0.01015278,0.01109416],[-0.053142246,-0.044508025,0.08502166,-0.23551272,0.017097414,-0.035628546,-0.20781995,-0.06431531,-0.03325051,-0.026425196,-0.049436107,0.08723758,0.03703088,-0.031699322,-0.11004636,-0.10514698,0.10303753,-0.051967897,-0.10613992,-0.18440202],[0.16580483,0.12610157,-0.12278991,-0.042045634,0.13181928,-0.044434063,-0.054032054,0.043161016,0.08487766,0.028830668,0.10529027,0.22244456,0.12259465,0.243147,0.17708953,0.032065,0.009116159,-0.015015655,0.20903133,-0.07886532],[-0.049536753,-0.14787813,-0.04963396,-0.07622654,-0.05645946,-0.17562641,-0.022330247,0.027324865,-0.11427681,0.2618604,0.09560209,0.049587917,-0.03780114,-0.07162878,-0.24364527,-0.008870456,0.038043987,-0.20141827,-0.08746414,-0.007395401],[0.099131994,-0.0646176,0.099516116,0.0014092843,-0.0758751,0.11478754,-0.016360097,0.0034036066,0.10200855,-0.09940364,0.059730574,-0.24780078,-0.035069186,-0.014442561,-0.024560474,-0.20041709,0.054620713,-0.041255686,-0.06737818,-0.16544813]]},{"biases":[-0.08117106,-0.046230398,-0.1899879,0.12954608,-0.018580927,0.048433557,0.013582474,-0.13714318,-0.21103111,-0.028154429],"values":[0.0,0.0,0.0,0.0,0.0,0.0,0.0,0.0,0.0,0.0],"inputWeights":[[0.14082047,-0.06071772,0.06487071,0.015340576,0.03570517,-0.03351515,-0.1406199,0.026529325,0.10284314,0.069956236],[-0.044364255,-0.0098673515,-0.058861155,-0.19081707,0.13943325,0.011873481,0.023018776,0.076940104,-0.01435557,0.119815335],[0.032890424,0.23259647,-0.022769203,0.0056028813,0.13921338,0.1907457,-0.1872,-0.025845211,-0.034606896,-0.08447873],[-0.123663135,-0.021825595,0.008529374,0.05116147,-0.12610817,0.08733677,0.047926884,0.041844964,-0.052931737,-0.15442474],[-0.013958429,0.021870783,-0.10716235,0.033254858,-0.110842586,-0.0076189097,-0.17549989,0.036939237,-0.07124357,-0.08702867],[0.08754953,0.04668969,-0.16066615,-0.20852767,0.067097425,-0.083097994,0.03678762,0.059010826,0.0681558,0.12290942],[-0.030172147,0.03443657,-0.039783534,0.013049905,-0.05398522,-0.037511844,0.070809975,-0.048164956,-0.11545887,0.04889958],[-0.015324171,-0.16363907,0.13978817,-0.15740758,-0.15525489,0.039953567,-0.119725,0.03444283,8.243798E-4,0.14651296],[-0.0035364823,-0.17619503,-0.17157897,0.079841964,0.12806556,-0.24543253,0.07523819,0.0014989038,-0.14084937,-0.14679016],[-0.06406655,-0.034252882,0.054402936,0.14550322,0.2769409,-0.04477995,-0.040917527,0.03956354,0.11188332,0.026197102]]},{"biases":[-0.02976913],"values":[0.0],"inputWeights":[[0.18532549,-0.02731333,-0.11496129,-0.1137421,-0.06941795,-0.0642117,-0.024886202,-0.099101424,-0.013663992,0.011539496],[0.032214418,0.042807918,-0.02990764,-0.07581899,0.06728998,0.08654879,0.008409905,0.04876116,0.07652851,-0.16661738],[0.010722818,0.07310394,-0.1709822,0.086832784,-0.23925261,0.13387285,-0.001108304,-0.007855398,0.035175838,-0.0012649004],[0.056570724,0.125206,0.05427877,0.065158635,-0.23768389,0.026360605,0.008997655,-0.0031411538,-0.066785984,0.09728601],[0.12550071,-0.12903452,0.099117436,0.054446485,0.15263547,0.06733603,-0.022554627,0.12303438,0.07221453,0.075794674],[-0.05248884,-0.057915386,0.04131256,-0.078463145,0.15627515,-0.13753772,0.05397792,0.0036681187,-0.16834079,0.058249768],[0.0060112025,0.098352045,-0.016491247,0.004702704,-8.5572863E-4,-0.06780993,0.0127461245,0.08320339,-0.09265103,-0.082308516],[-0.09280556,0.12044704,-0.11074701,0.08301683,0.046481274,-0.060854383,-0.037452593,0.011584945,-0.18071124,-0.0016081799],[-0.02975431,0.13011692,0.01488437,0.05036413,0.13539678,0.17395604,0.04693294,-0.05359109,-0.13761888,-0.0029485761],[0.06509631,-0.012171381,0.15841965,0.0034727291,-0.054033004,-0.10973698,0.08300156,-0.019792836,0.11468442,-0.03054437]]}]}},{"fitness":0,"neuralnetwork":{"inputLayer":{"biases":[0.0,0.0,0.0,0.0,0.0,0.0,0.0,0.0,0.0,0.0,0.0,0.0,0.0,0.0,0.0,0.0,0.0,0.0,0.0,0.0],"values":[0.0,0.0,0.0,0.0,0.0,0.0,0.0,0.0,0.0,0.0,0.0,0.0,0.0,0.0,0.0,0.0,0.0,0.0,0.0,0.0]},"layers":[{"biases":[0.1219071,0.04680106,-0.23542343,-0.02937343,-0.06495696,-0.06325732,-0.06990941,-0.1294655,-0.15838954,0.06375125],"values":[0.0,0.0,0.0,0.0,0.0,0.0,0.0,0.0,0.0,0.0],"inputWeights":[[0.0018959575,0.010570622,-0.13187106,0.04977028,-0.014291499,0.24995226,0.0035012637,-0.0264643,0.17994334,0.032784007,0.13842896,-0.0866982,-0.037511855,0.03641338,0.16741721,-9.873849E-5,0.12622221,-0.054821033,0.11497085,0.060960755],[-0.048432864,0.0065864883,0.08704573,-0.01623433,-0.046310056,0.1928607,-0.003800825,0.064229146,0.11976323,0.08821098,0.06644706,0.027247079,0.073516205,0.05987864,0.088582076,-0.0645295,0.11832166,0.05328084,-0.07647368,0.10541715],[0.24786352,0.03759045,0.019103212,0.08678969,-0.10732477,-0.08163405,0.18864,-0.11528071,0.017826434,0.025421845,-0.018748345,0.20680982,0.14105012,-0.09598058,-0.12186113,0.04132905,-0.12367721,-0.12055154,0.13210179,0.09587172],[-0.04925378,0.02883994,-0.076304436,0.075354226,-0.16070828,0.14853421,0.050120916,0.122388005,0.04759275,0.027626013,0.19751713,-0.122320935,-0.022086965,0.007929227,-0.025143541,0.04992875,-0.040218752,0.023924123,-0.13400446,0.17151809],[0.04189532,0.14430302,0.063833006,-0.03809188,0.14680597,0.107481495,-0.10506102,0.075567834,0.09583469,-0.017911939,0.024738096,0.076396614,0.021012465,-0.017463945,-0.13009956,0.037145663,-0.07915659,0.012934269,0.02541612,0.13366763],[0.27943328,0.026151387,-0.08309471,-0.06099577,-0.06111564,0.04028234,0.07737062,-0.16302735,-0.075809725,0.036794182,0.031670347,0.103195295,0.19841848,0.099500515,-0.004779142,-0.15836221,0.065691486,0.103071265,-0.1576939,-0.07289263],[0.07948689,0.064326,-0.024104496,-0.040817652,0.045016848,-0.014058433,-0.03762721,0.1273237,-0.05037396,0.18744153,0.09071728,0.010830433,-0.0055983723,-0.02506871,0.0119511485,-0.06002071,0.0056239683,0.065855384,-0.013942572,-0.009393552],[-0.14033608,-0.056597784,0.015117773,0.1052983,-0.12008801,-0.15493222,0.15601176,0.006997568,-0.06202062,-0.07946268,0.108269304,-0.035627,0.046754703,0.0029081085,-0.028893987,0.03225279,-0.041721225,-0.033111498,-0.31689122,0.17397316],[-0.07855609,0.037408117,0.08495902,0.00543145,-0.06632544,0.09901433,0.029908968,-0.010624666,-0.1552545,0.023751343,0.1382135,-0.042636357,-0.004510478,0.021708911,-0.098827876,-0.021408008,-0.08825839,-0.12829238,-0.0809518,-0.02745547],[0.1991499,0.16755533,-0.12377283,0.03361934,-0.06062715,0.017176926,-0.10406242,-0.17268059,-0.1125881,0.015478094,0.08530448,0.045091536,-0.012648339,-0.058832232,-0.024897162,0.21140191,0.15623252,-0.10019063,-0.035699066,0.015168645],[0.0969743,0.20185137,-0.012647963,0.024708834,0.017382462,-0.24408248,-0.056672603,0.09011588,-0.02976357,-0.04686443,-0.19505525,0.03797633,0.08279437,0.073952995,0.061075687,-0.018571885,-0.006107857,0.057894472,0.07789966,0.12798512],[0.02500513,-0.1103901,0.08403836,-0.05684615,-0.127507,0.15642811,-0.019371372,-0.065881066,-0.14709726,0.036441684,-0.18595152,0.051250663,-0.10570955,-0.10211084,-0.069621146,0.059462126,-0.16754471,-0.09113762,0.06801465,0.030213164],[-0.026815256,0.09355408,0.22005124,-0.046572477,0.09159518,-0.07035268,-0.09346009,-0.071972914,0.078402534,0.042857684,-0.12153644,-0.028201312,8.8283553E-4,0.043118916,-0.17116174,0.105683066,-0.03873786,-0.09325601,0.09347426,-0.13237095],[0.02514029,0.058686517,-0.13381957,0.08425045,0.24738319,0.1273653,0.06725215,0.09456776,-0.059911426,-0.16665375,0.034377404,-0.10055022,0.028436113,0.040550396,0.13747574,-0.02182669,0.048925962,0.017123172,-0.08052222,-0.10112542],[-0.035105545,0.026081562,0.045009173,-0.027448827,-0.12408561,0.029080752,0.1730701,0.028356167,0.100497544,0.029546516,-0.07641773,-0.03468407,-0.09046424,-0.076030895,-0.06342134,-0.054032795,-0.11228857,0.042542435,-0.09406164,0.12807903],[-0.13349056,0.044274326,0.09016557,0.19859213,-0.1413813,-0.13936144,-0.011039574,0.064696796,-0.13291715,-0.14283465,0.06092657,0.057915203,-0.09352066,-0.10051311,-0.023343895,0.026425717,0.08791642,0.0077060107,-0.17550682,5.638161E-4],[0.055296488,0.046184525,0.052045643,-0.064436205,-0.008340267,-0.118780255,0.16042775,0.007512481,-0.043648954,-0.008296593,-0.20160322,-0.017219873,-0.015551843,0.15965249,-0.045654777,0.16171815,0.1737522,-0.015776152,-0.09716569,-0.119722754],[-0.082923576,-0.14580263,-0.13962947,-0.11798933,0.1631731,-0.06358677,0.065779485,0.21325433,-0.003567178,0.117714204,-0.18516676,-0.077514924,0.17597643,0.06659995,-0.012775034,-0.05746488,0.036999024,-0.048228845,0.08001031,0.057532173],[-0.015226753,-0.02324104,-0.075092256,-0.14979693,0.15354419,-1.00426005E-4,-0.047364473,0.18890874,-0.15800339,0.081886485,-0.08885344,-0.042674795,0.10324884,0.14511013,-0.12581225,0.2051388,-0.02151679,0.040235132,-0.09292233,0.23221694],[-0.026988354,-0.18472049,-0.15253747,-0.08487419,0.11122405,-0.014597536,0.10025479,0.17538464,0.10603266,-0.083010755,0.102845676,-0.030246146,-0.029142914,-0.13155247,-0.096036,-0.1464229,0.0032682868,-0.10914422,0.009684839,-0.060864888]]},{"biases":[-0.110576294,0.138161,0.16677134,0.003355147,-0.035518598,-0.034308303,0.055663846,-0.06323765,7.3832326E-4,0.07504814],"values":[0.0,0.0,0.0,0.0,0.0,0.0,0.0,0.0,0.0,0.0],"inputWeights":[[0.03549658,0.2502095,0.21451138,0.05464513,0.055438194,0.09194339,0.10443363,0.12266975,0.042572584,-0.020710332],[0.110116966,0.09686208,0.058951456,-0.062770985,0.04468761,0.11228039,0.099469304,-0.13288313,0.26834315,0.014864671],[0.08932628,0.0325002,-0.0012310876,0.098312706,0.032461025,0.16385224,-0.011733051,5.96878E-4,0.10854991,0.028066674],[0.10832879,-0.03542488,-0.11150413,0.030034227,0.08572532,0.12159791,-0.08558608,5.8030704E-4,0.090873025,-0.062459443],[0.120686844,0.017725455,-0.06328261,-0.019941406,0.010405196,-0.06446278,0.1498888,0.085147426,0.010368244,0.06634652],[-0.03833734,-0.15408655,0.1741634,-0.058967244,0.038461756,-0.090826534,-0.052066073,-0.123981856,0.072229944,0.101299524],[-0.072078794,-0.076927856,-0.061139185,0.08823724,-0.017026206,-0.13768496,0.031947765,0.035311583,0.2027304,0.016404485],[-0.1273242,-0.0025388543,-0.20372152,0.016221577,-0.04937805,0.030213837,-0.007405775,-0.07013014,-0.20810148,0.15279865],[-0.010720038,0.0011076996,0.03663451,0.119070396,0.034275852,0.09061248,-0.0066968375,0.22402206,-0.052356612,-0.03734133],[0.13738829,0.08601163,-0.14216635,0.034032658,-0.020878438,-0.1905044,0.053738553,-0.19412456,0.036709744,-0.24389052]]},{"biases":[-0.08343044],"values":[0.0],"inputWeights":[[0.026392994,0.011350958,0.14938128,0.10215797,-0.027279444,-0.038008265,0.030390095,0.23364283,-0.08550442,-0.19014844],[0.025075791,0.12565595,0.013823834,0.030396912,-0.028975561,0.18312833,0.040956788,-0.06790294,0.13449696,-0.16123076],[0.13338202,0.020815132,0.15871924,0.12541881,0.04403387,0.010948789,-0.1187801,0.02172382,0.03812712,-0.077517726],[-0.118287265,0.060110822,0.028927997,0.008715026,-0.025862714,-0.1319886,-0.04147356,-0.0362809,-0.08737424,0.044750836],[-0.018359236,-0.07629673,0.13723367,0.0924085,0.06849116,0.04710979,0.03221322,0.026337512,-0.12304981,-0.010691326],[-0.031560246,-0.1595483,0.10688933,0.061189543,-0.07843455,0.028261257,-0.06621002,-0.06322217,0.017113933,0.01492497],[0.109184764,-0.11123079,-0.061604295,-0.047429327,-0.08116717,-0.036923386,0.058194574,0.07019461,0.06179298,-0.08489662],[0.1095482,0.10815127,-0.029461605,0.037901253,-0.012145029,-0.19973534,-0.04397898,0.032872748,0.092039,-0.0048085432],[-0.04567778,0.023801094,-0.103347905,0.04576465,0.0070034377,0.033744,0.04629487,-0.15298426,-0.07887409,-0.3082842],[-0.020036912,0.0033001886,0.02027561,0.077670634,0.030819766,0.085872225,0.042629268,0.0023394844,-0.09304397,-0.1127524]]}]}},{"fitness":0,"neuralnetwork":{"inputLayer":{"biases":[0.0,0.0,0.0,0.0,0.0,0.0,0.0,0.0,0.0,0.0,0.0,0.0,0.0,0.0,0.0,0.0,0.0,0.0,0.0,0.0],"values":[0.0,0.0,0.0,0.0,0.0,0.0,0.0,0.0,0.0,0.0,0.0,0.0,0.0,0.0,0.0,0.0,0.0,0.0,0.0,0.0]},"layers":[{"biases":[-0.017230107,-0.11394319,-0.08813658,-0.050821703,0.055175718,-0.0015161934,0.12262869,-0.20325825,0.00877908,0.065541804],"values":[0.0,0.0,0.0,0.0,0.0,0.0,0.0,0.0,0.0,0.0],"inputWeights":[[0.009525645,-0.03365775,-0.12237765,0.12652181,0.06294321,0.09777788,0.14457814,0.05897995,-0.048388515,-0.033579823,0.11378502,0.14880133,-0.2239655,0.13583148,-0.10735526,-0.05105075,0.09421243,-0.121360585,-0.11430836,-0.0920589],[0.046111483,-0.038908675,-0.056770626,0.03449601,-0.12352108,-0.005163963,0.0076431357,-0.2485487,0.019078718,0.21946211,0.13356592,0.06449408,-7.859654E-4,-0.10763637,0.27772295,0.04648452,0.077453405,-0.13435094,-0.044752173,-0.08467562],[0.028980434,-0.1918514,0.15627807,0.087303914,0.00984149,-0.10846969,0.1493501,-0.25967804,-0.077478126,0.012322026,-0.066964865,-0.016850352,-0.304615,0.11825201,-0.008524159,-0.1273123,-0.2315925,-0.06491496,0.1516056,-0.002857055],[-0.024450285,-0.09735423,0.036697883,-0.10282231,0.10344724,0.054544013,0.048577715,-0.10367703,0.19716872,0.091653764,-0.0949222,-0.04629049,-0.071347654,0.0971728,0.16041309,-0.021511318,-0.106257886,0.0016308384,-0.09791721,0.11040445],[-0.07012492,0.03605418,-0.1070391,-0.03021587,0.002739788,-0.04431291,0.1028834,-0.0024034784,-0.1165645,-0.15385643,0.0386089,-0.09467977,0.04391406,0.12612778,-0.13233191,0.11077218,0.09795128,-0.07527703,-0.037113238,-0.095650405],[0.002472724,-0.0071739024,0.16617526,-0.007525102,0.11556401,-0.083105996,-0.16545121,-0.033548538,-0.0844725,-0.059057686,-0.12845133,-0.029501844,-0.14288431,0.17920868,0.08126205,0.040288616,-0.11460395,0.2536807,-0.031116853,0.097125225],[-0.070881724,-0.007734534,0.03912907,0.13793088,0.102690905,-0.023504302,0.07676995,0.014703884,-0.10109134,-0.03378773,0.25135073,0.016519148,-0.05744432,0.13315257,0.049511973,0.06557927,-0.120662615,-0.0058800746,-0.020469332,0.036531117],[0.12638202,0.085192434,0.012776907,0.13313493,0.097808704,0.13363642,-0.27652702,-0.03403014,0.03536531,-0.011592093,-0.13553134,0.02699105,-0.031668164,0.07982866,-0.024294987,0.10500814,-0.12543496,0.12862964,-0.14774227,-0.12537372],[-0.005328173,0.15021564,-0.0051552695,0.022556363,0.07121858,0.091533594,0.04738515,-0.06345037,0.0679563,0.08061878,-0.06739408,0.15313706,-0.11698225,-0.045074936,0.14954235,0.07371636,-0.15686518,0.12191378,-0.23202384,0.36268136],[0.069817625,0.10984204,-0.13702612,0.061795868,-0.031224603,0.08296722,-0.0052043614,0.11300202,-0.031353142,-0.03022983,0.06464314,0.0878496,0.018945945,0.08884824,0.1112499,-0.16363293,-0.16481483,-0.047250062,0.015667548,0.027268996],[0.06206857,-0.0017536669,-0.13736057,-0.02299733,0.031063065,0.0011323509,-0.03213405,0.014876197,0.17292526,0.05308351,0.060404964,0.030814655,-0.14240067,0.16655815,0.19765949,0.029485114,-0.078371696,0.20960374,0.053669814,0.14624408],[-0.022957025,-0.01601783,-3.5606913E-4,-0.121143065,0.0054088193,0.046617,-0.01724507,-0.085666195,0.032474197,0.13318506,0.008918435,5.0843874E-4,-0.016956033,0.15155141,-0.07200622,-0.21914017,0.15422311,0.005876528,-0.106396526,0.049482536],[-0.0028303503,-0.12455885,0.0074885734,-0.06546808,0.081377156,0.007629357,-0.050475314,0.02845274,0.13461454,0.21104439,0.06251457,0.22420187,-0.12251223,-0.06393592,-0.046073496,-0.09172815,0.03249724,0.06902548,-0.10045229,-0.2090668],[-0.23871413,0.11714553,0.0042103017,-0.0030174726,0.13932191,0.11331653,0.0036700524,-0.0044936948,-0.11520812,-0.017181244,0.039286338,-0.11129586,0.034878377,0.10745711,-0.04845978,-0.05502876,-0.046433963,-0.078567006,-0.14160717,-0.08652414],[-0.0817628,-0.054723315,-0.081553124,-0.11730357,-0.019427584,0.05007628,0.09276265,-0.012641748,0.0792763,0.13292386,0.041214578,-0.014769392,-0.0018531363,0.14175078,0.009932474,-0.06950628,0.0749989,-0.11063685,-0.057137873,-0.12943476],[-0.07283044,0.058002707,0.016367132,-0.01158092,-0.026020287,-0.1794982,-0.09414521,0.101675875,-0.023514967,-0.007334927,-0.003993957,0.101547755,-0.14724721,-0.081578575,0.027933845,0.041380566,0.018864395,-0.20742016,0.13801312,-0.07468358],[0.28485787,-0.068868615,0.17092709,-0.05724491,-0.01761692,0.017516404,0.1123869,0.05822029,-0.11676945,0.054359548,0.18008044,-0.07795241,0.08510408,-0.11349143,-0.07796248,0.086607546,-0.024039485,0.04105083,-0.059987772,-0.0077406312],[0.002737992,0.026852734,-0.1425217,0.038798522,-0.18269946,-0.024882728,0.022772228,-0.13423663,-0.26015744,-0.047645964,0.17304642,0.14057729,-0.0057656663,0.062192176,-0.06809572,-0.09312322,-0.20321767,-0.076481074,0.11456602,0.030259337],[0.06786618,0.21777442,-0.23804353,0.07465792,-0.040381674,-0.15563294,0.12578516,0.15594621,0.10840126,0.13789944,