{"generationNumber":42,"Entities":[{"fitness":0,"neuralnetwork":{"inputLayer":{"biases":[0.0,0.0,0.0,0.0,0.0,0.0,0.0,0.0,0.0,0.0,0.0,0.0,0.0,0.0,0.0,0.0,0.0,0.0,0.0,0.0],"values":[0.0,0.0,0.0,0.0,0.0,0.0,0.0,0.0,0.0,0.0,0.0,0.0,0.0,0.0,0.0,0.0,0.0,0.0,0.0,0.0]},"layers":[{"biases":[-0.116428,-0.06204571,0.11525792,0.056899074,0.123869635,0.06748935,-0.18583332,-0.0531292,-0.044083364,-0.12128237],"values":[0.0,0.0,0.0,0.0,0.0,0.0,0.0,0.0,0.0,0.0],"inputWeights":[[-0.024098646,0.09584189,-0.06218311,-0.0031531006,-0.04601652,0.09018559,-0.13188344,0.0221845,0.06260381,-0.05142516,-0.10453621,-0.05749502,-0.08776579,0.1735792,-0.10815581,0.1252137,0.179552,-0.10456923,-0.08632853,-0.22733241],[-0.10317949,0.15678164,0.11544794,0.0046830582,0.12873209,-0.11321743,-0.009292235,0.03750554,0.04623527,0.26471287,0.14385723,-0.014378389,0.17175923,-0.079209074,-0.05876822,-0.10428116,0.06380626,0.17552222,0.057026677,-0.0088525545],[0.19903265,-5.203278E-4,0.0788208,-0.20458864,0.16846743,0.07044183,0.07284648,-0.0911874,0.07026547,-0.031229516,-0.10412591,-0.05338306,0.007388594,0.12071907,-0.062103104,-0.055395726,-0.23779075,-0.01507627,0.18943611,-0.052331626],[0.068427816,0.15958478,-0.10132737,-0.21780132,0.09054924,-0.111230135,0.06054411,-0.0084102135,-0.025188241,0.04189821,0.025689483,-0.095316835,-0.10621783,0.110979386,0.006277364,4.040045E-4,0.07132207,-0.07047918,-0.11305478,0.0061360393],[-0.054015294,0.0056946613,-0.075728245,0.0010824302,-0.014821495,-0.024780508,-0.14035837,0.12975065,0.002397855,0.07697854,-0.0073886155,-0.030180305,0.016590616,-0.07591224,-0.14080968,-0.009177108,0.07026014,-0.0064579393,0.05678448,0.22317936],[-0.074556984,0.08362184,-0.058988135,0.027221862,0.065133624,0.09552571,-0.042774998,0.09785513,-0.031108776,0.15572704,-0.13439013,0.11141242,-0.07262899,-0.10409567,0.108117595,0.077497095,-0.048145745,0.17814928,-0.03370711,-0.13340686],[0.031519588,0.1954787,0.042278145,0.041166503,-0.25322166,-0.042870086,0.041362323,-0.078368425,0.048206583,-0.15071249,0.06445684,-0.09229908,0.023819372,-0.101064466,0.15294687,-0.034381952,0.06637633,-0.05959814,-0.040605396,-0.034758918],[-0.069999896,-0.061833993,-0.103708915,0.12506695,0.15992135,-0.016415667,-0.06786032,0.013387907,-0.059790604,-0.099888586,0.057752017,0.011623656,-0.07162284,-0.12670751,0.042638708,-0.120669976,0.15021685,0.051647894,0.049607087,0.0049705445],[0.0559053,-0.13601588,-0.05124737,-0.016121019,0.1463234,-0.13077584,0.029163517,0.071416065,0.019872576,0.07990724,-0.006869905,-0.15079853,0.12374075,-0.08444081,-0.14812274,-0.14598097,-0.081953466,-0.06892072,0.092190765,0.05770487],[-0.12772836,-0.0128712645,-0.10382095,-0.07664896,0.0226084,0.044922557,0.062766574,-0.109788604,0.0840372,-0.041050885,-0.019800548,-0.05165105,0.095454045,0.0059584873,0.002937609,-0.14226916,0.014637874,0.14517018,-0.042194642,0.07105615],[-0.030269973,-0.027224677,0.017153203,0.10140052,-0.00397254,0.05988965,0.050030623,-0.1855587,0.070964046,-0.016705,-0.046054218,0.035255753,-0.019597668,-0.080267936,-0.16519853,-0.06850291,0.06011779,0.1404041,-0.15139256,0.07896427],[0.15707515,-0.013101211,-0.043591548,0.104539655,-0.007039416,-0.05380825,-0.0063904426,-0.044622965,-0.007892824,-0.043519206,0.0732125,0.20242636,-0.23465852,-0.043854088,-0.015793944,0.031206558,0.1430266,0.04781277,-0.08871371,-0.09087359],[-0.17094406,-0.015200314,-0.030431569,0.09237988,0.016870076,-0.019338785,-0.10913504,0.046348434,0.060534004,0.13355288,0.0328037,-0.19327235,0.03508349,0.12711653,-0.085790426,-0.005904642,-0.14483301,0.14479369,0.11415382,-0.12409967],[-0.23008697,0.0015787615,-0.00592279,0.023474516,-0.106093526,-0.065987304,0.11398859,-0.14986134,-0.04216139,-0.052831452,-0.22636573,0.034455635,-0.005531202,-0.056645054,0.057409804,-0.083934054,0.038259167,-0.032833535,0.073196426,-0.047082353],[0.08317686,-0.030727044,0.15656379,-0.064307906,-0.062770195,-0.078544214,-0.038654212,-0.20593846,0.22662032,0.06972213,0.015646169,-0.041819036,-0.03660454,-0.02861634,0.085228644,-0.10611591,-0.021512283,-0.055144567,-0.2979534,0.056334477],[0.016133174,0.018283807,0.06351507,0.039043512,-0.029106805,-0.0424473,0.07526001,0.081726566,0.019011682,0.022141904,0.026235487,0.23634978,-0.04555391,0.13780865,0.021311702,-0.060726397,-0.1314879,0.10368391,-0.020384895,0.10829578],[-0.07020285,-0.065329626,-0.0988526,0.045220863,0.026463682,0.034333996,-0.022184243,0.0062702782,-0.118193135,-0.19306475,0.037023824,-0.12428731,-0.076209486,-0.0033657174,-0.091381595,-0.05959299,0.102871366,-0.033044282,0.016818423,0.05274288],[-0.12243153,-0.046714783,0.103907734,0.051172372,-0.04728812,-0.0022150832,0.0077514974,-0.017403288,0.06574707,-0.02087767,-0.034785688,-0.13587593,-0.032378085,0.123020165,0.08785458,-0.02244354,-0.05322038,-0.028546287,-0.015761478,-0.042580705],[-0.09798049,-0.010839432,0.054347984,0.03660763,0.091117464,-0.06019405,-0.004356075,-0.060579278,-0.024885958,0.009019552,-0.0013826545,0.007990868,-0.0066698007,-0.107931316,-0.22430968,0.17066857,-0.019864872,0.09060787,-0.047191538,-0.16027384],[-0.006765467,-0.16730076,-0.061762374,0.006885089,0.034680776,-0.099678375,-0.11284948,0.08647311,0.04311034,0.06918588,0.018734962,-0.06573122,-0.11530578,0.0074729817,0.067104936,0.039872494,-0.085671306,-0.1702382,0.011553147,-0.06431216]]},{"biases":[0.011216091,0.021272402,-0.042639986,0.20308581,0.08237764,0.047811903,-0.07555993,0.006029471,0.09123984,-0.09125875],"values":[0.0,0.0,0.0,0.0,0.0,0.0,0.0,0.0,0.0,0.0],"inputWeights":[[0.06310009,-0.087111145,0.11707065,0.11970005,0.007665328,-0.08498543,0.033142872,0.10831636,-0.024620133,0.050164916],[0.017385423,0.007648881,-0.01597756,0.021517918,-0.0052163675,0.003076819,0.019184453,0.05075971,0.017170893,0.13754597],[-0.0044618375,0.059984118,-0.066170245,-0.17003201,-0.016641742,-0.024436118,-0.08342969,-0.1090413,-0.06103648,0.04279325],[-0.004468791,-0.006256088,0.088596836,-0.08125976,-0.021069707,0.009208834,-0.09949122,-0.034541156,0.10955718,-0.022233544],[0.033624463,0.02731155,-0.018779773,-0.11955952,-0.016436512,0.024636427,1.0302575E-4,0.13122596,0.0895703,0.04705258],[0.10512645,-0.06883631,0.06929346,0.029499196,-0.008603769,0.02441492,0.07623145,0.07697223,0.12176645,0.16725215],[-0.105202004,-0.05241337,-0.035402495,-0.030637862,-0.08862222,0.006835536,-0.0010304846,-0.060462493,0.12826842,-0.22054362],[-0.014738906,0.06886633,0.050507512,-0.015452283,-0.04540455,-0.103381164,-0.014646896,0.0890229,-0.08397481,-0.13566239],[-0.064002134,0.0017374435,0.03409095,-0.075364254,0.044278756,0.07894871,-0.036827598,0.0778551,-0.22586994,-0.037382334],[0.14030813,-0.0011302476,0.09920203,0.06549649,0.16562533,-0.07694034,-0.21310723,0.0063022706,0.015772663,0.10461386]]},{"biases":[-0.019205121],"values":[0.0],"inputWeights":[[0.23415957,-0.19635949,-0.034144655,0.11014385,-0.25879213,-0.07861948,0.015044669,0.13030969,-0.01403121,-0.004768186],[0.07540525,0.075738125,0.06684846,-0.09996469,-0.09563177,0.024282955,0.041148424,0.0027277437,0.070124894,0.07458099],[0.17195995,-0.14883699,0.021910174,0.17520687,0.046873126,-0.038374677,-0.033577673,0.059770074,-0.056819253,-0.02011703],[-0.06880169,0.02938536,-0.07272848,-0.08037984,0.016206697,-0.13339478,0.0067526246,-0.13878843,-0.21955754,0.28212413],[0.02999206,-0.13606504,0.016501568,-0.19643688,0.045757998,0.14200287,-0.011090805,-0.11742587,0.17064121,-0.012567338],[0.029025296,-0.18695718,-0.04616117,-0.037831917,-0.053807124,-0.019143356,0.17901401,0.07807855,0.135869,0.13366155],[0.09781369,0.060307667,-0.031494502,-0.23973885,0.15300712,0.05210543,0.021695314,0.1195782,0.17966107,0.049593795],[-0.14742097,-0.038678072,0.020831194,0.09896556,-0.08749635,0.076518595,0.029441064,0.05418546,-0.0336832,0.049209945],[0.11234657,0.04139968,0.09287227,0.105868086,-0.074392125,-0.074136786,0.088423915,0.14672668,0.16703486,-0.14951375],[0.19896613,0.1657267,-0.050752234,-0.042541355,0.08994132,0.086539574,0.13743629,-0.08034507,0.07470482,-0.04001263]]}]}},{"fitness":0,"neuralnetwork":{"inputLayer":{"biases":[0.0,0.0,0.0,0.0,0.0,0.0,0.0,0.0,0.0,0.0,0.0,0.0,0.0,0.0,0.0,0.0,0.0,0.0,0.0,0.0],"values":[0.0,0.0,0.0,0.0,0.0,0.0,0.0,0.0,0.0,0.0,0.0,0.0,0.0,0.0,0.0,0.0,0.0,0.0,0.0,0.0]},"layers":[{"biases":[-0.14565712,-0.104126215,0.10545103,-0.0054944647,-0.027248278,0.12212029,0.030486556,-0.08939151,0.0044166045,-0.049167972],"values":[0.0,0.0,0.0,0.0,0.0,0.0,0.0,0.0,0.0,0.0],"inputWeights":[[-0.039809767,0.048596535,0.20532589,0.0125248525,-0.05510033,0.23392329,-0.021232218,-0.032486968,-0.030584171,0.05892584,-0.07496881,-0.10677401,0.24141102,0.15042172,-0.0011979883,0.0016966955,0.07385684,-0.17002818,0.21353716,-0.05508313],[-0.006756438,0.064667195,0.18937506,-0.108809404,-0.14873165,-0.23586607,-0.118751206,-0.11398214,-0.1087929,0.07186554,-0.009592034,-7.682446E-4,-0.019910263,-0.11100616,0.1361004,0.13071291,0.026735716,0.020608675,-0.15427203,0.07341858],[0.16521133,0.07499087,-0.04774201,-0.13884172,0.15231057,0.13257983,-0.012480452,-0.010307553,0.005566619,-0.04968694,-0.03436215,0.07087643,0.033460125,0.024576478,0.18879029,3.1552388E-4,-0.0018099631,0.018672058,-0.073444225,0.049538445],[-0.00548816,0.028034423,-0.057716675,0.18111868,0.013444074,-0.03069144,0.13454267,0.052373987,0.032607622,0.12971273,-0.16931881,0.03622669,-0.10029761,-0.075082116,-0.055551115,-0.093269825,0.09374896,-0.11181526,0.114860505,-0.08547319],[0.05005124,-0.116211765,0.1314808,0.03494453,0.017572027,-0.003818056,-0.008174624,0.2183782,-0.024820413,-0.018012466,0.109775335,-0.12473041,0.0494253,0.008437815,0.14900087,0.04215917,-0.21347238,0.13219234,-0.1509453,0.098851584],[-0.043010358,-0.17617777,0.043874405,0.08298142,0.067797184,0.019889403,0.015801853,0.19504853,-0.13524729,-0.10908462,0.03321266,0.15619956,-0.08944399,0.02042409,-0.049760185,-0.16354437,-0.017791608,-0.04160922,-0.056553144,0.2170113],[0.031877812,-0.10256432,-0.026814567,-0.20484419,0.15450224,-0.11747464,0.08920916,0.015790423,-0.036168978,0.044421777,-0.06699171,-0.06302471,0.04867555,-0.114667036,0.06731709,0.06838707,-0.037170272,-0.04558197,0.17650425,0.16140491],[-0.0454266,0.12731259,-0.045970887,-8.560978E-4,-0.06331482,-0.023605347,0.025451254,0.10304489,0.06619756,-0.08897164,0.16681081,6.178702E-4,-0.075709075,0.017776761,-0.12908567,-0.084491245,0.16422679,-0.12345092,-0.020693423,0.024300788],[-0.023140622,0.18865493,0.20721866,-0.120415926,-0.023397954,0.019691521,-0.009776596,0.09507857,-0.12755062,0.16250797,0.097588755,-0.15793218,-0.009583714,-0.026858216,-0.02867491,0.093281865,-0.121458784,-0.005785837,0.004872379,-0.109064594],[-0.055149682,-0.11221311,0.079430565,0.008766069,-0.06576198,0.16437434,-0.13452445,-0.087924585,-0.044630185,0.06987382,0.1481476,-0.07423785,-0.17466527,-0.011241096,-0.11105983,0.03837999,0.028079227,-0.06176891,0.036229815,0.07417735],[0.30097434,-0.21574883,0.02632061,-0.18310283,0.052160423,0.09064922,-0.062087443,0.048165645,-0.13079104,0.16312894,-0.13564333,0.030631522,0.06217488,0.06702583,0.1741371,-0.04419769,0.12006091,-0.0069008605,-0.06321659,0.11860061],[-0.07723755,0.16614473,0.050867043,-0.03564453,0.14081973,9.6158055E-4,0.24402967,-0.07828438,-0.07934773,0.0037268181,0.15027703,-0.07414061,0.023668736,0.10313372,-0.061026663,-0.04568833,-0.025874456,0.09098801,-0.04243309,-0.057391435],[0.14083193,0.06067634,-0.067075856,0.017512454,0.117722794,0.06965356,0.0958211,-0.21014242,0.026083194,-0.14267546,0.05843029,-0.003276693,-0.09239579,0.18209438,-0.026104547,-0.017941475,-0.16972566,0.016271736,0.21063335,-0.02542599],[0.069877766,-0.120939545,-0.08374874,0.07278654,0.092392094,0.06849077,0.12599778,0.10403756,0.01577028,-0.034056555,0.08195638,0.06564571,0.102283314,0.0329528,0.17114496,-0.13525656,0.026461288,0.034132514,0.09975331,-0.13064496],[-0.048446525,-0.082943626,0.21523345,0.050993413,0.027953824,-0.02235659,0.027016247,0.03021874,0.019848956,-0.059724655,0.034330454,0.08286353,0.040684763,0.1591046,-0.043063954,0.03420791,-0.07928171,-0.03359656,0.006987249,0.10471504],[0.1026413,0.00977862,-0.09903936,-0.14443211,0.20763843,-0.066563256,0.08829878,0.13148312,-0.038709167,-0.015225545,0.10337001,-0.0116289565,0.030601945,0.0063913204,0.058511768,-0.014546993,0.18816948,-0.012892338,-0.015811313,0.066661745],[0.122285694,0.058386855,-0.090627074,-0.11676733,0.011789163,0.01851032,-0.06570644,0.089332975,0.025585666,-0.018070182,-0.057031494,0.100760266,-0.08881906,-0.03401429,-0.07206657,-0.19822745,0.0011612987,0.15578209,-0.041710354,-0.020197783],[0.11555778,-0.073986724,-0.10773555,-0.070613526,-0.07199922,0.17970993,0.10012316,-0.026221834,0.07713008,-0.09231658,0.088409364,-0.04430333,-0.043116134,0.05782927,-0.13389878,-0.26473734,0.008197887,-0.040982977,-0.0352734,0.0287207],[0.16304573,-0.019757729,0.083437204,0.024010532,0.17331964,-0.01817036,0.052306145,-0.15637948,0.09419928,0.0076362104,0.07549958,-0.10582119,-0.032216817,0.13464321,0.09110081,-0.037754826,0.0011952502,0.06525051,0.06592585,-0.08390117],[0.048882272,-0.17245556,-0.039724674,0.18720584,-0.13544723,0.0398499,-0.03870085,-0.054718725,0.07891953,-0.072141774,0.1138236,0.01901508,-0.042855408,0.02993408,-0.16245396,-0.0073644677,0.12636742,-0.057401076,0.10934045,-0.052422423]]},{"biases":[-0.0755064,-0.10373003,0.04766999,0.2253467,0.2705743,-0.17039862,-0.07327188,-0.10973633,-0.032970052,0.09140118],"values":[0.0,0.0,0.0,0.0,0.0,0.0,0.0,0.0,0.0,0.0],"inputWeights":[[0.12941729,-0.052156758,0.0886231,0.07353983,0.09891227,0.14954846,-0.11864184,-0.04471582,0.011089751,0.058431387],[-0.075950645,-0.18724926,-0.013588931,-0.055437922,0.12651025,0.06383312,-0.10097831,0.30139735,0.18520886,0.124506645],[0.053063612,-0.11467028,-0.028998943,-0.0573941,-0.036311418,0.06706676,-0.022960523,-0.008711222,0.012722806,0.019922722],[0.020531047,0.048381645,-0.033196904,0.14573781,0.17494659,0.069487706,-0.011940258,-0.12622412,0.1039121,-0.047431003],[0.28182718,0.067638874,0.18916187,-0.05922224,-0.06885172,0.09083622,-0.090126626,-0.10048857,0.17779586,-0.16132319],[0.15042599,0.15660393,0.08014344,0.057954606,0.18799706,-0.026477028,0.074071564,0.1172149,0.12623407,0.0940994],[-0.0920717,-0.23606154,0.057821404,-0.09536135,0.006588808,-0.0068523414,-0.05277731,-0.08691602,0.13634741,0.10459043],[0.115700655,-0.10251332,0.011967394,0.13305797,-0.14586192,0.16704746,-0.07766937,-0.050051592,0.0033728038,0.09936383],[0.0041648243,0.15361188,-0.04194898,-0.09425513,-0.13080047,-0.058793217,0.037323743,0.12072353,-0.07122116,-0.039449386],[-0.11891101,-0.016370816,-0.15075108,-0.14960319,-0.0072794557,0.16880731,0.13282625,-0.10767571,-0.17474718,-0.22632122]]},{"biases":[0.06404516],"values":[0.0],"inputWeights":[[-0.082917474,-0.051228695,-0.1055172,0.010155962,0.017914757,0.1744028,-0.042524166,-0.1545543,0.12156883,-0.042310245],[-0.002576874,0.048849195,-0.21427226,0.103500806,0.029673826,-0.010867521,0.044410348,0.21872996,-0.021464247,0.009304933],[0.22107448,-0.046153966,-0.042365827,-0.033382244,-0.029271446,-0.08415971,-0.06422286,0.052167058,0.18094833,0.058838647],[-0.004383492,0.07827435,0.10171353,0.028443938,-0.013378777,0.04535778,-0.07015203,-0.009925063,0.050640658,0.16279007],[-0.07147327,0.0656055,-0.14980564,-0.07818007,0.005018902,0.085895665,0.022068208,-0.0951314,-0.09332651,0.09328735],[-0.057422902,-0.057023007,-0.085114636,-0.09959578,-0.11665476,0.02583015,-0.024732612,-0.02430575,-0.059027582,-0.08840868],[-0.085250154,0.1061305,0.01723099,-0.12060057,0.021559881,0.15285432,-0.0011872615,-0.03530565,0.16277964,0.055543702],[0.029745592,0.022644227,0.027666075,0.025954457,-0.11164331,0.031736117,0.019850114,-0.14351933,0.04348027,-0.042448845],[-0.0066050887,0.020132806,-0.057365384,-0.025644647,-0.099258296,-0.026605893,0.06971425,-0.043035377,0.02413409,-0.1545238],[-0.03624562,0.12622358,-0.13527909,0.058531083,0.042459145,-0.041574612,0.11008452,0.23562372,-0.046059188,-0.085330114]]}]}},{"fitness":0,"neuralnetwork":{"inputLayer":{"biases":[0.0,0.0,0.0,0.0,0.0,0.0,0.0,0.0,0.0,0.0,0.0,0.0,0.0,0.0,0.0,0.0,0.0,0.0,0.0,0.0],"values":[0.0,0.0,0.0,0.0,0.0,0.0,0.0,0.0,0.0,0.0,0.0,0.0,0.0,0.0,0.0,0.0,0.0,0.0,0.0,0.0]},"layers":[{"biases":[2.6305925E-4,-0.09641139,-0.057488415,-0.104759805,0.018484144,-0.02948903,0.062211633,0.009408863,0.17787854,-0.0035373638],"values":[0.0,0.0,0.0,0.0,0.0,0.0,0.0,0.0,0.0,0.0],"inputWeights":[[-0.16025408,-0.013780562,0.12695503,0.063170604,-0.14274248,0.060107846,0.17489336,-0.015069738,-0.21337181,0.07318286,-0.10242846,-0.01587781,-0.089108065,0.08799832,-0.046667248,-0.08835355,-0.09208129,-0.10412538,-0.17786649,-0.030430574],[0.0375015,0.07858461,0.01609535,-0.0069479486,-0.09321196,-0.006783631,-0.04293958,-0.03443877,0.015828874,-0.16799408,-0.17928869,6.805409E-5,0.08383802,-0.11121348,-0.088646874,-0.08418541,0.085266754,-0.07940027,-0.03698639,0.06387163],[0.03878858,0.06677661,0.03865278,-0.13121882,-0.14319131,-0.028638674,-0.08920021,0.02365256,-0.014566561,-0.0063937805,0.09251295,5.2812375E-4,0.057568386,0.116312996,0.036690153,-0.022066256,0.052745994,0.07604936,-0.1343189,-0.03206025],[-0.035876777,0.015174834,-0.053286083,-0.1260238,0.17534791,-0.038879972,-0.09118109,-0.09781512,-0.004579858,-0.02023106,0.015848992,0.082798146,0.19382524,-0.11448627,0.11535221,-0.1099454,0.0832152,0.045381296,-0.25033146,0.114358656],[0.07621772,-0.02072639,-0.22162251,-0.009773692,-0.10674683,0.053348575,-0.046813995,0.109763704,-0.12966369,0.19970973,-0.0603927,0.23613489,-0.0052431393,-0.189074,-0.05981038,-0.22505072,0.06932634,0.027165417,0.11316882,-0.15209681],[-0.014389894,0.11185086,0.06818807,0.12393177,-0.017135095,0.0957813,0.041969497,0.044691585,-0.21075438,-0.13606948,0.15347576,-0.07274454,0.064559385,0.034552105,-0.16480057,0.07914981,0.13946983,0.13024423,-0.09300354,-8.792558E-4],[-0.108156994,0.27616477,0.09221815,0.20636226,-0.066227205,0.05983489,-0.07247803,-0.029142171,-0.003950042,-0.12647916,-0.02983943,-0.15533754,0.010142631,0.12561731,0.118457995,0.11823778,-0.048380822,0.042750932,0.038249414,-0.08068993],[-0.056360442,-0.019358756,0.12716797,-0.0066619553,0.07123371,0.04201894,-0.15821296,0.005608262,0.09695567,0.067788325,0.07479678,-0.03445276,-0.021831699,-0.15786617,0.033712495,0.14035031,0.06338633,-0.084422596,-0.1234917,0.19633491],[-0.13895315,-0.014490874,0.047104005,-0.05089828,-0.094486766,0.17359988,0.067952365,-0.023492856,0.04097942,0.26349604,-0.20076711,-0.20426941,0.11589572,0.063603036,0.058838397,0.051070035,0.099624336,-0.1568554,-0.2126172,0.0603862],[0.055596206,-0.05468479,-0.109633446,0.0144936,0.047122937,0.15376198,-0.064107254,0.009994386,-0.034203988,0.020129388,0.065274306,0.012149093,0.0243428,0.17595047,0.13513765,0.016053759,-0.17829356,-0.12948442,0.018834004,-0.033294853],[-0.002375303,-0.058680963,0.08230148,0.0032118883,0.015261869,-0.12198933,-0.021831648,0.024297323,0.0069529256,0.03758708,-0.013756396,0.010453575,0.07922179,-0.09786048,-0.050012562,-0.03334914,-0.061326005,0.04769873,0.032706417,-0.08486047],[-0.11728413,-0.084314495,-0.22167683,-0.12626047,0.19208378,-0.05594063,-0.053972214,-0.077397406,-0.12867104,-0.047176667,-0.2403951,0.059917443,-0.1575176,0.13164993,0.009167045,-0.13047169,-0.10383892,-0.065347046,-0.09555491,0.013527388],[0.051235788,0.11537588,-0.17677145,0.103336126,-0.22417483,-0.10546534,-0.04087562,-0.1526256,0.051574234,0.043052997,0.0021344686,0.06892747,-0.13384558,0.03787145,0.0071034725,-0.021454988,0.12763903,-0.015087983,0.0020145008,0.18206531],[0.10531207,-0.049358122,-0.0684161,0.016390469,0.05750767,-0.12507424,-0.12696637,0.044262778,-0.15700075,0.17846824,-0.04689318,-0.119043924,-0.0175006,-0.085888594,-0.12786426,-0.0556566,0.12525085,-0.1420236,-0.00989914,0.029169636],[-0.11573673,0.04222309,0.28464586,-0.012123328,0.002390464,0.04665964,-0.03595794,-0.03686562,-0.009942948,0.04156431,0.08542177,-0.17767183,-0.08274481,0.087203726,0.17026784,0.14691785,-0.049427662,-0.12267892,0.18000121,0.005810798],[0.078158565,-0.022657407,-0.101295814,-0.20204942,0.020811172,-0.04004256,-0.056958187,0.07609295,-0.0716644,-0.04338005,-0.060978238,-0.08360013,-0.08620982,0.031569034,-0.037555754,-0.10352958,0.06754404,-0.1675212,-0.12864596,0.10859394],[0.09043325,-0.18690498,-0.06788261,-0.16189767,-0.13209678,-0.15803288,-0.079417855,0.10722226,-0.072484724,0.032077547,0.039030187,0.19831933,-0.034205314,0.0023247644,0.11964914,0.019763814,-0.07943413,-0.007738281,-0.055848863,-0.16743772],[-0.24559419,-0.0023580494,0.036062185,-0.2156804,-0.022900108,0.1733931,0.027322048,-0.094201006,-0.19762112,-0.07224449,-0.043782305,0.07971065,-0.0025369648,0.04729386,-0.09868512,-0.04136962,-0.1548148,0.013133464,-0.103969984,0.1217289],[-0.006566204,-0.09286883,0.019020729,-0.0030614866,0.20852402,-0.19893233,0.006435489,-0.021842314,-0.05552168,0.072648026,-0.0023788472,0.057465974,-0.08589082,-0.04235952,0.06628979,0.03924499,0.17218284,-0.090840295,-0.034902308,-0.056105986],[-0.031887162,0.18591538,-0.0112304725,0.042857636,-0.0089455955,0.069342114,0.0044152713,0.027245885,-0.15429159,-0.021761386,0.078187875,-0.20801257,0.015741127,0.034257032,0.06528855,-0.11582569,-0.14896113,0.0045249052,-0.14805074,0.10417988]]},{"biases":[0.049019247,0.07435211,0.10041049,-0.08076831,0.18873121,-0.033182003,0.0096740965,-0.110605195,0.09144636,0.17409144],"values":[0.0,0.0,0.0,0.0,0.0,0.0,0.0,0.0,0.0,0.0],"inputWeights":[[-0.056394108,-0.08815098,0.0796838,0.06524718,-0.08155713,0.009373534,0.006714436,-0.042973965,-0.16444814,0.113760956],[-0.16692083,0.038677387,0.114653744,-0.051140703,-0.05976664,0.09174545,-0.034866042,-0.006234729,0.2111087,-0.10830413],[0.05384657,-0.05904543,0.07226427,-0.07090727,-0.093644425,-0.052681927,0.042831067,0.067985885,0.106245056,-0.10181493],[0.03522675,0.16379572,-0.10138404,0.10235733,0.094467945,-0.0568872,0.13280159,-0.15153873,0.03705999,0.04993807],[-0.060571093,0.0030669991,0.015483024,-0.041719265,-0.054045536,0.07335563,-0.04848608,-0.08140562,-0.14205964,0.103824355],[0.17699897,0.1808223,-0.007027826,-0.20155224,-0.023499165,-0.024699965,0.024658872,0.027198391,0.048920594,0.012991792],[-0.16172403,0.07039214,0.029918572,-0.051388063,0.02113812,-0.02437386,-0.14097281,-0.032359894,0.060514107,-0.015797058],[-0.014108101,-0.035678066,-0.068455,0.10494881,0.02780022,-0.10862365,-0.10295837,0.029299822,-0.029091517,0.24669327],[0.15139575,-0.08099967,0.064233914,-0.06563614,-0.15494537,-0.046602186,-0.023698019,0.17630205,-0.06170475,-0.051312692],[0.06298862,-0.032467205,-0.06742352,0.01910729,0.06221896,0.08226333,0.08631041,-0.050202828,0.05271773,-0.19289702]]},{"biases":[-0.021162191],"values":[0.0],"inputWeights":[[-0.008551459,0.051458057,-0.08902165,0.039432943,0.13088958,0.09576246,-0.040550407,0.08038195,0.038790844,0.18437934],[-0.028289432,-0.03317027,-0.023146814,-0.033010975,0.12351952,0.16708824,0.10204251,0.037366256,0.17982447,-0.11888866],[-0.1274229,-0.16946334,0.042782716,0.021498818,-0.06759904,0.037518453,0.06667298,3.1455627E-4,-0.15043995,-0.0042809597],[-0.11679996,-0.05077133,-0.16156894,0.074665986,0.15823823,0.07872052,-0.014200841,0.10260868,-0.104869954,-0.09374941],[0.07977222,0.04309545,-0.15054709,-0.003788542,0.02327064,0.026555281,-0.060891513,0.0054201963,0.20243005,0.061509155],[-0.16840822,0.024725426,0.17258589,0.07439316,-4.961988E-4,0.1544206,-0.046351124,0.07028646,-0.066913076,0.05786287],[-0.0832668,0.26008737,0.089556284,-0.16615902,-0.015250453,0.06987063,0.30203077,0.16897264,0.07434227,-0.087247625],[0.013037831,0.061664775,-0.0026412073,0.14618371,0.02788475,0.015974566,-0.09156325,-0.060460232,-0.07151995,-0.104247905],[0.03824745,-0.041165832,-1.0392419E-4,-0.0373661,0.017679268,0.011778266,0.06980085,0.19167653,0.09510097,0.025805457],[-0.006053432,-0.242964,-0.121603005,0.052494735,0.042594858,0.0481298,0.09928044,-0.15267947,0.09561412,-0.0793616]]}]}},{"fitness":0,"neuralnetwork":{"inputLayer":{"biases":[0.0,0.0,0.0,0.0,0.0,0.0,0.0,0.0,0.0,0.0,0.0,0.0,0.0,0.0,0.0,0.0,0.0,0.0,0.0,0.0],"values":[0.0,0.0,0.0,0.0,0.0,0.0,0.0,0.0,0.0,0.0,0.0,0.0,0.0,0.0,0.0,0.0,0.0,0.0,0.0,0.0]},"layers":[{"biases":[0.09462936,-0.02143669,0.15784414,-0.070524715,-0.010994082,-0.09751241,-0.015458014,0.14018069,0.10901548,0.09847871],"values":[0.0,0.0,0.0,0.0,0.0,0.0,0.0,0.0,0.0,0.0],"inputWeights":[[0.09684433,0.117347844,0.0032326535,0.026069252,0.16909157,0.040263884,0.0028732077,-0.015143047,-0.043482956,0.19021533,-0.00927367,-0.014586553,-0.06814654,-0.011001263,-1.4200574E-4,0.123128116,-0.039643034,-0.19413799,0.15145579,0.056895364],[0.057753637,0.040159035,-0.111963965,-0.13566045,-0.14039278,0.103608765,0.08303686,0.10389942,-0.13632113,0.05338707,0.04010096,-0.055068184,-0.2061615,0.053816836,0.11169845,-0.0037186667,-0.04178087,0.10121877,0.056885544,-0.04558092],[-0.01308899,0.025834447,0.03982895,0.06544933,0.06997373,0.09935596,-0.11927514,0.08085929,-0.02274846,-0.035242844,-0.10936176,-0.1224074,-0.008781556,0.08301114,0.081887476,0.13226354,-0.16641262,0.09592643,-0.10167955,0.07134362],[0.016546378,0.032927107,-0.119502954,0.099193364,-0.0077155316,-0.06577857,0.041089296,-0.029713478,0.05347444,0.039264556,0.069139734,0.06007038,-0.16268365,-0.122438945,-0.08953964,-0.055827674,-0.014915493,0.10697427,0.094705276,-0.03837715],[0.013020031,-0.0047542285,0.013125752,-0.026436437,0.08507383,0.10051014,-0.083382495,-0.28088322,0.09799973,0.12812757,-0.15062243,-0.03757874,-0.037664894,0.011108535,-0.0015150196,-0.086371735,0.05461263,0.12196128,0.043889284,-0.0049613123],[0.0952187,0.054392967,0.08173785,-0.080351144,-0.027569877,-0.094467826,-0.03435709,0.00760873,0.12874272,0.10564378,-0.07271193,0.038846534,0.00927974,0.06258612,0.039663926,0.012606046,0.086174674,0.06571375,-0.15649633,0.056379788],[0.124655545,0.009789256,-0.1564056,0.031316753,0.013348188,-0.046316437,0.033942588,0.07293608,0.03836458,-0.032535452,0.027135616,0.15732293,0.049824994,0.13108516,-0.13033617,-0.11103278,0.06654165,0.10326436,-0.0036593988,-0.10000631],[-0.061485592,0.09452388,0.029801667,-0.04927099,0.13399175,0.18022099,-0.04968183,0.020875895,0.04655238,0.03441028,0.076981515,0.04701748,-0.06702954,-0.009134687,-0.060626667,0.11544458,0.13340262,-0.11261516,-0.071164444,0.10482717],[0.053812716,0.09955653,0.099148765,-0.04084144,-0.11653022,-0.035591204,-0.148078,0.017655944,-0.23859422,0.028741814,-0.050207354,-0.09760438,0.1311886,0.038770195,0.009090425,-0.086858556,-0.04828496,0.18122214,-0.005023219,-0.11651006],[-0.095339894,-0.055894926,-0.032144412,0.14922062,0.10734716,0.16917656,-0.14143258,-0.19388613,-0.14702381,0.002134058,-0.107717484,-0.0053738696,-0.031290453,0.07707137,-0.101309024,-0.12289144,-0.016660564,0.0019279417,-0.0624089,0.049428437],[-0.01161563,0.12326299,0.04645141,0.01229312,0.05395777,-0.08549327,-0.08344349,-0.15201075,-0.08526146,0.12094093,-0.1052872,-0.055561412,-0.080919854,-0.0030885749,-0.042895015,0.15215586,0.015484672,-0.10643752,0.12095759,-0.086549744],[0.109796226,0.020919431,-0.024042698,0.081364654,-0.034918424,0.022330357,-0.1163692,-0.09348928,0.060997218,-0.096316114,0.18803564,0.13508736,-0.050044987,0.020089593,-0.121357106,-0.020646568,-0.17388074,-0.062305573,0.03971755,0.019057281],[0.054924667,-0.19392847,0.24032426,-0.072213165,0.089468256,0.0032599426,-0.051394057,0.14378764,0.074997045,-0.08307643,-0.06774561,0.020782314,0.089458264,0.050950006,0.06576812,0.031560116,0.012905496,-0.0014225208,-0.30611166,0.12398983],[-0.029041667,0.07158578,-0.19657882,-0.07916427,0.0743766,-0.04144157,0.088054985,-0.17751326,0.04995002,-0.09508548,0.0355914,-0.13616645,-0.015167723,0.04771504,0.19237535,0.10826988,0.05503124,0.06371443,0.12991834,-0.02704738],[0.1725814,0.056663908,-0.07417373,0.07377979,-0.056544594,0.026782136,0.10001012,-0.10348897,-0.03905949,-0.05385107,0.035565194,0.0065062237,-0.008905979,-0.012452373,-0.034220736,0.058876943,0.092190586,-0.09659343,-0.15474105,-0.09362647],[-0.015279289,0.06835312,0.033171404,0.07576385,6.895406E-4,-0.0018064899,0.012797435,0.08644253,-0.037227057,-0.15530671,0.1556351,-0.09095352,-0.0878869,-0.18670659,0.002207808,0.25477737,-0.066699386,-0.054705713,-0.041053407,-0.045630597],[-0.025274886,0.046407234,0.075229585,0.049470928,-0.12560862,0.029109096,-0.051372964,0.15421616,-0.027051764,0.119709685,0.073623,0.05279697,0.046320572,-0.05836707,-0.12526245,0.114501946,-0.022392962,-0.017239142,0.1384959,-0.04510577],[-0.11129248,-0.011816899,-0.07260733,-0.020238508,-0.010752774,0.018127,0.19504784,-0.14379682,-0.033407055,-0.11419877,0.16104227,0.0012056578,-0.15179127,0.12171293,0.12997721,0.05352934,0.09921605,-0.053111687,0.10787682,0.06643356],[0.084728725,-0.030555509,-0.03692898,0.16593981,-0.00898625,0.093973294,-0.09089937,0.14800234,-0.109903656,0.07953032,0.022987388,-0.06138849,0.027010906,0.097198404,0.16567738,-0.0071594017,-0.058617707,0.05165874,0.13052048,0.07708771],[0.24065985,-0.12991937,0.10188001,-0.107810065,-0.1040355,-0.20587717,-0.06970395,0.027340716,-0.078717664,-0.16149364,0.030816058,-0.09253431,-0.06730968,-0.036405347,-0.0062831044,-0.12101761,0.06837712,0.01903148,0.075631596,-0.03162489]]},{"biases":[0.018961014,-0.034114372,-0.084553935,0.048578598,-0.27866873,-0.10229663,0.034423415,-0.07955948,0.14091115,0.1219709],"values":[0.0,0.0,0.0,0.0,0.0,0.0,0.0,0.0,0.0,0.0],"inputWeights":[[-0.19508366,0.055561848,-0.117045835,0.18218955,-0.0076901773,-0.094358854,0.112735026,-0.107680246,-0.23370238,0.15453276],[0.07947517,0.083391026,0.05718163,0.050008178,4.864202E-5,2.5803293E-4,0.083574325,0.08799312,-0.040264398,-0.115689285],[0.10722748,0.11851716,0.072990015,0.11317165,-0.0560536,-0.0989711,-0.1336538,0.02125195,-0.023688717,-0.13781428],[-0.08030556,0.100609995,0.059336435,-0.1524413,0.117649674,-0.11494407,0.12228226,0.028908812,0.10867383,0.0010049111],[0.014572188,0.038141735,-0.12561443,0.13452998,0.17170425,0.07381387,-0.0043598167,-0.07796404,0.07330788,-0.10265585],[0.010087996,-0.017139466,-0.0064048986,0.081191786,-0.20108852,-0.14318368,0.036452748,0.02553344,-0.06614154,-0.017180663],[0.10806004,-0.058583383,-0.041178245,-0.119178675,-0.038460217,0.066784345,-0.1251703,-0.067786984,-0.030851869,-0.09617293],[0.08722899,-0.15245596,0.071755625,0.08480858,-0.021793421,0.031869654,0.29734552,0.039002225,0.059350956,0.09956061],[-0.005013991,0.048943587,-0.17008933,0.09803022,-0.13489,-0.073013425,0.050087016,0.08026594,-0.026899897,-0.09405375],[0.01873568,-6.706014E-5,0.17019781,-0.031562474,-0.035846982,0.06473771,0.024231005,-0.09610567,-0.027517486,0.019529821]]},{"biases":[0.011518986],"values":[0.0],"inputWeights":[[-0.09848766,0.07588545,0.056126483,-0.0082660895,-0.09252028,0.10456203,0.033067837,0.19801857,-0.026143936,0.087501384],[-0.011983964,-0.06262713,-0.19410156,0.14137004,-0.03613313,0.03882991,0.008842628,0.06952528,0.032357864,0.09554831],[-0.10550967,-0.08479555,-0.05283072,0.22349584,0.076365806,0.14008062,0.027123844,-0.017917816,0.026036317,-0.19367345],[0.16359748,0.06958792,0.09350531,0.040667202,-0.09042201,-0.17437263,-0.08266612,-0.094019026,-0.06411205,0.05186874],[-0.18075582,0.10525644,-0.054779,0.029374827,-0.116419844,-0.03924253,0.045535848,-0.10491504,0.03817219,0.10837194],[0.022192035,-0.110041335,-0.13486671,0.1354089,-0.19127527,0.04413778,0.10098156,0.034277834,-0.057551738,-0.019446544],[0.0053761816,0.06427012,-0.036700975,-1.3040446E-4,0.033303756,0.111669175,-0.16193123,-0.11012487,-0.14880326,0.021262003],[0.040305816,0.01449976,-0.062597245,0.04099968,0.1206579,-0.081480324,0.052091863,0.12310596,0.031362478,-0.0054509914],[0.045158282,0.112588674,-0.13504544,-0.11627499,0.099995635,0.1426692,0.11517904,-0.0075223423,0.09845319,0.12328637],[-0.029551871,0.102069065,-0.12005941,-0.14988041,-0.04245972,-0.024319116,-0.14959188,-0.10875454,-0.08621684,0.05597713]]}]}},{"fitness":0,"neuralnetwork":{"inputLayer":{"biases":[0.0,0.0,0.0,0.0,0.0,0.0,0.0,0.0,0.0,0.0,0.0,0.0,0.0,0.0,0.0,0.0,0.0,0.0,0.0,0.0],"values":[0.0,0.0,0.0,0.0,0.0,0.0,0.0,0.0,0.0,0.0,0.0,0.0,0.0,0.0,0.0,0.0,0.0,0.0,0.0,0.0]},"layers":[{"biases":[-0.09157608,-0.15179026,-0.033859443,0.0033994215,-0.09309599,0.18255268,0.110289,-0.0070611164,0.020084115,0.20908538],"values":[0.0,0.0,0.0,0.0,0.0,0.0,0.0,0.0,0.0,0.0],"inputWeights":[[-0.016413057,-0.03841388,0.16319785,-0.06798901,-0.2177785,-0.062029075,0.07123421,0.016909368,0.020612348,0.023698319,0.011786863,0.015136091,-0.033609394,-0.05935736,0.035858635,0.08886671,0.14653109,-0.24249518,-0.00806305,-0.077526875],[-0.087071605,-0.02343945,0.18428528,0.002475585,0.081606574,0.0010218791,0.065659866,-0.045823015,-0.045817085,-0.049863625,-0.13694528,0.12338075,0.059324063,0.19125424,-0.0763459,0.05389705,-0.037193358,-0.23946697,-0.034686953,0.007851903],[0.13776423,-0.14559962,-0.08001905,0.19483066,0.01805862,0.0873005,0.030369738,0.023105564,0.090817176,0.21235923,-0.02635219,0.09321639,-0.13552493,0.025295394,-0.004766625,-0.0013829365,0.07336079,0.03871277,-0.032597322,0.032465983],[-0.08438916,-0.02376477,-0.14828052,-0.024665372,-0.14222461,-0.048467617,-0.100116186,-0.2059423,0.023476847,0.050529428,0.023938304,-0.06257962,0.036174458,-0.1537119,0.0016980866,-0.083258234,-0.089136004,-0.026111325,-0.07351001,-0.11649977],[-0.0030798484,0.1471018,-0.083013326,0.12504847,0.020784091,0.13798328,0.012973638,-0.01652999,0.20584814,-0.046276115,0.09618156,0.023740793,0.07155689,-0.09667462,0.10145744,0.013589605,0.14930096,0.06081656,-0.08348394,0.12739451],[0.007986095,-0.044463642,0.006615213,0.034277517,0.10777342,0.0055181645,-0.066837244,0.124709204,0.048102137,0.01616618,0.15452102,0.037035983,0.052234452,0.033820506,-0.05610976,0.046111085,0.044855606,0.16375794,-0.01503538,-0.06303231],[0.08236816,0.16010132,0.10226463,0.02381241,0.16245705,0.07885894,-0.04086738,-0.005527153,0.15201432,-0.13538696,0.21906847,-0.15811373,0.022872578,0.08690395,-0.031841878,0.41912013,-0.042049136,-0.14139745,0.18344678,0.3295676],[0.12592642,-0.050590154,-0.05278367,0.008254171,0.15445684,-0.055846147,-0.0485505,0.075928405,0.23357485,0.20166987,-0.05870506,0.045215964,0.05196296,0.022868866,-6.0358556E-4,0.11559367,0.11749541,0.12901187,0.11053661,-0.07833327],[0.0031502435,-0.07733173,-0.0360427,-0.012235984,0.25913158,-0.054242212,-0.02802813,0.050505772,0.17897037,0.14413226,-0.0031277582,-0.03889623,0.023859356,-0.0536497,0.13566503,-0.10206576,0.15153003,-0.3222257,0.05437702,0.0252992],[-0.04592372,-0.08661597,-0.034356788,0.0017787961,0.08382374,-0.19074208,0.059302226,-0.20623757,-0.06151405,-0.040610388,0.035175197,0.003551535,0.0143015515,-0.11937669,-0.14909817,0.077684164,-0.160566,0.052790396,-0.19783667,0.008291544],[0.017466398,7.188372E-4,-0.015257996,0.06404879,0.21960606,-0.15213813,0.1266752,-0.092833534,-0.1524949,0.117359005,0.10420733,-0.08344932,0.07481682,0.043335866,-0.051312298,-0.32783085,-0.025087962,0.21196549,-0.031268466,0.14357817],[-0.09813009,0.018479442,0.024359351,0.012722815,0.16501056,-0.0846878,-0.020324858,-0.027957087,0.080559805,0.07163137,0.048613902,0.08735221,3.7460317E-4,0.08336914,-0.036948327,-0.060691282,0.008582447,-0.0723017,0.05490579,-0.17092586],[0.10149609,-0.06805574,-0.022088736,0.0041962587,-0.0011144064,-0.14456807,-0.06335243,-0.052631453,-0.033876855,0.083272465,-0.2182756,-0.20832664,-0.008723625,0.1131097,-0.003891813,-0.01823635,-0.005508623,-0.010998018,-0.10207777,-0.0641489],[0.20159075,0.08089602,0.08181309,-0.028019972,0.06589069,-0.008924378,0.02012974,-0.24565773,0.17230888,-0.14556772,-0.12319768,0.044257253,-0.11394307,-0.10798626,0.0012095601,0.13042068,-0.026644586,0.040276136,-0.11799477,-0.022955189],[0.08111623,-0.15962042,0.20911095,0.005596731,0.028832354,0.0030689072,-0.14193696,0.04282076,0.07330015,-0.08576905,-0.01185069,-0.28960764,-0.16795442,-0.05661893,0.1262109,0.022182344,0.06311889,0.17517692,0.061948165,-0.14464757],[-0.07599288,0.13088924,0.17291158,-0.16390987,-0.11425464,-0.06342647,-0.12094777,-0.039831534,-0.11697681,0.008257513,-0.057352003,-0.001681234,0.047980845,-0.07913965,-0.20517339,-0.009612587,-0.13584399,-0.056819122,-0.05886085,0.02889795],[-0.0641853,0.110241555,-0.040562242,-0.011721367,-0.029482799,-0.1843197,-0.10427314,0.049130976,0.12508745,0.0516277,-0.054023612,0.010009843,-0.015040352,0.064956404,0.20581385,0.21257205,0.01272854,-0.09965489,-0.11481397,-0.12177043],[0.09613917,0.041413456,-0.023474399,0.025111284,-0.051028956,-0.051887702,-0.06612935,-0.0021552707,0.02195651,0.11019816,-0.010082506,-0.20161252,0.10353857,-0.09412913,0.10368095,0.04795796,0.07523017,0.013089085,-0.07498566,-0.14791606],[0.046424504,0.08203715,0.015418421,0.07284415,0.021366647,-0.065996416,0.03527074,-0.073046006,-0.17314823,0.16257535,-0.03960478,0.10751748,0.06022752,0.016542904,-0.02370625,0.13729522,-0.06629514,-0.054388404,-0.0025129407,-0.13634138],[0.052182477,-0.029058313,0.12899451,-0.19682221,0.11112847,-0.01192919,0.12361391,0.025357144,-0.029141115,0.022392957,0.0022781328,-0.14883249,-0.085837774,-0.06911067,0.053370558,0.048600625,0.09131858,-0.020521322,-0.13330846,0.11035773]]},{"biases":[-0.050912872,0.028663322,0.08032772,-0.09616255,0.022456793,0.023110509,0.17566991,-0.096726835,0.061786495,-0.088339634],"values":[0.0,0.0,0.0,0.0,0.0,0.0,0.0,0.0,0.0,0.0],"inputWeights":[[0.09920505,-0.059337407,-0.10571004,-0.067642234,-0.011299812,0.042971045,0.03742479,-0.045086555,0.032969683,0.094786145],[-0.07311182,-0.0058039757,-0.011002146,-0.09761412,-0.16871569,0.008789868,0.025782514,0.12672839,0.16895506,0.02949],[0.031285666,-0.06288758,-0.06632528,0.07089459,-0.010832791,-0.14307563,0.21672969,0.06993072,-0.02201549,-0.09022764],[0.06506421,0.18779549,0.108435005,0.10883211,-0.036157984,0.19895813,-0.02437359,0.009049063,0.027491879,0.009043421],[-0.00967768,-0.047008958,0.26041645,-0.080094494,-0.028030995,-0.008009368,-0.031364687,0.07693184,0.078842126,-0.20965704],[-0.14795457,-0.010117565,-0.07442454,-0.04550202,-0.075067095,-0.045525808,0.13629888,-0.052462034,0.20551983,-0.07846634],[-0.030339692,-4.3139307E-4,-0.037175383,-0.12568562,0.0636144,-0.105580844,-0.048371118,0.0016753895,0.129683,0.07982962],[0.16203621,-0.0720549,0.009616472,0.006667616,-0.016692204,-0.22190343,-0.0039734473,-0.047375873,0.14366575,9.59901E-4],[-0.01741752,0.010950458,0.14641844,-0.033380583,0.14047334,0.0045262985,-0.04873573,-0.018735077,0.0015370181,0.09678058],[0.11640655,0.10875545,-0.15882434,0.026500296,0.2506877,0.11557447,0.15455146,0.03530071,9.7607623E-4,0.14694054]]},{"biases":[-0.1406039],"values":[0.0],"inputWeights":[[0.103729844,-0.050222937,-0.03623474,0.04606373,0.006059261,-0.02656429,0.15706496,0.048055675,-0.01936533,0.053621437],[0.06276709,-0.11633982,-0.01369319,-0.16774781,0.094681315,-0.09713962,0.09380122,-0.029743267,0.0625588,0.14329426],[0.01105754,-0.05642064,-0.015132838,-0.061333824,0.03180469,-0.14622615,-0.14449939,-0.075010896,-0.11379309,0.061317433],[-0.094980255,0.07963101,0.11246586,-0.19777304,0.019186737,-0.07345474,0.081524,0.066398226,-0.012559184,-0.20606725],[0.045635838,-0.09397864,0.12958194,0.11241952,-0.10675153,0.10597618,0.067170255,0.16799721,0.0806358,0.008689517],[0.012029459,0.017378349,0.043825883,0.017846039,0.17828427,0.022662288,-0.09476198,-0.024025181,0.05353042,0.024287954],[0.023278775,9.665314E-5,-0.0539807,-2.4594043E-4,-0.095260255,-0.11883029,0.07835403,-0.0043793344,-0.0021561661,0.07290679],[-0.084172025,0.0096662985,-0.14456753,-0.06880884,0.03446857,0.049600646,-0.1965079,-0.049971275,-0.07861032,0.13214137],[0.11305027,0.003363554,0.08549504,-0.122165695,-0.04004789,0.16375452,-0.08835517,0.10665927,0.019799836,-0.14433382],[0.110453494,0.014494838,0.09841251,0.0027646085,0.00560471,-0.011134169,0.104358345,0.030196149,-3.8762705E-4,-0.037461627]]}]}},{"fitness":0,"neuralnetwork":{"inputLayer":{"biases":[0.0,0.0,0.0,0.0,0.0,0.0,0.0,0.0,0.0,0.0,0.0,0.0,0.0,0.0,0.0,0.0,0.0,0.0,0.0,0.0],"values":[0.0,0.0,0.0,0.0,0.0,0.0,0.0,0.0,0.0,0.0,0.0,0.0,0.0,0.0,0.0,0.0,0.0,0.0,0.0,0.0]},"layers":[{"biases":[-0.031153012,-0.017312333,-0.0021909205,-0.037541907,-0.018362232,0.0017391616,-0.021021627,0.08109397,-0.1144321,0.039665703],"values":[0.0,0.0,0.0,0.0,0.0,0.0,0.0,0.0,0.0,0.0],"inputWeights":[[0.06302233,0.031018132,0.023398321,0.11460357,-0.12265712,-0.058239058,-0.049303785,-0.0747557,-0.13629426,0.090054594,-0.16388567,0.061526824,-0.01960915,-0.024067989,0.10308138,0.07206054,0.1766054,-0.02694399,0.042825665,0.070488796],[-0.029493814,0.06620186,-0.07269027,0.16068935,0.07983123,0.20029724,0.028998736,0.10198076,0.13032277,-0.15249749,-0.03026601,-0.15453699,-0.049950596,-0.0817165,0.10419538,-0.041928522,0.17753647,-0.19222227,0.03842483,-0.02806919],[-0.01986556,-0.11806595,-5.094353E-4,-0.02958847,-0.031170763,-0.04643376,0.12890308,0.24458256,-0.042342294,-0.10276225,0.093234815,-0.10844258,-0.16588789,-0.009729773,0.06450678,0.05985244,-0.12740158,-0.10327205,-0.12432692,-0.16419826],[0.05936822,0.0060360646,0.0135303885,-0.0037877606,-0.061430737,-0.081781216,0.27587852,-0.08468238,-0.075380184,-0.1407712,0.031692464,-0.103030965,0.09038645,0.067368105,-0.14190353,0.082942076,-0.06963213,-0.001495905,-0.13640133,0.033254053],[0.07505106,-0.18834561,0.09499797,0.02379622,0.10268479,-0.0468827,-0.12168158,-0.035874344,0.06290938,-0.03605221,0.027637245,-0.046357132,0.011719719,-0.032778103,-0.10335892,0.045906037,0.07397826,-0.25137255,0.15393436,0.016348463],[0.08129703,0.004104422,-0.10421782,0.084056415,-0.12480665,-0.07115362,-0.23097241,0.112353414,-0.045806043,0.11492242,0.13212918,0.13794486,0.025302347,0.04750997,-0.091565445,-0.037432585,0.014565438,0.034979634,-0.2132665,0.052704282],[-0.1104563,0.053057935,0.09939892,0.05532157,-0.16654305,-0.048184216,0.04288011,-0.31149623,0.04246132,-0.01922892,-0.020400427,0.046937622,0.08938789,0.16730015,0.023969414,-0.19382113,-0.120749,-0.031571917,0.03726101,0.117001794],[-0.083530396,5.1996E-4,-0.1370635,-0.024254108,0.019704308,0.025149338,-0.0046571153,0.040092554,0.23050757,-0.13462497,0.049359474,0.038708534,-0.08746379,0.0141732935,-0.07604458,-0.013195895,-0.044083852,0.014153543,0.00316684,0.26857126],[-0.17808318,-0.039925072,-0.08957979,-0.102629505,-0.07492619,-0.03281539,0.03361889,-0.005224488,-0.04465958,0.13600717,-0.11215877,-0.23086002,0.053144068,-0.0031774188,-0.115914606,-0.08537287,-0.011572387,-0.09892355,-0.07922739,0.037785634],[0.06610741,0.045745235,-0.013491703,-0.1347704,-0.081187814,-0.11112968,0.15654352,0.16577145,0.11067131,0.089780696,0.09411729,0.02556633,-0.12602344,0.051438883,-0.1264652,0.10654511,0.066946454,0.037776753,0.16148652,2.0622801E-4],[0.039524887,-0.084505044,0.04773522,-0.06687633,-0.10922396,-0.21234895,0.032398194,-0.13161092,-0.15837893,-0.090113476,0.039587844,-0.054077756,0.0086421585,-0.022614306,-0.09707383,-0.07507687,-0.061736125,-0.19419627,0.061324302,0.052096486],[0.0035619854,-0.13202499,0.08469159,0.12709443,0.054954883,-0.009985541,0.13524075,0.24043368,-0.14100926,-0.070279256,-0.11863315,0.025199832,0.10581741,0.0021448634,-6.3139613E-4,-0.044668145,-0.13338365,0.052633792,0.08897027,-0.09357207],[-0.10540849,-0.120454505,-0.039160106,-0.22414488,0.28739566,0.03135403,0.1279372,0.13057645,-0.09932242,-0.09945257,0.2379833,0.12497539,-0.010003702,-0.11471626,0.08633776,0.18062997,0.0151757905,0.032923367,-0.09209982,0.031009452],[0.04567304,0.08757756,0.025284477,0.043475732,-0.12434444,0.10651724,0.08788452,-0.17095457,0.018160447,0.17666264,-0.014239784,0.107384905,-0.09245595,0.05416902,0.15662631,0.082944445,0.16882497,-0.041135848,-0.06881933,-0.029477613],[0.07811383,0.033222068,-0.05151519,-0.123854056,0.122980006,-0.013357762,-0.08761175,0.14769047,-0.008646362,-0.06827512,0.012589094,0.089376256,0.109035864,0.2242703,-0.095413744,0.04744604,-0.094900526,-0.07843422,0.055944987,-0.07590878],[0.044785395,-0.19244859,-0.07928456,0.076217204,0.33524516,0.15676892,-0.022506371,-0.025853528,-0.14958721,0.04199885,-0.010150507,-0.14605214,-0.0042951033,-0.105715945,-0.04462724,-0.05455053,0.10265042,-0.070419766,-0.02869023,-0.030215334],[-0.0355493,-0.010794842,-0.15899514,-0.055678453,-0.02163887,0.13045987,0.058633212,-0.15966374,0.026637284,-0.04713027,0.09356511,0.026706504,-0.15617764,0.11138521,-0.18446703,-0.0025162192,-0.07677711,0.107709035,-0.05986272,-0.011652476],[-0.0778629,-0.07474145,-0.08694163,-0.09562157,-0.01977197,0.06774295,0.033549216,-0.02707039,-0.09614212,0.06420055,-0.0855508,0.05224684,-0.10368903,0.0629301,0.054555316,-0.2766664,-0.0895804,-0.113675654,0.15379511,-0.08015111],[0.05033717,-0.017415665,-0.09186473,-0.107300974,0.034240022,0.0540127,-0.01152504,-0.10010398,0.041319158,-0.04535738,0.0020122048,-0.03086101,-0.096958965,-0.044494193,0.0055483268,-0.048698824,0.13775967,0.15382925,-0.093657106,0.0437901],[-0.019390984,0.059210166,-0.018649284,0.07817172,-0.1326146,0.11372788,0.20746695,-0.051373787,0.003981167,-0.04114671,-0.044385765,0.10402803,-0.094310425,-0.04901466,-0.068165034,0.1503285,0.1004006,-0.009033737,0.061778065,-0.10110041]]},{"biases":[0.1645908,0.04532162,-0.18078,-0.00235745,-0.056085613,0.03395526,-0.03667998,0.0050363047,0.12444272,-0.06725918],"values":[0.0,0.0,0.0,0.0,0.0,0.0,0.0,0.0,0.0,0.0],"inputWeights":[[0.002009564,0.0121123325,0.0407266,0.120621115,0.025106221,-0.11550859,0.005116649,-0.047907587,-0.035208177,-0.23616269],[-0.14541279,0.12659425,0.10365709,-0.0018207129,-0.021053188,-0.15895776,-0.06893714,0.063497305,-0.13290067,-0.063082375],[-0.059841145,-0.033920955,0.061145402,0.030914387,-0.14205521,-0.13482426,0.20154545,0.11370478,-0.02261486,0.004601241],[0.08756913,-0.07398099,-0.032053337,-0.008236828,-0.16457403,0.015562816,-0.2319156,0.09901423,0.0059017916,-0.047797732],[-0.13005349,-0.022530602,0.07295916,0.010401839,0.06452407,0.13526422,-0.11040703,-0.08476749,-0.05366956,0.08491701],[0.09048111,-0.13670401,-0.16270904,0.12262868,-0.08032554,0.0058936137,-0.0592681,0.21476398,-0.12786947,-0.012777813],[0.022159284,0.132625,-0.012126354,-0.1347228,0.05997726,-0.0068469755,-0.045772504,-0.075589225,-0.14742574,-0.09580042],[-0.006954942,-0.13764016,0.0075161164,0.008722875,0.11084539,-0.032297704,-0.0011697923,0.021550754,-0.005076532,0.14877045],[0.015939128,0.05544716,-0.20605703,0.039453678,-0.13759872,0.031743176,-0.015525263,-0.09533742,-0.007518137,-0.052381612],[-0.23748165,0.07123212,-0.02642166,-0.022131847,-0.04968326,0.06526689,-0.07964448,0.044074986,0.22352073,0.10218373]]},{"biases":[-0.17707255],"values":[0.0],"inputWeights":[[0.08146256,-0.13901263,-0.13752687,0.038516246,-0.0153437685,0.11242266,0.052455008,0.038496267,3.716352E-4,-0.027319739],[0.0109956525,-0.041202553,0.12510785,-0.1195119,-0.09748512,-0.070270255,-0.0021854958,-0.09159997,-0.1138384,0.07838465],[-0.077952586,-0.17884263,0.0031215788,0.03009071,0.06477427,-0.19345474,-0.031579614,-0.15317115,0.1271633,0.06927018],[0.010138452,0.046834987,0.019936213,0.013554501,-0.009899876,-0.1464629,-0.008910597,0.18169947,0.04731395,0.027480895],[0.062303565,0.09922565,-0.06354884,0.14331602,-0.063925445,0.051133186,-0.120240085,0.03469444,0.12116753,-0.1366619],[0.043372136,-0.10133487,-0.01996201,0.0021602833,-0.06807226,0.053535756,-0.023842767,0.17355523,-0.10448708,-0.042595193],[0.17566176,-0.0065741143,0.017373662,-0.010008645,-0.17545845,0.028007934,0.06114825,0.118696086,-0.036323898,0.026320722],[-0.09175598,0.050036836,-9.803951E-4,-0.08717634,0.055013947,-0.10739561,-0.10889992,0.06746048,0.17815241,-0.015317524],[0.17494833,-0.02737089,-0.12095697,0.0015240909,0.046699837,0.14243571,-0.064391114,0.09394433,0.004108247,-0.0068579284],[-0.15032415,0.09511413,-0.0029800192,0.097082235,0.027093386,-0.08715408,0.078843474,-0.059421092,0.11157382,0.0043394854]]}]}},{"fitness":0,"neuralnetwork":{"inputLayer":{"biases":[0.0,0.0,0.0,0.0,0.0,0.0,0.0,0.0,0.0,0.0,0.0,0.0,0.0,0.0,0.0,0.0,0.0,0.0,0.0,0.0],"values":[0.0,0.0,0.0,0.0,0.0,0.0,0.0,0.0,0.0,0.0,0.0,0.0,0.0,0.0,0.0,0.0,0.0,0.0,0.0,0.0]},"layers":[{"biases":[0.10001171,-0.053412504,-0.05099042,0.034110416,0.018561717,0.045158528,0.032849565,0.18693842,0.013197595,-0.17133774],"values":[0.0,0.0,0.0,0.0,0.0,0.0,0.0,0.0,0.0,0.0],"inputWeights":[[0.06523943,0.11184522,0.016646327,0.118446454,-0.103677146,-0.12579918,0.0155217545,0.075080924,-0.14022009,0.11954066,-0.060949642,-0.055914927,0.13210638,0.17295635,0.06732093,-0.10475447,-0.036917083,0.07287431,-0.1581065,-0.07069831],[0.053494345,0.015374332,-0.11058294,0.06353818,0.013892555,0.054953717,0.054867644,-0.24160407,-0.0018332513,-0.08501656,0.031045675,0.0810851,-0.12723553,0.036702953,-0.0026447482,-0.16304249,-0.1960142,0.003927297,0.070188195,-0.019748036],[-0.14414188,-0.14053816,0.031854898,-0.06202738,0.01406465,0.028400341,-0.087972306,0.14435877,0.21309955,0.16940218,-0.06443796,0.031854767,-0.016903808,-0.027409911,-0.052347664,0.17339092,0.068290494,0.17733425,-0.10277133,0.065970615],[0.047266323,-0.009464155,-0.10130227,0.02908287,0.25970018,-0.07344007,0.016786275,0.0885322,0.0034711948,-0.06912782,-0.014086565,-0.039799012,-0.061377,-0.19088186,0.07767605,-0.012912889,0.14418842,-0.022721846,-0.047731526,-0.18123356],[-0.16560803,0.14176151,-0.17836122,-0.13202731,0.0052779326,0.022284286,-0.013049554,-0.11954989,0.104847044,-0.14225714,-0.14919846,-0.047853943,0.005018512,0.21171433,0.014117,0.07618524,-0.05139406,-0.12519936,-0.014564373,0.006877633],[0.17519173,-0.08311312,0.070263885,0.13728048,0.050874654,0.06069073,0.08430521,-0.15678519,-0.11223446,7.015711E-4,0.0030846763,0.005054169,-0.010862982,-0.15936495,-0.16440874,-0.15453507,0.18004636,0.08316658,-0.20145391,0.0068726265],[-0.20104258,0.14915624,-0.021938097,0.12856634,-0.08394193,-0.056181006,-0.040163435,-0.055900432,0.084278345,-0.20601605,0.06262224,0.11142277,-0.15091923,0.025378099,0.024850871,-0.06982429,-0.107990764,0.055104803,-0.12882309,0.0813453],[0.0082416525,-0.06584785,-0.019154169,0.07977338,0.21172914,-0.08205487,0.03653956,0.026745012,0.2014523,0.0160393,0.08214178,0.17408007,0.211769,0.09114209,0.041600846,0.10957332,0.015176901,-0.016096171,-0.06710689,-0.08302838],[0.21791655,-0.054103486,-0.165601,0.042642575,0.011120887,0.065188274,-0.12621923,0.019899435,-0.0036177032,0.02158191,-0.007332883,-0.12453924,-0.05201153,-0.09036798,0.078350075,-0.11405392,0.074523546,0.037202585,-0.04124417,0.16645238],[0.18811473,-0.007057424,-0.033499252,-0.021042636,-0.11602336,0.02712874,0.18756457,0.08973341,0.029884981,0.030930284,-0.051194746,0.13763584,0.04735337,-0.08622631,-0.05841501,-0.14668863,-0.15855463,-1.8088822E-4,0.05473599,0.10919715],[0.1373214,-0.022496084,0.037666906,-0.033837687,-0.21742532,-0.026541026,-0.05850072,-0.39004835,-0.003881952,0.04263159,0.004136056,0.015467927,0.1493322,0.039294682,0.037789106,0.061903268,0.08477963,0.20415269,0.045761455,-0.060210947],[-0.1868933,-0.004657797,0.098513134,0.09147935,-0.017665084,0.03421568,0.114698455,0.16429785,0.031033391,-0.021914916,-0.075221434,-0.09244839,0.12160225,-0.10541353,-0.08754195,0.0639295,-0.08550731,0.032667506,-0.29409975,-0.03486709],[-0.1717831,0.0658628,-0.057239145,0.13154413,-0.060225904,-0.011588044,0.073065355,-0.036614217,0.1622946,0.03556784,-0.21394162,-0.103765085,-0.23179127,-0.15416744,-0.079945765,-0.12288338,0.027264645,0.091457896,-0.09784433,-0.057083797],[0.04781191,-0.17232609,0.033647932,0.042263556,-0.11926796,0.044333607,0.13025235,0.11585172,-0.091540895,-0.0396894,0.22780262,0.037086904,0.11677787,-0.09077144,0.11048064,0.060496494,-0.0736921,0.025637683,-0.010974885,0.11691462],[-0.06711499,-0.010258072,-0.02043757,-0.14631681,0.042661324,-0.067871474,-0.06246211,-0.073288426,0.2651622,-0.12164511,0.14271964,-0.106880166,0.09510562,-0.06249153,-0.048883777,0.053170424,-0.07149297,0.062450733,0.0062049776,-0.011436036],[0.03709272,0.09610733,0.26937756,0.0537634,0.07705222,-0.014053545,-0.06641955,-0.16422087,-0.025954472,-0.0029723595,-0.0753966,-0.10749745,0.017464256,-0.018824007,-0.094583236,0.13855298,0.0072138594,-0.04871303,0.091838084,-0.052601874],[0.04215709,0.18068816,0.09613835,-0.0051899767,0.10484645,-0.045212455,0.097794615,0.08915991,-0.042106267,0.048720963,-0.13442406,-0.033624213,-0.14374292,0.14615726,-0.056472905,0.03748087,-0.20671016,-0.2194928,-0.04674745,-0.036331024],[0.16858643,-0.09130325,0.11953828,0.01800078,-0.004887474,-0.0434367,0.02251451,0.05869875,0.010342514,-0.055075202,0.043075174,0.23249643,-0.031940054,-0.05124707,0.014082895,-0.029359125,-0.11085397,-0.10308448,0.06665483,0.0376059],[-0.14104271,-0.14084573,0.15694755,0.12407151,-0.016576122,0.061679613,-0.10188736,0.05524437,-0.0054037115,-0.101785645,0.0944592,-0.008648104,-0.027296582,0.015192044,0.10692418,0.024687164,0.059562743,-0.046102423,0.081417404,0.05148096],[0.039593846,-0.07993774,-0.035273388,-0.18315269,0.12262787,-0.046784703,-0.03433451,0.039287705,0.108860426,-0.10857074,0.083086595,-0.13781983,0.061527718,0.20509669,-0.17911205,-0.014880976,0.17858641,0.21987107,0.096826926,-0.019993402]]},{"biases":[-0.10545654,0.028914426,-0.09302039,0.10730231,-0.1657203,-0.06884417,-0.19697385,0.2627797,0.01581523,0.13132027],"values":[0.0,0.0,0.0,0.0,0.0,0.0,0.0,0.0,0.0,0.0],"inputWeights":[[-0.073802926,-0.009301947,-0.101243086,-0.16057631,0.18430513,-0.0950361,-0.024428649,0.15486696,-0.107742704,-0.10723631],[0.03355075,0.028619023,0.03682555,0.05882935,0.08247113,-0.05019296,0.041253265,-0.041593518,-0.104214445,0.106416],[0.25440168,-0.06899627,0.15780371,0.12007662,0.028593054,0.2137367,0.02578294,-0.035480227,-0.012326535,0.08525762],[0.20367958,1.4161557E-5,0.022838837,-0.16035073,-0.066846974,-0.025763767,-0.0066135433,0.18108338,0.20254806,-0.11574132],[-0.010083712,0.10734416,0.009233955,0.07907386,0.008804253,0.006868228,-0.025403114,0.014572482,-0.036839206,-0.08658046],[-0.050574914,0.053105086,-0.089205764,-0.034035154,-0.014139199,0.0038644425,-0.16490732,0.038017027,-0.018626597,-0.014610179],[-0.12426072,0.010956662,-0.056576956,-0.037778907,0.11015552,0.09807827,0.058420625,-0.035341416,0.025939293,0.09524112],[-0.16106287,-0.030953739,-0.08084655,-0.07220507,0.04656455,-0.09927416,0.0069710384,0.11317354,-0.047258,0.0049596657],[-0.08389946,0.11286863,-0.07139635,-0.04399312,0.1317252,-0.017067466,0.08464662,-0.1000938,-0.1282276,-0.034284055],[-0.17216402,-0.065165244,0.027824642,-0.21762419,0.27529904,0.06722044,-0.010408431,-0.045513432,0.15639463,0.006033516]]},{"biases":[0.0016985147],"values":[0.0],"inputWeights":[[-0.066402495,-0.08352306,0.061785698,0.0202849,-0.065023296,0.061815873,-0.08019837,0.057530418,-0.02131022,0.081890434],[-0.050856646,-0.17079219,0.12063821,-0.0026859716,-0.08442935,-0.24046774,0.14843705,-0.027606674,0.05280157,0.17223722],[0.031296473,-0.0852926,-0.055768244,0.0036962603,0.055894468,-0.13110182,-0.020018408,0.019406844,-0.1381859,0.039782185],[-0.029667968,-0.036094766,0.14052682,-0.20313755,-0.067454495,-0.042610995,-0.0075327046,-0.15397833,0.064452626,0.04100755],[-0.04795542,-0.060892522,-0.070763476,0.16172896,-0.10888154,0.13391131,-0.082669154,0.100049675,-0.043750275,-0.072152466],[-0.122552425,0.24649478,0.1434479,0.101588614,0.02566644,0.07582332,-0.018187763,0.026712157,-0.2093215,0.0676096],[0.005617885,-0.33672354,-0.06365681,-0.04972413,0.18340252,-0.05540407,-0.12232472,-0.109616466,0.15432936,-0.17834353],[0.098618574,0.12453125,0.23661889,-0.16922393,-0.09756235,0.027144652,-0.022874292,-0.026890865,0.011588282,-0.25426698],[0.06824008,-0.09723773,-0.035083257,0.08492567,0.012930634,-0.026887057,0.03476652,-0.016143302,0.052899197,-0.021694064],[0.09599236,-0.0015353268,-0.014122334,0.05626068,0.05871877,-0.043834735,0.070031375,-0.02200964,-0.07663566,-0.08849558]]}]}},{"fitness":0,"neuralnetwork":{"inputLayer":{"biases":[0.0,0.0,0.0,0.0,0.0,0.0,0.0,0.0,0.0,0.0,0.0,0.0,0.0,0.0,0.0,0.0,0.0,0.0,0.0,0.0],"values":[0.0,0.0,0.0,0.0,0.0,0.0,0.0,0.0,0.0,0.0,0.0,0.0,0.0,0.0,0.0,0.0,0.0,0.0,0.0,0.0]},"layers":[{"biases":[-0.16500723,0.07508399,-0.0331552,-0.1444931,0.020087529,0.021386772,0.09585337,0.1331474,0.13441682,0.20495592],"values":[0.0,0.0,0.0,0.0,0.0,0.0,0.0,0.0,0.0,0.0],"inputWeights":[[0.116917744,0.12047897,-0.06856701,0.0018795916,-0.073016316,-0.052590784,0.085303515,-0.16768864,0.11868298,-0.10717121,-0.05272358,0.001936682,0.25721928,0.07826764,-0.051239826,-0.09827773,0.24969989,-0.02129067,-0.13942882,-0.17728652],[0.13016154,-0.07072584,-0.09528769,0.101711884,-0.10489029,-8.3327445E-4,-0.03740832,0.08048266,-0.18137991,0.015303888,0.01873375,0.04918994,-0.14759143,0.048815615,0.060098186,0.101342455,-0.088080786,0.227416,0.027683718,-0.025631191],[0.015552187,-1.02516446E-4,0.01570847,-0.18008506,-0.15266572,-0.0223234,0.047644082,-0.053926982,0.21718928,0.13521156,0.05297142,-0.07512895,0.07328656,0.011424657,-0.07477209,-0.030427003,0.03432415,-0.122176595,0.091179095,0.08082818],[-0.05566853,-0.16988683,6.69698E-4,0.017437281,-0.008752475,0.0073253396,0.21100119,0.16512525,-0.018770168,0.026336273,-0.09369241,0.069600634,-0.0010078528,0.02295546,0.08033349,0.08890848,0.03620751,0.033155102,-0.08065978,0.015252085],[0.087426126,-0.11213391,-0.012918407,0.04791408,0.100525826,-0.09808042,0.16490367,-0.10890443,0.18966314,-0.02642667,0.04634413,0.056529585,-0.13818869,0.109453335,-0.025453428,-0.0011877205,-0.07324251,-0.023507353,-0.1029409,0.10234336],[0.0202656,-0.18520755,-0.012023062,0.1921042,-0.1280206,-0.044777736,0.13466161,0.14170264,-0.08128355,0.08868288,0.05760934,-0.048310492,0.16127898,-0.1709227,-0.06679009,0.008298863,0.06452135,0.07132781,0.058696944,-0.055828184],[0.06470344,-0.029300058,-0.038351152,-0.13242954,0.022659859,-0.0014859644,-0.09781103,-0.043839347,-0.06574878,0.025181353,-0.02425297,-0.21790773,-0.08381114,-0.039565645,0.055584457,-0.06129138,-0.11926247,-0.083146274,-0.0094530415,0.042000145],[0.034385175,0.03340906,0.13003519,-0.061167657,0.036489747,-0.08733888,-0.054823488,-0.0048313728,0.13949378,0.061266415,-0.048788268,-0.019971976,0.20319866,-0.065219685,0.015126493,-0.049937285,-0.05223258,0.11401151,0.1245039,0.013331472],[-0.17579776,-0.007068463,-0.0828915,0.026159571,-0.10893888,0.008734671,-0.13835685,0.08928723,-0.008292402,-0.06998925,-0.05962841,0.015538251,-0.19488761,0.027080424,-0.011835294,-0.10781541,0.021844305,0.15091392,0.05446549,-0.2800733],[-0.014663727,0.016697118,0.11089995,0.022396987,-0.03311801,-0.09328681,-0.0070001413,0.15078062,0.17349096,-0.23892514,-0.10682268,0.18926615,0.06802569,-0.1754215,0.029231377,-0.047726277,0.086555175,0.046724424,-0.06782132,-0.009813942],[-0.006403457,-0.05651952,-0.027616743,-0.11401041,-0.004525647,0.058240637,0.041874327,-0.05200487,0.12569655,-0.17947756,0.023939818,0.058677223,-0.02362621,0.16863878,-0.0023892976,0.112610795,-0.013706339,0.07115059,0.23379576,-0.087676],[0.1100247,0.12483432,0.01104648,0.20217834,-0.10628282,0.1147803,0.16524772,-0.04196915,-0.1204565,-0.05696039,-0.01623004,-0.040747028,0.040509816,0.018875899,0.060391497,-0.087423004,0.0371609,0.024446677,-0.034607448,-0.107715234],[-0.25058913,0.114629164,0.028568093,-0.03882681,0.008331294,-0.047864757,0.19381322,-0.14091885,-0.035705417,0.05584012,-0.23644835,0.23001406,-0.14371341,-0.13968801,0.040029265,0.020318978,-0.037598886,0.12068229,-0.034779564,0.13125652],[0.006792198,-0.22749437,-0.07969644,0.10425973,-0.16161183,0.09081687,0.0029332326,0.051279314,-0.045246243,-0.07626286,0.06320267,-0.032620434,-0.062585734,0.12738302,0.112199634,-0.19896078,-0.21860702,-0.043236583,0.14487702,-0.007692887],[-0.006228623,-0.03242779,0.06623237,0.08177775,0.1454609,-0.08703768,-0.014709286,-0.074214675,0.014002119,-0.17361327,-0.08907135,-0.04613741,-0.016278768,0.020341866,-0.15319625,-0.0048628296,-0.010593859,0.028397972,0.03857164,-0.09342964],[0.09942915,1.7197011E-5,0.021292917,0.07720762,0.04121768,-0.030377999,-0.16676055,0.07001548,-0.1947135,-0.028782131,0.110021725,0.06404222,-0.11281191,-0.08422922,-0.079811536,-0.19434975,-0.04257477,-0.0074634496,-0.103302546,-0.24559547],[-0.024187233,0.038849246,0.008999408,-0.002947121,0.0613593,-0.04327033,-0.11270295,0.15576607,-0.17591268,-0.04300773,-0.086520836,-0.07572074,0.121349804,-0.052611582,0.18696202,0.17989533,0.0295959,-0.0026681274,-0.111761555,0.023831192],[0.043985374,-0.23422952,0.019914772,-0.1005705,0.014045393,0.18956514,0.13300893,-0.012274738,0.113655575,-0.14753737,0.1942587,-0.056655653,-0.14883351,0.023083301,-0.032649115,0.07481534,-0.10155845,0.10709838,-0.0073495936,-0.09071096],[0.0066731093,0.044169143,0.009658988,0.038034182,0.076213665,0.056338128,0.1253654,-0.046294007,-0.010382904,-0.13369814,-0.030149866,0.07207138,-0.11550233,-0.10305899,0.06880664,0.015830116,-0.02548046,0.20132825,0.07042299,-0.015216482],[0.07223816,-0.00547896,-0.16053404,-0.038616993,-0.05187179,-0.059366208,-0.053125728,0.08263868,0.19412601,0.12180142,0.12718977,0.03493581,0.11235406,0.10024816,-0.08230178,0.05664441,-0.036035623,0.30185255,-0.17224416,-0.07370148]]},{"biases":[-0.03420402,0.09020289,0.012086844,0.05588612,0.010273892,0.00640927,0.0019897926,-0.026763767,-0.028109087,0.25252444],"values":[0.0,0.0,0.0,0.0,0.0,0.0,0.0,0.0,0.0,0.0],"inputWeights":[[0.038520534,0.06461689,0.07864139,0.09956431,0.1652871,0.02466526,0.039393447,0.0731571,-0.06963374,-0.043301284],[-0.13019319,0.05624593,-0.12789086,-0.14386153,-0.15868913,0.0032950062,-0.057728883,0.07043546,0.039108094,-0.017999193],[0.025952313,-0.05705152,0.040065914,0.13252099,-0.13895787,-0.005168527,0.04023791,-0.018446883,0.028532606,-0.11943564],[-0.0708108,-0.070175804,0.0628679,0.07391374,-0.06941484,-0.07752844,0.09172172,-0.23954938,0.095233425,-0.24471717],[0.047097363,-0.08694655,-0.18679793,0.002077095,-0.17543516,0.048322905,-0.028296921,-0.017812852,-0.106926896,0.030208997],[0.092813805,4.8636468E-4,0.119293615,0.009167144,0.08542939,0.054695178,0.2745838,-0.06340833,-0.027814623,0.14512928],[-0.32246622,0.0051200767,0.05897157,0.03448961,0.049164515,0.08618278,-0.081417315,0.12803921,0.004803452,0.19996642],[-0.032088187,-0.003857122,0.016798947,-0.07113281,0.0145963505,-0.11208456,-0.069168694,-0.14330761,-0.26845086,0.09886658],[0.017736586,0.022786077,0.049251746,0.03979687,0.18020618,0.2025253,0.088364504,-0.059632465,0.08937517,0.0140783535],[0.066449255,-0.20225838,-0.23965248,-0.07015674,0.060892176,-0.037521392,0.09130204,0.1056036,-0.17048328,0.09015088]]},{"biases":[-0.002865434],"values":[0.0],"inputWeights":[[-0.054561518,0.011528764,0.019939365,0.01997071,-0.010166974,-0.17070033,-0.07984447,0.05244468,0.007185505,-0.15175618],[0.13182126,0.017864658,-0.05675994,-0.10390142,-0.07342017,-0.013292614,0.002286843,-0.022652129,-0.028326878,-0.03211121],[0.10558203,0.08203862,-0.0064306636,-0.13596274,-0.012924014,-0.024985557,0.10381005,-1.4416192E-4,-0.045829713,-0.005460037],[-0.07610076,0.10600668,0.0669546,0.11645784,0.15939733,-0.014323406,0.10098065,-0.06657095,0.071566395,0.22556576],[0.033264842,-0.023550346,-0.12417066,0.12781058,-0.019736238,-0.15085156,-0.02592153,0.0254994,0.086049,0.117306374],[-0.16341722,0.1113882,0.0051967637,0.09613471,-0.07345225,-0.028563056,0.109942384,-0.027375031,-0.09986741,0.12857312],[0.095099986,0.1352657,-0.05384863,0.036963813,-0.021309571,-0.10647829,0.015415354,0.108990915,-0.024869893,0.1251728],[-0.10976327,0.1297512,0.021734228,-0.011922497,-0.029290965,0.034942534,0.030601095,-0.06957824,-0.01631078,0.15598361],[-0.111129254,0.015515638,-0.016520502,0.12062678,0.1257247,0.06894609,0.027029702,-0.06725125,-5.7823583E-4,0.15633713],[0.041727785,-0.11285021,0.04643824,0.04030708,-0.14521703,0.09780655,0.03634645,-0.09239276,0.02576084,-0.054942604]]}]}},{"fitness":0,"neuralnetwork":{"inputLayer":{"biases":[0.0,0.0,0.0,0.0,0.0,0.0,0.0,0.0,0.0,0.0,0.0,0.0,0.0,0.0,0.0,0.0,0.0,0.0,0.0,0.0],"values":[0.0,0.0,0.0,0.0,0.0,0.0,0.0,0.0,0.0,0.0,0.0,0.0,0.0,0.0,0.0,0.0,0.0,0.0,0.0,0.0]},"layers":[{"biases":[0.024125336,-0.17280751,0.16787468,-0.07593288,-0.036469705,0.10600288,0.071948044,-0.049698304,-0.06768149,0.06604349],"values":[0.0,0.0,0.0,0.0,0.0,0.0,0.0,0.0,0.0,0.0],"inputWeights":[[0.106179595,-0.04052853,0.0655176,0.023262002,0.04486092,0.078099094,-0.10882123,0.023424696,-0.03788702,0.19298978,0.023226762,-0.13889158,-0.06401721,0.04253986,0.108423695,0.04417263,0.12351639,0.067388564,0.05762518,-0.049004342],[0.20818657,-0.06957144,0.04020359,-0.15777971,0.07200724,0.20980169,-0.05069265,0.024741497,-0.05000087,-0.0059472495,0.015165428,-0.13429162,0.09194975,-0.005470757,-0.22702628,-0.034694053,-0.019414801,0.017527565,0.03159461,0.049488667],[0.039092164,-0.08663738,0.060530964,-0.026928836,-0.007186566,-0.05242679,-0.04584275,-0.10583058,0.08119017,0.11878355,-0.024955431,-0.030034004,0.058554064,-0.061965074,0.21821582,-0.15937391,-0.24857067,-0.17512168,-0.027655,0.17000163],[0.1868343,0.030680817,0.099357106,0.061961297,0.13584597,-0.038084548,0.12529463,0.08156179,0.11333183,0.044164244,-0.10336075,0.0028743611,-0.01524168,-0.0018610473,0.15448241,0.020936608,-0.08934888,-0.04989904,-0.012254357,-0.008432928],[0.025896473,-0.11457793,-0.06700651,0.015486944,0.065992564,-0.056155432,0.018111642,0.14900433,-0.019852107,0.10131833,-0.048476897,-0.19189364,0.056080285,-0.13025737,-0.17197509,-0.22604263,-0.032622263,-0.0050930614,0.041337352,0.10358468],[-0.18349235,0.06832303,-0.03788027,-0.084665395,-0.03932163,0.09242297,-0.13601272,0.20500721,0.007938345,0.13428144,0.092982225,-0.15360518,0.1968029,0.015867451,0.16993348,-0.09795915,-0.118671715,0.07674611,-0.121226326,-0.08374787],[-0.06772438,0.109591424,0.07988388,0.10496481,0.012814926,0.023606567,-0.08952789,-0.08843336,0.16915934,0.056002315,0.10774085,-0.1862721,0.114065245,0.12903781,-0.07490692,-0.07757693,0.06360461,-0.0717895,0.002936656,-0.014323083],[-0.0021596153,0.07966135,0.1781458,-0.035259597,-0.14637147,-0.18193991,-0.015096208,0.11510334,0.058532674,-0.085581,-0.05305394,-0.07026468,0.04515087,0.1156746,0.01573929,0.023890214,0.07609956,-0.046742372,0.33231926,-0.008967643],[0.059419077,-0.03152226,0.06292381,-0.16995116,-0.105301656,-0.024509178,0.23815663,0.15698297,0.00878772,0.18627703,-0.09159028,0.00861178,0.014603799,-0.0012420762,0.028628318,0.09732923,-0.09653957,0.12649535,-0.05312372,0.024718821],[0.13275582,0.05459436,0.10832732,-0.060016904,0.04234617,-0.015374884,-0.19264077,-0.070477985,0.13553558,0.15051429,0.06587721,-0.09531286,-0.095452875,-0.1018783,-0.0075069633,-0.034182824,0.07972607,0.07417186,0.04005849,0.066797376],[-0.025935946,0.17786828,0.20350404,-0.04742513,-0.1608116,0.09230212,0.24420172,-0.18758303,-0.20297813,-0.003280526,-0.00861572,-0.14396444,-0.2587508,-0.1106415,0.034136277,0.061994985,-0.21622261,-0.037750795,-0.08565356,0.07188206],[-0.040403564,0.017052753,0.12266135,0.11806761,-0.08023295,0.01696064,-0.019618183,0.22395647,-0.12972239,-0.06470937,-0.0706164,0.04699112,-0.19131994,-0.04566095,0.16565414,-0.17547993,0.0046324767,0.024766354,0.19574255,0.010707526],[0.01738129,0.08373281,-0.038972847,-0.113214634,-0.046091475,0.08388705,0.029174117,0.0044403854,0.04859949,0.07777382,0.17235172,0.10628527,-0.05438372,-0.07152942,0.050901797,-0.046627227,-0.02581065,-0.13369446,0.046149444,-4.6199892E-4],[0.090470634,-0.116946146,0.1566225,-0.009934709,-0.10808427,-0.049333613,-0.12192496,-0.07390155,-0.0826103,-0.09291156,0.0141324755,-0.16990995,-0.10436585,3.8092132E-4,0.04758721,-0.070077956,0.05854398,0.07280366,-0.0808103,0.013505941],[-0.0813702,0.1605878,-0.011951874,0.09035154,-0.039005425,-0.10629749,0.030321402,0.16033287,-0.08828087,-0.093669094,-0.0015162133,-0.17636216,-0.1460877,-0.032653116,-0.12330881,0.15544361,-0.17174111,0.067616686,0.23495257,-0.07027764],[-0.0025738175,0.029809793,0.061908614,-0.19919312,0.019181848,-0.026839314,-0.014674687,0.061744846,0.110160224,-0.042395495,-0.19703895,0.26817045,0.022103105,0.11847592,-0.009069018,0.025482936,0.052824635,-0.075141735,-0.021934407,0.37624434],[0.16115436,-0.02956566,0.0404183,-0.05467177,-0.0651942,-0.11067805,0.053269453,-0.16263157,-0.09675322,-0.13626103,-0.01811883,-0.042933974,-0.037166327,0.01417215,0.013214495,0.015733019,-0.09994537,-0.053018227,-0.08467768,0.07719526],[-0.049217593,-0.028707521,-0.1879564,0.16300657,-0.12999064,-0.013408598,0.07567455,0.059498858,-0.06530791,0.10555208,0.1060142,0.08210398,0.085172966,0.06500268,-0.016805997,0.017452408,-0.014381344,0.1434602,-0.043822974,-0.021732768],[0.069336414,-0.019772273,-0.017338594,0.02766088,0.029760107,-0.017047536,0.059391275,0.06317327,-0.23005314,-0.02424536,-0.009737632,-0.039313193,-0.09755876,0.07014892,0.042327594,-0.015329182,-0.013943326,-0.103572555,-0.09891221,0.19474769],[-0.062154256,0.020176966,0.014396249,-0.08414595,-0.05987331,-0.10967822,-0.015298467,0.013316702,-0.03405462,0.09148246,0.113372006,0.024456944,-0.08153348,0.10294755,0.09569718,0.20821798,0.088469945,-0.12463207,0.0070894333,-0.044575553]]},{"biases":[-0.052557953,0.13768443,-0.012439715,-0.06861581,0.041397523,-0.044480454,-0.027918966,0.063836336,-0.060287718,-0.095335625],"values":[0.0,0.0,0.0,0.0,0.0,0.0,0.0,0.0,0.0,0.0],"inputWeights":[[0.028440135,-0.06773183,-0.20001498,0.022106253,-0.059870884,0.09972808,-0.07753567,-0.11796235,-0.14538462,-0.05705625],[0.10540879,-0.20555566,-0.042927634,0.0170479,-0.058350354,0.028288424,-0.075801335,0.031300135,0.024491733,-0.039144915],[0.07109374,-0.08769146,0.027042033,-0.11022668,0.18574727,-0.034211267,-0.006411078,0.036647137,0.011122868,-0.06674223],[0.06419706,-0.059133083,0.16835253,-0.0822434,-0.16196348,0.028604334,-0.019315412,0.104774445,0.04699604,0.09714083],[0.20056678,0.05227418,-0.11399945,0.03399328,0.005586319,0.10531097,-0.08532366,0.016582094,-0.076362394,-0.14182495],[0.031058244,-0.16852677,0.08443718,0.10533587,-0.07382512,0.051727507,0.027476149,0.066514894,-0.005832462,-0.13833646],[-0.08612143,0.12493164,-0.17046826,-0.1253697,0.024628002,0.08224108,0.0036833056,0.094070695,0.12110622,-0.10440962],[0.072813064,-0.117022224,0.16528825,-0.030054446,-0.052335456,-0.008648466,0.008925511,0.014942013,-0.11078435,0.060183104],[0.15964855,0.08796173,-0.07942768,-0.12833509,-0.05131569,-0.03602679,-0.12477596,-0.1643101,-0.054508068,0.08330158],[-0.205445,0.08208293,0.0029564304,-0.21047425,-0.05335106,0.0489424,-0.19803455,0.057603132,-0.050537225,0.05347547]]},{"biases":[0.05208304],"values":[0.0],"inputWeights":[[0.10210445,0.019429205,0.15764758,0.15218492,-0.09174462,0.12500398,-0.12167514,0.19606978,0.022117592,0.21701725],[-0.008248313,0.0061974563,-0.071859136,0.0018837956,0.08415154,0.17865692,-0.18483193,0.06753979,-0.020359654,-0.005537375],[-0.015651913,-0.023169229,-0.06199704,-0.18033914,0.042815212,0.223411,0.04973627,0.112717964,-0.01465028,-0.031006875],[-0.03939357,0.17804645,0.004623484,0.104522586,-0.01709701,-0.06865007,0.0121807195,-0.11712551,-0.15108843,-0.033640176],[-0.112274565,0.083054766,0.059863403,0.14470692,-0.061349634,0.29487506,-0.027257938,0.16327642,-0.045200415,0.034134544],[0.06861507,-0.18596756,0.060484752,-7.381903E-4,-0.039785065,0.042746916,0.055277474,-0.007846482,0.022947745,-0.10123958],[-0.15553942,-0.19018623,-0.101024166,-0.1616921,0.10824505,0.054614536,0.09613515,0.02979635,-0.0096855415,-0.061608713],[-0.09245969,-0.13808942,-0.100595675,-0.055189118,-0.16378853,-0.10839188,0.10387228,-0.2512334,0.14828537,0.13806006],[-0.061009686,-0.07658679,-0.25403675,0.19492863,-0.035252355,-0.09896958,0.08371268,0.041577097,-0.032757193,-0.012131073],[-0.0018631937,-0.096822694,-0.058895707,0.09028154,-0.039109193,0.1060617,0.023147734,-0.23751557,-0.20379142,-0.015638487]]}]}},{"fitness":0,"neuralnetwork":{"inputLayer":{"biases":[0.0,0.0,0.0,0.0,0.0,0.0,0.0,0.0,0.0,0.0,0.0,0.0,0.0,0.0,0.0,0.0,0.0,0.0,0.0,0.0],"values":[0.0,0.0,0.0,0.0,0.0,0.0,0.0,0.0,0.0,0.0,0.0,0.0,0.0,0.0,0.0,0.0,0.0,0.0,0.0,0.0]},"layers":[{"biases":[-0.12033576,0.15896818,-0.03813533,-0.014768677,-0.078059316,0.18582962,0.09141129,0.11763398,0.0019054408,-0.14866076],"values":[0.0,0.0,0.0,0.0,0.0,0.0,0.0,0.0,0.0,0.0],"inputWeights":[[0.046716902,0.05789589,0.05552744,0.04535151,0.10254127,0.03519141,0.14005245,0.06472369,0.06428508,-0.09290366,0.036778763,0.09854077,-0.0035501127,-0.17122316,-0.033795558,0.05088379,0.0049298787,0.1327931,-0.13433744,-0.023108125],[0.05430593,-0.04899238,-0.014464363,-0.16507603,0.05910972,-0.14966497,-0.059200816,-0.06278529,0.04091536,0.013936384,-0.028738152,0.106408186,0.051271137,-0.01690341,0.08920657,0.06514181,-0.075857125,0.017002756,-0.12841871,0.14677161],[-0.13453016,0.0021260942,0.0023314238,-0.087974034,-0.10375381,-0.1300197,0.23399761,0.014648548,0.20019826,0.012574213,0.044325314,-0.020665003,0.0852348,-0.124851994,-0.20881136,0.19654799,-0.1491141,0.09999832,-0.12402572,0.1630463],[0.079348974,0.12357931,0.10000841,-0.024263196,-0.05993778,0.044688545,-0.05467619,0.013310294,0.010715092,0.25393334,0.040845707,0.09303775,-0.13304986,-0.044544764,-0.0058064116,-0.00546964,0.1135575,-0.07720596,0.09913579,0.070545085],[0.17733262,-0.098842695,-0.07975863,0.07443199,0.06586676,-0.10634597,0.07166808,-0.15599841,0.015515637,0.14861967,-0.008198334,0.06666493,-0.13155945,-0.030671764,0.18997107,-0.01053647,0.027961908,0.055855583,-0.031277746,0.0349281],[-0.0655691,8.7897686E-5,-0.048463475,-0.08845828,0.20549068,-0.02087349,0.026888166,-0.066644646,0.10485107,0.09462075,-0.0388625,0.1157055,0.008572351,-0.10679987,0.12887491,-0.05807127,-0.13396242,-0.0022096469,0.057559874,-0.03285181],[-0.13776134,0.22713788,0.0010919347,0.22897096,0.14425017,0.121167555,-0.012873787,0.12640387,0.13512914,0.007914973,-0.11405299,-0.13883685,0.2258784,0.048806448,0.031655274,-0.14659849,-0.011400659,-0.06363845,0.25618201,0.006470098],[-0.1491577,0.03585155,-0.08643606,-0.010136322,-0.057092056,0.014677315,0.13444649,-0.12058578,-0.14304593,-0.1577546,-0.07230429,0.14751393,-0.060783915,0.10010313,-0.13027044,0.07195849,0.022264577,-0.0036746692,0.08429336,-0.05993794],[-0.007935528,-0.2576176,0.029336153,-0.09774837,0.1280334,-0.015641252,0.18331218,-0.042484727,-0.021367753,-0.07493993,-0.11515972,0.09692116,-0.06099111,-0.05826384,0.07601429,0.03986832,0.063559406,0.17344147,-0.030328892,-0.06264952],[-0.23250952,0.088372275,0.10857267,-0.019058237,-0.18242699,-0.04426526,-0.024386877,0.12785609,-0.015519392,0.049446154,-0.11103391,0.19933236,-0.0351689,0.037162233,0.13294497,0.119784065,-0.07642052,0.108875014,-0.021329943,-0.03335347],[-0.026296502,0.0033691966,-0.11854546,-0.14121002,0.005557648,-0.046024673,-0.04504203,-0.020026024,0.088517286,0.05945432,-0.0023805674,0.16757165,-0.12406065,0.035534773,-0.0018926973,0.06738681,-0.065854274,0.12103786,-0.014001175,0.14173424],[-0.048287947,0.07209822,0.16327146,-0.1207579,-0.009031354,0.062408518,-0.116941705,-0.02342017,0.11964462,0.0046331347,0.1261268,-0.033789698,-0.18849026,0.20709997,-0.040359832,-0.04652182,-0.18937138,-0.06309084,0.033083163,0.061563816],[-0.11101892,0.10046702,-0.008576627,-0.070635766,0.15335353,0.12168214,-0.030381313,0.112989776,0.17200744,-0.07051011,-0.010171021,0.21492769,0.043563828,0.1004524,0.09908023,-0.021985274,-0.003868118,0.0981831,-0.11686281,-0.06345512],[0.0059704636,-0.30354738,-0.0604487,-0.06075025,0.0070595816,0.080745384,-0.03864894,0.06328897,0.11736322,0.062293675,0.20648286,0.11960562,0.014213275,0.12963197,-0.02386411,0.16360322,0.0012499117,0.12681575,0.11082686,0.07383563],[-0.0059942305,-0.15289898,0.03634982,0.008583747,0.07168735,0.016613092,-0.11205025,0.07083331,-0.05526882,-0.05529756,-0.12235959,-0.12632622,0.057582617,-0.1344202,0.04374774,0.026579633,-0.021447675,-0.04823164,-8.987092E-4,0.052505083],[0.11076639,-0.056612432,0.04411648,0.01608524,0.016485857,0.048064906,0.20035316,-0.003503727,-0.022736702,0.14569631,-0.2145718,0.028208768,-0.07643979,0.009466563,-0.04193755,-0.019767087,-0.012124311,-0.049424328,0.074415475,0.028140042],[0.10641621,-0.038479887,0.060579978,-0.12704493,0.07628008,-0.14961861,0.11144926,0.06378252,2.655353E-4,0.11209728,-0.09375751,0.07385845,-0.008189824,-0.0036566434,-0.2655089,-0.099313796,-0.02691912,9.008366E-4,-0.056959566,0.06527114],[-0.058310207,-0.13439025,-0.18751773,0.13284877,-0.08411889,0.047824424,0.2243661,0.12277589,-0.05523913,-0.166339,-0.059136257,-0.040975682,0.100606136,0.2116825,-0.1480037,-0.0039673317,0.14971925,-0.07242931,0.003771744,0.05303178],[-0.16194159,0.007884292,-0.08539783,0.10629908,0.10828928,0.044877727,0.013059806,0.056368586,-0.0690702,-0.016282333,-0.010398559,0.017162945,-0.11442279,-0.0051562567,0.068053015,-0.028671714,-0.026513435,0.09486308,-0.035590656,0.02692184],[0.015257607,-0.020203056,-0.04063861,0.044849243,0.06409108,-0.12973359,-0.19195287,-0.103105746,-0.048699442,-0.06902098,-0.0050258664,0.054447535,0.005644819,-0.10320141,-0.070150614,-0.2112716,0.0015265923,-0.04861658,0.009437433,-0.035653368]]},{"biases":[0.038237885,-0.24516161,-0.023855532,-0.107611366,-0.038393356,-2.1147355E-4,-0.0366948,0.23864521,0.12580979,0.1044607],"values":[0.0,0.0,0.0,0.0,0.0,0.0,0.0,0.0,0.0,0.0],"inputWeights":[[0.13435596,0.040047795,0.009550168,-0.098635934,0.092473745,-0.116918676,0.022754136,-0.18560871,-3.590609E-4,0.040061746],[0.017335886,0.044558566,-0.028931212,-0.18425031,-0.07328749,0.12174687,-0.18920544,0.11167435,0.0072470694,0.01878193],[0.0026581814,0.09932145,-0.0020043633,-0.16990131,0.010644772,0.15282519,-0.009747302,-0.013047863,0.05641919,-0.08494463],[-0.028188523,-0.066662796,-0.026886981,-0.38697043,0.069424756,-0.07001823,0.21263458,-0.12066955,-0.09303534,-0.18601876],[-0.07931085,-0.16029975,-0.22415324,-0.1133558,-0.024296803,0.11086705,-0.0067083947,0.22860101,0.10549882,-0.025188869],[-0.18792763,-0.033507336,-0.09655449,-0.23142035,0.055809386,-0.08526198,-0.18745783,-0.057600126,-0.11425867,-0.05925592],[-0.055712182,0.069212876,-0.033970628,0.12830283,-0.21091615,0.018549291,0.12258406,-0.097402744,-0.12622762,0.16651894],[-0.036192097,0.03970999,0.0063957516,-0.219285,0.0058500133,-0.04736924,-0.07554452,0.09065835,0.035945535,-0.058993984],[-0.010389583,-7.365612E-4,-0.1309334,0.10378578,0.035370428,0.19521989,-0.07922999,-0.039452557,0.051242765,0.10488724],[-0.28683597,0.087945096,-0.0062634572,-0.06530713,-0.008684703,0.008730096,0.032548442,-0.0968201,0.0073640607,0.03413426]]},{"biases":[-0.10209237],"values":[0.0],"inputWeights":[[-0.03605636,-0.05366332,0.016344769,0.12044907,0.0162353,0.082734615,-0.0082552675,0.15664895,0.05388784,0.14740819],[-0.079018585,-0.06907613,0.11652047,-0.032704357,0.22345237,0.010413148,0.02656179,-0.13144055,0.009497283,0.062297873],[0.0464222,-1.0672979E-5,0.047928818,0.11955338,-0.026237622,0.034361698,0.0068654534,0.185965,0.099388234,-0.029341422],[1.9255458E-4,-0.19135599,0.14179736,-0.10093696,-0.03339103,0.07798611,-0.109161384,0.075759664,-0.14165413,0.07751957],[-0.1174457,-0.10274188,0.07851963,-0.013947073,-0.024828607,0.07351419,-0.020333728,-0.07888959,0.061901156,-0.09943796],[0.019308776,0.10138313,0.17044665,0.17320639,0.10867071,0.086946234,-0.02656851,0.093276285,0.028245633,-0.14898929],[0.12729253,-0.08302124,-0.17581998,-0.037142828,-0.0054402854,-0.0035066004,0.002463598,-0.061918758,-0.034963764,-0.030115321],[-0.097203545,0.007958212,-0.05861811,-0.014559224,-0.12146459,-0.09450993,-0.05003967,-0.019302398,0.18158445,-0.018557565],[0.0011721845,-0.110236,0.01338323,-0.13488017,0.010495788,0.09883074,0.12644209,0.013222854,-0.1082166,0.122370645],[-0.098044634,0.16197151,-0.17479756,-0.23901016,0.07730364,-0.13708717,0.038673252,0.016112063,-0.0031097308,-0.045449086]]}]}},{"fitness":0,"neuralnetwork":{"inputLayer":{"biases":[0.0,0.0,0.0,0.0,0.0,0.0,0.0,0.0,0.0,0.0,0.0,0.0,0.0,0.0,0.0,0.0,0.0,0.0,0.0,0.0],"values":[0.0,0.0,0.0,0.0,0.0,0.0,0.0,0.0,0.0,0.0,0.0,0.0,0.0,0.0,0.0,0.0,0.0,0.0,0.0,0.0]},"layers":[{"biases":[-0.16605794,0.16155265,-0.08038538,-0.048085954,0.13012826,0.033219896,-0.13097604,0.20443997,-0.028522585,0.14068443],"values":[0.0,0.0,0.0,0.0,0.0,0.0,0.0,0.0,0.0,0.0],"inputWeights":[[0.07633618,0.14898124,-0.05755916,-0.008189314,-0.06861459,0.069688186,-0.11102976,-0.04329353,-0.08735219,-0.026753442,-0.041863143,0.07654284,-0.02715706,0.055110082,0.0060632285,0.050484214,-0.12431394,0.18353619,0.10403446,0.041247718],[-0.01060367,0.05716101,0.01020526,-0.088532746,-0.07019755,0.16389766,0.1505615,-0.047582373,0.18346909,-0.10112922,-0.015726581,-0.043278128,0.091881834,-0.0066736974,0.059145257,0.08751707,-0.14337586,-0.04866864,-0.16365412,0.13370553],[-0.14394039,0.13553962,0.0449926,0.0061694593,-0.015755882,0.018205572,0.072021864,-0.085911274,0.03115999,-0.06805121,0.15870193,-0.02683916,0.16109474,0.015085816,-0.06521899,-0.1208108,-0.16842218,-0.045807462,-0.07634489,0.14309335],[0.05115508,-0.18970187,-0.10020507,0.09256555,0.16383582,-0.10090182,0.00887386,0.028583609,-0.0042256736,-0.08714934,0.12964535,0.12394693,-0.13018902,-0.024471391,0.013103469,-0.06881225,0.017365884,-0.055154074,-0.064342014,0.066336274],[0.0036848523,-0.009825453,0.021343645,0.18149391,0.11303481,-0.010032773,-0.20285545,0.021175675,0.066118166,-0.040475294,0.062445644,-0.061204627,0.01956197,0.047655758,-0.022544533,-0.0132120475,-0.010649407,0.030772565,-0.11132292,-0.063587084],[0.039216135,-0.0074789566,0.11175936,7.914343E-4,0.061057318,0.22153728,-0.18762274,0.031221418,0.10967928,-0.034373477,0.06901521,-0.12771411,0.010336177,0.063606694,-0.12221451,-0.13721386,0.124191076,0.08393541,-0.13097408,0.074795224],[0.15825881,-0.09022845,-0.010552833,-0.07677324,0.1718739,0.021772562,-0.050400164,0.26889995,0.092428185,-0.04717594,0.034829665,-0.055093028,-8.908651E-4,0.08209325,-0.197633,-0.065539345,0.0022610317,0.029762369,0.085541144,0.14752972],[-0.086859845,0.1274589,0.019954106,-0.0055859652,0.039566875,0.030735744,0.07494837,0.16354832,0.036350824,-0.14805649,0.22582115,-0.018439047,0.045617692,-0.041027658,0.06011705,-0.061224792,0.0147084035,0.013707227,-0.008965936,0.12671468],[-0.1254938,0.10703451,0.011999318,0.03464353,0.0077427616,0.05573141,0.008407866,0.21618457,0.108593784,0.028342,-0.059782144,-0.042991336,0.02817974,-0.0052578812,-0.13750142,0.15086603,-0.034975205,0.10740347,-0.10132435,0.006782985],[0.1251577,0.10066494,-0.009215091,-0.12101706,0.032399174,0.06558743,-0.007609346,-0.06090599,-0.064963184,0.10067164,-0.16360912,-0.029384568,0.091772735,0.07864013,0.13753998,0.13274309,0.06349445,0.05109085,0.06194807,0.08394947],[0.0077095637,-0.08191086,0.0071122656,5.7788094E-4,2.3137922E-4,0.040671837,3.9168057E-4,-0.17655326,-0.27414382,0.048063662,-0.089234345,0.054511674,-0.096502796,-0.056076407,0.14981303,-0.010946238,-0.002240921,-0.14096804,0.11021676,-0.0130769005],[-0.07727617,0.09432128,-1.07743945E-4,0.13764131,-0.12704077,0.05244873,-0.14594382,0.19761366,0.13397853,0.11721821,0.14582662,-0.05648774,-0.01028476,-0.0015753373,-0.20048389,-0.058325183,0.15937081,-0.08419172,0.18060982,0.10628563],[-0.085316084,0.014276496,0.035447825,0.0029444017,-0.027042799,-0.0054885065,-0.0339416,-0.03389863,0.025227148,-0.08660229,0.12632987,0.123685025,-0.09132864,0.1843912,-0.135508,-0.045167647,0.08612602,0.14206828,-0.021487009,-0.013245131],[0.11849197,-0.08424744,-0.031220444,-0.17559788,-0.044805955,-0.0066903653,-0.027100587,0.11915555,-0.024781391,0.029843995,0.065941826,0.15165938,0.03886286,-0.11852615,0.020483397,0.03526275,0.021715697,0.11729666,-0.031077886,-0.0807984],[-0.09706254,-0.06523077,0.02814403,0.027300535,0.07281165,0.07952034,0.022070475,0.20064932,0.0012833513,0.11614977,0.09154201,0.045827307,-0.049621757,0.0012316535,-0.115307264,0.16080455,0.15984784,0.059841525,-0.10269084,-0.059221286],[-0.05316274,-0.06908521,0.070735104,0.056338534,-0.042686157,-0.026601946,-0.05336909,0.079044074,-0.1777594,0.066376954,-0.14748055,-0.025015239,-0.13487858,0.096479,-0.02370157,-0.22340101,-0.13739118,-0.06418263,0.022145078,9.644712E-4],[0.03304435,0.12974274,0.04345486,0.037689585,0.115099795,-0.06735676,0.12578316,-0.09147788,-0.11272862,-0.03123683,0.029953465,-0.04263221,-0.015441594,-0.040673755,0.18748282,0.015037304,-0.00667571,0.05774433,0.02870059,-0.035564635],[-0.19374041,0.05158458,0.05675406,0.023929065,0.1520634,-0.06779028,0.040583003,0.09964902,0.032464564,-0.13344753,-0.06342749,-0.12468061,-0.19682994,0.19427879,-0.10675022,0.173031,0.17572623,0.011675682,0.181892,0.10390703],[-0.09292458,-0.11330456,-0.03729474,0.05698043,0.15036671,-0.04826332,-0.09000236,-0.33743647,0.011056261,-0.10077363,-0.046843663,0.04372926,0.0015680348,0.005315977,0.10957238,0.11649134,0.076385036,-0.06318128,-0.008193871,-0.008165843],[0.056949697,-0.026998082,0.1063969,0.027915563,-0.23611765,0.04914566,-0.0040900353,0.03832744,-0.087442644,0.04559771,-0.0047918744,0.012679868,-0.10136139,0.123893,-0.06069835,-0.04564601,-0.15870418,0.12890798,-0.07387041,-0.11691737]]},{"biases":[0.08347562,0.1009154,0.022626268,0.04401504,-0.12518492,-0.088986866,0.001954176,0.0427803,-0.0022174632,-0.036205165],"values":[0.0,0.0,0.0,0.0,0.0,0.0,0.0,0.0,0.0,0.0],"inputWeights":[[0.009214612,-0.15906504,0.038679134,-0.058143716,-0.05004111,0.1755048,0.097752035,-0.01298426,0.1736585,0.06588771],[-0.095278494,0.07282723,-0.03751409,-0.03472913,0.044332482,-0.12265642,-0.13490589,0.22887354,-0.034896813,0.075441465],[-0.11534637,0.054603033,0.1120047,-0.020190101,-0.06523679,0.028738381,-0.0070909564,0.029136188,0.1128077,0.13276072],[-0.001600138,0.061156113,-0.13764405,-0.20908555,-0.016317746,0.08175645,-0.1429176,-0.107274756,-0.13445397,-0.14892472],[0.032860342,0.07294108,0.035516027,0.04888041,-0.23646368,0.051824022,-0.032779768,-0.07364934,0.05395533,0.102039784],[-0.13180241,0.037371222,0.10397356,0.018371632,-0.04583126,-0.004495044,0.09480245,0.016094655,0.04451002,-0.09909961],[-0.055233635,-0.07765453,0.11749893,0.121062025,0.20848976,0.0094605405,-0.22383738,-0.06047195,0.012813997,0.15539034],[0.12229367,-0.14194281,0.06475456,0.07249764,0.052601777,0.02391317,0.019390484,-0.015897535,0.01251185,-0.10902805],[-0.016127128,0.2524249,-0.0068119327,0.021321993,-0.07610359,0.046169356,0.03922967,-0.05104735,-0.0690617,-0.051569674],[-0.026780127,0.048471864,-0.023280496,-0.05922615,0.137094,-0.13417333,-0.04423078,0.19293416,0.1328271,0.15512753]]},{"biases":[0.0109422775],"values":[0.0],"inputWeights":[[0.09566278,0.08853719,0.011375555,0.18164553,0.13460334,0.096779704,-0.027364757,0.015616276,3.537552E-4,0.19348001],[-0.08475834,0.028468193,0.15041018,-0.022962831,-0.05801482,0.07721398,0.09714118,-0.0823609,-0.035037354,-0.080871716],[0.039492723,-0.061781123,0.008494468,-0.09713103,-0.019119138,0.13416184,0.16371563,-0.025741875,-0.022422342,0.14652736],[-0.034356315,0.0565257,-0.24621922,-0.020718008,-0.10477875,0.0073497505,0.02686967,0.112062246,-0.110537656,0.0852778],[0.04804145,0.10758239,0.0295102,0.12736163,-0.076777965,0.08974531,0.0016888435,0.26854855,-0.12725581,0.13519014],[-0.15992363,-0.08748517,-0.081553474,0.1927925,0.03646849,0.17464253,-0.063253656,0.0063297977,-0.19786605,0.0659057],[-0.032226562,0.020677932,-0.013112662,-0.047998957,0.061841834,0.05888529,-0.0037745005,0.01568827,-0.038330022,0.078611225],[0.042065404,-0.062842414,-0.15832837,-0.10553381,-0.025430102,-0.01754637,-0.06588256,0.040449806,0.004252924,0.003840218],[0.04690683,0.101842366,0.06265502,0.13886973,-0.1194623,0.0065573812,-0.09850423,-0.03760193,-0.028911404,0.016935825],[0.05093158,0.1414363,-0.02884198,-0.08957998,0.06747848,0.071541026,-0.082565665,0.02238063,0.025071165,-0.017063787]]}]}},{"fitness":0,"neuralnetwork":{"inputLayer":{"biases":[0.0,0.0,0.0,0.0,0.0,0.0,0.0,0.0,0.0,0.0,0.0,0.0,0.0,0.0,0.0,0.0,0.0,0.0,0.0,0.0],"values":[0.0,0.0,0.0,0.0,0.0,0.0,0.0,0.0,0.0,0.0,0.0,0.0,0.0,0.0,0.0,0.0,0.0,0.0,0.0,0.0]},"layers":[{"biases":[-0.18530957,0.07868521,0.021348985,0.023528518,-0.078180365,0.115120634,0.025128603,-0.058531556,-0.017814778,0.06158328],"values":[0.0,0.0,0.0,0.0,0.0,0.0,0.0,0.0,0.0,0.0],"inputWeights":[[0.0025731034,-0.050858438,0.13800126,-0.057495855,0.06320724,-0.09130082,0.20285508,-0.24678083,0.18343695,-0.03198181,-0.042996388,0.05699062,-0.0076097846,-0.009449141,0.05602272,0.048009977,-0.038070075,0.13169104,-0.0029180413,0.08112978],[-0.121314734,0.026825702,0.17378949,-0.023217298,0.008741252,0.02402081,-0.092040576,-0.05977113,0.060724497,-0.065568805,0.007035588,0.038363576,-0.003935467,0.0032181481,-0.024157448,-6.993548E-4,-0.17393604,-0.07582784,0.027392447,0.16278249],[0.072378606,0.044852447,0.16836232,0.16376458,-0.014088689,0.06948452,-0.12615404,0.05034248,0.054343954,-0.091636755,-0.20320155,0.05454256,0.15003327,-0.19869062,-0.061243337,-0.16574675,0.033512283,-0.076115064,0.09293809,0.03258943],[-0.0912108,-0.049190883,-0.20190658,-0.15867813,0.044781595,0.07356582,-0.0280068,0.07992218,0.052007508,-0.0031996903,-0.026538802,0.0073925788,-0.032931153,0.26046473,0.16010188,-0.03557642,-0.042306032,-0.10716617,-0.035186384,-0.07461789],[-0.092978776,0.060655195,0.067700215,0.087081306,-0.13730334,-0.056047134,-0.056808725,-0.0030889956,-0.0706319,0.024312507,0.14290364,-0.10604519,-0.07065108,0.047810607,0.09645958,-0.114420846,0.010126812,0.11387906,-0.12321774,-0.0511445],[0.031425167,4.0100196E-5,-0.07254648,0.03056119,0.07539739,-0.024667267,0.18686521,-0.0065612183,0.14644545,0.07907857,-0.02439478,0.06996096,-0.097802155,-0.010356804,0.1598902,-0.089478925,0.1227726,0.023917625,0.010200108,0.23256367],[0.098644316,0.015341006,0.08821743,-0.065862626,0.010044396,-0.13777179,-0.012177946,0.1593692,0.04682169,0.055582717,0.08008404,0.14925615,-0.02481062,0.0602655,-0.061429292,0.008933629,0.13434887,0.0933983,0.08478827,0.2516725],[0.09693838,0.036897115,0.07279825,0.03872975,0.14239576,-0.0026873308,0.13004921,0.04271796,0.057115376,0.055903085,0.05597427,-0.022059554,0.17023405,-0.14634809,-0.08045606,0.005425797,-0.107628234,-0.030801872,0.10513961,0.077001765],[-0.055560496,-0.05958759,0.24927033,0.03327453,0.08068597,-0.14730933,0.10820496,0.1024647,-0.0047589317,-0.07044425,0.11591489,-0.08065004,0.11883345,0.11677582,-0.028098658,-0.023612214,-0.0020274078,0.14869758,0.04839038,-0.033705767],[-0.024671843,-0.06314699,-0.1238318,-0.15611842,0.0032507621,0.011684947,0.08180997,0.012960451,0.03746883,-0.10583863,0.2059967,-0.08138642,-0.035489406,-0.18301019,0.07405861,-0.042024333,0.059310474,-0.057770524,-0.06338649,-0.14763469],[-0.059361763,0.030647881,0.06088683,0.033771235,-0.025562927,-0.02773883,-0.057966586,-0.012894607,0.0016114691,0.04031663,0.098136224,-0.09034264,-0.05120155,0.20818353,-0.054960858,0.1532761,-0.019882107,0.14820819,0.06088056,-0.1858306],[-0.024433322,0.124673806,-0.08361194,0.087781936,-0.07996204,0.059133653,0.15863605,0.025346143,0.07948507,0.07374799,-0.17623937,0.04626431,0.10235961,-0.031554252,-0.080647014,0.12590854,-0.0014286855,-0.14420427,-0.06699814,-0.01808466],[0.06970146,0.07253633,-0.111912645,0.01810546,0.053922083,-0.047758278,-0.05307879,0.07296789,-0.04964928,0.06253003,-0.0050451844,0.003140418,0.1259399,0.032881156,-0.16558003,-0.1030621,-0.031276237,0.0822701,-0.075183116,0.105126016],[0.04685421,0.16424435,0.28376713,0.09052866,-0.12990962,-0.021796184,0.08082466,-0.18555003,-0.20437868,-0.20676816,0.0053457436,0.026799653,0.022651495,0.02273215,0.075670935,0.029121952,-0.16386472,-0.13454185,0.12715648,0.08776149],[0.09407837,0.17735873,-0.014896344,0.056201585,-0.009519159,-0.08856294,0.19675359,-0.038907092,-0.12789634,0.16905305,0.005113484,0.006902566,0.051126678,0.046029046,-0.20688677,0.02731322,-0.14489244,-0.06901675,-0.06606122,0.079816975],[0.0601638,0.020930156,-0.056881893,-0.09624699,-0.06671792,-0.079702415,-0.10188477,-0.04578945,-0.045402143,-0.017613862,0.03319992,0.019459475,-0.032227233,0.14043127,-0.14956556,-0.021732258,0.10324139,-0.07569591,0.035789322,0.058509476],[-0.046341073,-0.11951899,-0.08704074,0.08562121,-0.20632178,-0.045741376,0.12549524,-0.08746809,0.037232965,-0.02605147,0.051890418,-0.053829003,-0.11025995,-0.1555987,-0.022359986,0.13817202,0.06924949,0.07095137,0.11601438,-0.29467654],[-0.017415315,-0.029966647,0.08067193,0.039410036,-0.071313135,-0.14648649,0.08813403,-0.062161,0.15683843,0.06743386,0.045350693,-0.20059429,0.17985255,0.10270855,0.019916948,0.009740738,0.12699895,-0.037958954,0.1661075,0.056546055],[-0.038591307,-0.14935727,-0.10616358,0.014934415,0.13741153,0.025618386,-0.028806254,-0.014452822,-0.008517619,0.051106967,0.084728785,0.03180377,-0.01872636,-0.043505467,-0.06130971,-0.0521928,-0.12974055,-0.13252565,0.16262706,0.05995504],[0.008199621,-0.080931425,0.09017266,0.15917988,-0.20415314,0.06241125,0.028276261,-0.14551581,0.15055786,-0.066988274,0.08022101,-0.0012980294,0.032368813,-0.08024352,0.016822936,0.029119592,-0.028596302,-0.013148414,-0.03288891,-0.022827126]]},{"biases":[-0.17089011,0.11913792,-0.19360764,-0.057947237,0.072664164,-0.0038940744,0.19815561,0.119969025,0.007766317,0.12212153],"values":[0.0,0.0,0.0,0.0,0.0,0.0,0.0,0.0,0.0,0.0],"inputWeights":[[-0.15079376,0.07812861,0.03343387,0.20607682,-0.024594054,-0.020914953,-0.14650038,-0.14350218,-0.0073302155,-0.090332076],[0.14393906,0.044470437,-0.039739277,0.04748186,0.09113506,-0.14275494,-0.0078607015,-0.03014332,-0.03513602,0.015487713],[0.058320142,0.17214422,0.037758566,0.06407135,-0.044484578,-0.021786725,0.11325433,0.0402069,-0.06276706,-0.083010845],[0.07522511,0.21388495,0.012569823,-0.042057853,-0.06943632,-0.07794,0.007411372,-0.22195144,0.1257692,-0.073226474],[-6.6217803E-4,0.1442564,-0.24549465,-0.088229574,0.08484508,0.19568019,0.11563264,0.1221615,0.07964018,0.009341802],[0.016915781,0.14642638,0.119843654,0.03785412,0.13111278,-0.07132678,-0.044863645,0.03554192,0.10765823,0.13874781],[0.067177504,-0.038994707,0.077680886,-0.097959764,0.16196626,-0.08336765,-0.07603621,0.037827827,-0.09651296,0.049901254],[0.07768176,-0.040193748,-0.009646582,-0.04829637,-0.063798144,0.06075399,0.0039273133,0.031217065,0.04148922,-0.016850492],[0.11015873,-0.121340685,0.1462827,-0.050073918,0.11680817,-0.010710958,-0.15531291,-0.058892675,-0.17764144,0.066874266],[-0.13543373,-0.0431246,-0.040802117,-0.012434493,-0.04067157,0.025083095,-0.0056820977,0.04903929,-0.01937057,0.12601565]]},{"biases":[-0.016209504],"values":[0.0],"inputWeights":[[-0.08468323,-0.027077168,-0.07579087,-0.23168728,0.04886228,0.17949535,-7.7296863E-4,0.12841117,0.080916725,0.02934958],[0.06786459,-0.059778485,-0.036693204,0.06666048,-0.03226572,-0.13099858,0.08723204,-0.05478584,-0.032084335,0.0046288916],[0.13625251,-0.2985514,0.002236061,0.105544336,0.058141135,0.061497323,0.029811712,0.04926623,-0.15443905,-6.5822917E-4],[0.0855855,-0.1634593,0.052887242,-0.13743244,0.06932011,0.010105081,0.10518987,-0.019863678,-4.0693657E-4,0.23797695],[0.028185066,-0.072400086,0.05238717,-0.19226208,-0.080558024,-0.068030864,0.06574643,0.030706014,-0.026607499,0.0018783072],[-0.11099266,0.083446786,-0.02035405,0.043823324,-4.390286E-4,-0.10800399,-0.18599944,0.10803526,0.00897113,0.10608172],[-0.12602758,-0.017225208,-0.054520633,0.06968362,-0.02074077,-0.07938232,-0.039206963,0.05063534,0.09620279,0.11391014],[-0.041153878,-0.037941243,-0.11620271,-0.14067788,-0.08441875,0.024438519,-0.20404872,-0.03850815,-0.108344406,0.13523518],[-0.040339366,-0.12367705,-0.10184181,-0.08199444,0.09023297,0.037934516,-0.11965733,-0.11537556,-0.076566555,-0.19322999],[0.11450248,0.027914658,-0.03264542,0.043653958,0.13858698,0.08784269,0.0015109474,-0.11780979,0.06298465,-9.115298E-4]]}]}},{"fitness":0,"neuralnetwork":{"inputLayer":{"biases":[0.0,0.0,0.0,0.0,0.0,0.0,0.0,0.0,0.0,0.0,0.0,0.0,0.0,0.0,0.0,0.0,0.0,0.0,0.0,0.0],"values":[0.0,0.0,0.0,0.0,0.0,0.0,0.0,0.0,0.0,0.0,0.0,0.0,0.0,0.0,0.0,0.0,0.0,0.0,0.0,0.0]},"layers":[{"biases":[-0.10557269,-0.032036714,0.10679395,0.041872863,0.20663431,0.14068727,3.2732415E-4,0.2620369,-0.097303055,0.11260124],"values":[0.0,0.0,0.0,0.0,0.0,0.0,0.0,0.0,0.0,0.0],"inputWeights":[[-0.085261345,-0.036895335,0.122264974,-0.02086154,0.18065734,0.044129845,0.056398883,-0.021899592,0.047555726,-0.04377771,0.07527541,-0.09900374,0.03770663,-0.11843683,0.012414683,-0.0536648,-2.107223E-5,-0.061333556,-0.018412963,-0.069226496],[-0.20308372,0.05610259,0.0949745,-0.2556776,-0.022807248,-0.086854614,0.057828106,0.034393776,-0.11817445,0.14687744,0.16772445,0.30598444,-0.11493218,0.10313917,-0.16038257,-0.12740932,0.14356226,-0.017826276,-0.09138816,0.11981532],[0.078925684,-0.08260828,-0.037669472,0.097023755,0.20058154,0.07998603,0.22625364,0.036526263,0.055807028,-0.0263631,-0.0121621685,-0.0446726,0.10431909,0.13342467,-0.11313291,0.05392607,-0.106781214,0.044687398,-0.0071397303,-0.052423395],[-0.011003955,-0.05704508,-0.041416254,0.12329497,0.026817502,0.049421087,0.19537465,-0.030671038,-0.13289438,0.1744736,0.21591674,0.04647395,-0.08306414,-0.08571367,0.053032655,0.013527657,0.025232129,0.13441803,0.034154635,-0.08734791],[0.061771765,0.13575165,0.028261332,-0.119386084,0.011698497,0.150004,-0.079474166,-0.13821074,0.09761048,-0.092060536,0.11517001,0.07703719,-0.03571193,0.12816231,-0.020877121,-0.077669434,0.08447593,0.06317383,0.0027584978,-0.037084702],[0.06801626,0.22388391,0.07213408,0.14791064,-0.09204882,0.1331761,0.030598247,0.038367875,-0.056599867,-0.09426905,-0.11547757,0.09242085,-0.06058214,0.06965515,-0.037354834,-0.12905617,0.115440704,-0.14815034,-0.050204482,0.124013044],[0.01167311,-0.12277923,-0.034985658,-0.025042018,0.012358363,-0.073017105,-0.06315223,-0.22294687,0.02402365,-0.08755502,0.06860223,-0.03741142,-0.082061626,-0.034890287,0.14494811,-0.056539837,-0.06875669,0.03404814,-0.07330243,0.07216381],[0.051357195,-0.17241414,0.022908479,-0.064099245,0.029207144,0.02771872,-0.12081791,0.050177738,-0.055126835,-0.037128955,0.06692182,-0.04878067,-0.0339618,0.0062590353,-0.09282915,-0.013674483,-0.0012213868,-0.21898298,0.10526628,0.031317562],[-0.13827012,-0.01111922,0.112026,-0.03424092,-0.03871556,0.11310829,-0.031683106,-0.08715489,0.014691495,0.10122356,-0.18038335,0.041185252,0.29415506,-0.022800932,0.022764739,-0.04326828,-0.14532849,-0.046591192,-0.032799564,-0.27317396],[-0.09129829,0.17294924,-0.15068175,0.04850319,-0.05593128,-0.11178835,0.11574153,0.060758606,0.11610792,0.016342334,0.011725006,-0.14559837,0.1567775,0.074011125,-0.19678237,-0.25553665,0.124590315,-0.2073721,-0.016041266,-0.11626042],[-0.16161232,0.032544944,0.015427686,0.0631741,0.07360965,0.050869983,-0.14364934,-0.04224201,-0.024578657,-0.1431237,-0.07542628,-0.06817988,-0.00426852,0.024544016,0.16818061,0.013139444,0.083624125,0.044974666,0.07898956,0.11596419],[0.21256505,0.009902364,0.062484305,-0.118664786,0.12969819,-0.01528384,0.060375225,-0.2283847,-0.06766374,-0.12420303,0.13663207,-0.10111329,0.010767656,-0.03345812,-0.2468242,-0.074575335,0.09038415,-0.07883848,0.16799657,0.14032307],[-0.092661954,0.0043162485,-0.16613823,-9.757432E-6,-0.06435102,-0.25273287,-0.007854118,0.06183786,0.010309624,-0.102182634,0.23414563,-0.05362738,-0.20722121,-0.029513527,-0.06275392,-0.026570987,-0.070867956,-0.042067632,-0.076611094,-0.1350253],[0.028176,0.021588549,0.232556,-0.040946856,0.090185285,-0.04254605,-0.064117864,-0.107001916,0.17818387,0.016153133,0.0042491094,-0.114644535,-0.018361073,-0.2979929,0.030665861,-0.13096608,0.057467718,0.061787438,0.0764029,-0.050183088],[-0.08201862,-0.1457154,-0.11600916,4.0361253E-4,-0.15662052,-0.074283466,0.0032746848,-0.045104608,0.004534962,0.05122307,0.09990153,0.11480938,-0.07900296,-0.061902024,0.089999914,0.032330126,0.0039950325,-0.04993597,-0.2135386,0.13297173],[0.053845726,-0.07266188,-0.038799804,0.17234203,-0.18282044,0.06929505,-0.14943795,0.06727128,-0.083479,0.27848667,-0.103338145,-0.029475477,-0.06318218,-0.08310569,-0.20183674,-0.07436522,0.036339402,-0.076482505,-0.033818547,-0.12590237],[0.15733197,-0.20225558,-0.11388811,-0.046250645,-0.29791957,-0.006268812,-0.05346099,-0.032317597,-0.10019282,-0.09942688,-0.34438622,-0.08481272,0.088732354,0.0289847,0.009147368,-0.028798174,0.034361564,-0.03151645,-0.14436352,-0.025502155],[-0.070859954,-0.01925556,0.11930147,-0.198339,0.19413665,0.032062158,-0.107765734,-0.05449764,-0.08591631,0.09196624,-0.057020485,0.18011937,0.08602155,-0.011899656,0.16101521,-0.05186584,-0.10486428,-0.1812329,0.011294943,-0.0918159],[-0.016645566,