{"generationNumber":9,"Entities":[{"fitness":0,"neuralnetwork":{"inputLayer":{"biases":[0.0,0.0,0.0,0.0,0.0,0.0,0.0,0.0,0.0,0.0,0.0,0.0,0.0,0.0,0.0,0.0,0.0,0.0,0.0,0.0],"values":[0.0,0.0,0.0,0.0,0.0,0.0,0.0,0.0,0.0,0.0,0.0,0.0,0.0,0.0,0.0,0.0,0.0,0.0,0.0,0.0]},"layers":[{"biases":[-0.012741936,-0.03888192,0.070511416,-0.05620927,0.047451567,0.009666603,-0.055310205,-0.08932476,-0.07583525,-0.18278548],"values":[0.0,0.0,0.0,0.0,0.0,0.0,0.0,0.0,0.0,0.0],"inputWeights":[[0.16103883,0.090176485,-0.003526119,-0.12987569,0.14107823,0.13257109,-0.2752716,-0.07517329,0.19706637,0.076479405,0.13987114,0.097033195,0.02789774,-0.054080248,0.15159073,-0.16387229,0.11356119,0.10766859,0.1660389,0.17749767],[-0.07762924,0.11231244,0.17037003,0.27541977,-0.010522791,-0.049480703,-0.025536269,0.069240384,0.069744766,0.043279808,0.042537846,0.14114869,-0.032701697,0.15990412,-0.082792684,0.10001882,0.22779125,0.046232708,-0.0020312576,-0.045830064],[0.0010166116,-0.011046169,0.2134958,0.15234622,-0.019991195,-0.044877067,-0.11717374,0.066702336,-0.12674324,-0.106241375,0.108165495,0.018049702,0.14733194,-0.06962603,0.058403496,-0.008810847,-0.1172423,-0.12028703,0.10075595,-0.05686651],[-0.038956914,-0.24851653,0.040470943,-0.027374266,-0.096106514,-0.13498059,-0.052719697,-0.007400306,0.02782081,-0.057842016,0.03625609,-0.082378834,-0.04876846,-0.08048275,0.10273049,0.080892876,-0.05825908,0.1353897,0.1287472,-0.033397317],[-0.010989709,0.13165042,0.066217385,0.0067477073,0.07395327,-0.2329914,0.0674318,0.04982603,0.14511454,-0.21690881,0.13939364,0.10835111,0.037983328,0.06077381,0.12533812,0.12941547,-0.11095112,-0.08046646,-0.019121446,0.21029752],[0.026145274,0.051547963,-0.053715967,0.13309725,0.039772373,0.09689042,-0.04932244,0.12793651,-0.106177084,-0.11694813,-0.16911191,0.046004113,-0.15568891,0.017182982,0.093631774,0.05996272,-0.048765607,0.01353831,0.0995352,-0.04781835],[0.17168246,0.08250661,0.06482372,-0.013472467,0.037140645,-0.18855856,0.048922915,-0.0022441538,-0.098739885,-0.022646874,-0.018356515,0.028495219,-0.055504926,0.089982264,0.018032286,0.05109657,0.02414441,0.17000735,-0.024951322,-0.15110165],[-0.024388557,-0.18792191,-0.016861644,-0.02490885,0.053565383,0.02082808,0.017100481,0.011238758,-0.014215538,-0.01631455,-0.03392275,0.09259115,-0.072153084,-0.09874001,-0.00658247,0.026476724,-0.19347826,-0.18569155,0.054809988,0.0035755439],[-0.107930526,-0.0015982508,0.058675054,-0.19275574,0.05295914,-0.21594496,-0.12575524,-0.03445894,-0.16274337,-0.024925107,0.039319325,-0.022496527,0.09698131,0.008489093,0.051853664,-0.059396584,0.013887717,-0.04096326,-0.051382773,0.056838185],[-0.009435959,-0.032916382,-0.16659053,0.09721264,0.026999546,-0.039911438,-0.009280379,-7.6402136E-4,0.07263622,0.16178495,-0.14683807,0.053317238,0.093482636,0.03958393,-0.03547882,0.06352425,0.024114707,-0.12046994,0.10665776,-0.15712118],[-0.03202174,0.059070703,0.059632715,0.19255473,0.06849224,0.03986276,-0.0776218,0.08773914,0.0825927,-0.057608347,0.029194772,-0.15088469,-0.063416585,0.12390833,-0.021720052,0.0051121153,-0.042278126,0.026975967,-0.07618958,-0.06571899],[-0.011690871,0.08103879,0.054076094,0.0022932028,-0.14399496,0.054286428,0.13330162,-0.1621474,0.0035993797,0.12851326,0.08872426,-0.12223814,0.0016581775,0.059669495,0.082788594,-0.034760945,-0.09134352,0.029778903,0.03813761,-0.06719752],[-0.09146206,0.058616903,-0.13348423,0.05000324,0.09116032,0.12570639,0.016635042,0.0060697203,-0.03396627,-0.030493334,-0.15316579,-0.051162142,2.7190315E-4,-0.10936492,0.00978694,-0.0055311243,0.0036694924,0.07479806,-0.24371307,0.049193356],[-0.002983063,0.2118632,-0.03802546,-0.10784488,0.04816138,-0.024855768,0.020876536,-0.116459295,-0.0387291,0.033770747,-0.08188989,-0.072931215,0.1268249,0.12264936,0.264468,-0.04718196,-0.117164806,-0.15248863,0.108068444,-0.05740678],[0.073698945,0.25238565,0.049651008,-0.08387417,-0.118894115,-0.04267602,-0.23165688,0.12064994,-0.0018554531,-0.15442806,-0.09681936,-0.08888537,-0.00846882,0.042727843,0.063300505,-0.12761092,-0.07534048,-0.10762737,0.012439885,-0.17568502],[0.024693096,-0.10761051,0.058891527,-0.06242397,0.14225444,-0.020176677,-0.16702631,0.15061201,-0.15716892,0.061030388,-0.12484069,-0.14949223,0.11324448,0.1328488,0.19622546,-0.10545555,0.032915972,0.10187848,0.120496415,-0.1918576],[-0.016047819,-0.1128818,0.07343135,0.12351701,-0.019683534,-0.0111813545,-0.034688618,0.024767738,-0.063986585,-0.06939376,0.027113184,-0.096674345,-0.12630384,-0.054629173,0.033755083,-7.770944E-5,0.075938836,0.09346747,0.17662801,-0.0037147133],[0.087233335,0.043470927,0.096433684,-0.027272476,0.10568477,0.11381917,0.08202341,0.0030585937,0.0011708838,-0.07918376,-0.12068282,-0.249457,-0.051078655,0.19362023,-0.12328952,-0.063167766,0.034007005,-0.018544177,0.012161847,-0.030184874],[-0.0256129,0.054413147,-0.015215098,0.039815236,0.0068904655,0.05127992,-0.12722747,0.14757697,0.10309805,-0.17765476,-0.049161617,0.08911844,-0.024450801,0.054700688,0.11049083,0.27908337,-0.08552547,0.15473513,-0.12200987,0.07236953],[-0.13054156,0.051157266,0.11016304,0.07950941,0.15560961,0.28359377,-0.052022662,-0.09579988,-0.037560962,-0.09280393,0.0077145468,-0.023268927,-0.07597169,0.001236673,-0.16335432,-0.051847417,0.15354694,0.10814973,-0.10819794,-0.023932528]]},{"biases":[0.040554456,0.054203093,-0.0376282,-0.051074784,-0.021125704,0.020875392,0.011206389,0.19123675,0.009235771,-0.02679024],"values":[0.0,0.0,0.0,0.0,0.0,0.0,0.0,0.0,0.0,0.0],"inputWeights":[[0.121210456,-0.19898653,-0.04192293,-0.038259488,-0.06506232,-0.08779107,0.024657445,-0.010195169,0.012489895,-0.040237486],[-0.12524898,0.021132156,-0.033638503,0.022775454,0.077969335,-0.03446323,-0.07615907,-0.20269598,0.08432449,-0.08895552],[0.028166123,-0.0045536133,0.052146215,0.035594422,0.18539493,-0.006105164,0.074777305,-0.05847503,-0.029378599,-0.1565658],[-0.020213189,-0.014658661,0.08124796,0.1510727,-0.022337677,-0.06611697,0.03149746,-0.08759262,0.124606766,0.05858937],[-0.007966553,0.04899871,-0.21905899,0.042578667,0.039509486,-0.043982048,0.021266133,-0.124995895,-0.032887824,0.028962068],[-0.022507291,0.023781113,0.028703952,-0.011893246,0.19884259,0.1609545,0.0855388,0.06542015,0.014690048,0.0044651474],[-0.19967334,-0.02976647,-0.1616442,-0.20164163,-0.09725764,-0.0064139576,0.03879143,0.07186664,-0.0024174969,-0.004523645],[-0.034595776,0.085848406,-0.03016461,-0.0016445206,0.1477916,-0.16821542,-0.041102335,0.070747934,-0.026735533,-0.074563466],[-0.086199395,-0.1694972,-0.106197596,-0.05693761,-0.039175414,0.06789266,0.09431782,-0.038562123,-0.108125836,-0.127872],[0.05190547,-0.047272738,-0.07489744,0.0598608,-0.12561671,-0.0995466,-0.093305744,-0.067516506,-0.106684096,-0.052614097]]},{"biases":[-0.0053142817],"values":[0.0],"inputWeights":[[0.16208805,-0.047260623,-0.113643445,0.05124654,0.008003998,-0.13769913,0.27345797,0.06805801,0.034606855,-0.021480676],[0.08569025,0.07116486,0.07390607,0.024752047,-0.18100801,0.041272826,-0.1911201,-0.2062172,0.20829748,0.2721352],[0.11082827,0.06912624,-0.029260423,0.054749142,0.2319536,-0.08438941,-0.15827687,-0.050088298,-0.15519196,-0.022073997],[-0.091649845,-0.06649667,-0.026037948,0.061884206,-0.10539287,-0.07746824,-0.025270857,-0.035116795,-2.2544747E-4,-0.09380735],[0.020418325,0.0800396,-0.0027888233,0.124795645,0.002106044,-0.13507228,0.04785667,-0.02577314,-0.0116783725,0.09838763],[0.1174817,0.024224484,0.10431613,0.07031264,-0.063851036,0.020277945,-0.06540075,-0.021267785,0.20777492,0.009529225],[-0.15145956,-0.15221909,-0.1310488,0.020666275,0.10709263,-0.072928466,0.03594017,0.12007765,-0.10495648,0.01606342],[0.09753778,0.08614383,0.027754977,-0.018728713,0.021561017,0.13376346,0.08109848,-0.08300502,-0.009528349,-0.10532857],[0.13383679,-0.030531524,0.14290765,-0.13850431,0.019101866,0.06793962,-0.04622579,-0.08222319,-0.028384415,0.061164644],[0.032098055,-0.18757243,0.036770847,-0.045149177,-0.1028707,0.039734628,-0.059029736,0.014635224,0.06420618,-0.061443526]]}]}},{"fitness":0,"neuralnetwork":{"inputLayer":{"biases":[0.0,0.0,0.0,0.0,0.0,0.0,0.0,0.0,0.0,0.0,0.0,0.0,0.0,0.0,0.0,0.0,0.0,0.0,0.0,0.0],"values":[0.0,0.0,0.0,0.0,0.0,0.0,0.0,0.0,0.0,0.0,0.0,0.0,0.0,0.0,0.0,0.0,0.0,0.0,0.0,0.0]},"layers":[{"biases":[0.03374048,-0.11131742,0.033056494,-0.04112938,0.07989805,-0.094880134,0.08885051,0.058959965,0.09540967,-0.09125634],"values":[0.0,0.0,0.0,0.0,0.0,0.0,0.0,0.0,0.0,0.0],"inputWeights":[[-0.007338496,-0.017904054,-0.06545107,0.023221554,-0.08651937,0.024707057,0.044716798,-0.0011258603,0.08607309,0.07336707,-0.005130518,-0.017983476,-0.1195176,-0.12046879,-0.13692687,0.14624803,-0.09478217,0.06337923,0.04043128,-0.16233195],[0.08509318,0.16801965,0.0070225233,0.018381892,0.029589543,-0.0022355465,0.17085476,0.039497882,-0.17424195,-0.04140448,0.031785764,-0.11824056,-0.075711556,0.11349853,0.010167201,-0.10497947,0.056850336,-0.092326626,0.0039104186,0.12854911],[-0.048621368,0.14364377,-0.0598042,-0.048477706,-0.28046647,0.17066261,0.032817006,0.17617239,0.11190942,-0.03977736,-0.098410055,-0.1586312,-0.058162104,-0.056621544,0.081499755,-0.009122963,-0.031378854,0.074558586,-0.123991445,0.015212195],[-0.025022546,0.07288301,-0.10475094,-0.14713627,0.06447339,0.0065659974,-0.011126045,-0.062167592,0.031372007,-0.032416567,-0.063878015,-0.08505197,0.043593302,-0.17776157,0.22994693,0.023596104,-0.048209857,-0.15061723,-0.20479555,-0.24085915],[0.080891855,0.086599335,0.011739686,0.0334105,-0.07996515,0.021774016,0.1440792,-0.03895117,-0.101475865,-0.03984891,0.06483825,0.034076247,0.085528284,0.08592666,-0.03109691,-0.097047135,-0.108402774,-0.07603411,0.036376778,-0.19467308],[-0.027388008,0.057928957,0.1376301,-0.046122525,-0.06288418,0.009799101,0.028172413,-0.0897456,-0.029339455,0.028781986,0.047983494,0.2060583,-0.07088894,0.05972261,0.024651194,0.15702906,0.066486984,0.033521213,-0.0024985648,0.14506555],[0.0754911,0.03840981,0.17478676,-0.04750332,0.12984388,-0.1208756,0.12922297,0.023950119,0.16012074,-0.013593126,-0.10401535,0.031192018,-0.04304891,-0.0022280007,-0.07711169,0.13928804,-0.089793414,0.03609318,-0.024124138,-0.0052762525],[0.06512566,-0.05029901,0.0041363416,0.13982694,0.099515796,0.13198449,0.08842654,0.1551873,0.087167606,0.22566412,0.04752499,0.15443763,0.00940218,-0.037021462,-0.026976652,-0.06842212,0.22356412,-0.08040219,-0.026993677,0.052656095],[-0.042842526,0.31016144,0.19925009,0.08592451,0.03009469,0.124630764,0.19917803,0.028195227,-0.026149204,0.11261285,0.02836884,-0.07320581,0.17282218,-0.004343411,-0.16646461,0.019109178,0.020591872,-0.099808544,-0.008006722,-0.11338727],[0.027013892,0.10450382,-0.21077207,0.03891193,-0.03018708,0.004179952,-0.060362566,-0.016083932,-0.10446086,-0.027644059,-0.13565758,-0.17565367,-0.046057448,-0.06319612,-0.11260081,-0.033979315,0.14880216,0.21391508,-0.05795088,0.20831823],[-0.026198447,-0.14169052,-0.18195958,-0.001867619,-0.011972569,-0.07088749,0.062250894,-0.0016363701,0.07871257,-0.018120157,-0.18349011,-0.0127638215,-0.12730907,0.111949734,0.06489508,-0.03639821,-0.1368376,5.166163E-4,-0.07282211,-0.0872955],[-0.059658863,0.11882709,0.18565133,0.17005466,0.06848998,-0.002577666,-0.15238887,-0.17544465,0.0064750384,-0.04230848,-0.19730583,0.070119925,-0.096683346,0.027211683,-0.070878245,0.07237937,3.896616E-4,0.19822189,0.022930365,0.048993744],[0.004542339,-0.07670915,0.06510735,-0.014941392,-0.0072258706,-0.023412392,0.10524416,-0.053360056,0.021405237,-0.071827166,0.14329758,-0.1723375,-0.012647313,0.14873508,0.12694997,0.13384943,0.100909956,0.055135448,-0.09052345,-0.14847864],[-0.08899252,-0.10018969,-0.20886786,-0.087753505,-0.013241324,-0.11284944,0.020037292,0.02455532,0.23937625,0.17347328,-0.14977168,0.034537584,0.01026429,-0.023222048,-0.20691653,0.12951732,0.0701385,-0.12965325,-0.0517468,-0.06039923],[-0.07427954,-0.14784455,-0.07987629,0.15936445,-0.05353379,0.023431852,-0.008906945,-0.09298716,-0.06730629,0.0928945,0.0012413344,-0.007680807,-0.0061361007,-0.08419824,0.032281637,-0.081504084,0.013666747,0.09507337,-0.046585076,-0.09403459],[0.0077071874,0.09073445,-0.13084827,-0.006841301,-0.104177676,0.10321145,0.040557437,-0.017140279,-0.05741889,0.0010927392,0.13611321,-0.09805025,-0.006219862,0.0067243897,0.14338465,0.0914054,-0.03686555,-0.11111131,-0.009257084,0.104242794],[-0.14601362,-0.0064690695,0.013157514,-0.04349706,-0.07118106,-4.6378977E-4,0.02311652,0.06128275,-0.0038394704,-0.08225471,0.142244,0.00848399,-0.005346439,-0.03632555,-0.038201563,-0.18288782,0.14936647,0.06367417,0.041818075,-0.0554308],[0.054390643,-0.14223757,-0.055202253,0.09074386,0.051594038,0.09114984,0.0051202425,0.12977228,-0.08839075,-0.1233585,-0.11726533,-0.009988984,-0.20621143,-0.0474544,-0.06677443,0.051701944,0.07886835,0.07653123,0.07675302,-0.07838168],[0.06602405,-0.041823488,0.026810387,-0.1108221,-0.01780556,-0.08282492,-0.20740446,-0.007871132,0.16492029,-0.123914465,-0.06887888,-0.06415745,-0.113014825,0.13622014,-0.054851368,-0.00740049,-0.081934415,0.025984347,0.055528406,0.0107830325],[-0.010611575,0.045291252,-0.03214612,0.25812936,-0.12894855,-0.026626052,-0.14125629,-0.0901956,0.01825752,-0.0021368084,-0.0127196,-0.036198776,0.07763895,-0.03029002,0.14366247,-0.041615743,-0.11542502,0.22856306,-0.13633433,-0.107769735]]},{"biases":[0.25324905,-0.07716942,0.033984125,0.12869687,-0.1299759,-0.011753679,-0.08728097,0.086413614,0.06426918,0.06324391],"values":[0.0,0.0,0.0,0.0,0.0,0.0,0.0,0.0,0.0,0.0],"inputWeights":[[-0.107670195,-0.053084917,0.075547956,-0.03349872,-0.042717814,-0.08051388,0.031416845,-0.15501253,-0.12696932,-0.0053629307],[0.08051176,-0.0011489335,-0.07389199,0.02000822,-0.001655406,-0.071160056,3.586167E-4,0.11148456,-0.044841476,-0.19150329],[-0.11069123,-0.051467367,0.10413835,0.0093529085,-0.101954944,0.015961714,-0.13672176,-0.037954006,0.027343266,0.10586652],[-0.006913724,0.101097375,0.035161264,-0.0687981,0.11795924,0.041868057,-0.29841208,0.12141677,-0.044701602,-0.039244037],[-0.06997597,-0.009488593,-0.10509212,0.20692816,0.04074686,0.04820606,-0.16249444,0.03124241,-0.038073946,0.0014979064],[0.03408843,-0.18887305,-0.060279112,-0.08766846,0.018726438,0.091667585,0.028322581,0.02130048,-0.08701133,-0.038305297],[0.034031298,0.10875274,-0.13924034,0.054708105,-0.059962686,0.1522404,-0.015523585,0.04420844,0.019211676,-0.018661141],[0.12412016,0.04992863,0.08544621,-0.07892476,-0.09210616,-0.13655506,0.12449151,-0.30816358,-0.20794971,-0.025566297],[-0.04379494,-0.13182104,-0.05833126,0.086209394,0.014682476,-0.07115583,0.09420977,0.16393857,0.07709866,-0.006015433],[-0.028057765,0.11816682,0.035356678,-0.05458934,-0.06582172,-0.036130477,0.08603966,0.096323416,0.0099235615,0.07227742]]},{"biases":[-0.07057487],"values":[0.0],"inputWeights":[[0.1251475,0.027006326,0.081238754,0.043360278,0.07427115,-0.07241611,-0.22159292,0.020674434,0.25766563,0.006950193],[-0.1210451,-0.05150806,0.14073543,0.10297105,0.10633989,-0.030674037,0.11608552,0.0023362504,0.050889175,-0.022388045],[0.13799697,0.036544442,-0.13926338,-0.17933883,0.069502726,-0.07936998,0.04655225,0.021336535,0.23657995,0.18909857],[0.13523108,0.24960466,-0.03237405,-0.010265442,0.03998426,-0.16530794,-0.01030352,-0.20626202,0.09494197,-0.071866475],[0.019254548,-0.016057035,-0.049569868,-0.022757243,0.19150597,-0.097643375,0.038769666,-0.08863268,0.05324928,0.020303419],[-0.1458147,-0.005846222,-0.06888955,0.0074361716,0.10732136,-0.038318917,0.036744826,0.12615468,-0.05932688,0.016260253],[0.10238017,-0.14811353,0.026380964,-0.09195455,0.11364111,0.038250286,-0.10829499,-0.07728014,0.10488199,-0.08224586],[-0.011941542,0.14252374,-0.026498193,-0.06704267,0.09315207,-0.029697863,0.013148985,-0.077668644,-0.10879742,-0.22053348],[-0.15926942,-0.009112909,0.056572586,-0.12761597,-0.20718826,0.063108854,-0.009538739,0.045859657,-0.027100159,-0.019710885],[0.04115582,-0.11898137,-0.072183095,0.01376779,-0.008800527,0.049265184,0.035680972,-0.01036626,-0.09287031,-0.11138379]]}]}},{"fitness":0,"neuralnetwork":{"inputLayer":{"biases":[0.0,0.0,0.0,0.0,0.0,0.0,0.0,0.0,0.0,0.0,0.0,0.0,0.0,0.0,0.0,0.0,0.0,0.0,0.0,0.0],"values":[0.0,0.0,0.0,0.0,0.0,0.0,0.0,0.0,0.0,0.0,0.0,0.0,0.0,0.0,0.0,0.0,0.0,0.0,0.0,0.0]},"layers":[{"biases":[-0.0012617111,0.12229098,-0.20409766,-0.019332971,0.061590694,-0.048862305,0.035979275,0.1063703,0.14849561,-0.040867988],"values":[0.0,0.0,0.0,0.0,0.0,0.0,0.0,0.0,0.0,0.0],"inputWeights":[[0.006642494,0.13418537,-0.02366622,-0.1312983,0.07064503,0.086298116,-0.004232597,-0.030828543,0.091613695,-0.09160573,0.0747187,0.119296744,0.059591293,-0.039937858,-0.045810077,-0.0515889,0.09193097,-0.025115179,-0.12065719,-0.0863947],[0.18562067,-0.035912402,0.13250785,-0.074211024,0.11114058,-0.004621011,0.02278857,-0.044293195,0.068885036,0.016794005,-0.0854739,0.027861988,0.055097815,0.07857737,-0.21052814,-0.07382433,0.10184728,0.05584223,0.26951778,0.0771997],[0.08522404,0.014285982,-0.015502937,0.0661096,0.051444642,0.070981935,0.01719019,0.21210639,-0.078786716,-0.14261176,0.007620077,-0.13431069,-0.12399846,-0.049934745,0.028858516,-0.25217792,0.18783838,-0.090322755,0.09033211,-0.20456202],[-8.818795E-4,0.05416825,-0.2454977,-0.12676091,-0.10140477,0.014810759,-0.1405699,0.008463036,0.08909493,0.029476367,0.11810857,-0.051652223,0.16933937,-0.08296336,0.07449902,-0.012589922,0.0060704867,-0.025362007,0.0010603302,0.05960985],[0.043179408,0.10541897,0.08931933,0.034674842,0.16395803,-0.09494549,-0.06105817,-0.018547913,0.08767475,-0.15206167,0.015144092,-0.06006466,0.120581605,0.001633164,0.01800447,-0.07517267,-0.08391456,0.1470481,0.052612938,-0.04922483],[-0.035548937,0.046250504,-0.12497382,-0.065540776,-0.1266758,0.16721359,0.063360326,0.14147396,0.028487008,0.07608058,0.040952496,-0.057512883,-0.073606014,-0.10937592,-0.039381098,0.066162735,0.008438186,-0.10163119,-0.045528837,-0.0704302],[-0.12139011,-0.10838035,-0.056524895,0.15349518,-0.15824291,-0.013260402,-0.24391897,-0.15813126,-0.0026616685,-0.09303078,0.052168462,0.03059902,-0.057959367,0.061366756,0.011599981,0.115573786,0.10387306,0.060653124,0.1546642,0.049840555],[-0.08929967,0.1499095,0.21217105,-0.075735115,0.069055274,-0.049862556,0.14841986,0.13454081,-0.20463996,0.062356006,-0.03897509,-0.023342017,0.03369974,0.13257822,0.11983857,0.015436022,-0.06731181,0.01590057,0.04428477,-0.13532811],[0.15885684,-0.002345896,0.07996971,-0.12544757,-9.656678E-4,-0.06683789,-0.07161476,0.040120117,-0.048841253,0.01764987,0.21946266,0.2940631,-0.013567139,0.09207391,-0.0020415336,-0.19400686,0.040973946,-0.106793605,-0.024609165,0.025218248],[-0.051746245,-0.042420257,-0.15937033,-0.030448597,-0.026697846,0.038518764,0.09265353,-0.20079464,-0.07619352,-0.08023832,0.110550635,0.07320823,0.031296972,-0.022476483,0.14035568,0.012293475,-0.22620992,-0.099756755,-0.23134305,-0.04407028],[0.05006027,0.011644745,-0.06769801,0.067018226,-0.09559116,0.14254786,-0.0034814377,-0.08892196,0.058932155,0.06626895,0.03130915,0.08316391,-0.05353302,-0.06836292,0.033150084,0.07168208,0.11150134,0.0028842962,0.013075061,0.05976615],[0.094182126,-0.05395366,-8.925741E-4,0.2034721,0.0059759393,0.034114987,3.7436836E-4,-0.17287709,-0.089986,0.040520646,-0.031483907,-3.1015402E-4,-0.13327678,0.24478109,0.084048055,-0.11747029,0.044414748,-0.0051617674,0.28419417,-0.040541083],[-0.2635904,-0.09765604,-0.15931255,-0.042459253,-0.042386968,-0.030792316,-0.008800363,-0.035259593,0.04373878,-0.08469503,0.047776774,0.21262787,0.065022685,0.09157975,-0.0519548,0.13873054,-0.2426794,-0.045243703,-0.12002326,0.08353076],[-0.055843793,0.099030316,0.1198005,0.10950662,-0.13815647,-0.019460456,0.13770925,0.048540033,0.17673013,-0.10086873,0.09307141,-0.06831559,0.005340041,-0.06548032,-0.066841245,-0.0440417,-0.07891055,0.14353184,0.06345191,-0.020859672],[-0.15152946,-0.11012504,-0.040539246,-0.06319206,0.13240623,0.07792913,0.039950285,-0.028767651,-0.07511084,0.041641735,0.0445999,0.13803793,-0.09330606,0.16448091,0.054372296,-0.11442536,-0.04214094,-0.097165585,0.09225464,0.024721455],[-0.14621949,0.14273112,0.075478524,0.027325885,0.06474586,-0.13754779,0.06109933,0.07785929,-0.04938275,0.20277569,-0.07993096,0.043760043,0.042435937,0.06587374,0.15891357,0.20618165,-0.07818986,-0.17785865,0.042760033,0.19422136],[0.10010435,0.08109681,0.23485143,0.058772657,0.15410127,-0.016049363,0.005418974,0.061772835,-0.08691661,-0.012536484,0.24052331,0.010569252,-0.005729579,-0.022350919,0.0018603952,0.09735362,-9.635974E-4,-0.021608606,-0.13752621,0.03459076],[-0.13503294,-0.11891629,0.14681393,-0.18919648,0.15659547,-0.04451197,0.13174707,-0.031045547,0.13276665,-0.13964844,-0.12669083,0.067464925,-0.068518765,0.036398012,0.09390766,-0.0034770481,1.5405822E-4,-0.11622327,0.013091748,-0.060847834],[-0.06007102,-0.055329904,0.15666285,0.028519895,-0.046864543,0.02469793,-0.014764827,0.06108356,0.05787835,0.0874542,0.1091209,0.19156353,-0.010076416,-0.040569298,0.023450406,0.066621765,0.041379754,0.014841785,0.084411465,-0.11550271],[-0.039053775,0.15634713,-0.16940361,0.091614105,-0.0458664,-0.047023002,-0.14494118,-0.18648209,-0.08797187,0.05593287,-0.1797056,-0.004000487,-0.22696432,-0.045890145,-0.009775831,0.1233533,-0.07336879,0.11066763,0.11830442,0.007060694]]},{"biases":[-0.09770643,-0.10103678,0.15554084,-0.12876359,0.07677819,0.09046291,0.08223357,-0.0030366038,0.033252425,-0.0014497427],"values":[0.0,0.0,0.0,0.0,0.0,0.0,0.0,0.0,0.0,0.0],"inputWeights":[[-0.008497188,-0.03615945,0.058713928,0.016958376,-0.030640297,-0.062289495,0.1296638,-0.047119163,-0.04492437,0.22344735],[0.05929114,-0.027077079,0.14990437,0.07260544,-0.010094615,0.17768855,0.16393794,0.0076964214,-0.09914237,-0.057184063],[-0.014289933,-0.15971056,0.09592148,0.069256835,0.1578654,-0.07068947,-0.18447252,0.0012601472,-0.0753565,-0.07822986],[0.07652832,0.011475997,-0.039902274,0.049942937,0.071967214,0.016531589,-0.004173626,-0.13986689,-0.066755936,0.20891553],[0.008780361,-0.16607113,-0.11165997,-0.05233261,-0.088852406,-0.09643152,0.057427682,0.10466006,0.0860239,0.016869657],[-0.04929561,-0.17401865,-0.115014285,-0.02179728,0.15575624,0.011298004,0.19155788,-0.028689194,0.03016099,-0.17394689],[0.11230741,0.15621728,0.026386354,-0.036022797,0.0043526823,0.0040124,-0.012275159,0.1381392,-0.022918226,-0.035716828],[0.1486908,0.036491245,0.043352965,0.1697063,-0.004898446,0.013268004,0.05625732,-0.021951348,0.043328337,0.05092079],[-0.04015522,0.03969231,-0.18392234,-0.15276262,-0.21395989,0.030608622,-0.02069527,-0.05442445,0.12153326,0.074244455],[3.8733406E-4,0.04081597,-0.0076226587,-0.117979534,0.1458626,0.0526374,0.055989336,0.0042589363,0.041239843,-0.079866946]]},{"biases":[0.067039296],"values":[0.0],"inputWeights":[[-0.24330057,-0.08806141,-0.08845635,0.057094846,0.11143315,-0.026683293,0.13206527,0.05241125,-0.077114634,-0.002100915],[0.07325353,0.13763241,-0.066609964,-0.10558952,-0.01752935,0.16710344,-0.14513685,-0.04459435,0.055885065,0.12460967],[-0.067837484,0.31767234,-0.041041765,-0.04050859,-0.046960156,-0.09714007,-0.061841182,0.06454607,0.06707707,0.1283181],[-0.048808467,0.009242538,-0.06072218,-0.06719341,-0.10501668,0.032575473,0.0041210507,-0.17194216,-0.06998643,0.08977998],[0.10225828,-0.011563015,-0.042179044,-0.0018233386,0.12156815,-0.011863734,0.0015191431,-0.14136194,0.17516446,0.124774344],[0.062373757,-0.018331552,0.08374152,-0.035796653,-0.026370097,-0.13678914,0.006872473,0.01333601,0.14556406,0.18697664],[0.122216284,-0.048574798,0.22424935,0.087972395,0.14095522,-0.09555755,0.02953959,0.1277157,-0.07538869,-0.17513092],[-0.022758024,-0.02678551,-0.0020703014,0.04973362,-0.012467281,0.01330793,0.13378985,-0.04867168,-0.18246868,-0.16136754],[-0.15333818,0.065560274,-0.1065189,-0.033632662,0.094786264,-0.0559891,-0.04376011,0.02488486,-0.10218491,0.051373325],[0.13495937,-0.04121033,0.021547938,0.073902145,-0.01918318,-0.043050494,0.25718904,0.028367756,-0.071633615,0.056353677]]}]}},{"fitness":0,"neuralnetwork":{"inputLayer":{"biases":[0.0,0.0,0.0,0.0,0.0,0.0,0.0,0.0,0.0,0.0,0.0,0.0,0.0,0.0,0.0,0.0,0.0,0.0,0.0,0.0],"values":[0.0,0.0,0.0,0.0,0.0,0.0,0.0,0.0,0.0,0.0,0.0,0.0,0.0,0.0,0.0,0.0,0.0,0.0,0.0,0.0]},"layers":[{"biases":[0.034628876,0.037911255,-0.065570176,-0.14302464,0.05323839,-0.056483947,-0.08734606,0.021840286,0.10071367,-0.12173016],"values":[0.0,0.0,0.0,0.0,0.0,0.0,0.0,0.0,0.0,0.0],"inputWeights":[[0.060232602,0.11536451,-0.14456998,0.0320583,-0.04155612,0.0058769616,-0.15444951,0.022855842,-0.084224254,0.0669712,0.18819855,0.077665485,-0.007174235,0.06290492,0.0058264867,0.109963395,-0.078497626,0.016456291,0.09266698,-0.10301274],[-0.18997604,-0.054567587,-0.12928385,-0.37017,0.20536447,0.0042452314,0.18670902,0.0037766262,0.07279432,-0.09284196,-0.09182575,-0.09989189,-0.061502896,0.21041045,-0.1493105,-0.07695781,0.067955956,-0.065814145,-0.026797371,-0.057640817],[-0.005178644,-0.13192411,-0.05507588,-0.05891117,-0.12049526,-0.15503511,0.14643493,-0.042364437,0.015671218,0.09690158,-0.014691325,0.12294762,0.04185308,-0.030902026,-0.20379756,-0.10426958,-0.068169974,0.027560811,-0.21905863,0.006109587],[0.039090294,0.1147966,-0.04975022,-0.02677556,0.027434086,-0.062256373,-0.05672392,0.046045434,-0.102719255,0.09141262,0.032590598,0.02284017,-0.1412656,0.087733924,-0.0015226502,0.107529424,0.029283017,-0.04742926,0.033454083,0.054698013],[-0.03511691,-0.097143255,-0.059311584,-0.044950802,-0.3198472,-0.027670315,0.11154417,0.002282825,0.13589664,-0.09565901,0.08816629,0.08293854,8.7126927E-4,0.15972981,-0.07447587,0.13380018,0.015845148,0.10914685,-0.03737253,0.0114118345],[-0.028450832,0.017566789,0.05993172,-0.20685959,-0.13858138,-0.090374514,-0.029324396,-0.057205465,0.16610098,0.12130704,-0.092797354,0.03913432,0.10511513,-0.12176762,-0.066131584,-0.0111275045,0.031096645,0.07214188,-0.03254922,-0.13520801],[-0.014720269,-0.13575086,0.10227762,0.0637313,-0.108352676,-0.12370282,0.054338768,-0.028168522,0.031068606,-0.042646393,-0.095746264,-0.0026506768,0.08218466,-0.061633207,0.16891937,-0.008952392,-0.17212471,0.04625558,-0.16445719,-0.11611306],[0.016100327,-0.26489377,-0.07385546,-0.053928766,0.058138277,0.04490896,0.08345361,-0.21465595,-0.09458834,-0.044989843,0.01600227,-0.12992182,0.066111304,0.097606756,-0.021176755,0.061847482,0.030957386,0.10332845,-0.0819555,-0.052065864],[0.049793404,0.0021754073,-0.15195855,0.00924735,0.14242677,0.013822337,0.044705864,0.046037946,-0.046960175,0.09807897,0.06846283,-0.18902434,-0.004100977,0.14067322,0.041696556,-0.09688757,0.23740256,0.053596012,0.077404454,-0.0381741],[0.08375369,-0.0245178,0.1547426,-0.05196881,-0.1379706,0.07630184,0.050137192,-0.19389015,0.12178721,-0.057560876,0.0109495,0.062187266,0.22125399,0.26910597,0.10487566,-0.018281465,0.14217933,-0.12904148,0.1019325,0.08984315],[0.019979248,0.04723832,-0.056345537,-0.0019068827,-0.08383368,0.17291023,-0.17951128,0.09542411,-0.055628967,0.13277623,-0.028537333,-0.16408111,-0.14375027,0.05355776,-0.091947876,0.042775646,-0.055214837,-0.023770798,-0.048157666,-0.14441498],[0.022488618,-0.2750088,0.07712746,0.075154275,0.1342065,-0.055948574,-0.18526185,-0.0050857263,0.12633027,-0.053367298,0.10045083,-0.051062074,-0.08976753,-0.051814985,-0.073502354,-0.23183432,-0.118245214,0.11919726,-0.08675074,-0.13524146],[0.039391242,0.11275882,-0.117438756,0.03517021,-0.16727427,-0.10122458,0.008265406,-0.085266404,-0.18763804,-0.15394533,-0.0303914,0.037658572,-0.12975338,-0.016254628,-0.15619369,0.09917231,-0.05307827,0.027207464,0.14671433,-0.13998951],[0.07480039,-0.084586896,-0.09252799,-0.17828366,0.19986682,-0.07833883,0.047757808,0.031511378,0.06272921,-0.06307417,0.06652269,-0.017180473,0.12048932,0.056527324,-0.13314,0.10456189,-0.049167953,0.032776713,-0.1972131,0.062875494],[0.18145417,0.07594546,0.13781601,0.12631516,-0.083868906,-0.036368582,0.08487503,0.04536825,-0.066951916,-0.032844286,0.025929874,-0.0077563394,-0.0013980762,0.044191476,0.10079108,0.024811802,0.0734151,-0.1217207,0.012910503,-0.13791229],[0.07491769,0.17484753,-0.027016051,-0.13155603,-0.053397667,-0.09517412,-0.03160601,0.15502936,0.07221984,-0.13037096,0.18658592,-0.07529611,-0.16289356,-0.07299285,0.12789841,-0.12870589,0.15979469,0.04391368,0.04488402,-0.108276986],[-0.101165876,0.23097861,-0.022167047,0.1973514,-0.08251379,-0.031232944,-0.00642438,-0.26796627,0.011270954,0.07020545,-0.06663796,0.014135582,0.030199703,-0.08246912,0.07498208,-0.18510014,0.22012924,0.0144707505,0.07403058,-0.13497435],[-0.14194155,-0.18167372,-0.17121758,0.025037296,0.067271486,0.021674363,0.16669357,-0.038191218,0.151277,-0.21895309,0.14210816,0.08297056,0.017608853,0.018928614,0.09015326,-0.0095397765,-0.15206334,-0.014929096,-2.2342487E-4,0.09876087],[0.09449411,0.11466618,0.26548845,-0.0065531568,-0.07128147,0.074012674,0.042210218,0.09557797,0.19918512,-0.15340194,0.094069265,-0.17908563,0.17536329,-0.14673626,-0.026906334,0.015415681,0.044949718,0.17023061,-0.03986474,-0.11032207],[0.07036275,-0.09042331,-0.021238474,0.057385,6.93227E-4,0.006228432,0.15397057,0.03462075,0.06423207,-0.031638257,-0.06656021,0.016045935,-0.14065173,0.10419859,-0.035506137,0.08021354,-0.03412218,-0.029458601,0.15342012,-0.07433731]]},{"biases":[-0.039481536,0.049983405,-0.059078097,-0.051516224,0.08021788,-0.064368755,-0.02656857,0.11464128,0.116656944,-0.11042826],"values":[0.0,0.0,0.0,0.0,0.0,0.0,0.0,0.0,0.0,0.0],"inputWeights":[[-0.16528869,0.0504662,0.04571237,-0.026085801,0.08989807,9.395914E-4,-0.05371622,0.16328673,-0.13396573,0.030734701],[0.07217513,0.07730083,0.069956206,0.02092655,0.16435732,0.10655615,0.11062151,0.12717499,0.039742216,-0.094225146],[-0.042912234,0.085653655,0.045236852,0.020625126,-0.07783015,-0.03458105,0.0017721895,0.19003142,-0.11462639,-0.06155477],[0.1749661,0.022382261,0.15790556,0.03845263,3.4744306E-5,-0.14723288,-0.09923185,0.089408904,0.0014785306,-0.038964044],[0.072328284,-0.066949,-0.05107068,0.05350258,0.12342389,-0.039400887,0.008793966,0.08780009,0.046123736,-0.12409199],[0.10225403,0.10194549,-0.054980885,-0.022581225,0.0335811,-0.036120612,0.18458699,0.06618101,0.042460535,0.15172096],[0.023701878,0.051202722,0.008455318,0.011304448,0.0712866,-0.030028092,0.0141118765,0.0055849836,-0.0043501174,-0.005632627],[-0.16359557,-0.018542543,0.13759713,0.107788965,-0.015509046,-0.058404893,0.09509987,0.12108997,-0.04737889,-0.053323384],[0.03414248,-0.015823813,0.07441897,-0.09547118,-0.022800153,0.100366,-0.042169865,-0.23886202,-0.19290131,0.04822409],[-0.018037254,-0.072811075,-4.7956974E-6,0.05465478,0.009537019,-0.06406086,0.24650049,0.098513454,-0.06757183,-0.06819631]]},{"biases":[0.06428986],"values":[0.0],"inputWeights":[[-0.058903106,0.033290796,-0.076459624,0.121781215,-0.14552376,-0.100112595,-0.03411662,0.02554128,-0.088464595,0.19512823],[-0.036559556,0.2157893,-0.08926668,-0.11866551,0.08370553,1.3668083E-4,0.08672162,-0.10766547,-0.10533676,-0.15180865],[-0.15307394,0.061681658,-0.07517607,0.045417584,-0.07078555,-0.13894418,-0.10199059,-0.019299284,-0.031175254,-0.0489353],[-0.100265004,0.14344677,0.102707766,0.044782974,0.06106451,0.10609622,0.09937919,0.14319257,0.0860903,-0.016815329],[0.09252866,0.020741064,0.041507743,0.0062508057,0.015332588,-0.07811658,-0.08293479,-0.15106423,-0.2596565,0.06606736],[0.0042016553,0.16046749,-0.07692367,0.031003393,0.036641244,0.09135731,-0.14121573,0.16260861,0.043081928,-0.2150002],[-0.09143976,0.16224366,-0.057660483,-0.008576545,-0.105475076,-0.034559455,-0.111643635,-0.0877352,-0.021351928,0.11851659],[-0.10014789,-0.017742716,0.07219714,0.035254166,0.15622446,-0.06560567,-0.059888523,-0.03555071,-0.20590612,-0.06609628],[0.12065413,-0.02460334,-0.044642366,-0.09196107,-0.017112423,0.015604867,-0.19628341,-0.103706814,-0.024674576,0.1065134],[-0.14215077,0.03554341,0.27597153,0.14960717,-0.13533056,-0.09042174,0.1410508,-5.9841166E-4,0.13591649,-0.044587277]]}]}},{"fitness":0,"neuralnetwork":{"inputLayer":{"biases":[0.0,0.0,0.0,0.0,0.0,0.0,0.0,0.0,0.0,0.0,0.0,0.0,0.0,0.0,0.0,0.0,0.0,0.0,0.0,0.0],"values":[0.0,0.0,0.0,0.0,0.0,0.0,0.0,0.0,0.0,0.0,0.0,0.0,0.0,0.0,0.0,0.0,0.0,0.0,0.0,0.0]},"layers":[{"biases":[-0.044550516,0.12974113,-0.08915213,-0.11728911,-0.2306356,-0.03034685,0.015272742,0.06309619,-0.045661703,-0.10519727],"values":[0.0,0.0,0.0,0.0,0.0,0.0,0.0,0.0,0.0,0.0],"inputWeights":[[-0.104053475,0.18785428,-0.018237352,-0.038866095,0.13963,-0.014359893,0.04590943,-0.09642133,0.07237673,-0.0089541385,0.15217143,0.07665049,-0.10744841,-0.05903325,0.07158667,0.042464223,-0.09301829,-8.924957E-4,-0.069071695,-0.16045122],[0.1074971,0.028234094,0.108243264,-0.07762265,0.009042403,0.0012521642,0.2793938,0.070675656,0.22991721,0.16219006,-0.044675086,-0.1377869,-0.04894265,-0.07996781,0.02766174,0.034557175,-0.00458694,-0.021693438,0.20343998,-0.097961694],[-0.021007005,0.09323456,0.073579885,-0.07607104,0.10836169,0.09786735,-0.14061959,-0.052348405,-0.017370746,0.06902288,-0.16552114,-0.09528458,0.114733174,-0.06380015,-0.021158163,-0.021177916,-0.121516906,-0.114098646,0.21740772,-0.10465874],[0.10439855,-0.032854613,0.0026510046,0.031715207,-0.041401763,0.04795942,0.13085973,0.014603777,0.056073472,-0.002176956,-0.14896967,0.1832774,-0.14413379,0.04456708,-0.022759274,-0.06243409,-0.09039832,-0.042446878,0.069735885,-0.019206392],[0.08527939,-0.10336308,-0.0817098,0.061678547,0.13365443,0.17021479,0.029644648,-0.14830974,0.08465105,-0.14617224,0.038415834,0.10916378,0.05558693,-5.8926427E-4,0.07680601,0.076990604,-0.01558825,-0.033340648,-0.17272307,-0.031566307],[0.10161153,-0.021812052,0.036053147,-0.0043015094,0.075057715,0.04522103,-0.012764178,0.03421092,-0.06942898,-0.015483822,0.027114103,0.11340773,0.088858016,0.00551162,-0.13944384,-0.015281035,-0.0658054,-0.06764201,0.08050479,0.08889512],[-0.06769078,0.054482467,0.1055483,-0.08049825,-0.0023924806,-0.07894079,-0.001374975,-0.15668015,-0.099966586,0.008631011,-0.18821606,-0.007778067,0.069581695,-0.12964395,-0.050810494,0.09634108,-0.09790443,-0.13758788,0.17967808,0.09425553],[-0.09774439,0.08125319,-0.03982651,-0.018337568,-0.07999825,-0.018795108,-0.04061952,-0.03700267,0.16147739,0.08746685,-0.019255526,-0.14937374,0.09486923,-0.03374124,0.058401454,-0.066999964,0.04757262,0.16465208,0.07999353,0.18348882],[0.01133528,0.009888715,-0.00926247,0.053393565,-0.08776514,0.14450149,0.12242986,0.13184023,0.012752038,0.025376275,-0.049322575,0.056734063,0.017170627,-0.04144902,0.043478403,0.10261488,0.032634206,0.030205378,-0.10116461,0.04209787],[0.026379684,0.020851044,-0.08432677,-0.15429619,0.13347104,-0.04129245,4.284725E-4,0.015169878,0.1199272,-0.07006099,0.015655508,0.070200264,-0.15383585,0.01720474,-0.16505459,0.08083923,0.00493932,0.035205152,0.06128513,0.06714935],[0.0356838,-0.07436631,-0.07754747,0.14633921,0.1455797,-0.08725279,-0.09246749,-0.1745179,-0.07340325,-0.02322653,0.089516364,-0.050222382,0.19607678,0.1566044,0.029390706,0.048995275,0.101223424,-0.08398974,0.063997656,0.07328072],[-0.24711588,0.13487098,-0.17901674,0.01757804,0.058494184,-0.017452719,-0.069902524,-0.014061092,-0.016273234,0.107360184,-0.16140543,-0.004622493,0.06280155,-0.24222396,0.08097138,-0.08302941,0.0021558756,0.03645507,0.19895113,0.25073454],[0.029224012,0.10203013,0.15732528,-0.08891917,0.060897995,0.009858471,0.16326623,-0.106377,-0.07341867,0.030392546,-0.1426554,0.12215998,-0.16778685,0.14734457,-0.08677028,-0.11059991,-0.023343451,-0.011235704,-0.11164895,0.0016339163],[-0.034186177,0.021741541,-0.044299077,0.06101259,-0.07574204,-0.11088735,-0.05443023,-0.1125512,-0.033227596,-0.081775464,0.051922012,0.040022813,-0.14859194,-0.19842483,-0.19782525,0.08165057,0.024502642,-0.07084619,-0.07576042,0.011095071],[-0.037039492,0.23435593,-0.067756355,0.034080297,0.117788844,-0.006757859,0.09132835,-0.11931549,0.1373053,-0.01481291,0.11356299,0.0072110943,-0.03557596,0.22945055,0.12465313,0.1089358,0.085151374,0.07424482,-0.08660794,-0.054522265],[0.08347614,0.1319446,-0.044735838,0.021229135,0.039834406,0.14371568,0.032157544,0.11706536,-0.1800177,-0.030675042,0.08180881,-0.13838488,0.0136059355,-0.14295684,-4.7954783E-4,-0.046195615,0.027668757,-0.037831392,0.0482818,0.07974277],[0.03337305,0.17104362,0.053487748,-0.15274465,0.05301053,-0.08594753,-0.050231487,0.18407236,-0.0016280427,-0.0032330311,-0.028844954,-0.252502,-0.094467,0.017431105,0.12757951,0.09724645,-0.040945236,0.076374784,-0.019995522,-0.03184509],[-0.113554955,-0.038375627,0.098163925,-0.04600257,-0.054937102,-0.1556498,0.086917676,0.13189414,0.09995757,-0.0024722714,-0.1125714,-0.13811791,-0.036344253,-0.062663905,-0.0678801,0.14430085,-0.19585028,0.061283745,0.05663593,-0.025132267],[-0.22916982,0.08116745,0.065906696,-0.026627718,0.0404978,0.096574314,0.002470017,-0.16809496,-0.11736644,-0.033481825,0.10350385,-0.05945737,0.081223,0.16836879,-0.07050965,-0.13157092,0.042143047,-0.02916065,-0.12628336,-0.09694365],[0.0096324645,0.07504174,-0.06592581,0.07112709,0.006023201,0.06114814,-0.027402753,-0.030325862,-0.11452041,-0.088332646,0.0386162,0.011412271,0.0156045435,-0.16519083,-0.0613174,0.042680033,-0.10123465,0.19880033,-0.06277607,0.018488973]]},{"biases":[0.0037817648,-0.05397351,0.11865544,-0.051284615,0.15659526,-0.067774765,0.09859975,-0.014201589,-0.10150262,0.082966015],"values":[0.0,0.0,0.0,0.0,0.0,0.0,0.0,0.0,0.0,0.0],"inputWeights":[[0.0011559064,0.028452847,0.14776653,-0.022925578,-0.14538433,-0.037745975,-0.07522875,-0.29318574,-0.008608851,-0.07612304],[-0.14302604,-0.07264845,-0.059234623,-0.11210854,-0.22646777,0.12250121,0.02486076,-0.1502881,-0.054890864,0.044790875],[-0.11773321,0.12551758,0.0010575225,-0.09373108,-0.012889708,0.038184777,-0.036496326,0.039981548,-0.058765262,0.16567263],[-0.043258123,0.10238965,-0.0809776,0.096395455,-0.051737364,0.07947079,0.06442593,0.045322258,0.15582831,0.034020875],[-0.079297945,-0.023856234,-0.10171321,-0.07497929,-0.0048530586,0.1466743,-0.17832069,0.019959386,-0.00987359,0.019682828],[-0.038384393,0.18365489,0.0060581113,-0.09755165,0.006979601,-0.010341611,0.14103992,0.03110254,-0.09216798,-0.09789021],[0.028954959,-0.20663527,0.03495784,-0.13632034,0.0037286212,0.23530476,0.021752171,-0.04284025,0.11562492,-0.010795953],[-0.12965517,-0.026641132,-0.07682973,0.20658426,-0.008121644,0.0049643493,-0.03507182,0.155433,0.030304141,0.021076754],[0.022876775,-0.2280223,0.02052344,0.06733129,-0.10744449,0.034187958,0.08936132,0.07551277,0.11992327,-0.12940371],[-0.025665568,0.010945235,0.018705549,-0.019904276,0.03806987,0.010333402,-0.009318365,0.16646986,-0.019891946,0.017652664]]},{"biases":[-0.010279797],"values":[0.0],"inputWeights":[[-0.0053829364,0.07756684,0.18685424,0.1554841,-0.19230562,0.03870372,-0.017190346,-0.26827756,0.013348326,-0.12900467],[0.042429566,0.082728826,0.11572023,0.08912428,0.019126192,-0.051247492,-0.021537675,-0.05475325,-0.03886505,0.018122492],[-0.069731995,0.026468381,0.10194268,-0.07614719,0.11734532,0.17401509,0.18037784,0.11684836,-0.0010877384,0.012954861],[0.015120503,-0.07296777,-0.087681636,0.051941607,0.0540718,0.021412663,-0.08405823,-0.029368795,-0.17577168,-0.21132663],[0.10094702,0.13693786,0.030201001,0.031175932,-0.03937201,0.07520398,-0.037629157,0.11108588,0.12251022,-0.16573977],[0.058497626,-0.0065673566,-0.15164044,0.08198092,0.050856944,0.05451517,-0.033276714,-0.23267736,-0.25866085,-0.0061544804],[-0.16519426,-0.12183426,0.068091705,-0.0800091,0.062074125,0.015774641,0.04848373,0.09639816,-0.013071986,0.100558035],[0.02182308,0.1281492,-0.0795454,-0.03810746,-0.13961366,0.18160594,-0.015430387,0.0588637,-0.01604441,-0.06509371],[-0.022544438,-0.0506619,0.092156194,0.12309922,0.06475172,-0.023198945,0.0011620602,0.029704247,0.07337617,0.16504131],[-0.137033,-0.049254,-0.048859954,-0.20287637,-0.012496182,-0.047581695,0.10371022,0.09793909,0.041100673,0.17638385]]}]}},{"fitness":0,"neuralnetwork":{"inputLayer":{"biases":[0.0,0.0,0.0,0.0,0.0,0.0,0.0,0.0,0.0,0.0,0.0,0.0,0.0,0.0,0.0,0.0,0.0,0.0,0.0,0.0],"values":[0.0,0.0,0.0,0.0,0.0,0.0,0.0,0.0,0.0,0.0,0.0,0.0,0.0,0.0,0.0,0.0,0.0,0.0,0.0,0.0]},"layers":[{"biases":[0.10208801,0.08001531,0.064689234,-0.14654332,-0.06624793,-0.031069836,0.08106434,0.038573485,-0.047241833,0.0048059537],"values":[0.0,0.0,0.0,0.0,0.0,0.0,0.0,0.0,0.0,0.0],"inputWeights":[[-0.024967263,0.03808651,-0.21616672,0.08319047,-0.04948776,0.06642,-0.14362031,-0.022305593,0.12555577,-0.0218485,-0.27230546,0.09677802,0.090060726,-0.1021466,-0.06236109,0.06767814,0.046480585,-0.05546113,-0.0063300543,0.19069995],[-0.033422843,-0.12098569,0.099791266,0.087689705,-0.115253896,-0.019928006,-0.048006162,0.03049826,-0.04655576,-0.020074278,-0.08784409,0.034987897,0.053631075,-0.017034465,-0.030788649,0.088168494,-0.008562511,-0.1742052,-0.036667984,-0.10010908],[-0.11387664,0.022176936,-0.0562482,-0.014483121,0.020379718,-0.05483561,-0.092661165,-0.08529393,0.16344371,-0.18171197,0.26482847,-0.00907834,0.041853283,-0.030940795,0.08142063,-0.20774366,-0.09128237,-0.16139686,0.15017186,0.14041893],[-0.10529132,0.030787049,-0.016220253,-0.19744807,0.0077494457,0.12682587,0.01865532,-0.016031012,-0.08027494,0.011566463,-0.015842818,-0.02472137,0.068601735,0.061669987,-0.20935479,-0.02642702,0.08273722,-0.044603072,0.093072996,-0.016906044],[0.082129344,0.020945644,0.1596088,-0.07430454,-0.02728413,0.12580983,0.02663886,0.10329653,0.06792367,0.0018426336,0.074880466,-0.03168025,-0.044963233,-0.0128717,-0.045078393,0.0030037633,0.14193836,0.088383935,-0.04372761,-0.06734356],[-0.0721318,-0.08614089,0.04800695,0.05385929,-0.08132407,0.0036149072,-0.018335331,0.054447223,-0.035345245,0.046060488,0.13555133,0.15221006,-0.0018091067,0.025939045,-0.095131084,0.050182544,0.044003855,0.024808735,-0.15834191,-0.031345893],[0.09318827,0.1250052,-0.0543163,0.16216508,-0.105882086,-0.10834868,0.05708967,0.08464021,0.03346589,0.0032280677,0.17874947,0.005426612,0.001826923,-0.059548482,-0.05975903,0.16526152,-0.096001975,-0.083219156,0.14970563,-0.010659643],[0.14189301,-0.051330734,-0.07743446,-0.104698606,0.112802595,0.031998284,0.0818346,-0.16291462,0.023532081,-0.16126174,0.1063561,0.12139344,0.036728494,0.07433869,0.05722249,-0.1451579,0.124695584,-0.1390658,0.05214562,0.061869096],[3.3186236E-4,0.08719397,-0.023178723,0.11077967,0.039836664,-0.077593744,-0.073993,-0.09845877,0.18338813,0.12833443,0.054321375,0.0554219,-0.08615775,0.15269458,-0.09629789,-0.12181326,-0.18459834,0.22183594,-0.10130165,-0.06715249],[0.16227892,0.03280819,-0.019966178,0.022555806,0.069084406,0.09039137,-0.21974775,-0.011687626,-0.27470553,0.021098053,0.071413875,-0.13706702,0.05836933,-0.021009056,-0.085624754,0.020027334,0.1164347,0.051635154,0.06784212,-0.055039242],[-0.14887595,0.010875822,-0.11758743,-0.17493312,0.019183261,-0.06566655,0.11174311,0.08041018,0.017166572,-0.04486672,0.00332691,0.12753281,0.024461072,0.13278289,-0.09049333,0.14208993,-0.033529475,-0.14362746,-0.01761617,0.1277499],[-0.0391654,-0.07887795,0.10261439,0.018474378,0.072142124,-0.042323485,0.12006996,0.20075396,-0.085836835,0.049806,0.11142247,-0.06277393,0.1700284,0.12324901,0.074872464,0.03577238,0.018986292,-0.07575994,0.09800596,-0.08078419],[0.17935663,0.08432444,0.018173315,0.0033672543,-0.04447176,0.032728836,0.029398188,0.0018297718,0.054668803,0.10602048,0.12374693,-0.06997021,0.07664778,0.048052587,-0.119028896,-0.09417407,-0.22178422,0.0013593056,-0.050630208,-0.05215946],[-0.03891077,-0.25101113,0.013896308,0.057228122,0.023039944,0.082212396,0.061087757,0.024217818,0.15900894,0.22759089,-0.086619586,-0.055566885,0.07211628,-0.0028035608,-0.045094933,-0.010776063,0.22406243,0.0149867665,-0.056727413,-0.05761717],[0.13569283,-0.129221,0.07622591,0.017864835,0.086614184,0.0018986922,-0.09343302,-0.09229936,0.074882716,0.14036354,-0.0764494,0.073950544,0.03938038,0.018036185,0.038613226,0.04182771,-0.013095673,-0.063851655,-0.043632768,0.047948025],[0.022149716,0.12336314,-0.111022174,0.043047834,-0.056333583,0.025389541,0.19009863,-0.16970791,0.024236653,0.14089245,-0.11253173,0.03754192,-0.044061016,0.15515235,0.054325543,-0.06229977,-0.05580273,0.030968195,0.03096995,0.12853804],[0.11978383,-0.0032326684,0.051113367,0.23962663,0.03189315,0.074097194,0.0041311476,-0.11519799,-0.058834463,0.13376984,0.08400345,0.105925255,-0.11030473,-0.11246825,-0.10540364,0.15397099,-0.060743224,-0.09282394,-0.025423413,0.080789186],[-0.08390385,-0.18937811,-0.10048465,0.0046224897,0.09336958,-0.007035602,2.8775565E-4,0.087604746,0.03332931,-0.015707375,-0.06103111,-0.008663624,0.057720654,-0.16965158,-0.21071209,-0.016211063,0.16915317,-0.029992428,-0.10116356,0.10055886],[0.13519722,-0.018285086,0.17449886,-0.27211183,-0.1384995,0.14354901,-0.06586217,-0.11049241,0.022709435,-0.06838791,-0.21053524,-0.16888572,-0.12723382,0.2029339,-0.0070684035,0.08766973,-0.09031742,-0.0059124227,0.03517098,0.05405511],[0.1185747,-0.044155657,-0.012346101,0.024947846,0.109694995,-0.09697292,0.12876931,-0.048664454,0.048537605,-0.13644972,-0.055178467,0.010117285,-0.039488744,0.09640862,-0.012622225,0.06303651,-0.13287039,0.21082151,-0.10533815,0.08640427]]},{"biases":[0.05930942,-0.062569655,-0.11400784,0.10549787,0.050863955,0.08253197,-0.13544849,-0.076311246,-0.11030155,-0.1496869],"values":[0.0,0.0,0.0,0.0,0.0,0.0,0.0,0.0,0.0,0.0],"inputWeights":[[-0.014967043,0.087088995,-0.121233195,-0.09644953,0.043812785,0.027633233,0.11535289,0.043880228,0.0644369,-0.13371442],[-0.089061305,0.2146948,0.036054272,0.05653668,0.058249347,0.044588044,-0.013311941,-0.1272407,0.13487364,-0.10623434],[-0.10485624,0.16266909,0.004801475,0.010875806,0.1939574,0.12916405,-0.032856073,-0.22616595,0.05936664,0.10012624],[-0.08621996,0.16512586,-0.27846456,0.012138618,0.112667665,0.040943097,-6.680736E-4,0.08079777,0.12309598,-0.16106841],[0.05552172,0.05789613,0.07360646,-0.1406859,-0.096971154,0.049134847,-0.033499543,5.4478634E-4,-0.13447815,0.15182948],[-0.016388709,0.0683074,0.044841893,-0.011430002,-0.020852232,-0.022683058,-0.13108748,-0.01988309,0.096763976,0.07486773],[-0.08363753,0.1804194,-0.07687206,-0.082478076,0.14120224,0.03377165,-0.10943738,-0.016933877,-0.15257649,0.013889722],[3.860824E-4,0.037444822,0.075635925,-0.018365674,-0.07074027,0.17140834,0.01881835,-0.058276426,0.008336542,-0.05614822],[-0.0538238,-0.08410334,0.0841463,0.124157466,0.18460214,-0.037506804,0.071820095,-0.01680932,-0.15611456,0.10498387],[-0.008327219,0.08818464,0.01822815,-0.011560557,-0.14252363,0.06714269,-0.0045272605,0.19307645,0.041395906,0.18350446]]},{"biases":[-0.016616523],"values":[0.0],"inputWeights":[[-0.0013190216,0.15950988,-0.025480658,0.1616051,0.2999268,-0.21242902,0.040959064,-4.920825E-4,0.15234736,0.05896865],[-0.0701706,0.07774536,0.1616781,-0.029946577,0.12319746,0.34047037,-0.030747859,-0.041334536,0.09522679,0.21848771],[-0.06150948,-0.031481933,0.018430639,0.10446446,0.015595955,-0.0015229298,-0.04716381,-0.08005074,-0.13740654,0.049872175],[0.15620576,0.061228734,0.056232296,0.0029491608,0.116832346,-0.077654324,-0.13410136,0.11398139,-0.01905413,0.023701083],[-8.0980605E-4,-0.16945946,0.10228931,0.084336884,-0.15838654,0.11796751,-0.15669896,-0.13980721,0.017967595,-0.015786279],[-0.12643784,-0.07737449,-0.04585477,0.007759288,-0.0710136,0.041753855,-0.16168943,-0.2280788,0.22164851,0.03866416],[-0.17590205,0.058266364,0.08614113,-0.12886135,-0.12184913,0.10987754,0.0053289984,-0.04306946,-0.1427204,-0.055245493],[-0.12218437,-0.1205831,0.06585645,-0.07784762,-0.2570708,-0.05826752,0.02022468,0.002751421,0.015848821,0.07000267],[0.09498079,-0.16773294,-0.061075144,0.052067798,0.08227481,-0.006053582,0.07334452,0.013096635,0.032361574,-0.024960332],[0.04485609,-0.09098345,-0.05744038,0.015855765,0.022285784,0.17189465,-0.03673872,0.008698662,0.12592426,-0.12530611]]}]}},{"fitness":0,"neuralnetwork":{"inputLayer":{"biases":[0.0,0.0,0.0,0.0,0.0,0.0,0.0,0.0,0.0,0.0,0.0,0.0,0.0,0.0,0.0,0.0,0.0,0.0,0.0,0.0],"values":[0.0,0.0,0.0,0.0,0.0,0.0,0.0,0.0,0.0,0.0,0.0,0.0,0.0,0.0,0.0,0.0,0.0,0.0,0.0,0.0]},"layers":[{"biases":[-0.08720976,-0.05635459,0.00641906,-0.009466773,-0.05143972,0.048698563,0.116748825,-0.08221247,-0.07824369,-0.084456235],"values":[0.0,0.0,0.0,0.0,0.0,0.0,0.0,0.0,0.0,0.0],"inputWeights":[[0.2104452,-0.13188905,-0.14161503,-0.038955595,0.026474113,0.10257634,0.1509505,-0.010511002,0.17747422,0.028179593,-0.0019516095,0.150359,-0.009390664,-0.013582665,0.05454639,0.05876607,-0.09827241,0.023845548,0.05268737,-0.13514186],[0.004733444,0.09960006,-0.1888381,0.070856065,0.005436212,0.08338799,0.029108753,0.043275684,-0.035485428,-0.14748137,0.07462246,0.12763457,0.013108584,-0.044946566,-0.04723837,0.043829955,0.10310904,0.09536266,-0.14357142,0.20045336],[-0.011706428,-0.07773737,-0.0028839398,0.06157285,-0.0032121686,-0.0075741275,0.057687227,0.15462807,0.07838641,-0.03277244,-0.026451154,-0.006497286,-0.14484057,-0.030981472,0.12116903,-0.07248914,-0.031233858,0.07227675,0.07397744,0.047237605],[0.033603404,-0.0046971906,-0.07250643,0.00989741,0.12375689,-0.23721422,0.049746905,0.071605764,-0.031224828,0.08189283,0.04488328,-0.07159786,0.12964748,-0.05410889,0.028612189,0.043887686,0.28376454,0.1220967,0.23724362,0.18344848],[-0.02306673,0.02981928,0.10827837,0.0061541097,0.07583314,-0.096537314,-0.07252346,-0.092941225,-4.1150668E-4,0.0044320524,-0.12941861,-0.014159936,0.036383994,-0.051147807,-0.14360942,-0.051102553,0.027405187,-0.040107027,0.14920893,0.0070112995],[0.027440451,0.020559493,0.045541678,0.053815454,0.101157874,-0.112955876,-0.044152196,-0.13238026,-0.058634873,0.017366542,0.04832207,-0.06132312,-0.039916713,-0.030891309,-0.017143304,-0.10322638,-0.15692048,0.011865501,0.036652364,0.073814824],[0.039592497,-0.101442456,0.07467006,-0.28252977,0.10747596,0.05656076,-0.017409362,0.091804124,-0.23128676,0.23766093,0.06379904,0.061921205,0.012365367,-0.098222755,6.5152266E-4,0.079865105,0.21082634,5.0965E-4,-0.07423043,0.14730157],[-0.09445177,0.06202072,0.05920026,-0.14918792,-0.084802575,0.30052713,0.05124998,-0.0063388315,0.06691521,0.0358411,-0.20969643,-0.13051784,0.28703898,0.034867685,-0.06782854,-0.02697994,0.09229907,0.08337901,0.019109845,0.039843462],[-0.06280876,-0.13413022,-0.11217949,-0.092007495,0.014393146,0.05869071,-0.01324877,-0.1042698,-0.041706987,0.03587069,0.050444588,-0.05036459,0.12902762,0.14553438,0.07431176,-0.016176637,0.07574189,0.0065818164,-0.08972505,-0.07058512],[0.09654001,0.0254686,0.0708691,0.11057958,0.0076898667,0.052245714,-0.0034972676,0.008386793,-0.036689583,-0.03936781,-0.015173086,0.0037332717,0.03176147,-0.021992514,-0.06681913,0.057774078,0.1406845,0.027412359,-0.033193883,0.06382422],[0.06067201,0.011439934,-0.01730433,-0.045587696,0.10611463,-0.05530005,0.045562584,0.004174579,0.07741399,0.03499113,-0.022124927,-0.009399113,0.18429907,0.12120647,-0.12244941,0.15953282,-0.094765164,-0.17321743,-0.03268606,0.09930308],[0.14337164,-0.071532585,0.01953933,-0.05554356,-0.10640593,-0.031194812,0.1131144,-0.0059526362,3.308457E-4,0.019001042,-0.045953304,0.068155415,0.12321558,0.055520765,-0.0944595,0.08635786,0.04274876,0.041761678,-0.026297668,0.037200153],[0.020397536,0.028332885,0.06596053,-0.03752655,0.07375738,-0.12064099,0.07791757,-0.09939167,0.0075110593,0.15557386,0.053152528,0.091231085,0.154735,0.0491717,-0.0027363996,-0.0014113731,-0.072313175,0.0692993,-0.026013132,0.062490933],[0.044415705,-0.06265302,0.07765943,-0.025098572,0.13404387,0.09985027,0.22642238,-0.008433893,-0.01683417,0.015879285,0.108056284,-0.055711806,-0.053704437,0.043516006,-0.102173746,0.036006484,-0.04348692,0.053439677,-0.020043643,-0.0060611214],[-0.09163141,0.08666346,-0.02012506,0.07801571,-0.08520037,-0.14413992,-0.04509655,0.03380989,0.13848114,0.08648084,-0.06721058,0.05267643,0.03219415,-0.0047786315,0.12336713,0.021403909,0.010700595,-0.02271948,-0.19031018,0.09992777],[-0.15258665,-0.064592086,-0.13292445,0.09667783,0.14053039,0.017125117,0.052164182,0.17128327,0.03822662,-0.058906294,0.013948332,-0.12136662,0.1960284,4.521664E-4,-0.021004757,-0.2248386,0.009333595,-0.00807151,0.080254264,-0.106068455],[-0.02753832,-0.027599588,0.062490184,-0.0630336,-0.014482417,0.12027658,-0.014833138,-0.044084024,0.12159373,0.22490841,-0.077205524,-0.1046204,-0.05766231,0.044929367,0.16467048,-0.037631206,-0.06742291,-0.10124184,-0.04672243,-0.16815677],[0.08787976,0.020578964,0.1013325,-0.061201293,-0.047118522,0.20857103,0.13602161,0.037728027,0.004989307,0.056054346,-0.060983792,0.13119276,0.04825,-0.027215647,-0.09107807,0.026858045,0.057258446,-0.07367238,0.09683116,-0.074828394],[-0.062703736,0.023449613,-0.07228566,0.10912211,-0.03822013,0.08652483,0.106793806,0.026379397,-0.038235545,0.16491914,0.025913056,0.14219421,0.06357427,-0.05670886,0.17689498,0.016828716,0.056061324,-0.0021135055,-0.024844395,0.043235064],[0.04423283,0.123218484,-0.0953894,0.23716582,0.010284779,0.16185756,0.005720374,0.12682182,-0.20037857,0.09784716,0.20405535,0.029809877,0.06769592,-0.018038519,-0.15545802,0.19423535,-0.068641484,5.6027615E-4,-0.050691415,-0.012178334]]},{"biases":[0.046403598,0.033413306,0.024954302,-0.028553206,-0.0381917,0.029020926,-0.113224275,-0.10703755,0.06305729,0.079657786],"values":[0.0,0.0,0.0,0.0,0.0,0.0,0.0,0.0,0.0,0.0],"inputWeights":[[-0.017896287,-0.06804166,0.06734215,-0.022245781,-0.016584625,0.090682104,-0.015525823,0.1188787,-0.089064516,-0.013481559],[0.08654928,0.059455868,0.120023176,-0.06346958,0.054179475,-0.08318008,0.23975134,0.10188452,-0.023920985,-0.05337593],[-0.028423682,-0.21029589,-0.10478745,-0.12151148,-0.069212206,-0.032982554,-0.14097129,-0.14934641,0.05756146,-0.061965242],[0.17816111,0.13880473,-0.044365805,0.091349006,-0.036142867,0.09558658,-0.14402482,0.091750376,-0.11095125,-0.050483845],[-0.08393637,0.046557352,0.040704895,-0.11825265,0.16521993,0.053135157,0.09849975,-0.04061618,-0.09594402,0.06425975],[0.04944559,0.12937793,-0.09487172,-0.08708515,0.14213586,-0.0074284878,-0.21657382,-0.123867095,0.18264055,0.16783041],[-0.044554025,-0.07027365,-0.15011872,-0.27472407,-0.07859155,4.375884E-4,-0.09120373,5.21071E-4,-0.041396126,0.16064605],[-0.03185171,0.006311817,0.047132105,0.028146295,-0.20826168,-0.09601498,-0.057735812,0.030852927,0.06985841,-0.18829381],[0.17091525,0.029650886,0.15511878,-0.024996297,-0.05539652,-0.066765435,-0.019415699,-0.04941588,-0.049090248,-0.016914334],[-0.103968,0.09554819,0.053331383,0.05629327,0.026110368,-0.18435355,0.040889416,-0.026395522,-0.10436627,0.034433063]]},{"biases":[0.092008926],"values":[0.0],"inputWeights":[[-0.036579642,0.17073132,0.1559896,0.071324125,0.07256867,-0.016515793,0.07057975,-0.088294536,0.043102466,-0.12556557],[0.07627847,0.0605978,-0.0097878985,-0.15577629,0.049637582,-0.01309422,-0.011232558,0.074533515,-0.08846255,0.0238082],[-0.007937746,0.08234074,-0.03904664,0.049901202,0.07126478,-0.15186459,-0.03524746,0.09517113,0.042860452,-0.030034631],[0.21756859,-0.13310893,-0.15402909,0.009984287,-0.047605127,0.007964008,-0.07234296,-0.018046645,0.01360887,-0.20188326],[-0.09867105,0.13218991,-0.014570282,-0.07107929,0.24909618,-0.078315064,0.18683635,0.13188331,-0.10751852,-0.023904318],[0.05800243,8.1515627E-4,-0.06876513,0.01352402,0.044150926,0.20025206,0.13711658,-0.013406716,-0.014037212,0.004139254],[-0.011113502,-0.061756115,0.020206284,-0.06927168,0.08518327,0.077098,0.19238625,-0.08022947,-0.0027712318,-0.0026282237],[0.07755588,0.052708447,-0.1167226,-0.13834952,0.071826234,0.022408077,0.12629515,-0.1666914,0.12645568,-0.15374102],[-0.011212216,-0.08126284,0.08541861,-0.04421562,0.08987284,-0.2851825,0.11980354,0.13854852,-0.092749625,0.14275569],[0.04833958,0.06608287,-3.796697E-4,-0.12532513,-0.16945095,-0.03422552,-0.06603274,0.037844945,0.02761288,-0.06936381]]}]}},{"fitness":0,"neuralnetwork":{"inputLayer":{"biases":[0.0,0.0,0.0,0.0,0.0,0.0,0.0,0.0,0.0,0.0,0.0,0.0,0.0,0.0,0.0,0.0,0.0,0.0,0.0,0.0],"values":[0.0,0.0,0.0,0.0,0.0,0.0,0.0,0.0,0.0,0.0,0.0,0.0,0.0,0.0,0.0,0.0,0.0,0.0,0.0,0.0]},"layers":[{"biases":[-0.056110896,-0.04168605,0.13541512,0.046475936,0.0032487349,-0.10678856,-0.120111056,-0.049714565,0.09071547,0.08530045],"values":[0.0,0.0,0.0,0.0,0.0,0.0,0.0,0.0,0.0,0.0],"inputWeights":[[0.0313356,0.037189692,-0.042831868,-0.07353948,-0.09377224,0.19689669,0.009894239,-0.13929294,0.022485124,-0.107046105,-0.07553087,-0.03229952,-0.1571895,0.05513656,0.0894022,0.07785741,0.24600695,0.03463483,0.21699978,-0.043588124],[0.115731314,0.13838348,-0.05837206,0.029611854,0.005050127,0.162735,0.0370047,-0.16215947,0.056089394,-0.021471554,0.001906636,-0.016518475,-0.009877482,-0.14188156,-0.07674411,-0.038455933,0.055265643,0.076735966,0.1091425,-0.14196087],[0.056543272,0.10012963,-0.12338822,0.008404615,0.04981729,-0.037568815,0.036295127,-0.01602983,-0.0835813,0.13219,-0.020450767,0.080636606,0.06050245,0.07095819,0.12583688,0.11028512,0.035497576,0.07707611,-0.19773361,-0.15172555],[0.0929426,0.032070283,0.016982,0.031317536,0.024253782,0.05838974,-0.05683883,-0.033911597,-0.035373263,-0.0595881,-0.1137828,-0.029455159,-0.12264991,-0.05602995,-0.041068457,-0.12304023,0.12633488,0.107083395,-0.18819156,0.19510679],[0.01111453,-0.012089286,-0.022206442,-0.18220818,-0.078995235,0.13024397,0.001760046,0.02763391,0.04450361,-0.14341325,0.09573017,-0.11405802,-0.042055782,0.1773613,-0.18052532,-0.017479366,0.029614944,-0.06643715,-0.1581115,0.036103338],[-0.03371282,-0.008127371,0.1208222,0.036713548,-0.0011182085,0.021342894,-0.10596977,0.06219968,0.056924533,-0.035246484,-0.022612944,-0.050829343,-0.07514303,-0.024890983,0.23695022,-0.008658129,0.104844525,-0.0016541379,0.05401231,-0.10969484],[-0.06347606,-0.03290826,0.031347074,-0.08694461,0.1815511,-0.037812017,-0.230076,-0.041932326,-0.19214348,-0.12615283,-0.05799195,-0.12832305,0.0023264193,-0.07330244,0.13107239,0.036501653,-0.054238126,0.14201632,0.043729614,-0.10735762],[0.042546395,-0.03494805,0.10074727,-0.08122981,-0.018097505,-0.033845678,0.051894654,-0.013717274,0.09897843,-0.005926006,-0.062116653,0.01631235,0.044172212,-0.06349697,0.04887497,-0.082054615,-0.06501442,0.051282376,0.08448622,0.09511313],[-0.072362624,-0.052399542,0.027768744,0.108701766,-0.030859469,-0.049178082,-0.013525259,0.03695638,0.090769455,-0.18791167,0.23452143,0.029593414,0.051904507,-0.045615282,0.18439151,-0.09238687,-0.12150381,0.024656214,0.05134509,-0.16885358],[-0.021499697,-0.043991562,0.06719951,0.21985886,0.031238353,-0.17175171,-0.005459124,0.025391584,-0.1290525,-0.05103716,-0.096844696,-0.09211131,0.13577245,-0.060287178,-0.04127019,-0.1879462,-0.15453973,-0.037436046,0.12324003,-0.0073628114],[0.074154526,-0.13072327,0.059333045,0.096270345,0.13421316,0.028543131,0.04701856,-0.004480315,-0.0050253295,0.03475848,0.007959743,-0.09285989,0.12313049,0.100464,-0.01861932,0.083531424,-0.058203746,-0.08269154,-0.05741217,-0.01375842],[0.02258091,-0.19536862,-0.026545824,-0.00976263,0.03661789,0.038534183,-0.04792397,-0.08721966,-0.13924743,-0.07655986,-0.0839333,-0.20591192,-0.045235317,0.16985339,0.029274398,-0.17166269,-0.11669205,-0.018496603,-0.048652433,-0.29256812],[0.079364404,0.16045555,0.027927767,0.071951896,-0.11066505,-0.051908962,0.012320633,-0.033469897,-0.26671273,0.042635616,0.113838494,0.08114797,-0.10584683,0.030352354,0.044581108,-0.045693293,-0.028447721,-0.05987304,-0.003067627,0.017721198],[-0.11721101,-0.0873537,0.24417211,-0.10749807,-0.09018204,-0.11916628,-0.030906904,-0.23183672,0.2152365,0.08253237,-0.16163698,0.0635596,-0.07183105,-0.14239366,-0.0111251045,0.017898925,0.09240769,-0.13739076,0.001274422,-0.028156558],[0.050523467,-0.027500907,-0.11759893,0.13593823,-0.11001875,0.019508962,-0.10772458,0.13467395,0.029871844,-0.085952386,0.044145074,0.19600508,-0.139683,-0.023312211,-0.037180044,-0.014547152,0.029554639,0.1778237,0.18397927,-0.006900558],[-0.009458205,-0.03894877,-0.025730884,0.045444306,0.19703884,0.1664455,0.11494926,0.1501051,-0.077935636,-0.062820196,0.026572872,-0.056696992,0.12247196,0.18659621,-0.20738429,0.03660229,-0.0021941247,-0.09239803,-0.17600016,0.06279062],[-0.1302982,0.07848871,-0.023866272,0.104158595,0.13118584,0.09566701,-0.0552519,0.083958454,-0.13333865,0.16544937,-0.08584153,-0.033477113,-0.06609264,0.14959621,0.05963121,-0.010558059,-0.03429292,0.08476364,0.062488772,-0.041352443],[0.061864972,0.08533274,-0.04339247,0.044626188,0.009298742,0.14266838,-0.07031765,0.005826539,0.12440726,-0.069785014,0.13521975,-0.07361317,0.1943335,-0.078865714,-0.074216954,-0.0014498387,4.4301548E-4,-0.017794527,0.05156918,0.07394673],[-0.021161057,-0.017559092,-0.1386725,0.021817317,-0.043111507,-0.02009253,0.03416793,-0.24620104,0.08452518,0.07602677,0.1725386,0.026020149,0.07521192,0.118990466,0.1114586,-0.18229568,0.14532414,0.037801057,0.032311615,-0.016719328],[0.16183595,0.05499606,-0.07420818,-0.04118856,0.113272965,-0.07378276,-0.077620044,-0.021622278,-0.08530102,0.01599336,-0.23207511,-0.15835816,-0.10178428,-0.048100587,-0.18714103,0.0729391,0.06495118,-0.0042112176,-0.056116264,-0.13060991]]},{"biases":[0.003418096,-0.113234244,0.14486519,0.051649228,0.060231525,-0.09057037,-0.0460122,0.020783326,-0.21116582,-0.13257338],"values":[0.0,0.0,0.0,0.0,0.0,0.0,0.0,0.0,0.0,0.0],"inputWeights":[[0.08577111,0.0060003623,-0.14591385,-0.25394985,-0.02254882,0.12733184,-0.15022193,0.011544699,0.005897642,0.13612524],[-0.0041812304,0.104655705,-0.15667452,-0.04830547,0.032438107,-0.13628863,-0.19493945,0.092006825,0.06975298,0.1286509],[0.19244854,0.13221325,0.040527128,0.07087319,0.16383468,-0.056547593,-0.06316891,0.14806437,-0.050712444,0.067148425],[-0.13738325,0.026296144,0.071175285,0.050444808,-0.06310011,-0.02595381,-0.05672417,-0.035384536,-0.03959713,-0.22742337],[0.13950069,0.0769873,-0.14570029,0.2242741,0.021209424,0.079440825,0.06395183,-0.065286666,0.12566234,0.017865961],[0.057966888,0.028314764,-0.055187352,0.13897495,0.077302046,0.13315246,0.011891771,0.076123536,0.11223018,-0.012383105],[-0.15552032,-0.13161372,-0.1565643,-0.061920594,0.08604404,0.059604414,-0.16884314,0.04058246,0.21999161,-0.03909224],[-0.05086055,-0.15282293,-0.06383551,0.1996223,-0.027171986,0.031770945,0.048559677,-0.18463162,-0.0513459,-0.04242725],[0.0015094749,-0.13565686,-0.029274832,-0.029475542,-0.15971272,-0.03080979,0.08096345,0.06956562,-0.16570888,-0.1294745],[-0.018089322,-0.13095793,-0.15672128,-0.015964506,0.11951397,-0.23775733,0.024064658,0.12169522,0.10658159,0.07471182]]},{"biases":[0.021965671],"values":[0.0],"inputWeights":[[0.2518709,0.09671553,0.0835982,-0.07048857,-0.03240692,-0.021415392,0.09523171,0.064902484,0.027108464,-0.061478704],[-0.0073836623,-0.024555475,-0.15755178,0.1874089,0.18928435,-0.023987917,-0.020401033,0.10449033,-0.09274185,-0.00950716],[-0.19654007,-0.16734026,0.026996955,0.03543694,0.10564336,0.044465177,-0.0660017,0.032575574,0.0298034,-0.07366724],[-0.4120479,0.1271326,0.010937113,-0.103264585,0.056536,0.22921164,0.06345118,0.004123157,3.9066444E-4,-0.043437783],[-0.01937977,0.21809678,0.060395245,-0.20255624,0.13388285,0.08808526,0.079699315,0.19142322,0.098205425,-0.0671048],[0.18264833,-0.06750373,0.1165908,-0.006846636,-0.13200301,-0.095794305,0.040881503,-0.1588233,-0.0043998095,0.29352576],[-0.010816489,0.18750185,-0.16422333,-0.077910036,0.013839393,-0.05383624,0.10693519,0.121772245,-0.0321095,0.111816294],[-0.0065269596,-0.05372692,-0.026286315,-0.13538052,-0.05405235,-0.072829664,-0.15759611,0.11200311,0.012126826,0.122931324],[-0.06555527,0.028326107,-0.13764022,0.032513887,0.14499214,0.07846915,0.0833846,-0.04929305,0.02447879,0.042691134],[-0.04724219,0.05162082,0.0049130744,0.1335651,-0.01998431,-0.085463695,-0.07818431,0.1279375,-0.020234382,0.009282987]]}]}},{"fitness":0,"neuralnetwork":{"inputLayer":{"biases":[0.0,0.0,0.0,0.0,0.0,0.0,0.0,0.0,0.0,0.0,0.0,0.0,0.0,0.0,0.0,0.0,0.0,0.0,0.0,0.0],"values":[0.0,0.0,0.0,0.0,0.0,0.0,0.0,0.0,0.0,0.0,0.0,0.0,0.0,0.0,0.0,0.0,0.0,0.0,0.0,0.0]},"layers":[{"biases":[-0.045783374,0.009002295,0.19606169,-0.26462662,0.15139334,-0.020311302,0.15621334,-9.458466E-4,-0.05069349,0.09688301],"values":[0.0,0.0,0.0,0.0,0.0,0.0,0.0,0.0,0.0,0.0],"inputWeights":[[-0.12555186,0.009288186,0.14930664,0.025357215,0.12437458,0.015908647,0.025971107,-0.07733196,0.087669455,0.13317396,0.09363838,-0.29745087,-0.03127841,-0.16529849,0.009899987,-0.091063224,0.14719845,-0.112364076,0.1132691,-0.1602056],[0.063001044,-0.0852088,-0.15338777,0.018981915,0.035407815,-0.040428963,-0.13306151,0.061279822,0.18944204,-0.0456868,0.007305435,0.069785744,0.03175651,0.06450918,-0.035946857,0.029909734,0.0694116,0.0060909293,0.06864375,-0.04784289],[-0.084047884,0.0038065235,-0.01208667,-0.07555467,0.0845023,-0.033220366,0.07452606,-0.047895666,0.04054128,-0.050379258,-0.026732197,-0.0412548,0.07881562,-0.034396525,0.26350912,-0.02831628,-0.1103588,0.11757764,-0.094529666,-0.21594708],[0.013480291,0.077556916,-0.066166826,0.0252748,-0.12607725,-0.13013278,0.1879292,0.019016685,0.017266164,0.038887095,-0.07026975,0.014994312,0.1348254,-0.19591764,0.030847903,0.20176043,0.16227674,0.04236212,0.01739584,-0.03327686],[-0.038242362,-0.03128213,-0.025903024,-0.011350606,-0.14716235,0.08578793,0.16982459,-0.074448295,-0.20435883,0.05358018,0.02305428,0.022551196,-0.086429834,-0.036961894,-0.014533006,-0.04991654,-0.17085075,-0.15886931,0.016781358,-0.005718763],[0.034401372,-0.06845837,-0.05065462,-0.052831944,0.08460884,0.13990928,0.030784361,-0.096489765,-0.11529101,-0.124178715,-0.0274996,0.18753378,0.03775444,-0.056423135,0.05132041,0.18200684,-0.09286952,0.09211437,-0.017540727,-0.06318268],[-0.055203553,-0.04091982,-0.055761937,-0.007160929,-0.02273995,-0.009892286,-0.030423842,-0.03335827,0.1459233,-0.025971636,-0.06464891,0.07790912,-0.039811186,-0.023438066,0.1286435,0.013043903,-0.06834968,0.12942323,0.09996086,0.036901865],[-0.110165425,0.044610277,0.08715253,-0.05989614,0.14401215,0.025236502,-0.202711,0.030943848,0.07966141,-0.052727416,-0.04931349,-0.026697084,0.022729099,0.03316911,-0.06848708,-0.029980285,-0.11052634,0.09407215,4.9841452E-5,-0.069630936],[-0.15796839,-0.07253244,0.034215387,0.06694759,-0.05843892,0.04386558,0.04512257,0.020059494,0.054642208,0.10268953,0.03882757,-0.054929897,-0.13966668,0.038484063,-0.08271614,-0.010880986,-0.12134396,0.06314073,0.0068111815,0.040994912],[0.06925031,0.02651456,0.06831465,0.14369407,0.07762558,-0.035691805,-0.16462576,-0.104237445,-0.06339455,-0.036140323,0.013697167,-0.11206483,-0.062439825,-0.08834768,0.11391323,0.11716531,0.07077094,-0.055074695,-0.25719848,-0.02576596],[-0.03161689,0.0083928,-0.18348292,0.07075673,0.059399445,-0.045729954,0.027086811,-0.0025592183,-0.013302663,-0.022745535,0.014306479,0.06336744,-0.12295408,0.021420138,0.031556476,-0.018497523,-0.008428668,0.104749545,-0.06861363,-0.05906093],[-0.0027248922,0.1911111,-0.012407191,0.017635513,0.13241121,0.1541735,0.13542433,0.070205376,-0.10263892,0.097844616,-0.060590703,-0.101273045,0.043466598,-0.08487444,0.08078587,0.175014,-0.12937559,0.123014204,0.14503439,-0.027603934],[0.021825226,-0.10134853,-0.059055332,-0.015089013,-0.10539226,0.037369292,0.09202389,0.04832242,-0.049001794,-0.050717656,0.08922723,-0.043298528,-0.014728757,-0.06417304,0.107126884,-0.004618822,0.07726732,0.08168588,0.077705115,0.14261219],[-0.13071765,-0.01743724,0.0027285963,-0.12530322,-0.08181212,-0.14570296,-0.14232048,-0.01356911,-0.12746009,0.12472622,-0.05656994,0.012630764,-0.07386128,0.069165245,-0.05841858,0.030203627,0.10494097,-0.08280468,0.05429758,0.15488546],[-0.035988614,0.042531487,0.03054982,-0.15818587,0.07351154,0.01076541,-0.08795213,0.09471637,-0.027602842,-0.03145451,-0.15425429,-0.088841826,0.0043394933,0.096355766,0.1843919,0.08483839,-0.14798819,-0.102945246,0.06812609,0.051934805],[0.012461064,0.1957094,0.03765983,-0.08257409,0.017433144,0.09771824,-0.039175127,0.17087503,0.048573337,0.10847113,0.2806658,-0.13587981,0.119626194,0.021563277,0.025013866,0.100358166,0.0049207956,-0.015224521,0.12489207,-0.15466928],[-0.11613951,-0.07179476,-0.010057472,-0.042071506,0.05030516,-0.08128916,0.08380514,-0.052729413,-0.054719646,-0.054660287,-0.024093747,-0.0540284,-0.11021537,0.122203186,0.098554395,0.04980129,-0.19175623,0.086125515,0.04415686,-0.1280974],[0.02590009,0.040811412,-0.0029775384,-0.055280615,-0.10454174,-0.016287511,-0.33660442,0.12348331,0.08126166,0.040186793,0.050650924,-0.2534667,0.065578364,-0.112412006,0.08613013,-0.0073751207,-0.0067328257,-0.036956437,0.037143152,0.08697602],[-0.056224667,0.032777138,-0.031507753,0.113644674,0.042164877,0.16472185,-0.10055118,-0.061789405,0.14639513,0.016653491,0.013481194,-0.019611433,-0.12134399,-0.08834966,0.04018496,0.18301184,0.041234724,-0.06527815,-0.085784264,0.15140979],[-0.09820855,0.021047646,0.048844673,0.040195294,0.10361868,-0.02467953,0.0034796258,0.069782995,0.017686745,0.08100847,-0.028581677,-0.065005004,-0.027043687,0.072029546,0.2771162,-0.07418107,0.06113346,0.11653194,-0.15743528,-0.026757797]]},{"biases":[-0.07534363,0.07430702,-0.035005193,-0.084158875,0.009008523,-0.032850612,-0.1483674,-0.053728525,0.04077638,-0.09442462],"values":[0.0,0.0,0.0,0.0,0.0,0.0,0.0,0.0,0.0,0.0],"inputWeights":[[0.048305146,0.049815733,0.06834634,0.13331519,0.06447562,0.1697666,0.013990049,0.13775927,0.06833031,-0.019242447],[0.09638412,-0.03206655,-0.015218682,0.15060656,-0.04147051,0.084149264,-0.046010427,-0.2043819,0.0790158,0.030314475],[-0.13703087,-0.12646993,0.006391983,0.036038086,0.07456359,-0.08404475,0.17700231,0.0068276725,-0.07527074,-0.040676802],[0.056844898,0.16999424,-0.16375038,0.1550408,0.06398808,-0.06800572,-0.16500168,0.015737256,0.056390792,-0.017287198],[-0.033129644,-0.020104647,-9.2321733E-4,0.08072866,-0.05308611,-0.052410677,-0.1509695,0.058388393,-0.01777493,0.03333756],[0.017880306,-0.04157806,-0.0034713985,0.05942912,0.14070994,-0.07586636,0.06830998,0.048420407,-0.08094445,0.012793492],[0.05008595,0.030039921,-0.06411009,0.026395645,-0.05612411,-0.12081266,0.044515107,-0.23140849,0.17026138,-0.06209365],[0.12761243,-0.009264261,-0.0075186524,-0.081035465,0.12711789,-0.016136417,-0.043480515,-0.11633161,0.028708467,0.07163005],[-0.11961331,0.11224765,-0.04448653,-0.09653758,0.12048894,-0.08493408,-0.055663977,0.15553734,0.12708546,-0.21806413],[-0.016672442,-0.054844406,0.09519501,0.011831123,0.063172914,0.066980794,-0.1777964,0.040987093,-0.1835794,-0.11272917]]},{"biases":[-0.078630954],"values":[0.0],"inputWeights":[[0.0027215774,0.08831487,0.14848064,-0.057032663,0.07207619,0.049048867,0.21429762,0.19408044,-0.037634075,0.09070652],[0.01691591,-0.095971465,0.10749307,-0.014406187,0.079569235,0.08316317,-0.11146272,-0.30323723,-0.09929557,-0.06933528],[0.0020468824,-0.046615124,-0.021529399,-0.06048055,0.23742925,0.018237364,0.08783474,0.1949057,0.02149786,-0.04427559],[-0.092319705,0.049489506,-0.08960532,-0.01799084,0.15840012,0.026946606,-0.004133697,-0.042277582,0.10784723,-0.15021141],[0.08937074,-0.01094157,-0.010474042,-0.058585797,0.0020608057,-0.032456502,-0.16160902,0.18014014,-0.14354384,0.042400703],[-0.031019421,0.049034137,0.062707394,-0.036639,0.0071715885,0.16394491,-0.17846252,-0.0900245,-0.036118213,-0.035238616],[-0.028895231,0.17394772,0.038773,0.06512324,-0.1261211,0.010405014,-0.012585583,-0.14018674,-0.003744469,0.034824796],[-0.027487943,-0.102424845,0.008030464,-0.022301894,0.11152791,-0.049570326,-0.13403262,0.028745297,-0.18486354,-0.045444783],[0.10478184,0.0795749,0.14295526,-0.12139691,-0.19475304,-0.13924098,-0.040132508,0.10900432,0.014804933,-0.039754402],[0.13800581,0.121941246,0.17457147,0.10484788,-0.06715308,0.13709053,-0.070977055,-0.026672004,-0.1970344,-0.12772724]]}]}},{"fitness":0,"neuralnetwork":{"inputLayer":{"biases":[0.0,0.0,0.0,0.0,0.0,0.0,0.0,0.0,0.0,0.0,0.0,0.0,0.0,0.0,0.0,0.0,0.0,0.0,0.0,0.0],"values":[0.0,0.0,0.0,0.0,0.0,0.0,0.0,0.0,0.0,0.0,0.0,0.0,0.0,0.0,0.0,0.0,0.0,0.0,0.0,0.0]},"layers":[{"biases":[0.05148457,0.15028349,-0.08608519,0.124145046,-0.068423726,-0.049884133,-0.091522254,-0.02062772,-0.02945231,0.22010222],"values":[0.0,0.0,0.0,0.0,0.0,0.0,0.0,0.0,0.0,0.0],"inputWeights":[[0.05007058,0.005097282,-0.003152688,0.15405402,-0.00435035,0.09736647,0.26834574,0.090911016,0.16661511,0.112376735,0.054096367,0.051725563,-0.017979458,-0.16811024,0.0072956895,-0.054646917,0.036878046,0.043541472,-0.056948453,-0.1310838],[-0.15445478,-5.0335214E-4,-0.024671433,-0.033540074,-0.08654725,0.03657853,0.1322189,-0.07036133,-0.035938583,-0.06374129,-0.003628007,-0.14784609,-0.0010298593,0.09468296,0.11441115,0.15549307,-0.116788656,-0.18233088,0.19742541,-0.05824968],[-0.033202138,-0.07241781,0.02926037,0.07634957,-0.13119747,-0.011958798,-0.09862586,-0.050754298,-0.012019881,0.13501881,-0.032204356,0.30023733,0.010196126,-0.112413965,0.079461046,-0.0707253,0.014801402,-0.1653508,-0.056932617,0.026629658],[-0.108159766,-0.0062418417,0.18354896,-0.05677334,0.30601764,-0.11804637,0.07484844,0.21552442,0.01048431,-0.071716554,-0.12636866,-0.1197933,0.1952762,0.10367483,0.05202082,0.10454105,0.022819927,-0.0591519,-0.03676208,-0.018511483],[-0.21422395,0.12305146,0.116991736,0.0023320185,-0.27381423,0.03709572,0.09355364,0.040870383,-0.09412916,0.037265744,-0.046199534,-0.015581263,-0.08718435,-0.034589883,0.0660038,0.07677729,0.10174312,-0.22477311,0.12517881,0.05614349],[0.09143198,-0.22564279,-0.0032564842,0.016405044,-0.09620873,0.11123007,0.049150605,0.006642262,-0.04562982,0.15467502,-0.06276566,-0.04330467,-0.17664911,0.013828834,-0.0909216,-0.01232647,0.007406494,-8.056466E-4,-0.01420969,-0.0109501155],[0.06768455,-0.10661245,-0.0071892715,-0.111863114,0.070348226,0.2145853,0.018036677,0.063822955,-0.19751604,0.017391765,-0.029626176,0.115869805,0.08784018,0.089518376,-0.02797232,0.13175984,0.04576515,0.026918584,-0.16026706,0.007308432],[0.0015747703,-0.064963445,0.03864586,-0.006629139,-0.13731995,0.17860398,0.029890968,-0.035992727,0.17871588,-0.00396678,-0.029570157,0.119160295,0.020864544,-0.057730105,0.052580718,-0.08961618,-0.16270368,0.084764995,-0.028934726,-0.07096431],[-0.039579302,0.0900607,-0.09461269,-0.14633949,0.059256326,-0.14024551,0.019470524,-0.124448866,0.048272043,0.026120182,0.047007125,0.05654707,0.014615589,-0.083115846,0.080564246,-0.07396569,0.007243398,0.16577543,-0.0461517,-0.009634292],[-0.019328061,-0.12222553,7.34307E-4,-0.038901404,-0.055609353,0.15274064,-0.107489936,0.2161117,0.11274719,0.021992475,0.054460306,-0.043259647,-0.11685691,0.113911614,0.18222311,0.05873771,-0.10448044,0.0467487,0.12819456,0.05627428],[-0.08730152,0.19656053,0.041107632,0.055225067,0.08543121,-0.019967373,0.05919383,-0.0012979548,-0.09794933,0.17779297,-0.0033571094,0.10977554,-0.19182457,-0.03827736,0.09028738,-0.023118215,-0.013270577,-0.11628597,-0.2928662,0.009626944],[0.073401146,0.054607764,-0.023081904,0.036092322,0.07256184,0.040616833,-0.058552794,-0.014714182,-0.018776169,9.77602E-4,0.062843546,-0.08983613,-0.08196264,0.08693504,-0.019087443,0.069569536,-0.13410987,-0.087600686,0.13949262,0.14473146],[-0.03359504,-0.0012993752,-0.05769328,0.0157264,-0.008431657,0.067293815,0.041052714,-0.07364541,-0.19142823,-0.020555,-0.17322825,0.035540737,-0.0363326,0.0077365544,-0.17530622,0.06754479,-0.02478086,-0.025117228,-0.08658958,-0.04373118],[0.13797158,0.065757535,-0.14840129,-0.03415186,0.07521187,0.028335266,0.14025138,0.101436324,0.07968453,0.14909837,-0.09157661,0.11195554,0.051146474,-0.09485492,0.117910765,-0.0057332027,-0.07579225,0.15269478,0.04612495,0.12060923],[0.14572853,-0.034244433,0.05022769,0.029048173,-0.002739892,-0.0050719725,-0.11755197,0.14525868,0.06292149,0.091870956,0.030914215,0.008235531,-0.10627507,0.09251605,0.114495225,-0.091986254,0.08229761,0.13394642,0.010267684,0.017474765],[0.080107525,-0.041750476,-0.0021375883,0.08624176,0.046700284,0.06237937,0.0061242585,0.09097462,0.15436473,0.026600223,-0.092487395,-0.30944145,-0.039136495,0.10356674,0.0030190991,-0.1091499,-0.017415954,0.04019074,0.10984478,-0.026002284],[0.060111612,0.060441315,-0.063305825,-0.09495531,-0.078892425,0.030435456,-0.07132981,-0.14992113,0.010280556,0.08657112,-0.0048541897,-0.11989004,0.019787911,0.15682267,0.014070065,0.0055869375,-0.14849791,0.1470891,3.9452818E-4,0.03222631],[-0.09513406,-0.08120917,0.0039548287,0.057586566,-0.14359361,-0.01956665,-0.058311693,0.010685061,-0.02925729,0.02036967,0.035976056,0.07317811,0.12743683,0.20942594,-0.028670054,-0.051856924,0.07313446,0.062538095,-0.108174644,0.005438296],[-0.07720908,0.02105006,-0.028926365,-0.03391521,0.083286226,-0.11205633,-0.008596073,-0.042964518,-0.091873065,0.35982156,0.10485116,2.52551E-4,0.003783745,-0.018279828,-0.05421018,0.1342519,0.08705788,0.007840345,-0.009661962,0.13839875],[-0.118238695,0.2010459,0.06687741,0.036366835,-0.024378028,0.04826162,-0.20257212,-0.083934195,0.056181833,-0.112603635,-0.07638839,-0.10232456,0.107025735,-0.041741315,-0.12010243,-0.074774824,-0.031992424,-0.19444089,0.051233638,-0.015222362]]},{"biases":[-0.012437593,0.13171817,0.096451215,-0.11250471,0.0028891666,-0.06185247,-0.10402335,-0.12576587,0.060506716,-0.022522738],"values":[0.0,0.0,0.0,0.0,0.0,0.0,0.0,0.0,0.0,0.0],"inputWeights":[[0.020037223,-0.18590893,0.053896338,-0.009775926,0.09876205,-0.075725235,0.12963161,0.07548437,-0.0022187268,-0.068769336],[0.15719049,0.06971348,-0.072725125,-0.09426395,-0.057075523,0.10164594,-0.17418809,0.09814683,-0.009752342,-0.04917002],[-0.04531609,0.25339177,-0.2675279,-0.008825671,-0.07578816,-0.10777791,0.056411598,-0.15646204,0.28397155,0.058138546],[0.1988415,0.035732448,-0.12496199,0.070199065,-0.049824342,0.20743969,-0.006220867,0.057794083,-0.25596735,0.031249618],[0.20141622,0.02195762,0.15005265,-0.13190268,-0.044081938,0.14528956,0.0024923836,0.10249028,0.15869619,-0.17817837],[0.066760585,0.047808256,-0.03399821,-0.09393648,-0.12873659,-0.090268224,-0.080993325,0.104850926,0.122942835,-0.15570398],[0.01838596,-0.09083696,-0.075209066,0.0058567906,0.002199323,-0.09619677,-0.16213553,-0.14650188,-0.17176808,0.06654645],[0.15870816,-0.18584137,0.06398134,-0.042943206,-0.052402623,0.16023436,0.0059891753,-0.01422186,-0.11446865,-0.034427047],[0.041292418,0.07450119,-0.058135904,-0.049697172,0.15386596,0.18086602,0.2349131,0.033844765,0.06013739,0.015592988],[0.023139827,-0.15274553,-0.024791934,0.1648049,-0.061710056,0.09071582,0.034088664,-0.09612229,0.13160451,-0.0046946914]]},{"biases":[-0.11409355],"values":[0.0],"inputWeights":[[0.032796144,-0.10058315,0.050662342,-0.04955472,-0.12263367,-0.0011604031,0.08359254,-0.077682786,-0.009185764,0.07789358],[0.053551096,-0.031411655,0.055997528,0.076755695,-0.029159803,0.0020471981,-0.051464092,0.10502407,-0.049216066,-0.06292746],[-0.06088863,0.026123185,0.14465268,0.03182896,-0.003555112,-0.032745272,-0.06959188,0.071036816,0.05189503,0.18003751],[-0.047532465,-0.060619693,-0.025320876,0.13053685,-0.026772635,-0.13645722,-0.03164371,0.056161992,-0.087852895,-0.02415213],[-0.015423043,-0.24710925,0.08189306,-0.1616677,-0.08741525,0.06265028,0.026233695,0.08826323,0.11004428,0.011129896],[-0.04114882,0.014480084,0.072287075,-0.020381711,-0.1254735,-0.0011271408,-0.036575142,0.06202562,0.09849747,0.1276214],[-0.1268861,0.13753447,0.015424998,-0.03369374,-0.109960265,-0.19721526,-0.11925065,0.1338108,-0.07956046,-0.23286071],[-0.011676093,0.05730301,-0.12709357,0.1712756,0.05698693,-0.13628043,-0.038875688,-0.20072402,0.16119595,0.013104518],[-0.013167271,-0.068368874,-0.003901328,-0.016033122,0.03569069,-0.02476178,-0.019110562,0.015917556,-0.16504014,0.042137306],[-0.1286797,0.120481685,0.07787926,-0.06926245,-0.08329381,-3.4561014E-4,-0.06825784,0.13746564,-4.3578746E-4,0.059944395]]}]}},{"fitness":0,"neuralnetwork":{"inputLayer":{"biases":[0.0,0.0,0.0,0.0,0.0,0.0,0.0,0.0,0.0,0.0,0.0,0.0,0.0,0.0,0.0,0.0,0.0,0.0,0.0,0.0],"values":[0.0,0.0,0.0,0.0,0.0,0.0,0.0,0.0,0.0,0.0,0.0,0.0,0.0,0.0,0.0,0.0,0.0,0.0,0.0,0.0]},"layers":[{"biases":[0.032082833,0.03827876,0.010082854,-0.015813284,0.06178099,-0.09689522,-0.0788662,-0.12916881,0.072793946,-0.12073473],"values":[0.0,0.0,0.0,0.0,0.0,0.0,0.0,0.0,0.0,0.0],"inputWeights":[[0.014356153,0.08130383,-0.11877386,-0.0027668756,-0.0429475,-0.1376779,-0.1791356,0.03261239,0.08624505,0.060116313,-0.014061259,-0.095183425,-0.14868641,0.04971242,-0.09680552,0.075357035,-0.034619104,-0.14712638,0.108259484,0.055036023],[0.009987194,-0.049702864,-0.08455511,0.120521225,0.04165888,0.022095248,-0.07952147,-0.16865084,0.115776405,0.17101651,-0.01947971,0.0073505444,-0.022279425,0.0329682,-0.016785122,-0.074660644,0.07863595,-0.12752922,0.09417542,0.028462768],[0.10820773,-0.02128855,-0.009039344,0.065610446,0.15580016,-0.02301877,-0.0068115867,0.0012080022,-0.07513512,0.09490392,0.046216726,-0.12204475,0.07567299,0.04085912,0.10805265,0.04563743,0.013516494,-0.240331,-0.053260144,0.05762024],[0.052046165,0.04950767,0.0037250223,-0.13911854,0.06922771,0.11418868,-0.13203318,0.11597084,0.065669104,-0.03097758,0.1273399,0.088772684,-0.17252916,0.014774128,-0.1251351,-0.057722982,-0.032904346,-0.12712066,0.20451114,-0.05763962],[-0.04465868,0.06242951,0.013764592,0.18872713,-0.0016810003,0.09247419,0.041247196,0.0615007,-0.042751923,0.06293036,-0.066328876,-0.074875034,0.20445502,0.093470015,-0.11171453,0.0045892727,-0.035300612,-0.10606504,0.004636667,0.16679819],[-0.11363784,0.07919782,-0.074899174,0.053724714,-0.09078778,-0.10687552,0.049379148,0.062227942,-0.23337416,0.14905776,0.14757816,0.11227019,0.056455445,0.094944514,0.039281912,-0.0024916802,-0.09293452,-0.023793804,0.16736753,-0.089391194],[-0.020774292,0.05742301,0.19720854,-0.2180421,-0.089481905,-0.094765045,0.021545472,0.020127961,-0.113277964,0.04624618,-0.13124968,-0.024964917,0.039722476,-0.003069527,-0.04550993,-0.014958657,0.034371987,0.113831125,-0.12119877,-0.022930337],[-0.14512223,0.14716828,-0.08703478,-0.0066512586,0.035565045,-0.073148705,-0.05638114,-0.059955463,-0.01197963,0.035496302,0.1843467,-0.20121257,0.08926462,0.16060333,-0.112888806,-0.20865093,0.022612879,-0.15026759,0.0023472446,-0.029166244],[0.0823959,-0.021880992,0.16991666,-0.22596832,0.12007398,0.11058269,-0.04693464,-0.040921405,-0.010056156,0.17793241,0.09464787,-0.06857334,0.15756346,-0.14959192,-0.008550139,0.2464435,-0.06366844,2.2325778E-4,-0.030358763,-0.0851572],[-0.08526502,-0.27633464,0.14111832,-0.027416876,0.15095143,-0.06808977,-0.23584345,-0.026058752,-0.066297576,0.033970337,0.0010099194,-0.051782276,-0.104757935,-0.07992954,0.20928323,-0.11652209,-0.15657443,0.20062023,0.05172066,0.01003432],[-0.0816327,-0.10113672,-0.007984724,-0.06320523,0.0019983011,-0.03348927,0.090976276,0.09229599,-0.018704733,0.0066148834,0.06470062,-0.12834577,-0.05149811,-0.12423734,0.082151614,0.09473794,-0.2467799,0.12598619,0.055237453,-0.028480671],[0.079021074,0.059516046,0.072120935,0.002331381,0.032480344,-0.0581142,0.055155948,0.07000041,0.060018163,0.077707745,-0.07192506,0.13806349,0.13372791,0.08126417,-0.06943289,0.13765652,0.013394618,0.0059254966,0.060137004,-0.013508237],[-0.029004674,-0.063593045,0.0444961,-0.018376725,-0.082767785,0.048305456,-0.16170087,0.039862137,0.120950826,-0.08234638,-0.09347997,-0.07600131,-0.17625125,0.02141953,0.03034536,0.009805708,-0.085742615,-0.09755082,0.016408872,0.16266477],[0.12774524,0.13204432,-0.07070633,0.030677617,0.15545113,0.024466937,0.17957334,0.011342552,0.054031745,-0.024985984,-0.05621523,0.020868242,0.069824964,-0.055425182,0.02028975,-0.057965834,-0.040530477,0.07455146,-0.060224403,-0.05846082],[0.112497084,-0.08042818,-0.07118336,-0.06878088,0.13117911,0.008669294,0.032652695,0.18962777,-0.0024020008,0.11137325,-0.06693588,0.09568029,-0.08356269,0.11125243,0.017701697,-0.01381352,0.07846722,0.013948529,0.06760221,-0.026639627],[0.042384524,0.059035596,-0.06808175,-0.08197363,-0.20608321,-0.055123422,0.092860825,-0.13413677,4.7822358E-4,0.11460507,0.062035237,0.104593486,0.13255675,0.1385954,0.15125647,-0.04179982,0.024577504,0.07045779,0.0680318,-0.037175197],[-0.18756807,0.029879633,-0.0357885,0.11203868,-0.16998103,0.09720232,0.08600421,0.024359869,0.033241123,-0.068121925,0.09413579,0.03774865,-0.11287032,-0.13878368,-0.026654892,0.25022155,0.013004384,0.052391026,-0.024359357,0.017657751],[0.07570607,-0.04006559,-0.03394238,0.0645371,-0.01239092,0.009694272,0.16609131,-0.0026728227,0.02199476,-0.21358049,0.023158722,-0.13848537,0.1598614,-0.12259693,0.07337024,0.19257392,0.0984816,-0.01943221,-0.08370526,-0.051667564],[-0.05042479,-0.108639695,-0.09572768,-0.19483227,-0.025515623,-0.042973727,-0.08803698,-0.16391183,0.1472918,-0.110242814,-0.05102315,-0.010316877,0.0071475464,-0.16513824,0.047008295,-0.14863332,0.15251733,-0.15874149,0.16391188,-0.091554366],[-0.015802313,0.1164785,-0.055633023,0.13265935,-0.08935973,0.059419923,0.050495695,-0.057096113,0.05420486,-0.09307782,-0.13472848,0.050918795,0.05934863,0.016408568,0.051797803,-0.09545843,-0.024146464,-0.053878788,0.05961954,-0.042072885]]},{"biases":[-0.067072816,0.12218708,0.19690743,0.019630564,0.06641407,0.10849129,-0.045999534,-0.01716407,-0.22758317,0.05437093],"values":[0.0,0.0,0.0,0.0,0.0,0.0,0.0,0.0,0.0,0.0],"inputWeights":[[0.16687615,0.07029955,-0.047555618,0.04055199,-0.08461996,-0.10837258,-0.01254317,-0.24952558,-0.08972125,-0.033235967],[-0.16542207,0.04661206,0.045192912,0.11579255,-0.028107531,0.004909263,0.064535104,0.034471784,0.084421374,-0.20417376],[-0.04108784,-0.0358478,0.1402162,0.07539021,0.023524497,0.042666323,0.037605952,-0.068083115,0.09032518,-0.09870329],[-0.18419014,0.2108562,0.04278794,0.09443806,0.07997114,0.048418548,0.03752622,-0.039548762,0.013238905,0.05260146],[-0.105440736,0.038856853,-0.013299439,0.10461589,0.019326745,0.07212402,-0.09127434,0.07497574,0.0787309,0.12198182],[0.10442565,0.034647796,-0.065028735,0.15927787,-0.12354776,0.02058727,0.05381731,0.03571935,0.0146630695,0.0021159833],[0.1636527,-0.011607789,0.0061650705,-0.010802986,-0.038427334,0.11730348,-0.0014389127,-0.026288712,-0.01863483,0.18822815],[-0.037107613,-0.10211346,0.01374702,0.08927322,0.060122225,-0.12024646,-0.09618683,0.020428743,-0.10570302,0.13881302],[0.06467027,-0.089048825,-5.2353076E-4,-0.02500625,0.1438354,0.046863105,-0.030063791,-0.029832454,0.044837505,-0.05351516],[0.16478017,0.026398305,0.016168376,-0.08136998,-0.051736347,0.00545948,-0.04800897,-0.036419254,-0.030726187,-0.011651612]]},{"biases":[0.017367693],"values":[0.0],"inputWeights":[[-0.15283544,0.01173114,-0.03960568,-0.03592562,0.07761943,-0.0048512435,0.04987209,-0.040592093,-0.018141182,-0.061621394],[0.013168237,0.02935099,0.05497672,0.036269974,0.032063622,-0.25783688,-0.14620812,0.027210515,0.078092955,-0.014753542],[0.08759495,-0.19086479,0.12196007,-0.10519222,-0.13891259,-0.04741249,0.1052399,-0.13342136,0.1087867,9.7179005E-4],[-0.0641285,0.012733564,-0.049693692,0.13496464,0.162729,0.05961617,-0.12241418,-0.014896709,-0.16653879,-0.023524575],[-0.056752037,-0.061935853,0.014875022,-0.07731619,0.18413112,-0.06875793,0.0631682,-0.14629793,0.1372414,0.11749596],[0.014312459,0.05190813,-0.027546043,-0.09928318,-0.0052961814,-0.21809033,-0.063619815,0.12052456,-0.116218776,-0.038879156],[-0.1455598,-0.008730127,-0.088866524,-0.18701181,0.04030779,-0.12121508,0.2319892,-0.07087213,-0.19715466,-0.062619254],[-0.07535229,0.018808417,-0.07440817,0.0340995,-0.037431575,0.0057243933,-0.06408221,-0.13048744,0.3126893,-0.08544693],[0.04221014,0.054086886,-0.09528611,0.073894806,0.05925383,-0.014635083,0.121895544,0.012241676,-0.0115223285,-0.051477976],[-0.031016901,-0.0537984,-0.058971625,0.12677965,0.050492868,0.11956431,-0.02865969,-0.15198034,-0.07173155,0.10520349]]}]}},{"fitness":0,"neuralnetwork":{"inputLayer":{"biases":[0.0,0.0,0.0,0.0,0.0,0.0,0.0,0.0,0.0,0.0,0.0,0.0,0.0,0.0,0.0,0.0,0.0,0.0,0.0,0.0],"values":[0.0,0.0,0.0,0.0,0.0,0.0,0.0,0.0,0.0,0.0,0.0,0.0,0.0,0.0,0.0,0.0,0.0,0.0,0.0,0.0]},"layers":[{"biases":[0.086448744,-0.06719999,0.030999674,0.112275034,0.15160768,-0.0014393606,-0.07408486,-0.066334315,0.14522043,-0.0054870187],"values":[0.0,0.0,0.0,0.0,0.0,0.0,0.0,0.0,0.0,0.0],"inputWeights":[[0.17812611,-0.1336254,-0.034946725,0.21874747,-0.03951169,-0.20414549,-0.055213865,0.14649694,0.117551856,-0.0317617,-0.031005679,0.027682694,0.013657005,-0.090245664,-0.061513465,-0.052969296,0.13878469,0.08205388,-0.089028426,0.076646894],[4.8446705E-4,0.1584146,-0.06433307,0.037057392,0.12381951,-0.055168148,-0.04569337,0.025905307,-0.13414954,-0.018972354,-0.0701681,-0.1584936,-0.0238708,-0.010865904,-0.10379461,0.06135926,0.109154,-0.05465965,0.05714695,0.09809278],[0.07205873,-0.10127595,-0.11036894,0.09598223,0.025957018,0.026090344,-0.14624846,0.08071887,0.032016255,-0.03206047,0.027309094,0.02741581,0.114301555,0.050294705,0.016281622,-0.002731825,0.033282235,-0.02653988,-0.065846026,0.09668753],[-0.17023201,-0.1071477,0.05240398,0.07389679,0.091112845,0.16471003,-0.025449391,0.11913884,-0.1256641,-0.061547898,0.23415555,-0.069474526,-0.059721682,-0.03692169,0.07761704,0.16249901,0.032470684,-0.0067860475,-0.05519776,-0.027795307],[0.06985939,-0.053698074,-0.16140378,-0.24187429,0.20120743,-0.043340586,0.0649254,0.06585127,0.0977112,0.015837658,0.004641742,0.02419505,0.15648186,0.0750068,0.05925772,0.15681267,0.009543719,0.048634734,0.03023614,0.119556524],[-0.10065216,0.060259316,-0.16740939,0.03432382,0.06350762,-0.087650865,0.106715746,-0.071308106,-0.05169008,0.02765712,-0.13675363,0.049076676,-0.062311262,-0.08811718,0.022733148,0.008148024,-0.003037947,0.036342084,0.12351388,0.043391988],[-0.06636558,3.5820695E-4,0.01672547,0.0498986,0.016882408,0.056875095,0.012502012,-0.024071122,-0.1644354,0.003553046,-0.03858737,-0.034002848,0.22547112,0.016284471,0.037243724,0.1841698,0.05787226,-0.21667032,0.049389414,-0.0064291456],[-0.040147897,0.056378335,0.011675437,0.11084626,0.079799734,0.043235395,-0.12416039,-0.036884084,0.040775824,0.092297874,-0.07136182,-0.1071686,-0.23297049,0.19638708,-9.859431E-4,0.06742397,-0.06940607,0.16078885,0.093729,0.14448321],[-0.016828222,-0.22140281,-0.19620426,-0.03266895,-0.007903508,-0.10047318,-0.03648773,-0.028013904,0.21036725,0.0027662,-0.010615792,-0.1286718,-0.019316291,-0.09563631,0.00662839,0.019975035,0.049709626,-0.022565767,-0.0020278092,-0.012381794],[0.100028,0.09801448,0.06330071,0.061352078,-0.112741634,0.016592726,0.16723236,0.08658033,-0.07415435,0.086207956,-0.12639646,0.020255184,0.07882511,0.03800667,0.12356685,-0.045356233,0.008278186,0.11662165,-0.2212605,0.017924625],[0.17290483,0.0869656,-0.088263325,6.1233627E-4,0.011812887,-0.043014865,-0.056825694,0.04446959,-0.025633302,-0.15240853,0.17492825,0.03800102,0.07010771,0.118564345,0.02073963,0.11813967,0.0031992404,0.08052775,0.21231999,0.0855858],[-0.06528865,0.114115685,0.08346329,-0.054584894,-0.04263445,-0.012883043,0.08738995,-0.05738022,-0.0029931539,0.011081926,-0.20151989,0.08860431,-0.1969988,0.04346118,-0.03117869,-0.09418503,0.012733582,-0.052274797,-0.07834877,-0.10563974],[-0.13810192,0.013829914,0.057108298,0.06897419,-0.08633405,3.6733408E-4,-0.014199887,-0.1266993,-0.1718854,-0.04552944,-1.205564E-5,0.10850054,-0.06600408,0.1019202,-0.12691775,-0.17885756,-0.026918728,-0.09460672,-0.029418617,0.15024336],[0.2170625,0.051335815,-0.018495876,-0.029329857,-0.093285374,-0.014034911,0.022322733,0.012356251,0.023862531,0.1156954,-0.027105168,-0.13176638,0.061485525,0.083139084,0.070370495,-0.12576602,-0.034615673,0.11403402,0.06473256,-0.054364692],[0.10223808,-0.034152433,-0.051167548,0.08468151,-0.24868608,0.02397661,-0.06318123,0.047483142,-0.029947232,-0.008581908,-0.027418803,0.09197879,0.06937122,0.12681064,0.005002133,0.0015820909,0.0671912,0.0618776,0.1097343,-0.15699035],[0.06306946,0.0023549758,0.19259559,0.10557942,0.048811484,-0.0311762,0.011718636,-0.13330075,0.022445686,4.583236E-4,0.12702416,0.035083126,0.022153499,1.8135186E-4,0.19639407,-0.05326231,0.05399621,-0.07991098,-0.07873568,0.17257091],[-0.04033545,-0.10049408,0.04348035,-0.05025368,-0.13935283,0.006325617,-0.067721196,0.10079258,-0.08849134,-0.052831035,0.011327343,-0.028160237,-0.053351615,-0.008112929,0.09009093,0.13074882,0.011545401,0.18050511,0.026769778,0.20055962],[-0.10301689,0.014321912,0.06388104,-0.17260589,0.0686463,-0.11404064,0.21007434,-0.0580316,-0.10426397,-0.035934594,0.1388802,0.14905101,-0.029072145,0.10521293,0.06621894,-0.14798285,0.08220818,-0.105118036,-0.029468987,-0.0021632388],[0.018117817,-0.1555956,-0.1941817,-0.07221276,0.01674766,-0.095124215,0.07995233,-0.049663093,0.116694994,8.772726E-4,0.20308763,-0.06950787,-0.1423257,0.11530569,-0.032205753,0.100935794,0.06087605,0.024536794,-0.12618682,-0.120814994],[0.21401148,-5.03832E-4,0.019789055,-0.035297357,-0.20356682,0.013023774,0.03873102,-0.21280356,-0.0077409805,-0.027594889,-0.0715241,0.10262811,0.04049253,0.0032458361,0.0049490333,0.24572489,0.08389239,9.632612E-5,-0.042943455,0.034934532]]},{"biases":[-0.02114723,-0.09694482,-0.023120968,0.09575208,0.038559347,-0.045678664,0.16401717,-0.10247819,-0.087656856,-0.07170189],"values":[0.0,0.0,0.0,0.0,0.0,0.0,0.0,0.0,0.0,0.0],"inputWeights":[[0.09134773,0.014371992,-0.02519862,-0.12686874,-0.022941764,-0.014016983,0.07978422,0.03358845,-0.0068601333,-0.13269979],[-0.23134382,0.0053712376,-0.006347677,0.05778338,-0.016264275,-0.089532085,0.0389147,0.18037409,-0.084943615,0.05311294],[0.09190883,-0.029835476,0.11355982,0.051538587,-0.027098333,0.084534444,0.041758593,-0.1673379,-0.027590204,-0.0013709882],[0.21235847,0.055590194,-0.17926712,-0.09508473,0.100244425,-0.06482666,0.06113844,0.01776791,-0.019900344,-0.27807507],[-0.07891866,-0.08064528,-0.04321453,-0.19705784,-0.054977737,0.011574451,-0.06690245,-0.057265967,-0.2595233,-0.10300508],[0.0929722,0.23628081,0.08789456,0.07806483,-0.098805286,-0.06928783,0.057976235,-0.06949761,-0.17079736,-0.034721557],[-0.12233047,-0.13915163,-0.12903063,-0.021431033,0.22926065,0.09557023,-0.024113145,0.08190269,0.05331682,0.10316611],[0.11250335,-0.033521097,-0.06918363,0.02306317,0.1537958,-0.0035516515,-0.03208198,0.062830046,0.19916366,-0.01977532],[-0.19713907,-0.11007108,0.005349879,0.11701085,-0.045959834,-0.0023419946,0.11582719,-0.048122484,0.13175683,0.14941616],[0.01182082,-0.18046045,0.07204085,0.10689594,-0.073192194,0.20100875,-0.05496099,-0.08924373,-0.059670873,0.043029655]]},{"biases":[0.030150395],"values":[0.0],"inputWeights":[[-0.0045073386,-0.046070077,0.075323485,-0.08453814,-0.095901504,-0.11452158,-0.08447898,-0.19975029,0.13528697,0.045744576],[-0.07756024,0.0023554876,-0.16056159,0.055161595,-0.0010025743,0.087401375,0.020735534,-0.13815965,-0.1341401,0.09227847],[0.16445638,0.030730069,-0.19855578,-0.11343577,-0.07548111,0.021994624,-0.13309537,0.021476133,-0.049643073,-0.059411537],[-0.020118706,0.0701194,0.13184607,0.2324688,0.027545664,0.13927177,0.0060038464,0.038032167,0.07183711,0.006020009],[-0.17251867,-0.121430784,0.04842188,-0.018090257,-0.06627126,0.078536734,-0.04546178,-0.079438806,-0.12699191,-0.16381092],[0.11042434,0.1116273,0.063296884,0.19040339,-0.1635203,0.035550002,-0.090292335,0.056150824,-0.018476171,-0.04460922],[-0.11896166,-0.09402299,-0.015426084,-0.11991274,-0.12565342,-0.15468696,0.20684677,-0.10102754,0.023274554,-0.0052047083],[-0.15495358,-0.07397089,-0.026767278,0.08094748,-0.17754297,-0.017440312,6.4786174E-4,-0.03281804,-0.014306385,-0.026570542],[-0.09537065,-0.036561947,0.026974488,-0.062554084,0.080107346,-0.066021174,0.017437166,-0.031792913,0.014822737,-0.014993032],[-0.042037316,0.13864726,-0.023573235,0.0138045605,-0.030443765,0.008856093,-0.09418066,-0.11061752,-0.017239615,-0.030440241]]}]}},{"fitness":0,"neuralnetwork":{"inputLayer":{"biases":[0.0,0.0,0.0,0.0,0.0,0.0,0.0,0.0,0.0,0.0,0.0,0.0,0.0,0.0,0.0,0.0,0.0,0.0,0.0,0.0],"values":[0.0,0.0,0.0,0.0,0.0,0.0,0.0,0.0,0.0,0.0,0.0,0.0,0.0,0.0,0.0,0.0,0.0,0.0,0.0,0.0]},"layers":[{"biases":[-0.13042927,0.084449366,0.06294544,-0.17097409,0.14132005,-0.08039367,0.17739443,0.06314775,0.042403776,0.0913424],"values":[0.0,0.0,0.0,0.0,0.0,0.0,0.0,0.0,0.0,0.0],"inputWeights":[[0.024494283,0.034779433,0.10975129,0.16549402,0.11734547,-0.017013945,0.10645441,-0.06246357,0.12044328,0.065305606,-0.06717478,0.06849469,0.05863884,0.02000515,0.10901104,-0.003957505,-0.017531471,0.054903656,0.010331172,-0.070740685],[0.006858025,-0.01927566,-0.077282764,-0.03255068,-0.093206756,-0.037332173,-0.06984185,0.10833937,0.10901683,0.03816554,-0.07646675,-0.093657725,-0.14178279,0.17102152,-0.053846538,-0.17970489,0.100960374,0.13825953,0.09606429,-0.1681911],[0.047481157,-0.098893404,0.07841316,-0.10141882,0.05412606,-0.07272947,0.09309881,-0.09893193,0.0396746,0.13250032,-0.0072195088,-0.026650539,0.04041894,0.009995728,0.057929132,-0.0021678829,0.07450525,0.005366386,-0.06763395,0.048789676],[0.0069034086,-0.025077922,-0.08421601,0.024684224,0.03568795,0.12686752,-0.031808596,-0.057896756,0.11820358,0.011453927,0.08919957,-0.17805581,0.023423621,0.17124312,0.006914683,-0.06960845,0.06611183,0.21535143,-0.1383817,0.060386185],[-0.048503965,-0.04077913,-0.010115889,0.10035391,0.06875416,0.14273858,0.09345929,0.21245794,0.06498022,-0.097021595,0.123333,0.0977919,-0.009843137,-0.18839338,0.027044294,0.17287862,0.021047782,0.14911239,0.044486977,-0.041306872],[0.13285716,-0.0010780391,-0.019220797,-0.011779347,0.009976637,0.061345153,0.04323882,0.17140429,-0.009148953,-0.10349519,0.09574798,-0.14461182,-0.08398097,-0.07564841,0.10004663,-0.01690626,-0.10577809,0.09087248,-0.009090347,0.052294903],[0.04719214,0.13682853,0.05255939,0.0059614982,-0.0043615806,0.21777476,0.0091417,-0.03385832,-0.043035954,0.12020345,2.305322E-4,0.041176144,-0.17232054,-0.14275149,-0.1790804,0.074793205,-0.046994932,-0.035615556,0.04334149,-0.08197131],[-0.14647843,-0.104624815,-0.030813007,-0.12266659,-0.20389605,0.003836063,-0.058962714,-0.21100652,0.033117965,0.06790418,0.009076994,-0.10890894,0.06669039,-0.16557369,-0.027169183,-0.040012427,0.21073149,0.014739042,0.07211191,-0.13048701],[-0.064486705,-0.2153038,-0.09694755,0.0440902,0.08850101,-0.19432493,0.08049711,0.09893934,0.008013873,-0.008611645,-0.07145618,-0.092824124,-0.009034328,0.25677413,-0.0030909926,-0.1290333,-0.010908518,-0.16300783,-0.0048407246,-0.06383613],[0.16243732,-0.06835482,-0.20901817,0.13134931,0.09181286,0.05197549,-0.004796736,-0.05654396,-0.0047369483,0.049096346,-0.13430183,-0.013408152,-0.09330309,0.05722296,0.056700736,-0.08290099,-0.10676694,0.09075175,-0.00846911,0.069264874],[-0.031966522,0.070720926,-0.090577245,-0.14397138,0.013104139,-0.061636496,0.12881687,0.021280989,-0.109945245,-0.13866499,-0.21679185,-0.049497876,-0.033399098,-0.06283408,0.023109892,0.15605357,0.0489894,-0.0032740156,-0.083057694,0.07531392],[-0.08169098,0.075734936,0.026341742,-0.09822319,-0.004660132,-0.06863364,0.056381434,-0.059034865,0.06801843,-0.10756204,-0.022582885,0.07936306,-0.12550306,0.001165605,-0.060305577,0.036690157,0.1617286,0.08372088,-0.07424092,0.16158906],[0.039262533,-0.15464738,0.12015093,0.010517358,-0.081867635,-0.06566442,-0.00944665,0.10942706,0.16631983,0.031898353,0.01415965,0.09928152,0.039844118,0.15622798,0.028503006,-0.03846146,0.060832053,-0.0051703984,0.16956834,-0.05582949],[-0.111871615,-0.045674555,0.13370763,0.1247161,0.10895123,-0.06166807,0.1374654,-0.14667927,0.105655015,0.12979695,-0.020222247,0.014074691,-0.04936711,0.01066452,-0.0058384533,-0.15474723,0.04045452,0.059700977,-0.028436692,0.035605803],[0.21597305,-0.06119365,0.20923486,0.009371791,0.34927523,-0.12709098,-0.02489375,0.09618666,0.08466993,-0.016988639,0.032147687,-0.13594718,0.19659236,-0.0129311625,-0.058104377,0.02451504,-0.14346063,-0.10920085,-0.016406385,-0.026619485],[0.0895088,0.06660741,-0.10984583,-0.021219894,0.06528559,0.12546374,-0.019078257,-0.100664124,0.065504216,-0.088309534,0.1278929,-0.11369174,0.100405894,-0.048778024,0.059163645,0.07454852,-0.02840917,0.075032756,0.20089419,0.2096995],[0.09654642,0.17302872,-0.0068438076,0.016448325,0.18258925,0.012971671,0.011538916,0.07523243,0.043610435,-0.08031874,-0.07781691,-0.046937488,-0.004048215,-0.0104938755,0.07270696,0.056028873,0.13241862,0.14971942,-0.14442648,0.014619164],[0.10214747,0.13987489,0.070560575,-0.09965218,0.012847897,0.14496367,-0.001396447,1.4034731E-4,-0.04482371,-0.09176652,-0.19623624,-0.21988755,-0.05125259,0.050557084,-0.09761624,-0.29077017,-0.04569355,0.009515514,0.078415066,0.06553686],[-0.054428305,0.09643981,-0.07247078,-0.007968832,-0.01912746,-0.02548694,-0.084864855,0.019173602,0.022845844,-0.03733035,-0.1201893,0.041232478,-0.27408168,-0.016973848,