{"generationNumber":4,"Entities":[{"fitness":0,"neuralnetwork":{"inputLayer":{"biases":[0.0,0.0,0.0,0.0,0.0,0.0,0.0,0.0,0.0,0.0,0.0,0.0,0.0,0.0,0.0,0.0,0.0,0.0,0.0,0.0],"values":[0.0,0.0,0.0,0.0,0.0,0.0,0.0,0.0,0.0,0.0,0.0,0.0,0.0,0.0,0.0,0.0,0.0,0.0,0.0,0.0]},"layers":[{"biases":[0.044044785,-0.10757624,-0.046929117,-0.0700598,-0.034932993,-0.12792498,-0.13051155,0.11828709,0.09311451,0.02837463],"values":[0.0,0.0,0.0,0.0,0.0,0.0,0.0,0.0,0.0,0.0],"inputWeights":[[-0.030592185,0.04852589,0.04793843,0.07940914,-0.019557647,-0.052515525,-0.05325578,0.09752565,-0.014306637,-0.041904323,0.20386815,-0.018636426,-0.016388189,-0.06618861,-0.07531846,0.05821215,-0.14058568,-0.031226525,0.010461262,0.029437104],[0.131672,-0.045753594,0.011620441,-0.05921017,-0.013079717,-8.539257E-5,0.045335893,0.060330905,-0.023572143,-0.14723611,-0.14525214,-0.12602465,0.25453365,-0.020893173,-0.019969624,-0.03981089,-0.01468223,-0.20380567,0.07010512,-0.047016054],[0.15119511,0.055469424,0.059106704,-0.19118972,-0.13480055,0.040325157,-0.03886451,-0.11440661,0.115150504,-0.099109046,0.17160214,0.10121746,0.07089432,0.12013464,0.09222071,-0.044027723,0.02340565,0.021488111,-0.066658,-0.06381451],[0.045796264,-0.07901559,-0.119363956,0.17804274,0.0021975988,0.14232679,0.114671186,-0.05695568,0.021778688,0.041540932,-0.016909456,0.057165023,-0.0053684274,0.038101822,0.115359984,-0.11792435,0.12986982,0.0922805,-0.114379086,0.024095941],[0.11307671,0.012608658,-0.11419749,-0.030715538,-0.029858885,-0.0500733,-0.020912027,0.007949681,0.044985835,-0.09743759,0.12057033,0.0042173597,0.16808145,-0.0798365,0.015310317,-0.03775925,0.01006721,-0.10526355,-6.529935E-4,0.014961015],[0.11013868,-0.039456643,-0.007819985,0.11632446,-0.20606339,-0.07729959,0.056816917,-0.18369785,-0.19178832,-0.06431022,0.101669274,-0.117267415,-0.02270946,0.010455049,-0.019003727,0.09411974,0.08871061,-0.0046477104,-0.045797195,0.032199],[0.0693872,0.23638399,-0.007840469,-0.09558846,0.20339237,-0.17014265,-0.054846838,-0.045184273,0.080805466,0.15289834,0.10406857,-0.05600561,0.013016942,0.07474522,-0.057377167,0.03459184,0.051720113,-0.0022434434,0.03764312,-0.02249433],[-0.23626523,-0.051400714,0.06185096,-0.0014453123,-0.050102416,-0.1127461,0.011289131,-0.12341582,-0.045284312,0.119495876,0.050329737,0.13431388,0.16363874,0.0070925998,-0.10129476,0.0023804614,-0.08647276,-0.03841455,0.0442273,0.029138146],[0.125553,0.012072948,0.22083008,-0.02482942,-0.026921889,-0.014906471,0.08425247,0.15333116,0.057327043,-0.08990512,0.25050008,-0.024910219,0.046098836,0.110757075,-2.3559721E-4,-0.013754122,0.05048456,0.105893955,-0.07261151,-0.06307967],[-0.05829053,-0.08408459,-0.014352129,-0.10599967,0.15500201,-0.051269665,-0.03705071,0.16207118,0.074754804,-0.050314836,-0.056866292,0.19233365,0.05663168,-0.016916538,0.11627475,0.10891769,0.01188633,0.026169948,0.07572015,0.15888351],[0.15260099,0.007376239,0.02776716,-0.099025086,-0.10018252,0.006154881,0.058629192,0.10855384,0.03873073,-0.089538485,-0.15804316,-0.11921472,0.22026432,0.009710206,0.0141296,-0.034841325,-0.03757457,-0.07263541,-0.047197357,-0.023662148],[-0.03634459,0.033882476,-0.111416064,0.17121376,-0.20744248,0.019938335,0.016737377,-0.12536304,0.0968924,0.24322554,-0.02290488,-0.072703674,-0.13912542,0.1135668,-0.18164751,-0.014355952,0.09499283,0.052704763,-0.3166182,-0.15327132],[-0.09633223,-0.14078332,0.065617405,0.045678437,0.19886664,-0.093959264,0.049642835,-0.0456931,0.040808253,-0.06896374,-0.043764025,-0.08445605,-0.15238085,-0.23600057,-0.02891628,0.07045871,-0.07135283,0.00822383,-0.06392242,-0.17686485],[-0.019726615,0.025970116,-0.013686083,0.031265087,0.13553242,-0.03419578,0.034152087,0.31714895,-0.07453189,0.075991824,-0.018520482,0.10569424,0.035174694,-0.12249778,0.052385036,-0.015561554,0.008804827,-0.12092806,-0.37895367,-0.067157954],[0.15107214,-0.008269629,-0.09297871,-0.100133635,0.026016293,0.11840267,0.04882156,-0.05014512,0.031811554,0.21875778,0.015763864,-0.007236852,0.1052657,-0.11982009,0.02623371,-0.063677624,0.054472517,0.010653903,0.09302875,0.062589906],[0.36271894,-0.24473488,-0.010178495,-0.1307388,0.11000362,0.017969172,-0.12586495,0.07064914,0.13028808,0.063108765,-0.040716913,0.029739156,-0.041448247,0.041604232,0.0845836,-0.038043704,0.09560782,-0.043706287,0.046581917,0.15230495],[-0.004472379,0.046698537,-0.009915875,0.050806936,0.014777667,0.022623565,0.011426171,0.03586393,-0.04947798,-0.11633462,0.020749278,-0.08798136,-0.029387163,0.0017864788,-0.09158332,0.053420693,0.014489042,-0.047096223,0.12503366,-0.15806861],[0.10747976,-0.005967852,-0.11956086,0.02886464,0.027062146,-0.05924468,0.16922715,-0.13421561,0.115491316,-0.09675503,-0.10596423,0.058534436,-0.0023812456,0.018800464,-0.0067916764,0.1765057,-0.110005595,0.017183412,0.20982012,-0.08618133],[0.116517924,-0.06760581,0.107775494,-0.30957153,0.05641657,-0.025459675,0.11107944,0.1487017,0.01842297,-0.01266828,0.06505418,0.0692113,0.07105551,-0.020981377,-0.05902832,-0.12983738,0.022948252,-0.013221471,0.0541677,-0.00598755],[-0.15823458,0.010673251,-0.002420795,-0.10613812,0.16981356,-0.064590625,-0.043109447,0.015884655,-0.053276,-0.017747562,0.058768094,-0.028393207,-0.17890477,0.12990911,-0.014237143,-0.116575666,-0.06737681,0.021130633,0.052544594,0.07180401]]},{"biases":[-0.04301267,0.020631747,0.07752212,-0.052298468,-0.0011721879,0.03662815,-0.09924755,0.104989655,-0.075327985,-0.025140021],"values":[0.0,0.0,0.0,0.0,0.0,0.0,0.0,0.0,0.0,0.0],"inputWeights":[[-0.1720935,-0.018414829,0.07633779,-0.058121152,0.0726325,0.028268676,0.04185813,0.038536806,-0.1466751,0.1429048],[-0.16337432,0.05776873,-0.09269799,0.03222148,-0.12253476,0.0651493,-0.07246718,-0.037337452,-0.006121927,-0.16764858],[-0.21453144,0.051662613,0.046754986,0.08257151,-0.04050013,-0.011709456,-0.22787185,0.01384355,-0.11843534,0.027994532],[0.08303686,-0.05846352,0.18436994,-0.02824674,0.11229644,-0.019016234,0.19469404,0.021738412,0.13000466,-0.15314715],[-0.07931879,-0.02603388,0.04274308,0.042971507,-0.089706555,-0.04207965,0.09287464,0.024294224,0.122962125,0.080588885],[0.101560876,-0.022807598,-0.21029854,0.032474674,-0.014817315,0.06576309,0.044698976,-0.022551132,-0.14658092,-0.07419092],[0.081379645,0.008387479,0.15045924,-0.08405683,-0.015921883,-0.0055838902,-0.027148368,-0.082278445,0.04446948,-0.041605186],[0.09655307,0.081341535,-0.11304207,-0.09676897,-0.09096412,0.08408347,0.11127893,0.0947064,0.01825005,0.044556443],[-0.08909999,0.08961332,-0.0042471313,0.08131453,-0.0038088658,-0.08462544,-0.08649672,-0.18399213,-0.053713564,0.011933014],[0.022803288,-0.15410937,-0.0014232997,-0.0039801807,-0.103419125,0.03826371,-0.026819278,0.15232956,0.06176597,-0.015962327]]},{"biases":[0.1357293],"values":[0.0],"inputWeights":[[-0.017425522,0.010250092,0.053350803,0.057138786,-0.06157487,0.04885387,-0.23733571,-0.06648284,-0.15547274,0.06529402],[-0.20441315,-0.093439855,-0.05590329,5.3624826E-5,0.022098968,-0.13869838,0.0625627,0.018892035,0.11901237,0.0035102116],[-0.05085228,-0.016312467,-0.047402974,-0.03765059,-0.18789738,-0.047901593,-0.018841319,-0.03396272,0.12849848,0.032600597],[-0.06857792,-0.031235214,-0.048488136,0.016087685,-0.03541382,-0.028710414,0.039556146,-0.039949972,0.08008766,-0.015061936],[0.029578796,0.07862716,0.13338515,0.2634351,0.08945924,0.12743643,0.10333946,0.20659631,-0.18767889,0.033849943],[-0.07707794,-0.00900649,-0.09234337,-0.16219635,0.18448982,0.16223858,0.06502166,0.16974403,0.035513364,-0.026353793],[0.004761248,0.07374883,0.054876845,-0.09065208,0.16848387,0.16165225,0.06304974,-0.17293486,-0.005800184,0.07917496],[-0.018621061,-0.17076343,-0.14647548,-0.047882013,-0.092545785,-0.09486698,-0.035810195,0.054374076,0.025364077,0.061561223],[0.16559356,-0.1634152,-0.23418918,0.05526802,0.2107536,-0.08407977,-0.023279427,0.029399678,0.10594157,0.040843997],[0.07795999,-0.016477803,-0.14477047,0.2127146,0.0676901,-0.059639916,-0.16155726,0.095847055,0.08201302,-0.054352306]]}]}},{"fitness":0,"neuralnetwork":{"inputLayer":{"biases":[0.0,0.0,0.0,0.0,0.0,0.0,0.0,0.0,0.0,0.0,0.0,0.0,0.0,0.0,0.0,0.0,0.0,0.0,0.0,0.0],"values":[0.0,0.0,0.0,0.0,0.0,0.0,0.0,0.0,0.0,0.0,0.0,0.0,0.0,0.0,0.0,0.0,0.0,0.0,0.0,0.0]},"layers":[{"biases":[-0.22362931,-0.19656496,-0.04607677,0.1639117,-0.055437222,-0.08465807,-0.08977946,0.20001937,0.13763256,-0.042223454],"values":[0.0,0.0,0.0,0.0,0.0,0.0,0.0,0.0,0.0,0.0],"inputWeights":[[-0.09818851,0.14601357,0.10646369,-0.14277644,0.049133666,0.0011769664,-0.05875507,-0.05896388,-0.07598292,0.11662025,0.22390792,0.15404952,0.04519834,-0.21670224,-4.92443E-4,0.0074263215,0.07067065,0.032596335,-0.012093153,-0.121038444],[-0.2727498,0.092405066,-0.11599965,-0.0757612,-0.019714596,0.011102504,-0.093685254,0.055675536,0.088846214,-0.05617963,0.10857001,-9.1785373E-4,0.053611618,-0.2347481,-0.07752581,0.07579758,0.007826002,0.05315796,0.040935695,-0.028397676],[0.13591732,0.15384962,-0.047211796,0.12086683,0.010593884,-0.018730182,-0.1126785,-0.106375016,0.08395433,-0.07290712,-0.054949284,-0.027922815,-0.11059377,0.017504489,-0.056007486,-0.052675672,0.009223294,-0.12874268,-0.09324706,0.07640471],[0.0011398969,-0.029521812,0.11094236,0.073524505,0.005696915,0.011384475,-0.11515379,-0.08246913,-0.11429605,-0.114921875,-0.05335244,-0.06837172,0.1637974,0.10889899,0.038709566,0.070414774,-0.09769213,0.031070203,0.097342625,0.10387841],[0.14792809,0.10271978,-0.0808438,-0.10229599,0.09910215,-0.030313734,-0.04502661,0.080763504,-0.025253812,0.09580105,-0.04376916,0.15089491,-0.024518335,-0.042759825,-0.05630776,0.056830283,0.03981168,-0.11103389,0.10747079,0.09940413],[-0.065289356,-0.15570036,0.09499512,-0.021762539,-0.055453856,-0.017220313,0.11761902,0.08636045,0.27304992,0.10410009,-0.11986336,0.13027798,-0.08651174,-0.014982507,-0.010726179,-0.06788804,-0.05546597,0.04128096,0.11424803,-0.017206216],[-0.039317217,0.12972689,0.0512356,-0.009747961,0.059065033,0.053125598,-0.011209829,0.06548115,0.036051888,0.027934233,-0.06606402,-0.020725451,0.031033166,-0.11378656,-0.06460138,-0.1643141,0.054905254,0.18074861,-0.06796705,-0.013357124],[0.066895716,0.06927318,-0.119628444,0.15322037,-0.042852446,0.03606671,0.015809162,-0.1298813,-0.09004096,0.18229693,-0.03520677,0.10197326,-0.031669274,-0.08307431,-0.12796016,-0.056464657,0.105826825,-0.09065996,-0.0012930476,-0.065471046],[-0.27424625,-0.049757298,-0.16972832,-0.029217046,0.16000293,0.07390081,-0.3424258,-0.09995898,0.049762823,-0.14397553,0.115948364,0.119890586,-0.23235838,0.021917546,-0.00862607,0.064647384,-0.0653299,0.12130116,-0.0074986164,-0.12382458],[0.023058305,-0.1487521,0.065532275,0.040259965,-0.14481144,-0.03722749,-0.10105249,0.012856026,0.061359867,0.037944414,-0.11189815,-0.050113227,0.071014695,-0.059200488,0.11426335,-0.14218757,0.22330941,-0.08928011,0.0661858,-0.19712399],[-0.048472986,-0.10958286,-0.10092161,0.11234686,-0.14354521,-0.03950084,0.1243175,-0.0911747,0.23993705,0.02037634,-0.048783954,-0.030680234,0.24230702,-0.13235418,-0.18509595,-0.008036329,0.13547567,0.019778647,0.12054636,0.05116768],[0.059179064,-0.21309733,0.016601073,0.0443862,-0.0532378,-0.1214104,0.1966974,0.17573583,-0.14685524,0.19274092,-0.10004259,0.100512,-0.008766066,0.12453674,-0.049174976,0.07300638,-0.061884157,0.14360085,0.16531128,0.0691177],[0.17530681,-0.063615456,0.02304203,0.0049965214,0.13362731,0.2564064,-0.07846151,0.04974993,-0.1992924,-0.07332982,-0.013407356,0.041307487,0.16141644,-0.1413654,0.037607037,-0.13350669,0.0014197868,-0.027552562,-0.279389,0.08381005],[0.24986708,-0.042125877,-0.027501766,0.16970989,-0.012542992,0.08206838,0.016430458,-0.028828928,-0.066696346,0.06668747,0.042045385,-0.009809863,-0.009284229,0.010390601,0.07758377,-0.048017584,-0.013343525,0.06860131,-0.014355571,-0.010493278],[-0.030121904,-0.09588185,0.07686561,-0.079779916,-0.13818865,-0.031772442,0.01157943,-0.008606191,-0.0063348664,0.04018004,0.2231476,0.00922557,0.042975243,-0.05804557,0.06431151,0.030077174,-0.03230217,0.23029362,-0.03563756,0.132838],[-0.09752015,0.042211186,0.029253809,0.019533586,0.019881943,-0.008142918,0.1345976,0.09893597,-0.06478115,-0.06216558,-0.101876296,0.0028190953,0.047544815,0.17624764,-0.24046977,-0.033415645,0.12895805,0.14201885,0.050166838,0.06599168],[0.1243815,0.038083073,-0.018898897,0.026528154,-0.09404027,0.035095137,0.048484296,0.03017205,-0.09285535,0.23200807,0.068226464,-0.18662483,0.22478308,-0.025057351,0.03596195,-0.11045169,0.068808496,0.09763203,0.02021735,0.002421293],[0.01687303,0.049682066,0.042722005,-0.06589916,0.09491579,0.08056997,-0.016730897,-0.106678784,-0.051788263,-0.061228897,-0.07121447,0.123337984,-0.037415393,-0.11734154,0.033202708,0.09550135,-0.042167205,0.032902204,0.047013912,-0.119750194],[-0.032698635,0.05597874,0.064862646,-0.0015866439,-0.040014002,0.03095102,-0.030766582,-0.013413991,0.1037235,0.10992338,-0.1414204,0.009570479,0.020815993,-0.08356177,0.055439528,-0.035351586,-0.015964666,0.019553425,-0.063411824,0.1341697],[-0.050139908,0.12979865,0.03498341,0.1003574,-0.08113701,-0.13293973,0.058147434,0.03078589,-0.11031077,-0.23898713,-0.15231375,0.18381737,0.04341721,-0.048028845,0.1567617,0.09617534,0.06260885,-0.07106286,0.009099386,0.07754702]]},{"biases":[0.026473394,0.1356826,0.027313016,-0.047955286,0.12006542,0.052620467,0.019619279,0.15985677,-0.08823677,-0.017712757],"values":[0.0,0.0,0.0,0.0,0.0,0.0,0.0,0.0,0.0,0.0],"inputWeights":[[-0.2877821,-0.011198435,-0.03438817,-0.0395127,-0.09827402,-0.059677016,0.12808596,-0.01019384,0.03462108,0.16790417],[0.20109987,0.012132201,0.06496313,0.09640873,0.029413225,0.016120262,-0.06351308,0.048314646,-0.06749584,-0.17225237],[0.019947033,0.07820267,-0.14264253,-0.016860198,-0.032021653,0.086991735,0.0130713945,-0.10661156,0.17614768,0.049884673],[-0.0089916345,0.052037887,-0.03446097,0.1473943,-0.033399466,-0.053738397,-0.09341383,0.14113751,0.045226656,0.028443152],[-0.039305728,0.031032743,-0.021273078,0.07962664,-0.1938051,-0.018758403,-0.08565521,-0.10043166,0.03975825,0.02038781],[-0.042064622,-0.04301954,0.08327067,0.1341084,-0.059873953,-0.039447814,-0.010214899,-0.07306003,0.10665582,-0.059203297],[0.057499237,-0.039170247,0.11087512,-0.010589473,0.12743324,0.033548113,-0.05710496,-0.09675986,0.15418829,0.007468802],[-0.09301383,0.16529043,0.14079359,-0.09363995,-0.088377975,-0.13311405,-0.06866326,0.040344663,0.011695203,0.09830822],[0.20081681,-0.059504334,-0.19706511,0.10226828,0.03655518,-0.026450256,0.10082744,0.16117011,-0.18020315,0.027457204],[0.12830716,-0.1119025,0.002605141,0.19016308,-0.12074177,-0.056316335,-0.03588655,-0.10331957,0.07460161,-0.053417165]]},{"biases":[0.06048674],"values":[0.0],"inputWeights":[[0.012809194,0.24726889,-0.056634113,-0.05110246,-0.03964285,0.012810803,-0.05218862,-0.043087494,-0.061810426,-0.06305467],[0.07533855,0.1093071,-0.05126631,-0.20619306,-0.05635459,0.010687455,-0.13759334,0.19287835,-0.15840578,-0.111304544],[-0.10249218,-0.04158368,0.14788593,0.09785467,0.20986974,-0.008978524,-0.093951,-0.10788613,0.005783426,0.19197974],[0.041583695,0.024693092,-2.2227739E-4,-0.013496575,0.11538245,-0.057026464,-0.035143666,0.12431272,0.262101,0.038739245],[0.09942837,0.079305716,0.057802234,-0.15496303,-0.04609881,0.18744348,-0.044242706,-0.08951968,-0.03854004,-0.08339433],[0.07046191,0.12693343,0.09737543,0.04477049,-0.018725535,0.10568897,0.21275419,0.10752207,-0.14086434,0.052246578],[0.061137002,0.12629591,-0.08206762,0.114751756,-0.13900183,0.11261778,-0.258786,0.08680983,-0.05065343,0.018021343],[0.039427966,0.20939243,0.08695883,-0.067272246,0.20054244,0.071480826,0.18322746,-0.09931728,-0.10063849,-0.017175412],[-0.039294403,-0.0046826787,-0.067102976,-0.1623933,0.11535258,-0.0125700785,-0.024112571,0.06691135,-0.09023131,-0.07130979],[-0.15848693,-0.09476983,-0.08794852,0.18034516,0.06593521,0.00832484,0.16779836,-0.07391039,0.035268344,-0.021951983]]}]}},{"fitness":0,"neuralnetwork":{"inputLayer":{"biases":[0.0,0.0,0.0,0.0,0.0,0.0,0.0,0.0,0.0,0.0,0.0,0.0,0.0,0.0,0.0,0.0,0.0,0.0,0.0,0.0],"values":[0.0,0.0,0.0,0.0,0.0,0.0,0.0,0.0,0.0,0.0,0.0,0.0,0.0,0.0,0.0,0.0,0.0,0.0,0.0,0.0]},"layers":[{"biases":[0.10253145,-0.0022557983,-0.16826051,0.06965271,0.07600267,-0.033584036,0.19918798,0.031088408,0.058075875,0.06951733],"values":[0.0,0.0,0.0,0.0,0.0,0.0,0.0,0.0,0.0,0.0],"inputWeights":[[0.08921846,0.017821828,-0.20181902,-0.14214428,-0.057242382,0.09341876,-0.07247717,0.023263698,0.026618393,-0.035856515,-0.049697176,-0.2324557,0.02483958,0.054065038,-0.02337182,0.048657995,-0.0866494,0.026509369,0.20722939,0.03469685],[-0.08394581,0.007048435,-0.14366892,0.025405362,0.099461846,0.0824888,0.084465556,0.053814173,0.11003567,-0.038363576,-0.00980336,-0.040476684,0.054166686,-0.15128791,0.037224412,-0.15963198,0.24771436,-0.09795387,-0.025868401,0.09976359],[-0.022614498,0.022738948,0.15157859,0.0414928,0.14864632,-0.05451792,0.09669562,-0.063357614,-0.008660653,0.040304746,0.04848938,-0.19114456,0.13222574,0.11242433,0.02632715,0.009465714,-0.0011581725,0.19272888,0.06458192,-0.018255524],[-0.0698783,-0.04791958,0.09457631,-0.03361408,-0.06270326,-0.20813332,0.12636188,0.044143274,0.25007787,0.078110926,0.0057808897,0.07153693,0.03342816,0.1442038,0.0919981,-0.047195617,0.058392182,0.06768772,-0.104708344,0.038320374],[0.018024849,-0.106028914,0.14592794,0.1379814,-0.08520842,-0.0047471775,-0.041471392,0.013007225,-0.0684111,0.08303448,0.01581078,-0.03238779,-0.018474154,-0.12594423,0.049272466,-0.10039381,0.054303948,0.030818082,-0.050950315,0.017147921],[-0.09405088,0.10051871,0.02305065,-0.12741406,-0.08699745,-0.062407583,0.016502032,0.029433733,0.06825919,0.03766191,-0.09698245,0.033500392,-0.098338276,0.12569284,0.01977142,0.015251797,0.06380906,-0.15419506,-0.01432054,-0.12000213],[0.029901812,0.0010047113,-0.050990768,-0.10708257,-0.029692888,-0.14887449,0.02112008,-0.08123613,0.014794149,-0.042842697,-0.0024703091,0.06741959,-0.0025579722,-6.7123096E-4,-0.0362435,-0.13404928,0.0451238,-0.18738325,-0.031499006,-0.009373388],[0.08632672,-0.05446849,0.050383184,-0.109107964,0.11735817,-0.15807791,-0.08755186,-0.14461438,0.07184327,-0.1736036,0.03184042,0.028035192,0.10465983,0.059256665,-0.07938685,-0.056931987,0.13311091,0.08281518,-0.068917446,-0.08960789],[-0.043676127,0.058295526,0.015776567,0.10429203,0.06252901,0.1568694,-0.03034433,0.13427307,-0.011049985,-0.010310014,-0.006741439,-0.18659142,-0.027799768,0.22575456,0.1968968,-0.09408394,-0.050684374,0.118259035,0.06002939,-0.13795824],[0.0060381126,-0.013888691,-0.109159894,0.048205134,-0.11126573,-0.020081446,-0.15131345,-0.094386086,0.06633188,-0.21307191,0.031171544,-0.09105168,-0.07142602,-0.09205453,0.1980441,-0.0122243855,0.019410381,-0.008837284,0.08088325,0.13930236],[0.12864187,0.036066554,-0.2466642,0.25516424,-0.023080323,-0.049412973,0.08874973,-0.11347216,-0.03859741,-0.09276394,0.05924466,0.06582008,-0.0050483593,0.025127944,-0.10403442,-0.13721025,-0.053412914,-0.0129132485,0.09745572,0.014071236],[0.013142148,0.15381768,0.040666927,0.23769477,-0.092515066,-0.0020312998,0.025837444,0.04542018,0.1615441,-0.10738778,0.012468769,0.06797061,-0.0529454,-0.062381577,-0.047902588,0.08120635,-0.06019129,-0.10020854,-0.051068675,-0.053267933],[-0.109484755,-0.014686231,-0.06844085,0.08637748,-0.057393767,-0.19837667,0.047483113,-0.15596063,-0.068737164,-0.10310247,-0.047661297,-0.0058736587,-0.050767824,0.21626598,-0.17359112,0.068502404,0.031217847,0.054409247,-0.12433634,-0.05711064],[0.04116387,0.14900129,-0.11891552,-0.07234256,0.12741545,0.1036675,-0.03145,-0.1698113,-0.047505923,-0.055609677,0.005358624,0.0680019,0.15179957,-0.02840481,0.08426682,0.106561065,-0.016830167,-0.038741376,-0.11729017,0.08075043],[-0.0102282,0.11858308,-0.1484665,-0.005573819,0.15214795,0.10725294,-0.117271595,0.061267838,0.0073262053,0.15378873,-0.04579576,0.12485308,0.099420354,0.17063306,0.24231422,-0.0489705,0.13603368,0.02379501,-0.006866169,0.111642376],[0.11603927,-0.07897849,-0.048009105,0.065530986,-0.0132545605,-0.086510494,-0.09855699,0.058933493,-0.032519512,0.10530583,-0.048993845,0.17491713,-0.09356326,0.007767842,-0.14379379,-0.043699432,0.022898238,0.115871705,0.18744732,-0.24272494],[0.024036324,0.0083772065,-0.1628481,-0.09816553,-0.09887449,-0.12926929,-0.07743522,-0.010678229,-0.09959465,-0.006562185,-0.07035176,-0.10066337,-0.09832365,-0.10964399,0.18234995,0.22112025,0.051636744,-0.113457195,0.029958118,0.025861992],[-0.04644001,-0.06653545,0.20861146,0.033333562,-0.06821544,0.0614987,-0.10936487,0.05109866,0.05954735,0.049684104,-0.18960723,-0.18894757,0.08662557,-0.007308492,-0.040251546,0.022724576,0.048752833,0.0025037972,-0.034296136,-0.030999715],[-0.061047245,-0.03563419,-0.04871046,0.06381153,-0.14024568,0.1592408,0.08111088,0.13105659,-0.046025164,0.08895424,0.0669736,0.1205514,-0.07820024,-0.12122761,-0.036401205,0.04034792,0.18955217,-0.010671491,-0.087990716,-0.07245913],[0.07701649,0.031563204,-0.031570323,0.0110521,-0.037213743,0.01102172,-0.01377393,0.14042595,-0.03260441,-0.10592656,0.11238427,0.07428964,0.14675397,0.078574665,-0.03458841,0.025572605,0.030125441,-0.16590303,-0.12417576,-0.080176406]]},{"biases":[-0.056955136,-0.08349805,0.024515089,-0.05123334,0.07512894,0.18381013,-0.029929599,-0.016247666,0.14851719,-0.07241067],"values":[0.0,0.0,0.0,0.0,0.0,0.0,0.0,0.0,0.0,0.0],"inputWeights":[[0.06009791,-0.04441605,-0.053298425,0.06764078,-0.0998774,0.18730772,-0.11351532,-0.008926887,-0.15568227,-0.0652583],[-0.09284313,-0.016148351,-0.14440824,0.11013254,-0.10154198,-0.06503169,-0.026323525,0.04616294,-0.15339069,0.07966947],[-0.01893337,0.085283875,-0.0555318,-0.16416258,-0.031248687,-0.047436014,0.052243274,-0.04637683,-0.08238243,0.17866044],[0.0064351694,-0.15393151,0.019475622,-0.10765339,0.11178671,-0.084121816,-0.1920825,-0.005862424,-0.0768656,0.022324821],[0.018114265,0.10488813,-0.03732985,-0.12411028,-0.16563466,0.051430177,0.09440505,0.28108546,-0.1101646,-0.027952697],[0.09971759,0.13855307,-0.029654669,0.15927847,-0.11368148,0.1489692,0.09001736,0.09426598,0.029826397,0.027145669],[-0.13913433,-0.064444676,-0.051385656,0.045649383,0.11289348,0.03583322,-0.1350782,0.095972896,0.087861314,0.0138396],[-0.059948754,-0.18473317,-0.22575691,-0.14168237,0.032659404,-0.029043678,0.044531677,0.012842192,0.0011602035,0.06473893],[-0.17869554,-0.15497707,0.0058361185,0.049847573,0.0017141944,-0.19828147,-0.05521755,-0.21558394,-0.051161736,0.017617254],[-0.13831854,-0.022803225,-0.1403128,0.02054848,-0.07398862,-0.031697787,-0.053516977,-0.046449065,0.07901632,0.08042507]]},{"biases":[0.029770415],"values":[0.0],"inputWeights":[[0.0016444012,0.045691807,0.005935697,-0.014509723,-0.26340944,0.082365565,0.19868074,0.028426044,0.07357765,0.03901537],[-0.09848283,0.007590366,0.08458223,-0.10831242,-0.0672299,-0.023894796,-0.05875716,-0.10531858,-0.12559243,-0.15493868],[0.07676366,-0.08565524,0.010150419,0.08409321,0.0756469,-0.0043936004,-0.056324292,0.03804317,-0.061898038,-0.07301431],[-0.043846745,-0.16958599,-0.1283321,-0.17706941,0.007279076,-0.026011623,0.0825965,0.029465906,0.04639421,-0.068471536],[0.16935563,0.09057683,0.03256635,-0.050165344,0.0526935,-0.071720034,-0.0062597604,-0.05105035,0.022699233,-0.21403436],[-0.14461078,-0.16664007,0.026947385,0.13501276,0.0187815,-0.17364646,0.06717232,-0.0017294504,0.03144792,0.118868016],[-0.06720563,0.03352881,0.10126407,-0.051420502,-0.054808505,-0.11224205,0.11420129,-0.14849296,-0.1597586,0.09803143],[0.011504752,0.12483843,0.19989741,0.11990995,0.09272202,0.03296476,-0.067577906,-0.11262735,-0.014887735,0.020807939],[0.050105948,-0.15892148,-0.10925162,-0.08039687,0.2188104,-0.05707209,-0.033062223,-0.10961069,-0.06503604,-0.27065152],[0.13626915,0.017347679,0.15955922,0.19718431,0.106632225,0.07957288,-0.09732451,-0.13402717,0.06624671,0.09306398]]}]}},{"fitness":0,"neuralnetwork":{"inputLayer":{"biases":[0.0,0.0,0.0,0.0,0.0,0.0,0.0,0.0,0.0,0.0,0.0,0.0,0.0,0.0,0.0,0.0,0.0,0.0,0.0,0.0],"values":[0.0,0.0,0.0,0.0,0.0,0.0,0.0,0.0,0.0,0.0,0.0,0.0,0.0,0.0,0.0,0.0,0.0,0.0,0.0,0.0]},"layers":[{"biases":[-0.1142079,0.16954474,0.047141474,-0.14992753,0.02127196,0.052109428,0.055226322,0.111910656,0.1317389,0.04315664],"values":[0.0,0.0,0.0,0.0,0.0,0.0,0.0,0.0,0.0,0.0],"inputWeights":[[-0.0936426,0.04521486,0.009526134,0.011390595,0.106446266,-0.068664,0.06971176,0.1587599,-0.002042873,0.02451521,0.06557323,0.12479348,-0.044756643,-0.11701902,0.0039483444,-0.05043402,0.02842695,-0.020078562,0.092614,-0.13343774],[-0.14836478,-0.025296692,-0.033688653,-0.100056104,0.0620951,0.088233195,0.044149205,-0.08057132,0.01431245,0.016840585,0.21858254,-0.1293724,0.030804556,0.16048945,0.0041756323,-0.1452223,0.18089066,-0.07676088,0.110906385,0.05891678],[0.024261726,0.07970044,0.17234938,0.013644939,-0.24954161,0.041923206,-0.008207232,0.15899593,-0.0328986,0.042710543,0.17407894,-0.044130538,0.10683204,-0.10496387,-0.088756226,0.010408131,-0.12630935,0.0019899406,-0.26008356,0.026301581],[-0.0044039837,-0.110238746,0.052925806,-0.16715604,0.00790674,-0.022910485,-0.0010301768,0.062130775,-0.0022751987,0.12309131,-0.08671086,0.09499894,-0.085947074,-0.075890325,-0.05343354,0.033623155,-0.17884947,-0.043069426,-0.15470196,-0.1616378],[0.10880376,0.025222262,-0.06285408,-0.039251342,-0.07762489,0.072897464,0.22577848,-0.004332498,-0.040075388,0.014023972,-0.06553887,-0.059055667,-0.054672133,0.11408986,-0.13844414,0.1927985,0.23235185,-0.08091455,0.014209717,-0.0011934845],[0.26628172,0.021950997,0.06689915,-0.10654052,-0.13938792,-0.11697135,-0.08619825,0.092447825,-0.066395,0.14232072,-0.062408317,0.03454049,0.01783928,-0.0018495357,0.0946435,-0.1648104,-0.03839869,0.0739791,0.013121507,0.086036645],[0.015674867,0.02774361,0.10370108,0.114746355,-0.08760919,3.042313E-4,-0.0173291,-0.06286422,0.10092563,-0.067129284,0.17014383,-1.4462339E-5,0.040251143,0.088530734,0.05150938,-0.024163492,-0.003106636,0.1277657,-0.069521815,0.13202302],[0.044676453,0.025132325,-0.01899667,-0.016278954,0.042901512,0.0992633,0.033336148,-0.07614501,-0.16405518,-0.011432653,-0.08536027,0.0076267333,0.028040862,-0.11377958,-0.019683005,-0.06628699,0.06636358,0.055074777,0.15730748,-0.019795092],[0.055117745,-0.017644206,0.078008756,-0.06573736,0.17671427,-0.09836709,-0.076372094,-0.07909071,0.14363836,0.046930417,0.05234293,-0.26128018,0.0055227433,-0.097085595,-0.0055625197,-0.019200375,0.11218406,0.038544428,-0.087453075,-0.032244023],[-0.1034468,0.11565239,0.15556322,-0.008491107,-0.13092045,0.15693994,-0.07204218,-0.07641261,0.017661937,0.029324748,0.09454024,-0.03283859,-0.010882129,-0.20640388,0.18141113,-0.14665778,0.07207954,0.15321714,-0.028740702,0.048735145],[-0.10777734,0.13588196,-0.10346358,-0.09000213,-0.19460872,0.26739293,0.16072103,0.17710626,-0.07053795,0.02212215,-0.008423429,-0.16486254,0.048456732,0.109238565,0.017236024,-0.14053681,-0.09809907,0.21002032,0.24341533,-0.028244374],[-0.13499391,-0.0133198,-0.15535016,-0.052480638,-0.07961652,0.0042038593,0.09143059,-0.14043722,0.028619863,0.04178581,0.051206764,0.14956257,-0.014552095,-0.021169677,-0.12348976,-0.027307501,-0.04674497,0.040052447,-0.017838636,-0.08618515],[-0.0346702,0.2036003,-0.08261869,0.11343986,0.102604754,-0.19997232,-0.24146204,0.0072378665,0.06287744,-0.15327968,0.108234435,-0.003979745,0.066213414,0.06976924,-0.050624333,-0.04467889,-0.057131745,0.11003746,-0.07293342,-0.100612886],[-0.026604459,0.076562025,-0.072545625,-0.14786008,-0.019478623,-0.0017579508,-0.16170226,-0.12827641,0.08094902,0.11047036,-0.112032846,-0.009911104,0.014038899,0.104488656,-0.01895055,-0.10418391,0.09428929,-0.16882189,-0.0047032065,-0.046610024],[0.04428436,-0.1568539,-0.091365695,0.045489136,0.053076833,-0.06556404,-0.08341176,-0.082249604,-0.031659395,0.09954309,-0.012910126,0.036805112,0.12856522,0.117497236,0.102186665,0.04452272,0.08961493,-0.09814023,0.09883299,-0.060880657],[0.055408627,-0.01694239,-0.03316391,0.14122637,0.06691457,-0.019318715,-0.11661628,-0.05388106,-0.039350014,-0.038519226,-0.14815968,0.070706576,0.023031084,-0.031241016,-0.078199364,0.012562726,-0.13493158,-0.030001093,-0.058543045,-0.10203291],[-0.19219226,0.02366465,-0.025271108,0.1389768,0.123574264,-0.06385965,-0.121829174,-0.03224954,-0.080376096,0.22644071,-0.062653646,-0.08097998,0.007527738,0.04781942,-0.074990265,0.038892433,0.012224494,-0.0927989,-0.1326251,0.026791316],[-0.09022411,0.10247188,0.28198802,-0.14121735,-0.08893397,-0.08107883,-0.2516342,-0.035852846,0.06932457,0.027514834,0.12167226,-0.034128625,-0.06703331,-0.052145436,-0.023144234,0.10369971,-0.010660596,0.16811337,0.07730918,-0.051201433],[0.02100051,0.029915275,0.14258845,0.044283375,0.0945478,0.015189301,0.05195146,-0.014101792,-0.109317,0.026966514,0.078474425,0.14335848,-0.12683995,-0.016119886,-0.038809203,0.15822619,-0.011988704,0.0027557954,0.009088165,0.030407473],[-0.1644781,0.086154446,-0.2752249,-0.013206761,-0.0041468586,-0.06234976,-0.032959197,0.026594384,0.055488918,-0.101751335,0.07427538,-0.07140734,-0.030379502,-0.058875903,-0.045229126,-0.112784974,-0.0021794185,0.13536203,0.07332537,0.06349151]]},{"biases":[-0.104531154,0.0017187737,0.08031896,0.041260056,0.014910527,0.049367543,0.039546274,0.033621084,-0.19378331,0.03133903],"values":[0.0,0.0,0.0,0.0,0.0,0.0,0.0,0.0,0.0,0.0],"inputWeights":[[0.068004966,0.043134995,-0.038946763,0.05324392,-0.11175089,0.046681866,0.05296602,0.059167523,0.17120495,-0.050070282],[-0.019097224,-0.09761114,0.016228676,-0.11823574,0.10148754,-0.17673819,0.042980913,-0.1635786,-0.059221666,-0.04323591],[-0.026728462,0.075267404,0.047369078,0.05435611,-0.03697983,-0.0011263267,0.006321664,0.073182195,0.10503269,-0.029514797],[-0.04233264,-0.13405555,-0.102362424,0.11711726,0.08772882,0.095638916,-0.04723417,-0.17322783,-0.109503336,-0.27522972],[0.044564407,0.04793799,-0.06408193,0.06486155,0.041812837,-0.091795534,0.19255368,0.03848096,-0.14226702,-0.11637188],[-0.032065243,-0.02160411,-0.25139123,-0.14268456,-0.16445246,0.08674542,-0.0033965318,0.0021235629,-0.009483149,0.040868867],[-0.13815576,0.024508368,-0.092708535,0.15945862,0.07194512,-0.052710544,-0.030284094,-0.17504026,-0.25663465,0.123931035],[0.04368651,0.07050709,-0.05241227,0.10030872,-0.054192763,-0.016625594,0.004966237,-0.1340188,-0.14977072,-0.11688005],[0.11576627,-0.041880123,-0.062792346,0.026013661,0.06448661,-0.098217264,-0.043630958,-0.07910787,-0.13660166,-0.024020787],[-0.037483558,-0.11315183,-0.21081881,0.099700935,-0.11765296,-0.22025895,-0.010242093,-0.1606311,0.13216574,0.09041962]]},{"biases":[-0.08494375],"values":[0.0],"inputWeights":[[0.045631792,-0.023888163,-0.11523762,-0.09194914,-0.1277567,0.06734312,-0.05258639,0.09425032,0.035909396,0.016599957],[0.2401719,0.058576796,-0.10751278,0.010197584,0.016867774,-5.075005E-4,0.01795524,0.099295616,0.16478,0.040185086],[-0.06512384,0.081953526,-0.19519942,-0.038391028,0.054604407,-0.100101545,-0.10452214,0.03823731,0.030101584,0.018922808],[0.11961458,0.028567046,-0.03407305,0.052936416,-0.08083617,-0.053215697,-0.20642054,0.27362165,0.061341416,-0.03271834],[-0.14226365,-0.22438698,0.15060675,-0.15503845,0.041918077,0.11273997,0.017328024,-0.18773144,-0.21545008,-0.06484528],[-0.012632678,0.057603233,0.09339802,0.09594125,0.047049303,0.004742757,-0.015058195,0.112460144,0.010352991,0.028670324],[-0.027336944,0.04402609,0.2041534,-0.083888136,0.10944355,-0.037707705,0.11162583,0.045718674,-0.050529152,0.026805565],[0.13572986,0.114472464,0.009012545,-0.18276076,0.080944,-0.035631802,0.06367229,-0.022251023,-0.064355165,-0.11073564],[0.022466019,0.15897116,-0.016857434,-0.14499979,-0.031956054,-0.009709781,0.03767468,-0.11549266,0.020245664,0.091363996],[0.09410489,-0.008730452,-0.097999774,0.05281456,-0.15977347,0.016922578,0.13375898,0.057657037,0.027722815,0.1081855]]}]}},{"fitness":0,"neuralnetwork":{"inputLayer":{"biases":[0.0,0.0,0.0,0.0,0.0,0.0,0.0,0.0,0.0,0.0,0.0,0.0,0.0,0.0,0.0,0.0,0.0,0.0,0.0,0.0],"values":[0.0,0.0,0.0,0.0,0.0,0.0,0.0,0.0,0.0,0.0,0.0,0.0,0.0,0.0,0.0,0.0,0.0,0.0,0.0,0.0]},"layers":[{"biases":[0.013838993,0.18778865,0.045846336,0.17318958,-0.061485115,0.020807792,0.121017694,-0.11035837,0.09932366,0.076275244],"values":[0.0,0.0,0.0,0.0,0.0,0.0,0.0,0.0,0.0,0.0],"inputWeights":[[-0.028473644,0.05229394,0.25843868,3.936812E-5,0.054013588,-0.19674705,-0.12703826,-0.0022530034,0.14703754,-0.099267736,0.19795807,-0.22146702,0.031366732,-0.11182638,-0.051433254,-0.19572152,-0.1394917,0.015354271,0.07900585,0.086729206],[0.114316575,0.034029443,0.008408694,0.10940436,-0.008658846,-0.0783046,-0.013314137,0.07775652,-0.030081706,-0.1292474,-0.068500094,0.07935519,0.14066385,-0.13490583,0.098401345,0.090521835,0.032579035,-0.14187779,-0.07659948,0.01275366],[-0.24554424,0.09988052,-0.15015113,-0.16209525,0.047729827,0.021078642,0.03382089,0.024477318,-0.013128351,0.0509943,0.15008599,0.009721584,0.038210288,0.19865716,-0.07321434,0.08978484,-0.21055998,-0.08325274,0.09849176,0.017882107],[-0.064360626,0.16016334,0.028821144,-0.08266127,2.2180287E-4,1.4836696E-4,-0.09031751,0.036817662,0.151843,-0.047378097,-0.12671383,0.066191584,-0.07159622,0.13998853,0.03490431,0.13618216,-0.035842754,-0.19134602,-0.05467658,0.056126516],[-0.16270664,-0.13651027,-0.08687409,-0.0019226694,0.093497604,-0.09494526,0.26925984,-0.0059352545,-0.12232342,-0.0700244,-0.11586704,0.0031105247,0.116203085,-0.01805707,-0.20643845,0.106907144,-0.08488801,-0.0919551,-0.00898031,0.089938134],[0.015826708,-0.23802301,0.13702302,-0.08460239,-0.15495224,-0.007788486,0.3074719,0.09183763,-0.017625086,0.12762734,-0.10710616,0.018729873,-0.05187525,0.118090294,-0.017470175,-0.11424182,0.06776188,0.10420078,-0.00715491,0.06903788],[-0.040639155,0.031272758,-0.03465593,-0.069423966,0.040287293,0.030696929,0.07673984,-0.12451766,0.005902229,-0.07498616,0.23725946,-0.011098053,0.1592,0.092280224,0.18889832,0.075880244,-0.042863872,-0.20990008,0.0928607,-0.108758084],[-0.01630161,-0.1007279,-0.0027710313,0.14643317,-0.16895513,-0.19493681,-0.01285991,0.15326828,0.0022309243,0.06891743,-0.052929584,-0.07781653,0.1385707,0.11192362,-0.024756335,-0.03294883,-0.025281398,0.02526664,-0.010605403,-0.10989212],[-0.064782985,-0.1485864,0.039350476,0.0843296,-0.04374896,-0.10196381,-0.14659962,0.039380837,-0.003909383,-0.045872536,-0.07826247,-0.12119009,-0.1073661,0.03889977,0.080668665,-0.03545368,0.09155487,-0.061416283,0.02802878,0.03460242],[-0.06790496,0.02106572,0.22516744,-0.12697373,0.007816364,-0.05989236,-0.004781361,0.026811162,-0.11832284,-0.12010442,0.079736516,-0.030250147,-0.16233566,-0.12309495,0.027055426,0.19054252,-0.05781328,-0.1487635,0.05806892,0.058513116],[-0.02245662,-0.030793075,-0.04645366,0.106998235,0.06967359,-0.024385165,0.016450498,-0.056953393,0.013898124,0.26704076,0.01601465,0.053732984,0.13729326,0.042416,-0.060169782,-0.25565162,0.13143821,0.10082634,0.12853621,-0.1567013],[-0.020601446,-0.03612529,0.051346894,-0.04753396,0.1347129,-0.22510642,-0.1270837,0.0682427,0.021876607,0.077767275,0.0062282737,0.23851185,-0.09775076,0.026763037,0.055869874,0.14915997,-0.024219438,0.16589072,-0.07485675,-0.159599],[0.18036155,-0.14258526,-0.17936246,0.14828178,0.13860863,0.047907952,-0.018137645,-0.23906396,0.12581821,0.027602648,0.09832239,-0.12229158,0.044031948,0.044764824,0.033763085,0.18418047,-0.16369972,-0.036637798,0.04196338,0.009046864],[0.11223298,-0.0012805971,-0.0790367,-0.21106443,0.010690786,0.101791196,-0.034375716,-0.0017788326,-0.0043136557,0.028664641,-0.09845597,-0.038854122,0.054783065,-0.05583493,-0.16337001,-0.016120741,0.11143603,0.04383007,-0.094756424,-0.08263344],[0.048671026,0.06991193,-0.008020524,-0.13016488,0.106462225,0.017451808,0.017798996,-0.009666763,0.019484818,0.027414931,0.08236534,0.080871694,-0.0012582891,-0.07074213,0.04977508,-0.070113875,0.14608836,0.009027706,0.15601426,0.08360985],[-0.11680293,0.17806266,-0.062038835,-0.052739695,-0.0377345,0.06168417,-0.051606875,0.0024664262,-0.16279863,-0.08916718,0.10275526,0.014722602,0.04749689,0.266052,0.053401873,-0.019459281,-0.003831642,0.0352848,-0.1604181,-0.018830173],[-0.01977641,-0.029650541,-0.08143915,-0.07624561,0.05542975,-0.04762466,0.005739642,-0.103206106,0.040189065,0.030961717,-0.043952417,-0.051588498,0.034003083,-0.19179432,0.08758194,0.07492452,-0.02956122,-0.1622153,0.07580447,0.1349363],[-0.025847064,-0.038003854,0.029560052,0.05215776,0.072587736,-0.08495003,-0.039544314,-0.12187867,0.13986956,-0.09875381,-0.02295911,-0.1280472,0.04337661,-0.12782374,0.033459175,-0.058235556,0.012826514,0.056392744,0.044673156,-0.11288136],[0.054398835,-0.0736279,0.03825607,0.0634956,-0.024329448,-0.037614726,0.016921483,0.010751185,-0.015718475,0.10071667,0.16148654,0.17182346,-0.02100635,-0.042405322,0.0011323885,0.18221305,0.055512216,-0.099985085,-0.03840147,-0.042627517],[-0.015731286,0.05581463,0.026460424,-0.07276049,0.0057956195,0.011834428,-0.12696676,0.08946586,-0.026181027,-0.035720907,-0.040136874,0.019801663,-0.08045311,-0.022733394,0.03498411,0.06544766,0.04878299,0.10904153,-0.038664937,-0.22806066]]},{"biases":[-0.08378722,-0.060437646,-0.08450495,-0.096370764,-0.021920042,-0.043804128,-0.07060494,0.060857322,0.028803062,0.078310214],"values":[0.0,0.0,0.0,0.0,0.0,0.0,0.0,0.0,0.0,0.0],"inputWeights":[[0.28003722,-0.028276369,-0.17500018,0.051138807,-0.054258917,-0.02613248,0.036171213,-0.25806051,-0.020902311,0.021674037],[0.15733486,-0.19697966,-0.011403673,-0.07770676,0.07423777,0.15501541,0.17170975,0.07429237,-0.16352926,-0.1793411],[-0.096100226,0.05182147,-0.11205382,0.037143275,-0.048015743,0.11912161,0.04680075,0.21365808,0.07556424,-0.1937495],[0.034425505,-0.0033512933,0.07667168,-0.064864814,-0.19588578,-0.053000744,0.21455152,0.04201381,-0.039332792,-0.015800774],[-0.28254986,0.017208496,-0.10634846,-0.12688412,-0.041345656,0.14826715,-0.055072613,-0.073814236,-0.19034514,-0.011406583],[-0.065470666,-0.047965087,0.07285912,0.082613446,0.048966683,0.20481049,-0.066428326,0.025206102,-0.109446555,-0.10388014],[0.05459867,-0.17029113,0.10705332,0.03199432,0.09909357,0.035306174,2.7636718E-4,-0.08483192,-0.027904896,0.17700602],[0.08165426,0.022077871,-0.11982992,-0.012205939,0.080150835,-0.08658513,0.183042,-0.13777341,0.15590806,-0.054268368],[-0.07124125,0.08600725,-0.05779999,0.08460027,0.031238595,-0.09342881,0.08623875,-0.07765507,-0.059991628,0.012200244],[-0.12257659,-0.014142484,-0.121467546,0.07884057,-0.019859497,0.041388918,-0.26385933,-1.3043138E-4,-0.13871932,0.09445523]]},{"biases":[-0.11975182],"values":[0.0],"inputWeights":[[0.020136466,-0.043788113,-0.055141963,-0.109124824,-0.06861707,-0.07073258,-0.020172223,0.07838466,-0.041374587,0.13636436],[0.032320056,-0.028014569,0.13346823,-0.1055113,-0.14686014,0.037131112,-0.043494765,-0.25751606,0.14459442,-0.11673055],[-0.11117215,-0.0028547451,0.15580778,0.07014371,-0.17886998,0.03902371,-0.077997096,-0.082535855,0.12964675,0.118848465],[-0.20719747,-0.029747676,-0.066802725,0.0868467,-0.20034024,-0.13876463,0.040500358,0.040041152,-0.030383868,-0.07147301],[-0.024808044,-0.06970924,-0.00342311,0.013804728,-0.018598678,0.06399524,-0.016856916,-0.10683433,0.07278149,-0.057379194],[-0.14483637,0.0155799985,0.061499752,0.16505115,0.06518657,-0.06343665,-0.038952675,1.2948351E-4,0.04712087,-0.089746304],[0.066602245,-0.089682996,0.2192434,0.092961125,-0.037003994,0.07666941,-0.13672858,-0.065173626,0.025013672,-0.06741308],[-0.03107832,0.20739344,0.055887144,0.088305674,0.07410665,-0.11028631,-0.011699887,-0.114702135,-0.01424658,-0.11231112],[0.06336028,0.13845615,-0.050327398,-0.13526957,-0.018149866,0.03712856,-0.18017863,0.101426154,0.06400657,0.025337577],[-0.084498696,0.04534319,-0.06492918,-0.043498557,-0.019299863,-0.16752285,-0.029053506,-0.25261045,-0.061070498,0.043760173]]}]}},{"fitness":0,"neuralnetwork":{"inputLayer":{"biases":[0.0,0.0,0.0,0.0,0.0,0.0,0.0,0.0,0.0,0.0,0.0,0.0,0.0,0.0,0.0,0.0,0.0,0.0,0.0,0.0],"values":[0.0,0.0,0.0,0.0,0.0,0.0,0.0,0.0,0.0,0.0,0.0,0.0,0.0,0.0,0.0,0.0,0.0,0.0,0.0,0.0]},"layers":[{"biases":[0.005033022,0.08147748,0.052191705,0.14733846,-0.09681359,0.051248066,-0.016559998,-0.05516212,-0.013475006,0.020128166],"values":[0.0,0.0,0.0,0.0,0.0,0.0,0.0,0.0,0.0,0.0],"inputWeights":[[0.07581741,0.018213684,0.06998893,-0.03068741,-0.15565565,0.012593409,0.0402401,-0.17246065,-0.20390294,0.03130458,-0.120634854,0.01895175,0.0031980488,0.037871156,0.0082933325,-0.06993903,0.08081174,-0.09215693,-0.05161738,-0.11119134],[0.03911375,0.0040059783,0.24553767,0.0077140103,-0.18172443,0.06375739,0.0011667338,-0.08445496,-0.02477168,-0.016711386,0.19526324,-0.25677073,0.023671828,-0.16379349,0.040297363,-0.03616049,-0.092849046,-0.052850798,-0.060338955,-0.0058646407],[-0.002978629,0.11087895,0.011628783,0.082943045,0.011073514,-0.13144903,-0.043550357,-0.035125673,-0.05647677,0.12629378,0.20097244,0.08812768,0.0038205627,-0.045604464,0.0404009,0.25297353,0.20576055,-0.049178664,-0.12249964,-0.03239463],[-0.106890425,-0.17534055,-0.09277996,-0.02015986,-0.040413193,0.12894757,-0.090357445,0.021335382,-0.16087377,-0.05994112,0.1211688,-0.19039957,-0.11239642,-0.15523869,-0.0688942,0.12272906,-0.116041586,0.19738734,0.08457636,-0.06869005],[0.04509724,0.015380294,0.045292445,-0.12403446,0.10767842,-0.030222483,-0.19817822,-0.01149165,0.0032486534,-0.20624603,-0.2741903,0.013249664,-0.13853504,0.018847631,0.029568214,-0.0013497263,-0.019586142,0.1670515,0.019699676,0.01632684],[0.005334145,-0.019845342,0.0066649825,0.13324347,0.18518758,-0.00883717,-0.073035546,0.20270349,-0.09627344,0.24279931,-0.0933915,0.0446553,0.13032745,0.039718214,-0.050387964,0.12701954,0.04446389,0.1416417,0.011402041,0.057967924],[-0.1293993,0.1390791,-0.029701965,-0.020429926,-0.11792929,-0.17476542,0.10844717,0.027366564,0.04800618,-0.11165544,-0.022019075,0.072175615,-0.14646444,0.06305129,0.029675664,0.022235855,0.07560713,-0.06360724,-0.05772792,-0.20459618],[-0.1114539,0.13511826,0.007409063,0.04173093,-0.11522396,-0.043980986,-0.06677734,0.1269907,0.032279376,0.02697566,0.117247574,0.031686842,0.079387076,0.085388966,0.12584253,0.079656355,-0.010314342,-0.11754049,-0.023592163,0.16295463],[0.006226411,-0.038168997,-0.09494201,0.1359575,0.08111292,-0.05057258,0.06431375,0.15821652,0.030430164,0.11651552,-0.07765629,0.033041768,0.03282719,0.09254172,-0.005985348,0.21605255,0.08840279,-0.14595795,-0.0010673308,0.14404789],[0.021108432,-0.08106486,0.031119369,0.003988213,0.008380691,0.1038222,0.0045165494,0.06866601,-0.11094934,0.03596719,-0.08549711,-0.046467494,-9.3375356E-4,-0.056023203,-0.1118493,0.10745873,0.057770625,0.18971142,-0.14315015,0.027196795],[0.02658235,-0.06407094,0.027425887,0.09279925,-0.0342184,0.09496927,0.08152874,0.083156735,-0.07547945,-0.007177084,0.0137597,0.17865133,-0.037965655,-0.23032093,-0.08284359,-0.0137344245,-0.08613909,0.13512269,0.07012863,0.035873327],[0.035537377,-0.0078913225,-0.096376605,0.04466219,-0.17461856,-0.047269877,-0.06867894,-0.021298483,0.013303559,0.0316856,-0.0635731,0.04719281,-0.16840869,-0.111404106,-0.08540559,-0.07588619,0.04553157,-0.0100917,-0.048176434,-0.1750168],[-0.02710169,-0.010456219,-0.1555059,0.08496345,-0.019154176,-0.11434527,0.005089327,0.07285717,0.078307234,0.0389564,0.09767252,0.12156715,0.20972145,0.102849595,-0.10549754,0.13217108,0.059678923,0.019128386,-0.15291248,-0.07937234],[-0.17002705,-0.031631663,-0.1274517,0.013564114,0.16765833,0.051788017,0.035460196,-0.15620802,0.048780352,-0.3175329,-0.061671298,-0.21999937,-0.122406356,-0.13580027,-0.14020397,0.15800996,0.032097597,0.058928024,0.03336286,-0.12171601],[-0.2774026,0.09377049,-0.112333685,-0.06491613,-0.05055863,0.026453905,-0.03720725,-0.03076995,0.063607104,0.003275503,0.11868196,-0.07010749,-0.25137445,-0.074479446,-0.07698809,-0.001997967,0.0064803637,-0.051546376,0.029448185,0.08142606],[0.092438094,-0.13879713,0.07783395,-0.047929894,-0.008217293,-0.0102289915,0.037721224,-0.057331666,-5.970271E-4,-0.08098373,-0.03295798,0.00771336,-0.0012638351,0.14660293,0.023292813,0.093726665,-0.07937847,-0.06157567,-0.0387042,0.009917714],[-0.04731451,0.08902249,-0.041620165,-0.08495482,-0.09143238,-0.18946864,0.055054013,0.09724593,0.12588482,-0.083929524,0.02596903,0.0044752103,-0.019326292,0.29949197,-0.008465662,-0.020328928,-0.041765537,-0.0010611124,-0.0068535316,0.22233175],[0.18070842,0.107045524,0.13687032,-0.03663956,-0.098176226,-0.10637363,0.006052343,0.13027334,-0.009550435,0.100271046,0.2863154,-0.11995264,0.20552316,0.05538701,-0.089816436,-0.061821353,0.11198614,-0.0623397,0.043454614,-0.22892024],[0.060167976,0.07959445,0.16811055,0.04474924,-0.15944904,-0.037425775,-0.019240206,0.07976063,-0.04779321,-0.048070937,-0.101984106,0.048866123,0.020963756,-0.17625229,0.034261,0.06146643,-0.13349001,0.08955167,0.045962565,-0.059995167],[-0.141343,0.034056623,-0.21074642,0.29845658,-0.11101331,-0.07051012,0.078982644,-0.06185749,0.049048204,-0.11649181,0.18305935,-0.22484279,0.005679703,-0.11761848,-0.12580273,-0.14467084,-0.10590123,0.11581574,0.014251306,0.03349214]]},{"biases":[-0.09182236,-0.027047774,0.011910146,0.099229045,-0.06618021,-0.10289815,0.19815488,-0.05543897,-0.041466102,0.0071598436],"values":[0.0,0.0,0.0,0.0,0.0,0.0,0.0,0.0,0.0,0.0],"inputWeights":[[0.045314647,0.05919614,-0.19031563,-0.005972472,0.03288957,0.043449424,-0.060268905,-0.001308119,0.07552904,0.088446856],[-0.067482464,-0.050197944,0.07862923,-0.023065314,0.0027073736,0.027371407,-0.034293976,-0.07542705,0.022610093,0.03904008],[-0.023062263,-0.07746333,0.21615613,-0.11345419,0.02988716,0.041057743,-0.14863427,0.018628221,0.06993748,0.017795645],[0.07098151,-0.04946229,0.035205103,-0.03982477,-0.0041383635,0.0667527,0.02865999,-0.06683962,0.063749574,-0.041431505],[0.0724692,0.116893224,-0.17800482,-0.026413638,-0.15658696,0.02769759,-0.0214593,0.08884447,0.15277523,0.012649508],[0.10335127,-0.13780588,0.110280976,0.026727691,0.20029792,-0.11112619,0.021017887,-0.04190891,-0.03491799,-0.010851902],[-0.17379768,-0.14687416,-0.06006153,0.11057708,-0.045021478,-0.19855969,0.019376919,-0.11634889,-0.04474053,0.17134935],[0.05378133,-0.056905504,0.15857425,-0.06375417,-0.16272312,-0.024909908,0.051122155,0.12358614,-0.08840253,0.0794486],[-0.11164863,0.12148134,0.08603902,0.05329913,0.0043954197,0.041194707,-0.044225935,-0.13190168,0.08389106,0.01603432],[0.15274048,-0.036336802,0.18147448,0.030773956,-0.06270303,0.09071813,-0.036428563,0.017796062,-0.12445645,-0.011469987]]},{"biases":[-0.12809673],"values":[0.0],"inputWeights":[[0.04856953,-0.04711022,-0.046137568,0.14809024,0.010451857,-0.01840674,-0.1393499,0.012689403,-0.13309087,0.044627592],[-0.07152851,-0.057062194,0.05910158,-0.10384802,-1.4699825E-4,-0.075656004,0.022863459,0.15347274,-0.19662483,-0.10922889],[-0.17207874,0.028428257,-0.15483755,-0.019875223,0.027760575,0.016597351,0.08174796,-0.12910965,0.12670435,-0.038577802],[0.12722428,0.0018277344,0.1403314,0.08653649,0.01182759,-0.10790021,-0.118819,-0.21526685,-0.025084458,0.0778358],[0.13396455,0.1371856,0.18980043,-0.031749118,-0.038400516,0.116247185,0.10985766,-0.062019642,0.018455325,-0.016595235],[-0.02544818,-0.028713617,0.105098754,0.052510057,-0.018207192,-0.13290337,0.03961781,-0.04559093,-0.002131417,-0.13163844],[-0.05203399,-0.024062915,0.0468137,0.026487906,-0.030852756,-0.099622495,0.14556889,0.040534113,0.11399093,-0.1505877],[-0.009736807,0.038270935,-0.1139693,0.23856106,-0.10855882,-0.015369563,-0.077135175,0.20198388,-0.027958564,0.083772],[-0.07516307,0.08358158,0.061362825,0.294623,0.023114407,-0.032781705,-0.092655264,0.016960826,-0.016851896,0.011465154],[0.16668458,0.04319434,0.117204756,0.005237312,-0.0042016474,-0.10534955,0.118504114,-0.07034653,-0.12215432,-0.0506431]]}]}},{"fitness":0,"neuralnetwork":{"inputLayer":{"biases":[0.0,0.0,0.0,0.0,0.0,0.0,0.0,0.0,0.0,0.0,0.0,0.0,0.0,0.0,0.0,0.0,0.0,0.0,0.0,0.0],"values":[0.0,0.0,0.0,0.0,0.0,0.0,0.0,0.0,0.0,0.0,0.0,0.0,0.0,0.0,0.0,0.0,0.0,0.0,0.0,0.0]},"layers":[{"biases":[-0.024645297,-0.099631816,0.14676209,-0.037088294,0.10830951,0.10740708,0.04794754,0.0015723808,-0.14001295,0.08557133],"values":[0.0,0.0,0.0,0.0,0.0,0.0,0.0,0.0,0.0,0.0],"inputWeights":[[0.09429119,0.04012377,-0.023805825,0.01860858,-0.0054412875,-0.08273114,0.0018977224,-0.099215604,0.07056089,-0.01839314,0.042316496,0.12420921,-0.068741,0.13744983,0.14458583,0.020679256,0.12907118,-0.037016135,0.15296459,-0.10578441],[0.018458342,-0.063637055,-0.006196924,-0.027596667,0.11872103,-0.004470806,-0.18777421,0.030160893,0.09868018,0.025997303,0.10513272,-0.0013845797,-0.06989984,0.054636616,0.012301914,-0.13009417,0.025465073,0.061990574,0.08055784,0.025421873],[-0.020561354,-0.0035945084,-0.08708336,-0.06550872,0.03916808,-0.01692931,0.08050701,0.061187413,0.012225172,0.011629629,-0.07434311,5.769305E-4,0.0016875764,-0.16686614,0.0060240994,0.027304154,-0.0233552,-0.0629741,0.19190587,0.015699001],[0.056083377,0.03050954,0.022048224,-0.029795058,0.23804875,0.071137846,0.16287066,0.070217505,0.092376955,-0.08446392,0.016401328,0.0143144075,0.024383174,0.01727259,0.114968695,-0.041308254,0.03343996,-0.2236465,-0.0045100953,-0.11204543],[0.08267447,0.028259827,0.08173882,0.042151228,0.04900787,0.052188095,-0.0039813514,-0.08282602,0.11617426,-0.044114776,-0.13917543,-0.21482117,-0.113068424,-0.08748085,-0.105618365,-0.051531017,-0.26292276,0.03421317,-0.24785331,-0.088948645],[0.091312096,-0.073375925,-0.037337095,0.17130549,-0.051412154,0.07741462,-0.075146735,-0.07930256,0.10283445,-0.001626328,-0.118250035,-0.13234629,-0.20763327,-0.03739981,-0.13676427,-0.057649657,0.0056347335,-0.06546627,-0.100563146,-0.24015662],[-0.07565662,0.06682718,-0.03857881,0.011740797,0.20347866,0.14529684,0.061315358,0.05484659,0.028015066,-0.110437155,0.04275508,-0.069951236,-0.109291755,-0.040564653,-0.059314128,0.111595705,0.033635985,0.18663156,-0.010972062,-0.030403217],[0.078886285,0.13059253,0.08307915,-0.11242695,-0.039773043,-0.030136997,0.009519677,-0.10094796,0.015494124,-0.062552266,0.004010322,0.17093438,-0.05134755,-0.051586993,-0.108761944,0.07152909,0.12632571,0.048813283,0.014983397,0.06491104],[0.055664025,-0.04908768,0.17558038,0.07519109,-0.06764592,0.0032662768,0.12604502,0.055675708,0.07897024,0.004415252,-0.15568233,-0.1265482,0.21289608,0.027834117,0.014898874,0.16806565,0.11432499,0.13586532,0.10973517,0.10135138],[0.16838618,0.114949256,-0.057223167,0.18557003,-0.16751984,-0.056878213,0.20473525,-0.026714781,0.036496345,0.035989746,0.14926997,-0.14428371,0.14747456,0.070049874,-0.024091827,0.15332767,-0.08041219,-0.0112015195,-0.10183748,0.0203966],[-0.0914009,-0.082220994,0.03435262,0.03138261,-0.0751589,-0.082122505,-0.056652244,-0.07519131,0.011418546,0.19451828,0.24856928,0.1181315,0.2533103,0.09659734,-0.2139664,-0.05654682,-0.052159503,-0.005739156,-0.029956158,0.15891285],[-0.03353213,0.109457664,0.16426727,-0.09410875,-0.014771124,-0.017277954,0.06251469,-0.029423742,-0.062608875,-0.17716603,0.03908464,0.056928802,0.16416737,-0.18097126,-0.0137693295,0.17733397,-0.076720186,-0.09612057,-0.050000787,-0.056649838],[-0.07670791,0.16490825,-0.04726743,0.00272406,0.06482607,0.15584274,-0.016954817,-0.04594248,-0.101099074,-0.05081635,-0.07874865,0.07673054,-0.04502173,0.08229727,0.07010111,0.07192935,-0.16348119,0.026199296,-0.07956241,-0.035479836],[0.038036972,-0.09460843,0.098848954,0.08132864,-0.0049631526,0.098108545,-0.04620789,-0.09611155,0.027358558,-0.07720389,-0.075367205,-0.03838198,-0.10607489,0.007777117,8.666594E-4,-0.0799736,-0.01256603,0.14419289,0.19591607,-0.0958215],[-0.15376735,0.030912094,-0.01537636,0.01788557,-0.02407915,-0.12554576,0.14096956,0.0025415102,0.06470726,0.18380213,-0.011339867,-0.06793799,0.1361322,-0.08898713,-0.09973425,0.06970336,0.23990741,-0.14518693,-0.019001918,0.035724632],[-0.06344472,-0.0854789,0.008623849,0.05665725,-0.025370976,-0.18004452,0.025964873,0.09168234,-0.08667759,0.17698611,-0.061906587,-0.009444506,0.061807256,0.06465503,-0.15821745,-0.020359524,-0.0455246,-0.06651106,-0.04416002,0.00943729],[0.21290202,-0.024821257,-0.14687356,0.029371887,-0.006441746,-0.1683442,-0.09148809,0.03594422,-0.21168175,0.013208218,0.03208304,-0.03396156,0.062306095,0.059127808,0.05028807,0.010859742,0.026447687,0.030901965,-0.11402478,-0.039688535],[-0.06538634,-0.072082326,0.12990817,-0.07045019,-0.032897376,-0.0072473353,-0.1223797,-0.0010392593,0.16838017,-0.027886515,-0.07179644,0.13768007,0.19067831,-0.09000225,0.10479626,0.03963539,-0.10664079,0.013951242,-0.0013070882,-0.16157775],[0.15058528,0.112783,-0.10977056,-0.017823836,-0.07312556,-0.009336085,-0.07487909,-0.014701752,-0.009225024,0.08728833,-0.12897535,-0.19386356,-0.0025480697,0.01173823,-0.12254847,-0.02409614,0.11962129,0.15466201,0.08624838,-0.028570933],[-0.053547412,0.06408923,-0.11680035,0.067884736,0.12994388,0.026120778,0.082238264,-0.039493937,-0.15370193,-0.10407636,-0.12558827,0.30693695,0.08801312,-0.051415466,-0.01946715,0.07692149,-0.01923151,-0.022377895,-0.050484125,-0.11867382]]},{"biases":[0.023190819,0.1564614,0.058305167,0.1913204,-0.20767537,0.092997156,-0.10134327,0.0027409527,0.04772474,-0.1187058],"values":[0.0,0.0,0.0,0.0,0.0,0.0,0.0,0.0,0.0,0.0],"inputWeights":[[0.1065087,-0.10045481,-0.059048142,-0.031533446,0.022943672,0.07479088,-0.053674642,0.060755596,0.14243397,0.026917035],[-0.011119469,-0.17139095,0.023305507,-0.02311538,-0.20111656,0.09164107,-0.0033197212,0.04969406,0.052853476,-0.05948506],[0.01486886,0.031081447,0.004435597,-0.032874838,-0.074797064,0.080417894,0.16725795,-0.047521796,-0.059905585,0.075255476],[0.054774575,0.03235731,-0.025413012,-0.1689,0.13026191,-0.046040002,0.02411763,0.123719715,0.0562455,-0.21846916],[0.02624329,0.050576303,0.12854332,-0.018806491,0.09536792,-0.08175062,0.071545035,-0.103947416,-0.002627958,0.11150732],[-0.017109513,-0.14805375,0.03911298,0.1366054,-0.03515573,-0.04895006,0.14374216,-0.08921085,0.019598097,-0.081325985],[-0.05158079,0.02773696,0.077892974,-0.070481814,-0.024017232,-0.08635776,0.16775729,-0.15823211,0.04814406,0.0903058],[0.11077684,0.17422614,-0.1381366,-0.0019041557,-0.06719519,-0.09430032,-0.047953144,-0.12259889,-0.12595342,-0.15090185],[0.062160503,-0.1390915,-0.15730205,-0.06469057,-0.017694602,0.027363682,0.004668853,0.18451153,0.019324092,-0.027853282],[0.054475654,0.110531546,0.11004482,0.079396695,-0.016735936,0.044172503,-0.14411223,0.041322522,0.02688737,0.053508703]]},{"biases":[-0.06642925],"values":[0.0],"inputWeights":[[0.03360648,0.1793916,0.030966492,-0.0012094151,-0.07963134,-0.017460724,0.012295409,-0.12252598,-0.035198156,-0.09377577],[0.0054477323,0.13838224,-0.04913383,0.044305075,0.018602055,0.017761866,-0.023684625,-0.04603824,-0.057894237,-0.014561796],[-0.18377632,0.04975931,-0.04881449,-0.12720352,0.10637664,-0.059563972,0.036684312,-0.05667088,-0.08459071,-0.074509524],[-0.13247707,0.001265611,-0.011839105,-4.1484825E-5,0.11826851,-0.20203632,0.06801246,0.17446351,-0.11956124,-0.060080502],[3.2792584E-4,-0.035510365,0.030321818,0.201471,0.0990769,-0.0034541942,-0.1213512,-0.028629092,-6.662788E-4,-0.0067053917],[0.09481976,-0.12119175,0.21347502,-0.09833482,-0.09178091,0.11781148,0.04983048,-0.06921233,0.19430485,0.105106674],[0.06865512,0.15566182,-0.03658306,-0.049098685,-0.055321187,-0.25632587,0.11976176,0.061805047,-0.04607571,0.008339256],[0.121011436,-0.06760136,0.05968534,-0.0825621,-0.04857648,-0.11212611,-0.0280373,0.07479968,-0.0051346375,0.15738986],[0.03762097,0.016877828,-0.016674954,-0.013285942,0.06706185,0.1697635,-0.06017845,0.09990878,0.14037986,-0.06610588],[-0.09357862,-0.2039719,0.0965038,0.07971333,0.057445616,0.15566738,0.058281686,-0.16954793,-0.11454272,0.10225257]]}]}},{"fitness":0,"neuralnetwork":{"inputLayer":{"biases":[0.0,0.0,0.0,0.0,0.0,0.0,0.0,0.0,0.0,0.0,0.0,0.0,0.0,0.0,0.0,0.0,0.0,0.0,0.0,0.0],"values":[0.0,0.0,0.0,0.0,0.0,0.0,0.0,0.0,0.0,0.0,0.0,0.0,0.0,0.0,0.0,0.0,0.0,0.0,0.0,0.0]},"layers":[{"biases":[0.05485765,-0.07896606,0.025417259,-0.03644582,0.0036527887,0.08807158,0.020990951,0.06149215,-0.06545641,-0.08764461],"values":[0.0,0.0,0.0,0.0,0.0,0.0,0.0,0.0,0.0,0.0],"inputWeights":[[-0.06715815,0.073279396,0.083805904,0.08972283,0.11061401,-0.015653329,-0.031165147,-0.12227135,-0.09211319,-0.053626645,0.030556833,-0.17703371,0.10903841,0.120772146,0.031672407,0.06294224,0.03136362,0.0045870584,0.118177764,0.16507629],[0.08857105,0.07184055,0.16445462,-0.031109037,0.25378928,-0.0875974,0.012158722,-0.04538121,0.057048947,0.03858255,-0.06678486,0.15762931,-0.014363391,-0.03083368,-0.13793102,0.011307639,0.05269065,0.087148875,0.1482092,-0.051743],[-0.1466311,-0.06863321,-0.07302902,-0.04454779,-0.05797655,0.042266265,0.03556132,0.1996746,-0.121873446,-0.10989934,-0.13413206,0.00909814,-0.089207344,0.040817693,-0.08899114,-0.11983509,0.105671346,-0.033043843,-0.031720247,0.044323232],[-0.0086383745,-0.009549213,-0.044953406,-0.010041524,0.116386056,-0.11371519,0.08134214,-0.1364494,0.035908893,-0.041665122,0.045858484,-0.10401796,-0.16371702,-0.31035724,-0.019509226,0.0021052638,7.351598E-4,0.02227596,0.012834151,-0.004418941],[0.09551941,0.040970337,-0.15268734,0.1598565,0.012857,0.039757542,0.15622286,-0.029331049,0.122461684,-0.09957987,0.07761451,-0.16024265,0.032754656,-0.016274417,-0.062407367,-0.04988631,-0.22543855,0.039067734,0.040243473,-0.04295193],[0.11733091,0.0046487562,0.08059948,-0.046215158,0.05226297,0.056820843,-0.013308651,-0.01926404,-0.043815613,0.016061964,-0.045784403,-0.11615676,0.17280549,-0.04378898,0.06279896,0.09068626,0.06176016,-0.20282927,-0.0068333833,0.042792484],[0.06329381,0.013700583,0.052049354,0.034041483,0.16690652,0.03480524,-0.22047034,0.04902365,0.091261335,0.112165354,-0.15876149,0.026422938,-0.12151023,0.01384645,0.060364563,-0.0018578141,-0.015113772,0.028041592,0.02110967,-0.09588793],[0.030360026,0.014413688,0.02519912,-0.1824406,0.01970032,0.0021768413,-0.09704365,-0.09573509,0.0586467,-0.0010794959,0.0016000577,-0.12643397,-0.003956402,0.12427814,-0.1603662,0.009784479,-0.10853707,-0.04287961,-0.18427575,-0.16730523],[-0.035751864,-0.035388514,-0.069069035,0.028073367,0.053411767,0.13765657,1.4686346E-4,-0.123967126,-0.004032006,-0.075618364,0.0630565,-4.139067E-4,-0.02901514,-8.208045E-4,0.01811593,-0.021451885,-0.022237023,-0.060522884,-0.11334238,-0.06820312],[-0.05570518,-0.016038358,-0.11933876,-0.13119793,-0.02847797,0.06903029,0.12927684,-0.026013227,0.04004449,0.016614739,-0.09773326,0.005475773,0.001323764,-0.032564063,-0.14423335,0.11731936,0.05477387,0.07067211,-0.15279394,0.03850324],[-0.08528327,-0.11326988,-0.20780443,0.051617537,0.055659395,-0.021706775,0.08089478,0.09250042,0.13063219,0.025660845,0.18174188,-0.040985435,-0.017644318,-0.10682776,-0.02261405,0.004567452,-0.016305653,-0.027387777,0.11017367,0.045789532],[-0.0044222223,-0.08243983,-0.012735466,-0.123767056,0.06689139,-0.07011424,-0.114270456,0.053078357,-0.1385862,0.0622482,0.006763994,-0.014683591,0.09790354,0.11357243,0.044175733,0.04281345,0.18649784,-0.10663715,0.15540366,-0.0074220626],[0.032318797,0.040369667,0.0057626455,-0.2745933,0.27620187,-0.082837515,-0.16025543,-0.14322253,0.09319703,0.026768658,0.09677339,-0.02993357,0.037572064,0.10079568,-0.039249316,-0.07649231,0.016405545,0.035787906,-0.06208367,0.082766116],[0.06577165,0.026895853,-0.15393414,0.14253251,0.059422847,-0.16105542,-0.07060191,0.14933126,0.0016204028,0.01070508,0.12548332,-0.16647027,-0.06871462,-0.033017263,0.029921232,-0.12362904,-0.025953233,-0.1101477,-0.049992643,0.014381592],[0.14413181,-0.039393224,0.07817587,-0.04053551,-0.020960921,-0.06007673,0.15753715,-0.088707305,0.056219358,0.011306222,0.06687514,0.054149926,0.16320656,0.026375117,-7.0259906E-4,0.058492325,-0.018050537,0.17925759,0.18305457,0.02338702],[-0.1153843,0.040183667,0.10193266,-0.14761603,0.015438642,0.05855198,-0.064280905,-0.0061628614,-0.012965967,-0.17531896,0.037982654,0.07841953,-0.10493544,-0.13271463,0.007202711,0.1645642,-0.08634598,0.005125529,0.12546478,0.0606881],[0.121387355,0.16992304,-0.00965709,-0.0023299172,0.040794466,-0.022246046,-0.035252437,-0.0062935944,0.1767452,-0.11664867,-0.08571291,-0.05878972,0.020681992,0.031514313,-0.056654405,-0.13449472,0.055952176,-0.045557622,-0.13627574,0.0064623645],[-0.1034274,-0.058388844,0.1300506,-0.030987918,0.09166697,0.14865336,-0.111475326,-0.03751125,-0.02677707,0.00909747,-0.026020043,0.090876386,0.050182857,0.15163942,0.030530572,-0.15662196,-0.014471743,0.16031943,-0.06923647,-0.013466356],[0.093402445,-0.054001324,0.085734524,-0.11662213,0.02616404,0.024248568,-0.017255794,0.04668023,-0.1023054,-0.09858634,-0.085028745,-0.17353545,-0.06956669,-0.0022972606,-0.0898002,-0.039332353,0.13192539,0.058043443,-0.12920356,-0.04555354],[0.024253197,0.019223856,1.955445E-4,-0.090242416,0.15192227,-0.02209183,-0.085785,0.13280325,-0.021239229,-0.20505726,0.11422877,0.037803575,-0.08394071,-0.08016369,-0.117427334,0.064018615,0.050371975,0.029069819,0.08979675,-0.07422738]]},{"biases":[-0.19305575,0.07414153,-0.09898825,0.1466739,-0.12612347,0.082157105,-0.074166454,-0.047271512,-0.25783962,-0.10443037],"values":[0.0,0.0,0.0,0.0,0.0,0.0,0.0,0.0,0.0,0.0],"inputWeights":[[0.0020771355,-0.007085737,-0.05275473,-0.13077685,-0.07364219,-0.04947588,0.030504353,-0.14720674,0.12138326,0.009145118],[0.0016542408,0.12621672,0.035168655,-0.0058789016,-0.06293194,-0.12424772,-0.10787337,0.2180186,-0.14550824,0.047214337],[-0.037590098,0.19216533,-0.0030718942,-0.10856476,-0.046169575,-0.17847878,-0.009725876,0.017418986,-0.022498252,-0.15184245],[0.030939665,0.006503846,0.070589446,-0.027578656,-0.022713538,0.10397188,-0.015139911,-0.058243014,0.025881711,0.036037482],[-0.03632679,-0.03182866,0.10162684,-0.105718896,0.059602402,0.0469782,-0.048170272,0.08628979,0.050237685,0.100801595],[0.18871927,0.038439732,-0.01963592,0.04455689,-0.07653058,-0.035395574,0.055584326,0.09018622,-0.12126623,0.04610908],[-0.11399347,0.026642093,0.06825281,-0.017017098,-0.08041956,0.031893454,0.024186315,-0.059852798,0.09286055,-0.090062566],[-0.10301399,0.09849075,-0.03232685,-0.03126033,-0.11658037,-0.016260024,-0.04419955,0.0197407,-0.053153835,0.061973106],[0.089027755,-0.18189594,0.3669331,0.059908036,-0.03398208,-0.04766,0.013319304,0.036534715,0.14966601,0.073025756],[-0.20903459,0.08693788,-0.07770989,0.022944983,0.059460614,0.060526177,0.09267837,0.06435722,0.09440645,0.081941165]]},{"biases":[-0.12725689],"values":[0.0],"inputWeights":[[-0.18735924,-0.040846903,-0.091470905,0.18208072,0.05857801,0.0338445,-0.010087156,0.113131225,-0.13506421,-0.0147905415],[-0.053531907,0.017902028,-0.084265776,-0.021823736,0.1513981,0.12496671,-0.035662413,0.0059943013,-0.07504177,-0.0048127947],[0.06417825,0.17029688,-0.13512564,0.15253152,-0.06040505,0.13029899,0.11558459,-0.30065927,-0.09556186,0.18862201],[0.12657171,-0.06313883,-0.16020572,-0.16438925,0.028667917,0.09258182,0.042656057,0.13294767,-0.0734979,-0.14231311],[-0.11534811,0.021353612,0.1485115,0.011738293,-0.0965204,0.10398028,0.014126018,-0.06612856,0.013275657,0.07887873],[-0.013672084,-0.03188692,-0.038015027,-0.15768413,-0.016667593,0.023355842,-0.06859093,0.032430083,0.1622409,-0.15891972],[-9.7460655E-4,0.072818674,-0.030495567,0.20452896,0.05303705,-0.006187715,-0.14984216,0.017225187,-0.081434086,0.03282519],[-0.06475301,0.1119888,0.28268525,0.0895165,0.0031688581,-0.068885535,0.060441736,0.079051815,-0.038469784,-0.20761333],[1.0844716E-4,-0.04594959,0.17927715,-0.044609,0.05262962,0.024770735,-0.0022952987,-0.13757005,0.24120334,-0.0812774],[-0.013470704,-0.06343854,-0.0024255095,0.03153951,0.07616564,-0.21897985,-0.07124958,-0.02497148,-0.2603469,0.041821778]]}]}},{"fitness":0,"neuralnetwork":{"inputLayer":{"biases":[0.0,0.0,0.0,0.0,0.0,0.0,0.0,0.0,0.0,0.0,0.0,0.0,0.0,0.0,0.0,0.0,0.0,0.0,0.0,0.0],"values":[0.0,0.0,0.0,0.0,0.0,0.0,0.0,0.0,0.0,0.0,0.0,0.0,0.0,0.0,0.0,0.0,0.0,0.0,0.0,0.0]},"layers":[{"biases":[-0.12407971,-0.10880762,0.17937765,0.09071124,0.06911534,0.09144633,-0.21872145,0.013587176,0.04812901,-0.10425767],"values":[0.0,0.0,0.0,0.0,0.0,0.0,0.0,0.0,0.0,0.0],"inputWeights":[[-0.035378397,-0.063046604,-0.08942319,0.09164954,0.073601864,-0.25173798,-0.059078988,0.07945485,-0.106021225,-0.05970916,-0.087902956,-0.06710518,-0.09374426,0.075692445,-0.060028285,0.08934043,-0.03904972,0.060832683,0.16829613,-0.05246186],[-0.018705623,-0.00915135,0.048718635,0.023467947,0.014670961,-0.08096496,-0.03865273,-0.07088356,-2.4586671E-4,-0.059979036,0.035888594,0.049675718,0.21344328,0.1731793,0.16355258,-0.09392757,-0.07574547,-0.062144246,-0.028141001,-0.08227433],[-0.07228597,0.0473702,-0.037945665,-0.036857195,0.040660035,-0.09911728,-0.021110648,0.012536567,-0.063098684,0.051416494,0.08309174,-0.0730676,-0.008953883,-0.054195162,-0.032634553,-0.024831384,0.16287932,0.030907104,0.050336532,0.13135044],[-0.045588627,0.10357151,-0.029269125,-0.03874934,0.22781628,-0.014373914,0.019767791,-0.06784072,-0.12821616,-0.07583844,-0.07565338,0.061223257,0.05579642,-0.10251753,-0.13286513,0.12604567,0.13765757,0.08783699,0.091353,-0.014293751],[0.033629283,-0.051320445,-0.0701655,-0.057309747,-0.072550856,-0.081124276,-0.096707106,-0.2541621,-0.037372425,-0.059619773,-0.09134954,-0.13986643,0.045039114,-0.20491078,-0.017662518,0.08365125,0.04577895,-0.05712905,-0.01382737,-0.082074165],[-0.15974754,0.020516649,-0.072892934,0.0812067,0.03046704,-0.038484562,-0.043906964,0.01474734,-0.073707215,0.13377982,-0.1312472,0.18434134,0.10204869,0.14836037,-0.10092626,0.2722462,0.02293079,0.035033375,-0.046495717,-0.038623117],[0.1519043,-0.13102415,0.08649733,0.18562216,-0.04568657,-0.0014648867,0.11299491,0.12892218,0.054888897,0.047948454,0.17079931,0.07565119,0.17164275,-0.09389973,-0.16088808,-0.08916807,-0.2549013,-0.03883567,-0.03787214,0.09689647],[-0.0016933382,-0.104988515,0.016969217,-0.1836868,0.07628852,-0.07016397,0.13496998,-0.12116118,-0.031940117,-0.020735271,-0.045335967,-0.10389994,-0.06659939,0.013783838,-0.012257415,-0.054367185,0.03803938,-0.107004955,0.15097548,-0.1023451],[0.078398295,0.031645376,-0.028110866,-0.064138316,0.027133165,0.12982437,0.015625892,0.058837347,0.052729283,0.1114069,-0.02117003,-0.026410941,0.051393725,-0.08289028,-0.13770561,0.020411996,-0.01474291,0.05383789,0.10060994,0.048120562],[-0.023568826,-0.012404636,-0.06417427,0.010829258,0.072545856,-0.064218886,0.16288604,0.30265626,0.07868002,-0.025268799,0.037170127,0.044194773,0.04578626,-0.01253179,0.11101557,0.033801038,-0.03767129,0.17752977,-0.06266512,-0.06970347],[-0.029266827,0.03520915,0.06987064,0.2609423,-0.14105746,0.06812146,-0.12564541,0.09260197,0.082493074,0.08248385,-0.21265653,0.10876722,-0.1331231,-0.1459847,0.11163197,-0.009033258,0.07759101,0.1623828,-0.04495782,0.021926956],[0.060332064,-0.06273508,-0.21761179,0.032195274,-0.036946367,-0.034266524,0.16323362,-0.07670138,-0.13117391,0.048171166,-0.1359331,-0.04490278,-0.10250765,-0.009461987,-0.20587571,5.568423E-4,-0.09790946,0.10222096,-0.09007089,-0.026449572],[-0.16261879,-0.068101496,-0.008319789,-0.017156966,0.028182616,-0.117061436,-0.07666491,0.04675177,0.005612391,-0.020640042,-0.0071178544,-0.02376265,-0.17692405,-0.05220654,0.018920347,-0.17965035,0.029828532,-0.112619616,-0.10700877,0.10800842],[0.14156592,0.10150216,-0.020234475,0.054310706,-0.010064265,0.06394564,-0.26135057,0.038256943,-0.078923464,-0.019779362,0.09892578,0.09538068,0.015482159,-0.027550276,-0.053407356,0.038495135,-0.08378168,0.032608386,-0.08459821,0.027645629],[0.0089453645,-0.11896553,0.012473558,-0.15650517,-0.1640414,0.07413194,-0.103862815,0.11600527,0.023719229,-0.12580176,0.19084889,0.022699868,0.026192687,0.12278578,-0.023224486,0.124478765,-0.18733755,0.14840014,-0.012790683,0.044233177],[-0.0037305565,-0.10724092,-0.110713504,-0.1046637,-0.027566941,-0.03096829,-0.068430334,0.0922951,-0.010766696,-0.17684296,-0.062446438,0.046222106,0.09740411,0.0028844464,0.11955533,0.047713727,0.05472085,0.069986284,-0.07107104,-0.12652211],[0.008456357,-0.080070354,-0.039183024,0.112852536,0.05585885,0.017577834,-0.09713341,-0.1621675,0.05930077,-0.122402236,-0.05410902,0.13546428,0.113312,0.014808965,-0.021731116,0.13130973,-0.09414282,0.023660917,0.051273633,0.12550873],[0.15078202,0.045084048,0.10124349,-0.078888625,-0.11883215,-0.025040632,0.026778221,0.17702621,-0.01106091,-0.055929247,0.06516178,0.07418406,0.13216506,-0.18466146,-0.03531033,0.07791811,-0.0110827675,0.034343664,-0.049268592,-0.17475234],[-0.06666119,-0.070616215,-0.15828024,0.007906667,0.02949874,0.028408846,-0.035613596,-0.03587479,0.06728709,-0.17479257,-0.066312626,-0.07723916,0.03850808,0.039002337,0.05623739,0.14919697,-0.16781065,-0.14813606,0.026704252,-0.060191777],[0.12229684,0.13177338,-0.0101324925,-0.045189664,-0.08822398,-0.0880399,0.052536156,0.04448466,0.040765677,-0.08744613,-0.0051445626,0.12098605,0.037114047,-0.07097629,0.08766437,-0.0052708513,0.024125589,0.061406225,-0.10593464,-0.18526138]]},{"biases":[0.026444249,0.014745314,-0.13179861,-0.047773823,0.12217255,-0.055437706,-0.113239825,-0.15945688,0.07899317,-0.15849084],"values":[0.0,0.0,0.0,0.0,0.0,0.0,0.0,0.0,0.0,0.0],"inputWeights":[[0.019481644,0.034290135,0.098006666,-0.1110409,-0.03242681,0.098139115,0.05228716,0.08876506,-0.019847805,-0.054030463],[0.14921603,-0.14945567,-0.04441943,-0.061977554,0.028095614,0.012236439,-0.09661115,0.11577494,0.15579765,0.013924527],[-0.023198416,0.27053615,0.04725526,-0.014731062,-0.15122502,-0.022971287,0.06660091,0.031610228,0.039075576,-0.09915302],[-8.5989124E-4,-0.24283998,-0.10004184,-0.11157029,-0.15337272,0.1199803,0.027569173,0.02834803,-0.017246326,0.053958856],[0.06313614,0.08114695,0.02532865,-0.025199393,-0.04039411,-0.22136743,-0.110691816,-0.012394475,-0.0012676275,-0.08335012],[0.0035964784,0.040814035,0.074934155,-0.04275267,-0.050414275,-0.0606354,0.21750247,0.15030001,-0.08040417,-0.047030848],[-0.04800397,0.08474303,-0.029952692,-0.1077007,-0.04937463,6.238891E-5,-0.13463444,0.039799657,0.026013566,0.059285603],[-0.12311437,-0.07319994,-0.07643864,-0.036016673,-0.16251545,0.034137942,-0.09017299,0.020637488,-0.02608489,-0.13936405],[-0.100604184,-0.24517259,-0.002504089,-8.343061E-4,0.2524285,-0.039295334,-0.060014196,-0.019459395,-0.025863452,-0.074968554],[-0.13436742,0.018557537,-0.09527743,-0.031343218,-0.008714317,-0.017263586,0.17069307,0.10262623,0.062103376,0.082571834]]},{"biases":[-0.11773111],"values":[0.0],"inputWeights":[[-0.11403482,0.022022212,0.11393288,-0.12096918,-0.049528055,0.18556751,0.033288885,0.1575786,0.09985256,0.0402373],[0.044270977,-0.034898408,0.051791925,-0.02570898,-0.08910031,0.17395894,-0.11476897,0.093219556,0.17139643,0.06258579],[-0.005476131,0.123465665,0.02049594,-0.005850673,-0.033908814,-0.006263994,0.13758485,-0.026866615,-0.23465836,0.0599908],[0.16611819,0.0668318,-0.05701905,0.006800705,0.14724709,0.013928526,-0.026523216,0.019188244,0.028865224,-0.034608066],[-0.08871449,-0.09781004,-0.051548168,-0.17673977,0.024674306,0.14510004,0.04583697,0.07587486,0.12923932,0.055765275],[-0.0580768,0.08470941,0.0646815,-0.008708366,0.1361862,-0.1032288,-0.0034642946,-0.13301419,-0.053738244,0.05602082],[0.12888612,0.019718597,-0.10661882,0.09216824,-0.122327685,-0.15489326,0.01652439,0.18001322,0.12598732,-3.8997336E-5],[0.07853452,-0.045858104,-0.003349775,-0.05528207,-0.10770177,-0.049648184,0.0047706286,0.051688846,-0.11637264,0.095409915],[0.09619993,-0.05375461,0.11250446,0.071448274,-0.04230176,0.10965067,0.17667376,-0.2215692,0.07255262,-0.15513486],[0.09993169,0.12875924,0.17934257,-0.053456213,0.14551103,-0.012972087,-0.0025616684,-0.09979336,0.07506373,0.1247798]]}]}},{"fitness":0,"neuralnetwork":{"inputLayer":{"biases":[0.0,0.0,0.0,0.0,0.0,0.0,0.0,0.0,0.0,0.0,0.0,0.0,0.0,0.0,0.0,0.0,0.0,0.0,0.0,0.0],"values":[0.0,0.0,0.0,0.0,0.0,0.0,0.0,0.0,0.0,0.0,0.0,0.0,0.0,0.0,0.0,0.0,0.0,0.0,0.0,0.0]},"layers":[{"biases":[0.02053305,-0.10190483,0.0588566,0.12528789,-0.06043409,0.0850308,-0.14151992,-0.1303583,0.04595649,-0.10924637],"values":[0.0,0.0,0.0,0.0,0.0,0.0,0.0,0.0,0.0,0.0],"inputWeights":[[-0.012933124,-0.3038863,0.033359863,0.100261405,0.00468047,-0.019377884,-0.036077067,0.13756579,0.048055444,0.018199526,0.045042966,0.032164395,-0.02484203,-0.04025588,-0.12639825,0.007472607,0.054007154,-0.027019488,-0.10160303,0.13155353],[0.15718149,-0.071228355,0.09500444,-0.077777065,0.044512518,-0.1092286,-0.1389184,-0.03257243,0.005986742,-0.004124133,-0.02636342,-0.07263589,-0.08426648,0.10908519,-0.022838507,-0.08536557,-0.009483578,0.039352298,0.075757146,0.06405939],[-0.110336706,0.16169208,0.15757926,0.02567868,-0.15947983,-0.03830673,-0.04162427,-0.05023854,-0.21325524,-0.05154606,-0.10613217,-0.22467996,0.008053048,0.11996211,-0.06649371,-0.06440961,0.0424495,0.19768286,0.13347983,-0.04594838],[0.15757085,-0.0010271625,0.113967344,0.0037756427,0.06671634,-0.0050900383,-0.06515482,-0.067142285,0.003297328,-0.104155764,-0.15234822,0.07805139,0.23108928,-0.037063304,0.092781104,0.102124624,-0.120296285,0.11437076,-0.03347896,-2.0167542E-4],[-0.021678643,-0.1170785,-0.10783793,-0.1477064,0.09024379,0.08286128,0.047662575,-0.07601554,0.0048832023,0.028668422,0.07299589,-0.0782865,-0.03567337,0.014411063,0.07054727,0.054728925,0.04116045,-0.07444701,-0.0770804,-0.12710813],[-0.006022678,-0.047387473,0.20853038,-0.18502638,0.07370798,-0.05198725,-0.10323209,-0.12369712,0.024201963,-0.028370194,0.031423975,0.15283975,-0.052108478,-0.051977858,-0.1563722,0.23787019,0.09482469,0.12882316,0.06909148,0.07900648],[0.13571647,0.14566773,0.040712487,-0.042009,-0.009486993,0.09582893,-0.13504647,0.038851913,0.21691018,-0.011402049,-0.10772241,0.017096259,0.1398761,0.15072757,-0.12635219,0.18012975,0.061501104,0.03949605,0.03449237,0.025258437],[0.0663643,0.045360547,0.12882625,0.11516797,0.038830787,0.11569711,0.08433341,0.0020564634,0.19287743,-0.006688803,0.039410193,-0.050322145,0.05824476,0.06836531,0.04013612,-0.02336176,-0.04572648,-0.07979782,0.029845227,-0.10968749],[0.06816563,0.046030268,0.08758831,-0.016023675,-0.08556159,-0.018485676,0.03180409,-0.020909792,-0.10309972,0.11860699,0.026636995,-0.23968312,-0.1401815,-0.15792792,0.0792298,-0.14509174,0.11231773,-0.0071146297,0.10908653,-0.0066151987],[-0.110630736,-0.09478639,-0.0014820686,-0.015717888,-0.1604326,0.07065681,-0.06094459,0.039022204,-0.2598652,0.0481618,-0.10817102,-0.1328893,0.14969312,-0.028933777,-0.119540304,0.08525839,0.04393079,-0.23526743,-0.07299317,0.053685475],[-0.0038743843,0.16438729,0.04897871,-0.113947034,-0.042642437,0.010037078,-0.08635409,-0.16227409,0.057238884,0.06441863,-0.055657044,-0.032179143,0.02599337,0.042586677,-0.07452706,0.120364964,-0.024419148,0.140409,0.17417067,0.07322965],[-0.18361723,-0.19341785,-7.839556E-4,0.2409553,-0.13625646,-0.0028649585,0.020942913,0.11350781,-0.15087233,-0.051104505,-0.22930233,-0.035139684,0.07670748,0.05584505,-0.027326686,-0.047438562,-0.029794509,0.033195753,0.07694547,0.14037944],[-0.030859303,-0.030196346,0.23942058,0.080482826,0.08748451,-0.09635644,0.10766098,-0.10935152,0.034443438,-0.12155088,0.08486459,-0.09421058,-0.15250559,-0.01919298,0.25613797,0.084215134,0.10616121,0.05886026,-0.035867672,-0.04249674],[-0.086136565,-0.07491669,0.02595014,0.027648035,0.1094828,0.048526846,0.11973609,0.047504276,-0.029023835,-0.114235215,-0.04018633,-0.080759734,0.0834446,-0.06235892,-0.066945486,0.08287603,0.042463917,0.06098593,-0.008460049,0.07774998],[-0.106908105,0.03264793,0.044640653,-0.05909774,-0.06554004,-0.0047605047,0.007367577,0.019590113,0.08256449,0.06968123,0.14611687,0.09936227,-0.031043509,0.16308875,-0.15269676,0.04491799,0.01378658,0.08220099,0.15451889,0.016375378],[-0.12468696,-0.21874344,-0.010000932,0.07544733,-0.007995198,0.16762592,0.061187863,-0.05609763,-0.04497736,0.09230368,0.117682084,-0.10547227,0.06970768,-0.037901286,0.057509117,0.021398036,-0.027530227,-0.19445258,-0.26742002,0.082076386],[-0.18597716,0.07793713,-0.065642044,-0.041503683,0.05797144,0.023064872,-0.013319955,0.057500754,0.0448546,0.061151437,-0.13567825,-0.053044554,-0.080376595,0.101141915,-0.051949386,-0.04049014,-0.037423354,0.107871935,-0.008893149,-0.009213109],[-0.10111485,0.06152173,0.13183494,0.11115881,0.08443679,0.020693505,-0.049405612,-0.10049378,-0.03028206,-0.094323955,-0.054044794,-0.032725666,-0.05778165,-0.11227772,0.19475755,0.08456228,-0.046369318,-0.07835527,-0.1434644,0.080597624],[-0.101026714,0.025887107,-0.094213575,-0.22103612,-0.25938216,0.05328768,-0.21364045,-0.09954646,-0.08968956,0.044088367,-0.27360752,0.2833024,0.011532397,-0.2073809,-0.026737336,0.023722323,0.10185743,0.03303092,0.08314542,-0.030336427],[-0.03566831,-0.19248116,0.12569493,0.054567873,-0.0013092628,-0.0069794445,0.06767856,0.19284052,0.3120812,-0.034560926,-0.115202546,0.068977416,0.15623428,-0.06345438,-0.1379846,-0.044001035,-0.0017383759,0.087905824,-0.060671065,0.03278274]]},{"biases":[-0.13770343,-0.21449216,0.10868404,-0.053780258,0.054282,0.11976561,0.026218902,-0.12197016,-0.10664022,-0.001625697],"values":[0.0,0.0,0.0,0.0,0.0,0.0,0.0,0.0,0.0,0.0],"inputWeights":[[0.007953821,-0.22728291,0.077731825,0.16100204,3.3106472E-4,-0.0741596,-0.063948885,-0.06809956,0.04184649,-0.1042717],[-0.12666182,-0.091929734,0.010173011,0.014668731,-0.069938615,0.08896408,0.04555165,0.0102628665,-0.099007756,0.23843046],[0.24130683,0.14645442,-0.0937754,-0.05349983,0.13607967,0.04059934,0.09863211,0.106335975,0.12978905,0.18650098],[0.043991357,-3.373376E-4,0.08688618,0.10665243,-0.10995055,0.12828445,-0.006163789,-0.15918216,-0.2421743,-0.011248904],[-0.019076534,0.011364624,0.010785749,-0.05359318,-0.011509736,0.1237447,0.043112725,0.060091898,0.049104683,0.03457031],[0.18550214,0.09904053,0.20370491,-0.15780267,0.008855863,-0.018444436,-0.101683825,0.13306832,-0.22894499,0.11561411],[0.03773116,-0.03021184,0.05871395,0.14203869,-0.0077460315,0.12238457,0.029771097,0.0371569,-0.14424664,-0.044458613],[0.0021466622,-0.096156046,-0.011347302,0.19297911,-0.11249321,0.16455336,-0.09200432,-0.12108717,0.16393541,-0.010122456],[-0.03701273,0.040512994,0.1545872,0.063591875,0.18236712,-0.014967921,-0.13127021,0.023327187,0.09633302,0.014540169],[0.0072855526,0.24817622,0.13031134,-0.11891085,-0.024899188,0.054396734,-0.01751823,-0.08440106,-0.22847667,-0.026835844]]},{"biases":[0.0045064087],"values":[0.0],"inputWeights":[[0.034434132,0.049951814,-0.20308296,0.03448942,0.026476,-0.00589787,-0.059026238,0.102793194,0.07546083,-0.02995175],[-0.0078004333,0.00265882,-0.07223998,-0.21426022,0.10928431,-0.13119,0.065554775,-0.119991705,0.12182157,-0.093123294],[-0.2170168,-0.018744363,0.0061327172,0.16697392,0.05456535,-0.018008513,0.0023146973,0.09334156,-0.0645338,-0.05115542],[0.095614865,0.010184162,-0.09959667,0.12387665,-0.006865825,0.1357862,0.10016695,-0.01980435,-0.04488008,0.006138006],[0.0525219,0.09778147,-0.30134627,-0.15062577,0.07787525,-0.07666966,0.079285525,0.07392244,0.08459008,-0.14571694],[6.0694246E-4,0.17045711,-0.0053662173,0.11791732,0.08425334,-0.023918873,0.022065464,-0.025921056,-0.046884764,-0.046062637],[-0.020768726,0.056133613,-0.15801358,0.006633118,-0.09100983,-0.04168231,0.25534937,-0.04409525,0.094688006,-0.027244048],[0.10135331,-0.13822936,-0.10346251,0.09576672,-0.15406273,-0.15592054,0.111432984,-0.1829119,-0.18650329,-0.042301465],[-0.050029986,-0.08741136,-0.09403837,0.24386343,-0.07452934,0.08008643,-0.018982096,0.13763621,-0.09507182,-0.10528408],[-0.081504636,-0.0068593677,0.06389034,0.06245781,0.11432125,-0.098877415,-0.21599855,0.05938653,-0.11134644,-0.14897986]]}]}},{"fitness":0,"neuralnetwork":{"inputLayer":{"biases":[0.0,0.0,0.0,0.0,0.0,0.0,0.0,0.0,0.0,0.0,0.0,0.0,0.0,0.0,0.0,0.0,0.0,0.0,0.0,0.0],"values":[0.0,0.0,0.0,0.0,0.0,0.0,0.0,0.0,0.0,0.0,0.0,0.0,0.0,0.0,0.0,0.0,0.0,0.0,0.0,0.0]},"layers":[{"biases":[0.04618632,-0.04015394,-0.08212858,-0.21125315,-0.14801045,-0.20874748,0.110653065,-0.14138022,0.1421866,0.056018952],"values":[0.0,0.0,0.0,0.0,0.0,0.0,0.0,0.0,0.0,0.0],"inputWeights":[[-0.007913233,-0.13127683,-0.04396382,-0.18244657,0.00392646,0.01905462,0.02396652,0.0353,-0.029562121,0.11031586,-0.060126323,0.01799618,0.027318737,-0.010520168,-0.22290269,0.03723859,0.029084813,-0.002121955,0.0067263865,-0.14203124],[0.061904166,-0.090040244,0.07129156,-0.0010568913,0.006294834,0.0802028,0.26385832,-0.07468365,-0.1816144,0.09808447,-0.020179499,0.0079015475,-0.08257067,0.040437758,-0.111986876,-0.20778511,-0.16154741,-0.0010644054,0.042275153,-0.19593005],[-0.031101897,0.0013889582,-0.060287956,-0.14828834,-0.119396225,0.041062545,-0.039585076,-0.1372726,-0.016867036,-0.027838869,0.20730361,0.10410631,-0.045444805,0.02720073,0.027847882,-0.11184983,0.037143227,0.014691865,0.04629866,-0.012378335],[0.05174597,-0.07834744,-0.01718892,-0.12846397,-0.02123923,-0.11273646,0.06141241,-0.063820384,-0.011067531,-0.10609997,-0.085427605,-0.070753396,-0.077613726,0.018566249,-0.08650032,0.09212132,-0.03831781,0.13846643,-0.17728126,-0.09898914],[0.049129825,-0.123141766,-0.014589143,0.17946872,0.009073319,0.029433591,0.09585276,0.04701267,-0.1175012,-0.17433158,0.22074741,0.098156676,-0.11434341,-0.036486886,-0.112712115,0.21212053,0.013672126,0.006052764,0.04246681,0.13028717],[-0.026571276,-0.08243325,0.04865723,0.016558068,0.018995944,0.18505086,-0.02530515,-0.042553727,0.18559055,-0.113660716,-0.19439341,0.044716697,0.0068844697,-0.071782716,0.03824179,0.015982557,-0.09970919,-0.08023899,0.07538965,0.01980975],[0.10323357,-0.06737681,0.10001417,-0.01155923,0.08293412,-0.07261092,0.010135334,-0.10301319,-0.057261135,-0.06540831,0.05357177,0.058332764,-0.09099251,-0.09728749,-1.7029778E-4,-0.12765488,0.10633606,-0.0976836,0.106588736,-0.010504428],[-0.18446328,-0.22127695,-0.0615868,0.10896897,0.09079775,-0.09781128,-0.022958156,-0.0018321588,-0.13864656,0.028124321,-0.069369055,-0.056897324,0.04258607,0.07081263,0.04414552,-0.09025793,-0.11248967,0.0856004,-0.023099186,0.14063746],[0.046030868,-0.0351109,-0.049201276,0.060981765,-0.103663996,-0.029433185,0.10022959,0.21316352,-0.07495027,-0.068585515,-0.03587864,-0.030126998,0.009085624,0.119522355,-0.07921081,-0.21807154,-0.055683587,-0.004737895,0.14408232,-0.092272595],[0.0030606233,0.062426936,-0.14361984,-0.014311917,0.0012695355,-0.05610877,-0.0056455787,-0.0055156187,0.08359481,-0.078216754,0.067264274,-0.08373031,0.17727858,0.028536415,-0.22197554,-0.04849214,0.02791384,0.033323802,0.066301085,0.13578928],[0.014435526,0.038952645,0.05718596,-0.099302895,0.014863472,0.008253145,-0.13203333,-0.11449439,0.22109443,-0.0046497923,-0.038399756,-0.03971606,0.1011897,-0.18124272,-0.026160477,0.06929793,0.12269552,-0.08877502,0.033909775,-0.06332054],[0.010006027,-0.04942845,0.054349314,-0.13438243,0.05759771,0.04375593,-0.040235396,0.105144285,-0.124350496,0.12777427,-0.036389727,0.07847415,-0.08209755,0.11733285,-0.09337015,0.06621423,-0.02927372,0.05249616,-0.13228507,-0.1352347],[0.104811355,-0.13338834,0.03946221,-0.03269683,-0.0022478292,0.069191545,-0.09378337,0.04553379,-0.036545597,-0.06745958,0.025231846,0.05147759,0.066605,0.0991446,0.08957716,0.07684367,-0.07094022,0.002705971,-0.095042296,-0.041295003],[-0.0067466013,0.071658656,-0.1379062,0.08614837,0.07923197,0.15203454,-0.024656182,-0.10777348,0.033791382,-0.101227105,-0.042016815,0.025694089,0.10511974,-0.26959226,0.14410004,-0.03662459,0.17947763,0.10640477,-0.047831714,0.11493149],[-0.06115856,0.027718743,0.0036044233,0.11319833,0.08835483,0.021294484,0.021825753,0.06463989,-0.02793834,0.054461535,0.078375325,0.09661801,0.043484464,-0.06389218,-0.07044159,0.15806115,0.07527778,0.13528773,0.04494221,-0.014638504],[-0.01961021,0.099603444,-0.13943991,-0.10957321,0.03405564,0.06234019,-0.012863274,0.013438023,0.027880454,0.12577482,-0.017776791,-0.09453638,-0.003386942,0.004799593,0.13169998,0.050332155,0.045240432,0.26695997,0.088534005,-0.1809066],[-0.017092554,0.07801954,-0.08809884,0.13714042,-0.00822313,0.08954425,0.19948171,-0.048821617,-0.087763526,-0.11485724,-0.068868004,0.14715005,-0.086251095,0.0108604925,0.023858642,0.042272165,-0.03344313,-0.004695716,-0.13995388,0.08688844],[-0.12550785,-0.022063214,-0.07934138,-0.11449395,0.0032572912,-0.041170105,0.06350933,0.012633942,0.016961992,-0.07093959,0.09969222,-0.04482896,-0.065437615,0.029827626,-0.17729548,0.082427874,-0.15379706,-0.10112472,-0.23369135,-0.013535778],[0.015112899,-0.055753708,0.10392301,0.09029846,0.3138149,-0.033596296,0.11329065,0.07150612,-0.028838754,-0.042077117,-0.014479561,0.0040573822,-0.13718837,0.031866044,-0.053146843,-0.05854114,0.06964364,0.15334587,-0.12178237,0.06279543],[0.093286805,-0.024514446,0.062879674,-0.021394951,0.087576196,-0.19289786,0.034147434,0.019672118,0.09604387,0.08460722,0.12628351,-0.033061232,0.059443533,-0.012500607,-0.09489241,0.043106087,-0.008702512,0.2538387,0.16627444,-0.047674775]]},{"biases":[0.04882659,0.040626094,0.013642762,-0.036123276,-0.027186068,0.08612964,0.03482952,0.07268571,0.025448583,0.10841027],"values":[0.0,0.0,0.0,0.0,0.0,0.0,0.0,0.0,0.0,0.0],"inputWeights":[[0.27769113,-0.012303806,-0.33848324,-0.07426023,-0.058997896,-0.21723789,-0.05904002,0.055132326,0.14087375,0.012140974],[0.14749815,0.020097438,0.12816747,-0.014514519,0.10184255,-0.017937062,-0.02281438,-0.029917331,0.10343508,0.039167695],[0.18327586,0.054496888,-0.042986542,0.27069682,-0.032272182,-0.043324582,0.02458859,-0.16717537,-0.024943687,-0.08132655],[-0.052870594,-0.1348934,-0.05155523,-0.07785198,0.089143895,0.1295362,-0.06299671,-0.067534275,0.021800976,0.17521417],[-0.049635764,-0.099189885,-0.10171134,0.062552474,0.061790936,-0.11873643,-0.02267606,-0.048247457,0.0075137946,-0.260191],[0.004806445,0.18660788,-0.043123923,0.008788298,-0.014189751,0.13061622,0.08570594,0.037718054,0.046122704,-0.012622475],[-0.08213877,-0.01524754,-0.050507754,-0.215874,-0.25259084,-0.07456922,0.025342396,0.038820487,0.07852629,0.13158086],[0.110579096,-0.28045148,-0.16579707,-0.010636346,0.056426927,-0.033944886,0.04121129,-0.15712476,0.091727905,0.09832805],[0.074682266,-0.10288223,-0.020411048,-0.20102282,-0.05305312,-0.104808964,0.017574046,-0.006949062,-0.108059905,-0.084998414],[-0.07431868,0.14132437,0.1733062,-0.01843137,-0.07519708,0.20313969,-0.045149695,0.085443035,0.034303296,-0.021375863]]},{"biases":[-0.08345802],"values":[0.0],"inputWeights":[[0.0044958643,-0.040638857,-0.015113736,-0.017573211,0.0129017355,-0.09527413,-0.17591508,-0.052053314,0.04891843,0.05027337],[0.096696675,-0.013548059,0.08408921,-0.10035665,-0.09118778,0.09077251,-4.1588536E-4,-0.054417014,-0.06916208,0.24993898],[0.00802409,0.10466831,-0.043692306,0.017422875,-0.22695535,0.048242353,0.08291893,-0.03687378,-0.038814433,-0.1224876],[-0.035784476,0.026306557,-0.017827023,0.08937252,0.019450424,0.036923278,0.04421804,-0.11077101,-0.07635873,0.07737686],[0.037129935,0.053188648,0.13737328,-0.06858834,0.17103408,0.020810891,-0.042557854,0.019460652,-0.16044004,-0.041102007],[-0.00477364,0.07629602,-0.051550597,0.1323077,0.09548613,0.074198455,0.023439959,0.15446526,0.12529263,0.1625375],[0.06534506,-0.024785463,0.024891593,-2.522402E-4,-0.03731418,-0.015539637,-0.03926173,0.021531077,0.055378836,-0.11887281],[-0.012512953,0.11288958,-0.1212384,0.36169213,-0.08567341,0.09812389,-0.10192534,0.07443163,-0.2786386,0.16711606],[0.08617882,0.01969156,0.05836353,-0.06239654,0.09230743,-0.019519543,0.091176495,-0.052193042,0.15549813,-0.053551942],[-0.029714644,-0.052264154,-0.012708479,-0.08767523,-0.049305595,0.11940244,0.12950969,-0.052414007,0.18063428,0.07372995]]}]}},{"fitness":0,"neuralnetwork":{"inputLayer":{"biases":[0.0,0.0,0.0,0.0,0.0,0.0,0.0,0.0,0.0,0.0,0.0,0.0,0.0,0.0,0.0,0.0,0.0,0.0,0.0,0.0],"values":[0.0,0.0,0.0,0.0,0.0,0.0,0.0,0.0,0.0,0.0,0.0,0.0,0.0,0.0,0.0,0.0,0.0,0.0,0.0,0.0]},"layers":[{"biases":[-0.12065443,-0.042738948,0.030058311,-0.11508621,-0.08934674,0.073292464,-0.10661376,0.15605259,0.021871189,0.025398174],"values":[0.0,0.0,0.0,0.0,0.0,0.0,0.0,0.0,0.0,0.0],"inputWeights":[[-0.007984164,-0.076468304,0.16026981,-0.08572243,0.08954231,0.030615766,0.054772563,-0.0024560413,-0.07733404,-0.09449021,0.060324114,0.079692565,0.016668662,0.04432681,-0.07073174,-0.13911818,-0.03225859,-0.062796384,0.12980875,0.114167064],[-0.07425435,-0.033717297,0.08604465,-0.13824108,-0.03888033,0.010805821,-0.017797984,-0.030149058,0.03495404,0.12885614,0.09115962,0.11925693,0.11354345,0.04321954,-0.10037895,-0.13520859,-0.18034647,-0.005991008,0.031280603,0.14912044],[-0.02243784,-0.0011522877,0.058738668,0.095658235,0.021830564,0.019583674,-0.08404679,-0.037237298,-0.028172152,-0.021986019,-0.019892616,0.018127564,0.17439288,-0.07737698,0.08040807,-0.057836298,-0.11668312,0.13832933,0.027410189,0.13270508],[0.17932096,-0.11845379,0.07112986,-0.17658934,-0.040702432,-0.13231124,0.09787588,0.014761912,0.05048604,-0.054835062,-0.10158795,0.08026891,-0.0074116997,0.0056762737,0.047910552,-0.10406551,0.022914428,0.005386494,-0.071502335,-0.09144208],[0.058245797,0.061680075,-0.19728845,0.1216513,0.008562411,-0.0031431445,0.06530457,0.014081701,0.025355542,-0.06955136,-0.024978,-0.018119963,0.082848564,0.18049255,0.096999355,0.13129619,-0.13573204,-0.00436578,-0.1545742,-0.04692744],[0.13521716,0.08678114,0.010447675,-9.865839E-4,0.013184008,0.092676386,-0.074015364,0.008967261,-0.12962337,-0.15354696,0.051421456,0.11363465,0.09912767,0.11495935,0.067395635,-0.15862474,-0.057344113,0.0062449,-0.10476881,0.095527634],[-0.17934804,-0.04980854,-0.031836335,0.0036057592,-0.03164343,0.1004811,0.03670372,-0.056990318,0.08389984,-0.10890119,0.08944893,-0.103920415,0.029406102,0.023663023,-0.0067352727,0.03465523,0.16020909,0.098845415,-0.03242042,-0.045284208],[0.06429421,0.036824502,-0.006137615,0.12350764,-0.04062033,0.22025082,-0.060572725,-0.020977557,-0.09195659,0.081950635,0.11554103,0.16216737,0.18096223,0.15837835,-0.018853368,-0.020494392,0.046800617,-0.12849894,0.10727606,-0.1880218],[0.14496267,0.07228418,-0.07469613,-0.033754278,1.9749513E-4,0.094092846,0.12613572,0.045004476,0.056274306,0.011296145,-0.031574458,0.084833935,0.18131542,-0.042675976,0.08042477,-0.066822916,-0.075146325,-0.08314215,0.10633898,0.0033164],[0.096661516,-0.0021236795,-0.0053990637,-0.040071398,-0.06186897,0.097796045,-0.025198756,-0.09749661,0.0912915,0.053727373,-0.05134825,0.013048251,0.06708802,0.10939822,-0.040334415,0.050839443,-0.047075365,-0.06864472,0.13923058,0.11444241],[-0.018696189,-0.07816919,-0.113594025,-0.03512219,0.023899617,-0.04658097,-0.09091477,0.024580343,0.0073543442,0.10874696,0.048193246,-0.10123318,-0.25221652,0.049397293,0.06402508,-0.061603006,0.15854405,0.01142916,0.12411145,-0.04407057],[-0.017857978,-0.38132855,0.07136973,0.187488,0.1017592,-0.062365912,0.05070965,-0.08158067,-0.03886964,0.11278574,-0.08068712,-0.003013463,-0.057333138,0.13898407,-0.04654756,-0.15171562,0.020564899,0.16952129,0.09890357,-0.13118114],[0.18858013,-0.032641746,-0.027125297,-0.06214524,0.007300554,-0.09250173,0.059820347,-0.06280685,-0.10595194,-0.07375483,-0.21641307,-0.01561515,0.06501442,0.2666882,-0.027835434,0.029546082,-0.16445765,-0.014657601,-0.1463084,-0.101692535],[0.0015754125,-0.008385501,-0.0013366179,0.037526812,-0.09868212,0.14005226,0.041726466,-0.19130924,0.02974976,-0.011935496,-0.02507299,0.020464089,-0.0549545,-0.06132264,-0.027123632,0.110697806,0.09386042,-0.037210125,0.06531259,-0.12730336],[0.050369907,0.01943214,-0.07389961,-0.096117906,0.092718646,-0.013753055,-0.06251499,-0.0334176,-0.10693832,0.1504325,-0.16276425,-0.14887565,-0.07816747,-0.13643558,-0.011693349,0.08576197,-0.042901605,0.059609767,-0.16133532,-0.1141873],[-0.074514896,-0.0911973,0.05313529,0.0038013917,0.029180782,0.016018972,-0.06351663,0.14092107,0.0031226194,0.073143445,-0.27002937,0.13081735,-0.1414977,0.016734893,0.15677842,0.17729814,-0.035956465,-0.02431842,-0.0899868,0.039098874],[-0.009662881,-0.06370986,-0.1386245,0.046908382,-0.077015154,-0.0048569487,-0.04260014,-0.008774554,0.046933323,0.052989125,-0.037938967,-0.006155048,0.047976952,0.09094945,0.13919704,0.009798158,0.0747189,0.25026503,-0.18211909,-0.09040608],[0.1478383,-0.08637458,0.18985073,-0.08205505,0.07873386,-0.11386513,0.17253314,-0.028428268,-0.08792979,-0.13718241,0.071920514,0.03519494,-0.005778885,-0.11723317,0.1216402,-0.03916912,-0.10111808,-0.019556811,-0.026458623,0.20487162],[0.052902456,0.08017667,-0.004049922,0.027099319,-0.099615395,0.029575387,0.19354153,-0.111665554,-0.07998109,0.041494034,0.09525443,0.019796,0.03351627,0.1280748,-0.0048866156,0.10916918,0.050924655,-0.066498324,0.018271878,0.009474496],[0.11257754,0.033122085,-0.04501711,-0.04696646,-0.029882329,0.17640251,-0.09364887,0.095716245,-0.10557818,0.022750663,-0.025626937,0.13148652,0.057879437,0.015696965,-0.016705088,0.024212252,-0.09393839,0.056708124,0.12901661,-5.9102982E-5]]},{"biases":[-0.06695516,-0.2245682,0.0027610178,-0.0034824407,-0.08643066,0.10726846,0.01777157,-0.002127258,0.024383085,-0.16481142],"values":[0.0,0.0,0.0,0.0,0.0,0.0,0.0,0.0,0.0,0.0],"inputWeights":[[-0.07852263,0.109252445,0.06376584,0.16284747,-0.021877196,0.107587576,-0.037144303,-0.029587662,-0.110652104,-0.066940635],[0.13072887,0.041879144,0.21929075,-0.21150494,0.016462468,0.034798656,-0.105082266,-0.0063946,-0.03716746,-0.042857785],[3.1200374E-4,0.009806428,0.10210976,-0.030956615,-0.088277034,-0.090086415,-0.09058514,0.024328968,-0.08664057,-0.08480416],[-0.021382548,-0.02424878,-0.06213275,-0.025423253,-0.0052945516,-0.12604763,0.03955706,-0.056969825,0.05533397,-0.02133398],[0.0016631352,0.049062643,0.14850678,-0.08513776,0.09934186,0.03726629,-0.0011155435,-0.015414013,-0.138784,0.027427418],[-0.10074046,-0.040998127,0.068782784,0.0074971705,0.16853821,0.19250208,0.06609724,-0.019778632,-0.037243024,-0.064528786],[-0.023723358,-0.06608889,-0.19367887,-0.050819922,0.007125724,0.043661904,-0.13205062,2.4228098E-4,0.012569704,0.0048435642],[-0.08300028,0.009459535,-0.04982538,-0.10152854,-0.122173056,-0.094593525,-0.039167356,-0.0050581032,-0.11863888,-0.0052523986],[0.07861358,0.046653517,0.0050025643,-0.040403794,0.021266215,0.06213748,-0.048014898,0.109466985,0.13152122,0.16405356],[-0.106370546,-0.21318704,-0.04611276,0.0099286,0.016672991,0.056754168,0.13744998,-0.05118935,0.20613183,-0.39201495]]},{"biases":[-0.05585051],"values":[0.0],"inputWeights":[[-0.023263577,-0.08571582,-0.073310025,0.11337225,-0.022549115,-0.06490684,-0.048659712,-0.08913372,0.15342464,0.0451675],[-0.0645941,-0.22892228,0.07856405,-0.14014965,-0.10641398,-0.13033605,-0.023247777,-0.22026885,-0.040637743,0.08378854],[0.025029117,0.10639229,0.2190313,0.08260821,0.031425096,0.06254551,0.025802057,-0.05162266,-0.07070965,-0.08218841],[-0.07122473,0.09372877,-0.17560056,0.09261748,-0.0025230306,0.047058124,0.23627017,-0.06217245,-0.03875256,-0.042730063],[-0.038758576,0.10441639,-0.010294962,-0.08591685,-0.11974626,-0.029582607,-0.09859935,0.013398655,-0.0515507,-0.0499221],[0.009071271,0.1014024,-0.15994613,-0.1098809,-0.09116245,-0.032648575,-0.1516731,0.067968085,-0.22150424,-0.03627513],[-0.037549842,-0.012736314,-0.08386238,-0.03838721,-0.17591685,0.22772604,0.06484951,0.18144107,-0.0053492305,-0.07917936],[-0.027783545,0.039977156,-0.13616866,0.0972302,-0.03662311,-0.022636108,-0.15676337,0.0873143,-0.044822928,-0.1844722],[0.018264411,0.0441874,0.059390515,-0.045294363,-0.064544626,-0.0035172496,0.029337475,0.047100145,-0.03751325,0.111009285],[-0.03399636,-0.19388968,-0.026681902,-0.028805377,-0.06492154,0.004283571,-0.019169062,-0.05776284,0.08782853,-0.02097895]]}]}},{"fitness":0,"neuralnetwork":{"inputLayer":{"biases":[0.0,0.0,0.0,0.0,0.0,0.0,0.0,0.0,0.0,0.0,0.0,0.0,0.0,0.0,0.0,0.0,0.0,0.0,0.0,0.0],"values":[0.0,0.0,0.0,0.0,0.0,0.0,0.0,0.0,0.0,0.0,0.0,0.0,0.0,0.0,0.0,0.0,0.0,0.0,0.0,0.0]},"layers":[{"biases":[0.14006832,-0.045960035,0.15353435,0.05796696,-0.06051789,0.06651054,-0.07959215,0.049518842,0.22165021,-0.07652556],"values":[0.0,0.0,0.0,0.0,0.0,0.0,0.0,0.0,0.0,0.0],"inputWeights":[[0.21329768,0.028135154,0.06823521,0.03938511,-0.05956413,0.038433734,0.10362204,0.1340915,0.044852693,0.13107452,0.18722253,0.024692634,0.14436105,0.12009264,-0.05575249,0.04268774,-0.048837274,0.056862187,-0.1078687,-0.015148895],[-0.061913505,0.1987289,-0.033133592,-0.101991616,0.1442798,6.689135E-4,-0.010696458,0.13072266,-0.10779408,-0.015017971,-0.14683194,-0.08258719,0.03890447,0.20693333,0.123631775,-0.0056250826,0.049852148,0.041858226,0.039337937,0.014205044],[-0.02404172,-0.060237885,-0.06811678,-0.037577905,-0.01740187,-0.008401154,0.022786101,-0.13321213,-0.07518712,0.047127638,-0.040485967,-0.07799729,-0.09172242,-0.0056188228,0.0035435092,0.011676138,-0.008583339,0.06613747,-0.149748,0.059938807],[-1.4540771E-4,0.0031831749,-0.1357315,0.014991599,-0.030905655,-0.09846932,0.11468623,-0.14851148,0.08127856,-0.15025179,-0.030674258,0.14892778,0.14592591,0.055031367,0.0060480866,0.024211876,0.059797246,-0.10698245,-0.0018524814,-0.036976986],[0.06852534,0.04741724,0.21070337,-0.13092664,-0.0729577,0.021656113,-0.08036646,0.040403325,0.038551908,-0.05621851,0.073528744,-0.0066357995,-0.04399388,0.059662748,-0.11125048,-0.0038432076,0.009437765,0.1026998,-0.103546254,-0.06987399],[0.07252712,0.04573997,-0.0914597,0.16597946,0.24148606,-0.08768934,0.03815415,-0.02537694,-0.01233419,-0.09906992,-0.016847743,0.04595577,-0.08240538,0.04362064,0.030242622,-0.07814933,-0.025472201,-0.029521048,0.09964379,0.022309445],[0.1079129,0.062072966,0.04256699,0.1492341,-0.00914726,0.09480947,0.017277822,0.039254066,-0.22280651,3.5915527E-4,0.018894602,0.017262196,0.021266017,0.10295291,-0.010127825,-0.09156796,0.04132849,0.09194991,-0.027658401,-0.026420638],[-0.07009158,-0.016238037,0.043240268,-0.0030316778,-0.18389292,-0.08416624,-0.21905562,-0.025751175,-0.138297,0.0535884,0.02637151,0.0630247,-0.19609642,-0.08193518,0.048555076,-0.0773474,0.17035346,0.013119688,0.1347132,-0.11873449],[-0.037809115,0.06289147,-0.10621824,0.1568914,-0.058077242,-0.05359544,-0.013234654,0.1359148,0.099704154,-0.08005099,0.03456456,0.08022394,-0.19900641,-0.1099549,-0.04219133,-0.07829419,0.20542295,-0.12744771,-0.032068077,0.15884969],[-0.010982974,-0.017728152,-0.029785613,-0.006774602,-0.011358903,0.054782707,0.0059863436,0.013834965,0.067671776,0.13613766,0.008194593,-0.19432,-0.06531811,0.06270406,0.09361448,0.11718193,-0.035941128,-0.1474035,-0.07302244,-0.04785046],[-0.017792137,0.070744745,0.10860124,-0.027159078,-0.14448361,-0.07380841,0.056029566,0.10388458,0.022638166,0.08514233,-0.08229494,-0.100085504,-0.034988485,0.059354044,-0.14183323,-0.015805552,-0.10591427,0.009183273,-0.111174695,0.09697956],[-0.02253387,0.024604775,0.07295145,0.008429699,0.04633872,0.021820983,0.045445014,0.042102885,-0.14294268,-0.18967643,0.091832936,-0.22036183,0.011768639,0.051257454,-0.03403034,-0.043410707,0.061288163,0.0689116,0.025297131,-0.05521349],[0.15492272,0.19601743,0.16331767,0.012864319,0.053084064,0.04995478,-0.022366581,0.059381913,0.06354531,0.11536284,0.011649715,0.0134006785,-0.062048204,0.06134329,0.11596951,0.038449798,-0.12962358,0.002657722,0.06188934,-0.051865246],[0.009710642,-0.014060547,0.06325098,0.15067273,0.19503218,-0.15201275,0.13185674,-0.008500633,-0.04625074,0.19187267,-0.09398377,0.04002712,0.03505677,-0.094730064,0.047361303,-0.13170452,0.071464844,-0.08297487,0.019097883,-0.053568758],[-0.031295698,-0.009726578,-0.09502261,-0.07417889,-0.10683897,0.079458185,-0.07513186,-0.029040342,-0.023340635,0.026702275,-0.029741606,0.05944273,-0.16514142,0.072559476,0.04220799,0.08567548,0.07780971,-0.08163498,0.07567031,-0.05784682],[-0.096557766,0.10334943,-0.0896215,-0.20834213,0.10306733,0.22002828,-0.06448608,0.0029861277,-0.08283594,0.01979359,0.12514457,-0.084035195,-0.09039614,-0.20169899,0.14046717,0.015354367,-0.15840322,0.06512674,0.04426154,0.26567924],[0.099187426,-0.0025129593,-0.045666393,0.14348917,0.024702018,0.12338487,0.07380921,0.012137179,0.06499003,0.05738051,-0.121733665,-0.015358065,-0.030052995,-0.1112562,0.10430305,0.039247017,-0.090236105,-0.07930687,0.12463509,0.0420993],[-0.1946536,0.060766604,-0.08219913,-0.15280756,-0.12821677,-0.01858915,-0.12105168,-0.040678337,-0.19386806,-0.029604748,0.032481678,0.08395572,-0.08142032,-0.08927363,-0.10497685,0.07906627,-0.09004758,-0.01909929,-0.035662245,-0.055124592],[-0.0807289,-0.058428165,0.009832887,0.0012920902,0.08597958,0.1826637,-0.07522894,0.050316907,0.26569346,0.032310188,0.17299122,0.034745872,