{"generationNumber":15,"Entities":[{"fitness":0,"neuralnetwork":{"inputLayer":{"biases":[0.0,0.0,0.0,0.0,0.0,0.0,0.0,0.0,0.0,0.0,0.0,0.0,0.0,0.0,0.0,0.0,0.0,0.0,0.0,0.0],"values":[0.0,0.0,0.0,0.0,0.0,0.0,0.0,0.0,0.0,0.0,0.0,0.0,0.0,0.0,0.0,0.0,0.0,0.0,0.0,0.0]},"layers":[{"biases":[-0.07180747,0.18282361,-0.050866105,0.024385944,0.022490997,-0.021161526,-0.060895376,0.09137611,0.030184172,-0.047564484],"values":[0.0,0.0,0.0,0.0,0.0,0.0,0.0,0.0,0.0,0.0],"inputWeights":[[-0.03681493,-0.040471904,-0.12019476,0.09927933,-0.030453032,-0.08686919,-0.07733856,0.10626145,0.062331427,0.08753421,0.11358249,0.10187682,0.052089904,0.051055547,0.07727622,0.09969411,0.06807115,0.023484236,0.04095425,-0.06676084],[0.22489768,-0.03418372,0.050968207,-0.1711662,-0.19328667,-0.012542647,-0.08378473,0.106971346,-0.116523944,0.039945524,0.0046006823,-0.17999715,-0.14552869,-0.018328931,-0.04399211,0.042977683,0.09379294,0.018604042,0.028274136,-0.024071746],[-0.054994803,-0.0066850646,-0.14833623,0.012955641,0.14741252,0.05907148,0.10138931,0.119014315,0.14642987,0.06442327,0.046018194,-0.03798193,0.047928877,0.129862,0.041915357,-0.054809373,0.01043047,0.018525437,0.029809853,-0.19522624],[0.05984745,0.052845273,-0.10833943,0.07050456,0.056545753,-0.043581672,-0.03209556,0.0904012,0.13132825,-0.0054136342,-0.001212832,0.14160314,0.045814157,-0.007635846,0.08283309,-0.017927928,-0.057174355,2.4602303E-4,0.051300053,0.028277121],[-0.078613356,-0.010308191,0.31943148,0.09939438,0.093730465,-0.14601028,-0.04057138,0.03238675,-0.090069585,-0.013272929,0.142614,-0.08977279,0.036488626,-0.29798183,-0.07584629,-0.036514174,0.005616582,0.07610288,-0.117985085,-0.08766154],[0.13496868,-0.019863121,-0.078385726,-0.19710693,-0.044372354,-0.04054627,0.08546959,-0.048411265,-0.15004769,-0.13175952,0.014886677,-0.13930526,-0.16279681,0.07443802,-0.052302018,0.11248395,0.14311469,0.028559512,-0.038264915,0.04703401],[-0.1924805,0.04511988,-0.016395468,0.025955563,-0.031908844,-0.09663275,-0.043340158,0.0047815735,0.20826352,0.0020062705,-0.07289899,-0.10945735,0.045868557,0.07239813,0.15510058,0.074431024,-0.13624941,0.02487384,0.083357215,0.042249784],[-0.047777522,-0.06271337,0.040775985,-0.053054184,0.016396018,0.009958731,0.09104372,-0.06842136,-0.09731027,0.10912666,-0.11055163,0.06599446,0.28892213,-0.14601564,-0.09000965,0.15293866,-0.12580965,0.12410709,0.06828059,0.009563066],[-0.025693191,0.0069928807,0.062125444,-0.01051359,0.012085855,0.11506241,-0.15782048,0.10840831,-0.017641239,0.061518498,0.05915879,0.120022774,0.124439694,-0.15949862,0.40747836,-0.05398725,0.07454481,0.15347582,0.0049076295,-0.122470565],[0.08049711,-0.06822449,0.041134454,-0.11076387,0.16590647,-0.13380925,0.030224163,-0.081885576,-0.046386864,-0.024331547,0.097261034,0.05856168,0.021548638,0.10416034,0.12755366,-0.09652629,0.105828315,0.03168179,-0.02624578,0.03380603],[0.09131589,-0.07351745,-0.0111618275,0.10728688,-0.10621859,0.055218447,-0.07073237,-0.05034839,-0.025415763,-0.01414607,0.011290632,0.21807267,0.0031960355,0.007452041,0.08188741,0.12086084,0.08310612,-0.24750544,-0.024994867,-0.08563334],[0.043467503,0.0119877085,-0.09018322,0.06859437,0.011880693,-0.086487375,-0.050290164,-0.09115378,0.0014021057,-0.11689132,-0.0485331,-0.11844329,-0.038406756,-0.023130497,0.04106639,0.02273152,-0.085015774,0.090671346,-0.052362245,-0.019587869],[-0.09962757,-0.022242924,0.08875582,-0.09127355,-0.05005829,0.10829413,-0.14044595,0.050482642,-0.101351224,-0.08204759,-0.03735858,0.033593923,-0.17021236,-0.010201573,0.0053598396,-0.0841123,-0.021625638,-0.14367957,-0.19842276,0.1349934],[0.13171066,-0.1910427,-0.035451498,0.16765413,0.1782154,0.01344315,0.09982,-0.06950322,0.17255501,-0.022789126,0.079606436,-0.08345372,-0.15108995,-0.10697473,-0.14948532,-0.16810332,0.02851021,0.16398767,-0.035005007,0.11341871],[0.041245323,-0.046202883,0.04161067,0.14665706,-0.055853546,-0.10114082,0.27185196,0.13484392,0.06556624,0.05214637,0.05533663,0.104567885,0.1523315,-0.042660967,0.027450804,-0.11850261,-0.033454914,-0.07064323,0.0145512875,-0.027217664],[-0.046802685,0.0039426493,-0.105222076,-0.111380585,0.112021774,-0.16172129,-0.0034163524,-0.08139689,-0.015799094,-0.05135427,0.07128929,-0.1348008,0.07158258,0.041305885,0.031520724,-0.01837902,0.028094314,-0.115451396,-0.1108969,-0.16707802],[0.06709938,-0.0850157,0.15948255,-0.04409904,0.028355734,0.10913972,-0.021646917,-0.08385381,0.08107174,-0.02786335,0.13800502,-0.13178875,0.042252846,0.06451746,0.17067972,0.03256966,0.02963262,-0.09573478,-0.03357837,-0.13203536],[-0.12547521,0.16198598,-0.021016145,0.01673772,0.0063994364,0.044523835,-0.034591038,0.13824728,-0.011577181,-0.014171596,0.04323501,-0.015323199,0.07901761,0.059087805,-0.18589418,-0.15264674,-0.09495477,0.11672292,0.008201153,0.17286894],[0.038645636,-0.020776184,-0.15530103,-0.1939969,-0.04404177,-0.0026185585,0.08674112,0.10388077,-0.1321221,0.060257748,0.03192714,0.08833116,0.06937132,0.03314397,0.028474644,-0.02069222,0.05811904,0.054950505,0.10120878,-0.07770117],[0.08879512,0.09455117,-0.114580065,-0.023083404,-0.031170806,-0.09783789,0.05920156,0.05639451,-0.13514452,-0.23135002,0.102015644,-0.06232864,0.029436858,0.11396233,-0.08791266,0.07035692,-0.017917743,0.0553663,-0.15593636,0.08190594]]},{"biases":[-0.008087362,0.1285932,-0.17692722,0.018640112,0.21308196,0.07083383,-0.018108102,0.0056943116,-0.013149983,-0.036375046],"values":[0.0,0.0,0.0,0.0,0.0,0.0,0.0,0.0,0.0,0.0],"inputWeights":[[-0.002576576,-0.13824244,0.16543242,0.22941385,0.17307541,0.01072648,-0.014484312,-0.1778569,-0.14723702,0.045436166],[0.056212246,-0.14950378,-0.10982521,0.13128394,-0.01603678,-0.20452963,-0.04969747,0.061707057,-0.112069406,-0.060022213],[0.0011121209,0.15022801,0.031410687,-0.13303515,-0.0030637998,-0.11760355,0.022254944,-0.09900701,0.052035972,0.032342605],[-0.19504412,-0.03253759,0.07758359,-0.010301993,0.05910023,-8.1772124E-4,-0.010544778,0.061759546,-0.10438375,-0.029373664],[-0.14354275,0.086967826,0.1868497,-0.0053046164,0.04111696,0.055223025,-0.062205717,0.22982158,-0.05835194,0.13623255],[0.12367162,-0.05179686,0.020086093,-0.0710753,-0.052786298,0.055175334,-0.13626705,-0.18488634,-0.025013115,-0.002413245],[0.10762549,0.0013690869,-0.023163404,0.12768346,-0.08771141,-0.0019232398,0.041055243,0.07395643,0.042484943,-0.012226314],[0.08936522,0.08321491,0.043773364,0.10883493,0.055234235,0.043788888,-0.086206704,0.055045087,-0.052851494,0.137084],[0.0846968,-0.14181462,0.08346166,0.02050152,-0.10944902,0.009136047,0.10572712,-0.0422208,0.044619307,-0.07829809],[0.08121104,-0.10017351,0.103713915,0.096010044,-0.054063726,0.025541065,-0.052239697,-0.09160648,0.016575258,0.12659842]]},{"biases":[0.02390217],"values":[0.0],"inputWeights":[[-0.03423826,0.20970464,0.029790407,-0.007968495,-0.039582223,0.04208174,-0.19435923,0.11033542,-0.06300814,-0.08774963],[0.009124881,0.015625734,-0.058170382,0.03954411,0.038432024,0.08288617,0.049878888,-0.15797068,0.12812078,0.04181361],[0.04030687,0.3572644,0.038553104,-0.068665035,-0.019236824,-0.019709032,-0.10255493,-0.034502357,-0.07478209,-0.097551234],[0.0042265435,0.06310145,0.048643235,0.14939792,0.0834742,-0.24643196,0.037477687,0.07328517,-0.17339188,-0.09118313],[-0.010474835,0.08096773,-0.04780868,-0.09872643,0.008684283,0.23522855,0.023522833,0.1669943,-0.0257912,0.14799152],[-0.0016422744,0.066592604,0.14995572,-0.069240786,-0.010333249,-0.021663694,-0.0036702377,0.14875253,0.28618532,0.039492276],[-0.17945224,0.045823492,-0.027071984,0.2278825,0.08533303,0.09607575,0.029963788,0.10164257,-0.0049924296,0.015927484],[-0.052069787,-0.039044756,-0.007035936,0.039965253,-0.102979176,-0.08732028,-0.08452493,-0.07272891,-0.051119346,-0.076647684],[-0.101569444,0.021228831,0.05246186,-0.08934423,0.14987545,-0.120012276,0.109264806,0.029451367,-0.039446935,0.022957541],[-0.09999256,0.055358674,0.13003851,0.09834323,-0.029676126,-0.04975516,0.009545133,-0.009093218,0.09984773,-0.028814187]]}]}},{"fitness":0,"neuralnetwork":{"inputLayer":{"biases":[0.0,0.0,0.0,0.0,0.0,0.0,0.0,0.0,0.0,0.0,0.0,0.0,0.0,0.0,0.0,0.0,0.0,0.0,0.0,0.0],"values":[0.0,0.0,0.0,0.0,0.0,0.0,0.0,0.0,0.0,0.0,0.0,0.0,0.0,0.0,0.0,0.0,0.0,0.0,0.0,0.0]},"layers":[{"biases":[-0.07186613,-0.11418518,-0.13215941,-0.013867074,0.11702702,0.13213228,0.071812704,-0.09185536,0.03628193,0.14466795],"values":[0.0,0.0,0.0,0.0,0.0,0.0,0.0,0.0,0.0,0.0],"inputWeights":[[-0.114508525,-0.06242425,0.054323282,-0.07050758,0.0856285,0.055402275,-0.08677813,0.0486462,-0.03235654,-0.07108701,0.061984226,-0.1023177,-0.11590475,-0.13047017,-0.15240464,-0.13134179,-0.104683615,-0.05912293,-0.12460056,0.035129324],[-0.11061856,-0.11417647,-0.0673995,0.022014765,0.107596494,-0.14175619,0.019541759,-0.22062077,-0.116564475,-0.24928644,-0.03941273,0.06847901,-0.0919086,-0.106104665,-0.069966234,0.1439239,0.083774254,0.13185818,-0.042996254,-0.06766076],[0.032349154,-0.032885734,-0.24320507,0.038312744,0.0709884,0.04812519,-0.039460864,0.0695104,-0.032398015,-0.08956515,-0.07073505,0.0024392635,-0.05048396,0.21662435,-0.10179517,-0.13486083,0.23714192,0.08444975,-0.023335613,0.013913789],[0.20798212,-0.05442116,-0.061117984,0.21902117,-0.011868351,0.07632903,-0.1865727,0.034879256,-0.16354957,-0.026307033,-0.04878321,0.039215453,0.036978547,-0.038724985,0.07707317,0.095396906,-0.029115262,0.071451105,0.08540358,-0.039448366],[-0.016301876,-0.047726493,0.0053009815,-0.038940262,-0.051095173,-0.05197733,-0.13931796,-0.061603792,-0.07824712,-0.09094265,0.22835675,0.07274191,0.06788963,-0.16034791,0.122628964,-0.04418832,0.100488864,0.07067526,-0.12828211,-0.07816228],[0.0312186,-0.020709127,0.07546037,0.051277194,-0.07502945,0.019796377,0.18338013,0.04302802,0.0018844204,-0.07112027,0.07137815,0.008286975,-0.2080126,-0.019391919,0.12092974,-0.05568108,-0.052144818,-0.046019834,-0.25084665,0.25730616],[-0.12733765,-0.080816776,-0.10817587,0.077295855,-0.13179556,-0.15017495,-0.2946438,-0.049283966,0.051238447,-0.120190315,0.07101377,0.0533053,0.21628875,0.2545958,-0.11626312,-0.010771355,0.040564846,-0.08740776,-0.081465624,-0.01599832],[0.09682865,0.10147277,0.14924106,-0.14639948,0.0428295,1.1873499E-4,0.115442924,7.962626E-4,-0.07911325,-0.011930463,-0.17032994,-0.08256023,-0.11317051,0.2073486,-0.0016747597,0.07375407,0.0647822,0.15436846,0.1454417,-0.16304138],[-0.08868708,-0.23549509,0.043227404,-0.04150548,-0.116666436,-0.044458535,-0.13184884,-0.026052764,0.036907945,0.008382888,-0.17599699,0.020903768,0.26218113,0.058460344,-0.09840665,0.06086092,0.017028837,-0.29521674,-0.0069956733,0.10752952],[0.03959105,0.050476998,-0.09922852,0.09691408,0.13033617,0.116577156,0.12940843,-0.14976785,-0.030796966,-0.014279717,0.037561182,0.04343918,0.08797127,0.093851395,0.13742651,-0.0153700635,-0.11465074,0.082679205,-0.11934194,0.085613824],[-0.028770523,-0.022948196,0.016746927,-0.09200611,0.063777454,-0.09097872,-0.0010952814,0.10077058,0.023173228,0.00947076,-0.11470998,0.0010678342,0.02518025,0.1577948,-0.025559282,0.068733886,-9.5799577E-4,0.009848179,-0.020241335,-0.04531],[-0.0149811385,-0.02476481,-0.15493499,-0.14055493,0.06820972,0.11874633,0.115462065,0.15245809,-0.15002564,-0.015854489,-0.21460587,0.0889621,-0.03785231,-0.040558793,-0.0049575022,0.15930721,-0.049226254,0.06869539,-0.11215496,-0.04999914],[-0.12869954,-0.13656934,0.096163005,-0.0290465,-0.04935707,0.040326796,0.09265546,0.042436548,0.112946354,0.030461721,-0.041344613,-0.033317294,-0.061577953,0.14398919,-0.1343273,-0.17548195,0.1195731,-0.06370696,-0.11824327,0.045399085],[0.03855657,-0.042556353,-0.1603549,0.21972682,-0.045133367,-0.085412644,-0.10585164,0.06517525,0.0036953902,0.00821219,-0.06719962,-0.03607448,0.15432988,0.11999635,0.082804225,0.045984678,0.08103689,0.08509629,0.10485211,0.12630574],[0.10291368,0.019346595,0.032201026,0.13848299,-0.04773053,0.11036689,0.017558753,0.069170624,0.16802362,-0.03543756,-0.011536433,-0.057364102,-0.07091289,0.09245355,0.102163464,0.11710578,0.07512381,-0.02940155,-0.023536619,-0.059535194],[0.04208079,-0.023346918,0.14500152,-0.15998907,0.025988914,0.14485557,0.15580711,0.036927424,-0.07302688,-0.08977839,-0.09833524,-0.019531637,-0.08796799,0.057360463,-0.06095869,-0.0297846,0.10088658,-0.13607733,0.04556669,0.12403435],[0.031024711,0.062278893,0.112157315,-0.12597822,0.07175586,-0.05352299,0.12473626,-0.04935115,0.072941095,0.19726457,0.12714598,0.09661793,-0.13132918,-0.15310779,-0.02607989,0.02057263,-0.061724726,-0.1298984,0.021650966,-0.062259216],[-0.13555036,-0.06270142,-0.07614145,0.02951834,0.043486327,0.008879444,0.08488231,-0.08121537,-0.15742433,0.120483726,-0.12930161,0.068734445,0.042441595,-0.06059631,-0.17472394,0.10865903,0.10150845,0.030466499,0.030713037,-0.011272812],[0.027909014,-0.08333751,-0.11404357,-0.009889544,-0.18648702,0.17424795,0.041211914,-0.00937689,-0.13534816,0.14543684,-0.088774435,-0.06998913,0.15315582,-0.040106542,-0.097898334,-0.04180152,-0.16263014,-0.1501152,-0.03073405,0.11398792],[0.028458701,0.1490072,0.020298615,-0.010190362,0.15112191,0.16048376,0.14750955,0.010423659,1.5735802E-4,-0.08353152,-0.11019157,0.027878596,0.099904925,-0.0038898399,-0.118750855,-0.03304926,-0.04562823,-0.12187334,0.007134903,0.10928754]]},{"biases":[-0.058758944,0.24647272,-0.15079726,-0.118849635,0.04461823,-0.09725814,0.12680678,-0.21740493,-0.13876243,0.17444605],"values":[0.0,0.0,0.0,0.0,0.0,0.0,0.0,0.0,0.0,0.0],"inputWeights":[[-0.07521513,0.1270682,-0.05801296,0.15099534,-0.014144891,0.0931049,-0.041933686,-0.17763028,-0.05346831,-0.05364987],[-0.061082195,-0.16631626,0.030292919,0.07453438,-0.056354262,0.1698811,-0.03939029,-0.03995542,-0.025757123,0.1139155],[-0.238964,-0.056755412,-0.03801119,0.016428486,0.19613025,0.10196226,0.15105651,0.0787218,-0.117492095,-0.004378956],[0.009433875,0.07705139,-0.03922919,0.016967228,0.07720803,0.08473295,0.14154325,0.07554418,-0.06647434,-0.047396664],[-0.18996455,0.14105909,0.09056638,0.112872615,-0.09329673,-0.054120053,-0.150692,0.012157353,-0.02184225,-0.047506563],[-0.013452074,-0.07936046,0.022074228,-0.09079836,0.17560829,-0.12210347,0.018375825,0.0016015099,0.14699067,-0.054336336],[-0.016651211,0.03649327,0.09142147,0.03967599,0.074807376,0.03763514,0.10887426,0.12634456,0.014492857,0.007070081],[-0.16792053,-0.21642022,0.019477917,0.04774013,0.051019456,0.052993193,0.083297655,-0.025897179,-0.09936974,0.13910343],[0.11872393,0.095008954,0.20751575,-0.067391716,0.18573885,0.13845508,-0.09541295,-0.074672185,-0.046485342,0.0049495874],[0.023431575,0.07990422,0.07044419,-0.078143574,0.10664306,0.050133154,-0.119431555,0.016438998,0.04463929,-0.0060606315]]},{"biases":[-0.1151073],"values":[0.0],"inputWeights":[[0.026760675,0.08408365,0.031611238,0.066721566,-0.0506647,-0.12284808,0.18240985,0.026327113,0.12717791,-0.13049267],[-0.08310384,0.108443215,0.072004214,0.013135812,-0.054913297,0.263406,-0.14980932,0.056804676,0.106954366,0.083023995],[0.13895164,-0.05991548,-0.027258547,-0.07861702,0.16129784,-0.07332924,0.027197136,0.07098278,0.24600492,0.108085364],[0.06847612,-0.06062209,-0.139549,0.04431198,0.24617451,-0.119395785,-0.08116998,-0.060370084,-0.12538205,-0.088114165],[0.0039272537,-0.049810722,-0.14411506,0.022528907,0.09659686,-0.12687708,-0.01210388,0.010421345,-0.09283511,0.04594832],[-0.13596393,-0.01784,-0.10688243,-0.032224104,-0.14642562,-0.044219907,0.10701272,-0.23305714,0.059225682,0.08139416],[0.006765356,0.10602775,0.07773415,0.13309722,0.06126934,0.047457833,0.056553572,-0.039973292,-0.019364748,0.007718465],[-0.088401206,0.11864485,0.09014919,-0.08688501,0.08651201,0.019881532,-0.018800875,-0.0013286812,0.043571837,-0.043933697],[-0.13882665,0.08800686,-0.05083083,-0.1057022,-0.10382847,0.11626628,0.050914496,0.002661647,0.008323844,0.26074052],[0.1106175,4.8385942E-4,0.09268216,-0.043392316,0.021228697,-0.07756787,-0.17060299,-0.05224225,6.5049913E-4,-0.024171967]]}]}},{"fitness":0,"neuralnetwork":{"inputLayer":{"biases":[0.0,0.0,0.0,0.0,0.0,0.0,0.0,0.0,0.0,0.0,0.0,0.0,0.0,0.0,0.0,0.0,0.0,0.0,0.0,0.0],"values":[0.0,0.0,0.0,0.0,0.0,0.0,0.0,0.0,0.0,0.0,0.0,0.0,0.0,0.0,0.0,0.0,0.0,0.0,0.0,0.0]},"layers":[{"biases":[0.026340999,-0.021136602,3.1652293E-4,0.06687226,0.010196211,0.08753014,0.061130024,-0.038185798,0.1886121,-0.040623933],"values":[0.0,0.0,0.0,0.0,0.0,0.0,0.0,0.0,0.0,0.0],"inputWeights":[[0.05972968,-0.008073364,0.033312682,0.078168,-0.058669724,0.084512495,-0.0613218,0.081542395,-0.10326169,-0.04401488,-0.1157104,-0.029941851,0.09651794,0.0364737,-0.04066126,0.020747054,-0.1818088,-0.053069912,-0.07320649,0.15244871],[-2.8710108E-4,0.015245392,0.0040501542,-0.03299275,0.027355883,0.20086169,0.05295371,-0.07413201,-0.057210434,-0.14147006,-0.04683119,0.118993394,-0.07251137,-0.11676915,0.011539557,0.08914253,-0.20427081,-0.09833877,0.06346144,0.08867789],[0.15345101,-0.051373,0.012266171,-0.008217218,0.11116706,0.051641572,-0.03572907,-0.019457867,0.06906133,0.09980523,-0.05108757,0.0040483475,-0.03049673,-0.07649666,-0.09556068,-0.02083725,0.02163591,-0.18519707,-0.10121401,-0.058271974],[-0.137539,0.20045383,6.3303916E-4,-0.024523621,0.2264889,0.040684532,0.06530336,9.870274E-4,0.0077543375,2.1486725E-4,0.109043136,-0.13283606,-0.118756786,-0.08393127,-0.114581116,0.20328179,-0.11356099,0.141777,-0.052518386,-0.06506527],[-0.12264594,0.1423151,0.03400266,0.22045565,0.1336326,-0.06467316,-0.049444057,-0.14583877,0.15897903,-0.09544351,0.09434994,-0.021940948,0.09365479,0.010954491,0.13927239,-0.028710326,0.08037278,0.03215885,0.08343737,0.0047016335],[0.07368104,0.08343222,-0.21139522,0.08509162,-0.024813721,0.116693884,-0.10166955,-0.04775792,0.08750935,0.06060949,-0.2281634,-0.043645192,0.028997533,-0.131262,0.03799874,-0.15188578,-0.060916703,-0.014987726,0.05348386,0.04915615],[0.03228355,0.07072711,-0.111992665,0.15088049,-0.10077354,0.013704408,0.09284005,-0.23728204,-0.0033055895,-0.12855022,0.15420382,-0.093312494,-0.06437184,-0.08291843,0.07529662,0.101990975,-0.0044006705,0.16156273,-0.22592515,0.045964178],[0.20433842,-0.074707136,0.020147292,0.0012823851,-0.016524544,0.0358008,0.08981285,-0.018516349,0.03280824,0.02081668,0.13729826,-0.147348,-0.09119379,0.0027626029,-0.028230561,-0.05927407,-0.15058951,0.038418766,0.0054028793,-0.0034634136],[-0.12999673,0.021633742,0.027039219,-0.002481266,-0.018583106,-0.026883256,-0.15734419,0.011430436,-0.12509145,-0.05491413,0.094351545,0.08718762,0.035464726,-0.023467511,-0.076755024,0.051766396,-0.023754735,0.08403825,-0.07358423,-0.19241121],[-0.09509627,-0.013971538,-0.14300022,-0.15160005,-0.1305321,-0.11654464,-0.19797307,0.13589084,-0.019506793,-0.09118599,0.14859046,-0.07453989,-0.08591127,0.17655365,0.04144313,-0.05608593,-0.0044834292,0.103451736,-0.041775454,0.038400915],[-0.20756565,0.053017516,-0.08331613,-0.018472819,0.04306653,-0.051240847,-0.044551518,-0.0701376,0.008241477,0.058639586,-0.06200738,-0.033150256,-0.13869487,-0.109744824,0.0860977,-0.052398793,-0.018230109,-0.12429383,-0.014450911,0.040341463],[0.18537366,0.057498015,0.019944284,-0.0034303584,-0.05854196,-0.052238207,0.07764812,0.01038826,-0.16574973,0.1151503,0.0020274115,0.012567672,-0.12594897,-0.122496806,0.012782908,0.075856365,0.020560617,-0.029757075,-0.09034437,-0.050168216],[-0.031638436,0.059324536,-0.12742297,-0.12094337,-0.09272793,0.04487928,0.0959579,-0.086597964,0.06932935,0.0015469136,-0.04724884,0.0046964926,-0.0041755764,-0.05433256,0.041492347,0.01961359,0.03278289,-0.07973157,-0.061262485,-0.14001887],[0.11468571,-0.0033194576,0.110867724,0.055994477,0.072980165,0.0065182955,-0.008313455,0.03354604,0.12361999,0.061861236,0.0068865046,-0.062857985,-0.17388074,0.03043489,0.15196365,0.07985067,-0.002952755,-0.0017742122,0.081719175,0.16505559],[-0.24231365,-0.013207499,0.060049374,0.078077085,0.053520307,0.068036094,0.10365685,-0.1338952,0.022347637,0.08413401,-0.09763829,0.08273651,-0.06258534,0.059689004,-0.101731874,-0.16135484,-0.07938081,-0.05006101,-0.06314402,0.090233184],[-0.06427237,-0.08215439,-0.065951005,0.16784003,-0.13339548,0.051751047,0.14441517,0.031588472,-0.085038975,-0.050101034,-0.1613652,0.08856197,-0.1948454,-0.15795033,-0.084461704,-0.054049164,-0.11058425,0.07043145,-0.11764764,0.005802097],[0.133106,-0.114137165,-0.11419656,-0.05983253,0.28012204,0.08346275,-0.10033887,-0.20242143,0.31224954,0.06462757,0.048644003,-0.14694639,0.06043656,-0.004203205,-0.12059713,0.03205897,-0.07797637,0.07047224,0.09571824,-0.036728088],[0.08533504,0.21913302,0.07061099,-0.053856876,0.06222487,-0.094302244,-0.08240055,-0.1589849,-0.077426575,0.089897476,0.1269984,-0.0873159,0.037807964,-0.00625306,-0.053506877,0.1281607,0.013458347,-0.010382803,-0.05610802,0.06861827],[-0.13912815,-0.0059621106,-0.046203528,-0.016777603,-0.18883584,-0.06196678,0.08265857,0.11524635,0.02250824,-0.10315027,0.040348213,-0.03579339,0.0665081,0.010001204,0.043613635,-0.058673907,0.072740845,-0.010937205,0.14712328,0.10980959],[0.07381539,-0.076298356,0.056162864,0.011792336,0.10875753,0.03246695,0.07089036,0.0033621127,-0.02367805,-0.102615006,-0.03858497,0.15138072,0.008676248,0.059442475,-0.09410153,0.02173624,0.009859614,-0.033464987,0.09518365,-0.15553392]]},{"biases":[0.026519809,0.054673843,0.08824914,-0.04740545,0.07789103,-0.072757974,-0.08325241,-0.09897395,0.0033004046,0.1343771],"values":[0.0,0.0,0.0,0.0,0.0,0.0,0.0,0.0,0.0,0.0],"inputWeights":[[-0.04783807,-0.17508873,0.10574147,-0.106078245,0.07195785,0.03889239,-0.060847025,0.12888886,-0.011665534,-0.010393578],[-0.024267329,-0.08531855,4.0008058E-4,0.11782466,-0.044915374,-0.0501357,-0.16094385,-0.12813333,0.0045752204,0.021958228],[-0.18267581,-0.06977052,-0.06937935,0.048141114,-0.1154515,-0.19313231,-0.051365513,-0.107402295,-0.090613395,0.073177904],[0.20015912,-0.028329564,-0.08640464,-0.013462658,-0.1632213,0.13139813,0.051216904,-0.032504633,0.11783522,0.013566673],[-0.10335627,0.078075424,0.08062655,-0.072402604,-0.13687228,-0.098213136,-0.021496516,0.17700204,-0.08272361,-0.04356499],[-0.07442138,-0.094145514,-0.06422749,-0.044773184,-0.049319766,-0.051208127,-0.058842063,-0.046348765,-0.20159568,0.098811254],[0.01028344,0.10014854,0.07064329,-0.059999578,-0.23909615,0.22518747,-0.105717905,-0.089837946,-0.01153995,0.010938974],[0.0026624138,0.14067858,-0.027270228,0.058133863,-0.0018765379,0.015738612,-0.040279306,-0.054517582,0.092945024,0.056263365],[-0.0012221809,-0.0036368277,0.0079918,-0.0035315151,-0.16637857,0.033456095,-0.06509491,-0.13275462,-0.11859252,0.04045163],[-0.018611241,-0.076600514,0.025761623,-0.14667946,-0.08936149,-0.17154378,-0.12504749,-0.046891525,0.03596641,0.08218658]]},{"biases":[0.15422563],"values":[0.0],"inputWeights":[[-0.09117783,0.010939904,0.107208565,0.0066940044,0.055299796,-0.08931625,-0.026701404,0.13647568,0.0813448,0.2278316],[-0.15586293,-0.035544276,0.17183225,0.057350405,0.1516437,0.11219251,-0.14745916,-0.05434366,-0.2181438,-0.08576314],[-0.005440684,-0.020658301,-0.032564618,0.19211213,-0.057952765,-0.109707996,0.12357987,0.08539765,-0.03488631,0.1767799],[-0.12591663,-0.031178806,-0.066924475,0.016655376,-0.10112052,-0.07327727,0.12316964,-0.27139765,0.03989265,0.028201273],[0.021662265,0.009514714,0.1422133,-0.06979691,-0.02612939,-0.0012218019,-0.016511746,-0.046708535,-0.15631267,0.07025378],[-0.09171885,-0.02067678,-0.05806449,-0.08108408,0.14585626,0.09525498,-0.04775574,0.114814535,-0.111419536,-0.040269267],[-0.0015482095,-0.07406066,-0.035899714,-0.07227689,0.013212495,0.06958758,-0.029935176,-0.10414126,0.14639191,-0.011420468],[0.04598249,0.047184475,-0.04061535,-0.081203,0.065571174,0.016807547,-0.2107684,-0.013212032,-0.15649372,-0.15222426],[-0.036837317,-0.10609698,-0.041506372,-0.09827955,0.12282217,-0.09032399,0.09436449,-0.01824966,-0.017669898,-0.07408834],[0.205024,-0.17474195,0.0074127032,0.099211045,0.08426975,-0.03479683,0.21009365,0.037802227,0.060652506,0.07484863]]}]}},{"fitness":0,"neuralnetwork":{"inputLayer":{"biases":[0.0,0.0,0.0,0.0,0.0,0.0,0.0,0.0,0.0,0.0,0.0,0.0,0.0,0.0,0.0,0.0,0.0,0.0,0.0,0.0],"values":[0.0,0.0,0.0,0.0,0.0,0.0,0.0,0.0,0.0,0.0,0.0,0.0,0.0,0.0,0.0,0.0,0.0,0.0,0.0,0.0]},"layers":[{"biases":[-0.12683302,-0.11264237,0.106004365,-0.083598614,-0.24422643,0.10560484,-0.1726432,-0.11699291,0.15888095,0.039159585],"values":[0.0,0.0,0.0,0.0,0.0,0.0,0.0,0.0,0.0,0.0],"inputWeights":[[-0.19906646,0.0964979,-0.18836467,-0.0682637,0.2926625,-0.032872207,-0.08053793,-0.030977804,-0.0041185063,-0.047065865,0.06810911,-0.010368132,-0.10922468,0.04402715,-0.014231675,-0.045677207,0.03666555,0.032658994,-0.03382282,0.12089694],[0.020356877,0.11764448,-0.10568829,-0.03466968,-0.038716897,-0.1627252,-0.100536406,-0.12157033,0.047397874,8.2249846E-4,0.18378556,-0.014237256,0.1162282,0.009919791,-0.0640767,0.11016215,-0.09266774,0.06291021,-0.07485211,0.013079112],[-0.007931095,-0.2526154,0.035357103,-0.03894856,-0.09836435,-0.06872659,0.009892134,0.11635727,0.21291906,-0.05770196,-0.16254468,-0.041301936,-0.051316343,-0.024981555,-0.040024433,-0.21447614,-0.2330594,-0.039579578,-0.02255428,-0.0044771195],[-0.045077555,-0.09845987,-0.07351701,0.013739303,-0.010658058,0.18002237,0.036500357,0.019460676,0.011758078,-0.09820522,-0.15182254,0.05772876,-0.042233057,0.12076468,-0.056130704,-0.0401956,0.0059571727,-0.038749397,0.15248078,-0.040597335],[-0.004229033,-0.19196057,-0.15080927,-0.094453685,0.026631141,0.12298471,-0.11873205,0.08368345,-0.033039574,-0.06498795,-0.043570135,-0.03644793,0.10161705,-0.022342147,0.07244386,0.08791246,-0.1813068,-0.016461402,0.009531528,0.17897443],[0.032769404,-0.21545306,0.13780077,0.079729736,0.099242665,0.16028656,-0.085360155,0.1034501,0.04427192,-0.27306256,0.03513576,-0.0010288329,-0.17779382,-5.1889464E-4,0.12552598,0.078895874,0.012766147,0.17264159,0.0026202863,0.047612973],[0.042706836,-0.0021585654,-0.17104056,0.06507054,-0.053012334,-0.039924394,-0.032412637,0.16105765,-0.08810926,-0.01938142,0.0060615754,-0.14199463,-0.058338422,-0.08509856,0.12407443,0.09524534,-0.1415926,-0.211326,-0.064809196,0.0031401098],[0.106535695,-0.03505815,0.05203489,-0.11671766,-0.014554997,0.13257349,-4.8246654E-4,0.0065924986,-0.08539542,-0.18118116,8.1480347E-4,-0.0134149855,0.030460998,-0.034381106,0.0054456494,-0.09006737,0.07463886,0.25128734,0.085796766,-0.1269509],[0.08191589,0.10187321,0.01994788,0.10034172,-0.07111859,0.07399192,0.03463928,-0.019957833,0.25496134,-0.013202946,0.12949243,-0.1585741,-0.015296328,-0.025832629,-0.015560417,-0.18284816,0.031170864,0.072729155,-0.1152163,-0.17835249],[0.047527716,-0.20750426,-0.12720692,-0.15032725,0.030912576,0.10695622,-0.09627422,0.32449785,-0.034737278,0.117399186,-0.003509208,-0.059758954,-0.024199842,0.11808188,-0.03764253,-0.018340558,-0.050490566,0.046421144,-0.12895119,0.038699158],[0.036366057,-0.32700968,0.040505677,-0.06977763,-0.19227867,-0.09690154,-0.028509395,-0.022511251,0.058974598,-0.09752464,0.06599981,0.032431442,0.15801482,-0.07107881,0.022177579,-0.050342154,-0.040889084,-0.16568902,0.021648109,-0.037326787],[0.11269248,0.11090648,-0.15390383,-0.11577209,0.040482707,0.30312213,0.16345754,0.099038415,0.08766907,0.10225248,0.011767461,0.13311864,-0.005903998,0.09120573,0.0700815,0.07017046,-0.051330328,-0.0569007,0.018555352,-0.09280232],[0.07046067,-0.10007524,-0.056890104,-0.09003544,0.11997514,-0.17559391,-0.021757124,0.046067066,0.16197395,-0.12256557,0.055304818,0.040751398,0.08334555,0.06020889,0.07152682,-0.13323334,-0.07923098,-0.044455096,0.12913111,0.095265634],[-0.10074,-0.10335784,0.07879139,-0.003827547,-0.09525512,-0.03191023,-0.14765637,-0.121572636,0.11571929,0.12272212,-0.015183615,-0.18560056,0.02842923,0.18727213,0.041330047,0.14323357,0.1539995,-0.078238785,-0.11701711,-0.08476287],[-0.015707921,0.12546703,0.114183284,-0.07345357,-0.22820604,-0.08540754,-0.12161126,-0.11194879,0.14147185,0.09078217,-0.19054443,0.14145088,-0.14176671,0.11496393,0.095946126,-0.013577357,-0.098333105,-0.13530031,0.0019831997,-0.0013316663],[0.044119872,0.017626474,-0.045995276,0.042453166,0.09146922,-0.03562897,0.06893818,0.10789374,0.07156004,0.07724485,0.051790543,0.17430587,-0.025103236,0.07413806,0.010009126,-0.017211575,-0.08208862,-0.00909838,-0.0034912485,0.02480941],[-0.1129553,-0.17706092,0.07102956,0.12971331,-0.096061595,-0.10181873,-0.015081409,0.037747905,-0.056219608,-0.12614824,-0.09919644,-0.097379416,-0.09166129,-0.013108849,0.049990743,0.06272217,0.024329232,0.019765282,0.12843223,-0.09519897],[0.04192305,-0.008361322,-0.05353207,0.12750818,0.03905687,0.10891496,0.0766909,-0.041925915,0.06695224,0.13650973,0.02885285,0.06599075,-0.05313105,0.15609162,-0.18968982,-0.097855076,0.015267296,0.043023407,-0.1598779,0.0825313],[-0.049258456,-0.06378849,-0.040703595,0.056083497,0.08706717,-0.06723983,0.015952269,-0.075682364,-0.18948115,-0.08379404,-0.009260644,0.005352027,0.03397554,-0.013273322,0.18276614,0.05650308,0.026759861,-0.09111942,0.14392193,0.005508842],[-0.13960817,-0.017585669,0.044430517,0.07085067,0.073358834,-0.088206366,0.09001109,0.17427036,0.09619777,0.1107712,-0.09092726,0.09978665,0.010628023,0.02719738,-0.1353584,0.017481102,0.07280158,0.027272834,-0.068564825,0.08618477]]},{"biases":[-0.05942629,0.046273097,0.07283736,0.022903237,0.15727611,0.02752799,0.0060781203,0.14835095,-0.021121025,-0.08589612],"values":[0.0,0.0,0.0,0.0,0.0,0.0,0.0,0.0,0.0,0.0],"inputWeights":[[-0.073753774,0.033569276,-0.016780168,-0.04006425,0.068764016,0.09015042,-0.033711046,-0.20948401,-0.022861721,0.06782119],[0.17948495,0.10303227,0.064136565,0.037181098,-0.14488326,-0.057386562,0.039016917,-0.11501883,-0.23427387,0.12935843],[0.009267021,0.014710296,-0.029579164,-0.09189792,-0.14399137,-0.0023567963,-0.021239137,-0.27998284,0.07672492,0.1810546],[0.17258798,0.10570859,-0.13609079,0.10850747,0.02798532,0.042647194,-0.06633654,0.09180919,0.03155185,0.04330984],[-0.1328726,-0.040758166,-0.1198051,-0.0665384,-0.032954056,-0.18216644,-4.8834726E-4,-0.039440308,-0.11201339,0.0916146],[-0.013515543,-0.06587168,-0.15202382,-0.007296544,-0.089283176,-0.057872295,-0.052758846,0.10824173,-0.19059207,-0.022562174],[-0.115666546,-0.03613398,-0.012305894,0.10344888,-0.16487089,0.10880914,-0.049032364,-0.05239993,-0.051053002,-0.11075633],[-0.25185925,0.10412818,-0.051260557,-0.03740403,0.15124865,-0.025649695,0.055959206,0.04049756,0.09128008,-0.20074718],[-0.08481481,0.07019456,0.029412625,-0.05082603,-0.1266507,0.07778963,0.14301819,-6.306419E-5,-0.06974374,0.21741977],[0.044294443,-0.090062045,0.052957363,-0.036666967,0.091410846,-0.04345003,0.08289863,-0.1346663,-0.030778864,0.038675305]]},{"biases":[0.019856885],"values":[0.0],"inputWeights":[[-0.0076712407,-0.1181538,0.0049165953,0.033293534,-0.06222563,-0.06325701,-0.024216728,0.049956527,0.033900432,0.04205702],[-0.2071531,-0.037705757,0.14219451,0.015083286,0.08561468,0.04335291,0.2219453,-0.083139986,-0.08258286,-0.083410315],[0.10132367,0.16661601,0.018016431,0.04420426,0.08862988,0.12320966,-0.083436295,-0.010504031,-0.009719667,0.0073993653],[-0.08777655,0.05206095,-0.016196823,0.15216245,-0.007496144,-0.0639907,-0.01270795,0.048207324,-0.047368888,0.02789223],[-0.08115893,0.15814123,0.10989878,-0.0322113,-0.22209986,-0.13480501,0.13724518,-0.044927046,0.017111667,-0.026377019],[-0.030494187,0.11308255,0.06036615,0.026798707,0.07483872,0.109988116,-0.16045147,0.1682155,0.05945069,0.03827035],[-0.08667531,0.16980231,0.30670407,-0.18182765,-0.04124141,0.0127845025,0.10646332,-0.020565487,0.057511613,-0.13131902],[-0.043213956,0.16265747,0.0271185,0.0851192,-0.12314325,0.05164062,-0.05978618,0.13200682,-0.033416025,0.14639436],[-0.004677135,0.11532238,-0.0052666687,0.09833099,0.032679237,-0.058201674,-0.15897816,-0.115710735,-0.00370428,0.017806284],[-0.05013206,-0.1206333,-0.16866677,0.10115328,-0.081916764,0.045333106,0.037262708,-0.05617794,0.052362353,0.046874408]]}]}},{"fitness":0,"neuralnetwork":{"inputLayer":{"biases":[0.0,0.0,0.0,0.0,0.0,0.0,0.0,0.0,0.0,0.0,0.0,0.0,0.0,0.0,0.0,0.0,0.0,0.0,0.0,0.0],"values":[0.0,0.0,0.0,0.0,0.0,0.0,0.0,0.0,0.0,0.0,0.0,0.0,0.0,0.0,0.0,0.0,0.0,0.0,0.0,0.0]},"layers":[{"biases":[0.056163326,0.17426553,0.034946144,0.12585743,0.11849935,0.12022381,0.04299537,-0.017300826,0.11028863,-0.10478854],"values":[0.0,0.0,0.0,0.0,0.0,0.0,0.0,0.0,0.0,0.0],"inputWeights":[[0.15725455,0.05314648,-0.06875392,0.08744008,-0.044601828,-0.14519045,-0.09080697,0.17777605,-0.019175338,0.09442747,-0.06396523,-0.1944224,-0.055038337,-0.04755585,-0.06524478,0.109538116,-0.009259742,-0.0021040281,0.14013685,-0.07989897],[-0.08066747,-0.0934076,-0.015030006,-0.03115903,-0.018711004,-6.863842E-4,0.11052929,0.08594123,0.05085641,0.23575608,0.019063985,0.10622366,-0.09777574,0.14566748,0.016417056,0.06733194,0.016185692,-0.039889548,-0.18427522,0.02587451],[-0.066504195,0.022197207,0.20962623,0.015624071,0.04037282,0.057916187,0.053175755,0.020849923,-0.14296417,-0.052739773,0.03183671,0.007291249,0.038933203,0.061791725,1.171636E-4,0.0109988125,0.15886454,-0.008231609,0.11457662,0.16148616],[6.486326E-4,-0.03584838,0.00732901,-0.019269992,0.29578757,0.22286153,-0.035554815,0.079086624,-0.09386118,0.016572086,-0.21758781,-0.038132112,0.09338098,-0.19519417,-0.09723179,-0.031301223,0.018612152,-0.055638507,-0.025039945,0.005013296],[-0.021605425,0.03430289,-0.015777051,0.104200505,0.05692154,0.12805998,0.09084743,0.037697714,-0.052216385,0.12656632,0.03448778,-0.011316461,-0.04869926,-0.0643891,-0.16354519,-0.10006336,0.1167418,0.009058867,-0.027112212,0.08246591],[0.02005578,0.022284884,-0.065131046,-0.025755843,0.16722216,-0.13908246,-0.008858085,-0.10608597,0.093557246,0.0011862008,-0.2832354,-0.15008214,0.051570456,-0.016273562,-0.062406044,-0.13153471,-0.05148165,0.06132441,0.09081999,0.009879003],[-0.029690558,-0.19421114,0.1244484,-0.10760142,-0.07947371,0.07414669,-0.045915756,0.041950133,-0.021040207,0.097201854,-0.06665655,0.0059719654,-0.059812445,0.062202618,-0.036299873,-8.756079E-4,-0.023552012,-0.025191579,-0.08499122,-0.07437239],[-0.0060639777,-0.06593712,-0.08524132,0.01836507,0.23442124,0.008080793,-0.12433429,-0.020847196,-0.2672606,0.09274719,-0.092162944,7.175634E-4,-0.043501176,0.067493774,-0.023385817,-0.09475765,0.1463216,0.20077804,0.028947745,0.13356407],[0.07728788,-0.17550161,0.13585308,0.0155045,-0.05849192,0.16609466,-0.072440065,0.07004961,0.19037516,-0.07453955,0.031804584,0.30697525,-0.20236188,0.048808,-0.13493118,-0.09875996,0.07948762,0.14309531,0.0941,-0.10279945],[-0.06432214,0.2251836,-0.02959949,0.035084102,-0.094172284,0.18074265,-0.009720094,-0.15100126,0.046879984,-0.16959313,0.053169005,0.008068984,-0.07431487,-0.111419514,0.12006655,0.01832809,-0.12967362,-0.06571427,0.0016713246,-0.055976387],[-0.208955,4.569202E-4,-0.115197815,-0.063358776,0.0118268775,0.07270131,-0.0449446,0.09459377,0.04140755,-0.104522415,-0.0241426,0.023047581,-0.09180342,0.10338161,-0.03184561,0.043825205,-0.20521875,-0.039774068,0.13293473,-0.14502461],[-0.01342289,0.059743013,-0.04791274,0.06466905,-0.017580599,0.046792623,-0.050333645,0.009200536,-0.0076873717,-0.10011152,-0.0022562002,-0.0072550178,0.19338654,-0.16538753,0.10852173,0.1178011,0.08308994,-0.04101222,-0.18156797,0.09663086],[0.11325012,0.03355544,0.09640941,0.2191534,-0.11206664,0.01296882,0.05173247,-0.043783672,-0.044895235,-0.084306516,0.017800432,0.013810494,-0.0043150554,0.019101331,0.05668136,0.15942483,-0.084592976,0.19582933,-0.01453262,-0.031014318],[-0.04325824,-0.110012,-0.14224117,-0.06964238,-0.0805935,-0.13240741,-0.14054276,-0.022782687,-0.018003222,-0.04419323,-0.036510605,-0.040401857,-0.109539434,0.11962547,-0.014069655,-0.040617228,0.10015588,-0.021390047,0.05709908,-0.13992305],[-0.069919296,-0.14950371,-0.049157534,-0.058631945,-0.09108869,0.17837292,-0.011683415,0.05252616,0.03958572,-0.109233625,0.027573833,0.10926525,-0.08875505,0.07103596,-0.034257036,-0.05695893,0.13449718,-0.07382363,0.030062705,-0.038528297],[0.048149202,0.13792439,-0.10257125,0.08155453,-0.024186471,0.083367705,0.033662632,0.13630585,0.02313593,0.08298086,0.10104912,-0.07360924,0.07766754,-0.060284812,0.0416791,0.033284623,0.0022413465,0.023084836,-0.08457262,0.058736194],[0.07109426,-0.021272054,-0.14943357,-0.13887136,0.1369719,0.025920762,0.10566115,-0.010632508,-0.07480874,0.010154527,0.06994914,0.08183151,0.020752039,-0.02168883,0.04485034,-0.12551789,-0.06766108,0.16657625,0.090734445,-0.052417006],[-0.014812146,-0.04192476,0.17198493,-0.15979809,-0.015089073,0.05131899,-0.046338614,0.113252886,-0.04622289,0.0995175,0.11651781,-0.027233323,0.0913339,-0.18619965,-0.09843478,-0.15852675,0.17854095,0.007886293,0.14663447,-0.108737834],[0.037464764,-0.116316825,0.1947643,0.05173818,-0.05261273,-0.1377161,-0.13732843,0.08376831,-0.08260113,0.08603526,-0.06995114,0.07684818,-0.044963453,-0.18060051,-0.1362435,0.0052020717,-0.016877353,-0.10714047,0.11739724,0.061398212],[-0.27376017,-0.045034215,0.14277856,0.23173797,-0.16294889,0.045392226,-0.1123504,0.039350964,-0.10070994,-0.090692215,-0.07781926,-0.09917377,0.12398493,-0.04998034,-0.0523995,-0.10634501,0.031884357,-0.14458418,-0.091553055,-8.259227E-4]]},{"biases":[-0.12796672,0.026783124,-0.029041372,-0.10664304,-0.038707543,-0.08973546,0.12089387,0.12325278,0.017328622,0.025376998],"values":[0.0,0.0,0.0,0.0,0.0,0.0,0.0,0.0,0.0,0.0],"inputWeights":[[-0.032246612,0.06273497,0.10741138,-0.14187457,0.0058217878,-0.14041166,0.0741588,-0.026015459,-0.02366897,-0.05378684],[-0.32816234,-0.03154084,-0.046037298,-0.021442432,-0.017714787,0.07697459,-0.022951225,-0.100695,0.14988166,-0.16508211],[-0.23869587,0.12342609,-0.018354634,0.033702694,0.06396229,0.35704073,-0.14289609,0.022264317,-0.02925802,0.007986353],[-0.28487775,-0.043791384,0.06952619,0.081923,-0.011192384,0.09000576,-0.046796653,-0.20458335,0.09463868,0.09472896],[-0.058979318,0.12303834,-0.0587427,0.11184729,0.030413395,0.001126863,0.13629195,-0.040262546,-0.08310342,-0.07109247],[-0.055221267,5.240023E-4,-0.04371253,0.11319304,-0.15765937,0.016244829,0.12312832,0.02946933,0.112224355,-0.04153829],[-0.13396683,0.068799846,-0.0118658105,-0.003773199,-0.020217672,-0.112649046,-0.08343832,-0.05338539,-0.00832173,0.09916159],[0.03462067,-0.20295905,-0.042275347,-0.021954194,0.03874953,-0.090095125,-0.16831447,0.20418052,0.13758805,-0.07568003],[-0.045182426,0.11571294,-0.115004346,-0.08986435,-0.07373325,-0.07005371,0.017485462,0.030781575,-0.06274853,-0.09163578],[-0.06517546,-0.083637774,-0.16524974,0.21027887,0.037867464,-0.015742498,-0.013175235,-0.013930594,0.06998898,-0.18617573]]},{"biases":[-0.016905922],"values":[0.0],"inputWeights":[[0.1613859,-0.13504504,-0.017694501,0.03571096,-0.03479462,0.18151033,0.0838013,0.055266283,0.03538045,0.1453345],[0.045516357,0.02105317,0.14219232,-0.04425507,-0.15046588,0.06560289,-0.056930497,0.08950127,0.12192483,-0.042292707],[-0.016879814,0.060874082,0.038337383,0.029992592,-0.004019633,0.093341246,-0.022169702,-0.009156142,-0.0095599275,-0.0046391715],[0.008352349,0.097933844,-0.04059635,0.13376838,-0.015991125,-0.061161302,-0.1827388,0.13277304,0.020773966,-0.12005757],[0.111580655,0.15866141,0.13383062,-0.037039388,0.10305182,-0.0062103597,0.13084333,-0.043640144,0.10831031,-0.020023888],[0.17957175,0.0232088,0.07503029,0.046455827,-0.08758008,-0.036398366,-0.14195664,0.108592115,0.08163902,-0.0966975],[-0.007776215,0.056937266,-0.053030856,0.13131519,0.029287614,0.13162747,0.0036665918,-0.13380961,-0.07484991,0.038769003],[0.14770953,0.15211909,-0.09022591,0.129294,-0.004275381,-0.05349968,-0.08627102,0.095740065,-0.024808628,-2.938632E-4],[0.1113922,0.03946759,0.118937485,0.13655366,0.081036896,-0.21554355,-0.08265036,0.050771087,0.12927534,0.070419475],[-0.0046117986,-0.064117655,0.09083496,0.01547798,0.06874668,0.084583856,0.11596993,0.034049924,0.115789704,0.019494388]]}]}},{"fitness":0,"neuralnetwork":{"inputLayer":{"biases":[0.0,0.0,0.0,0.0,0.0,0.0,0.0,0.0,0.0,0.0,0.0,0.0,0.0,0.0,0.0,0.0,0.0,0.0,0.0,0.0],"values":[0.0,0.0,0.0,0.0,0.0,0.0,0.0,0.0,0.0,0.0,0.0,0.0,0.0,0.0,0.0,0.0,0.0,0.0,0.0,0.0]},"layers":[{"biases":[0.026627852,-0.1728588,0.06416248,-0.015419943,-0.08353183,-0.07707404,-0.070178,-0.20308512,-0.0510755,0.06734866],"values":[0.0,0.0,0.0,0.0,0.0,0.0,0.0,0.0,0.0,0.0],"inputWeights":[[0.21040307,-0.014647273,0.19330604,0.12089943,0.10219476,0.011638739,-0.122856565,-0.005308603,-0.020689996,-0.060987752,-0.054346528,-0.09476341,0.041329943,0.111147776,-0.05260243,0.13542965,0.039565347,0.14012633,-0.19359845,0.07728588],[0.06226855,0.11619791,-0.04746643,-0.04640514,-0.14495671,-0.028934104,-0.076262705,-0.016092489,-0.06963056,0.066874996,-0.04648999,-0.046050373,0.14374013,0.058265045,0.06785532,-0.07068546,-0.04702763,0.07247217,0.06416996,-0.20015202],[-0.17386557,-0.1352029,-0.06466871,0.092014715,0.21179274,-0.1571922,-0.12922688,-0.09311842,0.08723222,0.04300661,0.006941714,0.04734266,-0.012494866,0.08778124,0.1493982,-0.007590791,-0.0017490367,-0.08220613,-0.023283947,-0.1528255],[-0.10490114,-0.09913748,-0.1253354,0.15321386,0.030702442,-0.07499873,-0.043632068,-0.06772154,-0.052907266,-0.021206593,0.13291962,0.003401651,0.057831194,0.014581222,0.018259369,0.083538495,-0.1613763,0.021813225,-0.13951077,0.024631016],[-0.13234776,-0.061303053,-0.11549658,0.06532651,-0.15021756,-0.16151679,-0.10897456,-0.09128155,0.08099683,0.033979785,0.14170758,0.100826465,0.16976486,0.009371962,-0.014969821,-0.10393506,0.048794173,-0.15265618,-0.01821759,0.07559836],[0.027592529,-0.04138307,0.20400432,0.033280887,-0.040942747,0.06137614,-0.0976842,0.06304477,-0.14097145,-0.043380238,0.048953988,0.016514342,-0.10061854,-0.13226593,-0.102513306,0.03715612,0.056356855,0.100251,0.007313911,-0.011818349],[-0.06438666,-0.08074755,0.073439136,0.053268466,-0.072340414,-0.1690097,0.06627394,0.049466323,0.046326246,-0.016515499,0.11644329,-0.12919307,0.11520987,-0.030273983,0.064774506,0.2640868,-0.04718478,0.09476199,0.14236107,-0.10225567],[-0.0077654584,-0.029707175,-0.15416177,0.014353961,0.010853124,0.09434062,-0.13441345,0.066075556,0.072412066,0.10367892,0.012094447,0.16047901,0.12547241,-0.024559567,0.037516147,0.025753116,0.16524135,0.16579418,-0.03985378,-0.08588997],[0.1123278,0.08471419,-0.16683176,-0.19065775,-0.048040543,0.18170474,0.19308499,-0.0067754504,-0.15336141,-0.10569712,0.073058516,-0.052388903,0.06136878,-0.057183653,-0.020605462,-0.22169082,-0.14693618,0.10355441,-0.082470745,-0.094308086],[-0.087665804,-0.02632217,0.03850147,-0.05496715,0.08766957,0.09112693,0.0030536202,0.11437302,-0.1724424,-0.083215296,-0.14551698,-0.023238502,0.037315108,-0.1638231,-0.13586463,0.20660873,0.11699907,-0.03255504,0.0020244757,0.04721302],[-0.27915874,0.010698695,-0.101997584,0.10509036,0.08479932,-0.06441037,-0.016688554,-0.014469147,0.108962916,-0.022233864,-0.07074488,0.08027484,0.115523346,0.053808652,-0.077174254,0.13170001,0.13455386,-0.013058899,0.18256594,0.15179233],[0.23171577,0.008309987,-0.11626304,-0.010408773,-0.08204046,-0.101656966,0.12865688,0.008928864,0.15478458,0.037960447,0.12347054,0.16746172,0.05755846,0.14668566,-0.096590675,0.17670925,0.00651143,0.14893773,0.15878215,0.07163344],[-0.07017563,0.032975253,-0.008053076,0.10589214,-0.07519805,-0.10785199,0.029177386,-0.06488959,0.16704535,-0.03858391,0.04454258,-0.109845005,0.19905055,-0.07690273,-0.10947603,0.035792362,-0.05962422,0.15991361,-0.011493834,0.019072967],[-0.21197847,0.011437353,0.0075181783,0.0044448166,0.05929504,0.057303373,-0.11385065,0.04671691,0.049159877,-0.04245066,-0.17773376,-0.032449108,0.04003411,-0.10424797,-0.059733365,-0.15249436,0.022391498,-0.07670393,0.14554632,-0.11735949],[-0.04198719,0.11581597,0.16940776,0.10879339,-0.14446273,0.037248854,0.1093328,-0.070500955,0.12739442,0.008734282,0.00554751,-0.10091505,0.0783757,0.098184,0.13009635,0.08130673,0.27633646,0.2243733,-0.13817385,0.09808883],[3.9486118E-4,-0.041187666,0.03966001,-0.093066,0.08409879,-0.010334944,-0.052114982,-0.053054057,0.059134305,0.054616947,-0.052579734,0.06656405,-0.013512124,0.029928751,0.1809618,-0.30942827,-0.043368597,-0.17366414,0.11515495,-0.03262653],[0.13611671,0.05810395,-0.04376575,-0.07306002,-0.067831144,-0.12500896,-0.069332756,-0.058256563,0.021173192,-0.030322539,-0.11085187,-0.17231923,-0.023663238,-0.016707942,-0.07852784,0.04352681,0.11393432,-0.0913483,-0.09737258,0.022041244],[0.085836746,-0.104686245,-0.1093866,-0.11558539,-0.046727367,0.15411556,0.2536588,0.09476823,-0.019793035,-0.23446974,0.05488112,-0.15052968,0.15542045,-0.21097174,-0.0017330812,-0.0632943,-0.08779795,-0.0727173,0.006232845,-0.1589646],[0.0056405296,-0.01308182,-0.077534765,-0.10841315,0.23468564,-0.043355823,0.16717267,0.19799751,-0.035642743,0.010343435,0.021331733,0.07466854,-0.052631807,-0.031688794,-0.08308713,-0.1606761,-0.20624302,0.117276326,-0.118630625,-0.08672541],[-0.10559761,-0.10383797,-0.008730527,-0.0066048307,-0.014220483,-0.060913227,0.19753326,-0.021261342,-0.11724727,0.03631069,-0.022464486,0.110735945,0.039477706,0.04545084,0.09500552,0.018196715,-0.019742582,0.096833706,-0.0748202,0.028806893]]},{"biases":[0.04950505,0.02808879,-0.07959493,0.0025657103,-0.15136562,-0.032100677,-0.059975654,-0.12219482,-0.14853662,0.01717738],"values":[0.0,0.0,0.0,0.0,0.0,0.0,0.0,0.0,0.0,0.0],"inputWeights":[[-0.031470418,0.0152315395,0.10731961,0.08167747,-0.09389771,-0.10346332,-0.00548081,-0.011662569,0.0153497355,0.11280408],[0.1028641,0.062202252,-0.022436462,-0.023694597,-0.036170717,-0.020163912,-0.14482829,0.08255176,-0.08923327,-0.017107842],[0.10518961,0.007536681,0.08644991,-0.07336718,-0.15058084,0.1038392,0.021866241,0.17914814,0.0671866,0.031238249],[0.03236201,-0.20387565,0.30298704,-0.101951085,-0.13584836,0.01484586,0.13722338,0.03060597,-0.05452938,0.18099764],[-0.04083086,0.10525966,0.20768285,0.093529046,0.018242123,0.16296317,0.0773952,-0.04409518,0.18286484,0.1046891],[0.08471901,0.014852971,-0.054153193,0.014336579,0.10090097,-0.07330415,-0.042621434,-0.01957174,0.05549467,0.07639127],[0.062603965,-0.15109326,0.038135737,-0.13891394,-0.122789815,-0.16389427,-0.010189261,0.058689106,0.12689051,0.2004816],[0.067093626,0.07529036,-0.12564759,-0.0014417287,0.1251251,0.14678994,0.20553921,-0.045458283,-0.1424144,0.16290204],[0.030058468,-0.13700627,-0.07418271,-0.074450545,-0.045108885,0.17540583,0.10941147,0.091671266,0.13350481,0.081774555],[0.05107085,-0.075972825,0.059184145,-0.04852576,0.060615297,-0.11851361,0.033459026,-0.10739681,-0.017011805,0.0013258376]]},{"biases":[-0.05523895],"values":[0.0],"inputWeights":[[-0.0101877,0.11399599,-0.02594906,-0.08324919,0.05739756,-0.050368782,8.966111E-4,0.030551137,-0.04594521,-0.027619986],[-0.039167814,0.051049028,-0.10432013,0.13237251,-0.008962458,0.05677299,-0.023729581,0.17607781,0.11420487,-0.061144695],[0.08931096,0.10354142,-0.021313433,0.23729229,0.095994,0.09227164,0.12810147,0.104893364,-0.015141507,-0.05598844],[0.048083555,-0.050508477,-0.0019220791,-0.049402557,0.065143876,-0.018325003,0.13314044,0.11163342,0.049775477,0.020730233],[0.10981021,-0.09602815,-0.0153955845,0.030754002,0.08875207,0.04172683,0.07497354,0.04204957,0.14019752,-0.1342702],[-0.055798817,0.15981932,-0.120527655,-0.048853766,0.11634232,0.04277658,0.07658245,-0.043470398,0.17600526,0.16113946],[-0.06189189,-0.061973438,0.02509248,0.19071084,0.017247599,-0.033432562,0.1726732,0.17732191,-0.019030657,-0.15158272],[-0.029933471,-0.0588534,0.27681205,0.16942807,0.025301708,0.009991626,-0.051134735,0.02716891,0.15626673,0.04243314],[-0.03984682,0.07293522,0.036153488,0.11133863,0.09677613,-0.115407884,0.111909494,0.029514113,0.021788307,0.04435251],[-0.025754713,-0.18113409,0.018993614,-0.13569549,-0.15975186,-0.016318297,0.047608264,0.14437719,-0.012579816,0.12958227]]}]}},{"fitness":0,"neuralnetwork":{"inputLayer":{"biases":[0.0,0.0,0.0,0.0,0.0,0.0,0.0,0.0,0.0,0.0,0.0,0.0,0.0,0.0,0.0,0.0,0.0,0.0,0.0,0.0],"values":[0.0,0.0,0.0,0.0,0.0,0.0,0.0,0.0,0.0,0.0,0.0,0.0,0.0,0.0,0.0,0.0,0.0,0.0,0.0,0.0]},"layers":[{"biases":[-0.062251516,0.03061901,-0.030471666,-0.019015148,-0.05741213,0.11530126,-0.004244567,-0.022786992,-0.0491742,-0.011917568],"values":[0.0,0.0,0.0,0.0,0.0,0.0,0.0,0.0,0.0,0.0],"inputWeights":[[0.03559512,-0.08184382,0.03940804,0.29878205,0.0532698,-0.11295759,-0.008785682,0.16969503,-0.05146932,-0.035815123,0.104290135,0.086258754,-0.047415785,0.07897919,0.013238755,-0.04024903,0.054413483,0.11172718,-0.033858784,0.1313624],[-0.10175483,0.13257621,-0.16203533,0.057549268,-0.043740578,-0.060005408,-0.03151774,-0.15002348,0.038203187,-0.09676009,0.02034304,0.001994505,-0.015950706,0.11585249,0.04103404,0.11582792,0.14449614,-0.018064303,0.085726134,0.1158746],[0.0051377,0.12699123,0.05242423,-0.024341553,0.018972564,0.10665008,0.09638,-0.015997691,0.22470868,0.055304453,-0.06971516,0.009843524,0.148707,-0.061013248,-0.011403426,-0.086552456,-0.06643707,0.08504076,-0.15265405,-0.20161764],[-0.096588254,0.009205239,-0.024059597,0.01596295,0.04502887,0.012203682,-0.058782384,-0.10051563,-0.058285553,0.17978026,0.2500415,0.17734537,0.05173307,-0.012876916,-0.061210547,-0.09840429,0.001338545,0.2372929,-0.08017173,0.053428553],[-0.10188806,0.027696405,0.039297,0.011122129,0.058546487,-0.0068025175,-0.069142334,0.02097083,-0.02379396,-0.011915025,-0.12232307,-0.020603485,0.03621043,-0.052727778,-0.06932309,-0.17527062,0.07567615,0.04015824,-0.088581935,-0.12824167],[-0.07803323,0.08779916,0.15418871,-0.0023939838,-0.05873599,0.12367702,-0.14585662,0.22077033,0.10688651,-0.11734792,0.02534285,-0.034943826,-0.04129969,-0.23579401,0.22120723,-0.031845555,0.26557586,-0.026699336,-0.1510372,-0.10973089],[0.09722775,0.120049596,0.016467655,-0.12791248,-0.04115439,0.058499653,-0.086601414,-0.037415177,0.0055059576,-0.08824096,-0.06154724,-0.17290747,-0.020659776,0.06905402,0.025127428,0.1402028,0.02700039,-0.12141793,0.020740809,0.026745327],[0.082647204,-0.1708664,0.16095173,0.114502095,-0.039735872,0.02390318,-0.0017532356,0.055078022,-0.16224456,0.027264908,-0.09141824,0.048185002,0.055908754,0.0168313,0.07241876,0.077968724,-0.049249496,0.20832504,-0.060637426,0.037614953],[0.07082267,-0.025164247,0.09148592,-0.051621947,0.029876187,-0.13539065,0.11266868,0.004029031,0.019239657,-0.064467326,-0.025524732,0.02303565,-0.17185378,-0.03992884,-0.04286105,-0.0015916154,-0.036957987,-0.028058365,0.0874137,0.026014002],[0.02198713,0.25234702,9.382147E-4,-0.025432581,0.053047873,0.07053716,-0.11555975,-0.03898724,0.153229,0.09736081,-0.0029039567,0.09706844,0.02173716,-0.02869945,-0.06125688,-0.10730414,-0.14752638,0.10566132,-0.026895033,0.025173958],[-0.16395853,-0.00424622,-0.0010386086,0.058841955,0.056433655,0.091007814,-0.06226569,0.01122843,0.038291372,-0.1559857,0.022857651,0.09216108,-0.047412105,-0.19302632,0.035927795,0.08132019,-0.031936396,-0.16945378,-0.025585154,-0.2287687],[-0.16321626,-0.15457332,0.08774712,-0.027913203,-0.11069685,0.040475402,-0.15449736,-3.7166977E-4,0.092331156,0.044330377,0.016893875,-0.037458662,-0.076932915,0.03259456,0.0961694,-0.010280743,-0.017140163,-0.10387052,-0.10473516,0.03903867],[0.0034151892,-0.040101927,0.15818581,0.020092066,-0.0060210447,-0.051163338,0.13400276,-0.15469126,0.08779525,-0.20179072,-0.12992817,-0.17741069,0.057956927,0.04658987,0.15628287,0.033233248,0.06566328,-0.059258297,0.058343187,0.061876178],[0.10312106,-0.09028551,0.042492185,-0.119606316,-0.008038356,-0.023623716,-0.025700638,-0.13894945,0.14123183,-0.13461322,0.11465471,-0.033992007,0.13587552,0.0037003742,0.041088916,-0.07303398,0.035286,-0.07570648,-0.024892136,0.109035276],[-0.16763224,-0.11972569,0.12732974,0.1088605,0.116197966,0.17612681,-0.077206485,0.01047934,0.014686856,-0.06222058,0.05723279,0.04139655,-0.0036378505,0.16382875,-0.092692345,0.07696546,-0.06353914,0.11024093,0.020000396,0.087140806],[-0.02620777,0.05578982,-0.08165634,-0.058741063,-0.15015867,-0.008015718,0.11304638,-0.06291556,-0.05381245,0.15592086,-0.11629749,-0.0077874423,0.05573509,0.02888285,-0.1484848,0.05674161,-0.10403253,-0.09524892,0.12372231,-0.21580215],[-0.037247945,0.028413305,-0.19943307,-0.23726375,0.0031196005,-0.28355652,-0.16164847,0.048471034,0.046313185,-0.046833627,-7.752358E-4,-0.025186876,-0.12089029,-0.1425341,-0.110971406,-0.14645326,-0.12235367,0.057733633,-0.011263656,-0.04037447],[-0.10433615,-0.13552885,-0.025069539,0.07238348,0.08387895,0.04541876,-0.022774253,-0.08592057,0.031643968,-0.032050386,-0.070886075,0.055455808,-0.07851043,-0.10598645,0.06453723,-0.3196485,-0.07235801,-0.20557222,-0.025928713,-0.23486763],[-0.06462612,-0.09227497,-0.14178167,-0.0615303,0.045698848,-0.15127964,-0.13688979,-0.126447,0.09431216,-0.08010279,0.10836436,-0.05315027,-0.07331709,0.0061907913,0.039041094,0.1669732,-0.1793596,0.14559509,0.0070872693,-0.00630923],[-0.12234918,-0.08098032,-0.09248561,-0.013458803,0.1466055,0.04787404,0.15127197,-0.028462645,0.10873653,-0.0049857544,0.05252036,-0.07969512,0.06606187,0.10325212,0.17697477,-0.042564686,-0.05656222,0.118282855,0.16784981,-0.009547208]]},{"biases":[-0.021383323,0.120081425,0.14124303,-0.15247744,0.05859937,0.052539624,-0.04953844,0.15643826,0.0646273,0.11885192],"values":[0.0,0.0,0.0,0.0,0.0,0.0,0.0,0.0,0.0,0.0],"inputWeights":[[0.25325784,-0.064181075,-0.015745735,0.12325088,0.011903461,-0.040262215,0.034851603,0.0029989684,0.11919592,-0.18717214],[-0.042354383,-0.0049741566,-0.23425293,-0.08766807,-0.033595327,-0.12371513,-0.026067058,0.0120233735,-0.12801677,0.030812941],[0.159702,-0.06771474,-0.082196325,-0.09284164,0.056833725,-0.06414923,0.04071892,-0.097507514,-0.0505715,0.011902835],[0.013843462,0.17379454,0.13826393,-0.019125255,0.04607563,0.06410278,-0.07087452,0.053552408,-0.13983999,0.109250315],[0.030875409,-0.1313162,-0.08602872,-0.0576212,-0.08354742,-0.122135304,0.01531094,0.0032981674,0.11991954,0.09781335],[0.07158896,0.007640748,-0.09716987,0.06464513,0.10307,0.09357593,-0.023440065,-0.1833141,-0.049931157,-0.0014250879],[0.07458885,-0.03692397,-0.046890907,0.05527552,-0.05412201,0.056411907,-0.10389089,0.02954691,-0.027919112,0.0852515],[0.10187826,0.013484259,-0.0647782,-0.07058666,0.21804233,0.06205652,-0.019622149,0.026381033,-0.053708,-0.16113266],[0.114878885,0.16049829,-0.086398005,0.057443347,-0.08897866,0.14018612,0.013911462,0.14795643,0.17177333,0.14156346],[-0.046076518,0.05228441,0.04036462,0.14372256,0.060627814,-0.007897685,0.13987005,-0.04800374,-0.19665852,-0.17414464]]},{"biases":[0.08308107],"values":[0.0],"inputWeights":[[-0.061912473,0.021809656,-0.06816757,0.16088805,-0.043247208,-0.027204439,-0.060453657,-0.05792202,0.062040884,-0.16460355],[-0.05523096,0.121092774,0.22211733,0.059403002,-0.035893284,-0.059254136,0.18883842,-0.12801325,0.17676571,-0.1830887],[-0.037275583,0.15730579,0.006282663,0.07040996,0.12217796,-0.020607356,0.01748278,-0.03446384,-0.058158163,-0.031000981],[-0.082339674,0.0049425024,0.06303404,0.19170044,-0.0023819327,-0.0508509,-0.17505658,-0.1277449,0.22545181,-0.1778004],[0.003664575,-0.19511189,0.04025197,0.07635582,-0.052394718,-0.30106467,0.072850056,-0.023652883,-0.22166847,-0.13535687],[0.04534525,0.027500382,-0.14399244,0.067586705,-0.10063575,-0.06173237,0.0059064925,0.16354915,0.24294773,0.103936784],[-0.10476959,-0.15229256,0.119691595,0.0018861499,-0.01709079,0.15205488,-0.06257451,-0.15889442,-0.23210798,-0.13330768],[0.03396131,-0.13885319,0.029483264,-0.07071764,-0.14343184,-0.118337415,0.15678346,0.0026876992,-0.07643669,0.094814986],[-0.23494552,0.18907343,-0.06964756,0.03310509,0.07365308,0.12209271,0.00518518,-0.14340697,0.0116285505,-0.1357881],[0.050276503,-0.10285688,0.08821335,0.09079491,0.09662935,-0.15846513,-0.13834497,-0.018250575,-0.07862835,-0.13634515]]}]}},{"fitness":0,"neuralnetwork":{"inputLayer":{"biases":[0.0,0.0,0.0,0.0,0.0,0.0,0.0,0.0,0.0,0.0,0.0,0.0,0.0,0.0,0.0,0.0,0.0,0.0,0.0,0.0],"values":[0.0,0.0,0.0,0.0,0.0,0.0,0.0,0.0,0.0,0.0,0.0,0.0,0.0,0.0,0.0,0.0,0.0,0.0,0.0,0.0]},"layers":[{"biases":[0.038765337,0.028403953,0.12069583,-0.04142073,0.07705739,-0.016381407,0.015515013,0.26176733,0.116038516,0.19167541],"values":[0.0,0.0,0.0,0.0,0.0,0.0,0.0,0.0,0.0,0.0],"inputWeights":[[0.093498215,0.083042756,-0.15375116,-0.13271,0.011990201,0.10844863,0.07972593,0.07791672,-0.14748561,0.08751195,-0.11739161,0.033704754,0.022142904,-0.062502466,-0.015458212,-0.03385805,-0.13458195,-0.0060629547,-0.036153626,-0.09226786],[0.03405975,-0.06577511,0.09346485,-0.14307088,0.106480874,-0.0020235213,-0.053478133,-0.008990336,-0.05901927,0.08774404,0.005014146,0.06124973,0.027987815,0.13592193,-0.06801777,0.065015145,0.10215591,0.13944001,-0.05891582,0.06265485],[-0.07883278,-0.131844,0.061785076,0.06400931,0.10071455,-0.035389356,-0.01884253,-0.12773651,0.104290575,0.08192379,0.023030814,0.06996927,0.04808932,-0.03542895,-0.03901438,-0.072783984,0.037134986,-0.10319605,0.0014051734,0.045143805],[0.03868933,0.10881948,0.0024204128,-0.025945494,-0.019158224,-0.06394213,-0.05302359,-0.22493292,-0.062077243,0.10197178,0.035711274,0.21865328,0.0376649,0.08309435,0.03579293,0.1614523,-0.12146054,-0.028355286,0.1054544,0.033543896],[0.009137405,0.21869949,0.013566078,0.16587774,-0.04418296,0.06408259,0.03967978,0.11057084,-0.060391042,-0.028998617,0.019450374,0.12962078,0.23161761,-0.16410798,0.0914083,-0.12681772,-0.23398031,0.03820512,0.014591708,-0.06867547],[0.057113923,0.019608553,-0.023275819,0.12972592,0.06344826,-0.0434289,-0.03169354,-0.1220423,0.072148494,-0.12604755,0.16236115,-0.12575388,-0.09273037,0.08536355,0.11245062,-0.057386223,-0.039997663,0.16961864,0.12207086,0.19760396],[0.28053585,-0.12743996,-0.07338406,0.043072365,0.1296732,0.047819424,-0.06094204,-0.09057352,0.05104518,0.14733602,-0.14714253,-0.11299786,0.031563245,0.03160869,-0.046173476,-0.04808029,-0.1142325,-0.060188238,-0.14050268,0.03947392],[0.086433485,0.14001282,0.14482677,-0.05745967,0.045611877,-0.14699969,-0.21101354,0.17603537,0.08703579,-0.04344718,-0.06646345,0.07091873,0.00866324,0.028777445,0.08139558,-0.18792272,-0.08202852,0.11262132,-0.075181484,-0.005756233],[0.023867507,-0.019026272,-0.015822694,-0.12206985,0.11022686,-0.0357646,0.14333105,-0.055891305,0.10190739,0.13857211,-0.07070192,0.24294724,-0.05708995,0.0031577782,0.0763737,0.121518984,-0.022990713,0.08151279,-0.013308875,0.17639802],[-0.13892151,0.04680467,0.063605085,0.0013305768,-0.108789034,-0.1325782,0.069622315,-0.022398122,-0.028848113,-0.1730672,-0.0014814346,0.029475754,-0.0058748797,-0.12923656,-0.21451792,-0.11601393,-0.0010915947,0.0754119,0.060198404,0.129278],[0.0983063,-0.022554528,-0.19746687,0.03088831,-0.09523572,-0.12435174,0.024795275,0.12327715,0.07140459,0.080842875,-0.10183087,0.05742411,-0.11162688,0.049912535,0.20520854,-0.060925376,-0.010442822,-0.053475004,-0.0246895,-0.21770546],[0.12675856,0.009470705,0.085398324,0.0067553017,0.13788965,-0.05952018,-0.24678104,0.053703003,-0.0066830646,-0.124344975,-0.08306222,-0.03407227,0.09344919,-0.18497576,0.036804166,0.03225828,-0.093391,0.040003438,-0.09080636,-0.09510014],[0.032812107,0.100039594,-0.11553141,-0.09634162,0.08058874,-0.104265556,0.12608057,-0.009763672,-0.12467213,-3.411945E-4,0.026341064,-0.019453654,-0.005828039,4.9799983E-4,0.06348597,0.0672378,-0.013730521,-0.0055680852,0.044438403,0.123565994],[-0.10769631,0.23136505,-0.0067771077,-0.007159891,-0.10262947,0.043526016,0.08695354,0.0033921418,-0.24438794,0.011887575,-0.030116549,-0.06156184,0.015749281,-0.06999636,-0.20813735,0.21803153,0.058450498,-0.13446662,-0.10314207,-0.036333855],[-0.013387084,0.19847718,0.09182677,-0.12589583,0.033300847,0.1603392,9.72774E-4,0.06666528,0.20763946,-0.022080297,0.0075117424,0.05929661,0.014593032,0.1338971,-0.21307315,-0.04550163,0.082642294,0.12852804,-0.081872895,0.19796674],[0.11994478,0.054984413,-0.040885173,-0.07217508,-0.0029776082,-0.056653537,-0.11499551,-0.027730107,0.060029153,0.14372714,0.18105295,-0.067757584,0.097376004,-0.06024244,0.021273006,0.1888401,0.061126776,0.0726333,0.030588916,-0.0995619],[2.1854416E-5,0.043372642,-0.1820207,-0.067882165,0.0059355963,0.11199053,0.10705451,-0.063539095,-0.05537583,0.10755628,0.05725578,-0.024682177,0.17791924,-0.12420027,0.045681685,-0.0044859992,0.04304267,-0.04698207,-0.11641817,0.22324663],[-0.005766961,-0.077003516,0.14359388,-0.03624499,0.08204082,0.09508302,-0.06378104,-0.0069851168,0.11394467,-0.035321612,0.07352618,0.0076009836,0.13189769,0.07523488,0.09159631,-0.036892943,-0.10843774,0.05089495,0.11187323,-0.014948721],[0.02527591,-0.20229039,-0.018360868,-0.0255477,0.048949674,0.08997039,-0.1400545,-0.019754728,0.067685395,-0.048752945,0.07715848,0.10107431,0.046001937,0.050532825,-0.014792235,0.22226036,0.0020777287,-0.15445326,0.053948253,0.095367305],[0.101609685,-0.19144101,-0.040807657,0.010475563,0.050097466,-0.124091685,-0.12956072,0.05496037,0.120589234,-0.04315438,-0.19357325,-0.06205183,0.09448592,-0.046435013,-0.14897525,-0.03874167,0.035267036,-0.026135953,-0.09492483,-0.109372176]]},{"biases":[-0.05584113,0.04379372,0.11060949,-0.04776325,-0.069109775,0.048606783,0.1007021,0.07902546,-0.11584896,-0.10450641],"values":[0.0,0.0,0.0,0.0,0.0,0.0,0.0,0.0,0.0,0.0],"inputWeights":[[-0.058145523,0.045329403,-0.002720496,0.02977834,-0.14130671,-0.15033214,-0.17354266,0.16303633,-0.061288197,-0.08383686],[-0.14895487,-0.0019645132,0.019095235,0.08401614,-0.013208964,-0.08217972,-0.04295525,-0.19604376,0.06714564,0.16314682],[-0.04362261,-0.04995347,0.076238886,0.10163658,-0.015056139,0.024943726,-0.08988721,-0.07567214,0.19058631,-0.007480609],[0.03152911,-0.11080355,0.06839547,-0.22356334,-0.024056802,0.12209101,-0.06781319,-0.004579041,0.038975596,-0.10307518],[0.017877864,-0.12798402,-0.11876095,0.09827444,0.071684316,0.07455537,0.0679672,0.12080783,0.08973341,0.083173655],[-0.011308818,-0.055287775,-0.19142304,0.061596017,0.05220204,0.045307014,0.16011663,-0.030371424,0.020396406,-0.09053499],[-0.14240593,0.0103244735,0.16128877,0.047333125,-0.007613519,0.17352991,0.01100164,0.07153563,-0.07425313,0.15570639],[-0.082222186,-0.038472068,0.019698557,0.031666927,-0.22404,0.02502303,0.12144258,-0.011948564,-0.15491751,0.13997422],[-0.016053855,-0.2246096,0.0148441065,-0.1126453,-0.06104023,-0.020980036,0.007386557,0.16607754,0.03808396,-0.10004202],[-0.046275105,-0.115347736,-0.08551788,-0.041639287,0.024597561,-0.011015455,-0.025392076,-0.08293138,-0.03806447,0.06077433]]},{"biases":[0.031061703],"values":[0.0],"inputWeights":[[-0.243005,0.030585581,0.05275896,-0.12985915,0.13202834,-0.0062659923,-0.011042014,0.17637482,-0.13967067,0.046668638],[0.07065702,-0.10619042,0.11539632,0.15382004,0.04576095,-0.083309665,-0.03742023,-0.0020474545,0.10696782,-0.0020155762],[-0.010503729,-0.1982993,-0.050823078,0.09146366,0.01027734,-0.031315982,0.043976072,-0.1455106,-0.056622844,-0.027608566],[0.015686208,-0.0011260513,0.016479312,-0.1961275,-0.0820511,2.2469823E-4,0.13340566,0.1511841,0.1278989,-0.02652788],[-0.01318921,0.12786981,-0.14909796,0.018581375,-0.06304803,-0.007189301,-0.1535969,-0.0092594875,0.0037669365,-0.14205812],[0.065419115,-0.10086249,-0.0974448,0.13226703,-0.007919089,-0.108716354,0.00879868,-0.016406653,-0.28098136,-0.054599807],[0.025644725,-0.025367053,0.01790669,0.18596311,0.026373692,0.13209918,-0.13490601,0.043042086,0.08729553,-0.0038809234],[0.082521886,-0.17036316,0.10643823,-0.08447352,-0.018041043,-0.059992503,0.076059066,-0.1176637,-0.1312646,-0.010107167],[0.032839857,-0.0063159564,-0.09332155,0.22197983,-0.14339063,0.058789928,0.01344324,-0.14020227,-0.08563632,-0.3075885],[0.060341183,0.03448934,0.008886927,0.050637588,0.06267515,-0.1932783,0.0307955,0.08558788,0.07340724,-0.12771992]]}]}},{"fitness":0,"neuralnetwork":{"inputLayer":{"biases":[0.0,0.0,0.0,0.0,0.0,0.0,0.0,0.0,0.0,0.0,0.0,0.0,0.0,0.0,0.0,0.0,0.0,0.0,0.0,0.0],"values":[0.0,0.0,0.0,0.0,0.0,0.0,0.0,0.0,0.0,0.0,0.0,0.0,0.0,0.0,0.0,0.0,0.0,0.0,0.0,0.0]},"layers":[{"biases":[-0.08100351,0.013832293,-0.104911804,-0.13081728,0.00174873,-0.13402751,0.045794982,-0.114055075,-0.040809434,-0.26974502],"values":[0.0,0.0,0.0,0.0,0.0,0.0,0.0,0.0,0.0,0.0],"inputWeights":[[0.10199416,0.022169359,-0.04204696,-0.02869788,-0.11347815,-0.23001207,0.16073498,-0.067050815,0.13809466,-0.017916825,-0.07989065,-0.03261847,-0.23933336,-0.07367066,0.029976944,-0.12430521,-0.08175408,-0.13381006,0.284387,0.08470252],[0.117173344,0.036412686,-0.005236039,0.10496065,0.066393465,0.011277936,0.085654914,-0.04170696,0.0058438866,-0.008901605,-0.07785085,0.063503966,0.13530841,0.07270858,-0.05204026,-0.11004199,-0.07653263,-0.0018515275,0.012928373,-0.096019655],[0.05901454,0.013201622,0.007977127,-0.06915762,0.0070944782,-0.015302757,-0.28873378,-0.0071562524,-0.08764259,-0.1890125,0.07007956,-0.031505827,0.026613576,0.065422,0.03061405,0.039547022,-0.1187677,0.041438762,0.004986553,-0.058901567],[0.11391667,-0.06995605,-0.1929624,0.036215283,-0.0724021,0.1544795,-0.091357,0.04419542,0.018908482,0.13923779,0.005478434,0.141092,0.05244505,0.11309858,-0.12221367,-0.08226413,-0.053524695,0.028008357,-0.18664461,-0.013848124],[-0.026143856,0.11742486,0.10288205,-0.062256195,0.04939979,-0.060505915,-0.16985491,0.03401649,-0.05322108,0.039580405,-0.06419541,0.022340128,0.10230012,0.20944828,-0.020414162,0.02496559,0.025952004,-0.1302556,-0.06439913,0.0045488123],[0.056485407,0.10870529,-0.1100583,-0.007267916,0.15943266,-0.12575696,-0.25056997,0.00306284,0.07629783,0.051263846,0.085085526,-0.073588684,-0.02842653,0.04493903,0.021415282,-0.10087175,-0.032986246,0.07863113,-0.13915569,-0.07950553],[0.028197868,-0.061508488,0.015465717,0.15759982,-0.020169072,0.1266533,0.08298907,-0.025057703,0.0147931995,-0.1307957,-0.0077007157,-0.08910408,0.026307238,-0.053484295,-0.1073357,-0.038126502,-0.06633616,0.1554521,0.017646238,-0.051579755],[0.151604,-0.02535904,-0.13765378,-0.022289913,-0.029360373,-0.023200052,0.049672775,0.13135032,-0.10214783,0.13135897,-0.24356434,-0.011513984,-0.12217873,0.095578656,-0.100178644,-0.056878548,-0.14018911,-0.007998382,-0.028901815,-0.0057499898],[0.04272061,-0.119545676,-0.0052637155,-0.04587731,-0.051848114,0.053107284,-0.12300909,-0.093309365,-0.01843197,-0.06777518,-0.07865687,-0.108462766,-0.09086129,0.06734798,-0.02399242,0.21627048,-0.034461472,0.005640125,-0.08248062,-0.035941564],[0.033224802,-0.06170228,0.118059605,0.028544039,-3.72445E-4,-0.04978882,0.31968015,0.116898306,-0.025780624,-0.07998284,0.011860423,-0.042440087,0.035394,0.068975516,-0.029587213,-0.022163745,-0.07448197,0.03978433,-0.013566978,0.08150599],[-0.028609885,0.05968659,-0.15498951,-0.10503478,0.0448171,-0.1052004,-0.16279517,-0.09745842,0.16669318,0.07094819,0.047854472,-0.027035546,-0.13336717,0.104092516,-0.03203103,0.044044916,-0.10311049,0.014532132,0.005225036,0.07216524],[-0.0029091232,-0.07592844,-0.01562704,0.09929534,-0.0025413781,0.099028565,0.024292333,-0.06030513,-0.054419804,0.06834618,0.021224093,0.18060052,-0.020386428,0.038126566,-0.05495861,0.061161425,0.0072121145,0.051660318,0.12114496,-0.015281946],[0.028339138,-0.11822272,0.014441672,0.071185485,0.006010184,-0.12794803,0.18900476,0.07189495,-0.0043541123,-0.098343976,-0.14385833,0.0010169558,-0.028150408,0.030225696,-0.04276499,-0.15396938,-7.7302917E-4,0.11573366,-0.1262861,-0.17706412],[0.06315469,-0.06699267,0.16900235,0.18485151,-0.11212007,0.06695866,-0.05182302,-0.16020782,-0.1324392,-0.046444684,-0.06273015,0.11084851,0.05299818,0.036243312,-0.14300105,-0.12885135,-0.0122768255,-0.07551642,-0.1060793,0.03641645],[0.14820075,0.0015307901,-0.070797384,0.14023834,-0.06975826,0.041766968,2.582834E-4,0.07608829,0.19030377,0.06221148,-0.16639945,-0.058463424,-0.06219805,0.0019015312,-0.021285862,0.11240707,0.13728398,0.0041742125,-0.045380592,0.1363873],[0.025744801,0.049771193,-0.041580174,0.10486311,-0.10239489,-0.06437678,-0.11538588,0.07271549,-0.05073853,-0.17284018,0.075518295,-0.03433566,0.08027341,0.05712799,-0.108638816,0.02552509,0.10556978,-0.095292315,-0.024819432,0.07370152],[-0.14886,0.0126256095,0.018231248,-0.064479016,0.0058637634,-0.08410479,-0.10793373,-0.018917391,0.07863279,0.17927992,0.09410218,0.11774506,-0.07957109,-0.039915938,-0.092391565,-0.07203476,-0.069941595,0.09984852,-0.12766437,-0.09623009],[0.05096025,-0.04765969,0.06337439,-0.09146203,0.08622524,-0.15524124,-0.07152505,-0.033276018,-0.04955335,0.17920013,0.036715962,0.13970213,0.08234599,-0.11058755,0.07270896,0.026972173,-0.03872767,0.08403084,-0.06603472,-0.026765587],[-0.027882794,-0.06451887,0.08768605,-0.2883597,0.057711855,0.05610265,-0.054083277,0.07522995,0.03842588,-0.014831605,0.007929421,0.012689474,-0.09319343,0.17219816,-0.06432516,-0.115228936,0.0935362,-0.12506714,-0.020033877,-0.0014254681],[-0.114123255,0.022710588,0.11068781,0.038265597,0.034681395,-0.090103656,0.05791714,0.09262671,-0.09352733,-0.20190033,0.06525658,0.03640606,0.10236902,0.020764222,-0.048656456,-0.15049313,-0.051480245,-0.016171196,0.005124481,-0.14350635]]},{"biases":[0.08275596,-0.0030611292,-0.014038843,-0.06748953,-0.12017289,0.06217896,-0.034972582,-0.012777535,0.029324265,0.018534338],"values":[0.0,0.0,0.0,0.0,0.0,0.0,0.0,0.0,0.0,0.0],"inputWeights":[[0.027096711,0.16351604,0.0729752,-0.034228105,-0.07522846,0.15295704,0.11397289,-0.15453745,-0.01159716,0.14948389],[-0.02333694,0.012233888,0.01508383,0.009670544,-0.017944895,0.022896253,-0.06599314,-0.021053124,-0.019395558,-0.013653447],[0.11612087,0.099082224,-0.11236027,-0.124206066,-0.02030148,-0.0050222324,0.059805773,0.10752628,-0.17156984,-0.032120854],[0.009138197,-0.088332385,-0.106245585,0.101322,-0.10811611,-0.08407145,-0.061173137,0.08586816,-0.14273651,0.030694699],[0.082054906,0.029102366,-0.10768578,-0.07459048,-0.03950452,-0.01517093,0.09224125,0.043007586,-0.10508119,0.037013378],[0.070784755,0.07594795,0.0029305913,0.12280085,-0.19429585,0.023632014,-0.008015634,-0.19671959,-0.044150233,0.101420514],[0.06762964,-0.024396079,-0.19238526,0.08697714,0.1297088,-0.03863989,-0.005696189,-0.10736539,0.09104772,0.14777867],[-0.02575388,-0.01795239,-0.03552353,-0.053806122,-0.16676645,-0.033347633,-0.02401872,0.19665681,-0.098627806,-0.26663634],[-0.08237476,0.0093821185,-0.17563212,-0.11567784,0.2005812,0.024195544,0.024896922,-0.14312042,0.012594768,0.1602052],[0.12630405,-0.09207598,0.15996884,0.23368362,-0.09329741,-0.07582745,0.13932924,-0.09008553,-0.15682802,0.008607666]]},{"biases":[-0.042434476],"values":[0.0],"inputWeights":[[0.10704844,0.0129230125,-0.012824586,0.04964172,-0.060735635,0.027952924,0.10322163,-0.122882806,0.10619928,-0.03859806],[0.022503832,-0.067602344,-0.09361808,-0.040175285,0.21423407,-0.04747938,0.17836626,-0.06288585,-0.08857768,-0.027185867],[-0.108533286,0.072095014,0.12691203,0.15007631,-0.11049371,-0.16927886,0.0641741,0.04597143,0.17394781,0.11757413],[0.1615512,-0.01179067,-0.16284999,0.057094205,0.2985086,-0.05112174,0.015317235,0.1309653,0.0116181085,-0.005635742],[-0.030907854,-0.09787451,-0.08390981,0.16801706,0.020221004,0.038266387,0.15855807,0.04589549,-0.07144166,-0.10727943],[0.15094307,0.05794661,0.022026788,-0.02776149,0.045826897,-0.095533505,-0.05924176,-0.13569207,-0.10183354,0.034942843],[0.08056588,-0.016267456,-0.1996996,-0.12623818,-0.10432449,0.069421224,-0.09226388,0.07139664,0.0034008466,0.14676295],[-0.03126799,-0.042215563,0.14293931,0.082768045,-0.15000857,0.09648214,0.06053212,-0.050331324,-0.1520137,0.17609555],[-0.20636036,-0.020309316,0.05650984,-0.11957577,-0.018273858,-0.15533453,-0.067613944,0.018540688,0.08821955,0.0074807974],[0.05793453,-0.07496157,-0.09329798,0.10588929,-0.077373646,0.10853113,0.1118022,0.037676256,-0.054605708,0.1045613]]}]}},{"fitness":0,"neuralnetwork":{"inputLayer":{"biases":[0.0,0.0,0.0,0.0,0.0,0.0,0.0,0.0,0.0,0.0,0.0,0.0,0.0,0.0,0.0,0.0,0.0,0.0,0.0,0.0],"values":[0.0,0.0,0.0,0.0,0.0,0.0,0.0,0.0,0.0,0.0,0.0,0.0,0.0,0.0,0.0,0.0,0.0,0.0,0.0,0.0]},"layers":[{"biases":[0.002139941,0.3493857,0.009075849,0.14662795,-0.18439128,-0.016293606,-0.02987412,0.003623786,0.11151814,0.10968922],"values":[0.0,0.0,0.0,0.0,0.0,0.0,0.0,0.0,0.0,0.0],"inputWeights":[[0.07650592,0.013260333,0.013923387,-0.0473246,-0.05013982,-0.07432405,0.14596866,-0.0168773,-0.049347475,0.18566829,0.17057918,-0.02386754,-0.07353994,0.023852294,0.19921902,0.13520241,-0.029939417,0.13331144,-0.06201021,0.07004681],[-0.02706697,0.027230265,-0.011505695,-0.18137288,0.055583842,0.068931684,-0.049166124,-0.12645493,0.011785534,-0.029269684,0.10963473,0.050152723,-0.06308213,0.06440822,0.20191675,0.13577627,0.17840539,-0.020430427,0.023553366,-0.027378581],[0.17173935,0.0941678,-0.19894525,-0.15784773,-0.010560485,0.083935104,-0.08920683,-0.11628222,-0.011613732,0.0281713,0.096589744,0.0063181096,-0.03796919,-0.17966,-0.09512114,-0.31786448,0.020905882,-0.028453302,0.057164893,-0.24199092],[0.07344333,-0.077196956,-0.04665134,0.039266262,0.08051845,0.045153596,-0.12145779,-0.026924832,-0.0050777695,-0.014779494,-0.16957708,0.058732048,-0.15532921,0.11908058,0.14184602,-0.030646585,0.15452658,0.0064707915,0.0011191361,-0.12522382],[0.060677595,-0.003018576,0.10869175,0.040683765,-0.16545205,-0.10331499,0.023407856,0.001843066,-0.14236099,0.16792187,-0.10119058,0.002880714,0.11145643,-0.049719255,0.09014549,-0.087739155,-0.014628075,-0.00981141,-0.10161211,0.13002376],[-0.10640498,-0.05251733,0.0824933,-0.056327857,0.15098101,0.06927708,-0.011351398,-0.02309095,0.091953956,0.049896333,0.058148477,-0.06434468,-0.0937263,-0.12830582,0.06492507,-0.06568827,0.078716606,-0.100987904,0.035439424,0.08013578],[0.10152988,-0.17724995,-0.03419022,-0.058675826,0.104040466,0.008137149,0.10844271,0.057600614,-0.005189196,-0.015115249,0.09457295,-0.061396204,-0.06062261,0.0019160256,-0.033311177,-0.056083493,0.051904455,-0.1305394,0.04699419,-0.0017166982],[-0.07419196,0.060131155,-0.16328683,0.12819381,0.118265666,-0.1463777,-0.17907228,0.027713913,-0.1924524,-0.1359405,0.05174286,-0.22345348,-0.0070284414,-0.06716238,-0.028636592,0.114533536,-0.0835217,0.10249248,0.04071584,0.065941915],[-0.036237642,0.21676667,0.075297214,-0.07982108,-0.06849409,-0.1608945,-0.087413415,0.097759925,-0.064586975,0.055228133,0.07914372,0.06325644,-0.12189753,0.08751909,-0.014980768,-0.013074003,0.052610554,0.021644846,0.09647243,0.1331084],[-0.10709697,0.06774842,0.076156184,-0.105912924,-0.14807849,0.13132983,-0.021305911,0.060654696,0.060838144,-0.08320732,-0.13379231,0.1682453,-0.0075202985,0.01731145,0.07421824,0.11444167,-0.0288084,-0.056094345,-0.15281093,0.035661034],[0.05946226,-0.0031107243,-0.009971379,0.020307448,0.013040535,0.09107342,-0.169,-0.1872962,0.04982748,-0.03714781,-0.115655996,0.2942033,-0.08606754,-0.06663771,-0.075701565,0.10333336,-0.048773997,-0.062389214,0.0042801057,-0.20956028],[-0.12948917,-0.014537522,-0.005818423,-0.12440283,0.0055398284,0.014648889,-0.04282907,0.030931307,0.023986015,-0.1708388,-0.032352485,0.060153995,-0.11707185,-0.13053694,-0.10445318,-0.10881626,-0.056074906,-0.08363806,0.065590724,0.16970834],[6.675871E-4,0.059489567,0.07803894,-0.28722185,-0.0015017103,0.18459067,0.08374412,-0.08835008,0.04078412,-0.003086114,0.034010716,0.029273704,-0.047937002,0.04757362,0.038137097,-0.07467395,-0.13113402,-0.097748704,-0.10762184,0.11667379],[-0.07390549,-0.12717293,0.03691995,0.028217977,-0.007197416,0.008347005,0.0626618,-0.01858795,0.02193458,0.022342438,0.051615357,-0.039862685,0.08860838,-0.014062415,0.06699193,0.007822824,-0.14354186,-0.12624824,0.13243553,0.12675078],[-0.1502435,-0.14709821,0.096626505,0.019702425,0.044677127,-0.045966133,-0.20333652,0.049356587,-0.035040624,-0.04545835,0.06113424,0.024125153,-0.03853309,0.30271992,-0.14469002,0.09766879,0.01954614,0.087232046,0.06474389,-0.019471932],[0.08377282,-0.084689,0.019393444,-0.063601665,0.063434035,-0.06762177,-0.18576698,-0.008582183,0.09426127,-0.012034649,0.1753627,0.08357384,0.12230374,-0.05705725,-0.021075226,0.071654476,0.010061502,0.044757143,0.025860844,-0.13787095],[0.022604927,0.2876386,-0.008305781,0.07170894,-0.057113383,0.11239153,-0.043998715,0.011038021,-0.060779095,-0.05527269,0.20017904,0.07812148,0.055409618,-0.036632698,-0.020575058,0.1097736,0.14233994,0.11288782,0.006979949,0.046240218],[0.072363384,0.061446898,-0.04421831,0.010034552,0.057487052,-0.08138392,0.04825226,-0.046514772,0.19131182,-0.06961618,0.15636083,-0.034303065,-0.06348134,0.03842192,-0.06338267,-0.093094274,0.03277282,0.10962137,-0.035711177,-0.007543438],[-0.0687532,0.04766693,-0.11255521,-0.13137886,0.052964047,-0.10161825,-0.143077,-0.04225966,0.068814345,-0.025545618,0.08929054,-0.005728699,-0.0058635906,0.1689628,0.08974442,-0.05352027,0.024730999,-0.10751414,0.029166788,-0.0036286856],[-0.123833984,0.18274935,-0.07962169,-0.0035281272,-0.07118517,0.04251932,0.20450282,-0.071300246,0.019576324,-0.073833965,-0.031372935,-0.2179874,0.016539281,0.03735722,0.12235295,0.24688187,0.083015524,-0.035116725,0.23913479,-0.021671547]]},{"biases":[-0.13136925,-0.06201854,-0.13812019,-0.027511068,-0.0845674,0.042586736,-0.028554628,0.14546397,0.022029081,-0.08319059],"values":[0.0,0.0,0.0,0.0,0.0,0.0,0.0,0.0,0.0,0.0],"inputWeights":[[-0.07068606,-0.08223265,-0.06576218,0.02509751,0.2182617,0.08755285,0.079293855,-0.03695425,0.09292003,0.046043187],[-0.02046236,0.11215255,-0.023638628,0.036281813,-0.10742734,-0.17389873,-0.0137906475,-0.07349865,0.10083782,-0.07632046],[-0.13550732,0.089268886,-0.04096899,-0.01752101,0.021146582,-0.038121406,-0.07800169,-0.04709479,-0.22225182,0.049790904],[-0.1499914,0.07431579,-0.032487392,-0.11599892,0.03182172,-0.19772159,-0.06417314,-0.032439735,-0.16187696,0.035646986],[0.1609836,8.564815E-4,-0.08033799,0.009323773,-0.23495792,-0.013565183,-0.090693876,-0.09305966,-0.14192708,-0.025811926],[0.04621365,-0.16876408,0.09270651,0.10677253,0.055993896,0.25394747,-0.079991534,-0.07460008,-0.061264385,0.0017031725],[0.077150896,0.009932313,0.1353036,-0.08474179,-0.079776615,0.083936945,0.07402577,-0.07800834,-0.015595077,-3.183698E-4],[-0.045696523,-0.108306274,0.11504597,0.0012852736,0.045685526,0.00925316,-0.18095452,0.002111935,0.071991086,0.25518566],[-0.13765958,-1.05543186E-4,-0.0348668,0.14091456,-0.034861982,-0.09536461,0.05515809,-0.06518198,-0.012298243,0.2721024],[-0.21102104,-0.12388681,-0.019566622,-0.022044847,0.02201531,0.008514768,0.13116819,-0.0015888943,0.15019496,-0.07398849]]},{"biases":[0.08361884],"values":[0.0],"inputWeights":[[-0.062554665,0.01774293,-0.061370775,0.035687737,0.025321951,0.0076893694,0.061748922,0.055989094,-0.024370002,-0.06997172],[-0.025057172,-0.012214764,-0.07452667,0.13036513,-0.003695599,0.03413712,0.21329424,-0.092623435,-0.03179191,0.048635747],[0.056754924,0.08402392,0.012091424,-0.26261568,-0.018185675,-0.0019206904,0.09029456,0.0071011255,-0.023094712,0.037553094],[-0.12779427,-0.014175134,0.10795277,0.12998645,-0.09584399,-0.021560965,-0.091641136,-0.034185324,-0.009997682,-0.06615564],[0.133483,0.13713498,-0.017324748,0.11254371,-0.04867045,-0.126656,0.049568698,-0.111804895,-0.0050219535,-0.09908131],[0.045015685,-0.0825898,0.05392645,-0.019926146,-0.23571698,0.017982392,0.10775907,-0.10836412,0.031983856,-0.11385242],[-0.17454569,0.05186941,0.07304599,0.16114022,0.17965306,0.028231347,0.015414688,0.023256296,-0.13263948,-0.07661764],[0.1954241,0.15115732,0.018376894,-0.12682039,0.0058514317,-0.2000742,0.1660204,0.17730592,0.019392729,0.024784274],[-0.008038123,-0.14749688,-0.0075629894,0.06192123,0.1057106,0.055138364,0.043738425,-0.051839266,0.03625784,-0.055416696],[0.114267536,0.03170913,0.09413391,-0.024291221,0.08611745,0.044446137,-0.0023680152,0.11022793,0.042648762,-0.04528717]]}]}},{"fitness":0,"neuralnetwork":{"inputLayer":{"biases":[0.0,0.0,0.0,0.0,0.0,0.0,0.0,0.0,0.0,0.0,0.0,0.0,0.0,0.0,0.0,0.0,0.0,0.0,0.0,0.0],"values":[0.0,0.0,0.0,0.0,0.0,0.0,0.0,0.0,0.0,0.0,0.0,0.0,0.0,0.0,0.0,0.0,0.0,0.0,0.0,0.0]},"layers":[{"biases":[0.018393368,-0.03598524,0.32412714,-0.037484705,-0.03685841,-0.015331758,0.024496172,0.22865845,-0.16976677,-0.06086397],"values":[0.0,0.0,0.0,0.0,0.0,0.0,0.0,0.0,0.0,0.0],"inputWeights":[[0.037148934,0.16227613,-0.067139804,0.20143685,0.057899926,-0.12019832,0.05554245,0.050473545,-0.036672756,-1.8831404E-4,-0.0020904148,0.10750941,0.1418212,0.04571776,0.057809446,0.050637413,-0.1286872,-0.082922466,0.018114278,0.032599013],[-0.059182834,-0.040390834,0.18531741,0.0068411604,-0.068876974,0.064125456,0.09333659,0.061935186,0.11328788,0.093818285,-0.023029532,0.18119967,-0.009708456,-0.011502245,0.021089954,-0.10631789,0.024263524,-0.06289415,-0.058669284,0.012025856],[-0.040767435,0.06971849,-0.013274925,-0.029573051,-0.16308658,0.13350274,-0.11286309,0.16223776,0.1259465,0.13310605,-0.13955246,0.15308248,-0.09517868,-0.039164472,-0.1869971,0.062754825,0.09417922,-0.03948803,0.04994439,0.037317578],[0.14073846,-0.21087033,0.09143287,-0.03968446,-0.07341638,-0.03518662,0.18863723,-0.14103284,-0.008729147,0.089018956,-0.015885698,-0.13198848,-0.060010917,0.04854104,-0.21148239,6.3925516E-4,-0.0142249875,0.033030633,0.10576157,0.040565763],[-0.16789271,-0.024628421,0.05337719,-0.008005037,-0.17229795,-0.17601609,-0.006885349,-0.024159735,-0.17983934,0.07806035,-0.089490615,-0.025202101,-0.032220498,0.10963056,-0.0010922006,0.2198405,0.084322736,0.023859914,0.1307972,-0.014698948],[0.077579126,0.17236796,-0.05300756,0.15165797,-0.07887309,0.031857867,0.011259097,0.037621472,-0.067409314,0.08129609,-0.08045061,0.0586764,-0.020447826,-0.12109074,-0.08757354,0.067980014,0.024532817,0.0064638657,0.058635302,0.030830937],[-0.12366957,0.2578773,0.1786955,-0.008369621,-0.0030885844,-0.083182566,0.055391487,-0.02466804,0.05763948,0.13278632,0.040332917,-0.089618705,-0.029032424,-0.03404429,-0.13849816,-0.045752324,0.0781406,-0.051422317,-0.016486406,-0.10053432],[-0.0950077,-0.118819386,-0.10478797,0.13925101,0.1678017,0.0014973592,4.7367215E-4,0.08966651,-0.015166299,0.019014241,-0.007867715,0.0662184,-0.045368128,-0.21193136,-0.10092744,0.1478848,-0.03465545,-0.06587249,0.102186695,-0.00801532],[0.01116132,0.11877795,0.03642667,-0.066282794,-0.08654454,0.066102475,0.022626305,0.0065369564,-0.0077372654,0.119559936,0.047172017,-0.06318178,-0.06457791,-0.026597936,-0.11463647,-0.03625156,-0.086394005,0.0958942,-0.055892177,-0.013733081],[0.010770984,-0.024724783,0.12488393,-0.0468069,0.12927768,-0.14147727,-0.24070652,0.14541683,0.052366134,0.10584698,0.09719885,0.11818019,-0.11258613,-2.3397029E-4,-0.058295738,-0.052512307,-0.082667135,-0.03138907,-0.092047,0.089075364],[-0.06172121,0.05008329,-0.1963237,0.016890498,-0.08736101,0.050088454,-0.050219435,-0.10230149,-0.16307758,0.16078359,-0.055718366,0.16072579,-0.028108438,-0.027703036,-0.028333988,0.046403248,0.018828735,-0.027879747,0.07793987,-0.1905084],[0.09443279,-0.12344883,0.052141048,0.026768662,-0.098535165,-0.024976214,0.09289901,0.011602263,2.0704145E-4,-0.07807568,-0.1644848,0.07581254,0.04094055,-0.01406785,0.18105604,0.012408679,-0.09154901,-0.22863802,-0.087949164,0.098387286],[0.025304256,-0.02698911,0.20362566,0.05756654,-0.12948969,0.06658498,0.016372763,0.037743215,-0.016428411,-0.08925647,0.04506992,-0.0018463278,-0.19669122,0.021298157,-0.05853173,0.020070031,-0.01249813,0.13127843,0.04506164,-0.076560676],[0.039839618,0.02632457,-0.25557548,-0.06039818,-0.01594211,-0.07152343,-0.13114429,-0.23725903,-0.037600085,0.12992568,0.07294589,-0.019586135,-0.015494985,-0.047708713,-0.011744314,0.18723693,-0.047135293,0.18993655,0.1634077,0.03819056],[0.025704635,0.027119596,-0.099071875,-0.13961849,0.029982064,0.027900167,-0.04697205,-0.07098994,0.01776981,0.008170176,-0.068545654,-0.042358227,-0.05689038,-0.15664208,0.05664956,-0.12284509,-0.011112622,0.046174925,-0.0065318327,-0.0705837],[-0.19955999,-0.005009434,0.13623826,-0.034262873,-0.021216644,0.03258568,-0.21334451,-0.12954493,0.044197258,-0.1461812,-8.5275725E-4,0.08354462,0.06504671,-0.048486326,-0.066367835,-0.101102956,0.13295792,0.23129871,0.07989622,0.03857817],[0.15740249,-0.05825476,0.071955584,0.026444094,-0.049646106,0.02481938,0.20492105,0.085912704,0.14371145,-0.07063159,-0.014818758,0.020339934,-0.040059816,-0.00124499,-0.021617599,0.16566923,0.07008707,-0.036793727,0.0073988936,0.080962986],[0.14770548,-0.067129605,0.016358132,-0.114533044,-0.0010829392,0.15384941,-0.05492241,-0.19595377,-0.14808917,0.21518545,-0.13698119,-0.054150525,0.024845216,-0.039681394,-0.13924699,0.0028654372,-0.07352842,0.109971955,0.26855862,0.02920201],[-0.10522349,0.07093481,-0.0564945,-0.10237623,-0.16989361,0.0810713,-0.06011577,-0.021662012,0.19768377,-0.042321343,-2.3149177E-4,0.075413644,-0.08762348,0.06591491,-0.016253324,0.012443638,0.03484262,-0.08572303,-0.06377293,0.110983245],[0.009095804,-0.07940406,0.17474282,0.1993816,-0.08932912,-0.08045413,-0.008084645,0.098067775,-0.1816741,0.10757569,0.14270881,0.013697363,-0.05335356,0.10467947,-0.09862663,-0.113494016,0.027928095,-0.0061180145,0.15178648,0.018740498]]},{"biases":[0.011247676,-0.12250052,-0.030232148,0.022141006,-0.092799164,0.027050411,0.017154284,-0.117592156,0.060436353,0.05603431],"values":[0.0,0.0,0.0,0.0,0.0,0.0,0.0,0.0,0.0,0.0],"inputWeights":[[-0.020724028,0.11727012,0.06893317,-0.0019983428,0.09460422,0.056742184,-0.21844137,0.0076593906,-0.017547566,-0.0800451],[-0.057670176,0.09094364,0.019175014,0.029680178,0.15287413,0.019365476,-0.076165915,0.042237822,-0.08115412,-0.048160456],[-0.08602392,-0.061138663,-0.005256175,-0.10451209,-0.0038449198,0.01986407,-0.12498569,-4.132496E-4,0.00562782,-0.013740873],[-0.10519173,-0.092131585,-0.025019528,-0.056265526,0.010923746,0.051014896,-0.13097453,0.11511425,-0.006063159,-0.1268924],[-0.02633848,0.09174867,-0.14968069,0.0042851954,0.061226487,0.07614446,0.06268055,-0.154535,0.098365545,0.28611365],[-0.050772008,0.1158504,0.2194556,-0.018237589,-0.120542005,0.08136636,0.087050065,-0.0069129905,0.016382134,0.010160115],[-0.025213175,0.10504035,-0.24397647,-0.10542229,0.07841449,-0.101102605,0.06284983,0.042090565,-0.013061687,0.086499654],[0.03331883,0.028578259,-0.050532978,-0.08309251,0.027161129,0.01595233,0.10362081,9.304189E-4,-0.10723186,-0.036715664],[-0.15419927,-0.18720871,-0.058324955,0.06716072,-0.03897619,-0.032072853,0.015707161,-0.124862894,-0.07124036,-0.07189071],[0.118939795,-0.0743108,0.17150448,0.03373613,0.023311628,0.07268908,0.07544571,-0.23130196,0.10919505,0.012349762]]},{"biases":[0.1298381],"values":[0.0],"inputWeights":[[-0.07933411,-0.038342223,0.1126495,0.0015240168,0.018343432,0.12432182,-0.0313939,0.09796241,0.15624487,-0.016036155],[-0.0037288037,0.004012749,0.0063198265,0.062245596,0.039814323,-0.0714755,0.057933267,-0.09880205,0.0027417028,-0.054388966],[-0.042708483,0.26080632,0.1166745,-0.0017463514,-0.007935131,-0.004414738,-0.0074258787,0.017471414,0.081648834,0.10893188],[-0.1053451,0.12601428,0.15472186,-0.17682545,0.05698058,-0.09632059,0.076294005,-0.087384924,-0.019777881,-0.06655763],[0.015787054,0.03794682,-0.13720357,-0.023817288,-0.0319965,-0.04719975,0.14798263,0.22032063,-0.014708175,0.1461738],[-0.012610387,0.0013596364,-0.038536686,-0.19797176,0.23573959,-0.025705533,0.08039854,0.042806618,0.07948842,-0.0047688354],[0.15707813,0.07387527,-0.22689272,-0.24454935,0.09667509,-0.012352501,-0.100673966,0.15710664,0.06284155,-0.07944959],[-0.0065148943,0.10614393,-0.08672999,-0.05668032,0.16524856,-0.14147216,-0.08396967,0.050999694,0.019660411,0.074675076],[-0.07455833,-0.010370744,0.012489396,-0.051903516,-0.03989517,0.2094003,-0.21713866,-0.08963806,0.015114333,-0.2580829],[-0.061253812,-0.22608833,0.030928275,-0.020584526,0.060382817,-0.07377917,0.054204144,0.048578274,-0.119028464,-0.009266098]]}]}},{"fitness":0,"neuralnetwork":{"inputLayer":{"biases":[0.0,0.0,0.0,0.0,0.0,0.0,0.0,0.0,0.0,0.0,0.0,0.0,0.0,0.0,0.0,0.0,0.0,0.0,0.0,0.0],"values":[0.0,0.0,0.0,0.0,0.0,0.0,0.0,0.0,0.0,0.0,0.0,0.0,0.0,0.0,0.0,0.0,0.0,0.0,0.0,0.0]},"layers":[{"biases":[0.06540806,-0.051350303,0.11929726,-0.021714425,-0.12140579,-0.11764727,0.084221564,0.0621517,0.1454201,-0.05231924],"values":[0.0,0.0,0.0,0.0,0.0,0.0,0.0,0.0,0.0,0.0],"inputWeights":[[-0.15749845,-0.11033566,-0.1774521,0.079657495,-0.09584536,-0.10616276,-0.08247463,0.1740411,0.0851656,0.084667355,-0.10360769,-0.15036604,-0.011373287,0.1291937,0.04311819,0.0074827946,-0.0067401747,-0.07238137,0.06297392,-0.016631586],[-0.06950294,-0.04932427,-0.17424496,-0.060754027,0.12604319,0.09326557,0.0030467133,0.14714332,-0.18568781,0.038994536,0.06572635,0.08398703,-0.11973885,-0.081885785,-0.047011532,-0.2501573,-0.012300157,-0.07503353,-0.15509379,0.0150956],[-0.08804649,-0.07568584,0.085988306,-0.0016596849,0.16136383,0.0386624,0.07831487,0.112181254,0.04217012,0.08611718,-0.09340816,0.0016606636,0.027622886,0.18094121,-0.10090529,0.1048921,0.048103247,0.079751655,-0.019299773,0.05320112],[0.15759316,-0.018005474,0.09916801,-0.050383493,-0.052550625,-0.0034986576,-0.09775277,0.07302702,0.046039857,-0.049887966,-0.10419506,-0.11418488,0.04079539,0.14140598,0.049046118,-0.05049896,0.049757876,0.057755068,-0.2072808,-0.029824078],[-0.049887337,-0.052666403,-0.081871964,0.033105675,-0.04321463,-0.049665224,-0.19248442,0.022752732,0.036151767,0.09152435,-0.16225271,-0.08708665,-0.0100268,0.02247573,-0.010674952,-0.028226575,-0.10892114,-0.04992646,-0.047062214,-0.092137024],[-0.0797358,-0.101133384,0.0029382466,0.11466932,0.04624199,-0.044681225,-0.053697985,-0.19165231,-0.18551435,0.24373618,-0.18105847,0.14404975,-0.0690544,0.083559036,-0.06279283,0.09734294,0.15000203,-0.1042148,0.10025375,-0.0029200101],[-0.063884676,-0.05151105,0.08144999,-0.01693183,0.0023378849,0.21403883,-0.13247922,0.008446957,-0.044011287,-0.0048225024,0.01793127,-0.02375565,-0.09217457,0.08871693,0.028160205,-0.033362992,0.044055413,-0.028190404,0.072211795,0.042974956],[0.035706386,0.09260304,0.025509419,0.060877033,-0.01653631,-0.019433679,-0.054822147,0.08427901,-0.08926864,-0.021320136,0.075830385,-0.0065389853,0.05301333,-0.11419537,0.008663536,0.13948697,0.03989073,-0.05602423,0.057362523,-0.07950963],[0.03424193,0.195648,0.22030585,-0.00681592,0.040534843,0.08737358,-0.09293508,0.039218847,-0.09234357,-0.01250394,-0.08255314,0.050515752,-0.028783077,-0.048421893,0.055120375,-0.015924396,-0.14862408,0.05015659,-0.11627731,-0.03892784],[-0.1124838,0.029882548,-0.06253675,-0.15099753,-0.09974894,-0.0195342,0.002980704,0.049249656,-0.045732938,0.11882767,0.099258915,0.062082097,0.351924,0.067283124,-0.013491848,0.17487547,-0.035269774,0.074940406,-0.052104134,-0.08050792],[-0.117766604,-0.03796199,0.20674217,-0.16448976,0.05636777,-0.25203556,0.11027985,-0.041692436,0.09634722,-0.13415647,0.03446095,-0.22700442,0.15716028,0.010381722,-0.124414414,-0.03836823,-0.1464576,-0.17707375,0.10051844,0.11752611],[-0.08678928,-0.034143195,0.029638907,-0.13627066,0.1479831,-0.0625377,-0.003456454,-0.14904095,-0.0844235,-0.059897274,0.019140273,0.010228756,0.026781183,0.06466043,0.06566039,-0.046296075,-0.08868689,0.11686402,0.0073715486,0.052983724],[-0.001667708,0.045758266,0.006677423,-0.09280721,-0.029657383,0.08304074,-0.23530814,0.1788061,-0.012512731,-0.096967,-0.0875251,0.050307523,-8.924629E-4,0.017427107,-0.10137154,0.16352218,0.20703994,0.102458276,0.040439583,0.029567411],[-0.02732581,0.030609414,0.031900313,-0.10021103,0.05077555,-0.09294518,0.017108347,-0.06835409,0.052507862,0.046864808,-0.0706287,-0.16897114,-0.06620378,0.07001553,0.040898398,0.038997393,0.020570202,0.09422475,0.15860291,-0.080805026],[0.024153266,-0.029418243,-0.07512356,-0.02593603,0.15041202,-0.05334672,0.074507646,0.006509173,-0.15362452,0.19450754,-0.0715848,-0.013199127,-0.028721578,-0.028291147,-0.08538821,-0.037117966,0.01710428,-0.03421866,0.17439012,-0.2028987],[-0.0019120391,0.08856985,-0.06787176,-0.07765701,-0.06841485,-0.059916392,0.043132566,0.041510016,0.015255551,0.0107882265,0.17823935,-0.1569033,-0.066202976,0.06695265,0.07626547,-0.18333691,0.051192082,0.1021234,0.05856855,0.27161196],[-0.03229169,-0.15549515,0.016261596,0.042362623,-0.05072701,0.081324875,-0.16821507,0.006569213,0.12816691,0.0057179644,-0.03592072,0.1590467,-0.14250296,0.07796767,0.07536992,-0.009350935,0.01716196,-0.15376124,0.08681687,0.13943413],[-0.049117696,0.03437458,0.1422931,0.11931445,-0.14817357,0.030420221,-0.1490398,-0.108666256,0.21053824,-0.057310913,-0.057098098,0.05903331,-0.09745182,0.10185931,0.15701577,-0.021334348,-0.11820024,0.023462005,0.01999103,-0.1143977],[0.010665327,0.107530355,0.05237096,0.056191232,-0.011764357,-0.14876938,0.0063117696,-0.13051602,-0.18923329,-0.03460181,-0.06633605,-0.089454405,0.07050099,-0.008756965,0.16872185,0.092230655,-0.16486485,-0.10537451,0.058648802,-0.08907509],[0.04752614,0.10765188,-0.023423,0.15515716,-0.00426583,-0.04429804,-0.04881997,-0.021307392,-0.015678458,-0.102327995,-0.08776028,-0.10564345,0.046043042,-0.15167612,0.15485543,-0.005882739,-0.014547578,0.0146995615,0.019408982,-0.118431866]]},{"biases":[0.16837367,-0.103656754,-0.08460837,0.08743416,0.062457167,-0.03287739,0.06584343,0.22527921,-0.064148866,-0.08567748],"values":[0.0,0.0,0.0,0.0,0.0,0.0,0.0,0.0,0.0,0.0],"inputWeights":[[0.11022463,-0.009305204,-0.1431864,0.09249236,0.036816027,0.009214726,-0.270575,0.07085657,-0.039405514,-0.17829028],[-0.116627924,-0.0011322765,0.08042774,0.07433302,-0.05979879,0.30302405,-0.05069312,0.10365952,-0.054072674,-0.103713796],[0.12305242,0.04987839,2.5696662E-4,-0.07288087,-0.04864219,0.06398922,-0.022784825,0.042321194,-0.026228854,0.0051043206],[0.07673886,0.06316928,0.12491461,-0.03072956,0.23151828,-0.0969656,0.018903218,0.04089824,-0.035329085,0.052604478],[-0.01478789,-0.07415486,-0.0201514,0.08936641,0.004662894,-0.008618937,0.040805615,-0.0730878,0.07362315,-0.107877545],[0.0089021465,-0.06459711,0.06827105,-0.01564263,0.08438379,0.022971358,-0.069324285,-0.033264298,0.08538382,0.015187377],[-0.074180596,0.13477114,-0.041752405,0.16371483,-0.10406358,0.0076146065,-0.15250047,-0.16077477,-0.049234167,-0.06608758],[-0.14986888,-0.02793953,-0.12944302,-0.0057291235,0.029571643,0.03139861,0.07685844,-0.1295529,-0.028691625,-0.03205885],[-0.10565226,0.11355627,-0.11501841,0.023024624,0.12607075,0.081520036,-0.04746204,-0.15029027,0.04355052,0.08488371],[-0.040222388,0.0021104435,-0.14029363,-0.056466777,0.10359756,-0.041978594,0.0067151585,0.06704681,-0.13628432,-0.05410024]]},{"biases":[0.040785957],"values":[0.0],"inputWeights":[[0.2606513,0.06557776,-0.054807466,-0.06288782,0.1026349,0.026412342,-0.031820223,0.022334548,0.19598024,0.027500203],[-0.08593209,0.035228193,-0.04878493,-0.09010596,0.08254847,0.19483526,0.014507881,-0.13280861,-0.09015179,0.104597285],[0.012549291,-0.035587322,-0.13378704,-0.060735073,-0.02995901,-0.018846624,-0.04552208,-0.07141389,-0.0696483,0.015711222],[0.04949546,-0.018971726,-0.14414027,-0.10626373,0.007219653,0.04132676,-0.11913627,0.027576847,-0.21561456,-0.27081195],[0.0517884,0.11819761,-0.15244009,0.021030474,-0.10909092,-0.02380762,0.05916795,-0.021409433,-0.020095946,0.0962236],[-0.092943616,0.0800788,0.16637246,-0.16637827,0.027155858,0.16839908,0.017783415,0.13378605,0.079100594,0.08837988],[0.026695838,-0.13847315,-0.16762127,0.16278456,0.05368357,-0.04245641,0.12931176,0.05958983,-0.100696534,-0.023695229],[-0.09300531,0.031539574,0.15313919,-0.02975057,0.23735887,-0.06392361,0.0034952175,0.121489674,0.1064806,-0.15098807],[0.070525885,-0.01886399,-0.12441713,5.8177688E-5,0.061207928,-0.16024923,-0.0037078809,-0.052516326,0.10133795,0.09624982],[0.015108604,-0.18056852,-0.08514726,-0.032759115,-0.01980559,0.11553598,0.09518557,0.11750649,0.121508725,-0.02199704]]}]}},{"fitness":0,"neuralnetwork":{"inputLayer":{"biases":[0.0,0.0,0.0,0.0,0.0,0.0,0.0,0.0,0.0,0.0,0.0,0.0,0.0,0.0,0.0,0.0,0.0,0.0,0.0,0.0],"values":[0.0,0.0,0.0,0.0,0.0,0.0,0.0,0.0,0.0,0.0,0.0,0.0,0.0,0.0,0.0,0.0,0.0,0.0,0.0,0.0]},"layers":[{"biases":[-0.0062337094,-0.034135077,0.120053105,0.005110683,-0.15229471,-0.25918323,0.042214528,0.19368422,0.08307795,-0.028785728],"values":[0.0,0.0,0.0,0.0,0.0,0.0,0.0,0.0,0.0,0.0],"inputWeights":[[-0.026988601,-0.041082926,0.0923546,0.18366693,0.12704332,0.03296879,0.011857443,-0.032778203,-0.15159573,-0.02608484,0.087277435,-0.09222896,-0.14956212,0.08151076,0.05227833,-0.034718946,-0.083466895,-0.005887391,-0.087814204,-0.023757717],[-0.13126175,0.04664036,0.022485938,0.096704535,-0.052401062,-0.10531234,0.038708016,-0.22728686,-0.09157407,0.0027113198,0.012818261,-0.00231298,0.060245216,0.005078075,0.10495055,-0.1134259,0.068880156,-0.1094637,0.13389358,0.15323673],[0.05428156,-0.07360286,-0.08816997,-0.054082673,0.15170906,-0.108782694,-0.015460069,-0.02451714,0.066274926,-0.21085148,-0.12280042,0.034728445,0.20848015,-0.091613315,0.026518261,0.07178171,0.03441404,0.081471995,-0.03948286,-0.022579538],[0.038642485,-0.32598352,0.03000681,-0.09042337,0.04293016,-0.11890866,-0.067681246,-0.0869252,-0.05026854,-3.046543E-4,-0.16786428,0.009414205,0.0052034897,0.06435513,0.25976136,-0.015163782,-0.011397939,-0.19956118,-0.07183684,0.07655108],[-0.09868307,-0.08237636,0.1200775,0.035441164,-0.06752768,-0.02440268,0.15310045,-0.13849536,-0.064356774,0.023362113,0.07670618,0.18378806,0.1187079,-0.003300377,0.13105108,0.09111245,-0.05753999,-0.090631396,0.19755739,0.038586095],[-0.10702489,0.0056428905,0.05291049,0.043600686,-0.013914535,-0.028721524,-0.24066073,0.008468884,0.16282943,0.067602016,-0.008884779,-0.04492085,-0.003943155,-0.14079985,0.08781126,0.037352823,0.034219485,-0.0421928,0.073841594,0.14509806],[0.12616192,0.035101432,-0.05000124,-0.0067849024,0.17304027,-0.06171545,0.08255343,-0.039069135,-0.03800636,0.040554225,-0.13339266,0.01853436,-0.029099317,-0.002433253,0.047688507,0.09762221,0.08092201,0.022102531,-0.09642761,0.05789711],[0.015641162,0.11351107,0.0011405956,0.06518733,-0.076556705,0.011540466,0.07459955,-0.012096091,-0.042515803,0.11601524,0.0014332727,-0.05858569,-0.06491861,-0.01769556,0.1085678,-0.047365583,-0.07661498,0.015366718,0.104240105,-0.111238115],[-0.08416743,-0.038243935,-0.055872973,0.119742826,-0.17213425,-0.06306062,-0.13539073,-0.016518312,-0.061945748,-0.05359407,-0.022456437,-0.06400084,0.021023877,-0.07121676,-0.11145875,-0.13279326,0.20437028,0.18476145,0.113983266,0.20692383],[0.016089085,0.09864321,-0.053048775,-0.018994674,-0.010489734,0.05914847,-0.1461163,-0.047685765,-0.040182013,-0.073802546,0.11380807,0.0453609,-0.026232576,0.05022062,0.0681825,0.028576152,-0.042843882,0.042692374,0.027013393,-0.112697415],[-0.08329247,0.01800817,-0.05134985,0.019410828,0.012149847,-0.040096074,0.017401308,0.07261177,0.028797757,-0.17783502,-0.0015453341,0.0015317688,0.06546962,-0.050740175,0.10115914,-0.110440314,-0.07968936,-0.026771933,-0.11803236,-0.07955348],[0.03783746,-0.024917908,-0.04044222,-0.01725628,0.06645816,-0.055756014,-0.058616046,-0.080824874,-0.21115656,-0.0012684013,-0.04324343,0.018143326,0.11410842,-0.049135275,0.0795006,-0.0945322,-0.1615982,-0.1872913,-0.11626693,0.076517224],[-0.08344241,0.12181359,0.078569874,0.055280257,-0.030439764,0.2124635,0.12790662,0.13735995,-0.0037473235,-0.13346666,-0.06518767,0.15612304,0.10715679,-0.03913481,-0.1865699,-0.06039401,-0.08575753,0.07931147,0.14286123,-0.1102502],[0.10855481,0.13602892,-0.103765644,0.08339739,0.074321926,-0.08654141,0.08527336,0.13376829,-0.012461194,-0.13561364,0.068496056,-0.055574093,0.04502118,-0.010908803,-0.09794213,-0.0018057069,-0.09745174,0.027656289,0.06687057,-0.050325707],[0.12086125,-0.037606183,0.067354806,0.023697056,0.17708468,0.17201175,0.11011301,0.01944779,0.017502053,-0.02909435,0.05379642,-0.024136886,-0.08725494,-0.076984264,0.054643527,0.13605216,-0.049310252,-0.056563992,0.21294077,0.122397125],[0.05057749,0.0828199,-0.052927505,0.037141014,0.26360345,0.09014042,0.055543326,0.06494857,0.15937167,0.20126776,0.11429765,0.0690241,-0.07244508,0.04799637,-0.15877867,-2.2925358E-4,-0.0536886,0.1739764,-0.083434425,0.048240487],[-0.07022512,0.03567495,0.00575638,-0.050145846,0.040696967,-0.023707315,-0.0606123,-0.030124955,-0.051889434,-0.05423005,0.012730169,0.03193374,-0.11497973,6.8816094E-4,-0.05069584,0.1297292,0.15503785,-0.17551911,0.10428901,-0.108304024],[-0.014094907,-0.0443953,-0.1927604,0.028380664,-0.09287433,-0.027559303,-0.029188393,-0.13027187,-0.03699332,-0.098015815,-0.020435771,0.19888325,-0.11659909,-0.005633408,0.051785577,-0.18166278,-0.0727027,-0.09436241,-0.07039404,0.03365068],[0.012463064,-0.13877654,-0.04991106,-0.019588804,-0.1818607,-0.10233948,0.08405094,-0.117396064,-0.0059152893,0.046521902,0.109692745,-0.016352018,0.03384821,-0.06796987,0.07876034,-0.013716745,0.28999272,0.046425525,0.052018035,