{"generationNumber":44,"Entities":[{"fitness":0,"neuralnetwork":{"inputLayer":{"biases":[0.0,0.0,0.0,0.0,0.0,0.0,0.0,0.0,0.0,0.0,0.0,0.0,0.0,0.0,0.0,0.0,0.0,0.0,0.0,0.0],"values":[0.0,0.0,0.0,0.0,0.0,0.0,0.0,0.0,0.0,0.0,0.0,0.0,0.0,0.0,0.0,0.0,0.0,0.0,0.0,0.0]},"layers":[{"biases":[0.1253209,-0.11003501,-0.1829308,-0.0077346056,0.21586102,0.009219208,-0.14613631,-0.087570205,-0.09679939,0.13314891],"values":[0.0,0.0,0.0,0.0,0.0,0.0,0.0,0.0,0.0,0.0],"inputWeights":[[-0.0012493981,0.12493372,0.06363532,0.15248676,-0.12412121,0.07567115,-0.18542613,-0.072684735,0.08768215,-0.15724975,-0.04877699,-0.046679113,-0.034856793,0.09789081,0.010854126,0.09994147,0.025175571,-0.12028066,0.03726393,-0.14843255],[-0.09171129,-0.114438064,0.03928412,0.061899193,-0.008187177,0.041898657,-0.0045669726,0.21239743,0.02397239,-0.075464286,-0.0369797,-0.07641331,0.089462556,-0.05690114,-0.16299419,0.07605665,-0.030142251,0.006153383,0.06716012,0.034976803],[-0.07110456,0.012458443,-0.031241167,0.08452984,0.050764658,0.013697388,0.20025319,-0.039560694,-0.014572863,0.03182978,-0.0063863047,-0.13409433,-0.0021455083,0.020669648,0.06289424,0.04783676,-0.030819766,0.03268593,0.013834742,-0.012495728],[0.039819762,0.11659644,0.1059111,0.010355544,0.010795258,-0.025837826,0.018805569,-0.0088803945,0.016172478,-0.13625486,-0.10652262,-0.06927452,-0.06960255,0.11258453,0.1444856,-0.05675418,-0.088377014,0.031780433,0.042027302,-0.071751416],[-0.027664501,-0.14816216,0.09254116,0.096142314,-0.05907062,-0.07165206,-0.044168916,0.11887952,-0.09793404,-0.0762084,-0.064294875,-0.101292446,0.18114723,-0.20411481,0.16370597,-0.020108668,0.16862106,-0.058794122,-0.09055438,0.10801827],[0.069872566,-0.13525616,0.076748915,0.030351745,0.15144095,0.095658205,0.08471697,0.056331694,0.105179995,0.049364686,0.121772155,-0.0027779369,-0.14283428,-0.0320877,-0.037040208,0.011034502,-0.0699605,-0.2550663,-0.08807752,-0.019907659],[-0.016419673,-0.06967112,-0.14784685,0.06742749,-0.09917081,0.06888499,0.044075746,0.03307956,-0.11753457,0.030476654,0.1455629,-0.046791043,-0.07585945,-0.086823106,-0.15189894,-0.012303858,0.04945546,-0.09027666,-0.03137652,-0.03619492],[0.08910149,0.08450873,0.051303245,0.041142844,-0.07002792,-0.088627435,0.024731107,0.039233156,0.0270621,-0.20144233,0.044010058,0.10631283,6.020051E-4,0.07522771,-0.056863327,0.08282765,-0.035541665,-0.20246264,-0.11842097,0.034273878],[0.10377403,-0.11919156,0.006080575,-0.2465254,0.013120101,0.03001724,-0.16312182,-0.27897695,0.019882148,0.007146788,-0.0269014,-0.014707371,0.03118462,-0.25708804,0.05213071,-0.14037165,0.003625227,0.076568864,0.09875084,0.051296685],[0.030055076,0.15459108,-0.11365019,0.10112056,-0.12741166,-0.03756539,-0.045918964,-0.01589952,-0.037122495,-0.08108024,0.021287216,-0.090810634,-0.048657566,-0.03244352,0.024902137,0.076916724,-0.15206948,0.014209878,0.124544375,-0.01021146],[-0.12618817,0.027971707,0.08438297,-0.06718309,-0.19105805,0.012446223,0.113153234,0.025456054,-0.062543854,0.0897433,-0.027309088,-0.030921005,0.055291366,-0.035455234,0.068418376,0.07099793,0.03948688,0.045687385,-0.04216527,-0.024770238],[-0.11848297,-0.14668621,0.1621288,-0.05119652,-0.03615264,-0.044037443,0.011594764,0.10821863,0.17523117,-0.14434242,-0.07946127,-0.05041011,0.008223115,-0.034007847,0.1504276,-0.24721506,-0.045037586,0.29849416,-0.1905937,-0.0167102],[0.0700836,0.04412888,-0.05817792,0.098215945,0.062400892,0.058030784,-0.089081034,0.10538635,-0.12511751,-0.08822841,0.17729793,0.103013955,-0.027939387,-0.12483705,0.069968864,0.11614862,0.1615047,-0.10125922,-0.007413084,0.08483002],[-0.05175686,-0.017555105,0.0554131,0.116221994,0.15856667,-0.0027437739,0.009353713,-0.07883842,-0.083717555,-0.00240307,-0.23145534,0.05731658,0.121096954,8.215368E-4,0.035374667,-0.008910571,0.02619798,0.031554665,0.03509886,-0.09563273],[-0.09416696,-0.12370557,-0.14955214,-0.016669996,-5.886169E-4,0.04240826,0.09256938,-0.11736574,0.03287416,0.10014837,-0.040514395,0.1017134,-0.028787749,-0.004948788,-0.058499172,0.076349646,-0.029379684,-0.112661645,-0.072270945,0.1614894],[0.08317669,0.041729968,-0.026230352,-0.15562601,0.15171474,0.024139654,-0.19966178,0.15132976,-0.102441624,0.14817393,0.052656256,-0.044861402,-0.08643452,0.043034956,0.0876534,-0.20328492,0.0596552,0.07356632,0.04114145,-0.0671811],[-0.08981184,0.079525575,-0.1112715,0.09001478,-0.13239224,0.09190546,0.031928208,-0.0886831,0.14773999,-0.020664025,-0.023907715,-0.10240403,-0.049685556,0.09026125,-0.062318537,0.03368769,0.07240928,-0.16983443,0.24667077,0.11047201],[-0.09656341,0.042366922,-0.03783451,-0.007819289,0.09716575,-0.001655758,-0.027051842,-0.01960191,0.104557954,-0.07910772,0.05925931,0.0027552666,0.027656281,-0.07278426,0.031875826,0.2292029,-0.22335504,-0.022840692,0.102047615,-0.022909462],[-0.17480592,-0.052298725,-0.11249925,-0.04730136,0.09806778,0.062770195,-0.09455915,0.2092073,-0.07747455,-0.08200689,-0.20065223,-0.01644145,0.056880966,0.011180571,-0.076801464,0.04125721,-0.1363715,0.028007215,0.018039398,-0.04050706],[-0.0096963905,0.098175265,0.1550115,-0.100140296,-0.17714971,-0.002189219,0.024247982,0.15177661,0.14789708,0.13771841,0.281159,0.08228349,0.080067284,0.0437773,-0.13074654,0.08173298,0.18140487,0.0091258455,-0.012971667,0.03601203]]},{"biases":[-0.14295146,-0.021311173,-0.11305342,-0.04999644,-0.066597305,0.108411305,0.12107519,0.02024106,0.1234289,0.007321513],"values":[0.0,0.0,0.0,0.0,0.0,0.0,0.0,0.0,0.0,0.0],"inputWeights":[[-0.13757415,-0.0240231,0.096287414,-0.013481544,0.1605619,0.08771737,0.07644448,-0.113118544,-0.08420948,0.005125592],[0.04179958,0.017717993,0.05623384,-0.12231381,0.21531026,0.10531381,0.03179982,0.051898126,-0.12770014,0.16842958],[-0.0601307,0.18522103,0.038696326,-0.21409447,-0.1196139,0.03920944,0.15450266,-0.021016452,0.09015077,-0.13209634],[-0.20897992,0.08726534,-0.008498295,0.16532683,-0.08624684,-0.06339406,0.06455525,0.15877032,-0.004202847,-0.08394746],[-0.12305059,-0.077766985,-0.048875388,0.04731412,-0.10211377,-0.1723485,-0.17859341,0.045703318,0.08412179,0.015739556],[0.049203895,-0.05308637,-0.03911693,0.13855426,0.07844866,0.17462894,-0.034695905,-0.116702735,0.0013116868,-0.028163454],[0.083052,-0.08185015,-0.17089537,-0.06472562,0.037128136,-0.050120678,-0.10403832,0.14757517,0.0547364,-0.08814627],[-0.060480192,0.21092035,-0.1470068,-0.12863308,-0.04631099,0.055681523,-0.064510755,-0.04175008,0.015102451,-0.008376324],[0.03751427,0.06958974,-0.08069748,0.100466974,-0.0031673228,0.037830055,0.012303321,0.059330028,0.020037346,0.15162161],[0.0037487987,-0.07404558,0.015050317,0.04123767,0.059963845,-0.029440455,0.0059989104,-0.050661493,0.11892772,0.07156918]]},{"biases":[0.24445695],"values":[0.0],"inputWeights":[[-0.058238864,0.1522461,0.081692025,-0.0047690384,0.13436106,-0.08278055,0.16435283,-0.08919058,-0.008045268,0.03059413],[0.0019856095,-0.2552515,-0.018202381,-0.0726818,0.0810476,-0.17161466,-0.1561445,-0.093343675,0.12092246,0.08333921],[0.01305034,0.020936385,-0.016113142,-0.11952807,0.12197027,-0.102978684,-0.091634326,-0.050672602,-0.12850861,0.0338439],[-0.030811455,-0.21126762,-0.030368732,0.15020068,0.056437645,0.011818848,0.017960474,-0.03404759,-0.0128214825,-0.00382035],[0.22228636,-0.042206183,-0.0491879,-0.11281289,0.10761394,0.001896832,-0.010364374,-0.15569018,0.1379026,-0.034809876],[0.091192015,0.020268383,0.2213228,0.05893813,0.0064932583,-0.15841587,0.21990253,0.031128766,-0.13236123,0.12122396],[0.04789573,0.059674993,-0.15652743,0.066302255,-0.09992162,0.16209911,0.027478209,-0.05493814,0.19817755,-0.022513932],[0.069341645,-0.01561778,0.014769577,-0.0042398544,0.03560404,0.14634232,-0.1944009,0.21887553,-0.08561477,0.09839207],[-0.0020474417,-0.015708344,0.0024458456,-0.047823407,0.059548337,-0.0023708728,-0.015611174,0.08569711,-0.0020328371,0.12249818],[-0.036405426,-0.054413058,0.001407896,-0.013649701,0.18554237,0.035837676,0.017729634,-0.089723796,-0.13462794,-0.030615829]]}]}},{"fitness":0,"neuralnetwork":{"inputLayer":{"biases":[0.0,0.0,0.0,0.0,0.0,0.0,0.0,0.0,0.0,0.0,0.0,0.0,0.0,0.0,0.0,0.0,0.0,0.0,0.0,0.0],"values":[0.0,0.0,0.0,0.0,0.0,0.0,0.0,0.0,0.0,0.0,0.0,0.0,0.0,0.0,0.0,0.0,0.0,0.0,0.0,0.0]},"layers":[{"biases":[0.050223254,-0.12646374,-0.08920015,-0.07659576,0.06734964,0.019167399,-0.11080499,-0.16792096,0.014877204,-0.037267465],"values":[0.0,0.0,0.0,0.0,0.0,0.0,0.0,0.0,0.0,0.0],"inputWeights":[[0.061231855,0.007597565,0.06877277,-0.03004229,-0.101316765,0.08382962,0.19019571,0.08525457,-0.09661011,-0.14097998,-0.12132124,-0.030594941,0.016405934,0.11191038,-0.15464804,0.006633466,0.056836702,-0.081925645,-0.034890372,0.025212215],[0.0141104525,0.016642127,-0.022535536,0.05803953,-0.15489292,-0.08365186,0.19065042,0.19072789,-0.04964925,0.07297705,-0.065272085,-0.043248262,0.24297245,-0.06692643,0.16618778,0.14460057,-0.065223455,0.035418276,-0.057492916,-0.20173882],[0.07729315,0.031544823,0.009394124,0.14125909,0.045576733,0.16936943,-0.042850398,0.16103597,0.09612204,0.011527407,-0.085465185,0.10092961,0.11669866,0.067885995,0.078758374,-0.23757403,0.08505917,-0.02335439,0.081105724,-0.195841],[-0.06725333,0.10268452,-0.03171371,-0.166144,0.08402455,0.096992746,0.016312294,0.119365744,0.1064106,0.16492097,0.106992535,0.009587053,-0.11641641,0.13036811,-0.0891224,-0.19527617,0.09670017,0.13712825,0.0047628465,0.09717023],[0.08459234,0.17181034,0.051636096,-0.04484679,0.013329431,0.024561796,-0.07547675,0.056094754,-0.14992216,0.03433574,0.03450861,0.061121203,0.14297637,0.029779451,-0.052577276,-0.0815176,0.0917968,0.05634051,0.044279087,0.08953093],[0.14884281,-0.16016279,0.15900896,-0.0630182,0.20983166,0.12385168,0.12689212,-0.02864231,-0.17414916,5.392494E-4,0.13660079,0.061716158,0.011122599,-0.029212585,0.06148286,-0.07513543,0.087722436,0.057874337,0.060945094,-0.006025974],[-0.010222834,-0.042841442,0.11018704,0.0116657475,-0.041531574,0.054420177,-0.0067758285,-0.086198226,-0.23463291,-0.021428268,0.15826571,0.10285297,-0.029466694,-0.08250752,0.074262604,0.011740277,-0.1369376,0.031207016,0.0012677435,0.013213878],[0.020251634,0.009433628,0.01679235,-0.12567703,-0.1959813,0.14548202,0.22403271,-0.11689893,-0.17894177,-0.0062552406,-0.021091247,0.17500779,-0.17792948,0.06280312,-0.19658919,-0.07045116,-0.15472065,-0.04756215,-0.048708383,-0.07389606],[0.08037507,0.050836254,0.01325938,-0.03452548,0.07133599,-0.096421674,0.013059301,-0.016252678,0.06790063,-0.043103572,0.098307766,0.014022376,0.032142706,-0.036469612,0.053013068,0.09047869,-0.023986893,0.09552078,-0.011054582,0.019384267],[-0.06408886,-0.012679847,-0.030972296,0.086264886,-0.086623505,0.05592713,-0.09922416,0.028292114,-0.071991175,0.08106683,0.02470455,0.08606835,-0.046729695,-0.01634561,0.08904242,-0.043285094,-0.06760718,-0.022885747,0.1549334,-0.04277079],[0.1929146,-0.031442143,-0.03263833,0.05950716,0.092858545,0.12856694,-0.10344894,-0.044698406,-0.030475793,9.4876654E-4,-0.09218642,0.09076185,0.032948453,-0.023562172,0.043977313,-0.05267374,-0.043700136,-0.016697926,0.06058377,0.24403617],[-0.04784528,0.04649192,0.04383544,0.11357579,0.0646108,-0.13029431,0.08352325,0.14759712,-0.035122335,0.024537751,0.034400005,0.010933282,-0.067400604,0.036342327,-0.10545102,0.26222363,-0.123028815,-0.12652639,-0.03742517,-0.24925789],[0.12290295,-0.046245676,0.08152473,0.014724417,0.0022780686,0.2605418,-0.079890005,0.0571719,0.17256641,-0.102591895,0.15094493,0.08776879,0.10108113,0.02059794,0.06378075,-0.113169074,-0.06079314,0.026666138,-0.10396595,-0.100263685],[-0.06717224,0.044342924,-0.17383386,0.18153498,-0.07467998,-0.08660988,0.01172667,-0.11107302,0.072628245,-0.0078119617,0.14649288,-0.12667653,-0.034808762,0.07957625,-0.109845206,-0.10612706,0.07971976,0.12068107,0.16854888,0.024740487],[-0.120343685,0.08134389,0.0114379,0.05475051,0.051586125,-0.014146381,-0.101973474,0.20724621,-0.120404795,0.03277201,0.15851328,0.09742585,0.09646697,-0.11877824,-0.08391881,0.13819942,-0.08567692,0.07845619,0.08505251,0.16302215],[0.04306155,-0.044143643,0.16263515,0.017072765,0.2437048,0.042838424,-0.061555758,-0.08212529,0.049656652,-0.101895116,-0.19813657,-0.075480044,-0.01674955,0.009586287,0.0029619627,-0.010149956,-0.0428507,-0.021700889,-0.07866478,-0.07595523],[-0.05395928,0.17624249,-0.044255562,0.285356,-0.10389603,-0.11916473,-0.12957181,0.004233319,-0.005283688,-0.13728,-0.1739179,0.106464334,0.022065476,-0.02215861,-0.027665956,-0.026653383,0.010531425,-0.14819466,-0.027677033,0.101914495],[-0.0620509,-0.018920839,0.056257047,0.038130075,0.105319016,0.12214892,-0.057731546,-0.053498335,-0.0064164135,0.024074417,-0.06584117,0.12424563,0.06514047,0.0842776,0.12758513,0.013697328,0.051667366,-0.08320814,0.15345775,0.08095394],[-0.22126716,-0.045909468,0.008453588,0.13885586,0.009806693,0.009740735,0.05379967,0.025329662,0.11884494,-0.0354667,-0.022994084,0.06603786,-0.015881678,-0.026393725,-0.15116924,6.880728E-4,-0.09345008,-0.15925227,0.008011234,-0.1240913],[0.18596672,0.046604004,0.29734454,-0.09069419,-0.05217001,0.095640935,-0.047290135,0.22272225,-0.16444333,-0.1196242,-0.059024096,0.11957833,-0.24725631,-0.07556691,0.009267624,-0.18225577,-0.04967696,-0.031796917,-0.11657746,0.09868852]]},{"biases":[0.12871139,0.079627044,-0.06569602,0.1901186,-0.030098781,0.033771984,-0.2321808,-0.09010439,-0.090834625,0.124096796],"values":[0.0,0.0,0.0,0.0,0.0,0.0,0.0,0.0,0.0,0.0],"inputWeights":[[-0.028726354,0.037081562,-0.036411263,0.03937656,-0.13669841,-0.029256469,-0.051740408,0.054510597,0.03555473,-0.03815579],[-0.001274079,0.0581208,0.09512769,-0.10186938,-0.18060221,0.1001042,0.036847938,0.05710747,-0.06156979,-0.0420499],[0.026505103,-0.0071811737,0.03479976,-0.23620822,-0.01983175,0.09138419,-0.016741373,0.012396352,-0.080797344,-0.027521713],[0.11684447,0.10385178,0.010813939,0.13165697,-0.18491676,-0.12873006,-0.11187514,0.12001894,-0.09651935,-0.06957915],[-0.048750557,0.10813597,0.037183113,-0.19307424,0.051897887,0.07434855,0.004422495,-0.022999488,-0.09523648,0.033141747],[-0.010418077,0.108936585,0.097795956,-0.084477596,0.0125028,0.13991527,-0.18960059,-0.025769858,-0.061365396,0.18255599],[-0.06686162,0.083306715,-0.033573467,0.084640376,-0.04442064,-0.03610046,0.027333558,0.038010217,-0.020047408,-0.0013459444],[-0.20906912,0.020822277,-0.030257795,0.15759175,-0.11869143,-0.016713249,0.18678378,-0.16766141,0.12327478,-0.08188994],[0.13378967,-0.11474182,3.9649716E-5,-0.14305137,-0.041321874,0.08316562,0.07925469,0.13043608,0.07331963,0.14131284],[0.02552622,0.018249823,-0.004418727,0.16199663,0.011251472,0.1125226,0.0045672385,0.049594454,-0.09994773,0.06837393]]},{"biases":[0.1056429],"values":[0.0],"inputWeights":[[-0.059352856,0.039324358,-0.03588175,-0.016588526,-0.18224856,0.10348248,0.010352497,0.03559439,-0.016746564,0.017361613],[-0.010465927,-0.13434015,0.09768574,0.06629032,0.073405884,0.01039353,0.04454948,0.056445874,-0.15638423,-0.09316533],[0.030298922,-0.26041573,0.015579955,0.10423398,-0.15717562,0.10974168,-0.06929796,-0.06100113,-0.07946135,-0.034315336],[0.15503526,0.06196625,-0.06016478,0.17224601,-0.031480905,0.16879395,0.038959976,-0.040055104,0.035222054,-0.009789035],[-0.10767912,0.16094345,0.08587375,-0.120047145,0.0818889,-0.15508473,0.041964136,0.23214,-0.1139792,0.019860048],[0.06253096,0.015283315,0.12205057,0.005609049,0.032863405,0.16461702,-0.025376337,0.027870031,-0.15000688,-0.07608085],[0.08322495,0.14271775,0.018956194,0.11795889,-0.025403876,0.07992139,0.12867117,0.03765146,-0.05039046,-0.18340257],[-0.013608927,-0.017053466,0.091109805,0.27339968,0.064830385,-0.12803636,0.20598346,0.046579346,0.0070623667,-0.08401717],[0.103079684,-0.06594747,-0.04094984,-0.056668393,0.061969332,0.014967693,0.056493044,-0.056604613,-0.031463932,-0.0051922095],[0.021325072,0.07687778,-0.05399309,0.1763509,-0.008130105,-0.19912532,-0.08000318,0.06315641,0.14053947,-0.124318466]]}]}},{"fitness":0,"neuralnetwork":{"inputLayer":{"biases":[0.0,0.0,0.0,0.0,0.0,0.0,0.0,0.0,0.0,0.0,0.0,0.0,0.0,0.0,0.0,0.0,0.0,0.0,0.0,0.0],"values":[0.0,0.0,0.0,0.0,0.0,0.0,0.0,0.0,0.0,0.0,0.0,0.0,0.0,0.0,0.0,0.0,0.0,0.0,0.0,0.0]},"layers":[{"biases":[0.09966451,0.022443183,0.07290535,0.16891007,-0.004391867,-0.10400959,-0.07494453,0.1056763,0.07176059,0.28171805],"values":[0.0,0.0,0.0,0.0,0.0,0.0,0.0,0.0,0.0,0.0],"inputWeights":[[0.061079785,-0.077872604,-0.037762426,-0.1440247,0.086516365,0.046061322,-0.0534424,0.12896694,0.046925426,0.041787203,0.064664915,0.026027903,-0.02500636,-0.02448805,-0.008744758,0.040097795,-0.09177963,0.016038686,-0.12103299,-0.16768011],[-0.13779056,0.17281242,0.0289884,0.04271421,-0.022962911,-0.098493695,-0.10987046,-0.017940642,0.07515968,-0.007824812,-0.044577118,0.0793866,0.084107086,-0.05268025,0.015957369,0.065917596,-0.039907772,0.063157424,0.13939324,0.052958593],[-0.05110234,-0.016140481,0.06920073,-0.14101511,0.065597154,0.17647183,-0.10093627,0.086687185,0.01850886,0.07118647,-0.0068275314,0.003550569,-0.011783239,-0.061509598,-0.031230249,-0.0041817175,-0.111145794,-0.0055821515,-0.037529264,0.058329135],[-0.061193753,-0.0513622,-0.009192292,-0.10399866,0.0051088533,0.029965369,0.01564964,0.16364215,-0.12153318,-0.11715376,0.07097405,0.095381305,-0.009871827,0.009579475,-0.14542422,0.012778716,0.14619486,0.04216471,0.22415315,-0.03810057],[-0.025369506,-0.12086793,0.0088856695,0.08730157,-0.110457204,-0.0879691,0.07618926,3.7531473E-4,0.052525666,-0.08523625,0.089900576,-0.0023829944,0.010752754,-0.1398552,-0.0248362,-0.13513488,0.013546491,0.014276951,-0.021795247,0.015923135],[-0.16835044,-0.0054994626,0.08123191,0.1458845,0.038713835,0.002404996,0.11462334,-0.043477822,-0.047536444,0.16064797,-0.1174037,-0.05481753,-0.27936646,-0.02715481,-0.11851269,0.038724564,-0.051451694,-0.05615991,0.14631267,-0.054236308],[0.11169905,-0.026782274,0.18010284,-0.0017065554,0.11712522,6.125829E-4,0.072827704,0.178043,0.02738258,-0.03247892,0.12219263,0.10282022,0.07242307,0.13973229,0.011655011,-0.036250766,0.20197839,-0.03313636,-0.04538482,-0.060910866],[0.03881864,-0.05894677,-0.03347709,0.06579588,0.008661565,0.034791477,0.07190505,-0.052807156,-0.03670408,0.068918444,0.12582952,-0.1567873,-0.0070663467,-0.11803176,-0.14987291,-0.11640397,-0.069672704,0.034290597,0.14753525,-0.13113755],[0.05466836,0.0013333007,-0.012433917,0.07670922,0.018790143,-0.18587942,-0.013761942,-0.08964094,-0.062789455,0.1100558,-0.06712592,0.007933738,-0.18234405,0.09917107,0.12700629,0.10888073,-0.11507632,-0.019745987,-0.07569906,-0.07495825],[0.2268727,0.09161562,0.120376915,-0.0071570696,0.012162342,-0.049889695,0.0526808,-0.027530462,-0.12611055,-0.02534149,-0.120485306,0.16247952,0.03181877,-0.008749202,-0.13341916,-0.0014238339,-0.12925766,0.027851256,0.039480172,-0.084762834],[0.050359726,-0.042437915,-0.044303823,0.08194119,0.0021825486,0.15150224,0.12711363,-0.011920402,0.032743115,0.04790175,0.100415066,0.046942133,-0.021884032,0.017905174,-0.032268338,-0.039216775,-0.044947382,-0.08637057,-0.21726894,0.056225114],[-0.15824117,0.13734698,0.004694436,0.03772027,-0.06754824,-0.23940971,0.13863602,-0.0051333266,-0.1309106,-0.018892754,0.14745979,-0.17084116,-0.1161419,-0.11729406,-0.09880625,-0.090963185,0.060311858,0.027480762,-0.12055631,-0.08947904],[0.053119637,0.052170105,-0.004498602,0.18706681,0.08186615,0.058303986,0.15150946,0.12444564,-0.1681627,-0.080184,-0.117754176,-0.11668772,-0.07901758,-0.15067436,0.24236032,-0.13935404,0.057919327,-0.13092354,0.1621555,0.03059384],[-0.095338166,-0.10449309,0.10722821,0.12416636,-0.08015443,0.083664,0.0783728,-0.28766716,-0.077904604,-0.049958706,-0.06170578,0.08477723,0.07876642,0.011691323,-0.074542366,-0.10467345,-0.12321501,0.023622675,-0.018024025,6.272432E-4],[0.16621514,0.2019563,0.028030854,-0.06579474,0.12786232,-0.07485306,-0.033841215,0.02675498,0.063545,0.0051787877,0.027916325,0.05052013,0.006586999,-0.013192565,-0.10479198,-0.07354822,0.013730661,-0.076362565,-0.2197199,0.08181931],[-0.03990212,0.14637458,0.020506922,0.09810276,-0.013574441,-0.10394701,0.29549056,0.0969013,0.0036571824,0.02138863,-0.009470336,0.048855368,-0.1709362,0.19557847,-0.074364364,0.14043714,0.033476282,0.18852976,0.0013009257,0.18526359],[-0.07791428,0.014317742,-0.080235556,0.05038563,-0.019770443,0.22855592,0.022948025,0.05172335,-0.14561722,-0.20489688,-0.19428001,0.03351937,0.08246302,-0.049052596,0.042032536,0.11390037,-0.28858605,-0.020050991,-0.3060885,-0.012998201],[-0.004624971,0.059876177,0.018483862,-0.055843003,0.04671206,-0.10909833,-0.10019631,-0.104932554,-0.106463246,-0.052046716,0.07011655,-0.18890363,0.05757817,0.057067197,0.017316727,0.14542767,-0.08534439,0.065006524,0.042787366,-0.0821121],[-0.33768037,0.14085166,0.0752172,0.16701628,-0.055137023,0.0905962,0.028069437,-0.001793169,0.120373875,-0.003625771,0.09067401,0.24699134,-0.04313873,-0.10450779,-0.009354153,0.15893328,0.094954915,-0.057039324,0.03404417,-0.0075848005],[-0.11832453,-0.17198168,0.08263679,0.0795016,0.039520826,0.25230858,0.022751017,0.0638885,-0.107128546,-0.06550557,0.103882946,-0.06130343,0.0037041018,0.025501538,-0.010913014,0.1277042,0.22838785,0.09843679,-0.04686068,0.026138391]]},{"biases":[0.08932756,0.10026247,-0.059273362,-0.11048652,0.010730427,0.023907118,0.12729555,-0.16510512,-0.24710588,0.09513138],"values":[0.0,0.0,0.0,0.0,0.0,0.0,0.0,0.0,0.0,0.0],"inputWeights":[[-0.15109305,-0.02029459,-0.025730263,-0.029789772,-0.0036019308,-0.09926784,0.1031817,-0.016721064,-0.009119896,0.0035630544],[-0.13799714,-0.107367516,-0.2677566,-0.030499652,-0.252201,-0.1130262,-0.01811817,0.041205816,0.034657273,0.18344386],[-0.21272415,0.07788745,0.12320248,0.16973849,-0.22565825,0.1415545,0.032462295,0.118054695,-0.14135706,-0.094818935],[-0.2233556,0.21328558,-0.04899559,0.040436815,-0.091602564,-0.15375127,0.09663662,-0.20074154,0.31390715,-0.028299741],[-0.0055651553,-0.08431057,0.104605384,0.12481442,-0.04162922,-0.026669541,-0.07018199,0.16470842,0.006618256,-0.078604884],[-0.023527104,0.038176432,-0.027451517,-0.0055827997,-0.056578264,-0.03733231,-0.20215188,-0.022822991,-0.0661076,0.04256386],[0.080410115,-0.11467408,-0.091394216,0.08155546,-0.086301915,-0.07166709,0.15323058,0.055559393,0.016319547,-0.043230895],[0.030126546,0.054364663,-0.26214418,0.033363402,0.061997958,-0.19005755,0.057795852,2.5566755E-4,-0.028259182,0.13692598],[0.011937539,-0.081378385,-0.019208305,-0.009031456,-0.062200647,-0.14825726,-0.070563585,0.19062302,0.08178861,-0.087889515],[-0.079599574,0.04416722,-0.03812831,0.012107634,-0.12507308,0.078837015,-0.10508611,-0.07497716,-0.13519989,-0.030155519]]},{"biases":[-0.029650869],"values":[0.0],"inputWeights":[[-0.031268224,0.12972619,0.040153358,0.034040518,-0.07410126,-0.004029866,-0.05376256,-0.033989124,0.06664917,-0.08835025],[-0.114539616,0.07164302,-0.08393618,-0.010212793,0.074291825,0.07272438,-0.11020273,0.12457327,0.047510818,-0.116875336],[0.090179235,0.069858655,0.0281405,-0.19725479,0.028225258,-0.10942577,0.1611943,-0.21132256,0.04813018,0.31696567],[0.047643565,-0.1130729,0.04992426,-0.023670007,0.12069837,0.050167613,0.009677117,-0.17496282,-0.06189699,-0.038566686],[0.022815721,-0.07884115,-0.20816301,0.11816934,-0.025147969,-0.119303375,-0.07483225,0.03557907,-0.05268686,-0.015346752],[-0.057512477,-0.1175914,-0.010148462,-0.091682985,0.121935904,-0.041037697,-0.084558025,-0.0013048261,0.0264063,0.0030979684],[0.017160008,0.08207063,0.13320558,0.072214656,-0.022702836,0.087614484,-0.13586234,0.043261427,-0.14581983,0.033562995],[0.005372609,-0.18808052,-0.034573812,0.10669219,0.18110396,0.15164202,0.05808054,0.070146896,0.014534293,0.059653457],[-0.09022709,0.08528051,0.090294465,-0.007680869,-0.0010840098,0.031676285,-0.096084125,-0.03701021,-0.10854039,-0.0030333642],[0.060242128,0.091047205,0.08503249,-0.078362465,-0.022653226,0.20770504,-0.032942634,0.16079812,-0.08736208,0.10500525]]}]}},{"fitness":0,"neuralnetwork":{"inputLayer":{"biases":[0.0,0.0,0.0,0.0,0.0,0.0,0.0,0.0,0.0,0.0,0.0,0.0,0.0,0.0,0.0,0.0,0.0,0.0,0.0,0.0],"values":[0.0,0.0,0.0,0.0,0.0,0.0,0.0,0.0,0.0,0.0,0.0,0.0,0.0,0.0,0.0,0.0,0.0,0.0,0.0,0.0]},"layers":[{"biases":[-0.11568913,-0.017076781,-0.0031214803,0.13763367,0.037622824,-0.048691303,-0.0174441,0.041712284,-0.091427125,0.06160756],"values":[0.0,0.0,0.0,0.0,0.0,0.0,0.0,0.0,0.0,0.0],"inputWeights":[[0.12464492,-0.08315222,0.09507919,-0.052166857,0.02997749,0.054572392,-0.07714103,-0.023461595,-0.02525683,-0.051589523,0.09313097,-0.16918214,-0.117530614,0.034225516,-0.112617955,0.15105888,-0.20244008,0.048279077,-0.19533905,-0.00837511],[0.048865844,-0.051260944,-0.06985725,-0.0076847817,0.067284495,-0.12580921,-0.15018034,-0.081695415,0.093697056,0.060061388,-0.03739525,-0.006779738,0.12433956,0.0078474255,-0.035828784,0.057868563,-0.043263715,0.0012870233,-0.066382185,0.035543106],[0.10850661,-0.24710537,0.01218532,0.17065492,-2.762309E-4,-0.047756184,0.014230491,-0.055947825,-0.053482298,0.022007305,-0.005956254,0.06954207,0.18570031,0.031059682,-3.7438402E-4,-0.13306037,0.08406954,-0.02683008,0.020415701,-0.011772783],[0.05583278,0.13694817,-0.002005831,-0.02000908,0.049806442,-0.032207496,0.059195016,0.064730555,-0.15423366,0.07202275,0.0932959,0.012927652,-0.020899894,0.044074576,-0.02260983,-0.058812764,-0.06361616,-0.14964233,0.0031592743,-0.1568121],[0.008077222,-0.15320738,0.12413833,0.15156198,-0.06672447,0.019229265,-0.017368069,0.02314955,-0.14623035,-0.021061618,0.10989227,-0.21997163,0.07935826,0.140051,-0.05222594,0.09914452,-0.0045518475,-0.043575283,-0.04266661,-0.06149693],[0.08271789,-0.06117809,-0.008398236,-0.10980567,0.07462075,0.08476545,0.14690873,0.11117703,-0.025625328,-0.2585854,-0.046283644,0.041965477,-8.244051E-4,-0.014723813,-0.10271089,0.008034955,0.09927275,0.08743445,0.05857577,0.19750935],[0.15016128,-0.043516252,-0.0762238,-0.06949083,-0.14501889,-0.06712197,-0.099767946,-0.06385195,-0.21222338,0.08375919,0.1379219,-0.08382308,0.06149482,-0.1263194,0.07887991,0.119879395,-0.016493324,0.017514396,-0.0625477,0.032550767],[-0.10246562,0.15120046,-0.0716031,-0.13668132,0.06687529,-0.09473453,-0.04876056,-0.012193474,-0.10590736,0.087684326,-0.049483966,0.0011352266,0.04783917,0.06831952,0.06707105,-0.076976836,-0.08562522,-0.069404654,-0.20595674,-0.041844063],[0.05701486,0.22893612,-0.1425159,-0.003735552,-0.13192794,0.048285298,-0.016853156,-0.105993375,0.11105815,0.07013132,0.1103783,-0.045428727,0.077182084,-0.084501326,-0.09754268,-0.12336297,0.052177526,-0.14214417,-0.26593685,-0.119038455],[0.11106764,0.07905729,-0.015026075,0.047122356,-0.0874091,-0.025368301,0.070382565,0.05228103,0.1476079,0.11488597,0.12670818,-0.0874247,-0.015377867,0.09367979,-0.0264164,-0.062776744,-0.028959366,-0.11080135,-0.10834116,-0.08197094],[-0.016219977,-0.084411345,0.004510018,0.073222734,-0.06063335,0.061920747,-0.009314781,0.11524576,-0.029489687,-0.0071995202,-0.0042368625,0.0040422496,0.09195668,0.16090432,-0.024606494,-0.023533173,-0.10476801,-0.019678373,0.13644032,-0.1912786],[-0.097664826,0.20780393,-0.1203942,0.060879152,-0.18851697,-0.113533415,0.08644534,-0.1110993,0.017755868,-0.1734652,0.17860276,0.046623237,0.03256905,-0.0049319663,-0.16703889,-0.1327918,-0.07653182,-0.1167958,-0.08847612,0.021054097],[-0.03920768,-0.016170602,3.458356E-5,0.0018785931,-0.12145388,0.012129321,-0.049197137,0.18067312,-0.07221629,0.016471084,0.08592937,-0.0666557,0.041125912,-0.11287326,0.023630038,-0.022047635,0.045180473,-0.048430998,0.04249462,-0.014426196],[-0.078607194,0.05605,0.18706302,-0.022316981,-0.109092414,0.0032688077,0.08749077,0.1441085,0.1467051,0.012163128,-0.045017444,-0.14448981,0.056248307,0.16391572,-0.026456792,-0.054205023,0.10367561,-0.047788925,0.14896762,0.105915725],[-0.08747687,0.0035189656,0.044498146,-0.086629,0.03178268,0.18195434,0.17385252,-0.01128399,-0.039008074,0.07079603,0.08373511,0.05559891,0.010715665,0.00961934,-0.1701368,-0.07663892,-0.19761439,-0.013856423,-0.12432071,-8.95649E-4],[0.2443653,0.14093684,0.064749725,0.06086297,0.17835025,-0.012355706,-0.10438424,-0.016859889,0.052821435,0.15916687,-0.15951684,0.11476351,-0.15495652,-0.13144542,-0.08502389,-0.1433608,-0.025605796,0.0910244,0.1496145,-0.062345166],[-0.0422277,-0.10880582,-0.12262129,0.11338738,-0.11536445,-0.06918174,0.059874646,0.0063993824,0.16491279,0.2897724,-0.24336076,0.006371946,-0.19197553,0.19966237,-0.009226801,0.07080468,0.027962957,-0.0312061,-0.03142568,0.0896002],[-0.20177993,-0.27764684,0.087144494,-0.084075645,-0.17698607,-0.043021087,0.21813965,-0.11909785,0.067483746,0.090269975,0.10629127,-0.071323454,-0.053355504,0.014285002,0.09219738,-0.144688,0.014140785,-0.07440726,0.17773633,-0.03410367],[-0.06080406,0.103947036,-0.044104733,-0.034110352,-0.12580684,-0.005601787,0.16629164,-0.11018187,0.15290478,0.14022435,0.06802241,-0.044247128,0.0236955,0.12121447,0.14257729,-0.09781704,0.05415244,0.16511098,0.20957977,-0.013010161],[-0.03486391,-0.10930356,-0.10143545,-0.17831503,0.07523523,0.22445098,-0.10251838,0.19717199,-0.040285606,0.0017750933,0.05058216,-0.2662429,-0.17543356,0.025524747,0.086409464,0.0037984056,0.16636004,0.17510444,-0.03160574,0.08351632]]},{"biases":[-0.038471352,0.018342678,0.1363344,0.04315573,0.115333006,-0.048948117,0.026213016,0.06432179,-0.09708534,0.012661874],"values":[0.0,0.0,0.0,0.0,0.0,0.0,0.0,0.0,0.0,0.0],"inputWeights":[[0.14407447,0.040997397,-0.052841756,-0.07161182,-0.20695911,0.17651166,0.254014,0.05398772,-0.14368695,-0.0046705166],[-0.01334418,0.06325499,-0.037804138,-0.08785593,0.02290487,0.029473897,0.026359858,0.047138218,0.12949541,-0.0717726],[-0.08648605,-0.019595122,0.027001062,0.10488838,0.008282898,0.0111373225,0.04360479,0.08994797,0.041350324,0.08194711],[-0.102838695,-0.057150144,0.08012904,0.27388182,0.010861109,-0.24278,0.025755657,-0.038728636,0.06966218,-0.21342728],[0.13206549,0.035012867,-0.0052542835,-0.1332106,0.09970112,-0.031029738,0.09757837,-0.11043373,-0.07029476,-0.04307347],[-0.011637456,-0.14360946,-0.03941985,8.038284E-4,-0.0067327255,0.090779155,0.09149419,-0.15611236,0.07034233,-0.09618261],[0.009649971,-0.06736409,0.03592952,-0.0903808,-0.03538167,-0.07375114,-0.071101926,0.10667152,-0.2013072,0.06596846],[0.18743439,0.049502555,0.032532234,-0.110344596,0.07694993,-0.1043188,-0.12670426,-0.056281537,0.002774207,0.045093894],[0.15466256,0.013642766,0.02958038,-0.025364392,0.106824964,-0.0061423406,0.020127553,0.0055185137,-0.067764804,-0.05054889],[-0.102643214,0.108376816,0.035253644,-0.10226494,-6.92306E-4,-0.14028667,0.10385751,0.055981793,0.014629516,-0.08811315]]},{"biases":[0.0911365],"values":[0.0],"inputWeights":[[0.25561896,-0.048542302,0.014284282,0.09764593,0.114655405,-0.053365484,0.056908607,0.03924235,0.074581966,-0.19103327],[0.13731006,-0.14665708,0.05479918,-0.0035218408,-0.10091047,-0.107422024,-0.031266402,-0.037872087,0.075651765,-0.19864915],[-0.030138902,0.020181771,-0.06729639,0.17550889,-0.16265866,-0.008843965,0.13610573,-0.15369661,-0.018310538,0.031453155],[0.033276588,-0.080435894,0.0055971174,-0.10551524,-0.03038685,-0.116288215,0.08136564,-0.0051355395,0.14698029,-0.15224436],[-0.020725008,0.0379976,-0.09762238,0.12150222,-0.117567755,0.16402858,-0.1991822,-0.07063068,0.016936636,-0.13815488],[-0.0892355,0.082675695,-0.13020653,-0.08251416,-0.055716246,-0.030520886,-0.24645014,-0.07278615,0.048617657,-0.14488637],[-0.08729427,-0.045961577,-0.023355238,0.0804233,0.13683498,0.068896085,-0.08790423,-0.12417619,0.1721097,0.116814494],[-0.004738957,-0.0904701,-0.04700254,0.14456026,-0.04417249,0.017622218,-0.09004704,-0.029931763,-0.06607079,-0.072959],[0.08719184,-0.059677538,0.09432467,-0.1614626,0.07665028,-0.054891407,-0.10379231,-0.028600533,0.021848345,-0.13178034],[0.081315085,0.014918202,-0.1858996,0.006388626,0.10039269,0.05349839,0.23200822,0.0031878396,0.15131094,0.076906286]]}]}},{"fitness":0,"neuralnetwork":{"inputLayer":{"biases":[0.0,0.0,0.0,0.0,0.0,0.0,0.0,0.0,0.0,0.0,0.0,0.0,0.0,0.0,0.0,0.0,0.0,0.0,0.0,0.0],"values":[0.0,0.0,0.0,0.0,0.0,0.0,0.0,0.0,0.0,0.0,0.0,0.0,0.0,0.0,0.0,0.0,0.0,0.0,0.0,0.0]},"layers":[{"biases":[0.03703149,0.3186056,0.04522677,-0.017077146,0.0011497047,0.18513283,-0.11077271,0.0040292726,0.050243784,0.05849867],"values":[0.0,0.0,0.0,0.0,0.0,0.0,0.0,0.0,0.0,0.0],"inputWeights":[[0.045004822,-0.11977531,0.011486854,-0.022289397,-0.05594467,-0.029986477,-0.013049236,-0.09804117,0.076321006,-0.08854821,-0.08446073,0.012984461,0.24341819,0.009103151,-0.081802465,-0.0956174,-0.04839631,0.09011421,0.079035595,0.1550548],[0.07374877,-0.06898526,-0.024243768,-0.13877118,-0.056390814,0.014558851,0.11182706,-0.083879754,0.04499424,-0.14232334,-0.06142065,0.15205985,0.14008747,-0.035669457,0.08509655,0.08816838,-0.01747617,0.04611048,0.08033496,-0.07980137],[0.0045508216,-0.023376977,-0.07248451,0.064772196,-0.033030912,0.15335028,0.025129803,-0.027243951,-0.09456671,-0.052019767,0.23759688,4.4197275E-4,0.05751777,-0.15414101,-0.077189445,-0.015783062,0.11417748,-0.18684073,0.038422074,0.009238798],[-0.09561015,-0.1063597,-0.025061192,0.07780092,-0.14781743,0.07522286,-0.06850906,0.05351867,-0.16706002,0.01525345,0.014274047,0.011692933,-0.024224091,0.16348249,0.113068275,0.012503008,-0.08901735,0.04232334,0.07379252,0.13578942],[-0.22738804,0.07281533,-0.0017926978,-0.019603401,-9.931478E-4,0.005837922,-0.005238058,0.01918045,-0.044054836,-0.17451099,-0.006466656,0.06866485,0.06810869,-0.038405083,-0.02175694,0.16176644,0.0829547,-0.22391003,0.12904716,0.03434605],[0.01658093,-0.1095169,0.074044704,-0.06430073,0.04977706,-0.011952718,0.03240016,0.09218836,0.022009218,0.12930483,-0.17147648,0.019657277,0.0285743,-0.13634135,-0.03168556,-0.049336694,0.0935436,-0.0900852,-0.08023198,-0.023194885],[0.22423841,0.023244346,-0.13936763,0.05484673,-0.17825446,0.045866974,0.020619554,0.03701234,0.08698529,0.028966859,-0.0014940435,0.042779453,-0.018037971,0.0026699246,0.10908228,0.13443851,-0.076248884,0.122849405,0.0329806,-0.081193544],[-0.058889426,0.09964063,0.035828937,0.13180785,-0.10869958,0.16686381,0.02791112,-0.021413168,0.005178494,-0.018170217,-0.08986551,0.053327333,0.04139916,0.05258551,0.0923968,0.044912715,0.22948003,0.09796125,0.07729486,0.024594797],[-0.06694133,0.26402262,0.055005834,0.071541324,-0.07287816,-0.12074003,-0.0052534486,0.049383353,-0.23096515,-0.23744527,-0.06690658,-0.020059196,0.0651073,-0.22880213,0.032293703,0.114959285,-0.042189915,0.006974293,-0.07018411,0.09264567],[-0.20455447,0.063259214,-0.022388322,0.08347305,0.03442455,0.06185872,0.0911105,-0.18061544,-0.056419075,-0.044229824,-0.24034356,0.1431813,0.032346934,-0.07927831,0.09180858,0.15943272,-0.03177969,-0.13790002,-0.069849715,-0.031390492],[0.01637713,0.06697652,-0.058637064,-0.033843648,-0.045275703,-0.10025241,-6.091188E-4,-0.16785531,-0.09004882,0.09551991,0.10027686,-0.04440736,0.064057365,0.027782163,-0.009037004,-0.07908051,-0.10130812,-0.13930427,0.13435699,-0.05842919],[-0.02530011,0.19186196,0.11472919,-0.023942504,-0.037858464,0.06100062,-0.17595981,0.18210265,-0.048360243,-0.015517366,-0.06139442,-0.031510673,-0.09558936,-0.07330527,0.0601825,0.04963576,-0.12923022,0.07313391,-0.037285518,-0.03577499],[0.026114887,-0.07700523,0.06001508,0.017559847,-0.14935566,-0.05439117,-0.10636027,0.028344985,0.18846579,-0.026311822,-0.14429156,0.03011213,-0.13722944,-0.071390964,0.109581195,-0.06875224,0.061931357,-0.14484078,0.14987084,0.14205661],[-0.07515315,-0.017594026,-0.1317811,-0.10063981,-0.016051006,-0.11287743,-0.009201344,-0.084484555,-0.058095016,-0.05699276,0.20314783,0.16096416,0.05668331,0.14518979,-0.11152332,0.04015323,0.0029857783,0.12186262,-0.015852744,-0.06440748],[0.06093453,0.0106402105,0.07404313,0.049673017,-0.045282986,-0.05745756,-0.07952504,0.16438463,-0.086846545,-0.020680988,0.08772059,0.06769198,-0.20252077,-0.034233894,-0.2276748,-0.02952494,0.0916222,0.010368908,-0.005757458,-0.096728556],[0.09730853,-0.06438995,-0.09630371,-0.10707094,-0.058319423,0.10083256,0.03742381,-0.10540231,-0.13654062,0.21605246,-0.0077810953,0.0050063203,0.016966755,0.0624517,0.0791571,0.0849189,-0.0242588,-0.029123658,0.119375646,-0.039921932],[-0.0473737,0.08762245,0.045899607,0.18308264,-0.070381574,0.07086468,0.19051169,-0.14980102,0.055330984,0.19104089,0.1272878,0.018220838,-0.07198348,0.18794166,-0.19381669,0.0053292913,0.13941301,0.13774255,0.043489203,-0.115041435],[0.03972361,0.013616161,0.03871636,0.07810526,-0.025119776,0.12899573,0.0109479595,0.07098805,0.07952214,-0.107791506,-0.006240674,0.065075465,-0.024683667,-0.011482643,-0.0068783313,0.019803405,-0.122047365,-0.25469708,0.21070918,0.016803483],[-0.10125927,0.046656787,-0.06539809,-0.009092837,-0.13350746,0.108080655,0.20615272,0.09427564,0.06687816,0.13450968,0.11722993,0.07569682,0.09287203,-0.1158369,-0.14085104,0.027526394,-0.10597473,-0.04976413,0.02384331,-0.0965901],[0.13810073,-0.096284166,0.02640934,0.009250921,0.011595499,-0.13857189,0.043168906,0.13909747,-0.057488058,0.054536104,-0.14564513,-0.18849586,-0.03229243,0.070650235,0.12553768,-0.049509477,0.06479529,0.02987437,0.017761996,-0.056887638]]},{"biases":[0.103366576,0.15109566,-0.026729982,0.08985105,0.09382447,0.1317903,0.00820432,-0.01011519,0.07675448,-0.038240276],"values":[0.0,0.0,0.0,0.0,0.0,0.0,0.0,0.0,0.0,0.0],"inputWeights":[[-0.037177805,-0.20664223,0.01144558,-0.09414773,0.078614734,-0.03858978,-0.023306249,-0.09307896,-0.12494755,0.111698635],[-0.08270093,0.16029553,0.035336584,0.07672462,0.094261505,-0.24334456,0.049477495,-0.18417907,0.052330896,0.06432218],[-0.017895607,-0.10760623,0.026533825,0.15273415,-0.11415082,0.10375374,0.040581346,0.11426661,-0.10242197,-0.14167204],[0.0029669807,-0.048373297,-0.022852272,0.106965125,0.04115447,-0.13538623,0.009420297,-0.061721865,0.06468893,-0.11696154],[-0.057785135,-0.047082976,-0.034793913,-0.22587535,0.043346018,0.055777803,-0.039895825,0.18607357,-0.050321054,0.09056161],[0.09824012,-0.09058832,0.009432162,-0.07145224,-0.062187307,-0.010543668,0.048601173,-0.055037696,0.017930308,0.004365562],[0.018714571,0.09779614,-0.23866925,0.025722446,-0.19199376,-0.10996168,0.23178963,-0.09015752,-0.18036845,-0.14145966],[0.021109696,0.18992506,0.04610101,0.028317256,0.020607542,0.03393766,0.14869544,0.12078433,-0.10060684,-0.08286984],[-0.0067664576,0.09180563,0.27970687,0.10653602,0.063659534,-0.040036265,-0.1137926,-0.052247908,6.43823E-4,-0.22719076],[0.021817395,-0.03058242,-0.03467098,0.0948949,-0.0042083883,-0.110419236,-0.065553166,-0.021988817,-0.08431688,-0.07826571]]},{"biases":[0.07669241],"values":[0.0],"inputWeights":[[-0.15593141,-0.16507559,0.26713988,0.058392376,-0.061543144,-0.06611948,0.015573857,0.156931,-0.1015027,0.09478434],[-0.09168675,-0.0045024813,0.057979617,0.15565224,2.8365222E-4,-0.19671685,-0.022837121,-0.055915754,-0.043731313,-0.015481077],[0.10527807,0.10063721,-0.002928146,-0.012317987,-0.099445485,0.034111682,-0.05231688,-0.019894395,-0.024995232,0.02445522],[0.02590423,0.06331358,-0.16392784,-0.013715538,0.04139483,-0.06529208,-0.13199177,-0.0023636837,-0.01929463,0.100754626],[0.17575358,0.17593677,-0.12616782,-0.017759347,0.056035265,0.1953826,-0.026081674,-0.1538335,0.08787111,0.2106909],[0.13847208,-0.10133372,0.077269904,-0.009768768,-0.12014712,-0.08091779,0.0753165,0.0029105246,0.22741404,-0.18775648],[-1.7884854E-4,-0.03555125,-0.014054593,-0.031758,0.04894689,-0.056951188,-0.020353725,0.11253763,0.025042512,-0.039872196],[0.05256709,0.06462507,-0.121696256,-0.038118627,0.093159035,-0.07298061,0.18227822,-0.18606913,0.0072842995,0.009407819],[-0.014814479,-0.01806929,0.07262329,-0.08429753,0.056445956,-0.07527626,-0.064923204,0.082028374,-0.16246268,-0.16159378],[0.10315268,-0.06803439,0.1284382,-0.07863923,-0.27564126,0.031775173,-0.10910239,-0.014774104,-0.0011332335,0.050656337]]}]}},{"fitness":0,"neuralnetwork":{"inputLayer":{"biases":[0.0,0.0,0.0,0.0,0.0,0.0,0.0,0.0,0.0,0.0,0.0,0.0,0.0,0.0,0.0,0.0,0.0,0.0,0.0,0.0],"values":[0.0,0.0,0.0,0.0,0.0,0.0,0.0,0.0,0.0,0.0,0.0,0.0,0.0,0.0,0.0,0.0,0.0,0.0,0.0,0.0]},"layers":[{"biases":[0.047107857,-0.119985834,0.21185894,0.07982357,0.12256811,0.030583939,0.0901974,-0.085138835,-0.04838474,-0.022420041],"values":[0.0,0.0,0.0,0.0,0.0,0.0,0.0,0.0,0.0,0.0],"inputWeights":[[0.014590048,0.06395877,0.12097467,0.011178079,-0.063281015,-0.117927976,-0.18477072,-0.0075142803,0.1052915,-0.02997957,-0.0531163,-0.21706104,0.12391167,-0.048980467,-0.077711426,0.09553809,0.01400442,0.21639521,0.091310486,0.08156736],[0.07050788,0.17486566,-0.047640588,0.05298633,0.13153334,0.20138106,0.034980197,0.06939271,-0.11483289,-0.012944503,-0.044327248,0.026970819,0.21798435,-0.081365086,0.012709306,0.06419293,0.07359214,0.20468229,-0.03878121,0.09553451],[0.102588154,-0.13664794,-0.06138152,0.026048334,0.012897708,0.019624624,-0.10823647,0.09143749,-0.046064783,0.13786092,0.03394381,0.082848184,-0.043108005,0.1514139,-0.21654466,-0.04277157,0.15811568,0.04504728,0.16480277,0.11036757],[-0.1538238,-0.012142606,0.18179199,0.17090695,-0.006620698,-0.029172845,0.05207982,-0.07583807,0.0890912,0.16339496,-0.09380199,-0.02656884,0.04577611,0.091999486,0.11801999,-0.04525094,-0.12939937,0.17505178,-0.064660266,0.22268379],[-0.022472931,0.29226455,0.12688597,0.112412885,0.114981525,-0.033255234,0.10424975,-0.019312479,-0.014000693,-0.018024342,-0.12512913,-0.081149206,0.23309909,0.13815254,0.062267832,-0.018875506,0.07639583,-0.13163482,0.015860178,-0.04090045],[-0.015349342,0.12968871,0.0035517311,-0.06440968,0.067914285,-0.0021270919,0.08063037,-0.10764208,-0.16942215,-0.031097757,-0.13303837,-0.17214717,0.12762398,-0.014783507,-0.056863174,-0.05587724,-0.037485696,0.11387024,-0.28900158,-0.014282119],[-0.06967221,0.15951413,-0.10272984,0.08606593,-0.09764014,-0.052301303,-0.0053076316,-0.065787524,-0.08290696,0.10105478,-0.021541996,-0.11201709,-0.0065798126,-0.07330243,0.08589296,-0.23463209,0.04598634,-0.014918929,-0.04561051,-0.091823675],[0.09074316,-0.0172247,0.044105414,-0.06379652,-0.10733314,-0.046863347,-0.025729999,-0.07743954,0.046308763,0.023930902,-0.10177402,-0.08763787,-0.030512935,0.12065686,0.1392774,0.020543562,0.2004047,0.011214819,-0.059937116,-0.033277635],[-0.085555725,-0.062012907,-0.13338123,-0.12204837,-0.05435014,0.09539157,0.13541356,0.07948917,-0.22941928,0.1066699,0.002898939,-0.064468496,-0.11040172,-0.19275233,-0.25426647,0.049738135,-0.084367126,-0.051263776,-0.15190063,0.039783016],[-0.088027686,0.051572464,-0.09881366,0.09013874,0.072246864,-0.07093236,0.12916,0.09049755,-0.0085349735,-0.03418394,0.0033397926,0.12420373,-0.059071716,0.13047108,-0.009377695,-0.17195804,0.098750986,-0.040509183,-0.04372622,-0.08241023],[0.13150913,-0.018829482,0.06189086,-0.114737436,-0.037297957,0.1614009,-0.010970454,0.050781775,0.018385753,-0.08162093,0.013455193,0.11629569,-0.044452626,0.033646833,-0.08540821,0.08330759,0.07979003,-0.24241877,-0.07836159,0.109714784],[-0.10018391,0.10500188,-0.048440788,-0.1261211,-0.03850518,0.2955122,-0.1812568,0.064947285,0.045045998,-0.15241922,0.028072527,-0.04394147,-0.12867674,-0.08489339,-0.0422901,0.19609866,0.19573958,0.06593449,-0.029225588,-0.08522691],[0.117291056,0.07231671,-0.038585994,-0.019007107,0.052450243,0.029988546,0.035688337,0.06795456,-0.0014575667,-0.10476468,0.013053503,0.067136206,0.0095058475,0.12032136,-0.0057831635,0.10630014,0.042516045,-0.12201847,0.1024681,-0.05885722],[-0.11918163,0.031014165,-0.122239895,0.073815934,0.094264776,0.12381383,-0.12876745,0.11929476,-0.040238496,0.07801666,0.003265808,-0.08612834,-0.114065714,0.114141665,-0.1447589,0.024419662,0.10546836,-0.062003516,0.27381742,-0.0057689175],[0.01812539,-0.17725281,5.815123E-4,-0.14456356,-0.07065026,-0.013281623,0.05181129,-0.008084066,-0.23384085,0.08183762,0.09638178,0.04190694,-0.13896017,0.02266282,0.07415839,0.088459566,0.048379686,-0.032725904,0.10343065,-0.12549607],[0.15506446,-0.04436423,-0.1272585,-0.0033880428,0.17782305,0.06318044,-0.14068362,0.021136338,0.11174431,0.23372391,-0.048640482,-0.02502177,-0.12871075,-0.00111585,-0.109340616,-0.02272114,-0.03870561,0.0060880957,-0.0039657694,-0.05108543],[-0.067718945,0.13043034,0.06691833,0.006490495,-0.0075522684,0.051984977,0.041614205,-0.15863328,-0.031676892,-0.033331286,0.12943767,-0.065090984,-0.13627756,-0.07511278,0.043893937,-0.054722402,-0.020314338,0.067185484,0.12810346,0.037889637],[-0.009032873,-0.07196914,-0.124482095,-0.006161625,0.08856603,0.05781426,0.07578511,-0.087138355,0.023231046,0.14814778,0.098006,-0.13375852,-0.17419639,-0.092722535,0.018746644,0.15779175,-0.079779096,-0.027346728,-0.24865398,-0.0017595515],[0.036508523,-0.04450915,0.053255294,0.06418631,-0.027488075,0.06859113,0.014505312,0.12724604,0.050618935,0.07359798,-0.025383646,-0.088367596,0.069182985,0.0726949,-0.08844228,0.06007205,-0.04883167,-0.068289764,-0.00638931,-0.099651664],[0.08905947,0.098520994,-0.24660587,-0.0072920253,0.045043778,-0.022359733,-0.05193418,-0.038035918,0.07040667,0.09148406,-0.025328768,-0.056782138,-0.113333225,0.06113038,-0.07539192,0.11362638,0.07595918,0.037925128,-0.047768444,0.110531986]]},{"biases":[0.091311276,-0.037553158,0.024066817,0.13599738,-0.035725668,-0.024066482,-0.09264202,0.02039559,0.11859539,0.13069314],"values":[0.0,0.0,0.0,0.0,0.0,0.0,0.0,0.0,0.0,0.0],"inputWeights":[[0.01762448,-0.060104143,0.09499798,0.03567567,0.018023873,0.102070756,-0.096677355,-0.018517511,0.024976037,0.05961514],[-0.110503525,0.16711183,0.029609155,-0.037944593,0.0080324225,0.16332465,-0.027434986,-0.024993079,-0.015882418,-0.06847354],[-0.07411202,0.010930565,-0.11382292,-0.13939899,-0.027310122,-0.06618014,0.115602374,-0.19403154,-0.107966006,0.026180843],[0.034982372,0.025234511,0.14362854,0.07739253,0.047020275,-0.035061963,0.038061295,0.030629708,0.053469293,-0.09010421],[-0.11833192,-0.02136444,-0.12379058,-0.02599711,-0.15346466,-0.02105283,0.046012763,0.011442744,-0.27267697,0.1185551],[0.089209534,0.011426765,0.03653281,0.124176,-0.1255181,-0.2360297,-0.09975148,0.07109116,0.12599804,-0.15692762],[0.21397576,-0.009634821,-0.04655769,-0.07526511,-0.1075464,0.3252456,0.034858413,0.12959248,0.15453504,0.2509423],[0.05148241,-0.10822727,-0.08974003,0.083237946,0.119697355,0.03608323,-0.18796699,-0.02426833,-0.039814427,0.016573511],[0.028942201,0.05213625,-0.074895024,0.16990371,-0.06685726,0.017063636,0.04587391,-0.043917216,-0.11316609,-0.015364016],[0.10171053,0.056653965,0.021508241,0.026901212,-0.07897058,-0.07249842,-0.0882893,0.005819936,0.19755396,0.022288505]]},{"biases":[-0.07046458],"values":[0.0],"inputWeights":[[-0.029763388,0.03456821,-0.039134532,0.024293661,0.052988455,-0.11388004,-2.3079043E-5,0.11324379,0.1251458,0.2727692],[-0.05818709,0.03841491,-0.13162787,0.04541372,0.034075096,0.020725237,-0.115410775,-0.00922921,-0.07343075,-0.014569978],[0.16336869,0.18620321,0.09064783,-0.0743317,0.00545602,0.03294631,-0.011333362,-0.0864879,0.109017745,0.045634687],[-0.17093162,-0.057591163,-0.1768121,-0.03526982,0.061952073,-0.16335793,-0.0632171,0.079625554,-0.07851549,-0.07513875],[0.080728136,-0.057348777,0.08753211,0.04628659,-0.0073858644,0.070988216,0.06549229,0.00428697,-0.1034299,0.0064449664],[-0.085987456,-0.20923519,-0.06960646,0.066864945,0.07832068,0.16220576,0.002545671,0.0039598453,0.10351033,0.10616184],[0.0076385452,-0.10762924,0.014025896,-0.030447911,0.12746689,0.076572664,-0.21063252,-0.006160083,0.046757795,-0.12802947],[0.14800148,0.19800887,-0.13595304,0.04320743,-0.032557506,-0.16732971,0.011103323,0.01610792,-0.2566323,-0.028031139],[0.06613439,0.02880976,0.1110802,0.008118594,0.06181143,-0.013052008,0.17981255,-0.024121713,0.08462664,0.15231283],[0.06836578,-0.12546486,-0.13854273,0.009201434,-0.03760672,0.01838173,0.11325967,-0.058381584,0.12939237,-0.06158491]]}]}},{"fitness":0,"neuralnetwork":{"inputLayer":{"biases":[0.0,0.0,0.0,0.0,0.0,0.0,0.0,0.0,0.0,0.0,0.0,0.0,0.0,0.0,0.0,0.0,0.0,0.0,0.0,0.0],"values":[0.0,0.0,0.0,0.0,0.0,0.0,0.0,0.0,0.0,0.0,0.0,0.0,0.0,0.0,0.0,0.0,0.0,0.0,0.0,0.0]},"layers":[{"biases":[0.058541805,0.10289526,0.079439804,-0.021811625,-0.098479934,0.08768678,-0.10309718,-0.17811519,0.28265938,-0.10007253],"values":[0.0,0.0,0.0,0.0,0.0,0.0,0.0,0.0,0.0,0.0],"inputWeights":[[-0.050416674,-5.3474435E-4,0.062098168,-0.047947258,-0.20493047,-0.12693262,0.1420588,-0.08661957,-0.077453986,0.017235221,0.10316225,-0.14777675,0.046212334,0.10701493,-7.2949944E-4,-0.1775437,-0.14271447,-0.060637437,-0.04513981,0.008658831],[-0.1298118,0.023189776,0.011573458,0.0585823,-0.021527959,0.07779599,-0.10012276,-0.09931826,0.1644533,-0.01638473,0.11066891,0.09872113,-0.05792566,0.1037521,0.13098066,0.0065877414,-0.11532086,0.07839001,-0.11543483,-0.016428856],[0.10552544,0.002562963,0.117142424,-0.11491549,-0.035771362,0.09301908,-0.042028453,0.11166823,0.1816301,-0.041244518,0.091738194,0.11299506,0.15274014,0.046345517,-3.428176E-4,-0.07278065,0.11553686,-0.117757194,-0.10840322,0.042826537],[0.12871943,0.0707472,-0.04082669,-0.010352971,0.18095033,-0.014520644,-0.12037369,-0.13506588,-0.06330288,-0.14615445,-0.03399986,0.13855685,0.14780971,-0.1545256,-0.09942017,0.07523882,-0.023584649,-0.03274424,-0.118805684,0.06893936],[0.20286371,0.093844354,-0.003838181,0.17989326,-0.0098820105,0.0076945764,0.10023339,0.051821955,0.16453102,-0.071142055,0.006464577,0.14727628,-0.07934011,0.080936246,-0.017448556,0.106705524,-0.029153533,-0.05180228,0.10092919,0.09576419],[-0.12612101,-0.10927233,0.18950564,0.12775436,-0.08186832,0.01166675,-0.015715243,0.08071322,0.07274262,-0.0017486103,-0.063852035,0.048635233,0.016131528,-0.023777906,0.011963003,0.05042613,0.04343662,0.13942198,0.016894786,0.08364094],[0.07083323,0.028441945,-0.012684539,-0.051874224,0.03306585,0.013423081,0.044684317,-0.010118565,0.1949896,0.18133233,-0.21344475,-0.036209352,-0.1263313,0.14108126,-0.0044557406,-0.05080895,0.120754465,-0.03451285,0.12639055,-0.12611842],[-0.015541192,-0.091937564,-0.09670731,0.10150881,-0.05167527,-0.09806027,-0.13906348,-0.08144607,-0.12987278,0.016988097,-0.09100581,-0.09783033,-0.09447711,-0.16576998,-0.00792244,0.32616016,0.0031103445,-0.041789304,0.12601082,-0.08984777],[-0.06710486,-0.08651912,-0.109729655,-0.17143354,0.03660176,0.09719402,-0.045029648,0.1696443,-0.2186212,0.20074244,0.016083896,0.06456663,0.011884177,0.12424104,0.13042371,0.050013006,-0.08381363,0.2512447,0.12259082,0.08854612],[0.0077316184,-0.11550895,0.016442114,-0.14421904,-0.040647913,0.051688127,-0.18568029,-0.051550955,0.26919723,0.13198051,0.13589619,-0.084238045,0.053200614,-0.107090175,0.10506908,-0.14370416,-0.0119699305,-0.1943261,0.069664106,0.010633024],[0.19773994,-0.030898413,-0.14676943,-0.024500633,-0.07030523,-0.09843894,-0.083869606,0.165982,0.20376432,0.06310469,0.17149144,0.06770335,-0.03906276,0.021807827,0.069031954,0.013412659,-0.048693687,-0.11207208,-0.09549204,0.07106656],[0.1366553,-0.08183702,-0.058603145,0.004262704,-0.11452329,0.078413606,-0.015985738,-0.112231344,-0.037428465,0.066428415,0.06284401,-0.038937412,0.006265432,0.1006158,-0.03900206,-0.09119882,0.11804076,0.079227485,0.11099382,0.120721124],[-0.029612925,-0.017500388,0.0200971,0.053038985,0.028642373,-0.01185663,-0.07198432,-0.10741511,-0.046668287,0.092297554,0.1970468,0.230501,0.041982573,-0.032090705,-0.090434015,-0.035150647,-0.04796629,-0.16357209,0.08677362,-0.13050546],[0.05336734,0.0377692,-0.16680996,0.09010774,-0.02885539,-0.013310621,-0.029655993,-0.09633107,-0.041755922,-0.07182478,-0.08499727,0.072273865,-0.081743,0.16521235,-0.06288414,0.009742295,-0.09186236,-0.07310291,-0.1227456,0.1863451],[-0.077655636,-0.05777894,-0.09155632,-0.04901431,0.22069411,0.04152019,-0.21402408,0.088439174,0.13525517,0.20260686,-0.12649783,0.035690304,-0.05409832,0.046709858,-0.0016187787,-0.009335409,0.048614703,0.04028434,0.07412745,-0.048733756],[-0.20439604,0.051365145,-0.075030915,-0.07074237,-0.038111094,0.011382968,0.026971439,-0.17338268,-0.025808357,-0.064112924,-0.1025575,0.13185309,-0.029098002,0.051782515,-0.10357433,-0.07837062,-0.0084158145,0.1092163,-0.012361386,-0.17058471],[-0.08704277,-0.050830808,0.042107966,0.1860294,-0.04333521,0.082239896,-0.084662676,0.069060996,-0.052177962,-0.06577246,0.119659714,0.15935217,-0.0036266146,0.21590918,-0.032779858,0.18447982,0.12370997,0.117649645,-0.10576228,-0.0010098863],[0.09385273,0.049149852,0.04772005,-0.18491946,0.09202794,-0.102280945,0.0148506705,0.16892187,-0.22995798,-0.06295979,0.09643585,0.0012268579,-0.11666207,0.065411314,0.001073624,0.12622298,-0.06421643,-0.15432134,0.08293009,0.049041968],[-0.16093718,0.006757097,0.10051621,0.0514945,0.12174629,-0.034878988,-0.0020525446,0.037132267,-0.013841319,-0.20163494,-0.028900161,0.04102691,0.103866704,-0.010891878,-0.00461258,0.115281425,-0.0760034,-0.1008732,0.15241307,0.044603206],[0.10494028,0.032314286,0.021993417,-0.006044955,-0.16533555,0.110486016,-0.006061561,0.22869845,-0.018107397,0.07148746,0.09729285,0.13768987,-0.09059932,0.10021117,0.09306423,0.055982217,0.12070708,0.011631725,-0.028687205,-0.20324217]]},{"biases":[0.012067894,0.03361151,-0.029842908,0.14625704,0.02728276,-0.13934758,0.06770973,-0.04389596,0.08527531,-0.025845818],"values":[0.0,0.0,0.0,0.0,0.0,0.0,0.0,0.0,0.0,0.0],"inputWeights":[[-0.025957989,0.13435201,0.0034529732,-0.024419561,-0.060211375,0.055041306,0.14542717,0.0519842,-0.0514445,0.07359983],[0.19019528,-0.025357498,-0.030376397,0.027667942,-0.1618428,-0.13415246,-0.1885352,-0.13086793,0.15239736,0.021245686],[0.14317156,-0.11058604,-0.012811466,-0.05352857,0.041421864,0.18950756,-0.13286102,-0.007748441,-0.039258603,-0.06648286],[0.015690526,-0.040681075,-0.005834327,-0.07485569,0.17701435,0.01760024,0.049303498,-0.05607455,-0.053875815,0.0616677],[-0.12437761,-0.14674994,0.09252852,-0.07410451,-0.055430137,0.08804315,-0.13267466,0.009191186,-0.095976375,-0.13591255],[0.030058853,0.019881355,0.030943759,-0.017164385,-0.08304352,-0.004709573,-0.02795846,0.0965199,-0.022880616,0.13836595],[-0.058673497,-0.08144538,0.13748324,-0.1454224,0.010130818,0.19086944,-0.019522712,0.059002567,0.0023250245,-0.15604228],[0.16387534,-0.18875872,0.1541986,-0.057973035,0.09136998,-0.120210856,0.10606838,-0.0063348496,-0.1419334,0.2776359],[-0.018727748,0.15455782,0.046244,0.064041406,-0.10260232,0.010823605,0.12278211,0.07973091,0.037639275,-0.067235],[0.087552875,-0.30033827,-0.036629688,0.030669266,-0.044715486,-0.1790396,-0.03458633,-0.018369194,0.17086574,-0.011297115]]},{"biases":[-0.07726406],"values":[0.0],"inputWeights":[[0.033757526,-0.096101604,0.06756944,-0.17073962,0.06669644,0.16209689,0.039466847,-0.23322372,0.22596923,0.09957784],[0.014396951,0.025015326,0.023778839,0.008842801,-0.009781246,-0.038303275,0.09553948,0.09507908,-0.17718372,0.01530507],[0.06572971,0.006941978,0.3239606,-0.15136535,-0.033590216,-0.065737985,-0.07220072,-0.015323947,-0.09358744,0.011122215],[0.10036621,0.08677505,-0.20382066,-0.053193837,0.13372907,-0.008516832,0.09414709,0.083504125,-0.28826657,0.025271853],[0.04333388,0.03756897,0.094161645,0.020525778,-0.0031438342,-0.1189673,-0.04716773,0.21033326,-0.04052623,0.012299352],[0.025306592,0.05861807,-0.07995315,-0.091946766,-0.103072874,-0.0065209335,0.23554158,-0.04562222,0.07959392,0.05972588],[0.16871879,-0.010685876,0.02969084,-0.034290574,0.24400613,-0.1691127,-0.05635693,0.10473135,-0.068299614,-0.058630295],[-0.10438822,0.07076578,0.18631667,0.12345837,-0.126807,0.027041184,0.07837739,0.2521726,0.08480036,-0.030858511],[0.016793922,-0.075645424,-0.039887413,0.019696012,0.1324872,-0.14269869,0.06271451,-0.1893059,0.07766305,-0.009421266],[-0.013461646,-0.05109939,0.23955633,-0.025714833,-0.16172884,0.062432412,0.090718456,-0.20125355,0.0067631486,-0.15079147]]}]}},{"fitness":0,"neuralnetwork":{"inputLayer":{"biases":[0.0,0.0,0.0,0.0,0.0,0.0,0.0,0.0,0.0,0.0,0.0,0.0,0.0,0.0,0.0,0.0,0.0,0.0,0.0,0.0],"values":[0.0,0.0,0.0,0.0,0.0,0.0,0.0,0.0,0.0,0.0,0.0,0.0,0.0,0.0,0.0,0.0,0.0,0.0,0.0,0.0]},"layers":[{"biases":[-0.004311033,0.10902725,0.07264644,0.26447794,-0.14403422,0.060721807,-0.049333688,-0.021886718,-0.04856834,-0.17603588],"values":[0.0,0.0,0.0,0.0,0.0,0.0,0.0,0.0,0.0,0.0],"inputWeights":[[-0.15861735,-0.09949495,0.07436223,-0.08511759,-0.0501194,0.030202458,0.17924747,0.043685995,-0.077469006,-0.11190796,0.11222714,-0.11782608,-0.097693525,0.22101629,0.021863963,0.08165985,0.027564546,0.17503601,0.12608522,-0.07727822],[0.100771405,0.02066724,0.16980195,0.10699424,-0.0070810206,-0.09230789,-0.013448712,0.044827197,-0.1671215,0.12065885,0.19109519,-0.012070477,-0.051100824,0.0598357,-0.13274023,-0.015378981,0.14340635,0.046515666,0.016936516,-0.010533063],[-0.008657693,0.1058087,-0.08646423,0.13768473,0.20406093,0.097355805,0.14350276,-0.10536378,-0.0059399055,-0.06427612,0.11440062,-0.057969965,0.0031355447,-0.07863484,0.10920546,0.12357621,-0.08288173,-0.04436879,0.05774715,0.16022475],[0.031712133,0.038961004,0.086482234,0.12162117,-0.11549574,0.014919697,0.15634657,-0.07082231,0.06321486,-0.13332595,0.06770447,-0.14845607,0.033513483,-0.021038637,0.15009741,0.18931578,-0.079723865,-0.0042103855,-0.051636707,-0.014790224],[-0.20328857,-0.1156073,0.07987176,-0.08079655,0.020264842,0.059155833,-0.05987487,-0.09913786,0.07934649,0.21962632,0.15815848,0.06779703,0.095600784,0.011386475,0.12980054,-0.07542504,-0.013787078,0.015730178,0.09019797,-0.16273382],[0.1277914,-0.12566453,-0.1604551,0.014594605,-0.040226206,0.030358402,0.05479864,-0.021422086,0.22701134,0.033039227,0.012315552,-0.11372297,0.082024686,-0.110279076,0.16692708,0.0715396,-0.107692935,0.030813223,0.040198714,-0.006173419],[-0.06902311,0.041387867,0.06330083,-0.04482823,-0.010237273,-0.036134742,0.0026917495,0.07383645,-0.007544012,-0.1567767,0.09633986,0.051195826,-0.075052924,0.09960336,0.019249272,-0.07119611,0.036079247,0.09761824,-0.06043824,0.07791164],[-0.014021856,-0.014078421,-0.047785196,0.047502305,-0.07353232,0.01303471,0.0071612312,0.018709367,0.047440022,-0.04158716,0.16038729,-0.0064847968,0.050864875,-0.14449777,-0.041189723,-0.24420622,0.17189023,-0.17064767,-0.020882942,-0.058333457],[-0.0058380673,0.01359522,-0.010965682,0.0815579,-0.00895073,0.07837868,-0.0834794,-0.10273815,-0.04989323,0.027109137,0.014420784,0.11417294,0.053190842,-0.100933485,-0.019731749,-0.10849818,0.11779978,0.007327752,-0.042660903,0.024042979],[0.15129176,-0.1430059,-0.117862664,0.072408386,-0.106666416,0.052137516,0.08491254,-0.10456692,-0.10990007,-0.0057931663,-0.06932642,-0.110443935,0.008537864,-0.03216302,0.026918864,0.08668775,0.047536187,0.035282988,-0.059480693,-0.16631679],[0.012250153,0.05507709,-0.010838998,0.002991453,-0.027757889,-0.12071237,0.056583874,0.06265161,0.11893623,-0.12772086,-0.14778551,0.10962661,-0.09678484,-0.017416341,0.098824345,-0.1295368,0.038833376,0.020385183,-0.014477707,-0.10050555],[9.605925E-4,-0.071403466,0.035146922,0.095963426,0.11162231,0.0068880576,0.07650246,0.033241082,0.06746625,-0.0132667795,0.13922666,0.056703873,0.018713344,-0.03130437,-0.012074209,-0.0060467687,-0.09049593,0.06525986,0.008666005,0.023104927],[-0.04046589,0.045611713,-0.19816566,0.05684808,0.20480378,0.0822439,-0.18138787,0.050963577,-0.05592214,-0.022306953,-0.10825494,0.07269927,0.11594141,-0.13252623,0.13879931,0.2033658,-0.1405395,-0.0420279,0.049922507,-0.09825686],[0.07954677,-0.022308648,-0.03592411,-0.13004422,0.11867979,-0.1863234,-0.15148403,-0.035664607,-0.03423399,0.06971632,-0.1272131,0.17964269,0.06562737,-0.049285408,-0.10564041,-0.04904783,-0.071193144,0.045746606,-0.078378,0.010010252],[0.021257924,-0.17105651,-0.038606644,0.037719265,-0.0037863855,-0.06744357,-0.15582918,0.03337932,0.046512213,0.044025138,0.11596576,0.03933421,-0.022118853,0.1022123,-0.18183757,0.03921877,0.079469614,0.06543399,0.10939746,-0.14094932],[-0.05344569,7.8195473E-4,0.0062107444,-0.12509267,-0.12235223,-0.04297993,0.073302254,0.03109899,0.059657805,0.052054062,-0.13789923,-0.12711623,-0.056409977,0.02435569,0.06295967,0.009888963,0.14446612,0.12707138,0.16606908,0.014277547],[-0.15145575,0.19780779,0.07620444,0.04611235,0.032424185,0.06970548,-0.16433372,-0.08697665,-0.042178642,-0.23114465,-0.014705608,0.037319925,-0.050999846,0.11248803,-0.09813783,-0.037469015,0.012359201,-0.03372048,-0.07654966,0.2603402],[0.117694706,-0.028317267,0.010354475,0.035221696,-0.084343426,0.041155823,0.38252994,0.123849906,-0.11364358,-0.06009485,-0.012314555,-0.14684018,-0.20694011,0.068605706,-0.09117278,-0.031091029,-0.007646848,-0.025072468,-0.069106214,-0.21633434],[0.04168864,-0.016131293,-0.07326242,0.07932012,-0.13111265,0.004105575,-0.178854,0.1537674,-0.02196303,0.19337113,-0.07716487,0.11515732,-0.06978669,0.05051758,0.065547034,-0.051300954,0.11050793,5.5015925E-4,0.095369436,0.013611182],[0.13764319,-0.16059518,-0.03132176,0.23813635,0.09644007,-0.07016412,0.010287016,-0.06362342,-0.13434233,-0.14828432,-0.11806119,-0.045255575,-0.09904811,-0.04575303,-0.14082518,-0.14048149,0.029245555,0.159239,0.02622777,-0.12488273]]},{"biases":[-0.07376638,0.0089367535,-0.047043543,0.018500203,0.046605255,0.13107853,0.008129334,-0.20659812,-0.10690134,0.13519771],"values":[0.0,0.0,0.0,0.0,0.0,0.0,0.0,0.0,0.0,0.0],"inputWeights":[[0.03330461,0.1154448,-0.16381599,-0.055782195,0.007411005,-0.013207044,-0.002882857,-0.14465475,0.051924,0.02605032],[0.009002117,-0.09257511,-0.13598515,0.05843949,-0.06855152,0.1404551,-0.03742213,0.16565868,-0.08396398,0.019118378],[0.047988407,-0.18102753,-0.15456097,0.14174478,-0.06506464,-0.113023505,-0.063204475,0.09025194,0.07086058,-0.028693644],[0.12672576,0.081357196,-0.050729107,0.03660878,-0.15276626,0.09198322,-0.16596726,0.17823254,-0.12929374,-0.008560626],[0.13069743,-0.11190725,0.12404462,-0.04148576,0.041254215,0.09971138,-0.24300572,0.13882463,0.018568443,-0.022526987],[0.27244663,0.12723374,0.10431329,0.03679054,0.23042488,0.05970008,0.12483017,-0.08176751,0.07542348,-0.08156047],[0.0111369435,0.20496503,-0.13152333,-0.04603604,-0.094895944,-0.24080364,-0.012524674,0.19466671,0.08901887,0.004518042],[0.051451433,-0.11223333,0.18810686,-0.10050766,0.17950284,0.106371045,0.11002961,-0.015854057,-0.09259877,0.010934393],[0.108506836,-0.08750501,-0.1756662,-0.09222928,-0.15240581,0.09896437,-0.030519886,0.0014512475,-0.12624273,0.028739287],[0.04255829,-0.09539968,0.019660449,-0.08309005,0.025440324,-0.12765367,0.15325469,-0.06055494,-0.11627948,-0.18832229]]},{"biases":[0.074844874],"values":[0.0],"inputWeights":[[-0.08510102,-0.03688746,-0.044082545,-0.078624144,0.016913736,0.10473597,-0.0011468551,-0.012969659,-0.06355167,0.09247565],[0.11729549,-0.09461991,-0.031158658,-0.0952291,0.015098739,-0.083275735,0.040656075,0.1171391,0.022120368,0.05200903],[-0.11164043,-0.0013162431,0.26927453,0.11013658,0.09824962,-0.28069612,-0.15995784,-0.04287319,0.09508389,-0.15328176],[-0.08336197,0.15887305,0.025065117,-0.22471267,-0.20517232,0.08084241,0.004274621,-0.11444952,-0.008638914,0.057200447],[-0.122693144,0.12567152,0.25229788,0.09111045,0.05659733,-0.103719875,0.3374122,0.21377191,-0.0024402014,0.09581173],[0.018718174,-0.012788424,0.11840722,0.12686507,-0.012868718,0.010519979,-0.15551665,-0.0415763,0.01367112,-0.17476599],[0.20666833,0.06919532,-0.10184457,-0.0021444892,0.0501832,-0.07140679,0.015336192,0.012413043,-0.03417829,0.008197032],[0.16736042,-0.045344178,-0.10886342,0.11688691,-0.10112183,-0.03078305,-0.089923345,0.008038607,-0.070269965,-0.1192619],[0.010243291,-0.05273232,-0.1344099,-0.003503377,0.049955726,-0.061774816,-0.03359504,-0.21935096,0.05327262,-0.008141768],[-0.016362898,-0.12509102,-0.086651064,-0.15273836,0.092494644,-0.127663,-4.905679E-4,0.08474735,-0.12000777,0.005020211]]}]}},{"fitness":0,"neuralnetwork":{"inputLayer":{"biases":[0.0,0.0,0.0,0.0,0.0,0.0,0.0,0.0,0.0,0.0,0.0,0.0,0.0,0.0,0.0,0.0,0.0,0.0,0.0,0.0],"values":[0.0,0.0,0.0,0.0,0.0,0.0,0.0,0.0,0.0,0.0,0.0,0.0,0.0,0.0,0.0,0.0,0.0,0.0,0.0,0.0]},"layers":[{"biases":[-0.06454159,-0.07963313,-0.001360916,0.024604576,0.10646508,-0.14245829,-0.0054062717,0.002422957,-0.032964308,-0.015017543],"values":[0.0,0.0,0.0,0.0,0.0,0.0,0.0,0.0,0.0,0.0],"inputWeights":[[0.044941608,-0.07996128,-0.12336885,0.1635188,0.08723083,0.113613315,-0.16918701,-0.1295532,0.013002817,0.066241875,0.049553763,0.011710133,0.14279412,-0.02126999,-0.025217269,-0.1655431,0.071757495,-0.007481509,-0.067986324,-0.004443136],[-0.05423478,-0.058474876,0.085237786,-0.024446193,-0.049237523,-0.07119277,0.03810731,-0.15805621,-0.12649716,0.07369747,-0.17154607,-0.049833596,-0.08664691,-0.06336047,-0.020404663,-0.095374994,0.16318126,0.017751211,-0.061538063,0.19482744],[-0.045554735,-0.07780273,0.096050195,-0.073730595,-0.049743153,-0.016802257,-0.081118666,-0.062387213,-0.12067378,0.058745895,0.02101004,-0.091131814,-0.06293998,0.056606665,-0.15862262,-0.05510903,0.060403034,0.11291279,-0.20535341,0.039298907],[6.9587614E-4,0.05779609,0.21202493,-0.08251675,-0.024221929,-0.10008749,-0.08399352,-0.0037411554,0.026725817,0.01715151,-0.09448775,-0.06753206,-0.13360661,-0.10772902,0.12886699,-0.06244029,0.11209061,0.18790103,0.028304655,0.23548977],[-0.03738647,-0.040781062,0.10399739,-0.15068327,-0.010752623,0.07968123,-0.08338846,0.04829671,-0.13849647,0.07357566,-0.076161824,-0.15019795,0.1378495,0.025722649,-0.07341015,-0.020248944,-0.049836963,-0.19251995,-0.136572,0.15926993],[0.035110198,-0.19528756,-0.05418949,-0.26057535,-0.05684352,-0.08201982,-0.061703354,-0.015916733,-0.11587631,0.0023848515,0.05096523,-0.07732969,-0.03706155,0.07654848,0.046478745,-0.08762764,0.04789285,-0.057667643,0.22641844,0.04828948],[0.23165692,0.14782631,-0.007943982,-0.014437228,0.091276094,-0.14462668,-0.071477555,0.026755927,0.021745281,0.13606414,-0.0061280997,0.23230301,-0.04168639,-0.020349078,-0.11070931,0.037327647,-0.0657139,-0.11887257,0.02230439,0.0075621656],[-0.056633115,0.1569083,0.044153374,-0.079837866,0.033793304,0.08510463,-0.1251605,-0.1114406,-0.09983861,-0.035117634,-0.070264295,0.094110355,0.17921482,0.033169027,-0.059981197,0.077408135,-0.012869352,0.16064927,-0.16378887,0.13653527],[-0.050904486,0.02470305,0.043539952,-0.0427049,-0.05261935,0.032752015,0.066631705,0.102875404,-0.22175235,-0.22703764,-0.24064113,-0.11836129,-0.0550954,0.042459708,-0.14259823,-0.01152141,0.17612728,-0.062434677,-0.036151968,-0.15190546],[-0.021740109,-0.07388238,0.075446144,-0.10166554,-0.066653535,-0.034520652,0.15969984,-0.07374473,-0.044662293,-0.009914979,-0.07443419,-0.0860676,-0.011627306,0.012619124,0.12816243,-0.13697924,-0.045533158,-0.13036042,0.03466222,-0.0056360587],[0.12914449,0.05827421,-0.02414626,-0.026041055,-0.12927435,0.12412047,-0.076453686,-0.07399819,-0.082749225,-0.25492433,-0.05142324,0.14809819,0.05023611,0.0027205935,0.13393998,-0.0025771165,-0.006904814,0.028014269,-0.07639061,-0.10231041],[-0.06341689,-0.06604477,-0.008681443,-0.059573248,-0.13017218,0.004060217,0.057951767,0.018270046,-0.042915706,0.088293165,-0.0131708635,0.027759828,0.016034639,-0.17645401,-0.12268539,-0.09073649,-0.066873506,0.0021318528,-0.029018637,0.16748998],[0.07755568,0.080981724,-0.13465507,-0.01832181,-0.20882598,-0.14195055,-0.07806504,0.077440634,-0.09581982,-0.19868213,0.09935673,-0.058666952,0.1689067,-0.032925438,-0.060449827,0.0641841,-0.07860777,0.13202854,-0.03785394,-0.07848693],[0.21872576,0.06596356,0.04309547,0.10783749,0.091502555,0.068870395,-0.091840304,-0.0068420605,-0.11790042,-0.015780635,0.08781733,-0.046088707,0.039571956,-0.07335138,0.030040855,0.06830866,0.0073369076,-0.114139795,0.005184241,0.110089324],[0.0057464233,-0.21289775,0.05569962,0.13339911,0.05553571,-0.10123988,-0.039820086,-0.047045115,-0.115110025,0.0117350295,0.10326264,0.26622036,-0.16351123,-0.013871695,0.017030027,-0.09447123,-0.20582777,0.12539013,0.08605157,-0.105774015],[0.07320842,-0.13702965,-0.10748212,0.080346316,-0.07832419,0.008708249,0.086588316,-0.17888068,0.12057858,0.07687531,0.010163416,0.13269514,0.03554901,0.041623786,0.023563046,0.04346008,0.1628753,-0.18294695,0.10850202,-0.012594453],[0.026280697,-0.15921597,-0.13490048,0.048336197,-0.08744007,0.08351142,-0.06467679,0.29735762,0.015809381,-0.038495746,0.17951,0.045101576,0.009922679,-0.099462435,-0.185156,0.19398428,-0.005196885,-0.11575456,0.26070952,0.01875062],[0.10347498,0.1981696,-0.119519286,0.031696606,0.13726544,0.008876818,-0.0043024276,0.08203716,0.012017489,0.088204205,-0.009157961,0.097565696,-0.21736914,0.034141388,0.15818281,-0.088127986,-0.1144308,-0.060618844,-0.19246902,0.0824462],[0.059041403,-0.04378651,0.12574339,-0.043292083,-0.031307973,-0.10349558,0.024488807,0.0072963107,0.05686061,-0.027194409,0.10961993,0.043432027,-0.065935664,0.022201445,0.008934345,-0.11999655,0.10006682,0.27176714,-0.087397955,0.040752057],[0.06539653,0.10981036,0.032031596,-0.012061677,0.0043184524,0.24064322,-0.07138217,0.14925013,-0.06610696,-0.14091326,0.04108267,0.06399674,-0.049391396,0.10815149,0.028297117,-0.042155284,-0.15175925,-0.019131396,0.048001535,-0.0066990857]]},{"biases":[0.0018639087,-0.085963644,-0.03156622,-0.17237477,0.01396284,0.086676985,0.009017911,-0.106961444,0.12971811,0.012592599],"values":[0.0,0.0,0.0,0.0,0.0,0.0,0.0,0.0,0.0,0.0],"inputWeights":[[-0.13718098,-0.0817442,0.071765564,-0.26571238,-0.07787735,0.058091927,0.15579551,-0.15508439,0.15930484,-0.17744361],[0.04415432,0.23050381,-0.057491194,0.007943497,-0.21230088,-0.037836008,-0.022560045,0.20964006,0.124149024,0.11675758],[0.08169373,-0.14534661,0.072493985,0.14381373,0.3166327,-0.0112174,0.21796143,0.09694878,0.14765792,0.16060765],[0.07858486,-0.18480955,-0.22816525,0.06496996,0.09952831,-0.029901685,0.030766608,-0.13496095,-0.040255524,0.029944379],[0.04444237,0.2629004,-0.04582882,-0.07247987,0.16670783,0.053200964,-0.12637547,0.1190694,-0.040756803,0.015217525],[-0.019699953,-0.1499817,0.0042036586,-0.19345069,-0.16776897,0.122943014,-0.055820975,-0.07214211,0.096594654,0.06875086],[-0.129619,0.30614093,0.03569472,0.15443535,-0.01478655,0.10007878,0.07914402,-0.05285866,-0.07697484,0.040977087],[-0.09859328,-0.07339056,-0.040187553,0.019136267,-0.09678579,0.093443416,0.28175104,-0.16223742,0.12199842,0.03998248],[0.02329332,0.063018695,-0.14765596,0.010498967,-0.018866356,0.024752202,0.10269598,0.016781531,-0.058128987,0.1367662],[-0.02973354,-0.064486444,-0.03961156,0.0062637134,-0.019951392,-0.024068834,-0.1262883,-0.076279044,0.011891259,-0.026934749]]},{"biases":[0.046101484],"values":[0.0],"inputWeights":[[0.16695204,0.2249837,-0.12972903,-0.08081583,0.0014473331,-0.16388483,-0.06755726,0.09112831,0.065798216,0.059590295],[0.06663271,0.027274014,0.0038949663,0.012328694,-0.089714296,0.0707496,-0.08907946,-4.6228338E-4,-0.07340165,0.0851891],[-0.013724008,-0.045041524,0.19751108,0.043912765,-0.055607297,0.22446129,-0.121613376,-0.09380231,-0.040841706,0.2646751],[-0.039967276,-0.09297451,-0.0034874312,0.023318278,0.11435138,0.015858812,-0.11596267,-0.073431134,0.082032084,0.0026417323],[0.05750624,0.015518341,0.06799033,0.013451203,0.15151235,-0.20408662,0.09082018,0.19432032,0.10138464,0.0057384614],[-0.07910705,-0.1549855,0.03936236,-0.022674419,-0.10698702,0.00926344,-0.042172037,-0.047011416,0.09338216,-0.08333981],[-0.04023633,0.10176437,-0.1136702,-0.14107637,-0.11159564,0.03651758,0.032434683,-0.12970752,0.04678242,0.056863446],[-0.06728014,0.15079406,0.17835051,0.104823746,-0.03618522,0.0764396,-0.075069785,0.22144328,2.7298272E-4,0.039113045],[0.020893343,-0.024426075,-0.040191114,0.02412196,0.038757768,-0.098599896,0.24357876,-0.14276361,0.10879305,0.051028777],[0.18839793,-0.11359119,-0.16387595,0.020587515,0.089939,-0.15997517,-0.15684734,-0.13538875,-0.082354724,-0.10912602]]}]}},{"fitness":0,"neuralnetwork":{"inputLayer":{"biases":[0.0,0.0,0.0,0.0,0.0,0.0,0.0,0.0,0.0,0.0,0.0,0.0,0.0,0.0,0.0,0.0,0.0,0.0,0.0,0.0],"values":[0.0,0.0,0.0,0.0,0.0,0.0,0.0,0.0,0.0,0.0,0.0,0.0,0.0,0.0,0.0,0.0,0.0,0.0,0.0,0.0]},"layers":[{"biases":[-0.17203894,0.05509058,0.089472935,0.17272507,-0.21318835,0.0822505,-0.042393196,8.954639E-4,-0.04722188,0.30009893],"values":[0.0,0.0,0.0,0.0,0.0,0.0,0.0,0.0,0.0,0.0],"inputWeights":[[-0.111481085,0.120816216,0.13725905,0.027240036,0.036073178,-0.056728434,-0.0073167845,0.023030965,0.08965803,0.07518839,0.22985852,-0.17549185,-0.018417493,0.014373869,0.068226375,-0.1644617,-0.21650091,0.031849775,0.01987822,0.13377418],[0.14816791,0.067338966,-0.06416881,0.020597018,-0.00784726,2.2730515E-4,-0.20590498,-0.10915889,0.075840116,-0.0049914834,0.11554215,-0.022027932,-0.10848879,0.09364507,-0.16683453,0.017697042,-0.1190851,0.008571093,-0.095462665,0.14028971],[0.0016212242,-0.026124042,0.15785304,-0.015989177,0.3783674,-0.10015702,-0.06253455,-0.15449552,-0.036408577,-0.06497082,-0.071363755,-0.13368854,0.050736018,-0.012239815,-0.023086434,0.014449276,-0.0044355616,-0.04834002,0.011942884,-0.1066196],[0.124231294,-0.030384636,0.21548352,-0.046966463,0.039913274,0.015461379,0.08293407,0.052766927,0.09424676,-0.04636006,-0.022584898,-0.007078298,-0.025715806,-0.02196701,-0.13730036,0.03111141,-0.08020955,-0.08898852,0.02377253,0.053175855],[-0.014673039,-0.0017010778,-0.11652792,-0.08780359,0.15793663,0.023353137,-0.04047245,0.091421865,-0.0160165,0.10070261,0.04785087,0.19808297,-0.17399743,-0.037853695,0.043662746,-0.08176862,-0.07317664,0.15923357,-0.10302364,-0.09568975],[0.026703883,0.18486321,0.10112531,0.08732355,-0.05175304,-0.11004359,0.13319352,8.1444904E-4,0.042105306,0.03183785,0.09319753,0.09749349,-0.18373002,-0.036139708,0.058398176,0.07052512,-0.12838374,-0.093720935,0.06875288,0.03291797],[-0.053091515,-0.03488883,0.029829683,-0.046888795,-0.020386573,0.018534964,0.07479167,0.01767338,0.08784426,-0.011574767,0.053124785,-0.026094632,0.05678157,-0.07836234,0.19007212,0.046976205,-0.24959226,-0.18059793,0.046122923,0.072677635],[0.019336788,0.10342733,-0.1701709,0.021321893,-0.04493793,-0.07588818,0.03771706,-0.07074776,-0.015192326,0.033620182,0.068962775,-0.036391523,0.15512986,-0.04633098,-0.054959435,-0.1796909,-0.021872424,-0.037796803,-0.038554486,-0.17058659],[0.019912705,0.11306395,0.0014573944,0.06325356,-0.00839393,0.062867105,-0.012448302,0.12509221,0.020508282,0.012079802,-0.07179139,0.11595667,0.076526135,-0.057926755,-0.04263361,0.08579437,-0.025509315,-0.0381792,-0.15624078,0.01231004],[0.046054974,0.09225762,0.043642882,-0.10967892,-0.15193473,-0.110219896,0.1434696,0.15929188,-0.04392022,-0.08231126,0.010309163,0.004860416,-0.17066158,0.10203176,0.035010878,-0.21735029,0.25149292,-0.014570849,-0.02412025,0.28052214],[0.10696876,-0.173235,-0.048335563,-0.042963367,-0.01489354,0.11308284,-0.039158307,-0.04297039,0.033588562,-0.031140769,-0.0388901,-0.049107775,0.039246447,-0.0018033835,-0.1134579,0.009758555,-0.112879045,0.020231385,0.054978427,-0.19690858],[0.019274384,0.17023493,-0.01778024,0.23988427,-0.05323135,0.0060156276,-0.03141758,0.044995658,-0.046041682,0.114931,0.017307976,0.13220212,-0.02579841,-0.10002166,0.021097025,-0.030713502,0.086669214,0.06436944,0.21160601,-0.029677192],[-0.03300972,-0.18862417,-0.08114534,-0.06342625,0.1138102,-0.07411339,-0.026784621,0.01667795,0.05601045,-0.08204369,-0.10821075,0.096073456,0.104919024,0.010474014,-0.047093052,0.033676468,0.059749965,-0.038855784,-0.07092963,0.17973062],[-0.015270099,-0.028758312,-0.08499325,-0.30188975,-0.10641831,-0.11157026,0.06623813,0.036268476,0.065956526,-0.13454105,0.050091885,0.13749611,-0.013681092,-0.041360512,0.021957327,-0.17099945,0.06918644,0.0156055065,-0.12669866,0.17859888],[-0.056818042,0.038784035,0.02172654,-0.12146562,0.09522896,-0.08592116,0.08345341,-0.12235059,0.13502085,0.034941684,0.05774156,0.065051876,0.032668013,-0.012088014,-0.018855345,-0.05963934,0.06778508,-0.095818035,-0.1863955,-0.13629833],[-0.07684701,-0.002119981,0.0026388937,0.18682177,0.024974024,0.009403788,-0.105694726,4.167028E-4,-0.25098175,-0.12476913,0.040498093,0.040975988,-0.041705016,0.0032776627,-0.1811839,0.13123786,0.051626727,-0.011376842,0.09882565,-0.07594901],[0.080580495,0.0075786477,0.065925345,0.037456598,0.032516267,-0.014523474,-0.019187342,0.042320926,-0.07185612,0.035582364,0.08426615,0.03250179,-0.09043657,0.011972599,0.031668987,-0.0011510418,0.07239859,0.06747751,0.094607994,-0.0034699005],[-0.11773461,-0.12563713,0.03504863,0.022208577,0.02299322,0.29521877,0.14435112,0.16024582,-0.17860541,-0.010878289,0.054837037,-0.105044596,0.00901411,0.093374684,-0.06013144,0.06888146,-0.09463666,0.024837514,-0.008024385,-0.03949849],[-0.060898405,-0.0159516,-0.08620464,0.027620183,0.1269363,-0.1059903,-0.18522935,-0.05397544,0.035258878,-0.03567726,0.019816063,-0.2863628,-0.077152185,0.13965966,0.10566236,0.14550327,-0.038885664,0.097132236,-0.061710536,0.11036741],[0.02926308,-0.047781453,0.1407153,-0.006230028,0.045516957,0.22711478,0.05087493,-0.016416429,-0.092797555,0.06339224,0.035171743,-0.039992273,-0.019424198,-0.047995146,-0.16991729,0.0085654035,0.009610624,0.28954098,0.048363063,-0.14715402]]},{"biases":[-0.034285467,0.047089692,0.048310097,-0.057020567,-0.1271903,-0.10433359,-0.07529671,0.23920955,-0.021039562,-0.051920533],"values":[0.0,0.0,0.0,0.0,0.0,0.0,0.0,0.0,0.0,0.0],"inputWeights":[[-0.0032813977,-0.12719789,-0.23890695,0.07613255,-0.11475404,0.058002163,-0.11445036,0.12385432,-0.07359582,0.14149602],[0.06086902,0.0777668,0.05840261,-0.055209607,0.10311685,0.08865575,-0.083732076,0.08883031,0.033239976,0.04045625],[0.055345632,-0.17116676,-6.6609395E-4,-0.09644037,-0.13587335,0.004220741,0.06027269,0.04868285,0.16103846,-0.14487004],[0.12932715,0.06457113,0.111447774,-0.15612715,-0.036675144,-0.039748333,0.021482326,0.12072967,0.016853455,0.0176096],[-7.1665596E-7,0.122067705,-0.00885522,-0.03995738,-0.07140605,-0.043911025,-0.07040926,0.054519236,-0.021392863,-0.09492962],[0.067688406,0.025101084,0.07546414,-0.045638308,-0.010652022,0.069705755,-0.038184665,0.08127375,0.00815808,-0.12531601],[-0.01935287,-0.103419945,0.05948494,-0.014250543,0.02294839,-0.02381493,-0.016944924,0.30643675,0.08203695,-0.06905147],[-0.1547628,0.042382665,-0.16166085,-0.13056797,-0.11182814,-0.036666166,-0.027336301,-0.031366013,0.04105986,0.031600617],[-0.092567086,0.043683503,0.03510221,0.027702045,0.0914135,-0.048801173,0.1595412,-0.20872447,0.09122886,-0.050992068],[0.08988295,0.07430277,0.0063808896,-0.054463495,0.01967743,0.0058112885,-0.04413324,-0.19100598,-0.11879907,0.08925133]]},{"biases":[0.04574107],"values":[0.0],"inputWeights":[[-0.07209624,-0.02976367,-0.029466623,-0.21192111,-0.08403636,-0.33020824,0.11443754,-0.12145296,0.018344644,-0.028921003],[0.16686174,0.17005494,0.13267723,0.1851758,-0.14967602,-0.020617126,-0.103911445,0.0333233,-0.009968335,-0.064225286],[-0.09176116,-0.17988,0.20230253,0.055519596,-0.0034980297,0.09735793,0.12579751,0.17868085,-0.07920996,-0.0579088],[-0.16421427,0.081084624,0.027916629,0.10128901,0.039312508,-0.12344423,-0.3759559,0.036453247,-0.08715186,0.02006951],[0.03579494,0.07992336,0.0016820919,0.041548718,-0.070135236,-0.104269415,-0.05225961,0.012401772,-0.12414162,0.014464812],[0.09356261,0.033986762,0.0648171,0.07105573,0.081445105,-0.1438163,-0.10897661,-0.1703137,-0.032837093,-0.06404976],[0.070049,-0.0018659947,0.14363776,-0.11263304,-0.14164387,0.22138226,-0.0535823,0.1111199,-0.111538425,0.08645559],[-0.13304989,-0.07216922,0.13869078,0.083392605,0.13105784,0.012616336,0.025977299,-0.056455504,0.009172301,0.058798842],[0.03610536,0.09299967,0.26207843,0.015462666,-0.023577146,0.15293768,-0.15959454,-7.121041E-4,-0.04983571,-0.11215277],[0.0038260017,-0.046686962,-0.08686418,-0.0465352,0.048398465,0.04059736,0.18989891,0.13196146,0.046077855,-0.031765357]]}]}},{"fitness":0,"neuralnetwork":{"inputLayer":{"biases":[0.0,0.0,0.0,0.0,0.0,0.0,0.0,0.0,0.0,0.0,0.0,0.0,0.0,0.0,0.0,0.0,0.0,0.0,0.0,0.0],"values":[0.0,0.0,0.0,0.0,0.0,0.0,0.0,0.0,0.0,0.0,0.0,0.0,0.0,0.0,0.0,0.0,0.0,0.0,0.0,0.0]},"layers":[{"biases":[0.043590643,0.13819797,-0.108603545,0.20321381,0.12895249,-0.103448294,0.11386314,-0.022720754,0.18216147,0.039725896],"values":[0.0,0.0,0.0,0.0,0.0,0.0,0.0,0.0,0.0,0.0],"inputWeights":[[-0.016269976,-0.020542884,-0.06624529,1.6366686E-4,0.13779005,-0.12512392,-0.04216999,0.0026545753,-0.04029839,0.062744446,-0.0631906,0.07885299,-0.032420635,-0.011328165,-0.026561748,0.10379849,-0.048054524,0.058898576,0.010396729,0.075002976],[-0.13924854,-0.09765602,-0.021418251,-0.1619866,-0.063598596,0.02519958,-0.06892565,0.0764017,-0.013586563,-0.21640913,-0.08248616,-0.07188547,0.0067932406,-0.15098375,-0.029324826,0.03588909,0.17220664,-0.100846924,-0.08566809,-0.027264427],[-0.110906005,-0.048116554,0.05323683,0.1975318,-4.495744E-4,-0.04597935,0.05255404,-0.21519937,-0.20959896,-0.036281392,0.063137285,-0.018431906,-0.09670779,-0.036833387,-0.019616501,-0.1065934,-0.09151268,0.06826046,-0.21721095,-0.05419807],[0.068810046,-0.051662285,0.018091636,0.022348227,-0.09319394,-0.05026237,0.13780029,-0.0419629,0.14468922,0.0409534,0.26020834,0.13906108,-0.026897809,0.0823364,0.06510084,-0.01014102,0.1994727,-0.014789318,0.025877215,-0.009019869],[0.04059286,-0.16980886,0.21663319,0.04262302,0.0957876,-0.013908862,0.026018113,0.010650044,0.08144693,-0.10217996,-0.061214328,-0.09835462,-0.031244915,-0.0800606,0.048169523,-0.072301045,-0.09490412,-0.027981877,0.006626586,-0.032534573],[0.047578704,-0.07507247,0.15889692,0.13447043,0.07321182,-0.07341139,0.04530729,-0.28905913,0.069737166,-0.06912097,-0.20476629,-0.020415481,0.056261554,-0.03206473,0.24122718,0.044877898,-0.08209067,-0.14438388,-0.014188687,-0.0043562027],[-0.08341625,-0.027576521,-0.20945023,-0.15809767,-0.027255649,-0.025001576,-0.0732526,0.09619682,-0.07178952,0.09226723,-0.13755323,-0.097742885,-0.033765096,0.02696176,-0.007867033,-0.01842139,0.16706066,-0.06459204,0.020501416,-0.133564],[0.020334987,0.03740329,0.15160772,-0.22518711,0.10079232,0.16255899,0.010305956,-0.024665317,0.08773198,-0.07956415,0.11574866,0.021932129,-0.05906427,0.13872463,-0.066980265,0.15168542,-0.10830702,0.06874344,-0.10281351,-0.055872574],[0.22560763,0.024283126,-0.12397257,-0.00536828,-0.09794666,0.09982116,-0.11014149,0.007605868,0.014529447,-0.007970906,0.049750946,0.23376746,-0.0025916377,0.019424044,0.0685898,0.11265954,-0.043018803,-0.038855836,0.16472785,-0.1451983],[-0.0038017025,-0.009056746,0.13954228,0.12954976,-0.02247097,-0.0064267274,-0.032458264,0.016064847,0.086815946,0.10338005,-0.0844976,0.14997879,-0.11182016,0.12305863,-0.12934633,0.04961939,-0.0260106,-0.010236458,0.0100293625,-0.0802732],[-0.080228865,-0.07346791,0.11321312,-0.08266197,0.13076153,0.032347415,-0.13401161,-0.07162505,0.06888581,0.0026722662,0.07831072,0.2003459,-0.2670807,0.17472081,0.023865357,-0.075614005,0.039474282,-0.026962865,-0.06872835,-0.07640307],[0.004320125,-0.04420317,0.04797001,0.06033503,-0.02951098,0.04949753,0.18061002,-0.08066373,-9.630648E-4,-0.07747983,-0.12842906,0.074118376,0.038046055,0.0809478,1.504538E-4,-0.00459264,0.14188541,0.17420162,0.015908098,0.029477147],[-0.08675207,0.16138658,0.2504277,-0.037390273,0.094348036,-0.0057470733,-0.19438206,-0.011426849,0.09284081,0.20817982,-0.0024529742,0.009446316,-0.11893721,-0.021900263,0.1023305,-0.031917766,-0.04340209,-0.06726812,-0.066257015,-0.038788963],[-0.0811372,-0.0019838347,0.06029462,-0.22645143,-0.08070772,0.13358735,0.06777249,-0.07291824,0.004585341,0.016245766,0.054942187,0.124228135,0.032141827,-0.22025318,-0.06305917,-0.0830594,0.18730162,-0.0669052,0.01453412,0.062295705],[0.031657048,0.1585517,-0.12885912,-0.090034544,-0.12457532,-0.038705613,0.17697397,0.17512746,0.067284755,0.0830384,0.06032902,0.1393201,0.08805949,0.056595657,-0.041128278,0.13420683,-0.09488935,0.101733804,0.05404051,-0.032493386],[-0.041807152,-0.12533936,-0.22590539,0.015532861,-0.009852148,-0.17028812,0.018465664,-0.12129442,0.074294105,-0.095821835,-0.03524844,0.074573904,0.12111475,-0.0498124,0.06235661,0.09626161,0.15131736,0.048204806,-0.1016702,0.045285802],[0.10358485,0.10755313,0.05574051,-0.032862984,-0.102825545,0.14160639,-0.03247785,0.02512204,0.034400973,-5.087562E-4,0.008412799,0.010391378,-0.08685831,0.045149844,-0.14294489,0.20468055,-0.008019677,0.0915002,0.16344044,0.06675402],[0.071701884,-0.10026896,0.08965236,0.05757659,0.012536149,0.105495274,-0.086640865,0.20567606,-0.004691462,-0.11107309,0.108656615,0.058596667,-0.009397585,0.059002906,0.10164495,0.08375442,-0.18818042,-0.12623945,-0.15287359,0.04869207],[-0.0847142,-0.0052912086,0.05758811,0.0092229005,0.010746525,-0.020533727,-0.03314057,-0.010833439,0.004189058,0.03268102,0.07496005,0.07190601,-0.041273084,-0.0041979966,0.019815734,-0.039482143,-0.09061339,0.011582538,0.02058604,-0.16689692],[-0.12981746,0.088091515,-0.0819487,0.01312202,-0.04588159,0.009399278,-0.06543221,0.07040511,0.1038777,0.018927746,0.10151957,-0.02103645,0.018607274,-0.05647564,-0.028513616,-0.010369268,0.25053775,-0.03663634,-0.08938459,-0.26056865]]},{"biases":[0.20903787,0.17694028,-0.057803746,0.037214942,-0.012742519,-0.11705971,0.0077314535,0.09433467,0.050430924,-0.100523435],"values":[0.0,0.0,0.0,0.0,0.0,0.0,0.0,0.0,0.0,0.0],"inputWeights":[[0.21082836,0.20112424,-0.1237059,0.13547021,-0.12532982,0.06221458,0.051988684,0.14937498,0.16101685,-0.16746251],[-0.10109683,0.012486943,-0.22984254,-0.029531654,0.008067363,-0.12446054,-0.019967822,-0.13999508,0.083085716,-0.004152546],[0.06318921,0.019648988,0.18643126,-0.051173564,-0.19012986,0.21301341,0.049653973,0.086696975,0.23809329,-0.019722708],[0.1329245,-0.0148523385,0.08977258,0.07899033,-0.032694116,0.09733961,-0.026686579,0.16494723,-0.15885189,0.014551418],[-0.0248364,0.08214358,-0.088717215,-0.043436237,0.07665157,-0.07310004,-0.23510541,-0.12814747,-0.017983861,-0.086800076],[0.048304226,0.017720597,-0.02605403,-0.11749505,-0.10085941,0.008178813,-0.014949517,-0.033879086,-0.21113941,0.055806123],[-0.0221,0.030194784,-0.13847893,0.043906894,-0.1345755,-0.101794384,0.05126833,0.11140981,-0.13384666,-0.08409051],[0.12834564,-0.13789347,-3.0271974E-4,-0.21579456,-0.043679554,0.05169395,-0.12826161,0.024071816,0.17922078,0.11761293],[0.048231974,0.05512314,-0.070830524,0.010071314,0.0587568,-0.039056204,-0.052733228,-0.028272908,0.019259151,-0.09793512],[-0.22200209,0.029035231,0.115137644,-0.13551682,-0.005189062,-0.08091397,-0.0592266,0.10129542,-0.028144993,0.068929926]]},{"biases":[-0.13724479],"values":[0.0],"inputWeights":[[-0.061382666,-0.054530323,-0.08738428,-0.16247162,0.13431358,0.07611764,-0.15637471,0.048954237,0.06771545,0.033548873],[0.06720044,-0.017785067,-0.076631054,-0.08631615,-0.019169385,0.019865826,0.1366142,0.0042920187,0.012860248,0.05660426],[0.03391654,-0.09992344,-0.16707197,0.019606616,0.1226894,0.24398112,0.019588582,0.04176338,0.14645112,-0.12063949],[0.04091264,-0.018721377,0.21827173,0.016906412,-0.086232916,0.0106829945,0.0642669,-0.21896543,-0.08371455,-0.26261756],[-0.029136041,0.14660037,-0.093264535,-0.0896977,0.0302308,-0.04842922,0.06523939,0.06514757,-0.08178147,-0.087181486],[0.016958918,0.011029549,0.13141221,0.05319003,-0.07739729,0.006139094,0.020524671,0.20065655,0.057420727,-0.106324844],[0.08037818,-0.07981499,-0.07697955,0.11897643,0.04569655,3.1629643E-5,0.035560586,-0.023932086,-0.08200871,-0.103277035],[-0.018018056,-0.06816812,-0.052099094,0.1480494,0.016632784,-0.047901176,-0.11064115,-0.18425404,0.039220914,-0.15141301],[-0.11733506,0.1115038,0.024045888,0.0076295133,-0.115592614,-0.06196972,0.060922816,0.09796785,0.014462181,-0.062196616],[0.021485643,-0.015409708,0.021825789,0.036978558,-0.073715895,0.011167592,-0.05200842,-0.16098021,0.0418626,-0.07182787]]}]}},{"fitness":0,"neuralnetwork":{"inputLayer":{"biases":[0.0,0.0,0.0,0.0,0.0,0.0,0.0,0.0,0.0,0.0,0.0,0.0,0.0,0.0,0.0,0.0,0.0,0.0,0.0,0.0],"values":[0.0,0.0,0.0,0.0,0.0,0.0,0.0,0.0,0.0,0.0,0.0,0.0,0.0,0.0,0.0,0.0,0.0,0.0,0.0,0.0]},"layers":[{"biases":[0.24853821,-0.032388337,-0.031137053,-0.05508649,0.06488153,-0.15475029,0.009760225,0.07744047,-0.045764778,-0.18989052],"values":[0.0,0.0,0.0,0.0,0.0,0.0,0.0,0.0,0.0,0.0],"inputWeights":[[0.06946632,-0.0782482,-0.1037701,-0.13918464,0.038043007,0.09929476,-0.0011549053,0.0064322497,-0.12668355,-0.120340705,-0.039194092,0.19431305,0.15676379,0.19911748,-0.055806015,0.108962215,0.15378335,-0.058406774,0.12676947,-0.003978214],[0.027951539,0.045155987,-0.038308654,0.065568596,0.08221564,-0.072453454,0.17506316,-0.033653095,-0.06576114,-0.07171804,-0.22340564,0.07878101,-0.12926708,-0.08509649,-0.11185024,0.106083125,-0.16954693,0.114177704,0.17849994,0.08964188],[0.027179042,-0.06042995,0.04102359,-0.058251962,0.1791822,-0.04940609,0.06816041,0.036203463,-0.13267966,-0.016959164,-0.15465616,0.009686358,-0.10624703,-0.253582,-0.10444839,-0.027419545,0.009635088,-0.015567435,-0.06322082,0.047678825],[-0.013304699,0.11752487,-0.031888463,-0.07143302,-0.0813083,-0.067987874,-0.25774735,-0.09075067,-0.09226094,-0.05133874,0.01751286,0.003802554,-0.07034155,0.13082254,-0.19402035,0.08607057,0.05592905,0.003414252,0.0691417,0.102847606],[0.19607817,-0.10418857,0.0031023906,0.08196792,-0.11429378,-0.024039032,-0.16276406,0.027593458,-0.15128113,0.11677653,-0.10288305,-0.034178063,-0.01892203,-0.14244445,-0.02698487,0.039529458,-0.027494881,-0.20262948,0.05833652,0.13384068],[0.028621793,-0.02639504,-0.06850176,-0.18620256,0.06370885,-0.11657482,-0.04324707,0.07215449,0.19708747,0.114979364,-0.08376545,0.017950945,-0.016725475,-0.029512463,0.052228242,-0.07987755,0.009269164,0.019916171,-0.051085927,-0.0709302],[-0.082667895,-0.022676837,-0.11619427,-0.059107296,0.11087003,0.08699026,-0.07366982,-0.16207597,-0.064059004,-0.017175408,-0.029316908,-0.14287518,0.10810147,0.08325781,0.022468328,0.039541796,0.028752925,-0.1708087,-0.0015112261,-0.019799879],[-0.06630848,0.011967807,-0.07503749,0.055809192,0.185366,-0.06393778,-0.049130477,0.145451,-0.08936558,0.05467256,-0.019127255,-0.042388994,0.042273875,-0.046545256,0.06334118,0.13760866,0.04719245,-0.108709686,-0.18472102,-0.18183893],[-0.10152708,-0.019202111,0.063844554,0.038382966,-0.015753245,-0.060080856,0.0395063,0.046719816,-0.16271806,0.18297781,-0.08396291,0.040743124,-0.12824033,0.070700325,-0.042874057,-0.06145448,0.083402574,0.07969316,0.14190024,0.08127874],[-0.11631985,-0.048293367,0.03884803,0.03971476,0.120566756,-0.10151656,0.09943412,-0.21790321,-0.057714853,0.09412759,0.08914336,0.08981969,-0.17914204,-0.1627575,0.10448576,-0.0756168,0.009174955,0.2334445,-0.1076689,0.040633183],[-0.30507073,-0.005508597,0.06218873,0.09667178,0.26200035,0.07670122,-0.21247153,-0.021417703,0.048926454,0.06684873,-0.07751444,-0.022411065,0.018204642,0.10510986,-0.1147616,0.089368664,-0.1404605,0.25193188,-0.20855054,-0.113529086],[-0.004199651,-0.13949521,-0.09820516,0.13197678,-0.007984683,-0.12009394,-0.038739663,0.21822602,-0.057164125,0.063982,0.012875234,-0.07910085,0.15222922,0.08181269,0.006923371,-0.01913096,0.13580532,0.06353293,0.023681931,0.08772624],[0.067942075,0.066871606,-0.023610082,0.024300307,-0.05210669,-8.4126607E-4,-0.02507846,0.087676026,-0.013380654,0.020136187,-0.028457297,0.17703587,-0.04826739,-0.010886468,-0.11697146,-0.06467755,-0.072388515,0.0051021995,0.1515361,0.12693982],[-0.17110941,0.089287356,0.13759114,0.06393758,0.024793683,0.1805872,0.07490425,-0.2172625,-0.07212014,0.07177434,-0.024556166,0.011562552,-0.13630149,-0.032716967,-0.08025071,0.02650605,-0.018439261,0.09190419,-0.14681771,-0.1418581],[-0.051592514,0.0043661958,-0.055780403,-0.03968684,-0.013053135,0.07243251,0.04286627,0.117847554,-0.016012233,-7.072386E-4,0.016090943,-0.09195536,0.0982082,0.071237326,-0.03644158,0.14766352,0.094059676,0.13664578,0.078075096,-0.047926877],[-0.18571714,0.07948739,-0.018125521,-0.08971473,-0.020242356,0.1129504,-0.033261392,-0.12097556,-0.015890872,0.055436715,0.08862842,0.042424675,-0.17107852,0.07360114,-0.086009875,0.021838252,0.024722336,-0.034544326,-0.019882271,0.04913483],[-0.03690527,0.050153952,-0.015193333,-0.23791134,-0.12962012,0.0131605575,-0.018649489,-0.05622661,0.06332348,-0.03252021,-0.11406712,-0.07234075,0.014159657,-0.10004726,-0.039117724,0.0025139994,-0.0023030713,0.15919423,0.105716616,0.0059843976],[0.0666235,0.04540755,0.012091333,0.1280143,-0.0058156857,-0.11858062,0.060269486,0.09094613,-0.07273352,-0.009576196,-0.07595635,-0.09667728,0.10104205,-0.01633334,-0.027639283,0.09718341,-0.018509585,0.005243865,-0.008381542,-0.025287054],[-0.03920171,0.0064776577,0.106929205,0.08901963,-0.15157694,-0.08356957,0.18820976,-0.11550627,-0.096267626,-0.07632967,-0.15007511,-0.06273108,0.0764814,-0.15525183,0.20976634,0.020349938,0.054616705,0.066703014,-0.052438576,0.1852715],[0.024702905,-0.009533201,-0.19457057,-0.13400027,-0.0043745195,0.044595838,0.013726769,0.06665277,0.044938065,-0.1981295,0.024119176,-0.051685426,0.09394954,0.09593762,0.08302765,0.03050496,0.11634825,0.09891612,-0.056798536,-0.060008474]]},{"biases":[0.009771644,-0.040470354,-0.12738228,-0.08526632,-0.02971966,-0.07173063,-0.02301287,0.03538068,-0.06753443,0.060116466],"values":[0.0,0.0,0.0,0.0,0.0,0.0,0.0,0.0,0.0,0.0],"inputWeights":[[-0.10535849,-0.03972041,-0.03311182,-0.08496025,-0.14276196,-0.08635284,-0.0010169428,0.014202591,-0.1169494,-0.15067151],[0.013803038,-0.03218174,0.049622834,0.12410445,0.024636403,0.16674435,0.115355484,0.029715465,0.10328182,-0.07007274],[0.05813421,-3.6544556E-4,0.15534213,0.14469425,0.030990643,-0.15176669,-0.05975297,-0.12232659,0.12023913,-0.041163765],[-0.009929882,0.04180277,0.031132536,0.009493914,-0.058889724,-0.05055853,0.008788288,0.188393,0.045140285,-0.0732754],[0.027198773,-0.09921104,-0.1508059,-0.041773252,0.027282607,-0.018857794,-0.11945854,0.088740855,0.079246424,-0.24185205],[0.04800214,0.05381743,0.22023563,0.0250633,-0.052677955,0.032238856,0.1732901,-0.15715024,0.1542044,0.10474439],[-0.0020181977,0.27133957,-0.023384707,-0.097737096,0.07703069,-0.033606313,-0.14472906,-0.0018571052,0.105514705,-0.03628475],[-8.839608E-4,-0.045922693,-0.076979615,-0.053641062,0.038019676,-0.029517595,0.1402314,0.024724964,-0.048556324,0.0018658523],[0.055631407,0.05150972,0.03164256,-0.23579898,0.13891378,0.021483129,0.075795464,0.089636795,0.013272315,0.12948641],[0.12743123,-0.037461758,0.06823894,0.10333885,0.14114699,-0.1186465,0.16010153,-0.04829837,-0.025719995,-0.061559454]]},{"biases":[0.15722835],"values":[0.0],"inputWeights":[[0.06258149,-0.06388573,0.07097593,-0.050575625,-0.120594256,0.09222631,0.0041648275,0.112032995,0.08225446,-0.03136132],[0.023913238,0.045854386,-0.07482892,-0.26611274,-0.16616248,-0.013218234,-0.09746455,-0.09202633,-0.0114426995,0.016220085],[-0.08657987,0.13034101,0.20626493,-0.08247612,0.06885459,-2.0144637E-4,-0.055639893,0.060983583,-0.051532622,-0.062365796],[-0.0131202405,0.0072054686,0.14107834,0.0023925444,-0.017507073,0.011255375,-0.033776425,0.14002608,-0.10564937,-0.11130386],[0.06509055,0.10262997,0.009864103,-0.11984584,0.09808838,-0.2085718,0.17997015,-0.056960452,-0.22670917,-0.0018869808],[0.07855627,0.007895303,-0.031553693,0.016311178,0.12033986,0.01691587,0.088698335,-0.022872517,-0.031021796,-0.04699854],[-0.16313924,0.03383836,0.18627438,-0.056478873,0.10330477,-0.014863709,0.0116258655,-0.17890029,0.014786701,0.099785656],[-0.08274946,0.023349665,-0.16399239,-0.046721026,0.12783293,-0.0712024,-0.0077039986,-0.30738798,-0.14248438,-0.18919544],[0.14971857,-0.061428852,-0.19035548,0.19405033,0.06158751,-0.10739671,0.17274794,-0.046410266,0.10749654,0.04760229],[-0.06421347,0.052868467,0.07124012,0.12214337,0.12004921,-0.072636016,0.026695592,0.114936724,0.045474384,-0.037158616]]}]}},{"fitness":0,"neuralnetwork":{"inputLayer":{"biases":[0.0,0.0,0.0,0.0,0.0,0.0,0.0,0.0,0.0,0.0,0.0,0.0,0.0,0.0,0.0,0.0,0.0,0.0,0.0,0.0],"values":[0.0,0.0,0.0,0.0,0.0,0.0,0.0,0.0,0.0,0.0,0.0,0.0,0.0,0.0,0.0,0.0,0.0,0.0,0.0,0.0]},"layers":[{"biases":[-0.031248318,-0.13956025,0.07987564,-0.027254364,0.0088346815,-0.050707504,-0.0048121163,0.034100834,0.14317453,0.033097792],"values":[0.0,0.0,0.0,0.0,0.0,0.0,0.0,0.0,0.0,0.0],"inputWeights":[[-0.03738435,-0.23751156,-0.030830696,0.076586016,-0.061328474,0.096224226,0.019920167,0.022645075,0.17273581,0.041221604,0.061687175,-0.04004071,0.23031749,0.017945733,0.023520153,0.07043076,0.12339668,0.017563224,0.029027982,0.24961956],[-0.18682149,0.0701484,0.025274374,0.034721825,-0.06931105,-0.020791717,-0.052933745,0.032109153,-0.13037448,0.058680594,-0.066911206,0.11573206,-0.044462364,-0.06685769,-0.016551228,0.065865025,0.04303902,-0.018564792,-0.045888886,0.045133952],[-0.06826578,-0.053462137,-0.12181721,0.06822392,-0.0137292305,0.19544192,-0.108027935,-0.13325429,-0.12978715,-0.11034865,0.24758002,0.09370826,0.06155109,-0.20294319,-0.041850735,0.10938051,-0.08119837,-0.010660538,-0.0057149385,0.093343414],[-0.1095247,0.10660732,-0.09150025,0.050841134,-0.0321816,-0.07159673,-0.048085198,-0.115319036,-0.020017106,0.053546622,0.064467184,-0.050363924,0.18079998,-0.17729588,-0.13899422,0.23114285,0.19296518,-0.06761625,-0.009863655,0.008701965],[-0.11303913,0.023558078,-0.121079154,-0.10298681,0.023755742,0.025484828,0.17972578,0.1626671,-0.094486676,0.009733625,0.13250156,-0.029787749,-0.08802112,-0.061894402,-0.028790677,0.09929936,-0.085919134,0.04530003,0.004086921,0.005285336],[0.022228459,-0.288948,0.087652415,-0.15222764,-0.09254559,0.019935776,0.2673811,-0.27798972,-0.019944621,0.011984429,-0.031271238,0.060050525,-0.1952449,0.031229792,-0.15140241,-1.5604487E-4,-0.048963096,0.009895531,-0.04485078,-0.024551632],[0.039898362,0.09821847,-0.19367185,0.0777935,0.08035045,0.10012382,0.0042920434,0.06641472,0.019118244,-0.08397458,0.001233819,-0.0098001165,0.15668894,0.21616334,-0.011890194,0.12980478,-0.14996687,-0.033243068,-0.09805948,0.10501655],[-0.20333727,-0.17435129,-0.038440384,-0.0070539485,0.009998265,0.0518229,0.21102412,-0.013411928,0.061569765,-0.039165486,0.0899857,0.04130958,-0.022452824,0.18062818,0.071155295,0.07318919,0.024878303,0.059189003,0.055348232,-0.0024040258],[0.012929167,-0.0064276145,0.054239053,0.0858116,0.0065793158,0.08957103,0.009909923,0.13590322,0.25341722,0.15542768,0.11971143,0.1295113,0.031421024,-0.11334333,-0.0064486903,-0.037790768,-0.05370147,-0.16530178,-0.056529246,-0.15306154],[-0.17750616,-0.2856381,0.10113924,0.011453914,-0.098234534,0.057519984,0.06660818,-0.111834176,-0.0045951186,-0.08169507,0.065146476,0.10370154,0.13362111,0.048912704,-0.05032176,-0.07093363,0.09653898,-0.15482105,-0.14464635,0.079644255],[0.04889254,-0.111290865,-0.07590112,0.018931063,0.08015707,0.08985095,-0.039206866,-0.029230744,0.081884556,0.14050657,-0.07812856,0.016639838,0.07206575,0.031849954,-0.058177967,0.05377774,0.058065645,0.03825788,-0.0041929823,-0.019292867],[-0.12204594,0.06817613,-0.09342884,0.10827295,-0.11778275,0.16146086,-0.20801455,-0.02063426,0.09033505,0.072775334,0.06860414,-0.0028123113,-0.039083265,-0.022069896,0.090465665,0.042827245,0.023567226,-0.17610332,-0.13198794,0.0023935465],[0.028421959,-0.15138376,-0.04863909,-0.10094955,-0.09460416,-0.055213306,0.20625624,-0.05416776,0.08181535,0.0074330023,-0.07737363,0.08488664,0.0044999192,-0.09587138,-0.028161895,-0.12893638,0.029175404,0.05704076,0.21295926,0.13015155],[-0.08074457,0.13116042,0.018220687,0.017513232,0.123001985,0.1279323,-0.063510865,-0.024498679,-0.07234808,-0.029936103,-0.0017764849,-0.028838538,-0.16042295,-0.17582963,-0.020340607,-0.02372542,0.040205162,-0.12845019,-0.113665454,0.06418066],[0.011519652,0.057001825,0.040102646,-0.14748418,0.025843516,-0.16210884,0.11178216,0.08208895,-0.144696,0.0061925165,0.22287072,0.092034675,-0.030635914,0.08588971,0.027160956,0.14060983,-0.18334895,0.014291173,0.044938635,-0.15870912],[0.018769318,-0.032289468,-0.027958052,-0.14491956,-0.08848961,-0.14186943,-0.19129393,0.038124017,0.15932932,0.027417537,0.15884438,-0.076589234,0.06364131,0.058790516,-0.09156118,-0.060106978,-0.2833664,-0.132277,-0.12661296,-0.024899177],[0.19923468,0.10338926,-0.02809071,0.03618453,0.10182834,-0.05770753,-0.08720437,0.017059822,0.002917109,-0.09828847,-0.0091883615,0.05875915,-0.087154336,-0.1319471,-0.094043806,0.1368684,-0.018586883,0.060373582,-0.015163848,-0.065027334],[0.052860454,0.055349182,-0.030335775,-0.038532462,-0.056414135,0.23197076,0.13536875,0.08499052,0.003710941,-0.051128436,0.11187945,-0.0016343765,-0.09938582,-0.12619267,-0.08737809,0.016853457,-0.04239043,-0.018707354,-0.13909347,0.115527265],[-0.1610865,0.114792936,0.03589032,0.12353738,-0.11200487,-0.093173265,-0.024107063,-0.11114814,7.504102E-4,0.11322045,0.047920812,0.06306804,-0.108913064,-0.004886317,-0.019859139,-0.010959627,0.04873051,-0.05955859,0.050910316,0.15106757],