{"generationNumber":35,"Entities":[{"fitness":0,"neuralnetwork":{"inputLayer":{"biases":[0.0,0.0,0.0,0.0,0.0,0.0,0.0,0.0,0.0,0.0,0.0,0.0,0.0,0.0,0.0,0.0,0.0,0.0,0.0,0.0],"values":[0.0,0.0,0.0,0.0,0.0,0.0,0.0,0.0,0.0,0.0,0.0,0.0,0.0,0.0,0.0,0.0,0.0,0.0,0.0,0.0]},"layers":[{"biases":[-0.077871874,-0.21045326,0.0038748607,-0.18712239,0.1436183,0.12884447,-0.19682649,0.11655451,0.008308112,0.010625652],"values":[0.0,0.0,0.0,0.0,0.0,0.0,0.0,0.0,0.0,0.0],"inputWeights":[[-0.012981674,-0.08750195,-0.042596612,0.013861065,-0.1015984,0.05588524,0.028331043,-0.07354844,0.037246864,-0.020275569,0.028305333,-0.07953606,-0.20325091,-0.12435341,0.034374814,0.13901064,-0.10546685,-0.06343213,0.0634908,-0.07878382],[0.036549937,0.1293718,0.04504083,-0.029536638,-0.045729704,-0.2126843,0.11089131,-0.023265993,0.011498547,-0.17422949,-0.017854784,-0.119302906,0.030624736,-0.073892385,0.15154427,0.09398205,0.08464771,0.10166765,-0.06201662,-0.04614324],[0.113110915,0.07945414,0.06286614,0.06425993,-0.1321057,0.22094628,0.34911013,-0.047645573,0.08952067,-0.23547742,-0.05249636,-0.19731888,0.2644648,0.04673431,-0.036789004,0.04528965,0.08241015,-0.07613382,-0.0050722603,-0.13346785],[-0.105546705,0.066627875,-0.034154136,-0.008318679,0.090373054,-0.017920379,-0.11133828,0.107239835,-0.09507135,0.09259883,0.14033075,-0.20040584,0.07785961,-0.08134661,-0.059982367,0.04832549,0.06394646,0.061122704,0.04417258,0.06973035],[-0.17982209,0.055131756,0.09726216,-0.015237697,-0.02437017,0.056301866,-0.050504547,-0.049033303,-0.113091014,0.22497207,0.11782949,0.12766975,0.047891706,-0.017812544,-0.07428245,-0.029860068,-0.043607853,0.15094186,-0.030217972,0.34683448],[-0.051803906,-0.1434328,0.06513624,0.0684821,-0.028424667,-0.08078395,0.1498757,0.084893644,0.07355307,0.013123491,-0.20476034,-0.0068132877,0.2161571,0.09199827,-0.061013937,-0.01878833,-0.12448045,0.080726966,0.074173614,0.038786586],[-0.064738005,0.11024453,-0.09856673,-0.07714686,-0.058429938,0.06982484,-0.009087235,-0.045270417,0.048364457,0.10199186,-0.0203878,0.08063493,-0.08974018,-0.012205318,0.071163826,0.05053961,-0.23154105,-0.124526575,-0.1291495,0.22104087],[-0.16487683,-0.019885676,0.14051956,0.07560546,-0.06724227,0.09600935,-0.0859104,0.1118774,0.011414735,0.068823054,0.040864833,0.14726624,0.09229239,0.2808602,-0.054566108,0.07225419,-0.009094256,0.09017139,0.07440838,-0.13999261],[-0.032931525,-0.059641708,-0.021605175,0.049355146,-0.057084832,-0.071963325,-0.041605335,0.09325851,-0.2094111,0.17430957,0.08059656,0.15814373,0.005378647,0.12297957,0.04809421,0.08831829,0.0069445116,0.08384769,0.014475865,0.08511487],[-0.115854144,-0.16007407,0.07064968,-0.023607066,0.03841685,0.016730212,-0.0520451,0.27172986,-0.06078761,-0.07058849,-0.09196759,0.1797027,0.027815953,-0.03709655,-0.08867175,0.14029546,0.16734722,-0.009204626,0.04606523,0.13317917],[0.18083225,-0.067634225,-0.026073983,0.0137736695,-0.0016084266,0.08502479,-0.018732268,0.13159555,0.06906601,-0.03470736,-0.112770006,-0.089455016,0.01733819,0.03549942,-0.08877177,0.08674592,-0.13521267,0.13320743,0.12230111,0.25153533],[0.177055,0.07677904,-0.016679393,0.025887305,-0.047059417,0.021832118,-0.08376138,0.17804958,-0.12273611,0.038377576,0.05724247,-0.072438985,-0.13490644,0.096538566,-0.09445567,-0.015515615,-0.018960979,0.13312094,-0.012997792,0.061418243],[-0.12935792,-0.048983485,0.15768582,0.0976951,0.008394782,0.11751613,0.08539166,-0.121792644,-0.09128857,0.24322058,0.0741683,-0.093107805,-0.06950624,0.16227612,0.12382915,-2.879588E-4,-0.017404784,0.0052733067,0.004149038,0.061196454],[0.183893,0.055854715,0.1808338,-0.16559179,0.014057916,0.12664747,0.03572195,-0.039063845,0.04523837,0.2120496,-0.014758443,-0.02224124,0.13683423,-0.09449109,-0.033960868,-0.11336044,0.16232795,-0.2642542,0.08424451,0.06766885],[-0.1531208,0.20333709,-0.110603124,-0.17391954,0.047127903,-0.029332245,0.010906783,0.10969834,0.04844844,0.008335727,0.07584984,-0.035444707,-0.09534148,-0.034039307,-0.0511623,0.011090712,-0.113706455,-0.04991321,0.031730037,0.05498756],[0.14512746,-0.08265558,-0.12174516,-0.116022035,0.14274573,-0.14739567,0.16417065,-0.026106637,-0.030333558,-0.09002176,-0.06520259,-0.07357208,0.024312546,-0.08695592,-0.10243117,-0.02059182,0.032273594,0.06631644,-0.01925482,-0.009631493],[0.08829475,0.063930765,-3.7970458E-4,0.14941563,0.122938775,0.05763129,0.03768226,0.0037919057,0.16421497,0.21039571,-0.085454516,0.14327855,0.11344602,0.17644812,0.1400825,0.06251196,-0.020371566,0.06316588,-0.006285694,0.0755661],[-0.096751586,-0.12376863,0.01993039,-0.007160593,-0.025324741,0.13579777,0.106145635,-0.09093461,-0.044013087,-0.057892393,-0.008970378,-0.032753907,-0.022006456,0.059049323,0.15424117,-0.06372016,0.021683197,-0.060076583,-0.060789753,-0.1318024],[-0.09453288,0.043459795,-0.15791763,0.031100137,0.037176877,-0.14870623,0.032502525,0.02508607,0.094446026,-0.0364852,0.005704466,-0.045499273,0.10477078,-0.16140415,-0.029547598,-0.012053964,0.09813829,0.1432491,0.02895915,0.0241218],[0.07168304,0.032021806,-0.08786438,0.11275915,0.18342961,0.04268835,0.03874038,-0.028487494,-0.01101489,0.043490328,0.022867223,-0.22641416,-0.0868447,-0.013870737,-0.03529435,-0.023847895,-0.019305764,0.060312636,0.11352669,0.10084749]]},{"biases":[0.14473285,-0.15072156,0.21010955,0.15013222,-0.11571336,0.027907856,-0.009625545,0.09596934,-0.05000644,-0.030675806],"values":[0.0,0.0,0.0,0.0,0.0,0.0,0.0,0.0,0.0,0.0],"inputWeights":[[-0.04085586,0.05240672,0.012058093,-0.14412409,-0.09261082,0.09104731,0.054758456,0.03729764,0.096849844,-0.048478164],[-0.17767006,0.17451577,-0.06676165,-0.034565456,-0.005909244,0.06111071,-0.25407654,-0.015802065,-0.021076346,0.14589433],[-0.002986858,-0.044814393,0.080694914,0.085406415,-0.07440723,-0.012296448,-0.007223617,-0.05171604,-0.10451558,-0.027281558],[-0.052428447,8.777236E-4,-0.032889076,0.17120565,-0.050316095,0.26359695,-0.03057452,0.08609649,0.08325518,0.056091607],[0.016868742,0.02609864,-0.053591892,-0.057177365,-0.034886308,-0.018809723,0.008161372,0.017660081,0.17024393,0.04217728],[0.007644955,0.061979525,0.014985128,0.01450154,0.07170028,-0.023331359,-0.12659287,-0.04634765,0.02576325,0.062088147],[-0.024048308,-0.09138216,-0.1387263,-0.14797567,-0.030032936,0.011524641,0.041985974,2.7106886E-4,-0.076792546,8.6857466E-4],[0.04933261,-0.03281785,-0.15622495,0.07173763,-0.030818619,-0.062062457,-0.0788099,0.107567005,-0.020940915,-0.13368429],[0.12853228,0.0043054856,0.014807874,0.06839433,0.013289332,-0.064514525,-0.17019348,0.10814887,-0.053464174,-0.059538994],[-0.14188677,-0.16009395,-0.116616584,0.046098623,0.04527459,-0.025151353,0.025641974,0.12248943,0.042054705,0.03171817]]},{"biases":[-0.13921691],"values":[0.0],"inputWeights":[[-0.0922312,-0.046535775,0.12718393,-0.13034245,-0.06526272,-0.22133623,0.09816271,-0.12078983,0.04042296,0.0865559],[0.011908806,0.03897282,-0.07905413,0.071593806,0.13961135,0.026908224,-0.012568418,-0.07499255,-0.067376114,-0.06168456],[0.04582179,0.029724022,0.1928987,0.0369684,-0.12784097,0.08524839,-0.08303974,0.19888754,0.005402242,0.16231588],[-0.0022123067,-0.072244674,-0.09829445,0.14806123,-0.014371739,-0.16182794,0.060155075,0.14184834,0.17395966,-0.08923621],[0.045806162,-0.081124105,0.019175962,-0.0467439,0.07966744,0.045180283,0.019063495,0.0055954466,0.03203254,0.078968845],[-0.057705,0.021341845,0.10287149,0.08864911,-0.08911747,-0.15871754,0.08201236,-0.1240073,-0.01098847,-0.022135317],[-0.005550339,0.003218121,-0.121523045,-0.20978975,-0.07612189,0.020873303,0.21603532,0.121361494,-0.07157846,-0.06821557],[-0.057647284,0.056162696,-0.058808554,-0.10711231,-0.011688304,-0.2912703,-0.08964974,-0.05143324,0.022682602,0.07121866],[-0.027992727,0.13648438,0.15072148,-0.14423399,-0.16557561,0.09237702,-0.008997669,0.06706391,0.019185584,0.01885599],[0.036660686,-0.014578325,-0.009902501,-0.042179864,-0.09778962,-0.08597605,0.07104519,-0.10660645,0.047616392,-0.16702355]]}]}},{"fitness":0,"neuralnetwork":{"inputLayer":{"biases":[0.0,0.0,0.0,0.0,0.0,0.0,0.0,0.0,0.0,0.0,0.0,0.0,0.0,0.0,0.0,0.0,0.0,0.0,0.0,0.0],"values":[0.0,0.0,0.0,0.0,0.0,0.0,0.0,0.0,0.0,0.0,0.0,0.0,0.0,0.0,0.0,0.0,0.0,0.0,0.0,0.0]},"layers":[{"biases":[-0.0029984973,0.1270555,0.08348763,-0.09755395,-0.08273969,0.08676895,0.07623614,-0.1904097,-0.055586,0.16315232],"values":[0.0,0.0,0.0,0.0,0.0,0.0,0.0,0.0,0.0,0.0],"inputWeights":[[-0.046767276,-0.036210813,-0.09312247,0.16568713,0.043140944,-0.06557182,0.14564355,-0.023110267,0.1335574,0.15205036,-0.010835097,-0.05125731,-0.106797196,-0.10908714,-0.05217373,0.031488884,0.08448905,-0.082175694,0.16326635,-0.08295699],[-0.04064913,0.006501488,0.25001574,0.010347167,0.04552804,0.098272495,0.16588601,0.07041905,-0.12212348,0.0423707,0.12216996,0.011107315,0.036583714,-0.14443853,0.12113809,-0.10733964,-0.17098571,-0.08094241,0.09630203,-0.11901341],[-0.10937684,-0.042536017,-0.012327418,-0.10589363,-0.12668498,0.20341742,-0.024126362,-0.13509832,0.041805916,0.031894375,-0.023408191,-0.13944404,-0.012842724,-0.14321534,0.052607555,-0.1532934,-0.060648173,0.124744415,0.05411111,-0.0317437],[0.07163004,-0.20410067,-0.18096383,-0.0140983565,0.15935041,0.2815267,-0.0205763,-0.054156948,-0.02338161,0.09824177,-0.19770323,0.13569267,-0.05922262,0.06992121,-0.10588716,-0.084497966,-0.16586523,0.06859912,-0.15764806,0.08419201],[0.041360717,0.112537704,-0.076292016,0.08615467,0.034101415,0.06046949,-0.048226684,-0.07782572,0.05560387,0.13026309,0.087816894,-0.05794742,0.03706512,-0.08284621,-0.14821607,0.05333002,-0.1342042,-0.042209353,-0.0018187442,-0.03626246],[-0.07138685,0.1674218,0.14862403,0.12685612,0.031218605,0.070661806,0.1047405,0.025671724,0.020175295,0.03484967,-0.031647734,-0.0028355413,-0.011603055,0.12604398,0.043731302,0.11942229,0.012642425,-0.19726177,-0.019322101,-0.093738124],[0.014699037,0.16645692,-0.061795752,-0.11980868,0.043785222,-0.0010217892,-0.15037628,-0.021208085,0.19262925,-0.0026115538,-0.064300984,0.07968082,-0.021129109,0.075261794,-0.14141428,-0.12512912,-0.04944824,-0.031915437,0.022660721,-0.09548558],[-0.0975013,0.13386205,-0.16960655,-0.21930799,0.023051554,-0.13813971,-0.006832797,0.10295345,0.07437323,0.11154401,0.010964084,-0.06869932,-0.06548149,-0.11892971,-0.05668518,-0.023309307,-0.057844803,-0.102259785,-0.06702303,0.1429243],[-0.20569201,0.051390506,-0.23817152,0.008984672,0.12924759,0.09208552,-0.022364885,0.02540956,-0.053846646,0.0072235605,-0.08564955,0.1429671,-0.04533125,0.11385406,-0.020754375,0.06573349,-0.06477893,-0.097995475,0.0644741,0.2017599],[0.0131137,0.06381109,-0.10032037,-0.09603895,0.1503961,0.029451039,0.06143988,-0.06978493,-0.043493748,-0.038716886,-0.047677748,0.0658765,0.2025154,-0.14618865,0.087026104,-0.12122171,-0.16477315,0.114960015,-0.08794805,-0.1325407],[-0.13921945,0.050311804,0.09832497,0.15746568,-0.023489673,-0.037811562,-0.10179655,-0.092376955,-0.028344663,0.22260876,0.074283205,-0.0821352,0.07169433,0.017620604,0.13041513,0.13841882,-0.050249208,0.0040928097,0.0016418899,-0.12881969],[-0.007595891,-0.02301814,0.007887728,-0.17648737,-0.058206066,0.09319566,-0.13226779,-0.005070531,0.09404879,-0.0361094,0.02538827,-0.101855874,-0.021021962,0.027306471,-0.14772533,-0.15039214,-0.022831405,0.029734941,-0.061497908,-0.050734587],[0.058241613,-0.060185455,-0.0997263,0.11956169,-0.067215495,-0.061104123,-0.0018350607,0.18217717,-0.106965594,-0.11888518,-0.1690779,-0.04633197,0.085536785,0.001715754,0.10414781,-0.106490694,-0.011191407,-0.20732304,-0.01594614,-0.10594043],[0.03464962,0.09179607,-0.052677557,0.010302103,-0.032987557,-0.0070669567,0.04953613,0.117396206,-0.08410515,0.03444849,-0.08305403,-0.1282324,-0.03816104,-0.08110335,-0.027696447,-0.037235446,-0.0052813254,-0.20045486,-0.103122644,0.04857537],[0.12031946,-0.15278694,-0.14931585,0.16783543,-0.09913473,0.10528814,0.093642175,-0.10817037,0.04695635,0.030380137,-0.037107274,-0.08608601,-0.0036523377,0.06640273,-0.062262397,0.047738772,0.11569923,-0.03747791,-0.054571174,0.15360746],[0.19395234,-0.04588394,0.09871181,0.0061836913,0.1415878,-0.07166139,-0.16802196,0.14948852,0.015097996,-0.004584495,-0.044168286,0.17206138,0.17151238,-0.085471086,0.036570337,0.14275455,0.009317059,0.09987145,0.051372543,0.15319753],[-0.013525827,0.03752766,-0.11743177,-4.7667997E-4,-0.1755681,0.0711351,0.014979109,-0.15949334,-0.020150969,0.025780097,-0.07221863,-0.10240978,0.031699523,-0.12651831,0.18131498,-0.12854956,-0.082754485,-0.063091375,-0.056265607,0.040727314],[-0.07299167,0.054059137,0.010547201,0.119406626,-0.14073655,-0.106858104,-0.08087728,-0.039861858,0.06053574,0.18776523,0.1574223,0.033898562,0.15668,0.105295315,0.09920497,-0.15903054,-0.050039653,-0.023601167,-0.07614511,-0.023163248],[0.097873904,0.09291333,0.017840289,0.12832955,-0.07989898,-0.01316062,0.03857795,-0.06672283,0.038769133,-0.014896486,0.084403835,-0.030655533,0.10537205,0.087107986,-0.11341736,0.1252041,-0.10372924,-0.0047518886,0.056284424,-0.016165148],[0.052794434,0.08838545,0.12675174,-0.07867452,0.06607115,0.008299489,0.17895526,-0.102555856,0.06844485,-0.060390044,0.20496336,0.14445388,0.029016942,-0.040746655,0.07316446,-0.11807322,-0.073243335,-0.056533143,-0.13781746,-0.113755345]]},{"biases":[0.14535521,-0.10366036,-0.033800613,0.15014528,-3.0472776E-4,0.17117836,0.015086984,-0.09803128,0.0046448107,0.09082998],"values":[0.0,0.0,0.0,0.0,0.0,0.0,0.0,0.0,0.0,0.0],"inputWeights":[[-0.079844646,0.024554193,-0.08000744,0.01072762,-0.11181265,0.018901277,0.111020096,0.16054673,-0.042301632,-0.12999466],[0.0154759195,0.009986196,0.013817579,-0.020977285,0.09146382,0.04396926,-0.083595715,-0.06586342,0.11443072,-0.2048122],[0.14197887,-0.040685482,0.024288591,-0.16515683,-0.12333785,-0.09282889,0.15880373,-0.16713244,0.099214315,-0.07079917],[0.03131371,0.12838274,0.090651356,-0.13530691,0.034986705,-0.021923048,-0.15572235,0.016806146,-0.01098347,0.043978672],[-0.09582596,0.07355738,0.037491128,-0.17970447,0.067472555,0.00465223,-0.102114044,0.0012577302,0.011040222,-0.07251121],[0.15448804,0.106264606,-0.068897985,-0.14604081,-0.09622427,0.10197608,0.14612998,0.062362965,-0.02302394,-0.08275284],[0.1627127,0.0016196058,0.13100342,-0.010246963,-0.15016101,0.01867814,0.05630058,0.08009238,0.14163764,-0.025830498],[-0.0541637,0.004603961,0.058587626,0.025516212,0.17781384,0.085651346,-0.02554308,-0.029898504,0.0061786375,-0.04230729],[-0.08286711,0.011132576,-0.1656672,0.09559307,-0.006185386,-0.16855417,-0.07145457,0.018375551,-0.13733433,0.13505553],[0.08647247,-0.040785618,-0.09814575,-0.044992395,0.0064904466,0.012197454,0.06558492,-0.16129802,-0.079210594,0.092370346]]},{"biases":[0.22798246],"values":[0.0],"inputWeights":[[0.010119698,0.070264615,0.08830692,0.024937736,-0.061090283,0.037042633,-0.116018444,0.038597897,-0.003130128,0.04171388],[-0.06370238,-0.056424566,0.040843125,-0.020137226,-0.028070128,0.12249143,0.117549114,0.11204366,-0.12384732,-0.19884448],[0.10400902,0.041816138,0.12087088,-0.0635785,-0.11257834,0.04584479,-0.018471548,-0.13176024,-0.057090107,-0.03553722],[-0.32668442,0.06995272,-0.05955216,-0.045595277,0.004371314,0.11372944,-0.056627594,-0.062278774,-0.052950792,0.15086243],[-0.08018197,-0.02362793,0.08365831,0.04703043,0.0683483,0.07933082,0.14137393,0.02186378,-0.08898099,0.0065861684],[-0.096215405,-0.17919344,0.045838565,0.03838503,-0.05787196,0.28150827,-0.14474888,0.08947647,-0.007416972,0.002979566],[0.038785618,0.178455,0.19870354,0.15465267,0.06225277,0.069020346,0.17015639,0.0075544836,-0.0026458073,-0.018856537],[-0.026415346,0.05135639,-0.009837283,-0.06221346,0.008122949,-0.026498074,0.17451899,-0.015328568,0.019815106,-0.23635273],[0.006006084,0.049025353,-0.010137511,0.009909018,-0.149825,-0.05942602,-0.08353034,0.031768255,0.14769787,0.116542265],[-0.2040425,0.2512765,-0.095780276,0.06405482,-0.017614843,-0.0070863636,-0.09952187,-0.028936908,-0.09392325,0.024837404]]}]}},{"fitness":0,"neuralnetwork":{"inputLayer":{"biases":[0.0,0.0,0.0,0.0,0.0,0.0,0.0,0.0,0.0,0.0,0.0,0.0,0.0,0.0,0.0,0.0,0.0,0.0,0.0,0.0],"values":[0.0,0.0,0.0,0.0,0.0,0.0,0.0,0.0,0.0,0.0,0.0,0.0,0.0,0.0,0.0,0.0,0.0,0.0,0.0,0.0]},"layers":[{"biases":[-0.018874204,-0.2363678,-0.11944536,-0.09190102,-0.18981753,-0.002424839,-0.19927937,-0.1243898,0.011059314,-0.006386744],"values":[0.0,0.0,0.0,0.0,0.0,0.0,0.0,0.0,0.0,0.0],"inputWeights":[[0.021015909,-0.033621494,-0.20863648,-0.23472054,0.043208905,-0.21213976,-0.16172142,-0.14783554,-0.17177567,0.20057583,-0.010940153,-0.10495923,0.0405174,-0.039777808,-0.14702901,-0.27072957,-0.011254268,-0.04369108,0.046017863,-0.1243558],[0.15190679,0.013550922,-0.020311456,0.17917624,-0.10279305,-0.20112748,5.085539E-4,0.29575515,0.17703134,-0.042069014,0.012463648,0.06243653,0.14801387,-0.023472995,-0.030301293,0.033331823,0.009363326,0.06148457,-0.0601518,0.1709401],[-0.15788096,-0.11257678,0.16089328,-0.26508766,0.049747154,-0.11806269,0.05778022,-0.07025948,-0.042558286,0.028277496,-0.21063757,-0.02395173,-0.062184677,0.13753173,-0.030891668,-0.07171917,-0.032386407,-0.019861698,-0.09502266,-0.023066854],[0.2116302,0.018364113,0.119855046,-0.1468249,-0.05786833,0.036920294,0.06269162,-0.086428866,-0.20416328,-0.11665477,0.05255138,0.04848538,-0.043564938,0.030318713,0.23450582,0.112535775,0.074152194,0.0076500336,0.03929912,0.004431207],[-0.047865752,-0.037504643,0.08831033,0.017324153,0.05189456,-0.034848984,-0.12925555,-0.10069776,-0.17292479,-0.005697835,-0.06529428,-0.1080152,0.027072025,-0.11918611,0.022838105,-0.049781125,-0.0973991,0.18993337,0.11881529,0.17190596],[0.12501487,0.14402708,-0.029145261,-0.0014255105,-0.08101501,0.075182825,0.15662721,0.12269867,0.19819967,-0.049201183,0.10848103,0.12722299,0.0040641413,-0.16024569,-0.09316731,-0.03586226,-0.011311849,0.007437292,-0.11776244,-0.056383755],[0.0074601546,-0.2183322,-0.032354034,0.18462048,-0.10464605,0.019101813,0.092392914,0.100014426,0.096965864,-0.012231687,-0.19074647,0.06270833,-0.13603504,0.08313715,-0.11007475,-0.010983853,0.13649733,-0.07410481,0.009339654,0.13178843],[0.13964969,0.00844255,-0.19065137,0.13172475,0.120321766,0.037490092,-0.05638376,0.036447532,0.15220025,0.063459046,0.019028004,-0.06447025,-0.10818779,-0.13746022,0.0034184835,0.054984055,-0.16716337,0.19570534,-0.17008688,-0.098819785],[0.03854546,0.06716829,-0.19586754,-0.030081706,0.1260181,-0.045527577,-0.012029326,-0.09959342,-0.07682323,0.10281313,0.0644702,-0.18843801,-0.05730788,-0.017217757,0.05478037,-0.09006285,-0.076601006,-0.025223179,0.033262547,-0.06426785],[0.10574153,-0.07119828,-0.012305051,-0.12230805,-0.20279592,-0.08424245,0.094342895,0.16017593,-0.0045473585,0.050719995,0.063436426,0.08524732,0.013234049,-0.20046325,-0.053231932,-0.06949177,-0.27125674,-0.0951554,0.056419205,0.04730404],[-0.15827653,0.2252039,-0.022528311,0.04350735,0.09709979,-0.06144354,0.13715237,-0.065232135,0.08787449,0.07884123,-0.026839131,-0.095726565,0.08112648,0.014723179,0.02928121,0.22731704,0.002100033,0.065477625,-0.11439222,-0.11708778],[0.16891405,-0.17625453,0.115358226,-0.09984612,-0.13206428,-0.08630759,0.12740692,0.10015299,0.046626087,-0.034392554,-0.14033058,0.06425511,0.11102628,-0.0023431731,0.2047467,-0.11364209,0.19772837,-0.06179577,-0.03151247,-0.04229294],[-0.12943664,0.15556829,0.075168215,0.043234937,0.056681048,-0.060858265,0.17101017,0.0049372357,0.08463933,0.078498006,0.04196782,-0.030947436,-0.050595142,0.13434207,0.041634895,0.052791823,-0.06085967,0.07319782,-0.059815206,-0.11244182],[0.020643318,-1.3539229E-4,0.061996944,-0.13552603,0.11969801,-0.02796389,0.20476629,0.03597861,-0.0435098,0.07608074,-0.0109011,-0.038342945,-0.04068037,0.09730771,-0.013805522,-0.13629004,0.1296601,0.44194978,0.084570274,0.031243013],[-0.10609027,0.1003273,0.043842316,-0.034736548,0.003812478,0.04248119,-0.16831148,-0.033127956,0.006264394,0.1981546,-0.08632245,-0.015190931,-0.14451288,0.004467953,0.12750039,-0.08883218,0.012700349,6.612594E-4,0.036230884,0.012378185],[-0.11887725,-0.1257959,-0.0033692834,0.17652704,0.041922737,0.040291518,0.09066158,0.029882444,0.090713255,-0.083008796,0.024140667,0.030381376,0.122824974,0.14585447,0.045313746,-0.105855264,0.061345078,0.052626424,0.01849948,0.2239864],[-5.691941E-4,-0.075148106,0.21967089,-0.0712753,-0.058344927,0.12468752,0.08276886,0.013271533,0.26276076,0.14630046,-0.12852333,0.03968335,0.029116312,0.14110413,-0.021717109,-0.086027704,-0.03342998,-0.030823857,-0.0632685,0.02300521],[0.11687477,-0.111232124,0.13674903,-0.050884068,-0.047773603,0.13693911,0.24851921,-0.10357427,-0.19911687,-0.06092184,-0.017667422,0.009660738,-0.14018121,-0.09104099,0.05061864,0.084581405,-0.06252502,0.06673685,-0.07863494,0.04183092],[-0.059591036,0.0630005,-0.011139242,0.008221114,0.14560105,-0.24758899,-0.022583257,0.19151999,0.006721476,-0.100331575,-0.030702367,0.057635136,0.026576718,0.10992835,-0.12751493,-0.021404257,0.07057438,0.0381202,0.028803224,0.08969145],[0.103188135,0.049776476,0.06665465,-0.09238944,-0.06679321,-0.11770802,0.03706025,0.27546594,-0.04676058,0.16009766,-0.1541597,-0.024173172,0.045681678,0.07020185,0.06289771,-0.18848531,0.01488445,0.03569145,0.06059642,-0.07053443]]},{"biases":[0.02830233,0.111255124,-0.061406326,-0.10023822,0.028534118,0.030663576,0.14527018,-0.02182664,0.17954129,0.18893307],"values":[0.0,0.0,0.0,0.0,0.0,0.0,0.0,0.0,0.0,0.0],"inputWeights":[[0.004470958,-0.047389317,-0.054432105,0.07576229,-0.14893644,-0.0736437,0.03146592,0.07417247,0.02515829,0.18988211],[-0.081050865,-0.041936677,-0.06445841,0.0420737,-0.052446987,0.025463605,0.16054322,-0.0849858,-0.025887365,-0.057975527],[0.116213866,0.041158006,-0.029519644,-0.103835344,0.09621737,0.09961676,-0.16093634,0.013301654,-0.0920403,-0.007861604],[0.03158208,-0.14625748,-0.06590555,0.073006116,0.04134589,-0.1261436,-0.12437562,-0.056121543,-0.10291773,0.12752515],[0.1344513,0.17021684,-0.045777027,0.16712046,0.059942905,-0.050710462,-0.07394238,0.16665556,0.13957673,0.010607401],[-0.12416396,-0.059940357,-0.133697,-0.2671277,0.116656326,-0.092355676,-0.013032533,-0.054453738,-0.049036726,0.011963241],[-0.029065538,-0.0575475,-0.19767912,0.022649784,-0.13298175,0.03410914,-0.17605706,0.09164158,0.2153907,0.14120503],[0.042663023,-0.031983167,0.045656,0.11447752,-0.06613995,-0.09592308,-0.030163035,-0.13391149,0.10038272,-0.21961306],[0.23216958,0.056715265,0.0018353915,-0.08657556,-0.2452972,0.013517996,0.070578724,-0.071007654,-0.24035679,0.029344518],[-0.042243414,-0.021915669,-0.066075265,0.06469928,0.07349017,0.18303403,-0.071273014,-0.07297198,0.0047449167,-0.12754203]]},{"biases":[-0.050569355],"values":[0.0],"inputWeights":[[0.11320596,0.040668532,0.086366415,0.046420325,-0.10919642,0.099726155,-0.12736505,-0.047645636,-0.015211454,-0.095924996],[0.0678797,-0.029556723,-0.20989552,0.096937634,-0.04952373,0.17021297,-0.07435986,0.0930753,-0.22594851,0.14470677],[-0.07818363,-0.073061176,0.11713441,0.22551666,-0.021984296,-0.138186,0.057461552,-0.0943154,0.051793505,-0.13660263],[-0.15165132,0.03772005,0.004995023,0.15942277,0.09975,0.050335366,0.06733411,-0.1889692,0.087655686,0.09533674],[0.035218373,-0.037705824,-0.05528871,0.03071738,-0.16176543,0.016950056,0.082212694,0.08849295,-0.10269661,0.043675452],[-0.03639806,0.21459559,0.037880313,-0.08888093,0.006394976,-0.097798765,-0.06855542,-0.020915717,0.02148908,-0.097506605],[0.07426576,-0.015357483,-0.12023585,-9.607144E-4,-0.09123095,0.12269064,-0.048538476,-0.21856217,0.024575587,-0.10983306],[0.07360412,-0.018148273,-0.059643153,0.060799763,0.19212838,0.10604145,0.062815204,-0.02861683,-0.03052419,0.1866232],[-0.12598751,-0.016171545,-0.021966562,0.021113146,0.038706582,-0.07028131,-0.03367825,0.07362806,-0.12357129,-0.03147931],[-0.15321104,0.032383148,-0.032210294,0.07112449,0.002082553,0.09780313,0.02256998,-0.079294644,0.021102982,0.032422077]]}]}},{"fitness":0,"neuralnetwork":{"inputLayer":{"biases":[0.0,0.0,0.0,0.0,0.0,0.0,0.0,0.0,0.0,0.0,0.0,0.0,0.0,0.0,0.0,0.0,0.0,0.0,0.0,0.0],"values":[0.0,0.0,0.0,0.0,0.0,0.0,0.0,0.0,0.0,0.0,0.0,0.0,0.0,0.0,0.0,0.0,0.0,0.0,0.0,0.0]},"layers":[{"biases":[0.037564285,0.018694919,0.039619263,0.111493215,-0.05653034,-0.13931818,0.052060176,-0.14432049,-0.011160712,-9.938815E-4],"values":[0.0,0.0,0.0,0.0,0.0,0.0,0.0,0.0,0.0,0.0],"inputWeights":[[-0.16220555,-0.023322368,-0.17627819,0.016427128,-0.07149786,-0.16972864,-0.024219038,0.047482464,0.065525405,0.010712651,0.06138268,-0.051459037,0.028502895,0.08128339,0.17886408,0.06443593,0.11008994,0.0012708332,-0.15272906,-0.076529875],[0.044321354,-0.089503564,-0.022859368,0.15989466,0.0023688246,-0.025870698,-0.16324046,0.022274502,0.07895133,-0.22995849,0.13980165,0.069178976,0.09990044,-0.10380145,0.17472298,0.09039253,-0.17538735,0.020145148,-0.14934866,0.02359939],[-0.06217669,0.15140738,0.21968462,0.06995858,-0.16875668,0.11228142,0.032477602,-0.15705808,0.08989386,-0.0957761,-0.12225805,-0.09744296,-0.08018532,-0.1558024,-0.015484717,-0.0033937034,-0.16343096,-0.037928745,-0.05249353,-0.10468789],[-0.03353484,0.051096212,0.13153712,-0.110964134,0.0762651,0.011437493,0.00524595,0.06902735,0.053843148,0.02219322,-0.15034185,0.036928598,-0.0021531754,0.010994263,0.21454152,0.045417186,-0.047348395,-0.014148572,-0.14398,-0.06168882],[0.04875429,0.10433096,0.11673762,-0.052319486,0.013618768,0.034448683,-0.03450784,0.07516782,0.09321412,0.14253837,-0.094052516,0.17159972,0.14205137,0.14305393,-0.118254565,-0.030359833,0.09580134,0.060272563,-0.100745976,0.18627271],[0.0689164,0.055129085,0.10048575,0.1650885,0.0075317333,0.082187444,-0.1356044,0.022863418,-0.020494398,-0.017440911,0.024637278,-0.08217114,0.06584107,-0.069337524,-0.11533438,0.14948353,0.12289201,-0.034806743,-0.14198053,-0.12958108],[-0.1256806,-0.017379805,-0.17482612,-0.035800654,-0.08162015,0.06562293,0.06357709,0.11010196,0.0029334277,0.06849852,-0.0885416,0.040382314,0.093903966,-0.18800108,0.04430212,-0.10725777,-0.09039174,0.043434065,-0.13261569,-0.17645502],[-0.11820325,-0.13521773,0.027200354,0.015450171,0.07240438,0.1467567,0.055938013,0.0314692,-0.101543315,0.14771079,0.013397946,-0.11566392,-0.10106078,0.009479689,0.02026902,-0.10311941,-0.11390585,0.067714125,0.14487664,-0.07694839],[-0.022798488,-0.10890712,0.0387548,-0.0072285584,-0.07263676,0.056569554,-0.116079316,-0.041055743,0.050763417,0.02616556,-0.123400085,0.012876739,-0.03359174,0.027303291,-0.14182228,0.06276201,0.1522567,0.034770265,0.047813743,-0.05532246],[-0.04466404,-0.15875776,-0.080905676,-0.04614794,-0.19211914,-0.060512178,-0.07538171,-0.112438306,0.032054607,0.020837622,-0.19224575,-0.1358815,-0.12273984,-0.06222503,-0.19559732,0.038451083,0.024295408,-0.046720855,0.0060904077,0.03359875],[0.11521783,0.018130913,-0.09088338,-0.083028205,0.075761236,-0.01807483,-0.19700417,0.107169785,-0.066916525,0.01638355,0.005500919,-0.054146904,-0.026347667,-0.078800686,0.0760132,0.06427108,-0.09432929,0.05214225,0.06185351,-0.05442641],[0.09479936,-0.016391812,0.11044637,0.15694511,0.22208418,-0.029381657,-0.022116723,-0.07304401,0.1697323,0.099347465,-0.25199485,-0.0577166,0.04899566,-0.15617919,-0.14560029,-0.015720986,-0.13917893,-0.034818843,0.029863534,0.054904763],[0.024339309,-0.13448198,0.017187208,-0.055027258,0.1400595,-0.01133764,-0.050770096,-0.005869827,0.12175133,0.10374122,0.06298909,0.16109353,0.014091499,0.25321344,0.086116016,-0.15965426,-0.18969938,-0.07876045,0.0070284703,0.17722933],[-0.12145408,-0.0031964765,0.010769346,-0.24498975,0.048080124,-0.05322553,0.15902245,0.0245204,0.046863735,0.049635224,0.19210127,-0.14754699,-0.12323301,0.0049799285,-0.003808094,-0.045303006,0.023095764,-0.109091975,-0.042190567,-0.058974136],[0.016480953,-0.044045072,-0.055259246,0.06728025,0.0068180235,0.06191932,0.078418404,-0.19208546,0.08574787,0.16507213,0.06349914,-0.1573441,0.022763906,-0.08156479,0.011593628,-0.19444184,-0.076826744,0.02936319,0.14733538,0.02002785],[-0.08048384,-0.015838068,8.336873E-4,-0.14091352,-0.0454171,0.054798026,-0.0992119,-0.050353874,-0.025033971,0.08197101,-0.2525982,0.038298856,-0.09548112,-0.0054502604,-0.0015824244,-0.03520596,0.19499393,0.061454147,0.07941163,-0.26779374],[-0.04551004,-0.21827532,-0.026044812,-0.07822765,0.08189586,0.18437389,0.24994405,-0.0014503344,-0.08433707,-0.050058965,0.09445179,-0.0034406907,-0.0011548451,0.046608236,-0.092626736,0.037783816,0.05386168,0.14815944,0.006639732,0.08521219],[-0.013819574,0.11919306,0.04029491,0.023816166,-0.0197731,0.08372877,-0.02723351,-0.06874598,0.030976312,0.015861187,-0.13941242,0.051355567,0.029415147,-0.09430091,0.12942253,-0.015743962,-0.054706246,0.014457322,-0.126528,-0.12166022],[-0.06926558,0.29852137,0.038934175,0.26492926,-0.26452333,-0.04694956,-0.035558075,-0.01291914,0.11615963,0.101467595,0.04332924,-0.26404935,-0.019066066,-0.018532285,-0.14672764,-0.12589975,0.26794276,-0.12182434,-0.21805881,-0.1353699],[0.12196711,6.725056E-4,-0.05364657,0.0043764594,-0.057658497,0.058283377,0.1873134,0.013747301,-0.077221304,-0.13604999,-0.068821244,-0.04708831,0.10175667,0.107713126,-0.016221365,0.024644278,0.045219794,-0.015375871,-0.017932026,-0.01538246]]},{"biases":[0.07851724,-0.13064437,-0.07572671,0.14396852,0.22502382,-0.021800235,-0.17384492,0.09481373,0.02290974,-0.07623463],"values":[0.0,0.0,0.0,0.0,0.0,0.0,0.0,0.0,0.0,0.0],"inputWeights":[[-0.011487006,-0.21321937,0.1689604,-0.08884696,0.08424722,0.13700329,-0.004760582,2.9384563E-4,-0.05447625,-0.14765298],[-0.063449435,0.027481984,-0.20385024,-0.008275601,-0.02035103,-0.21712412,0.020751217,0.13714547,0.019725144,-0.114462815],[0.0358826,-0.032006457,0.040948596,-0.11111906,0.030423716,0.15439485,-0.04399693,0.02922008,0.030444885,-0.19935721],[-0.074669234,0.037172273,-0.029732112,0.20700161,-0.091794945,0.036942706,-0.037466116,0.075527646,0.1578558,0.008258078],[-0.12455795,-0.077918276,0.10169115,-0.016441545,-7.8662264E-4,-0.07190509,-0.100882664,0.11859839,0.0627776,0.036593176],[0.0711837,0.09932225,0.08136246,0.092941366,-0.07574539,-0.045668483,0.007572111,-0.054370772,-0.0051144874,-0.0532274],[-0.12598154,0.009108904,-0.0796217,-0.10259258,-0.05910351,-0.09617599,0.042936426,-0.049423233,0.036880914,-0.17053637],[-0.026868531,-0.07757364,-0.017108066,0.19174163,0.011275374,0.04724637,0.028948154,0.03224978,-0.0060696234,0.29391357],[-0.3153095,0.10931431,0.10807817,-0.17422163,0.092367984,-0.1637308,-0.14489017,-0.21717067,-0.07253766,0.12511963],[0.03847348,-0.044596955,0.06285336,-6.9078186E-4,-0.12110111,0.19525881,0.015799176,0.2654265,0.07645668,-0.030171579]]},{"biases":[0.0073551745],"values":[0.0],"inputWeights":[[0.06619998,-0.22811545,0.08326441,0.08297958,0.0089577325,-0.23284875,0.08142631,-0.04682587,0.052476455,-0.01834577],[-0.045486026,0.09133146,-0.017740162,0.13048136,0.04047591,0.008714102,0.025667118,0.025347542,-0.06547656,0.12775631],[-0.030073605,-0.058473058,-0.024381874,0.066964604,-0.20064037,-0.11663475,-0.08946875,-0.13259754,0.04311893,0.14954466],[0.22332919,-0.069545105,-0.18955705,-0.09661522,0.06278304,-0.041201882,0.011044998,0.057248425,-0.09721018,-0.13194259],[-0.03904554,0.068523414,0.049527403,-0.107841745,-0.12798336,0.017525658,0.112456605,0.07688783,-0.13184014,-0.021661239],[0.13633548,-0.08424901,0.13031322,-0.05725015,-0.05144459,0.033663783,-0.22391757,-0.06375137,-0.16008209,-0.061348956],[-0.10550316,0.09154683,0.036482457,-0.074744575,-0.26337883,0.012597052,-0.03670405,0.13860954,-0.21511449,-0.14567243],[-0.036698386,-0.060893834,0.098211825,-0.0029820912,0.005654442,-0.019618856,0.10636298,-0.108618446,-0.003415225,-0.16157855],[-0.1163684,-0.058748137,0.012562497,0.0072304155,0.07284489,-0.015572212,0.039211433,0.11645346,0.057729512,-0.10671317],[0.06957285,-0.061731137,0.16530657,-0.05697621,0.07601272,0.0935077,-0.031027976,0.027803222,0.14470355,0.15200712]]}]}},{"fitness":0,"neuralnetwork":{"inputLayer":{"biases":[0.0,0.0,0.0,0.0,0.0,0.0,0.0,0.0,0.0,0.0,0.0,0.0,0.0,0.0,0.0,0.0,0.0,0.0,0.0,0.0],"values":[0.0,0.0,0.0,0.0,0.0,0.0,0.0,0.0,0.0,0.0,0.0,0.0,0.0,0.0,0.0,0.0,0.0,0.0,0.0,0.0]},"layers":[{"biases":[0.041272726,0.15421548,-0.21391934,-0.014709998,-0.12555423,-0.1390819,-0.05468235,0.16401975,0.0066928924,-0.06331102],"values":[0.0,0.0,0.0,0.0,0.0,0.0,0.0,0.0,0.0,0.0],"inputWeights":[[0.1552393,0.076322705,-0.0019011134,-0.12512627,-0.05029322,0.02597179,0.05183945,-0.027889254,0.03530707,0.041532442,-0.04884947,-0.066647,0.10473145,-0.19755574,-0.17935488,-0.080095924,0.07893973,0.051815968,-0.02472485,-0.13868016],[0.012359323,0.046009157,0.021017358,-0.13952999,-0.06945709,-0.05804872,-0.05709043,-0.15133868,-0.009733063,-0.038276352,0.03950637,-0.054631032,-0.08267461,0.09682538,0.07246408,0.07246775,0.11654174,0.121892415,-0.0328909,0.122253954],[-0.051137496,-0.01412453,0.07439543,0.074384674,0.015042322,-0.124223426,-0.13773145,-0.010113671,0.030581236,0.10338008,-0.18091004,-0.0908207,-0.033085752,0.18782812,0.077736184,-0.079198755,-0.08432114,0.2646773,-0.023057336,-0.08675341],[0.05918462,-0.006146374,0.076049164,0.1615642,-0.10908531,-0.04043785,0.070786566,0.049539905,-0.09875084,-0.2004613,0.07746905,0.06154746,0.027113024,-0.009385394,-0.21077968,-0.05375063,0.025561363,8.5919775E-4,-0.01953387,0.011401476],[-0.07510574,0.04258859,-0.12403554,0.010210393,0.096670195,-0.043987934,-0.048377182,0.0850862,-0.08563122,-0.23143871,0.14834847,0.22861093,0.17481504,0.092498235,-0.10742126,0.07116646,0.1709682,0.033854064,0.013385388,0.10946695],[0.03748486,-0.12583743,5.6235126E-4,0.17901945,0.019000208,-0.109863065,-0.07536908,0.1524346,-0.18675908,-0.005314031,0.021858567,0.15101354,-0.07079871,-0.10586606,-0.03552809,-0.10285377,0.06433443,0.13226478,-0.05253813,0.070901245],[-0.23588613,0.12865184,0.072923556,-0.06345341,0.095426194,-0.046959944,0.083891824,0.053160436,0.19412102,-7.963439E-4,1.2177626E-4,0.051966373,0.16561855,-0.14617395,0.02731737,0.018602042,-0.07083508,0.021184716,0.17405634,-0.03489265],[-0.013431659,-0.08670811,-0.022952156,-0.033618975,-0.18305008,0.066697076,0.0012340232,8.3512097E-4,-0.04173132,0.041015055,0.077663116,0.020352991,-0.35260984,0.021541303,-0.05361806,-0.11791341,0.06699423,-0.106455535,0.05207055,0.023737574],[-0.046128575,0.004407247,0.11562096,-0.21139522,0.043063734,-0.03457498,0.07052344,-0.05051857,0.07593229,0.09802816,0.14043927,0.07843561,-0.05357588,-0.040806454,0.122906074,0.10412365,0.13704738,-0.03973606,0.033466853,-0.061143972],[0.10053982,0.1456717,0.14317816,0.071250185,0.021163443,-0.092105046,-0.08148667,-0.11398025,-0.014140328,0.043572806,-0.02169692,-0.12467338,-0.17552783,0.112882145,0.09766414,0.06946148,0.09081692,0.0023193024,-0.07829483,-0.1993942],[-0.015401871,-0.046100564,-0.0757308,0.12980942,0.037271228,0.18500106,0.06696373,-0.023263386,-0.0809903,-0.10351275,0.14492667,-0.13112828,0.005164899,-0.15818031,-0.054814845,-0.05700013,-0.038446095,0.07513976,0.03579153,0.12258451],[-0.2448963,-0.15666237,-0.06850191,0.03417125,-0.056420308,-0.034969438,0.18836875,0.03455508,0.06728537,0.18555595,0.039764605,0.04985378,-0.04201184,0.058198746,-0.15774935,0.04639974,-0.13119213,0.22943275,0.046657275,0.030210756],[0.009212468,0.044326674,0.15630867,0.0024367685,0.06709479,0.08382183,0.018616451,0.15006576,-0.047275912,0.05369579,-0.026283799,-0.025527146,0.013351444,0.03940982,-0.07435521,0.028857496,-0.05500591,0.01260554,0.028312651,0.038450126],[-0.051370442,0.052388523,-0.04440478,-0.25040087,0.12175147,-0.022493174,0.22333816,0.18075342,0.041860867,-0.09482117,-0.07365433,-0.01725121,0.016094381,-0.107793786,0.15423805,0.08522989,-0.16122043,0.05174092,0.06471755,-0.1066624],[0.05650469,0.00881179,-0.12310995,-0.019905647,0.17546238,-0.013331095,-0.0121951075,-0.10591743,0.07898243,-0.040770207,0.03418684,0.009435213,-0.0017613997,0.04969912,0.04763436,0.18358581,0.082912266,0.053179566,0.015467334,0.10691775],[0.06608032,0.013011271,-0.041554715,0.16085015,-0.16720971,-0.12595572,-0.1527661,0.018240834,0.06771189,0.20089424,-0.049540296,-0.13363947,0.14895752,-0.0781031,0.07544789,0.028887112,0.05574384,0.031919885,-0.07066892,0.10648055],[-0.1996053,-0.010605587,-0.008977827,0.1915873,0.14288671,0.0645442,-0.05660527,-0.05813302,0.2697165,-0.04552345,0.13259064,0.062446132,-0.19139118,0.07915627,0.11321675,0.114527866,0.048634373,0.023085421,-0.060102895,-0.1040412],[-0.09344875,-0.07393707,0.058864962,0.114672266,0.07460115,0.046277087,-0.010945965,0.06247842,-0.04750761,0.014673332,0.13610457,-0.29354823,0.00712691,-0.042821616,0.16130757,-0.15656695,0.053710498,0.030503605,-0.10207655,0.034995597],[0.0466239,0.011659985,0.02053057,0.10752818,0.06854903,-0.12851033,0.18741871,-0.0044686664,0.11502012,0.1434175,-0.083500125,0.031504214,0.11745299,0.02118901,0.009058179,0.059226137,0.020049563,0.03729303,0.06742566,-0.0033885743],[0.036207426,0.1859093,0.19765717,0.029099936,-0.08717419,-0.09791816,0.025317358,-0.12588342,0.086602226,0.008663804,-0.056925863,-0.09105097,0.058477145,-0.104708105,-0.0059406133,0.086318225,-0.1754302,0.18869774,-0.06953529,0.088814266]]},{"biases":[-0.08968347,-0.028196817,-0.033303622,-0.105660856,0.018242834,0.047470327,0.023306653,0.004972745,0.013411776,-0.13954747],"values":[0.0,0.0,0.0,0.0,0.0,0.0,0.0,0.0,0.0,0.0],"inputWeights":[[-0.016393894,-0.020754157,0.09488529,-0.012648666,0.044628672,-0.031010095,0.12617874,-0.025751537,0.11663307,-0.053667895],[-0.09655951,0.034964196,-0.039343055,0.073530525,0.226236,0.0062275417,-0.059201926,0.25208366,-0.057591964,-0.0122022135],[-0.110447936,0.04777004,-0.08826112,0.099867746,-0.0014955777,-0.043217447,0.10090961,0.059859272,0.15119413,-0.024322325],[0.052311532,-0.11695594,0.058216505,-0.040857866,0.058693226,-0.02304256,0.0364565,0.03128575,-0.0438271,-0.025466433],[0.05472963,-0.056863602,0.09763959,0.16169773,0.039613575,-0.029461421,0.058962457,-0.08615396,-0.03755324,-0.19654806],[-0.11679287,0.0054100943,0.028023247,-0.09194728,-0.061376084,0.112190284,-0.071271144,-0.11180326,-0.10258501,-0.05692905],[-0.024836067,0.21558943,-0.17303488,-0.18139435,0.10790232,0.031067157,0.051687583,0.21222694,0.0017724534,0.08801547],[-0.07690749,0.02293884,-0.016671555,0.024079181,0.124010585,-0.03509777,0.111304745,0.09018711,-0.010408966,-0.0982709],[-0.096652254,0.14647244,-0.12203599,0.0656883,-0.018609192,-0.012978122,-0.1310874,-0.10505709,-0.21490274,0.10425903],[0.020904712,-0.03876851,0.07925903,0.11671022,-0.058324944,0.041656848,-0.017946925,-0.10968924,0.021451838,-0.024872066]]},{"biases":[-0.07958231],"values":[0.0],"inputWeights":[[-0.13092443,-0.05763635,0.03593687,0.015583948,0.08059145,-0.009049109,0.24184532,-0.07029254,0.048598878,-0.018870821],[-0.004043206,0.049825918,-0.061069746,-0.014569018,0.118207,-0.107311435,-0.009853114,-0.21578379,-0.17841274,-0.10990056],[-0.104673885,-0.044100843,0.083416834,-0.07157423,-0.013208501,-0.15028359,0.12246298,-0.13262197,0.16037506,0.044162136],[0.033045482,0.07679929,0.06542068,-0.046142384,-0.17413533,-0.06688035,0.15543292,0.036468897,-0.08407835,0.06334727],[0.19825515,0.010579015,-0.043617114,0.033635665,-0.049995173,-0.062796205,0.02786014,0.22755638,-0.104711786,0.16509375],[-0.107628345,0.09323077,0.03824672,-0.28314477,0.118328184,-0.041218076,-0.0580446,-0.061771516,0.004406087,-0.15256584],[-0.019504815,0.081907235,0.071632765,0.048609484,-0.17057003,0.2896971,-0.11788362,-0.12516123,0.06165978,-0.062797606],[0.0028148217,-0.10278078,0.010884309,-0.10531218,0.06693339,-0.014683104,0.093636505,0.0018525195,0.11931284,-0.031861234],[0.019349394,0.060796175,0.024049878,-0.018156657,0.031747434,0.1441775,0.032613557,0.104805015,-0.06690667,-0.04845394],[-0.054335546,0.037771426,6.090696E-4,-0.14184414,0.05799559,0.1538539,0.05671585,-0.10604492,-0.10779425,0.08799337]]}]}},{"fitness":0,"neuralnetwork":{"inputLayer":{"biases":[0.0,0.0,0.0,0.0,0.0,0.0,0.0,0.0,0.0,0.0,0.0,0.0,0.0,0.0,0.0,0.0,0.0,0.0,0.0,0.0],"values":[0.0,0.0,0.0,0.0,0.0,0.0,0.0,0.0,0.0,0.0,0.0,0.0,0.0,0.0,0.0,0.0,0.0,0.0,0.0,0.0]},"layers":[{"biases":[0.09219195,0.064182356,0.038395695,0.11385229,0.097941265,0.085988395,-0.19643798,0.08650476,-0.023292093,0.14932542],"values":[0.0,0.0,0.0,0.0,0.0,0.0,0.0,0.0,0.0,0.0],"inputWeights":[[0.15279065,-0.19012962,0.004305335,-0.06629361,-0.09671858,0.0030225492,0.035543665,-0.080525525,-0.004752051,0.0062935627,0.117240995,-0.10722855,0.0028240604,-0.06758177,0.008046297,0.13437803,-0.17948778,-0.055414367,0.06335085,-0.12944935],[0.0785074,-0.052988894,-0.026422614,-0.043096848,-0.07202431,0.054558042,-0.038081635,-0.0732011,0.11515114,0.060205646,0.02816637,-0.13205285,0.023864623,0.036321152,-0.054846108,-0.05112886,0.10031738,0.110734425,-0.091020316,-0.030855212],[-0.090968944,0.034799557,-0.083857715,-0.035976633,0.064783946,-0.03395594,0.15151186,0.06710824,0.07471048,0.16119806,0.068124354,-0.119214445,0.08479014,0.05607818,-0.008049038,-0.12173189,-0.08512002,-0.12366753,-0.0049196626,-0.072746925],[-0.067534454,-0.013996371,0.08424381,-0.0048999963,0.11209847,0.10142262,-0.10861414,0.007426246,-0.019324511,-0.07264087,-0.011031946,0.19990094,-0.13253644,-0.07574321,0.17032504,0.0050238627,0.09461883,0.0017769582,-0.19711135,0.025973944],[-0.1700525,-0.1458057,-0.15666866,-0.23048471,-0.1005531,0.04400633,0.07869105,0.071376085,0.012708996,-0.035984848,0.11675505,-0.026328227,-0.020226,-0.05138589,-0.04119537,0.1370698,-0.07333547,0.06948744,0.08201733,0.03277731],[-0.04502404,-0.016286423,0.08235437,0.024614539,0.19626917,0.20366551,0.017980086,-0.19834885,-0.06738451,0.026220929,0.13569848,-0.023042854,3.375602E-4,0.014934772,0.017873604,0.11244759,0.1479151,0.10409709,-0.041388746,-0.03724974],[-0.22768132,0.14084984,0.006301571,-0.027318655,-0.011501989,-0.05681748,-0.124680005,-0.022292683,0.02546281,-0.0013068346,0.018533006,-0.13702044,0.12849955,0.009923194,0.030522276,0.06362505,-0.05590013,-0.05212625,-0.1826313,0.2063734],[0.05913066,0.019656852,0.16089626,-0.09039414,0.13903482,-0.10126764,-0.100129984,-0.035933662,0.10236858,0.14169337,-0.16857098,0.062504485,0.087169535,0.065702215,0.0030953756,-0.087589055,0.081645384,-0.07038384,0.060890954,-0.030186513],[0.012952692,0.08411862,0.06466448,-0.05576472,-0.017279215,-0.034930643,0.04215106,0.09351046,-0.009106711,-0.019123914,0.00614031,-0.09671469,-0.13267872,-0.006062708,0.15513705,-0.036974944,0.16233845,-0.096569106,-0.24562262,-0.1562855],[-0.03467218,-0.06513766,-0.025413109,0.050193794,-0.05454303,-0.07743159,-0.017243832,-0.105347164,-0.28996497,0.050024923,0.05281505,-0.06910203,0.041442636,0.01921731,0.0630002,0.22281888,-0.14030519,-0.064031854,-0.08889004,0.07634993],[-0.1449585,-0.007239706,0.20990321,-0.10622692,-0.060316704,0.1409708,-0.11309347,0.03922939,-0.048896275,0.043119956,0.07536342,0.087271824,-0.11749577,0.050850105,-0.055555385,-0.1085437,-0.06968629,0.011946792,-0.07099636,0.028223384],[-0.13221006,0.08390637,0.015961124,0.23156364,-0.08170232,-0.058257405,0.020210128,0.030172355,0.020575738,-0.10544237,-0.038611438,-0.09197715,0.18999828,-0.105591536,-0.07483515,0.16591562,-0.19795583,-0.0513971,0.0031549039,0.060292],[-0.074488804,0.13420908,0.13844109,-0.07690978,-0.11764242,0.10503472,-0.055778272,-0.20854048,0.05752674,-0.005235229,-0.043286983,-0.16937466,-0.08840717,-0.0053405054,-0.057570633,-0.062283788,0.0051731146,-0.047865164,0.058112107,0.13130401],[-0.14654641,0.12533328,-0.27566317,0.12776631,0.01791741,-0.025618669,-0.15277141,0.24129416,-0.03462634,0.03917124,-0.019758906,-0.1257502,-0.03145684,-0.06413753,0.0743178,-0.07779184,-0.047935043,-0.036009885,-0.008880522,0.027865788],[0.089574404,0.15593298,-0.09459808,-0.014066086,-0.07877313,-0.13965356,-0.07654009,0.059719395,0.06848228,-0.005359402,-0.03598171,0.21579196,-0.06408469,0.11280243,0.14826183,-0.029769955,-0.014051242,0.045658365,-0.08917147,-0.14440806],[-0.01847054,-0.11388292,-0.08210243,-0.1313381,-0.22986273,-0.041984398,-0.1785049,-0.07564584,0.010018994,-0.052757394,-0.0784256,0.019937482,0.05514578,-0.04702359,0.04948577,-0.074391946,0.07108907,-0.04714713,-0.103658274,-0.024263365],[0.063180566,-0.06256098,-0.008720321,0.24413781,-0.07298914,0.008139365,-0.008985568,-0.046848405,0.09793553,-0.090752214,0.0062946826,-0.04311988,0.028823977,-0.06530051,-0.04173949,-0.07588973,0.15471536,0.009616595,0.06663578,0.115664445],[-0.16897173,0.22650242,0.036127996,-0.037468668,0.04602535,0.05535102,0.18487975,-0.2428543,0.12470331,0.113743745,-0.06479805,-0.0071771443,-0.048455197,-0.0016436661,0.060799595,0.017016327,-0.07063238,0.04250866,-0.15439732,0.107447065],[0.047590863,0.12722576,-0.136225,-0.09301003,-0.023393268,0.22331987,0.15557383,0.14462541,0.06646565,-0.112812914,-0.09500819,-0.015947374,-0.032081135,0.045791768,0.121086404,-0.06421732,0.12161399,-0.086777195,-0.019009195,-0.022901822],[0.06731277,0.18175735,0.26579678,-0.07735083,0.022455927,0.11975742,-0.023712108,-0.21026912,0.0150410505,-0.096271254,-0.10639087,0.04554963,-0.11505556,-0.008047154,0.0034765287,-0.1138525,-0.04864965,0.0707774,0.059607964,-0.047412984]]},{"biases":[-0.09390897,0.017241523,0.064560734,0.15771419,-0.08288738,0.047475398,9.1108686E-4,0.08369778,-0.10034809,0.09628206],"values":[0.0,0.0,0.0,0.0,0.0,0.0,0.0,0.0,0.0,0.0],"inputWeights":[[-0.068686776,0.026879763,0.09203001,0.037900273,-0.118997544,0.118858494,0.002226719,-0.0927225,-0.09520729,-0.07384898],[-0.030289881,0.09048121,-0.18738788,0.11522381,0.024634505,0.13169828,0.15555581,0.07088928,-0.1162845,0.107378736],[-0.08309344,-0.06909718,0.12072046,0.026739188,0.032541037,-0.026083237,-0.10651954,-0.16074479,-0.08868973,-0.2106299],[-0.109699816,-0.02276867,0.0740779,-0.07801149,0.019991167,-0.06819128,0.13833936,0.15907033,-0.20018303,-0.08545486],[0.05659789,-0.065718554,0.02812347,-0.1740215,-0.15258299,-0.19548203,0.1975161,0.25942314,0.037733622,0.09489537],[0.043848995,0.014915414,0.24492344,0.11572278,-0.0368936,-0.013147133,-0.01678266,-0.009709039,-0.07747196,-0.032121923],[-0.052508127,-0.010348003,0.018599927,0.061257046,0.22364637,0.0573418,-0.12273832,0.21110374,0.15783337,-0.13357832],[0.08975346,0.06146257,0.073089816,0.008512115,0.08222096,0.19743194,-0.12446424,0.05306693,0.023146184,0.17014097],[-0.11796444,-0.025657931,0.006203651,-0.050756477,-0.14997041,0.23825665,-0.005593737,-0.08169687,0.034353714,0.042618994],[0.09849815,0.01179914,0.02636038,-0.12980065,0.030678853,-0.09830174,0.11650274,-0.110801175,-0.024901945,-0.08085158]]},{"biases":[-0.11426666],"values":[0.0],"inputWeights":[[-0.11953145,0.036065042,-0.023615837,0.11814696,0.05333172,0.035622023,-0.118944034,-0.011654346,-0.066013195,0.02404453],[-0.03336955,0.055067204,-0.059188403,0.1237471,0.021894809,-0.08226026,0.14191261,-0.08568806,-0.13727926,-0.0444162],[0.024972683,0.094050825,0.18235816,-0.16663721,-0.04082082,-0.030537331,-0.16705793,-0.05145748,0.03243595,-0.014518232],[-0.17307454,-0.05112507,-0.035649892,-0.17980692,-0.0029863252,0.028459959,-0.16527778,0.07211081,-0.10075361,0.076351166],[0.007924215,-0.047543444,-0.0128790485,0.06524559,0.12756391,-0.06144166,-0.19942191,0.0027230165,0.02188643,0.011337791],[0.14951986,-0.09007528,-0.0062603713,0.020308927,0.06584872,-0.15963097,-0.068083994,0.01461852,0.06139001,-0.10288682],[0.10058263,-0.019854568,0.03064209,0.14247389,-0.01773688,-0.084225066,0.12047113,-0.021490688,0.09687248,-0.07365056],[-0.036993623,-0.034936484,-0.02627178,0.0682311,-0.012064936,-0.10631753,-0.0037068168,0.015890382,0.083236314,0.004914212],[0.20679209,-0.26723784,0.038050726,0.05598012,-0.03707652,0.09073756,0.069914676,0.0812627,0.0783314,-0.082962096],[0.02883372,-0.1337485,0.0080657685,-0.0031981163,0.096797116,-0.09470109,-0.12392229,-0.14100622,-0.2606603,-0.01870798]]}]}},{"fitness":0,"neuralnetwork":{"inputLayer":{"biases":[0.0,0.0,0.0,0.0,0.0,0.0,0.0,0.0,0.0,0.0,0.0,0.0,0.0,0.0,0.0,0.0,0.0,0.0,0.0,0.0],"values":[0.0,0.0,0.0,0.0,0.0,0.0,0.0,0.0,0.0,0.0,0.0,0.0,0.0,0.0,0.0,0.0,0.0,0.0,0.0,0.0]},"layers":[{"biases":[0.05435899,-0.10991014,0.10150462,0.08998995,0.02604744,0.09454667,-0.06740128,-0.0579189,0.081350714,-0.074820146],"values":[0.0,0.0,0.0,0.0,0.0,0.0,0.0,0.0,0.0,0.0],"inputWeights":[[-0.17236476,0.015082141,-0.018615428,0.16359738,0.017036665,-0.11238088,0.0016492006,-0.19139381,0.0122877415,0.078938715,0.05624742,-0.2486545,-0.031354856,0.112695545,0.11707283,-0.22906663,-0.159545,0.103013314,-0.029596522,-0.034919478],[0.15751044,0.019364482,-0.24062662,-0.18166468,0.008109804,-0.0065000122,-0.005079893,-0.018632777,0.06113782,-0.068947084,0.022944393,-0.095017545,0.22965111,-0.022201875,0.016793411,0.06099008,-0.017352702,-0.07680336,-0.043158647,0.01702101],[0.010260899,0.03507306,0.07099841,-0.026267756,0.061717108,0.052189615,0.05778537,-0.08070088,0.11384448,-0.038848624,0.050058328,0.12131211,-0.12207082,0.16567264,0.07953215,-0.050298657,-0.1401744,-0.035171464,0.05848781,-0.14026977],[0.07425749,0.071925655,-0.0532644,-0.07079943,-0.03890046,0.116657354,0.0026555932,0.02263344,-0.15130101,-0.033028085,-0.26511276,0.030194657,-0.16804901,-0.12153144,-0.112461,0.11036084,0.108806364,0.027439745,0.026933301,-0.09360783],[-0.15403354,-0.16411842,0.11352772,-0.08443949,-0.02156961,-0.141743,0.17407246,0.0045258068,-0.06752145,0.032534946,-0.07062553,-0.0015737211,-0.053154793,0.03729798,8.435701E-4,-0.012049149,0.014740704,-0.009682983,-0.01518261,0.011186124],[0.046126075,0.019622788,-0.108267605,-0.0025932454,0.14467113,0.094297476,-0.10057984,-0.11930592,0.03432979,0.049306236,0.07519615,0.22180377,0.015022863,-0.13959526,0.05589353,-0.02555965,-0.0224904,-0.028309712,-0.17623432,-0.047344886],[-0.07012248,-0.051209554,-0.037706684,-0.0926235,0.19363101,0.004307883,-0.10059513,0.036251538,0.14240804,0.092588246,-0.031807736,0.117970824,-0.047143336,0.015797887,-0.22433196,0.13595256,0.012448475,0.026341734,0.13323236,-0.0961216],[-0.1904583,0.12249473,-0.1775925,0.04182843,-0.07600202,-0.11638747,-0.123216614,-0.14873776,0.056950867,0.093455054,-0.024113871,0.17696477,0.004313709,0.052996557,0.16494209,-0.054878544,0.020788457,0.06167828,-0.056095287,0.057310298],[-0.055281416,0.06357018,0.033680405,0.120443314,-0.0394993,-0.06093368,-0.0077185775,0.04530945,-0.06437703,0.008753103,-0.08372315,0.01681771,0.05582092,-0.10540441,0.009636025,0.06922078,0.17321481,-0.10034498,0.10416766,-0.042786945],[0.060444903,-0.19822049,0.090477854,-0.043860085,-0.090490334,-0.10476885,-0.21691276,-0.005978402,0.08534462,0.026767816,0.13904038,-0.13455161,0.014729773,-0.0021673006,0.04367348,0.13957834,0.029506428,-0.055860844,0.30743167,-0.15334228],[-0.06788081,0.0851549,-0.08181722,0.028742705,-0.05800741,0.08930534,-0.0028347394,0.11261577,-0.09731171,0.031088768,-0.15938187,-0.10112231,0.005305659,-0.005903997,0.027756017,0.09710755,-0.0076869186,0.013660876,-0.028525466,0.09390312],[0.1483097,-0.03412428,0.108549014,0.055175997,-0.08366792,0.08204946,-0.1719711,0.008066803,0.18588932,0.17594568,0.1011445,-0.0018112455,-0.2253687,0.0428764,-0.033513553,0.032376375,0.040029246,-0.18187582,0.08215179,-0.07393531],[0.05066792,-0.12045101,-0.063751206,-0.039820835,0.05255862,0.09584442,0.13994472,0.022447892,-0.21631376,-0.052121032,-0.07185257,0.025045043,0.07316719,-0.019920506,0.22409971,-0.08550749,0.041194633,0.033189334,-0.019936746,-0.052870773],[-0.022984087,0.072238676,0.124165334,0.25057125,0.08679008,-0.13708165,0.11004313,0.027313014,0.10089216,-0.169499,0.0044404664,0.17438169,0.00844509,-0.11377692,0.13393569,0.046796236,0.017562717,-0.11343619,0.04361706,0.023992218],[0.10031887,0.031821545,0.11893938,-0.19305742,0.22165945,0.070479155,-0.039351653,0.07293192,0.19688483,0.018630754,0.07450895,0.09282464,0.06898953,0.06937846,-0.11094644,-0.034713116,-0.082795836,0.09923743,-0.16424704,0.23152602],[0.0116982395,-0.15064417,-0.026371107,-0.0026304813,-7.907864E-4,0.19459578,0.12604581,-0.101234384,0.111317016,0.116076626,-0.068620585,-0.054008055,-0.0034146074,-0.042067487,-0.08635622,0.12272554,0.06170914,0.010196573,0.011998611,0.11896725],[0.12779701,0.07992335,0.165137,0.14930998,0.04600575,-0.08336503,-0.014250202,-0.032785717,-0.09997655,-0.08911224,0.058308993,-0.027535595,-0.06873078,-0.11666266,0.051966112,-0.110356376,-0.11649232,-0.08161152,-0.12342402,0.0048065577],[0.038957413,0.09320257,-0.08989484,0.25128067,-0.04375908,-0.014680441,0.0047985725,-0.049751718,0.086249545,-0.022818606,0.14876407,0.0677954,0.07815051,0.051318657,0.09952098,0.1797845,-0.037052646,0.02686964,-0.104236044,-0.056054853],[0.15194042,0.0670404,0.14342876,0.0107208425,-0.068175144,0.15389627,0.086537346,-0.11647529,-0.10784921,-0.10811352,0.105910905,-0.17856194,-4.1062006E-4,-0.022697415,-0.02456812,0.030339524,-0.1473571,-0.045372307,0.14499709,-0.11902742],[-0.09723295,-0.07840565,0.09067329,-0.0755899,0.10802822,0.08401384,0.12260319,-0.01668618,-0.05473016,0.07172247,0.12091427,-0.108537935,-0.07431238,-0.19110195,0.18036756,0.19114244,0.3604081,0.0315771,0.21077248,0.08869439]]},{"biases":[0.0958095,-0.06485561,-0.18308076,-0.060927726,-0.074204735,0.0021304225,0.17683704,0.087057374,-0.044725344,0.0035623508],"values":[0.0,0.0,0.0,0.0,0.0,0.0,0.0,0.0,0.0,0.0],"inputWeights":[[-0.14368889,0.07944058,-0.14124022,0.06190126,0.11628132,-0.1334468,0.022931473,-0.10798422,-0.11475291,0.09016803],[-0.0073356763,-0.17739207,-0.056037605,-0.033923954,-0.010673169,-0.04118574,0.14388098,0.0066435463,0.118289806,-0.067229435],[-0.06211748,0.06636658,-0.22997203,-0.08736039,0.082823604,0.09113291,0.03107654,-0.14969733,0.10243094,-0.011121876],[0.120946065,-0.034382157,0.08015726,0.019932767,0.052363943,0.084203035,0.0032729497,-0.031438738,-0.16616987,-0.070822716],[-0.16323972,-0.076084524,0.078923546,-0.13696052,-0.106024764,0.0052911374,0.035739083,0.085009806,-0.27795973,0.15157202],[0.06364565,-0.025311267,-0.09478107,-0.04731468,-0.03720825,0.036970925,0.0046464787,-0.10330929,0.007109543,-0.028021386],[-0.12472398,0.024577891,-0.1986769,-0.004727908,-0.095294856,0.24859992,-0.018484976,0.10633524,-0.06627458,0.053773828],[0.056006487,-0.0090649985,-0.10155401,0.0501602,0.060167793,-0.0027135548,-0.08263843,0.10085384,0.18938264,-0.13636781],[-0.04417406,0.05418804,0.08383577,0.14849013,0.12622376,0.013374995,-0.028667277,-0.01985867,-0.018846657,0.19852446],[-0.20344783,-0.061376993,0.30755806,0.21834186,0.03276052,0.070714794,-0.051263332,-0.11914606,-0.20774542,-0.090437055]]},{"biases":[0.027861675],"values":[0.0],"inputWeights":[[-0.18813634,-0.013126772,0.16776256,-0.011911172,0.0913968,0.08730593,0.08956279,-0.009008751,0.12261229,0.2445035],[-0.17645586,-0.034052838,-0.05709921,0.07198245,0.04537567,-0.010951245,5.270353E-4,-0.043774385,0.12029765,0.06810852],[-0.058070578,0.21715868,-0.15470679,0.04594852,-0.15021028,0.045657754,0.006807218,-0.22269835,0.017600078,0.10078579],[0.06913604,0.08356555,-0.06180621,-0.051694687,-0.2265599,-0.0016106586,-0.043337632,-0.0015766085,0.019811576,-0.07299051],[0.052240092,-0.07981057,0.030906925,0.054941654,-0.057027332,-0.06884989,-0.02167096,0.0057672146,-0.0076725553,-0.049902294],[0.062633455,0.050634924,-0.045374602,0.024784705,-0.11419405,-0.13209513,0.24638101,-0.0069216,0.06428007,0.024504019],[0.049737677,-0.009739585,0.07797992,0.0845818,0.19432944,-0.102728106,-0.0120616285,0.08853882,0.19603248,-0.2209473],[-0.034740534,0.01537002,-0.061022785,-0.03922713,-5.8858976E-4,-0.048313417,0.11116559,0.17030616,0.039107177,0.009230204],[-0.022796618,-0.09826207,0.16980822,-0.1710103,-0.002314596,-0.038442656,-0.12030285,0.035222564,0.035920564,-0.03333574],[-0.018236447,0.20449714,-0.02171109,-0.26696348,-0.028820489,-0.033261623,0.006738236,0.16744153,0.06573824,0.03989741]]}]}},{"fitness":0,"neuralnetwork":{"inputLayer":{"biases":[0.0,0.0,0.0,0.0,0.0,0.0,0.0,0.0,0.0,0.0,0.0,0.0,0.0,0.0,0.0,0.0,0.0,0.0,0.0,0.0],"values":[0.0,0.0,0.0,0.0,0.0,0.0,0.0,0.0,0.0,0.0,0.0,0.0,0.0,0.0,0.0,0.0,0.0,0.0,0.0,0.0]},"layers":[{"biases":[0.038976613,0.024971541,0.122464076,-0.11369372,0.13892029,-0.08885271,0.19223583,0.06792234,-0.10764484,-0.14741565],"values":[0.0,0.0,0.0,0.0,0.0,0.0,0.0,0.0,0.0,0.0],"inputWeights":[[0.04715515,0.12036397,0.056907095,0.019679418,0.22101267,-0.04769137,-0.0569787,-0.037960354,-0.11659391,-0.038073797,0.06573086,-0.024320334,-0.114674,0.20220242,-0.10830797,-0.013694275,0.3009948,-0.057799038,-0.042689666,0.10620896],[-0.117231525,0.10344696,-0.07197197,0.13353585,-0.020647453,-0.009383261,0.06747944,0.051409565,0.14026119,-0.028352883,0.066697575,0.016989836,-0.016270708,-0.0014853957,0.08753128,0.02539536,-0.11362393,0.094944514,-0.08172094,-0.007908066],[0.0057889572,-0.17214508,0.04560275,-0.08855291,-0.06072993,0.052912895,0.020968417,-0.16945045,0.24732919,0.047808725,-0.048719455,-0.073549196,0.053186078,-0.09125098,0.29660302,-0.054737877,0.10714967,0.13088025,-0.13161114,-0.025236703],[0.110530876,-0.021815015,-0.006219449,-0.05248452,0.15185241,-0.039064206,0.056103475,-0.007377516,0.035855662,0.16392694,-0.094845645,-0.081864275,0.14905168,0.08733828,0.005441661,0.026237164,-0.010929181,-0.09751469,-0.07803583,-0.06748868],[0.048047487,-0.17283085,-0.1266073,0.05214779,-0.030108364,0.07239243,0.0872684,-0.0814253,0.09511997,-0.037082125,-0.13368504,-0.026661249,0.09088251,-0.04964562,0.02111004,0.12788859,-0.14064172,0.050076965,-0.05750587,-0.02331906],[-0.015012054,0.23487118,-0.054886032,0.043266345,-0.025228044,0.08845685,0.13656421,-0.07452173,-0.09420853,-0.052049294,-0.19748116,0.15029731,0.18610696,0.014065759,-0.04451166,0.06900886,-0.2398223,-0.14305171,0.0140525205,-0.30317965],[0.12385903,0.27079353,0.004454933,0.05309997,-0.004266108,0.059145287,-0.01610511,0.0670907,0.14197254,-0.29896334,0.036346648,0.06511099,0.059980217,-0.005029767,0.048652437,0.10072189,-0.038204253,0.080014296,-0.07534745,0.019700898],[-0.036755692,-0.03694323,0.1725047,0.1403971,-0.040602393,-0.23866676,-0.051061764,0.12694831,-0.057342134,0.03806097,-0.003146703,0.1379969,0.029150361,0.05027087,-0.10123297,0.22765443,0.107371904,-0.10657939,-0.13809328,0.05079128],[0.07716975,0.02433348,-0.076542914,0.06339326,-0.078665294,0.051408313,0.0459001,-0.081419125,-0.04748015,-0.0010106511,-0.019423593,0.03135554,0.093082584,-0.048023894,-0.10624925,0.027168155,0.18261585,0.16345549,0.051855452,0.017159395],[-0.083646975,-0.16834517,-0.0037676936,-0.015900413,0.0012969252,-0.06335884,-0.043586783,0.06783335,0.13983628,-0.22276443,-0.10342993,0.07063248,-0.008495269,0.08715063,-0.16613442,-0.07859802,-0.06382811,-0.0933717,1.0679386E-5,0.123548605],[0.16021167,-9.436336E-4,0.021420207,-0.09050135,-0.17256716,-0.17965825,-0.039332923,0.060051616,0.113556914,-0.0110712545,0.13595313,-0.2565143,-0.057439357,0.0012854662,-0.14751925,-0.06245205,0.054812767,0.01959771,-0.24162516,-0.048968714],[-0.014319282,-0.057802793,-0.015965644,-0.09980066,-0.14900705,-6.6719763E-6,-0.024756225,0.06166541,0.12491442,-0.05969935,0.08047428,-0.22276932,0.17097369,0.01661021,0.005631712,-0.1596318,-0.051039014,-0.10092315,0.05055233,0.0908304],[-0.17125253,-0.041388553,0.02787282,-0.0112555,0.114426464,0.1863939,0.07839328,-0.09897245,-0.12372153,-0.028317217,0.11109114,-0.17681925,-0.11079097,-0.105877005,-0.0397026,0.15881751,0.072496295,-0.1424951,-0.12220123,-0.10254463],[-0.10387231,0.12570208,0.016068075,-0.009603509,-0.13127445,-0.0047545666,0.054399677,0.07516352,-0.026811823,0.030704299,-0.1258378,-0.0035002553,0.22350284,-0.030357588,0.31125987,-0.0458823,0.0993692,-0.065372676,-0.11619443,-0.08740007],[-0.1181937,-0.11860344,-0.06118731,-0.016423166,-0.03702252,-0.064258605,0.051514853,0.19702779,0.16751786,0.019184126,-0.11788378,0.019429913,-0.0075912713,0.030417772,0.11943493,0.040056568,7.3236437E-4,-0.19326529,-0.15386002,0.00976749],[0.032743275,-0.19313188,-0.117921256,0.11727589,0.14512403,0.012854267,-0.22386311,0.0013305328,0.016088786,0.012923509,0.030174116,-0.06793625,-0.043471728,0.05067692,-0.026859611,-0.15602909,-0.024118867,0.13052925,-0.027315376,0.02693858],[-0.010101317,0.14053553,-0.07795534,-0.07843129,0.1345206,-0.07176447,0.047732253,-0.094488144,0.056641147,-0.023783606,-0.055407867,-0.038966946,0.0014001216,0.028772335,-0.037493635,-0.19326285,-0.13189875,0.09461088,0.15366527,-0.14945284],[-0.008137316,0.0015950653,-0.06641076,0.072124705,0.0059976825,0.117994264,0.008029514,0.09857663,-0.055848677,-0.052944843,0.22955832,-0.16362537,0.046622854,-0.19732949,0.03537074,-0.083455265,-0.045876853,0.022768224,-0.07595088,0.18497053],[-0.040349264,0.08885392,-0.022442436,-0.17723049,0.045481037,-0.059423376,-4.0064068E-4,-0.06932775,0.047182858,0.027805584,-0.0014431984,0.10088223,-0.004651532,-0.06481802,-9.4893744E-4,-0.054128822,-0.077473074,-0.098393366,-0.12197784,0.1548155],[0.101985954,0.1418496,0.1225006,-0.0017541245,0.09317768,-0.10103009,-0.015796259,-0.09402509,-0.017812734,-0.057457797,-0.15255044,0.008799437,0.11373455,0.04090476,-0.04457301,-0.04030556,0.1007647,-0.0322694,-0.056351285,0.08155589]]},{"biases":[0.13184294,0.056619287,0.09817797,0.08341076,-0.1237604,-0.03035955,-0.17620946,0.089839436,0.16582726,0.09595796],"values":[0.0,0.0,0.0,0.0,0.0,0.0,0.0,0.0,0.0,0.0],"inputWeights":[[0.13399859,-0.07400698,0.026319494,0.18760236,-0.002719555,0.11052522,-0.092032745,-0.10803469,0.115258016,0.07912128],[0.08923414,0.06412916,0.02118658,0.103564195,0.0695174,-0.09584906,-0.0016211653,-0.01664328,0.06944845,-0.02751613],[0.039301362,-0.088090986,0.0025397514,-0.037171867,-0.038894664,0.0071599334,0.13488972,-0.216475,-0.07803546,0.029759353],[0.0072517367,0.02246738,-0.0020918176,0.084659204,-0.05600076,-0.002401347,-0.0081320945,0.07352042,0.25066534,-0.112199895],[0.056280047,-0.11213419,0.12014922,0.067519404,0.18138005,-0.0105572045,-0.2314457,-0.14919384,-0.051291447,0.083662555],[0.31265625,0.020522702,0.08010515,-0.12890673,0.044873226,0.00864267,-0.107740775,0.058227442,0.056720093,0.029214166],[0.004330574,0.004036244,0.12991348,0.021275885,-0.100690484,0.16482295,0.043311298,-0.071583755,-0.082777455,0.066933915],[-0.07238231,0.06538989,-0.0055205873,-0.032564804,-0.0051200055,0.019853266,-0.012287889,0.04655573,-0.020799028,0.010020145],[-0.035932828,0.03580781,0.016534269,0.0030581725,-0.03555319,-0.08506217,-0.06513601,0.15751098,0.067003034,0.10717661],[0.09857703,-0.008416286,-0.043656893,-0.039335027,-0.11687786,0.04308397,-0.043256447,-0.027003758,0.02093615,0.013728948]]},{"biases":[-0.051307637],"values":[0.0],"inputWeights":[[0.032038078,-0.12777366,0.08204305,-0.08221116,-0.01854353,0.03638692,-0.07146971,-0.17101434,0.095813945,-0.05098924],[-0.17524916,-0.057433717,0.10296109,0.033083536,-0.09199903,-0.13947037,-0.24101274,-0.11250668,-0.017720748,-0.1381867],[0.059504278,0.062952735,-0.26085582,-0.17042933,-0.09003632,0.095408976,-0.09366514,-0.06558055,0.028725218,0.07905969],[-0.086424656,-0.07163539,0.09432772,-0.040220365,0.019560898,0.065290116,-0.01917295,-0.03402485,-0.19222549,0.031378705],[0.03188544,-0.045853004,0.05428241,0.151029,-0.037671007,0.03566163,-0.07427447,0.079810925,0.032267112,-0.16865604],[-0.041438036,0.051731434,-0.047115043,0.04748676,-0.052006885,0.04091355,-0.01619522,0.047538966,-0.058624193,-0.12470519],[0.060404405,0.0166682,0.03210777,-0.07600835,-0.15586108,-0.091727555,-0.033394504,0.0031620772,0.079962134,-0.14868753],[-0.038125657,-0.121417604,-0.10252865,0.0658068,0.038592547,-0.060479168,0.1871624,-0.0057280287,-0.18444538,-0.06731975],[-0.058191195,0.20562437,0.04187469,-0.02073959,0.036082514,-0.07766254,-0.010814492,0.007900639,0.217175,0.102779165],[-0.12090255,0.28308943,-0.20728557,0.011494085,-0.07361216,0.2689888,-0.010215629,0.024665153,0.122626394,0.18788669]]}]}},{"fitness":0,"neuralnetwork":{"inputLayer":{"biases":[0.0,0.0,0.0,0.0,0.0,0.0,0.0,0.0,0.0,0.0,0.0,0.0,0.0,0.0,0.0,0.0,0.0,0.0,0.0,0.0],"values":[0.0,0.0,0.0,0.0,0.0,0.0,0.0,0.0,0.0,0.0,0.0,0.0,0.0,0.0,0.0,0.0,0.0,0.0,0.0,0.0]},"layers":[{"biases":[0.08789396,0.0578539,0.1673654,0.01831356,-0.06578686,-0.15786831,-0.03001493,-0.2804901,-0.03812941,-0.039599415],"values":[0.0,0.0,0.0,0.0,0.0,0.0,0.0,0.0,0.0,0.0],"inputWeights":[[-0.022550749,-0.09024641,-0.11274559,-0.03005704,0.0897158,0.22958373,0.011743992,0.112061344,-0.004381048,-0.091011934,-0.058598578,0.009363268,0.06470464,-0.100098655,-0.09855039,-0.06347727,-0.07247957,-0.09288961,-0.10769853,-0.07682235],[0.0593443,0.15825751,0.12687798,-0.008334547,0.022884523,0.05561806,-0.11744122,-0.030829504,-0.09573582,-0.006573727,-0.11339052,0.01901624,0.09387444,0.017129607,0.03926438,0.040958505,-0.029211506,0.028333869,-0.109842665,0.1278656],[-0.12360852,-0.085223824,-0.0034599998,-0.05964655,-0.096331514,-0.03002471,-0.028961599,0.025690531,0.007099257,0.055455904,0.18051238,-0.05420238,-0.002162721,-0.072882205,-0.075662665,-0.1436778,-0.05118148,0.02901737,-0.19956242,-0.15137053],[-0.091353096,-0.14046955,0.18051872,0.1150381,-0.019562582,0.17962895,0.16568282,-0.05589504,0.13559741,-0.13193619,0.13056546,-0.03465061,-0.16428344,0.044599857,0.0460893,-0.0042627333,-0.08811704,-0.08531411,0.021005297,-0.10812261],[0.12632015,-0.025277987,0.02276351,0.19689594,0.05433888,0.030759463,-0.009414643,0.05445249,-0.19685966,-0.013347646,0.056669444,-0.021947622,0.03429058,-0.094690844,0.15654893,0.053966884,-0.04498371,0.096966915,-0.11929745,0.22891729],[-0.11855724,0.0125383455,-0.17430668,0.08938534,0.043806173,-0.069825746,-0.044045217,-0.07688801,-5.375176E-4,-0.14421396,0.12425806,-0.0052944166,0.026459195,0.1444373,0.047236633,-0.1640919,0.033185992,0.13108967,-0.014406856,-0.0045987526],[-0.052391123,-0.0071714856,-0.06387169,0.0010479084,-0.09166576,0.021405015,0.07133208,0.05568287,-0.065103956,-0.105015576,0.04575873,0.17177853,-0.1072357,-0.006038133,-0.067146674,0.054199826,-0.13140868,-0.09278988,0.05832324,0.08861272],[-0.121796004,0.05866937,0.10383097,-0.12229177,0.15239315,-0.14869078,-0.036787987,0.069024645,0.024515029,0.1415825,-0.0040790914,0.048696317,0.031669848,0.016172085,-0.043228697,-0.012922177,-0.14554954,-0.023312714,-0.02488419,0.07869704],[-0.03884738,0.1333659,0.06827226,0.026217263,0.16572073,0.01288062,-0.013526748,0.05455081,0.09806294,0.0465275,-0.07496556,0.14021802,0.09115526,0.0867964,0.077286825,-0.012412394,0.0554069,-0.022955718,-0.07374921,0.06804921],[-0.056568295,-0.047654543,-9.029701E-4,-0.06983195,0.08470399,0.04146472,-0.13526064,-0.2615402,0.09246759,-0.14040266,0.23185426,0.022234842,0.041453604,0.13907196,-0.08258589,-0.07902265,-0.05126906,0.14803325,0.005996674,0.027187573],[0.0035241605,0.035858344,0.021265421,-0.06801221,0.028198596,0.041960947,0.22331323,-0.12861755,-0.04011721,0.11744398,-0.03672473,0.092253946,0.03635568,0.034509107,-0.031639017,-0.07623059,0.10682213,0.14103118,0.11981301,0.012751191],[-0.06466509,-0.115854524,-0.04633797,0.033541534,-0.049831644,-0.120620884,-0.03215782,-0.120680764,-0.13176906,-0.0647867,-0.12432684,0.17884883,-0.07794561,0.20023175,0.06518637,-0.1482901,-0.19179507,0.11777642,-0.021204157,-0.06757248],[0.1176335,-0.10103369,-0.15836003,0.06834447,-0.023001537,-0.15630473,-0.038286287,-0.020707155,0.0184333,0.04633464,0.009620181,-0.17091402,0.06045887,0.09351206,0.1889508,0.010825426,-0.09138571,0.024009893,-0.14037926,-0.17734312],[0.012026682,-0.051255118,0.018086303,-0.09200687,0.1240981,-0.0155842295,0.015263528,0.11082102,-0.030008014,0.108375,-0.19866584,0.028213514,0.015921578,0.012989421,0.12388592,-0.10199086,0.12894778,0.07875353,0.02802663,0.14893185],[-0.01973591,-0.17083731,0.13596806,0.06293424,-0.10853694,-0.13966201,-0.03135327,-0.14641203,-0.07722686,0.007063304,0.06792442,-0.0070738867,0.00505284,0.004786503,-0.08329844,-0.17611119,-0.079336956,-0.11288624,-0.15064782,-0.050976656],[-0.2741513,0.25427818,0.002318297,-0.03769208,-0.081851125,0.009853367,0.046175923,0.090212025,0.04605109,0.001898362,0.017590491,0.15272813,-0.025824316,-0.0018334206,0.0100275185,-0.099095434,-0.13256052,0.011395541,-0.15410529,0.090488695],[0.05916596,-0.057643034,-0.12332227,-0.017351368,-0.118380256,-0.09137129,0.00882996,-0.0688544,0.04523455,-0.020777183,-0.100142784,0.23034272,-0.20799345,-0.022065593,-0.10966472,0.035005398,-0.026860258,-0.17013694,0.06384553,0.010988248],[0.053899728,-0.21157815,0.09667913,0.010071683,-0.091739334,-0.06989976,-0.049428366,0.025281146,-0.1761834,0.08422041,-0.075963244,-0.0034095603,-0.11409666,-0.08494757,0.07017407,-0.06915898,0.05667033,0.10477255,0.013140236,-0.085485056],[0.12705028,0.012927022,-0.052085005,0.024627807,-0.06441362,-0.23033643,0.13848944,0.13638403,-0.20427278,0.049774423,-0.028228357,-0.025686746,0.069044635,0.023643706,0.10681526,-0.16635257,0.05743682,-0.05222068,0.23552774,-0.032687746],[0.057958808,0.16502284,0.1908788,0.080648996,0.09795967,-0.03485263,0.16013882,-0.033565696,0.039894164,0.012902589,-0.13251004,0.06876995,-0.04901283,-0.18121256,-0.10801217,0.019449348,-0.09398675,-0.10216335,-0.13297892,-0.0119016515]]},{"biases":[0.20779625,-0.06061537,0.08879711,-0.100894436,0.0072194487,-0.1047482,-0.012890875,0.101281114,0.026933676,0.04350253],"values":[0.0,0.0,0.0,0.0,0.0,0.0,0.0,0.0,0.0,0.0],"inputWeights":[[0.026981046,-0.017644418,-0.09632726,0.041658234,0.030034114,0.019205263,-0.08453725,0.12517673,0.008240834,0.058722507],[-0.12100911,0.15095384,-0.07077454,0.064796835,-0.110484354,-0.040787715,0.029124267,-0.115849115,-0.061246622,-0.0142554315],[-0.019290602,0.06045688,0.028236449,0.032958925,-0.03368439,0.061604276,0.1442126,0.022806268,-0.13728178,-0.0073425546],[-0.056921843,-0.17910562,-0.049743306,-0.08588474,0.04672366,-0.109241426,0.021263946,-0.05735181,-0.08243614,-0.11754166],[0.111284524,0.10402824,0.029349439,-0.010820186,-0.08424735,0.116520256,0.05087414,-0.032715335,0.13141374,-0.031760674],[0.0703659,-0.19685057,-0.041625384,-0.040129587,0.09390846,0.20882913,0.04199943,0.0089156395,-0.015361255,-0.077412486],[-0.084454276,-0.13668315,-0.031469207,-0.023280166,-0.012037561,0.14608878,-0.14318381,-0.004452393,-0.22062647,3.2754292E-4],[0.01409582,0.054563425,0.06610032,0.18810861,0.048317418,0.16881323,0.012865468,-0.1051886,0.1378935,-0.0056105303],[0.0019321671,0.0163142,0.017870918,-0.060087997,-0.124960236,-0.07047542,0.11804062,-0.12274592,-0.14932919,0.086011715],[-0.114830144,-0.18754627,0.08523137,-0.11305551,0.025475848,0.08107933,-0.13722032,-0.06885222,-0.009423663,-1.2313314E-4]]},{"biases":[-0.046449445],"values":[0.0],"inputWeights":[[0.062221542,-0.09709135,-0.23668712,-0.13107644,0.046446487,-0.07924723,-0.002027351,0.02804654,0.12310781,0.0028350851],[0.022606716,-0.12054898,0.055605017,0.09265757,0.07550371,0.15632366,-0.17553198,0.018191127,-0.08820567,0.032290768],[-0.016861446,-0.06561554,-0.06479258,-0.013659205,-0.024307637,0.15973614,0.011526825,-0.07027271,-0.14701676,0.013502912],[-0.114274845,0.0225721,-0.10133589,-0.04114058,-0.057777703,-0.04140708,-0.029357143,0.004156877,0.10705929,-0.014933491],[-0.014003039,0.0924537,0.09296724,0.027334513,-0.13258362,-0.0032953438,0.029027974,-0.050689735,0.040333737,0.053145792],[0.18243717,0.052811015,-0.040141042,-0.12629591,-0.008378509,-0.032521192,0.013536803,-0.096208654,0.04604069,-0.01972218],[0.0748531,-0.038639206,0.12754668,-0.094373055,-0.14972048,0.02558889,-0.0329658,0.28344885,-0.04772322,0.0789542],[-0.09062414,0.03621628,0.04129445,0.039904945,-0.07772935,-0.018914573,-0.010518522,0.059884664,-0.08473256,0.015958874],[0.015345253,0.05697605,-0.08737438,-0.17620261,0.06659645,-0.0154463295,0.056705516,-0.32877308,-0.13227504,0.01956376],[-0.009817861,0.07076234,0.117341295,-0.041853487,-0.0074805818,0.030575631,0.04997811,-0.18157063,-0.008521726,-0.17921804]]}]}},{"fitness":0,"neuralnetwork":{"inputLayer":{"biases":[0.0,0.0,0.0,0.0,0.0,0.0,0.0,0.0,0.0,0.0,0.0,0.0,0.0,0.0,0.0,0.0,0.0,0.0,0.0,0.0],"values":[0.0,0.0,0.0,0.0,0.0,0.0,0.0,0.0,0.0,0.0,0.0,0.0,0.0,0.0,0.0,0.0,0.0,0.0,0.0,0.0]},"layers":[{"biases":[0.20845132,-0.09171775,-0.07507707,0.11437415,0.052507054,0.15225035,-0.09407129,-0.020088201,-0.12869121,-0.040706396],"values":[0.0,0.0,0.0,0.0,0.0,0.0,0.0,0.0,0.0,0.0],"inputWeights":[[0.14759229,0.0011964926,-0.045189064,-0.06998322,0.18724136,-0.016662262,-0.040271994,0.022044947,0.04764787,0.028897183,0.007400006,0.19415489,-0.12946688,-0.057491824,0.16448817,0.044750568,0.060323264,-0.08542445,-0.025527002,0.16329928],[0.038142797,0.041276313,-0.12865308,0.07134158,-0.052740026,-0.0068366053,-0.050877806,-0.061864994,-0.021463325,0.104275,0.01983956,0.027442314,0.05020598,-0.055114485,-0.037917748,-0.16795991,0.10947268,-0.056973588,-0.038725976,-0.060329404],[-0.18311712,0.10943079,0.08808757,-0.07884341,0.12965344,0.0793214,0.012077737,-0.13447674,0.12121978,0.097942725,-0.057617225,0.04423543,0.09413282,-0.057395667,0.012060488,0.10291244,-0.06426435,0.02756244,0.019825334,0.0047165835],[-0.1659003,0.056972615,-0.15441951,-0.062273227,0.10568753,-0.097075514,-0.032139473,0.065866694,0.10487245,-0.024346223,0.0831575,-0.27623224,-0.016282536,-0.016344707,0.028975435,-0.1335161,-0.26554286,-0.033341482,0.087470055,-0.042266637],[-0.003252352,0.06866074,0.06604147,-0.08258425,-0.13335912,-0.13224606,0.22424707,0.061269347,0.15565796,-0.029943144,0.080667295,0.14758879,-0.022607729,-0.00938226,-0.13817722,-0.09246287,0.037942987,0.05771055,0.018860443,0.04358779],[0.1483387,0.06170488,0.033253577,0.014545779,-0.02324721,0.057262953,-0.2012441,0.19046357,0.30719367,-0.021373084,-0.28562635,0.09649043,-0.008544968,0.14132674,-0.043498553,-0.08637527,0.055533703,-0.08398901,0.15578045,0.010674333],[0.16364609,0.0067234356,0.1196806,0.09078637,-0.0705223,0.025118401,0.10038237,0.09387172,0.0583449,-0.06647738,0.003888737,-0.13110946,0.07849643,0.09797607,0.022884663,-0.15362957,-0.024382534,0.064709075,0.036269777,0.08027132],[0.020652449,-0.040674556,0.037900094,-0.049189925,-0.030677862,-0.14031172,0.037502006,0.08918853,0.07040815,-0.123193316,0.14127412,0.005940981,0.12945712,0.09444304,0.14158073,0.02351647,-0.019558502,-0.06461245,0.06194673,-0.13072896],[-0.064915724,-0.096003175,-0.03529477,0.06041746,-0.009675745,0.16438104,-0.017176036,0.06034203,-0.27448645,0.022940442,0.1403194,0.061608028,0.067965165,0.024015626,0.07446488,-0.028106121,0.00636731,0.08109379,-0.112097,0.17300244],[-0.20569018,0.016686697,0.20788833,0.10740046,0.044418525,-0.20220762,0.072305106,0.08455699,0.008472324,0.016218977,0.08501107,-0.06951599,0.006171515,-0.19411129,0.04783473,-0.07267516,-0.063297644,0.013588084,0.13450734,-0.023496216],[0.061362002,0.033096537,0.12777103,0.044866677,-0.04291713,0.100115046,-0.04385744,-0.09419948,0.060109247,-0.010987753,0.12259937,0.090174876,0.0017457159,0.0051551485,0.0989101,0.08512,-0.027814766,-0.10946752,0.14057685,0.15454333],[0.120668784,0.14088106,0.09657375,0.05941943,0.05315598,-0.18090309,0.09473669,-0.16026713,0.009593628,0.09975519,0.056191526,-0.05943956,0.08633037,-0.004346149,0.02336251,0.019201826,-0.036250006,0.061894976,0.09296856,0.030147182],[-0.10381997,-0.08033256,-0.24934036,0.07937646,0.03302861,-0.12432923,0.12691513,-0.025130896,0.11999881,0.0010210902,-0.1480463,0.016695332,-0.014429559,0.016169477,-0.019739177,-0.052667372,-0.091838144,0.046447452,-0.05016097,0.030346943],[-0.063814275,-0.1719567,0.0025365816,0.09826595,-0.023201955,-0.06373579,-0.13960092,0.11239958,-0.059184987,-0.06081614,0.06983916,-0.11573142,-0.25741723,0.13860747,0.11516208,-0.15525395,-0.003475494,0.117941074,0.01792686,-0.032296088],[0.05212288,-0.06144497,0.03714188,-0.035396587,0.009568843,0.04703832,0.037543565,-0.12841724,-0.008703465,0.02512372,-0.13524352,-0.078994475,-0.09739042,-0.117297396,0.24839441,0.10839101,0.061603986,-0.030571021,0.0015835374,-0.021140754],[-0.05790596,0.14038481,-0.032995064,-0.060780838,-0.075056106,0.043838438,-0.020916078,-0.048442163,0.07842889,-0.043890957,0.08936558,-0.08062816,0.053828727,0.10182654,-0.039608292,0.1376761,-0.008394796,0.11427163,0.017696667,0.009473463],[-0.10561916,0.12520652,-0.10246203,-0.0021614407,0.092637315,0.1207436,0.09461616,0.03177719,-0.1351587,0.12523758,-0.04940686,0.06170836,-0.12927236,-0.014275554,0.02471314,0.025523169,-0.030935338,0.059591547,-0.060966667,-0.02675806],[-0.2140429,-0.065575585,-0.049401324,0.104934596,-0.08808538,0.058664843,-0.038600996,-0.021551121,0.014110986,0.07151794,-0.11179846,-0.046481337,-0.0681054,-0.09391258,0.06673612,-0.04266573,0.16487002,-0.04598237,0.03315926,0.03573319],[0.024260664,0.020869141,0.05642251,0.034249052,-0.036003366,-0.018841116,0.03759815,-0.0384723,-0.08841518,-0.042798366,0.065718405,-0.014927674,0.045117997,-0.037661754,-0.040726576,-0.11709932,-0.0035050423,0.01866785,0.06905559,0.11510493],[-0.06416508,0.11009753,-0.08673514,0.13324521,0.12014522,0.08850774,-0.0094110845,0.014874715,0.050346237,-0.08928447,-0.021115532,-0.19516684,-0.01177565,0.010366019,0.021208009,0.073404685,0.07669844,0.076886535,0.123465195,-0.016814562]]},{"biases":[0.21150768,0.0376372,-0.097679235,-0.08104568,0.060355946,0.25783542,-0.02389525,0.17329119,0.053038944,0.20225394],"values":[0.0,0.0,0.0,0.0,0.0,0.0,0.0,0.0,0.0,0.0],"inputWeights":[[0.060063627,-0.06914236,-0.08687146,0.06745316,-0.08443139,-0.11436542,-0.0656066,-0.09904132,0.11319633,-0.1229029],[0.013382702,-0.20072404,0.084129326,0.015850933,-0.1514167,0.07659963,-0.07619756,0.13936499,0.012106172,0.09914621],[0.10085772,0.024101896,0.09710065,-0.008104196,-0.16070865,0.023918625,0.10220624,0.026701147,0.016209599,-0.0148406075],[0.10104392,0.089524806,0.020390714,-0.026491432,0.11778556,0.1418004,0.0025593915,0.011528372,0.184744,-0.13318335],[-0.004843655,0.11152501,-0.032405455,0.06832278,-0.0960073,-0.027945885,0.092653625,-0.1610899,0.00758486,-1.8695055E-5],[0.056222238,0.054040845,0.031160206,0.08657477,0.09871019,-0.087687336,-0.10043728,-0.017595321,0.044796363,-0.18789446],[-0.028342826,0.036671467,0.021980673,0.06920425,-0.05925335,-0.08759868,-0.07470044,-0.09924891,-0.0050084693,-0.11987495],[-0.06597707,-0.04841292,0.003474146,-0.07980784,-0.021198442,-0.021152293,-0.13635197,-0.04542879,0.14504746,0.10515765],[0.046259902,0.054644544,-0.08149012,0.09968114,0.07705724,-0.14838865,-9.2634483E-4,0.059902605,0.04549544,-0.05592087],[-0.058790997,-0.14857762,0.103417166,0.097582534,-0.2347137,0.029592028,-0.011734732,0.08079601,-0.051842347,0.12268244]]},{"biases":[0.052675143],"values":[0.0],"inputWeights":[[-0.07009102,-0.016831562,-0.05479828,0.13395137,0.064362034,0.079741776,-0.009546753,-0.057801887,0.07888944,-0.07646171],[0.09141688,0.08559725,-0.09750764,0.12669553,0.112865165,0.07908472,-0.0027281079,-0.083827145,0.06257438,0.00488349],[-0.08142737,-0.118407525,-0.04513338,-0.017827582,0.010271195,0.05361726,-0.026132843,-0.07820974,0.047167942,0.07342368],[-0.10224985,0.040589888,-0.11947643,0.06023935,-0.06867028,0.001513935,0.030678855,-1.8045344E-4,-0.092560425,-0.026815541],[-0.053619076,-0.1274385,0.051689424,0.17881137,0.0020813148,-0.06546703,0.113949925,-0.1280762,0.2518472,-0.019759241],[0.021247515,0.038808417,-0.02540728,0.039046668,0.09729414,0.14020956,0.06187067,0.15566106,-0.04326521,-0.21508463],[-0.13914451,0.03289944,0.045101795,0.12364325,-0.05250246,-0.026463682,0.1252267,0.19450234,0.044117965,-0.1107379],[0.01003453,0.036752924,-0.2246036,-0.01002001,0.03446212,-0.044032693,-0.021805156,0.14880405,-0.1265113,0.06129603],[0.1121426,-0.07649084,-0.026148207,0.082071885,-0.10853554,0.17014837,0.0018408,-0.03321473,-0.08662723,0.094359316],[-0.16864757,-0.0044261483,0.058711447,-0.052275583,-0.0452927,0.054017697,-0.13771755,0.051437173,0.002975479,0.0576916]]}]}},{"fitness":0,"neuralnetwork":{"inputLayer":{"biases":[0.0,0.0,0.0,0.0,0.0,0.0,0.0,0.0,0.0,0.0,0.0,0.0,0.0,0.0,0.0,0.0,0.0,0.0,0.0,0.0],"values":[0.0,0.0,0.0,0.0,0.0,0.0,0.0,0.0,0.0,0.0,0.0,0.0,0.0,0.0,0.0,0.0,0.0,0.0,0.0,0.0]},"layers":[{"biases":[0.18594278,0.16959068,0.048331663,-0.13631612,-0.032432422,0.07339186,0.049430117,0.1036976,-0.061564293,0.09756002],"values":[0.0,0.0,0.0,0.0,0.0,0.0,0.0,0.0,0.0,0.0],"inputWeights":[[-0.0090953475,-0.12525475,-0.032798238,0.05586095,-0.01693557,0.13568264,-0.025909629,0.16153397,-0.21180582,-0.033064604,-0.05074441,-0.05890155,-0.014683732,-0.02754338,-0.2718004,0.024130419,-0.092304625,0.013392444,0.107283786,-0.014947323],[0.12327311,0.088910595,0.07105062,-0.007455197,0.04931549,0.049202144,0.0014655493,0.108987294,0.07608377,0.08385807,-0.01666836,0.11533865,0.07319065,0.07461089,0.021013008,-0.050219737,-0.082634486,0.09348495,-0.00337002,0.17170456],[0.033861645,-0.0069997665,-0.08466976,0.04005726,-9.4989326E-4,-0.06767257,0.048754137,0.08900444,0.114520095,0.011005325,0.13250488,0.10137209,0.082472056,-0.028812645,0.019806016,-0.07416269,-0.1582742,0.19204243,-0.05347475,-0.07067451],[0.00406405,0.18843041,0.24829996,0.025749495,0.102308296,0.040327694,0.052652758,8.6553766E-5,0.027331887,-0.084623076,0.03624203,-0.11832097,-0.09054915,-0.04304083,-0.082393125,0.08520428,-0.024146756,0.017446967,-0.06989559,0.15412515],[0.06281434,-0.0531448,0.17129742,-0.18289302,-0.10725809,0.067548506,-4.6171353E-5,-0.03881727,0.06193508,0.01073316,-0.07741246,0.067912206,-0.03145495,0.08130363,0.07824398,0.056329463,-0.112826936,-0.0015278079,-0.13135679,-0.013997747],[-0.06760137,0.06936473,0.011633701,0.037926525,-0.041495584,-0.13900343,-0.08130178,-0.061017305,0.10062013,0.15775181,0.066736504,0.09425338,0.17697608,-0.18872568,0.043728188,-0.15456682,0.056865104,0.2135939,0.05370028,-0.027635189],[-0.11539126,-0.16048962,-0.15547581,-0.02700816,0.043183725,-0.07507512,-0.024789372,0.037745383,0.010088561,0.06623154,-0.014218668,0.1532277,0.051603343,0.055932414,-0.03256517,0.09100508,-0.092159994,0.036757898,0.03497168,-0.0017624762],[-0.033321984,0.051903863,-0.03665039,-0.1902576,-0.20795284,0.13333492,-0.08122352,-0.25273916,0.10545278,-0.14169225,0.16165116,-0.013788157,0.023798028,-0.17256647,-0.0028903594,0.09399555,0.014916303,-0.14347033,-0.08009939,0.07961937],[-0.1570189,-0.04941778,0.011897181,-0.065716274,0.0180299,-0.03851999,-0.12188811,0.058173556,-0.013451283,-0.12984298,-0.19701834,-0.1174,0.039717313,0.2750105,-0.10085799,0.24175486,-0.048080355,-0.16858485,-0.0011946846,-0.22262546],[0.0017668568,-0.019131027,0.03781266,0.18377483,0.2684579,0.13661389,-0.020565884,-0.07475595,-0.13095607,-0.04912145,0.10399659,0.042646166,0.011237,0.04225786,-0.015615614,-0.01769729,0.11164947,-0.123722106,0.15433674,-0.005858052],[-0.040763717,-0.28177255,0.06678126,0.018697597,-0.026129287,-0.061390936,-0.011573221,0.06873397,0.07443387,-0.008036697,-0.080555655,0.113510236,-0.056693662,-0.055997312,-0.070560545,-0.089885384,-0.009669287,0.1393086,-0.037575237,0.06470237],[-0.05933311,-0.2287221,0.16693187,-0.0959541,-0.12416425,0.04448787,-0.1360479,-0.11235191,-0.08711506,-0.042242907,0.03403307,0.2169273,-0.06916357,-0.042699482,-0.18560016,-0.021432899,0.086325295,-0.0134089,-0.1714153,0.062405605],[-0.15132336,0.094803065,0.06314131,-0.029140567,-0.11006439,-0.0052761016,-0.1536718,0.14843568,0.090514764,0.033583023,0.00795007,-0.057899732,0.1627015,0.001934997,0.12252073,-0.0083684875,0.0872739,0.16382696,0.03853314,-0.18241729],[-0.15831,-0.05371705,0.08846633,0.16842961,0.18465635,0.0703989,-0.15787667,-0.03515484,-0.0118335895,0.07686751,-0.04671656,0.04481096,-0.11909837,0.016371893,0.013755351,0.03554743,0.041609474,0.029022004,0.059089113,0.20321915],[-0.04657665,-0.055811133,-0.061543096,-0.15810083,0.16911536,0.015392832,-0.049558107,0.111548774,0.014948135,0.0822846,0.05949836,0.04166258,0.106250055,-0.02322156,0.019586012,-0.11607811,0.13071804,-0.122188695,0.004085078,-0.06863742],[-0.015540315,0.012159153,0.15324295,0.093101405,-0.15832601,0.03340386,0.016923666,0.11893328,-0.060753774,0.1064315,-0.0068446463,0.08389851,-0.08100701,0.034116108,0.16493952,-0.04659278,0.16924289,0.014439754,0.12727496,-0.0073636137],[-0.035222393,-0.12429128,0.0118154725,-0.047806002,-0.051445033,-0.013093959,0.13551709,-0.030674744,0.02104559,0.07205652,-0.10172055,0.03590283,0.024635045,0.046025887,0.11667747,-0.12138392,-0.113471285,-0.0082512675,0.1063357,0.019617897],[-0.08642679,-0.21897131,0.06634468,-0.08323935,-0.04864682,0.041296076,-0.15687399,0.14778242,0.13678917,0.12935324,-0.14620318,-0.0055812853,0.02698544,-0.014145047,-0.033088475,0.034172192,0.13418119,-0.059269726,0.1334801,0.13098006],[-0.06672711,-0.06169187,0.018006328,-0.10121706,-0.029893883,0.011940165,-0.008510387,0.08444529,0.11110159,0.15965536,-0.04060932,-0.029085219,-0.03099943,-0.030162545,0.018568173,-0.05493445,-0.108347446,-0.07154768,0.09777907,0.046863828],[-0.17706904,0.051462255,0.077580325,0.06621124,0.16993684,-0.028747087,0.06444743,0.10814433,-0.053633895,0.049686614,-0.3406881,-0.07393224,0.04663833,0.029622661,0.03845071,0.09227101,-0.11666963,-2.1522703E-4,0.060897008,-0.007365296]]},{"biases":[0.013213015,0.10667138,-0.05665353,-0.124448106,0.05294211,0.092852645,-0.0178678,-0.050791387,-0.0167036,0.16113037],"values":[0.0,0.0,0.0,0.0,0.0,0.0,0.0,0.0,0.0,0.0],"inputWeights":[[0.16982429,0.058766354,-0.041444115,-0.12949005,0.013722209,0.07794708,-0.050089993,-0.17472832,-0.11619743,-0.074185394],[-0.022223843,-0.03162664,-0.10150953,0.06669771,-0.17146759,-0.17377308,0.011524719,-0.058541413,0.2625532,0.045108862],[0.011806552,0.14716966,0.044413544,-0.010405295,-0.06352956,7.0475845E-4,0.08985393,0.14712307,0.05879556,-0.10586858],[-0.096419856,0.037280507,-0.020888506,-0.12017073,0.11467909,-0.085670255,0.0811159,0.027263563,-0.17227349,-0.014692051],[0.14654107,-0.11667769,-0.06374761,-0.0034536668,0.0659213,-0.022101805,0.063923195,-0.14280929,0.0127580175,0.07621262],[-0.14150421,0.09162428,-0.11331028,0.122740336,-0.14333792,-0.10902923,-0.07834904,0.040677246,0.07280014,-0.1089831],[0.15135096,-0.05585376,0.02962496,0.039422307,-0.011570652,0.12316399,-0.13945645,0.026160602,0.03742556,0.05224152],[-0.09135662,0.004788821,0.050542362,0.08610532,-0.21024284,0.1310261,0.11394215,-0.053308472,0.031505425,-0.003085955],[0.018761633,0.038988635,-0.12182669,-0.1598095,0.05846417,0.08706632,-0.04271078,-0.072184525,0.12459124,-0.078250706],[0.043142386,0.05538491,0.12935,-0.014784324,-0.066028975,0.09268074,-0.12944138,0.14060795,0.01421684,4.7485356E-4]]},{"biases":[-0.1573986],"values":[0.0],"inputWeights":[[-0.0868401,-0.03385059,-0.15542468,-0.0647767,0.10687438,-0.06396217,0.15619986,-0.011963284,0.03722984,-0.11523071],[0.031144055,-0.119957596,-0.013613624,0.10892393,-0.017258719,0.124895476,-0.09227704,-0.06991544,-0.0032758797,0.117559515],[0.18140012,-0.04788415,-0.039141078,0.008218255,0.021443212,0.0766749,-0.104535036,-0.11895476,-0.010603565,-0.06267055],[-0.18416157,-0.058392227,-0.1067721,-0.17540596,0.09328045,-0.115383856,0.13003254,-0.047688466,-0.08334317,-0.018757973],[0.2357821,-0.2996669,0.022427786,-0.039921395,0.08066754,-0.09866276,-0.27235314,-0.008672691,2.0551482E-4,-0.03186874],[0.046660878,-0.05345946,0.008273036,0.21880364,-0.17555372,0.03484399,-0.055462822,-0.07621188,-0.031009596,-0.047713596],[0.053627852,0.027924748,0.02047597,0.030704726,0.022500958,-0.088038065,0.031644326,0.08727489,0.107434615,0.12590346],[-0.025725767,0.019237114,0.15844215,0.1390719,0.1965352,0.030121524,-0.016126843,0.110824935,0.23883706,-0.06557825],[0.053385407,-0.17453608,-0.004621416,0.15249126,-0.054392938,0.17606038,0.060941827,0.06573023,0.032605026,-0.15459298],[0.08694789,-0.06783777,0.02084038,-0.030107105,-0.016341826,0.024944507,0.031563483,-0.0026998762,-0.18703948,0.054653034]]}]}},{"fitness":0,"neuralnetwork":{"inputLayer":{"biases":[0.0,0.0,0.0,0.0,0.0,0.0,0.0,0.0,0.0,0.0,0.0,0.0,0.0,0.0,0.0,0.0,0.0,0.0,0.0,0.0],"values":[0.0,0.0,0.0,0.0,0.0,0.0,0.0,0.0,0.0,0.0,0.0,0.0,0.0,0.0,0.0,0.0,0.0,0.0,0.0,0.0]},"layers":[{"biases":[0.0851831,-0.19510838,0.23673071,-0.10097814,0.24175866,0.036401074,0.008108563,-0.1078408,-0.06118899,0.012585709],"values":[0.0,0.0,0.0,0.0,0.0,0.0,0.0,0.0,0.0,0.0],"inputWeights":[[0.026492376,-0.20041652,0.01861639,-0.13854517,-0.011882798,-0.13257308,0.13145174,0.17850265,-0.051226005,-0.16544321,0.11115802,-0.018268114,0.015731927,-0.040667735,0.02788552,-0.117508635,0.14710134,-0.101656996,-0.032124568,0.041916464],[-1.8893306E-4,0.03663795,-0.1488086,0.20351371,0.11374791,-0.14627004,-0.04227519,0.17107384,0.18776777,0.017925955,-0.03441992,0.17999643,-0.09158351,-0.08318552,-0.05901681,0.011929853,0.06638616,-0.13628472,0.050612703,-0.05772881],[0.063744515,0.17410967,0.14861937,-0.13141581,-0.22234249,-0.17900327,-0.12868357,0.030778447,0.0057368833,0.19744036,0.035219636,-0.031849246,-0.037972566,-0.1795094,-0.06987726,-0.22726426,-0.097464964,0.032218434,0.1932543,0.03340643],[-0.039323438,0.16369309,0.082982086,-0.08343984,0.21343243,-0.038232617,0.07927148,0.17907695,0.23279,-0.14159016,-0.08937698,-0.013578802,0.24435465,-0.069346584,-0.13310593,0.28130952,0.1476332,-0.15304549,-0.18165915,-0.10060972],[-0.012019086,0.11570165,0.020935997,-0.036433555,0.03897215,0.006725538,-0.15361887,-0.04733214,-0.07026593,-0.25885662,-0.17689274,-0.09434783,0.059323806,-0.06650894,0.080477394,-0.11025126,-0.058044128,-0.012826824,0.013792312,0.020006493],[-0.19732584,0.15030594,-0.07342888,-0.08437866,0.07795142,-0.04243631,-0.07758733,0.05362177,0.09283707,0.032556903,-0.18511687,-0.19257295,0.015686791,0.042561296,-0.13912576,-0.060920835,-0.077699244,-0.05445258,-0.030626925,-0.03121251],[-0.13519584,-0.18681052,0.1143459,-0.06706549,-0.015554701,0.0068552895,-0.08648779,-0.04752364,0.15390614,-0.040555734,-0.0043207984,0.09933207,-0.048026953,0.0866375,0.21902238,-0.06431797,-0.096446544,-0.0056476523,0.09201928,-0.1667042],[-0.063205145,-0.04767268,-0.014646861,0.19200686,0.062566236,-0.030395934,-0.066689685,-0.18853669,-0.096622266,0.3579798,-0.08518339,0.023025734,0.12693223,-0.022879284,0.09512569,-0.06524211,-0.1019323,0.1958411,-0.045656905,-0.14890131],[-0.04600811,-0.18085268,-0.04070085,-0.023632703,-0.03661265,-0.08579336,0.007462284,-0.15012947,-0.020680418,-0.041044876,-0.06625803,-0.04248424,-0.016931174,-0.14769202,0.08727162,-0.030528864,0.11029185,-0.124117225,0.072439045,0.017123744],[-0.040452395,-0.04121057,-0.18467332,0.04288944,0.07268983,-0.08591846,-0.17419457,-0.0023804954,0.102103226,-0.03932722,-0.07246621,0.050361834,0.10284095,-0.110916846,0.03409482,-0.04965856,-0.035848517,-0.101829685,-0.023770962,0.15017202],[0.19200659,0.043399744,-0.021989852,0.13015659,-0.017389927,0.1097037,-0.04395496,-0.06696601,-0.011063814,0.12440692,0.16417073,0.20253125,8.6529483E-4,0.17944178,-0.04645589,0.118325844,0.061616905,0.1346395,-0.061682668,0.026013236],[0.052488256,-0.098445065,0.056002125,-0.07011716,0.011288314,-0.044720832,0.18207301,0.0053957235,-0.21846238,0.050951347,0.09972925,0.030508671,0.09775598,0.10423946,-0.027963096,0.01242186,-0.114451826,-0.02754805,-0.014128619,-0.10858674],[-0.016853025,0.09023886,0.0059258263,-0.038035568,-0.04665333,-0.09822678,-0.07587782,0.060349107,-0.076047316,-0.0711435,0.1369264,0.112058915,0.16475347,0.1728244,-0.07821928,0.040744044,-0.108740956,-0.065530546,-0.0050828103,0.033585228],[-0.10255059,0.09416687,-0.10093883,0.113124594,-0.041588098,0.19010282,0.033291005,0.13946529,-0.14252256,0.033756763,0.022415359,0.17619112,0.053268664,-0.12867033,0.24380806,0.007716401,-0.09556467,0.020377614,0.22652686,0.06771783],[-0.021682492,0.13028325,0.2278723,0.13491414,-0.047521435,0.012824625,0.009317943,-0.15151477,0.07254384,0.09150289,0.038470887,0.16111904,-0.014640391,-0.08612431,0.025901414,0.037513953,-0.090488106,-0.023253068,-0.066691466,0.26712808],[-0.0074503617,0.014752478,0.06542597,-0.19456264,-0.32419086,0.06463131,-0.010189323,-0.070640735,0.0108072525,0.005901253,-0.014946401,0.0019960208,0.15080711,-0.20942523,0.13552813,0.16130522,0.09079892,-0.022805864,0.15706308,-0.0403355],[-0.06774049,0.07189488,-0.0512944,-0.105831854,0.16431475,0.09068721,-0.13048932,-0.0012758155,0.05130146,-0.13847284,0.13644545,-0.1345834,0.10081376,-0.23122877,0.060639914,-0.1250066,0.07098113,0.024146624,-0.108920366,-0.0481866],[-0.15701033,0.1701267,0.13985084,-0.16042323,-0.11854786,-0.08366906,0.048334856,0.117639415,-0.1040084,0.25184125,-0.019759145,0.12856159,-0.01975126,0.20993489,-0.10648664,-0.1510513,0.0996963,-0.14090987,0.14199486,-0.047399305],[0.014409409,0.14607437,-0.08710389,0.0028032765,0.023180397,-0.034249336,0.010157898,-0.04451038,0.08911129,0.030096825,-0.1382489,0.011383448,0.024465952,-0.12460186,0.056635983,0.14705637,0.095015146,0.007546572,0.18855046,-0.06943357],[-0.055996563,-0.05468126,-0.013114079,0.099448465,0.18967126,-0.05853452,-0.07385898,0.11174049,0.1471792,-0.05980872,-0.031377368,-0.09757784,-0.015424471,0.049062885,0.04143043,0.08231371,0.035977975,0.10435422,-0.13709168,-0.14072259]]},{"biases":[-0.036212668,0.082482174,0.031549588,0.073578276,0.018361729,0.02890229,-0.081121825,0.15780905,-0.05838437,-0.06576281],"values":[0.0,0.0,0.0,0.0,0.0,0.0,0.0,0.0,0.0,0.0],"inputWeights":[[-0.10056474,0.09249571,0.2354582,0.13325295,0.06693802,-0.03802897,-0.0047254167,0.03156978,0.086515576,-0.20541483],[0.16541831,-0.11070376,0.027243253,-0.06416602,-0.20401658,-0.09362209,0.07282447,-0.17435722,0.0031821097,-0.13371494],[0.007013016,-0.052581824,-0.15868667,-0.062487885,-0.05770952,-0.08032488,0.03759284,0.1106673,0.035435002,0.1730219],[-0.07745465,0.088787675,-0.067112885,-0.10704476,-0.118690565,0.008691902,0.06301367,-0.07888984,-0.11867611,-0.013765317],[0.08004042,0.1419066,-0.1337444,0.04187316,-0.08403894,0.031679004,-0.06135296,-0.14852077,0.12086402,0.14511806],[-0.26230302,0.15428509,-0.07188906,0.21137021,-0.006709518,0.013645172,-0.013189002,0.023631632,0.038475554,-0.07785568],[0.08029038,0.023474012,-0.22196428,-0.015525751,-0.026623316,-0.04805933,0.09731142,-0.007996808,0.03823586,0.07738915],[-0.1306566,-0.028027987,-0.1229594,0.046890523,0.11611517,-0.071372904,-0.05329951,0.14872073,0.02907444,-0.0906946],[-0.026915252,-0.07402896,0.07752136,0.04525927,-0.015240716,-0.14025287,-0.029002704,-0.09638193,0.053598315,0.038846318],[-0.055219855,-0.08381742,0.13840964,0.07397103,-0.025241291,-0.08838552,-0.11642496,-0.11974078,-0.049380273,0.011283238]]},{"biases":[0.08885112],"values":[0.0],"inputWeights":[[-0.061700292,-0.038430337,-0.12225117,-0.110912465,-0.072449565,-0.13723788,0.111834414,-0.013806733,0.088800125,-0.018000823],[-0.03975624,-0.0304961,0.06813659,-0.09473977,0.005648758,-0.12664649,0.052682817,0.060658824,-0.09166843,-7.527696E-4],[0.081145436,-0.2036327,0.058443613,-0.04759224,-0.12974301,0.079446346,-0.21426299,0.13749394,0.12293606,0.07723915],[0.09929005,-0.09116548,-0.054215383,-0.15720548,-0.14864503,0.044647254,0.16587129,-0.16967401,0.1429437,0.0056458698],[-0.060713775,-0.008010564,-0.17664461,0.08705826,-0.020168347,-0.23126073,0.053680867,-0.040629044,0.013361075,0.03921937],[0.14846674,-0.11082086,0.15878834,-0.086054154,0.0028443122,0.15376765,0.112546265,0.12015643,-0.16172734,0.07673688],[-0.17304106,-0.09654444,0.13390541,-0.09008167,-0.23495749,-0.09405256,-0.123161055,-0.12783743,0.05510809,0.06992973],[0.0016293719,-0.050883666,0.0088022845,0.16339304,-0.12065644,-0.02623381,-0.06731422,-0.06088358,0.15654133,0.044777874],[-0.10076387,-0.038704284,0.15564796,-0.043847527,0.084022254,0.057157136,-0.17860582,-0.07400534,-0.011115022,-0.02030439],[-0.23224194,0.003305923,-0.018953962,0.08138681,0.026751231,-0.048616543,0.04159623,-0.08487405,0.1010931,-0.039803896]]}]}},{"fitness":0,"neuralnetwork":{"inputLayer":{"biases":[0.0,0.0,0.0,0.0,0.0,0.0,0.0,0.0,0.0,0.0,0.0,0.0,0.0,0.0,0.0,0.0,0.0,0.0,0.0,0.0],"values":[0.0,0.0,0.0,0.0,0.0,0.0,0.0,0.0,0.0,0.0,0.0,0.0,0.0,0.0,0.0,0.0,0.0,0.0,0.0,0.0]},"layers":[{"biases":[-0.19029346,0.13459747,0.010375804,0.09009856,-0.07332518,-0.03755019,0.08484178,0.16548014,-0.013048956,-0.084462956],"values":[0.0,0.0,0.0,0.0,0.0,0.0,0.0,0.0,0.0,0.0],"inputWeights":[[0.0014017642,0.032896016,-0.16549431,-0.10290896,-0.15445095,-0.06217099,0.08775799,-0.033746872,-0.066875234,-0.047100417,0.060867876,0.03880778,0.05404709,-0.11270525,0.0715638,-0.07280267,-0.01829104,-0.03674524,-0.11172385,-0.023008188],[-0.06202909,0.12741396,0.1476557,0.068360575,-0.108291216,0.089941055,-0.08967493,0.10011954,-0.03511423,0.098316185,0.087143615,0.018283883,-0.12806727,0.01643088,-0.2357771,-0.14857188,-0.022894287,0.037186004,-0.1564067,0.12659909],[0.11567786,-0.043439507,0.018868204,-0.009604173,-0.11476299,0.085054405,0.053375594,-0.041538548,-0.06837802,0.20737198,0.16206051,-0.0048233564,-0.091747954,-0.027693484,-0.13372084,0.055373956,-0.090467125,0.039424933,0.08525161,0.010697312],[0.047101628,-0.2080551,0.14596598,0.016507015,-0.06840373,-0.14395098,-0.082966276,-0.119362496,-0.1279144,0.092642434,0.1863835,1.6837426E-4,-0.07440516,0.0057891896,0.10514747,-0.09168636,-0.14475998,-0.21270068,0.055801816,0.1090236],[-0.033562776,0.09159879,-0.11367195,-0.08945871,-0.08943552,0.1865247,-0.10594842,-0.006743716,-0.12931314,-0.13973619,-0.09180521,-0.024727022,0.0630621,0.013594851,0.013313782,-0.072660655,0.015454493,-0.20112489,-0.090986565,0.0027498237],[-0.11356545,-0.064316094,0.15677637,0.013398697,-0.0861549,0.0016545012,0.18442455,-0.029004393,-0.12134295,-0.10511479,0.05752513,-0.002977498,0.0067977225,0.055232547,0.24278893,0.10674797,-0.011885053,-0.059849318,0.068493485,-0.08551159],[-0.07067774,0.067655034,-0.07136878,-0.021976294,0.064940795,-0.035096254,-0.13386768,0.17670144,0.19608365,-0.034140017,-0.11133732,0.0660849,-0.108065344,-0.16010503,-0.08617885,-0.1322825,0.1075279,0.008975319,-0.15026227,-0.0679196],[-0.18029547,-0.050253935,0.025709718,-0.12025499,0.00782329,-0.07481164,-0.05607786,-0.12569264,-0.007864338,0.1509732,-9.77684E-4,0.02602642,0.010150647,-0.018193359,-0.07726323,0.037567656,0.052185044,0.060487658,0.04442921,0.21682025],[-0.10172159,0.04695692,-0.07303658,0.086157165,0.026178777,-0.25892648,-0.023788398,-0.10373447,0.13143836,0.15410179,0.070899196,-0.022618538,-0.014731307,-0.10787182,-0.08457973,0.0052956357,0.032259654,-0.018912962,-0.048430722,-0.032417864],[0.08265614,-0.051671136,0.0038253223,0.0245915,-0.0039673573,0.03582479,-0.15034194,-0.012730001,-0.099230416,-0.032350145,-0.079851136,-0.0090031,-0.027719373,-0.044133894,0.018433109,-0.056695376,0.032179285,-0.22932076,0.055608116,0.16060723],[-0.009238684,-0.02159759,0.14629138,0.020009303,0.019170862,0.034059912,-0.023765752,0.06133584,0.23030707,-0.06303549,0.10107672,-0.1829443,-0.09947861,-0.07793357,0.18327673,0.017519647,0.04830324,-0.066631876,-0.13611889,0.099698916],[0.13947612,0.050526217,0.015306352,-0.013367312,-0.054073516,-0.17341436,-0.28835258,-0.02434092,0.045173507,-0.10719306,-0.035079446,-0.12225028,-0.09255173,0.006475706,0.10994532,0.10563031,4.1583265E-4,0.18265799,0.14454518,0.029938562],[0.12070292,-0.013866748,-0.06892313,-0.09590112,-0.1661151,-0.039802536,-0.0693505,0.018984055,-0.04481045,-0.006174545,0.1230002,-0.075275265,0.02081862,0.01738999,-0.0830905,0.15889986,0.03738497,-0.026947176,0.06587253,0.022515275],[-0.09691227,-0.028748864,0.06040675,0.19207315,0.05235922,-0.089885265,-0.015342785,-0.109026186,-0.06379263,-0.04530827,0.30234343,-0.08801714,0.018236907,-0.16839449,-0.025773725,-0.20038177,0.03384367,0.09861061,0.01659109,-0.17896359],[-0.065329835,-0.021985084,-0.08755475,0.112794206,-0.021424972,0.11428325,-0.04807914,-0.14320336,-0.08242674,-0.066004835,0.05605309,0.12890798,-0.09603863,0.07725397,0.01578221,-0.06935467,0.17983526,0.0011413104,0.040009927,0.08606056],[0.024159059,-0.037931234,0.005016184,0.12490247,0.05230865,-0.03851502,-0.015134506,-0.02723375,0.015395449,-0.28965306,0.06656991,-0.1224521,0.14714302,-0.0074536395,0.068635255,0.06491194,0.003903344,-0.060020693,0.10260108,-0.014158291],[0.09620192,0.10191579,-0.030379806,-0.18564184,-0.017068304,0.022645306,-0.29681286,0.0011076919,-0.08781249,-0.024663856,-0.111696474,-0.08160971,-0.033131205,-6.6839205E-4,0.10986893,0.07916443,-0.04374589,-0.011705913,0.0064656204,-0.09660563],[0.016659876,-0.12234586,0.1243012,0.0647043,-0.07618706,0.0879086,-0.027589405,-0.1561793,0.07151753,0.045221157,0.044965044,-0.04311697,-0.11086132,0.104826175,-0.0034889772,-0.056105163,0.09403966,0.0015198585,0.099173054,-0.16080534],[0.1452992,0.015382611,0.0041378816,0.008848592,0.10631977,-0.0017589411,0.12982939,-0.016554387,0.0383293,-0.052256778,-0.032226056,-0.1333926,0.0676903,-0.03962709,-0.04800849,-0.15871009,0.19946866,0.005114139,