{"generationNumber":50,"Entities":[{"fitness":0,"neuralnetwork":{"inputLayer":{"biases":[0.0,0.0,0.0,0.0,0.0,0.0,0.0,0.0,0.0,0.0,0.0,0.0,0.0,0.0,0.0,0.0,0.0,0.0,0.0,0.0],"values":[0.0,0.0,0.0,0.0,0.0,0.0,0.0,0.0,0.0,0.0,0.0,0.0,0.0,0.0,0.0,0.0,0.0,0.0,0.0,0.0]},"layers":[{"biases":[-0.018050866,-0.048560113,-0.18245958,-0.04472809,-0.06255828,-0.064800814,0.04674488,-0.10845257,0.070858315,0.02733887],"values":[0.0,0.0,0.0,0.0,0.0,0.0,0.0,0.0,0.0,0.0],"inputWeights":[[-0.05671753,-0.049245883,0.002079251,-0.041857228,-0.10241994,0.07339786,-0.011115345,-0.0601052,0.05523513,-0.0067144046,-0.082676895,-0.03244228,-0.057721294,-0.015756305,-0.17381702,-0.07695537,0.027606348,0.008760801,0.07348853,0.009324176],[0.03628831,0.049571656,0.13850605,-0.054206993,-0.013056696,0.10119045,0.010127183,0.06709543,0.0010109695,-0.030725388,-0.12022208,0.04399437,0.044366937,-0.026691139,0.019235114,-0.07358884,-0.18003388,-0.08960614,-0.014620962,0.1519222],[0.10543418,-0.0153689105,0.04565019,0.119976394,-0.013581063,-0.12339045,-0.11646422,-0.038072452,0.06967706,0.04403046,-0.013185609,0.043768734,5.6199974E-4,0.041514307,-0.034089305,-0.044719756,0.005148881,-0.08530044,-0.084084086,0.06693302],[0.0038035198,5.650544E-4,0.11943047,-0.08186584,0.04574155,-0.028564865,0.06968864,0.0637348,0.019010263,-0.23039682,-0.19085316,0.15468165,0.17603159,-0.0026092639,0.13457502,0.018272512,-0.06116939,-0.0019518372,-0.030995676,0.108865954],[-0.04873771,-0.046413876,0.1413615,3.5396894E-4,0.1176966,-0.10581893,-0.030850777,0.011002562,-0.11277082,0.15007496,0.031805195,0.02264555,-0.02398697,0.06605139,-0.16888565,-0.18175171,0.071891166,0.15222321,-0.048594363,-0.028361138],[-0.03338538,0.18147251,0.05054902,0.06546622,0.052004624,0.037975784,0.07399523,0.22706126,-0.21681488,0.048419636,0.014343134,-0.050058212,-0.06228906,-0.08388775,0.074587755,-0.07262455,0.19481252,-0.04414389,-0.15076676,0.02780453],[-0.01537258,0.12705791,-0.030476043,0.13841225,0.053174045,-0.16453978,-0.07700421,-0.14129671,-0.06700907,-0.11924363,0.02737198,-0.008589463,0.08300678,-0.03782574,-0.04217125,-0.09735341,0.044857476,-0.16341516,0.060003407,-0.04457178],[0.084517494,0.07125632,-0.01770109,0.012044125,0.04805627,0.08985916,-0.1048077,0.23741788,-0.07868719,-0.03209597,0.062358666,-0.22943184,0.021387333,0.1256939,-0.012962662,-0.15448426,0.03310241,0.18800482,0.02321767,-0.07843499],[-0.28908384,0.030023683,0.04244288,0.13882746,0.08271371,0.022907548,-0.020115579,-0.12537718,0.07482311,0.07292,-0.1978013,-0.0032555007,0.13016309,0.122336574,-0.009437353,0.029921828,-0.16076876,-0.1318847,0.031906243,-0.14370388],[0.111816116,0.046161864,-0.027196929,0.18975206,-0.1048327,-0.070924185,0.30908382,0.09864521,-0.15931147,0.10215967,0.09589764,-0.094043165,-0.020619724,0.079753175,-0.027128054,0.047115117,-0.07614106,0.06519433,-0.017614285,0.1054714],[-0.057862785,-0.23784159,-0.002465216,-0.16056968,-0.12575819,0.071251474,-0.03834013,-0.03645563,0.0807453,0.089943215,-0.020152112,-0.12026211,0.004377484,-0.13223527,0.115518406,0.08526591,-0.08049602,0.18641308,-0.08953157,-0.0054902495],[-0.09202742,0.09427034,-0.115417354,0.0058519514,-0.055134095,-0.048280872,0.17559429,0.10603895,0.13169613,-0.016176393,-0.10217532,-0.02492674,0.030534465,-0.01780482,0.09003694,-0.05005835,0.18093798,-0.015528555,-0.16769612,-0.011683281],[-0.17474285,-0.021356715,-0.075257376,0.11134245,-0.04484341,-0.032283593,0.012919829,-0.17730173,0.11642641,0.057966966,0.12010679,-0.006815117,-0.13782799,-0.11566433,-0.002196371,-0.042267196,0.23580033,0.036481753,0.023114005,0.07982383],[0.053355772,-0.090665676,-0.028801458,-0.0077593434,0.107955575,0.06873157,0.043193523,0.15550399,0.05017382,0.025461156,0.04982814,0.1692297,0.0887898,0.11699784,-0.041962285,-0.09281481,-0.045481376,0.23622629,0.06146783,0.0091339],[0.010413994,-0.1304323,-0.058580738,0.1967219,0.07841829,-0.14690721,-0.020710941,-0.044834126,-0.06271572,-0.06683414,-0.10906927,0.013936568,-0.12892552,-0.022821978,-0.036141757,0.00785702,0.0083051585,-0.02269387,0.033520035,-0.035102718],[0.10298808,-0.0038642634,0.008096593,-0.040341627,-0.18797545,0.03947501,0.007486502,-0.09981834,0.08400583,-0.027140763,-0.06255147,-0.08568739,0.057179913,-0.060950432,-0.023737615,0.189978,-0.0630583,-0.08397613,0.07060157,-0.07021083],[-0.010934578,0.33957756,0.14586337,-0.1793077,-0.114556745,0.020580845,0.014037941,0.020358453,0.036854755,0.1980679,-0.070958026,-0.14575578,-0.1064126,-0.19721411,0.072924405,-0.047153898,0.11660078,0.044857353,0.06692684,-0.05752055],[-0.02407188,-0.0011203969,0.041196883,0.04425876,0.15649414,0.023483403,0.03441863,0.008397549,-0.039863255,0.07051666,0.025497103,0.15789391,0.061012335,0.07616691,0.085732736,-0.065456316,-0.008013136,-0.17630708,-0.036702592,0.07716803],[0.039017018,-0.007003331,0.19749789,-0.0068676258,0.031035356,0.017979288,-0.108542584,-0.054565087,-0.05320698,0.012379318,0.14630763,-0.06827614,-0.156602,0.06403606,-0.02150748,-0.065270044,-0.016270313,0.034244664,0.10498606,-0.06768229],[0.23883641,-0.10084463,0.015809748,0.040815964,-0.1324332,-0.06648443,-0.030886529,-0.06491997,0.12159695,-0.011079685,-0.010513796,0.0079645375,-0.07316476,-0.09858172,-0.11977461,-0.023952914,0.18032143,-0.10139191,0.0075575453,-0.030635882]]},{"biases":[0.17370959,0.18965182,-0.112879165,-0.0031465886,2.063474E-4,0.16367674,0.016232874,-0.049388513,-0.009677997,-0.15192766],"values":[0.0,0.0,0.0,0.0,0.0,0.0,0.0,0.0,0.0,0.0],"inputWeights":[[-0.23196243,-0.026099116,0.040656034,-0.0452906,0.11808019,0.083940454,-0.089295834,-0.022044005,0.07527671,0.039424185],[0.043368224,0.14100525,-0.012772873,-0.11863792,0.082500346,-0.076073825,-0.11856123,0.028388746,0.100813,-0.17970066],[-0.097929224,0.16858193,-0.075899445,-0.16475493,0.1536246,0.17723046,0.10817202,-0.07202577,-0.27528065,-0.1522289],[0.1332744,-0.03295857,0.12807913,0.08491667,0.14226659,0.0064794114,0.12877169,-0.042940706,-0.025437154,-0.017810078],[-0.07287492,0.18224283,-0.036600802,-0.07603618,0.026474582,-0.09233005,0.028759051,0.22891432,-0.18285383,0.1572477],[-0.027017241,-0.0018369926,0.15702313,-0.05756791,0.017271917,-0.19221207,-0.123605765,-0.013612936,0.009044186,0.1762895],[0.19645241,-0.03800411,-0.17497027,-0.15642992,-0.09759413,-0.11468248,-0.14073205,-0.052659012,0.0011526856,-0.0621183],[-0.16264427,0.019597856,-0.017503623,0.011311685,-0.046551,0.09043382,-0.049311638,-0.100816324,-0.016117863,0.17807545],[-0.065079324,-0.105150886,0.07298001,0.06586933,-0.109920785,-0.014153339,0.15948698,0.017413042,-0.085499026,-0.13816828],[-0.06548,0.03014248,0.14187601,0.09039697,0.119470924,-0.031558152,0.021347426,-0.069299355,0.02435743,-0.06683362]]},{"biases":[0.0755333],"values":[0.0],"inputWeights":[[0.04612561,-0.151079,-0.038645133,-0.0747334,0.10513065,0.043585137,0.066160135,0.18379268,-0.021581035,-0.055260163],[0.100041404,0.07729371,-0.021467714,0.030492457,0.097544596,0.10253257,0.054848287,-0.051806066,-0.10814691,0.009536273],[0.041663475,-0.037390873,0.19302154,-0.019253436,-0.08265776,0.06810883,0.021322282,0.0343295,0.085238196,-0.09525512],[-0.049427144,0.087172106,0.035358038,0.0044975188,0.06618619,-0.010746512,0.23329954,-0.022924943,0.08553811,-0.18338683],[-0.107391864,-0.07659575,0.10223989,-0.25831506,0.035679784,0.13943538,-0.05710707,-0.023510385,0.17222497,-0.11367437],[-0.058868147,0.0016751984,0.03627606,0.10440315,0.12333051,0.085885756,-0.16494061,-6.383498E-4,0.029401653,0.09036856],[0.0022505706,-0.08033794,-0.0034995347,0.060606916,-0.05554887,0.1486609,-0.030749647,-0.044743318,0.0965219,0.045884725],[0.0369191,-0.09285152,0.09708449,-0.047097944,-0.16807427,-0.015665047,-0.15084587,0.07533657,0.011422082,0.1075713],[-0.079109944,-0.15869235,0.017333694,-0.025630562,0.24778567,-0.011687718,0.0035894038,0.03847974,-0.114468165,-0.14772923],[0.05571569,0.13219824,0.0052846116,-0.09343309,-0.04137715,-0.18885095,0.0028276306,0.1739146,-0.011064226,9.726242E-4]]}]}},{"fitness":0,"neuralnetwork":{"inputLayer":{"biases":[0.0,0.0,0.0,0.0,0.0,0.0,0.0,0.0,0.0,0.0,0.0,0.0,0.0,0.0,0.0,0.0,0.0,0.0,0.0,0.0],"values":[0.0,0.0,0.0,0.0,0.0,0.0,0.0,0.0,0.0,0.0,0.0,0.0,0.0,0.0,0.0,0.0,0.0,0.0,0.0,0.0]},"layers":[{"biases":[-0.08387069,0.25721693,0.049866155,0.22365707,0.023521468,0.10350157,-0.09223724,0.16360459,-0.0537966,0.008648393],"values":[0.0,0.0,0.0,0.0,0.0,0.0,0.0,0.0,0.0,0.0],"inputWeights":[[0.08935077,-0.007659101,0.020226827,-0.0071105803,-0.011167639,0.0028326693,0.11488491,-0.08309242,0.044828,-0.08342948,-0.08017989,0.047726553,-0.04636393,-0.18078108,-0.021144358,-0.1061148,0.118031286,-0.21503529,0.113548554,-0.09232339],[0.006482297,0.003555238,-0.014186198,0.29801974,0.05182976,0.15366039,-0.032138646,-0.05917472,-0.15113465,-0.15461938,-0.089544244,-0.11488876,0.016471185,-0.10799742,-0.17917866,0.19967616,0.029887415,0.014807251,0.006291746,-0.092750326],[0.0686745,0.09003551,0.09010012,0.036615282,-0.09663575,-0.026008924,0.05961314,0.03912187,-0.08960263,-0.041688062,0.06841905,-0.041543044,-0.078288004,-0.047899496,-0.13669112,0.15916647,-0.105275504,0.09691266,0.078061715,-0.11002431],[-0.035382483,-0.10917908,0.19006488,0.047641795,-0.026570102,-0.06602437,0.009407201,0.09822158,-0.06460179,-0.009921294,-0.04105486,-0.03460986,-0.023037871,-0.071663946,0.16627178,-0.05542164,-0.02124494,0.0058693355,0.064411856,-0.10449616],[-0.0016149897,0.13174632,0.01913241,-0.017732631,0.06311026,0.09558995,0.107322715,0.014045356,0.03448881,0.07177093,0.026841778,-0.08261149,-0.03603317,-0.16024026,0.05751429,0.108203284,-0.043703318,0.007532703,-0.0667145,-0.010623348],[0.24635437,0.002794784,0.05821191,0.09074804,0.17653193,-0.020584945,0.02721555,-0.020916644,-0.061236434,0.041420385,0.08112382,-0.1657589,0.10284241,3.292269E-4,0.04388596,0.0741697,-0.17640564,0.08017808,0.09324733,-0.07311815],[0.0118225925,0.10394323,-0.04615154,-0.10859546,0.033504065,-0.07115688,0.036068633,0.045775726,0.18058579,-0.07009667,0.06609996,-0.080917224,-0.14689314,-0.08323107,0.09456573,0.011638347,0.05869758,0.0033514232,0.11550551,-0.052227505],[0.20921437,0.007737789,0.1257537,-0.087342374,-0.06344041,0.23123169,0.12906761,-0.0016083701,-0.07520445,0.13359734,0.079823546,-0.21036476,0.052546542,-0.046310574,-0.004923501,0.10436133,0.1334329,0.027160574,0.1882363,-0.044390544],[-0.08380832,-0.16171372,0.06575973,-0.014792549,-0.09863905,0.025251208,-0.07144084,-0.07297516,0.20112206,0.06639241,0.3029238,-0.20747782,-0.032567438,0.025193753,-0.048029304,-0.10728512,0.012936805,0.21839643,-0.0438747,-0.12785608],[0.114152975,-0.081723526,0.08207095,0.016122056,-0.06018927,-0.13510068,0.030932808,-0.07136552,-0.10947931,0.0527828,-0.025179945,0.07837617,-0.1716605,-0.13422659,-0.29813546,0.09041573,0.18212895,0.041438825,-0.06375213,0.051590666],[0.03553135,0.011373429,0.009865906,0.13854218,-0.082176805,0.041857254,0.12276051,-0.22576745,-0.18591402,0.15212911,-0.047689524,-0.05557701,-0.11684458,0.13802978,-0.018975833,0.15050896,-0.06893565,0.0879328,-0.05261316,-0.06775445],[0.09128038,0.0035441297,0.09110931,-0.0013962744,0.11275422,-0.16984212,-0.115965955,0.09429641,0.12665866,0.06747193,-0.107882686,0.047525667,-0.038107894,-0.018266926,0.0097495895,0.063822225,-0.2042798,0.009889972,0.017451605,0.25873992],[0.013842793,0.19466536,0.006794282,-0.07018241,0.037778113,-0.13420747,-0.09128624,0.06761533,0.020182474,-0.09832032,-0.06055633,0.13669862,-0.029914344,-0.038485024,0.06348716,-0.11203616,-0.17416766,-0.120682254,-0.14407496,-0.050242193],[-0.055927888,0.048378903,-0.18490754,0.15029025,0.113566555,-0.11339623,-0.028304402,-0.018602123,0.055644598,-0.11411219,-0.05874722,-0.0037151997,0.22350071,0.25922415,0.23432404,-0.05063411,-0.047155935,-0.21941505,-0.028785657,-0.09110776],[0.021007067,0.10461986,-0.028339582,-7.6138414E-5,-0.09788226,0.0119780125,0.16556588,-0.063915774,-0.011782536,0.05642162,0.02460092,-0.17995268,-0.04238769,0.115235224,0.031995084,0.096607246,-0.080214076,-0.039892767,-0.13831042,0.09998518],[-0.03433831,0.0716699,-0.010090282,-0.05521331,-0.016438507,0.1432604,-0.01713818,0.04545965,0.030487278,0.022339702,0.08820172,0.088859715,0.067551404,0.099565394,-0.08579552,0.116221756,0.014205124,0.10589216,0.16866815,-0.103461176],[-0.070149794,-0.08341098,0.050967712,0.15784642,0.11469419,0.11739797,-0.1309865,0.1673461,-0.12423635,-0.12510487,0.03959078,0.07749115,0.060128015,-0.20148785,-0.003838122,0.02871023,0.12388899,0.22680905,0.13840413,-0.018768393],[-0.12832004,-0.03233734,-0.00974928,0.101361886,-0.12582752,0.1018801,-0.0010220256,0.026306514,0.20197313,0.03025015,0.028041197,-0.16185908,-0.07690196,0.22623913,-0.13989395,0.12401699,-0.030581798,-0.07686923,-8.13792E-4,0.09911499],[-0.08008483,-0.035893016,-0.09397733,0.044095457,0.15043418,-0.14046621,-0.014593846,0.023766585,-0.059711486,-0.005647229,-0.09559239,0.07246568,0.081216685,-0.26309383,-0.2279723,0.046075325,-0.07555553,0.061557863,-0.066945866,-0.12853524],[0.03241949,0.0037280822,-0.018406011,0.1091727,-0.026965873,0.07504281,0.115409374,0.07855165,-0.041246105,0.11406341,0.073378175,0.097818784,0.041398488,0.04206095,-0.04617366,0.14230734,-0.028259272,-0.03886146,0.16316876,0.0130610475]]},{"biases":[-0.012081375,-0.08231647,-0.02352873,0.20099281,-0.050442737,-0.049673993,-0.034561247,0.16621864,0.054288976,0.1790315],"values":[0.0,0.0,0.0,0.0,0.0,0.0,0.0,0.0,0.0,0.0],"inputWeights":[[-0.055760305,-0.05959934,0.16178365,-0.02200959,0.009722043,0.10117401,0.13519189,0.066982925,0.10370589,0.20431988],[-0.14236672,0.070892714,-0.03137816,-0.069892764,0.042147253,-0.06186687,-0.1370504,-0.07664802,0.048078135,0.024849135],[0.12501101,0.07213103,0.059896577,-0.05304016,-0.17576031,0.2654831,-0.07556451,0.09282111,-0.04162551,0.12659755],[-0.27940416,-0.20762716,0.076102674,0.061165433,0.01342348,0.018182142,-0.07418765,0.053841237,0.26378605,-0.20469557],[0.0371515,-0.095876,7.0043265E-5,-0.0052895905,0.07727762,0.06070434,0.2551893,-0.058698095,-0.0052105514,0.17873147],[-0.012971661,-0.0052266894,0.07749922,-0.0049481886,0.02540392,-0.12800997,0.147229,-0.08687355,0.029320544,-0.11920374],[0.08731416,-0.06258713,-0.013940196,-0.013915575,-0.021109065,0.17134033,-0.013279336,0.10454216,-0.12333332,-0.014391725],[-0.037968025,-0.031004446,0.21753316,0.08143843,0.117245264,0.13510978,0.09629306,-0.037309524,0.0024748477,0.0803173],[0.07867694,-0.08846087,0.012135688,0.07470231,-0.02624679,0.06816728,-0.15020096,0.010122589,-0.072772965,0.069437146],[-0.03725024,0.23739415,-0.005844993,0.011096608,0.13529584,0.30425945,0.05102183,0.05529761,0.080093436,-0.033581622]]},{"biases":[-0.050431557],"values":[0.0],"inputWeights":[[0.05951232,0.034612324,0.13978393,0.06924648,0.043618143,-0.04168172,0.0070101423,-0.094195694,0.2312433,-0.033539657],[-0.04437862,0.15190041,0.029268397,0.008378821,0.11284225,0.018630795,-0.1461796,0.006330048,0.05257758,-0.14635397],[0.06068289,-0.11856534,-0.12165577,0.066497594,0.09516397,-0.033620827,-0.048666634,0.12857226,0.06411743,-0.22490384],[0.14609003,-0.10743332,0.013128443,0.07396206,0.1371747,-0.102101944,0.019993003,0.008587538,-0.061789677,0.10319967],[3.3661394E-4,0.00829267,0.095129795,-0.06331689,-0.062140904,-0.11832922,0.035698794,0.071819596,-0.022573216,-0.07670365],[0.21852373,0.21485482,-0.039635144,0.099945076,-0.048127268,0.16069417,-0.049806803,0.06559193,0.0801481,0.22929516],[0.054108713,0.10167507,-0.1823312,0.07071462,0.14605123,-0.050015043,0.0015386827,0.08523397,0.06998525,0.02108805],[-0.010495961,-0.06032464,-0.04360042,0.08322361,-0.12507217,0.046622492,0.0882853,-0.03290538,0.05331081,-0.045129675],[0.06343894,0.059143938,0.24999118,-0.13579883,0.09082391,0.09164683,-0.020914279,0.015191025,-0.0031187504,-0.20100458],[0.054288033,0.01092703,0.010639079,-0.24277617,0.06673267,0.086711966,-0.04960208,-0.054529,0.013295233,0.037057538]]}]}},{"fitness":0,"neuralnetwork":{"inputLayer":{"biases":[0.0,0.0,0.0,0.0,0.0,0.0,0.0,0.0,0.0,0.0,0.0,0.0,0.0,0.0,0.0,0.0,0.0,0.0,0.0,0.0],"values":[0.0,0.0,0.0,0.0,0.0,0.0,0.0,0.0,0.0,0.0,0.0,0.0,0.0,0.0,0.0,0.0,0.0,0.0,0.0,0.0]},"layers":[{"biases":[0.12509139,-0.11177529,0.03295594,-0.0019075548,0.02250642,0.18173109,0.09293042,0.09569,0.09616576,-0.0010608794],"values":[0.0,0.0,0.0,0.0,0.0,0.0,0.0,0.0,0.0,0.0],"inputWeights":[[-0.074476,-0.10724616,0.041457005,0.08180542,-0.13834988,-0.06258895,-0.22186658,0.06845694,0.23891163,0.23895146,-0.032541845,-0.067993656,0.107064165,0.03490071,0.16473761,-0.008259469,0.06406514,0.029621553,-0.054573227,-0.19900937],[0.019090693,-0.013400223,-0.008098706,-0.033839766,-0.007222356,0.06588454,-0.1561323,0.045918334,-0.21459588,0.04796082,0.06932742,0.032750163,0.039686944,0.038913433,0.01224462,0.08928738,-0.0583401,0.10744421,0.18028113,-0.18788624],[-0.14615725,0.095805205,0.08821712,0.092181586,-0.16350035,-0.00553134,-0.15895076,-0.091792405,-0.09626088,-0.06243459,-0.18314418,-8.726729E-4,-0.1378659,-0.07383983,-0.10833841,-0.035375148,-0.051486257,-0.094537154,-0.08544897,0.024021264],[-0.08159712,0.10385971,0.010188968,0.047874857,0.1264395,-0.059770428,0.1239731,0.169159,0.059357233,-0.003811059,-0.033918116,0.008122458,-0.19000234,-0.019163959,-0.1350634,0.11857659,0.19864665,0.06379287,0.1480363,-0.13931401],[-0.04842298,4.7079826E-4,0.14614685,0.08567566,-0.2610983,0.045183353,0.160395,-0.17328657,-0.010751486,-0.005652073,-0.0186209,0.07359183,-0.0405049,-0.010391101,-0.030763943,0.025489038,0.022351896,-0.104539335,-0.016204841,-0.060631447],[-0.046021305,-0.009106592,-0.09913895,-0.09791787,-0.08741169,0.14646524,-0.14620513,0.07996384,0.10061139,0.13537304,-0.064545274,-0.284274,-0.012098659,-0.09609282,-0.14391284,0.0014374041,0.0305278,-0.11670706,0.040902626,7.1478746E-4],[0.023132853,0.045220267,-0.19601631,-0.057719693,-0.11176475,-0.07438887,-0.21389687,0.08643417,-0.08010462,-0.117612325,0.03179561,0.110187724,-0.0310805,0.07017052,-0.057036433,0.13336398,-0.15000589,0.06285097,0.17072134,0.0018997369],[0.010240478,-0.09008493,-0.0060719275,0.18720777,0.052005015,0.037363835,-0.06605429,-0.23312013,-0.07163005,0.04954593,0.02902432,0.10395192,-0.22511162,-0.033146854,0.106527984,0.057976052,0.1839235,0.06954694,0.06099521,-0.15338261],[-0.040657077,-0.059432913,-0.03213229,-0.11717425,0.030837877,-0.09459003,-0.20702124,-0.053405248,0.13239273,-0.119637005,0.30148324,0.020065755,0.15024279,0.057746805,0.13244857,-0.0072566154,0.02090154,0.07886563,0.14409916,-1.3525513E-4],[-0.09324381,-0.09965447,-0.0022227245,0.015105692,0.07735519,0.0145068355,0.05110492,0.036352497,-0.085964285,0.026333803,-0.011350928,-0.00141896,0.08943312,0.08790923,-0.16410041,-0.1388467,-0.04012875,0.16651992,-0.0967366,-0.022070114],[0.031139264,-0.07913469,0.029714689,-0.024176583,0.050706413,-0.062177032,0.07495393,-0.15848565,-0.052135717,0.13039008,-0.101236284,0.070951164,0.021479195,-0.102688335,-0.1687457,0.18985419,-0.04113831,-0.04072557,-0.022338768,-0.16588667],[-0.043758046,0.074412584,-0.13093682,-0.0060132295,0.1572018,-0.03905724,0.011785426,-0.023303885,0.073785126,0.07642553,0.13254096,-0.06460367,0.0916605,0.082834184,-0.036413785,-0.10161469,0.14987381,0.04661345,-0.06476528,0.032807965],[-0.021748757,0.05078677,-0.014440791,-0.04017161,-0.036594845,-0.08757485,0.06839338,0.034717806,-0.10347132,0.024866583,0.099546656,0.18281552,-0.32504007,0.13768658,0.11171961,0.029162886,0.16881172,-0.09826158,-0.033463173,0.027412],[-0.15142906,0.15434808,0.02102748,0.019678915,0.057231348,-0.023256702,0.07046052,-0.06432245,0.028584324,-0.18880634,-0.0776134,0.015986493,0.059579756,0.09185599,0.041238252,-0.07056555,0.041891232,0.057465587,0.031733215,-0.110178724],[-0.02974571,-0.04966092,0.18188368,-0.13312759,0.1043969,0.049136534,-0.17263208,0.03672241,0.023915429,0.019656053,0.19698189,-0.033783223,-0.052491333,0.17151713,0.041712865,0.030209877,-0.091472276,0.005851149,0.14024754,-0.008386336],[0.085984506,0.030830411,-0.013745199,-0.056775194,0.0037027402,-0.0710316,-0.025665017,0.08733904,-0.03776498,0.18286881,0.13565901,-0.058139957,-0.0061107106,-0.13283677,-0.063698895,0.14591952,0.01757537,0.025575694,-0.07902801,0.055008583],[0.015023806,0.0010449653,0.15665355,-0.058465287,0.055328332,-0.04558555,0.0717537,0.20077553,-0.024600677,0.09321383,0.052180585,-0.09689819,-0.005599167,0.031127928,0.14575097,-0.117417365,0.04192481,-0.035003744,-3.4134314E-4,0.08510075],[-0.03492525,-0.040426593,-0.09204984,-0.036111735,-0.13717937,-0.1894807,-0.087676436,0.027515888,-0.06458679,-0.06399663,0.19538099,0.07998142,0.14067739,-0.037633214,0.01251373,-0.09601754,-0.13941537,0.14396669,0.13833402,-0.04625951],[-0.16564903,-0.09014244,0.19156742,-0.10401366,-0.05876533,-0.038046982,0.032698568,-0.24014652,-0.0985153,-0.017664446,0.011199415,0.07548646,-0.005944054,0.059487186,0.14118968,0.08408003,0.08832131,-0.028177246,0.022219297,0.049547758],[0.07310497,-0.04562801,0.08244363,-0.017804846,-0.04332905,-0.05273442,0.009528098,0.088760875,0.03823627,-0.21395311,0.014581669,0.10232118,0.14403006,-0.0232142,-0.06731987,-0.11026459,-0.18103848,-0.057603832,0.0039764214,-0.07172235]]},{"biases":[0.16752268,0.0568039,-0.18482354,0.08602808,0.031019012,-0.045233462,0.06624134,-0.10268517,-0.04295123,-0.020763487],"values":[0.0,0.0,0.0,0.0,0.0,0.0,0.0,0.0,0.0,0.0],"inputWeights":[[-0.17352864,0.13856725,0.08951202,0.06469575,-0.02816196,-0.10227632,0.04491157,-0.075004995,-0.012630784,-0.09117331],[-0.016257761,-0.11328245,0.0133507745,0.11363193,-0.03963535,6.6870496E-5,0.0914349,0.07787231,-0.08638892,-0.06674101],[-0.15203434,0.04052266,0.08243683,-0.049585283,-0.046296183,-0.08687562,0.07969761,0.1593339,-0.13307771,0.11901804],[-0.055286486,-0.18335156,-0.19258237,-0.015665447,0.08517828,-0.028076245,0.31253925,0.0038659228,0.06984276,-0.012052729],[0.08227534,-0.10101465,-0.053668763,-0.10134523,0.0304194,-0.013753749,0.17041618,0.10369779,0.10346115,-0.07046446],[0.030375952,-0.07682083,-0.034275185,-0.017563006,0.16898867,0.09879204,-0.026806863,-0.08710399,-0.008674704,-0.020390978],[0.018552693,-0.16339888,0.042835712,0.04683301,0.10229796,-0.037839804,-0.21930169,-0.26160496,0.004835355,-0.051751617],[0.024087168,0.0541418,-0.06615259,-0.10781814,-0.029748002,0.0040493603,0.09381957,-0.073760964,-0.03573264,-0.008016756],[0.2063546,-0.07637351,0.15528116,0.046269417,0.07434212,0.055613056,-0.040999677,0.02072424,0.20373479,0.122249916],[0.04800013,-0.10816717,-0.055799995,-0.0668616,-0.10179896,-0.09780579,-0.007538059,-0.041880112,-0.071670264,0.013797756]]},{"biases":[-0.0749613],"values":[0.0],"inputWeights":[[0.051630985,0.10524812,0.07054432,0.10667747,-0.18402581,0.07225548,0.014687361,0.067487374,-0.08872273,0.060271975],[0.08243437,0.009377714,0.017476814,-0.09430086,-0.066595204,-0.02624408,-0.015280027,0.025224673,0.012238745,0.13113745],[0.1375597,0.2287111,-0.019133212,0.17014392,-0.0025052233,0.04307942,-0.03271737,-0.03187258,0.13860925,-0.13337839],[-0.09723666,-0.12185311,-0.08480628,4.8802907E-4,0.015953396,0.014642536,-0.16498895,0.036948163,-0.02967949,0.002553392],[0.008436833,-0.13130684,0.036913946,-0.03927998,-0.10600421,0.09012961,0.08423201,-0.14110693,0.06459301,0.1894418],[-0.0034524465,0.15875275,0.20158575,0.11496627,0.058197867,-0.07542966,-0.049236912,-0.16519304,-0.1280588,0.042540345],[-0.10529286,-0.0483599,0.07546029,-0.08903849,-0.12335965,-0.16084355,-0.075913325,-0.06693012,0.068697676,0.14029786],[0.0350519,0.03576861,0.06538488,0.13276519,-0.020047773,-0.09095771,-0.2493811,-0.07952024,0.030897906,-0.016718179],[0.08731685,-0.024528688,0.06055164,0.28185773,0.032018423,0.06290353,0.07250214,-0.24640423,-0.1269803,0.1597779],[0.10334791,0.01864899,0.054720625,-0.03534284,0.051485684,-0.08470435,0.013921036,0.12553301,0.3382978,0.17912015]]}]}},{"fitness":0,"neuralnetwork":{"inputLayer":{"biases":[0.0,0.0,0.0,0.0,0.0,0.0,0.0,0.0,0.0,0.0,0.0,0.0,0.0,0.0,0.0,0.0,0.0,0.0,0.0,0.0],"values":[0.0,0.0,0.0,0.0,0.0,0.0,0.0,0.0,0.0,0.0,0.0,0.0,0.0,0.0,0.0,0.0,0.0,0.0,0.0,0.0]},"layers":[{"biases":[0.12601991,-0.06165727,0.029117702,-0.03969141,-0.068856284,9.816518E-4,-0.036838856,-0.07000561,-0.07229028,-0.11864057],"values":[0.0,0.0,0.0,0.0,0.0,0.0,0.0,0.0,0.0,0.0],"inputWeights":[[-0.102871306,-0.062567905,-0.020228317,0.07351711,0.00209834,0.009453879,-0.10113094,-0.14217004,-0.052998047,0.1496036,-0.028109532,0.10463241,0.07179291,-0.122886315,0.073769175,-0.033814818,0.08925857,-0.11239128,-0.11683032,-0.096497275],[-0.034382336,-0.008353028,0.0043572015,-0.015208756,0.05303141,0.070739076,0.04854857,0.02634253,-0.19186547,0.14925739,0.023676734,-0.05909433,-0.1897905,0.1842667,-0.13317038,0.17926168,0.024667038,-0.014125345,-0.09091238,-0.04284897],[-0.06886865,0.0511156,0.07185427,0.16775933,0.13798639,-0.05954313,0.07291438,0.038109872,0.0944201,-0.031007925,-0.15812854,-0.12597196,0.08501768,-0.070609756,-0.0053158547,-0.04812362,-0.031978093,0.035963938,0.106626,-0.034355756],[-0.14811656,-0.17096631,-0.3524619,0.06410844,-0.016771937,0.13011469,0.08238264,0.063002534,-0.039788608,0.137519,0.038116753,-0.0069758724,0.15167445,-0.13057372,0.13714819,-0.008102519,-0.17401128,-0.0040698852,-0.16262019,0.13604881],[-0.105045766,0.09589581,-0.053710535,-0.054475855,0.0073269657,0.044336174,0.031907108,-0.13620278,0.04067817,0.0061878,0.10049083,0.06977634,-0.105456494,-0.08270183,-0.07878714,0.05031676,0.11275397,0.0031497155,-0.10300361,0.13041458],[-0.06924123,-0.22345488,-0.08240845,-0.09054009,-0.056745086,0.18916552,0.13468522,0.05866077,0.23325062,-0.030165559,-0.0014482181,0.059851352,0.17420515,0.042364735,0.055882473,0.04603467,-0.08825581,0.013276156,0.12429057,0.0023343305],[0.029989991,0.005415998,-0.024761982,0.032419473,0.0044114217,-0.017098285,0.16328228,0.07020398,-0.06797998,-0.0057077273,-0.17806473,-0.04467346,0.071115956,-0.0421259,-0.007574714,-0.03968658,0.024183713,-0.017015124,0.09913218,-0.075965576],[0.0660118,-0.044395436,0.11961781,0.10468195,-0.060216032,-0.0057783886,0.08944372,-0.048107058,-0.009772908,0.012499656,-0.040941052,0.007819223,0.109936036,-0.14291729,0.061878525,-0.056833394,-0.035171308,-0.03236297,0.0740747,-0.09302311],[0.22557771,0.019669386,-0.06932183,0.018096548,0.17811681,-0.06291173,-0.035992984,0.04284552,0.11227079,0.116816044,0.024824789,0.035884313,-0.044365034,-0.09539815,-0.012762852,0.053896766,-0.06830436,-0.0043875133,0.12422855,0.0053913468],[-0.06468798,0.17633744,0.048420463,0.1976264,0.061850052,0.007018451,-0.03324517,-0.02993725,-0.063772865,-0.096849516,0.014423345,-0.022325004,0.031469595,0.039901916,0.027521133,0.113568194,0.055486705,0.058449175,0.083458066,0.13765275],[0.13072307,-0.15646271,-0.13916467,-0.0041002817,0.04214967,-0.13330789,-0.046933625,0.16535135,0.0019689603,-0.019926842,0.09082109,-0.03176992,-0.09562163,0.026618281,0.014688275,0.05737415,0.15074255,-0.14836928,-0.05086475,0.0022245634],[0.0076691653,0.101833455,0.07926582,0.010662219,0.10848386,0.07694501,0.06899812,0.10044636,-0.019641208,-0.17403723,0.015499872,0.03387862,0.04617747,0.109009184,0.0860946,0.1519623,-0.0084257955,0.033887178,-0.031220673,0.01662402],[-0.016656436,-0.06723265,-0.052031487,-0.055800408,0.175818,0.012370036,0.017174222,0.046260376,-0.018448057,-0.25331116,-0.13294707,0.111081906,0.095333815,0.16815525,-0.09086797,-0.021459479,-0.09594876,0.05154267,0.029367639,0.16287772],[0.03572018,0.15499863,-0.034300905,-0.006574748,0.06283138,-0.005576368,0.115786895,-0.10834129,-0.26620525,0.04399164,0.06719294,0.11512486,0.03251375,-0.11447567,0.08957318,0.10585523,-0.12995228,-0.05282658,0.037929256,-0.057128407],[-0.115799695,-0.090405166,0.15654685,0.04535056,0.13185357,-0.08918746,-0.083538175,-0.15577582,0.026396036,0.031669553,0.009839709,0.02904101,-0.22232161,-0.032832723,0.19328895,0.04029987,-0.118848965,-0.093662746,0.041737307,0.039832585],[-0.01553878,0.1612221,0.09154347,-0.010407152,-0.059338756,0.1359255,-0.12282446,0.03068524,-0.005592389,0.008491447,-0.034276985,-0.098448224,0.16496836,0.02349278,-0.09918472,-0.071567535,0.02909015,0.05305106,0.045174822,0.039681315],[0.1281588,-0.06430315,0.017742215,-0.049553543,-0.077872254,0.007463249,-8.20392E-4,0.19381034,-0.012767831,0.21608448,0.041585546,-0.071197785,0.118493825,0.06814122,0.01021639,-0.04116564,0.011307138,-0.07953338,-0.13379195,-0.07953185],[-0.043481983,0.063098975,-0.03632259,0.12888685,-0.043262467,-0.11659108,-0.06522959,0.08478075,-0.096713185,0.17570198,0.042406958,-0.12237239,-0.15503822,0.09725433,-0.15348856,0.058470953,0.088360436,-0.14690287,0.096488,-0.018296743],[-0.01567759,-0.13910829,-0.13196185,-0.088780195,-0.160097,0.28872252,0.1863923,-0.11529415,-0.09019305,0.07757377,-0.056952,-0.03089377,0.011437956,0.037138484,0.07704113,0.10224622,-0.147966,-0.06761657,-0.1475024,0.031474486],[-0.046000477,0.021820405,0.07372478,-0.14506648,-0.004129009,-0.102329105,-0.026551398,-0.02804744,0.0231552,0.017132664,-0.26228416,-0.005967085,-0.16650547,-0.04334143,0.02769459,-0.12304663,0.018614769,0.012389655,0.1509825,0.17164809]]},{"biases":[-0.049072076,0.10448407,0.15898603,0.025401324,-0.2205083,0.10186928,-0.23750688,0.14802928,-0.050327938,-0.017162789],"values":[0.0,0.0,0.0,0.0,0.0,0.0,0.0,0.0,0.0,0.0],"inputWeights":[[0.052961778,0.17788766,-0.08558904,0.14372793,0.036138136,-0.06457368,0.06863005,0.047438614,-0.060358044,0.015298194],[-0.097684205,0.045665294,0.054802995,-0.22759429,0.19173035,0.010886989,-0.13695861,-0.12657031,-0.02560695,0.12928234],[-0.022635022,0.01844198,0.1545779,-0.12485072,0.09840364,-0.12643997,0.040868957,-0.007098065,-0.070823066,0.22357428],[0.18737464,0.011945305,-0.054277625,-0.0028197381,-0.1007801,-0.06730924,-0.03645209,0.016717773,0.08876351,-0.15705447],[-0.011530853,0.19786817,-0.031475082,-0.0065301303,-0.036768302,0.14835605,-0.1422817,-0.10244797,-0.022374751,-0.1470288],[0.06954157,-0.013456206,-0.12976508,-0.015645366,-0.10002327,0.26492843,-0.1688496,0.15145919,-0.026525373,-0.09969899],[0.09600876,0.19530386,-0.13512705,-0.017514925,-0.03366346,0.06760725,0.12766552,0.20996697,-0.060345598,-0.009275773],[-0.023505487,-0.06129162,-0.08614768,-0.16387996,0.026148684,-0.03638914,0.025003824,-0.08075636,-0.13634358,-0.02190316],[0.0513995,-0.017352644,-0.038580857,-0.030718042,0.10346433,-0.18622641,-0.04670379,-0.021149347,0.078024484,-0.097556844],[0.14258352,0.15513791,0.064580314,-0.040666923,0.10923562,-0.11283436,0.15678044,-0.029914869,-0.028391311,0.17307046]]},{"biases":[0.09936258],"values":[0.0],"inputWeights":[[0.08921601,-0.24150251,0.07811777,-0.09110754,-0.014089568,0.082740165,-0.014856912,0.077229865,0.026638998,-0.19725393],[-0.044802275,-0.067855,-0.07904149,-0.089698866,0.06726456,-0.028879838,-0.06562021,0.14759396,-0.08577703,-0.13983852],[0.015239056,-0.051645268,0.040331513,0.12517466,-0.030957904,-0.04305633,0.09139645,-0.11790173,0.061405912,-0.24991249],[-0.11397207,-0.0871964,0.058368824,-0.106776565,0.1238807,-0.023355743,0.02442004,-0.115921505,0.09152379,0.13381565],[0.30553883,-0.057168763,0.18043077,-0.14993246,-0.03791981,0.1783556,-0.14528383,0.12966794,-0.2993973,0.08063229],[-0.030572768,0.07159382,0.15930995,-0.017730748,0.22512464,-0.13086054,-0.081384815,-0.040865466,0.035912644,-0.01498227],[0.07453362,0.031928815,-0.08173338,-0.07231602,-0.034815043,-0.0615816,0.0026023928,-0.12521088,-0.084788695,-0.08810886],[0.032118566,-0.1746714,0.096465066,0.027026447,-0.10230516,0.14683716,-0.0010937343,0.03837765,0.012777564,0.064844504],[0.054175396,-0.07663678,0.24707144,-0.06462284,-0.099038646,0.014383995,0.067282945,0.1003396,-0.09981541,0.083879344],[0.070629835,-0.0589036,0.066005476,-0.040496487,0.0038404034,0.12339688,-0.185364,0.047822487,0.0025793577,-0.101223424]]}]}},{"fitness":0,"neuralnetwork":{"inputLayer":{"biases":[0.0,0.0,0.0,0.0,0.0,0.0,0.0,0.0,0.0,0.0,0.0,0.0,0.0,0.0,0.0,0.0,0.0,0.0,0.0,0.0],"values":[0.0,0.0,0.0,0.0,0.0,0.0,0.0,0.0,0.0,0.0,0.0,0.0,0.0,0.0,0.0,0.0,0.0,0.0,0.0,0.0]},"layers":[{"biases":[0.136212,-0.17702852,-0.13016155,-0.054553673,0.11294652,-0.12529016,0.0058692447,0.05731308,0.019644007,-0.13595575],"values":[0.0,0.0,0.0,0.0,0.0,0.0,0.0,0.0,0.0,0.0],"inputWeights":[[-0.09762414,0.025422096,0.08966927,0.016183022,-0.030201163,-0.06339279,0.07141406,-0.1562854,0.124585696,-0.08082512,0.06619302,0.026213482,0.01936261,-0.036799252,-0.009136349,-0.04771624,-0.0625799,-0.04913838,-0.025857005,-0.089492634],[0.044324424,0.2226957,0.08865842,0.051724344,-0.051544487,0.040861033,0.18964781,-0.004406887,-0.06434435,-0.017612608,0.095942646,0.109653324,-0.04975373,-0.14410236,0.10483837,0.07717603,0.10209999,-0.18915457,-0.105478436,-0.1373941],[-0.011178298,0.053500228,-0.10394987,-0.10320627,0.11995107,0.016765712,0.07585832,-0.055830512,-0.09320883,0.11716237,-0.051740557,0.10779585,0.12615778,-0.18580261,0.15744352,-0.027682181,0.027733643,-0.06747276,0.01749996,-0.021965746],[-0.03651329,-0.080606975,0.003702941,-0.147105,-0.18756144,-0.049432363,-0.18019462,-0.2315174,0.14657244,0.032125913,0.02379402,-0.015306746,0.005901167,0.027654096,-0.22275427,0.28599504,-0.17246483,0.110882,-0.026539972,0.010439748],[-0.05181676,-0.13116403,-0.25170803,0.14105454,-0.2147167,0.10498424,-0.13887365,-0.016530076,0.12500642,0.06671671,0.040567797,-0.040817536,-0.12027561,-0.032191895,-0.11891732,0.1057719,0.072225206,0.09612834,0.15510967,-0.0058756047],[-0.081365995,0.11427589,-0.08704852,0.09405624,0.1341144,-0.15869612,-0.089253366,-0.1569939,-0.014113448,0.009962498,-0.016485607,0.06210361,-0.036944132,0.039795104,0.23881091,8.5707044E-4,-0.013243079,0.07562254,0.077217884,0.1545191],[0.027101986,-0.020641152,0.17896572,-0.015543213,0.09271396,0.18518816,0.062770955,0.11522197,0.04243043,0.06419657,0.020754777,-0.048559472,-0.05659963,0.0642678,-0.025572615,0.27459902,-0.061935578,0.069388434,0.013289983,-0.091746256],[0.1312855,-0.12258021,-0.034736138,0.079374276,0.02684787,-0.02970837,-0.12952192,0.20350079,0.0729075,0.03993247,0.074724376,0.11412271,-0.011785662,-0.2036547,0.14147465,0.021319672,-0.014158515,-0.04338412,-0.11391061,-0.032541692],[-0.021338144,-0.20867711,0.07226072,0.07779131,0.071310475,-0.027121099,0.14802918,-0.076988466,-0.122072846,0.1496578,-0.04491397,-0.039860357,0.1537767,-0.11417289,-0.08075887,-0.029288193,-0.053955965,-0.07859708,-0.014691987,-0.080750145],[-0.14459904,0.16581643,0.05904386,0.04117466,-0.035631236,0.13707653,0.060236134,0.016409187,0.172112,-0.016126765,-0.20795676,0.05598295,0.04446488,-0.09100976,-0.04075167,-0.06619579,-0.06315055,0.038423292,0.013531666,-0.051476255],[0.11869925,0.0759739,-0.26449773,-0.0066394564,0.0629285,0.17780411,0.08435912,-0.07898552,-0.20346205,-0.04678337,0.036814902,0.043557074,-0.06837394,-0.13009898,0.03226017,-0.10876779,0.051012732,-0.12680104,0.17172062,-0.07982797],[-0.022337012,0.10174523,-0.012299188,0.010435562,0.074622944,-0.069441915,-0.044877317,-0.025444426,-0.090436555,-0.07483408,0.035055578,0.027665062,-0.23143196,0.02244665,-0.12443453,-0.17095429,0.04118738,-0.117508054,-0.0053268177,0.13947749],[-0.07388268,-0.0875445,-0.0809578,-0.0673223,0.036256682,-0.17680517,-0.011809103,0.14489701,-0.14204647,-0.09444503,0.16822815,0.07326445,-0.016335228,0.012647744,-0.11176355,0.021247054,-0.027553914,0.15197755,-0.2406934,-0.0998117],[-0.13380109,-0.04418738,0.021602321,-0.06867796,-0.17069313,-0.18327491,0.04909203,-0.09031472,-0.22792892,-0.07675602,-0.11676597,-0.046669204,-0.22947976,-0.16450715,-0.1333719,-0.0025205163,-0.18777284,0.11506236,0.11981542,0.07320178],[-0.08715373,-0.015322142,0.021194492,0.0507588,0.046686724,-0.01642479,-0.005972055,-0.045084808,-0.12690695,-0.059392776,-0.21503791,-0.08660678,-0.16187237,-0.015305872,-0.045425054,-0.0015517088,-0.037678044,0.068899065,-0.1312037,-0.049491003],[0.14538346,0.11540963,0.10714082,0.1107401,0.011074086,-0.04122777,0.224681,0.122142866,0.02283017,-0.15533105,-0.0145408865,0.12239656,-0.13399339,-0.16823998,-0.045382276,-0.03353518,0.080540664,-0.13823234,0.056256756,-0.053696506],[-0.14686641,0.05024474,-0.10071039,0.10130847,0.15867382,-0.0914353,-0.02962339,0.004987377,0.1469412,0.06342498,0.14159027,-0.111495525,0.009942216,0.097510666,-0.08289577,-0.06901481,-0.07889078,0.05436121,0.1002068,-0.036476083],[0.2247706,0.10643554,0.044557583,0.14706281,0.21080118,-0.059001844,-0.014912654,-0.04338448,0.060823295,-0.014199046,0.06358257,-0.14555816,0.062399104,-0.073693454,0.17917964,-0.11808277,0.11364832,-0.092259906,-0.09274957,-0.04089855],[-0.0911608,0.083920375,0.2571513,-0.24384567,-0.093782485,0.0819639,-0.13079381,0.026525334,-0.1645573,0.018860402,-0.17900245,0.14418441,-0.007989627,0.17664324,0.061829176,0.0371435,-0.07982499,0.17727037,-0.041792773,-0.10418291],[0.066859215,-0.1395953,-0.06099874,-0.053422865,-0.03178745,-0.08820439,-0.106856115,0.08458885,0.18905675,-0.062267523,0.030767443,-0.0010008168,-0.07680115,0.030035572,-0.077961795,-0.22246405,-0.056582,0.052631043,-0.050892714,-0.026773741]]},{"biases":[-0.025292283,0.1769986,8.559544E-4,-0.013162727,0.2389654,-0.016148692,0.13975433,-0.01092724,0.11256324,0.05177365],"values":[0.0,0.0,0.0,0.0,0.0,0.0,0.0,0.0,0.0,0.0],"inputWeights":[[0.0069105197,0.024061808,-0.024508704,-0.06157019,0.031335942,0.022124501,-0.04098263,0.059624124,-0.20487623,0.05507439],[0.10326723,0.11783549,-0.001801235,-0.04196059,0.017044496,-0.018759616,0.070985876,-0.017261643,0.0023809099,-0.041485503],[-0.10056991,0.16780744,-0.012840414,-0.15136857,0.009095848,-0.08359659,0.057706486,0.017086048,0.16423793,0.023573162],[0.07114214,-0.014619174,0.012697969,0.077902324,0.21612935,0.025198935,0.0887658,-0.13893919,0.15914448,-0.075549744],[-0.024758564,0.010276455,-0.16883618,-0.16472162,-0.07390664,-0.08239364,-0.045460105,0.053556554,-0.0050955573,0.04393871],[-0.033695027,0.07507916,-0.043699335,0.0947852,0.21604072,0.10727125,0.1428379,-0.08051559,-0.040687498,0.05210306],[-0.20507458,-0.006713425,0.0952531,0.08369461,0.0073684105,-0.045237213,0.12207215,0.069576316,0.06637137,-0.02474551],[0.13773695,0.13881528,-0.06140684,0.19758801,-0.15707621,-0.056937765,0.0566843,0.08443611,0.09434501,0.0071015987],[0.023795232,-0.17276591,-0.024711577,0.046424236,0.009885634,-0.10215203,0.1599305,0.036114566,-0.08938147,0.0021983618],[-0.052619807,0.0020593458,-0.07058294,0.015943024,-0.28488728,0.13773073,-0.0011111205,0.07433935,0.094843805,0.14988211]]},{"biases":[-0.08800377],"values":[0.0],"inputWeights":[[0.10139095,0.0149444,-0.070330285,0.1345209,-0.0027719943,-0.072355345,0.15329364,-0.14112405,-0.08991922,-0.04537749],[-0.09764371,-0.10067497,0.035012785,-0.051771525,0.049189914,-0.09433546,-0.06358023,0.12446131,-0.010567063,0.05767997],[-0.016290395,0.13406089,0.036588192,-0.07736704,0.08253311,-0.024722625,0.019808182,0.01557863,-0.060676903,-0.20971294],[-0.027929233,0.023688117,0.026301065,-0.17757875,-0.012854405,0.12639643,-0.040948585,0.027289897,-0.17600799,0.030919857],[-0.00239489,0.016535617,-0.12187391,-0.07958871,-0.11947839,0.2654659,-0.031634707,0.08540339,0.06703312,0.07117501],[0.091479875,-0.11866035,-5.3450547E-4,0.13931605,0.04043686,0.12634476,-0.07895,-0.052486863,0.16430251,-0.14142826],[-0.08404514,-0.15593071,0.073642075,0.069615014,-0.17685156,-0.07092364,-0.09993764,0.16395892,-0.121983565,0.15295722],[0.14783846,-0.099279836,0.13804954,0.18049961,-0.06827647,0.01968018,0.06697369,-0.15662327,-0.050067887,-0.13638587],[-0.0035413115,0.10004628,-0.0709202,0.07269348,0.19678047,0.020441245,-0.04769798,-0.056191284,-0.085469075,0.06966955],[-0.108112544,-0.027480654,-0.094195664,-0.16962859,-0.058195923,0.07404772,0.19050029,0.07986349,-0.17776787,-0.18595774]]}]}},{"fitness":0,"neuralnetwork":{"inputLayer":{"biases":[0.0,0.0,0.0,0.0,0.0,0.0,0.0,0.0,0.0,0.0,0.0,0.0,0.0,0.0,0.0,0.0,0.0,0.0,0.0,0.0],"values":[0.0,0.0,0.0,0.0,0.0,0.0,0.0,0.0,0.0,0.0,0.0,0.0,0.0,0.0,0.0,0.0,0.0,0.0,0.0,0.0]},"layers":[{"biases":[0.032738257,0.17015858,0.12553297,0.06663261,0.17597722,-0.0048788018,-0.06714204,-0.025739724,-0.16179095,-0.17715448],"values":[0.0,0.0,0.0,0.0,0.0,0.0,0.0,0.0,0.0,0.0],"inputWeights":[[0.04725733,-0.14995569,0.10340563,0.10989643,-0.010957541,0.045572016,0.04613085,0.07935409,0.15462424,0.16225094,-0.007359431,-0.057002112,-0.044184316,-0.10728659,0.015528662,0.038439687,-0.02289408,0.1765942,0.05691172,-0.002139473],[-0.1394207,0.0852615,0.006088077,0.08875786,-0.18912838,0.05101286,-0.12773627,0.061126668,-0.061201807,0.12330396,-0.06267274,-0.093374506,0.026271021,-0.09299794,-0.10040366,-0.16400301,6.842214E-4,-0.004195112,0.019240763,0.06063144],[0.05900867,0.14280033,-0.02263026,0.0010116973,0.027392454,0.15588705,-0.07268884,0.12684844,-0.087989904,0.036448233,-0.14299542,-0.028272483,0.029311227,0.1289359,-0.03616772,0.045321748,-0.09796927,-0.112964965,-0.07595543,-0.0767176],[-0.04552567,-0.19975747,0.011361643,-0.01847288,0.0069938716,-0.14212057,-0.043555308,0.09600637,-0.12008279,0.1332613,-0.078440234,0.016238589,-0.11636724,0.038871188,-0.01615575,0.052961536,0.0609016,-0.048830155,-0.04846847,-0.047142506],[-0.065264076,0.032147188,0.008959627,0.112530634,0.03203364,0.11514302,0.0032138189,0.08069333,-0.0676412,-0.10504067,0.034799736,0.07814956,-0.075514264,-0.091191344,0.038514566,-0.075575784,-0.021645974,0.0023827124,0.011978181,0.15171114],[-0.21656826,-0.14304708,0.15806092,-0.094274454,-0.10259208,0.046941932,0.119184524,-0.05269391,-0.25417468,-0.07733512,0.002292726,-0.1446582,-0.01633209,-0.03356216,0.17215495,-0.098726705,-0.12832516,0.10036922,-0.17760888,-0.16832717],[0.00171017,-0.07683347,-0.010140386,0.08099989,-0.14247942,-0.07584365,0.077967785,-0.13667214,-0.022392297,-0.11844178,-0.17127977,-0.13767773,-0.10265142,-0.0046381406,0.012338544,0.12866478,-0.05788759,0.08684142,0.040094517,-0.07448498],[-0.01989769,-0.080109924,0.03937437,-0.104812466,-0.20916212,-0.015249234,0.12540764,0.023681369,-0.05761466,0.056150313,-0.016923703,0.01876761,0.058586854,-0.07955084,-0.15625024,-0.051146127,0.15862925,0.011221909,0.079881296,-0.04181593],[0.011624273,-0.15471774,0.08777842,0.017737772,0.08420214,0.13638191,-0.15113531,0.12649657,-0.04057274,0.013503638,-0.08552119,-0.13088681,-0.020332476,0.0022536677,0.13037556,-0.03158336,-0.12256962,0.10333486,-0.0333893,0.17231621],[-0.12440503,-0.032432035,0.16679984,-0.1148779,-0.17465091,0.07711882,0.06664164,-0.13466996,0.0013589673,-0.04049226,-0.15461408,0.231284,0.055984784,-0.02412317,0.035304587,0.011035446,-0.032783695,0.041027043,-0.005295118,0.13936898],[-0.016568212,0.1965268,-0.17027733,0.053678025,0.042820826,0.0113858795,0.050035667,-0.15498583,0.017970508,0.06254998,-0.11638984,0.22725345,-0.1108065,0.17713031,0.0041891094,0.100589655,0.11175302,0.030043384,0.049196832,-0.03628486],[-0.11129782,0.09248015,-0.03785534,0.13940601,0.12026302,-0.02357148,0.05332245,-0.08931706,-0.096302345,-0.029798688,0.07782693,0.017187895,-0.035945076,-0.069257066,0.0810364,0.099399626,-0.12678008,0.06602529,0.007295658,-0.096725024],[-0.093928866,-0.11131652,-0.118030645,0.121590495,0.032414794,-0.049822275,-0.058861993,-0.02655528,-0.010329364,-0.18204927,0.11787124,0.008118179,-0.15326013,-0.09079965,0.035400983,-0.16328421,0.115065016,0.15031455,-0.01907895,0.07053797],[0.04030928,-0.11713856,0.009461089,0.18656576,0.02090974,-0.09384626,0.004593297,0.18990652,-0.0912712,0.06826712,-0.08256234,-0.042008303,-0.11457036,0.08842561,0.08454787,0.29973853,0.026482016,-0.0139859,-0.13136087,0.096457526],[-0.03975167,-0.07335936,0.15344404,-0.0610065,0.07652482,0.07392777,0.022555305,-0.20948908,0.15435244,0.10422017,-0.0040363856,0.0922637,-0.06248275,-0.12691928,-0.022988355,0.023626262,-0.11533674,0.17569168,0.02345389,-0.02057832],[-0.11010346,-0.053456657,0.12781796,-0.047708593,-0.16524984,-0.077556215,0.02777659,0.05812034,0.21265046,0.14302428,0.005739229,-0.21378638,0.1067522,-0.10868908,0.07123359,-0.056343455,0.009441876,0.20126903,0.0013892051,-0.07842505],[-0.07688585,0.2003689,0.030623917,0.1996022,0.03182004,0.13218825,0.13881151,0.09253298,0.19098115,0.12999164,-0.06566566,-0.25577652,-0.11150779,-0.013564916,-0.061499383,0.024585068,0.017147047,0.0867597,-0.09489041,-0.025874062],[0.014487335,0.024662867,-0.0011515575,-0.056442898,0.10489372,-0.07232383,0.14991759,-0.026893873,-0.05088208,-0.060974374,0.17261577,0.00792502,0.1870583,0.19692443,-0.094136104,-0.05429448,0.10175714,0.048510782,0.03789749,0.030349676],[-0.08022137,0.17919116,-0.24490058,-0.07962055,0.048852418,0.03297646,0.09394622,0.035455488,-0.015678728,0.09965638,0.17313194,0.1132977,-0.07073066,-0.1290629,-2.551498E-4,-0.033863213,0.07812058,0.14422484,0.014299711,-0.031270713],[0.07744342,-0.093935624,0.059853952,-0.012424394,-0.02413644,-0.067713685,-0.07479178,0.02734584,-0.06823699,0.026766688,-0.059184972,0.015883887,0.018058695,0.044416673,0.010893969,-0.08082183,-0.0064353137,0.05878931,0.119292915,0.010375183]]},{"biases":[-0.054888815,0.09102526,-0.23927373,-0.035710547,-0.054736253,-0.026208078,0.16630563,0.011687313,-0.034896784,-0.050596464],"values":[0.0,0.0,0.0,0.0,0.0,0.0,0.0,0.0,0.0,0.0],"inputWeights":[[-0.1078758,-0.21853536,0.09052676,-0.013448873,-0.03212607,-0.0542638,-0.105244234,0.033461113,0.057205833,0.056725148],[-0.028831976,-0.21379516,0.068762116,-0.02511051,-0.1381412,-0.014334545,-0.02884819,-0.14983131,-0.009273307,0.03332624],[-0.064271696,0.09285348,0.023679439,-0.09012925,0.05537548,-0.0098057175,0.14347146,0.0026926987,0.13256368,0.27949408],[-0.133545,0.019026728,-0.107474,0.0044874093,0.074794896,-0.24371096,-0.23352042,-0.055380043,0.0514806,0.06699699],[-0.18541771,0.07191383,0.074191526,0.062185016,0.04780311,0.065463535,0.10951135,-0.14047468,-0.0357427,-0.1162181],[-0.010220252,-0.16889562,-0.004117519,0.055377558,-0.05264275,0.043679018,0.01973016,-0.107499905,0.005814511,0.05500049],[-0.03362164,-0.036956016,0.0630105,0.025948841,0.0735143,0.06187198,-0.056049615,-0.029648926,0.07335116,-0.112844296],[0.010408761,-0.112647444,-0.057052523,0.06888618,0.14923288,0.1296322,-0.14190093,-0.0036328454,-0.05202705,0.06566382],[0.005400489,0.06914201,-0.064701445,0.044214148,-0.10707362,-0.009439074,-0.017845359,-0.040659823,0.09537482,-0.07436642],[-0.024371443,-0.031369895,-0.11569433,-0.13131924,-0.02140428,-0.038876876,-0.0628146,0.04229786,0.029638285,0.06956039]]},{"biases":[-0.059831034],"values":[0.0],"inputWeights":[[0.054387107,-0.258295,0.0723367,0.043955244,-0.1044408,-0.071833424,0.096544266,0.05656899,-0.0017411637,-0.09283936],[-0.060581863,0.01668134,-0.055770896,-0.06360018,0.0684982,-0.12294321,-0.057288658,0.037567154,0.076695845,0.10180142],[0.015807385,-0.10685926,0.19333307,0.024445584,-0.11832611,0.106586464,-0.008573455,-0.082843095,0.031842213,-0.06270666],[0.039433435,-0.052530352,0.0448077,-0.018027736,0.09632391,-0.06275004,-0.1124949,-0.17264019,0.124602795,-0.08600882],[0.060249157,0.09057266,0.078048855,0.0486143,0.11183013,-0.024732118,-0.21239303,0.057792418,-0.06384325,0.014667403],[0.016460259,-0.029342296,-0.034341987,-0.04848646,0.12945376,0.15816118,-0.2934939,-0.0054020444,-0.057472326,0.17490414],[-0.05982917,0.13609248,0.07388429,0.1409345,0.03611642,0.10771624,-0.069379434,-0.107320376,-0.0023205902,-0.18512939],[-0.046451632,0.07945053,-0.009992148,-0.013860858,-0.015148613,-0.12468399,-0.13561223,-0.113618955,-0.037303787,-0.10692965],[0.1896918,0.055906925,0.1548682,-0.14253612,0.060843144,-0.034115963,0.26242152,0.010954949,0.024842398,0.1589556],[-0.15745413,0.14916594,-0.060665578,0.025695102,0.012287563,0.044635013,-0.25014132,-0.04557873,-0.005611197,-0.05845316]]}]}},{"fitness":0,"neuralnetwork":{"inputLayer":{"biases":[0.0,0.0,0.0,0.0,0.0,0.0,0.0,0.0,0.0,0.0,0.0,0.0,0.0,0.0,0.0,0.0,0.0,0.0,0.0,0.0],"values":[0.0,0.0,0.0,0.0,0.0,0.0,0.0,0.0,0.0,0.0,0.0,0.0,0.0,0.0,0.0,0.0,0.0,0.0,0.0,0.0]},"layers":[{"biases":[0.002688108,0.007790296,-0.068563335,0.12802194,-0.019288387,0.091564775,-0.10162747,-0.08804137,-0.03697802,-0.06299139],"values":[0.0,0.0,0.0,0.0,0.0,0.0,0.0,0.0,0.0,0.0],"inputWeights":[[0.03892916,0.06915483,-0.0078078895,-0.08120501,-0.078066856,-0.046060853,0.073003806,0.23419455,-0.093493305,-0.054742184,-0.101648726,-0.109472014,0.10118736,0.0098624,-0.043749638,-0.032075733,-0.04599047,0.16008326,0.022935418,-0.027895367],[-0.028528199,0.13549775,0.06027387,0.065164894,0.077397086,0.1070166,-0.031563748,0.026396248,-0.095902435,-0.05456963,0.11273536,-0.0880414,0.09199312,-0.101924285,0.0022217853,-0.089372166,0.0044069765,0.07644496,-0.07237155,0.09300165],[-0.13668811,-0.15846834,0.10238979,0.036038347,0.1512375,-0.10936493,0.08776637,0.0036875966,0.010101841,0.03269208,-0.18805642,0.09350299,-0.028045315,-0.14635599,-0.017252406,-0.0357011,-0.0033942275,-0.085574605,-0.17331578,-0.06891655],[-0.0012506635,0.09492693,-0.096296884,0.05619319,-0.015305418,-0.06878077,-0.22361143,-0.076339886,0.17348416,-0.03116232,0.035733234,-0.25504425,-0.02991116,0.06742885,-0.12536527,0.052773166,-0.06797135,0.016108949,0.14367591,-0.028154947],[-0.05119982,-0.060842514,-0.04418627,-0.06627146,-0.07339541,-0.19771647,0.06150806,-0.055562094,-0.093119256,0.11110631,-0.036326,0.13388795,0.21037343,-0.07798144,0.021565847,0.17209801,-0.024326494,-0.1805687,0.05828779,-0.118015714],[0.04626518,0.07030607,-0.09293853,-0.02964281,-0.048180975,-0.2688992,-0.12727083,0.008331018,-0.06032087,-0.044585314,-0.036416266,-0.05542441,0.04566122,-0.02824927,-0.046272025,0.006807961,0.07389485,0.016223477,0.045888122,0.049718555],[-0.16144608,0.035264548,-0.17653193,0.005269641,-0.060830746,0.03366415,-0.051704034,-0.06279752,0.040828478,0.20922144,-0.1634289,0.02961911,-0.032571077,0.19718315,-0.0936541,0.02976745,0.08653773,0.03790133,0.049587265,-0.0028468135],[0.057750937,-0.0017103588,0.18457341,0.085774235,-0.0861869,0.03792725,-0.07267641,-0.03697838,-0.16137475,0.028128972,0.146823,0.20882416,-0.022715136,0.046013694,0.04735007,0.02012518,0.1381907,-0.09043538,-0.124557726,-0.021623405],[0.08344206,0.13764274,0.008350253,0.15154006,0.0461385,0.20587453,0.05810763,0.113446824,0.0013260626,0.057670336,0.0063317525,0.060295656,0.062351678,0.15085517,-0.07764767,-0.047998693,0.021389037,0.021075593,0.008667854,0.033181146],[0.042003192,0.020931173,-0.20078598,0.16639163,0.010872427,-0.0667652,0.076389804,-0.09659932,-0.12238507,-0.043977465,-0.09711569,-0.07927803,0.07051636,0.039798856,-0.16244715,0.06476926,-0.16844395,-0.13356373,-0.08057626,0.090482004],[0.09736408,0.038493652,0.04195458,-0.022055453,-0.07059395,-0.038102653,0.11095476,-0.04240982,-0.23725377,-0.27832726,0.067805946,-0.04901352,0.013292948,-0.08200339,0.043016687,-0.059872754,0.17072621,-0.005014215,-0.21083862,0.045958713],[0.050658394,0.04598235,-2.3763943E-4,0.22315328,0.01238375,0.054926984,0.0056999363,-0.049072415,0.018240105,-0.036051746,-0.13523157,0.29621035,-0.0031730067,0.13382801,-0.13761903,-0.090123646,0.10531493,0.08786869,-0.10595609,-0.032056313],[-0.22953714,-0.17330588,0.023986498,0.07310315,0.2865218,0.04847208,0.01943575,-0.090587325,-0.22251254,-0.01375123,0.052770805,-0.06581787,-0.08770661,0.2337605,0.10684051,-0.03821873,-0.11968418,0.016988548,-0.02455002,-0.10729124],[0.025454236,0.06457259,0.005738433,-0.13523464,-0.054291386,-0.15849964,0.04232521,-0.010235631,0.20759436,0.101589784,0.055080485,0.008993499,0.04568621,0.14271021,0.14809099,-0.21110313,0.08374039,-0.107724935,-0.040699918,0.12838984],[-0.06690176,-0.0978414,-0.08017139,-0.20561984,0.062198207,-0.06681425,-0.054166816,-0.08413106,-0.10120075,-0.038835637,-0.007147883,-0.0689128,-0.0875315,0.043453567,0.2761269,0.053171147,-0.05156913,-0.022345617,-0.0067931833,0.031656988],[7.864846E-4,-0.17555003,0.10593703,-0.10916994,-0.048009925,0.09977264,0.10206619,-0.04133093,0.06756544,0.01689971,0.07962323,0.057122782,0.10943962,0.11532261,-0.02041644,-0.28043422,-0.079568245,0.21756315,0.02419819,0.03542074],[0.045986142,0.06874585,0.0343989,0.07934497,-0.04203811,0.073335506,-0.05329109,0.081154965,-0.032503515,-0.024205238,0.0029234197,-0.057106134,0.09225932,-0.014592359,-0.12818637,-0.057319444,-0.09067659,-0.12083099,-0.210091,-0.058801737],[0.075090535,0.084240004,0.032253623,-0.09060485,0.049203776,-0.09860669,0.18216199,-0.09164517,0.02546781,-0.0035948788,-0.08837419,0.014106307,0.0729969,0.02033237,-0.014228731,-0.07493628,-0.19646008,-0.072539434,-0.12237021,0.0061139576],[0.010791289,-0.14836356,0.025863107,0.006532553,0.061837938,-0.0017444569,-0.16979615,0.0021540741,-0.02510162,-0.0077410913,0.0086789,-0.0051034084,0.07166975,0.01913957,0.1951174,-0.0045660445,-0.0394668,-0.11398512,0.09723522,-0.0418771],[0.14227799,-0.050804477,-0.043788884,-0.10662609,-0.05111191,0.11371981,-0.105776764,0.06218073,-0.072731726,0.07189378,-0.080317825,0.081831396,0.029785233,-0.28265086,-0.024475751,-0.043458503,0.06856322,-0.034461785,-0.087814316,-0.0072854483]]},{"biases":[0.066494934,0.05741778,0.16533457,0.04634097,-0.038661674,0.096821785,0.061504606,0.026215302,-0.16033511,-0.09376771],"values":[0.0,0.0,0.0,0.0,0.0,0.0,0.0,0.0,0.0,0.0],"inputWeights":[[0.083543345,0.17586152,0.13036543,0.019053135,-0.14198154,0.04877028,-0.055463023,-0.2591768,-0.07692132,0.015048071],[0.10268797,-0.027149798,0.033078715,0.17588231,0.10165987,-0.14194821,0.14043568,0.019168358,0.028883994,-0.03676846],[0.0033240686,0.0018393991,0.05780401,0.14655177,-0.021278124,-0.088473186,0.0033456676,-0.05473957,-0.07518849,-0.0066786367],[-0.011162358,-0.07032459,0.06574872,0.03924737,-0.10334007,0.07157048,-0.047711916,0.058388337,0.20187455,-0.075721525],[0.09576921,0.008003295,0.24075364,-0.076263204,-0.078123815,0.04198536,-0.18333146,-0.0941679,-0.020359335,0.12027881],[0.10061173,-0.01713197,0.05364738,0.15626352,-0.06687171,0.12555103,0.11301625,0.11754962,0.015524515,-0.039141722],[0.119421005,-0.019543702,0.0020408332,-0.0038680017,0.1610044,-0.13840841,-0.08511729,0.10225531,-0.20365785,0.05346982],[-0.051181056,-0.15357582,0.008207653,-0.14561029,0.005604133,0.03789588,-0.13279732,-0.0042637163,0.030617025,0.043324247],[-0.14903268,0.024111524,-0.057339843,-0.14047644,-0.07298843,0.06533968,0.03233333,-0.013564815,0.047946695,-0.062817976],[0.19324026,-0.07076464,-0.16436262,0.11324106,0.28018823,0.008774259,-0.26187536,-0.1393898,-0.09406219,0.025896195]]},{"biases":[0.03135816],"values":[0.0],"inputWeights":[[0.14297791,-0.15074961,0.017852865,-0.05674083,0.029357053,0.14680941,0.025847863,0.031769607,-0.08213629,-0.15864669],[0.18415399,0.12008826,-0.03624602,-0.021334875,0.1703564,-0.0012916008,-0.082262024,-0.007895779,-0.0016572383,0.21158344],[-0.014178006,0.072950676,-0.11047784,-0.17703633,-0.057855826,0.03383264,0.17037898,0.08906116,-0.051671136,0.13772912],[0.10795485,-0.10519609,-0.021654904,-0.10624634,0.1995638,0.12737705,-0.043863356,0.038777493,0.14661606,0.04784419],[-0.1903325,-0.008486905,0.10725996,-0.116199896,0.055803888,-0.12987128,0.07995636,-0.08417969,-0.02709394,-0.058708973],[0.20592873,0.027316054,-0.107853085,-0.052194778,-0.023289153,0.1773916,-0.07827878,0.101913005,-0.11367147,0.034540575],[0.17037119,-0.17676346,-0.005009665,0.087646484,0.081585094,-0.23182552,-0.0024746726,0.0040463367,0.21096449,-0.029611297],[-0.027532259,0.05609967,0.07153897,0.045115106,-0.036783434,-0.030003862,0.039692048,-0.04409312,0.26876578,0.12981336],[-0.05478217,-0.033243626,0.033335745,-0.001352312,-0.14865597,0.03331894,0.074296154,-0.10740546,-0.01576861,-0.19337568],[-0.027892306,-0.10751763,-0.039247938,-0.08234616,0.028294103,0.17280872,-0.11903671,0.05116816,-0.18398996,0.1810664]]}]}},{"fitness":0,"neuralnetwork":{"inputLayer":{"biases":[0.0,0.0,0.0,0.0,0.0,0.0,0.0,0.0,0.0,0.0,0.0,0.0,0.0,0.0,0.0,0.0,0.0,0.0,0.0,0.0],"values":[0.0,0.0,0.0,0.0,0.0,0.0,0.0,0.0,0.0,0.0,0.0,0.0,0.0,0.0,0.0,0.0,0.0,0.0,0.0,0.0]},"layers":[{"biases":[0.05050301,0.2276155,0.167678,-0.006421412,-0.06004635,0.064246394,0.014014097,0.03367563,0.03669062,0.06875805],"values":[0.0,0.0,0.0,0.0,0.0,0.0,0.0,0.0,0.0,0.0],"inputWeights":[[-0.02759142,-0.06350081,-0.14037532,-0.09962393,-0.10771306,-0.038136166,0.0069978684,0.058645252,-0.08600473,-0.034607273,-0.023187336,-0.05537252,-0.21272108,-0.028835174,-0.10559934,0.22657853,-0.036168713,0.083789736,0.052970845,0.017961077],[-0.08036958,-0.05917448,0.11170612,-0.08884715,0.08980992,0.02287113,-0.054709584,-0.043905623,-0.003312541,0.019438293,-0.05546898,0.02276406,-0.08491209,-0.044439342,-0.1757051,-0.0070322827,-0.12830012,0.19180784,-0.023798132,0.087760076],[0.12958893,0.009550505,-0.14897153,-0.06154178,0.20223467,-0.11049718,-0.024726758,-0.10078526,0.0431194,0.17193885,0.14438914,0.037530642,0.047155537,0.13048428,-0.105719805,0.32731578,-0.09261164,0.12396482,-0.09098798,-0.20094077],[-0.014963898,-0.016999893,-0.22696047,0.108417735,-0.027430154,-0.05401897,0.026988864,-0.16769315,-0.07190703,0.0054931543,0.08364911,0.087721474,0.17079435,0.11759358,0.0064049377,-0.06089246,-0.077780575,-0.12654924,0.093917675,0.080133125],[0.015099635,0.0037160348,-0.05587135,-0.05693762,0.14669617,0.006232724,0.025088038,-0.032961026,0.018876662,0.03984316,-0.020316394,0.07182694,0.025227977,0.028612006,-0.19616358,-0.13470674,-0.17293812,0.062371787,-0.04657275,-0.24686852],[0.030439284,0.09843208,-0.06763748,0.2114617,-0.06528085,-0.10134994,0.09079216,-0.083044685,-0.098920204,0.019322235,0.119375646,0.024855075,0.107029535,0.008863598,-0.048845135,0.042826556,0.013496549,-0.14726837,-0.030098382,0.0743245],[0.022573607,0.013283428,-0.018742751,0.03636974,-0.090153836,-0.22090906,0.109478995,-7.76198E-4,0.096884005,-0.22338587,0.058207046,-0.43893045,-0.11668772,-0.07837744,-0.04848309,0.028449945,-0.06771958,-0.032461625,0.1541732,0.050390687],[-0.06696159,0.041250214,0.016769558,0.2240732,0.0525041,0.060184322,0.14003444,-0.067893416,0.028793877,0.13042615,0.18571872,0.015252262,-0.13331169,0.0011415151,-0.15491852,0.16184677,0.01642139,0.16828266,0.045686692,-0.09750759],[-0.09560128,0.013260776,0.056109965,0.13344827,-0.061075754,0.09056972,0.08183239,-0.09401349,0.03772436,-0.17477489,0.030830968,-0.1658359,0.006129783,-0.103678145,-0.19043487,0.21316195,0.05761608,-0.11307167,0.0023402257,0.041399814],[-0.0966369,-0.08691399,0.020087406,-0.102604866,-0.07148502,0.13689384,0.014772849,-0.1457689,0.044164285,-0.075006485,-0.078695126,-0.16787063,0.044831365,-0.15741974,-0.2950133,-0.066017956,0.09706643,-0.011491248,0.08098263,0.15166314],[0.009628235,-0.043724965,-0.052850313,-0.107637025,0.037743766,0.06172361,-0.2429231,0.044421166,-0.08443262,-0.15119463,0.08331029,-0.16578802,-0.15370908,-0.16962384,-0.030745395,-0.11563852,0.06366175,-0.19358484,0.09440324,0.01883456],[0.06402289,-0.08432597,-0.03825739,-0.013612938,-0.015860386,-0.01733699,-0.034595817,-0.02656066,-0.06657579,0.19011942,0.009784808,0.15854916,-0.10788114,-0.06345531,0.01013226,0.014103285,0.00959459,0.082226895,0.04539299,-0.069716],[-0.022694891,0.22819209,-0.20425345,0.13409743,-0.08065533,-0.031328272,-0.021410171,-0.07951457,0.13040827,-0.04081955,0.0048534963,-0.05934937,0.028834166,-0.11148349,0.10843672,-0.010701734,-0.12475904,0.089860305,-0.02494796,-0.107724994],[-0.006644542,-0.04440189,0.07004949,-0.03882923,0.026139216,-0.2447458,0.14316462,0.028306454,-0.09541917,0.013119143,0.1199509,0.044439215,0.016542317,0.08014873,0.051902525,0.0132596735,0.0771715,-0.115407415,0.14805727,-0.13600455],[-0.10188999,0.19065143,0.1029671,0.08096889,0.060427148,0.042003818,0.032299932,-0.10171716,0.28473717,0.073636614,-0.043294467,0.023626743,-0.015600284,-0.119821325,0.1143675,-0.0060738144,-0.21825485,0.14082463,-0.1999705,0.0627466],[-0.082871646,0.068231195,-0.04514302,0.06745019,0.04924742,-0.10968018,-0.03593675,-0.15651852,-0.032002766,-0.07508043,0.16262293,0.08259183,-0.0053596194,-0.12617789,0.0025640822,0.116586536,-0.045747872,-0.0076945624,0.19584139,0.02194835],[-0.19911055,0.10481658,0.07826408,-0.029409155,0.0521056,0.064737335,-0.010231473,0.04599267,-0.11603012,0.012398928,-0.25719386,0.018242361,-0.05263211,-0.106844015,0.044279072,-0.135735,0.09496678,-0.06408928,-0.18547574,0.07826321],[0.13793133,-0.047656346,0.07274402,-0.019603895,0.008892066,0.033500817,0.085094616,-0.0272327,-0.08221408,-0.070178814,-0.00878477,-0.078950725,0.18824936,0.068705805,-0.22926743,-0.0050755497,0.08812459,-0.07197798,0.014647618,0.10966632],[0.21830326,0.07834302,-0.08698001,-0.09958417,0.10838279,-0.14072905,-0.12757209,-0.045903176,0.16226265,0.15458919,0.05164331,-0.10938639,0.019685583,-0.14514902,-0.044630885,-0.04181731,0.087311655,0.1057875,-0.009296875,0.02478526],[-0.13416709,0.058966294,0.044165734,-0.026649266,-0.060296137,0.08650077,0.125283,-0.20125204,-0.05478747,-0.12054814,-0.035029124,0.0321026,0.058750864,0.20971568,-0.052022222,0.053675212,0.15529244,0.12830706,0.15076438,-0.19855678]]},{"biases":[0.13973606,0.09185944,0.083022796,0.06988687,-0.13556315,-0.016285531,0.10597082,-0.13815884,0.023347536,-0.047890082],"values":[0.0,0.0,0.0,0.0,0.0,0.0,0.0,0.0,0.0,0.0],"inputWeights":[[0.0021480203,0.043149922,0.21526697,0.15629803,-0.055983245,-0.15606958,0.026371647,-0.07850929,-0.05022413,0.034581162],[0.06973059,0.02261023,0.10741216,0.031446595,-0.14368583,0.011085841,-0.2149385,-0.17322074,-0.06960454,0.061524797],[-0.07710453,-0.052169323,0.15563348,-5.984447E-4,-0.013471649,0.050791983,-0.15863508,0.10169864,-0.0012827874,0.14997447],[-0.04296468,0.019446773,-0.07164439,-0.01541227,-0.011631207,0.07739315,-0.08153917,-0.00406025,0.12510693,-0.09573095],[-0.04051334,0.07374598,0.13725866,-0.18789358,-0.07152883,-0.17792203,-0.12318564,-0.06342161,-0.07694448,-0.18187353],[-0.06664272,-0.21610375,0.18236811,-0.022169521,0.1605074,-0.08800326,-0.07798962,0.11985665,0.2578669,0.017619094],[-0.1145353,-0.06778722,0.16367093,0.16514105,0.014860248,0.13154665,0.159792,0.14925794,-0.073496595,-0.025183195],[0.083933696,-0.100126214,0.05896392,-0.087343425,0.16738883,0.09441117,-0.15245846,0.07693429,0.27256075,-0.06874397],[-0.021906814,-0.006749989,-0.053914763,0.16003303,6.776314E-4,0.17332838,0.03876595,-0.12090987,0.02281804,-0.18250084],[0.08711683,-0.047499172,-4.9802585E-4,0.0019695333,-0.11295629,0.1447828,-0.0034938392,-0.25054947,0.0951723,-0.021563549]]},{"biases":[-0.0011322115],"values":[0.0],"inputWeights":[[0.018559543,-0.15019739,-0.09008846,0.034537546,-0.020714052,-0.10473583,0.22835259,-0.13724355,-0.14173418,-0.061853815],[-0.016106825,-0.0472156,-0.06581828,-0.06299586,0.10083511,0.018265551,-0.1906538,0.060900975,0.01862482,-0.14231342],[0.006068473,-0.15605538,-0.030560844,0.17994003,0.072997205,0.0010435516,-0.033856276,0.045833286,0.043734528,0.0961835],[0.0074266135,-0.04399572,0.09622356,-0.0044912836,-0.030049913,0.052918002,0.0274916,0.053870734,0.0064452654,0.0956346],[0.2855341,-0.11454592,-0.0058255824,0.01737668,-0.08957103,0.1608143,-0.05525399,0.035564072,0.079061545,-0.012144328],[-0.010945411,-0.056996137,0.07545356,-0.07876799,-0.0554127,-0.1659196,0.07681069,-0.12267615,-0.06590192,0.17132807],[-0.124287255,-0.01826983,-8.3965424E-4,-0.20504276,-0.056488004,-0.049613815,0.008914954,0.038906768,-0.040516112,-0.06541974],[0.03232802,0.0070020705,0.07679612,0.08633509,-0.063948624,-0.013321458,-0.014876079,0.013591865,0.057898074,0.0727965],[-0.13256593,-0.22803357,0.10452258,0.12582645,-0.089289725,-0.07044695,-0.064208925,-0.09442525,0.09568028,-0.010475163],[-0.071509585,0.070824735,0.078383386,-0.17356978,-0.16418251,0.017063962,-0.063232794,0.06707034,-0.100493036,-0.09946011]]}]}},{"fitness":0,"neuralnetwork":{"inputLayer":{"biases":[0.0,0.0,0.0,0.0,0.0,0.0,0.0,0.0,0.0,0.0,0.0,0.0,0.0,0.0,0.0,0.0,0.0,0.0,0.0,0.0],"values":[0.0,0.0,0.0,0.0,0.0,0.0,0.0,0.0,0.0,0.0,0.0,0.0,0.0,0.0,0.0,0.0,0.0,0.0,0.0,0.0]},"layers":[{"biases":[0.12043133,0.053705048,0.05257757,-0.09598331,0.1153932,0.021243649,-0.057611976,0.014702288,0.18917304,-0.007070699],"values":[0.0,0.0,0.0,0.0,0.0,0.0,0.0,0.0,0.0,0.0],"inputWeights":[[0.022015242,0.078728676,-0.18445219,-0.06955168,0.23717386,0.061106037,0.025050083,0.15462635,-0.0639604,0.092321195,0.09992936,-0.17435478,-0.035261005,-0.029748125,0.10837628,-0.03547388,-0.03717036,-0.08274622,0.14054118,-0.031481996],[0.019557921,0.044928312,-0.004063639,0.053907376,-0.25204626,0.039452326,0.16219874,-0.030160444,0.053333748,0.061284214,-0.05254093,-0.051177472,0.02577878,0.08550277,-0.13922128,-0.1553368,0.06312166,0.13525946,-0.002228025,0.022780433],[0.11543451,-0.21011366,0.10112781,-0.1056557,0.006488722,-0.0050728377,-0.03984039,0.10946611,0.017232623,0.009297646,0.018485963,0.03963906,-0.15550296,-0.072462015,0.029869221,-0.09396999,0.056307446,0.035887543,0.12672289,-0.016782431],[0.022710254,0.09494863,-0.08951094,-0.0856548,0.02287684,-0.104087345,0.12053414,-0.16336918,-0.0038345112,0.0980525,0.03903814,0.12536082,-0.05425628,-0.15780343,-0.00994747,7.6940825E-4,0.080540545,-0.05031525,-0.16000108,0.064385675],[0.080847524,-0.05663587,0.017245186,0.18913835,0.18051952,0.05794056,-0.01573306,0.12969515,0.11919121,-0.05722507,-0.041882064,0.062642895,0.041414678,-0.029247852,-0.10459832,-0.0064452747,0.24823664,0.08503707,0.0053876056,0.026221309],[0.067037724,-0.06898747,-0.016354559,0.117935054,0.14197758,-0.10058062,0.09121765,0.14566113,0.015388013,0.19094014,0.11629368,0.08843327,0.021062851,-0.01943448,-0.14109993,0.083802804,0.04842593,-0.13868342,-0.103442214,-0.07066065],[0.079066165,0.050935607,0.08368501,-0.14919594,-0.011211214,0.1273576,0.089451686,-0.032265212,0.05181364,-0.09958405,-3.1785865E-4,-0.04834151,-0.012951498,-0.007712712,-0.050421882,0.026985945,-0.014691492,-0.14851706,0.31457454,-0.08586974],[-0.1628144,0.12820686,0.117535315,0.1972084,-0.11145954,-0.057646085,-0.014002963,0.06770197,-0.05603274,-0.07241138,-0.036381178,0.10553585,-0.046990372,0.0011917844,0.19087711,0.09221657,0.08352269,0.001292825,-0.061387736,0.15584175],[-0.02443793,0.08085573,-0.04797203,-0.01870413,-0.12292806,-0.12818941,-0.061264407,0.18963863,0.12747636,-0.0500025,0.004584978,-0.16536154,-0.18276167,-0.1272332,-0.01746501,-0.02524602,-0.09761896,0.024265366,-0.11181717,-0.0930287],[-0.14516994,0.04745351,-0.042932842,0.1892292,0.010435929,-0.15067838,-0.20842594,0.03948351,0.037303906,-0.022205187,0.0010373614,0.09081355,-0.07404754,0.12621753,-0.013351913,0.004188457,0.00550211,0.0586901,-0.20757705,-0.12318285],[-0.07508017,-0.07976681,0.100596644,-0.03307525,0.096108645,0.16361469,-0.041967694,-0.08772653,8.371728E-4,-0.13937458,0.13079193,-0.06293478,0.0701173,0.14450626,-0.033700757,-0.18400489,0.035942454,0.022141257,-0.07963521,0.04629931],[-0.098398164,-0.33210677,-0.26643294,0.056310035,0.20664525,-0.15721235,0.15909792,0.098379344,0.08953585,0.035081703,0.13183385,-0.023361446,0.0028029974,0.03431996,-0.12112507,0.13271828,-0.10091662,0.11973294,-0.114910215,0.012708263],[-0.056236755,-0.024297196,-0.11803097,-0.003557394,0.0046095722,0.042061128,-0.10106156,-0.22023326,0.08951634,0.28155085,-0.19983669,0.09818358,0.010115902,-0.08303251,0.04118395,0.0074949604,0.12561439,-0.050298173,0.14575374,0.045951955],[0.0762157,0.021766394,0.079687715,0.15071023,-0.05766328,0.23909684,0.17679861,-0.049177848,-0.091510825,-0.04634699,0.10845599,-0.06908024,-0.031374935,0.09357615,0.043826897,-0.09453142,-0.03488344,0.19408026,0.12231768,0.063843474],[-0.03794027,-0.10726154,0.008441077,0.11566199,0.099989146,-0.0073338435,-0.08029556,0.16842777,0.1483474,-0.02978458,-0.036807816,-0.030811014,-0.18158765,-0.009282558,0.054454233,0.21431458,0.039350435,0.08498098,0.020058261,-0.012461373],[-0.048408262,0.014743847,-0.014044332,-0.18313333,0.10168161,0.046672434,0.025911469,-0.05795018,0.10887877,0.076540835,0.027923003,0.02728164,0.013683921,-0.027586924,-0.18151753,0.20611697,-0.062762044,0.21819907,0.016600057,0.014899835],[-0.11023115,0.096709274,0.07384359,-0.18433101,0.11324518,0.058737595,0.026393661,0.0324591,0.15916617,0.19935152,0.022792444,-0.03781972,-0.19395971,-0.11456064,0.11583513,0.16610952,-0.0121054165,0.0061053587,0.030284569,-0.13026573],[-0.0596017,-0.071717836,0.025708666,0.099421844,0.056708563,0.01677461,0.05155335,-0.03728482,-0.07916567,-0.009849397,-0.03909851,0.049309008,0.03327747,-0.13878624,-0.0546526,0.07039292,-0.040695623,0.029820498,0.028919622,0.010753612],[0.018778889,-0.039497875,-0.082807526,-0.102460146,0.012309713,-0.06418771,-0.06808659,0.03861908,-0.13922484,0.0015413536,0.027913926,-0.16314286,-0.06972743,0.15809576,0.17895626,0.07448627,0.07882284,0.08035474,-0.050676763,-0.025424642],[0.042822596,0.19135998,-0.168999,-0.018135244,-0.017629866,-0.07305724,0.1395957,-0.09540843,0.17172652,-0.032496013,0.018115198,-0.031857513,-0.06241693,-0.038222015,-0.009503484,-0.110399246,0.027675176,0.12732403,-0.07698656,0.11821607]]},{"biases":[-0.03907866,-0.11285209,0.06641759,0.107065395,-0.055303663,-4.4584658E-4,-0.0359022,0.022808097,0.041954547,0.107532956],"values":[0.0,0.0,0.0,0.0,0.0,0.0,0.0,0.0,0.0,0.0],"inputWeights":[[-0.0106511405,0.040323656,0.043441113,0.057040557,0.024546195,-0.028963137,0.00857819,-0.06749793,-0.06258797,0.08605243],[-0.0026633488,-0.21346952,-0.058859587,-0.1007406,0.040882975,-0.045388285,-0.02881645,0.08992257,-0.0247643,-0.10773735],[0.09832047,0.040076043,-0.0417289,-0.06778029,0.0073995367,0.10051764,-0.0016856943,0.09759943,-0.10938588,-0.12629811],[0.2515123,-0.0723628,-0.13411297,-0.16613558,0.07750917,-0.022159243,0.01051202,0.003936251,0.06316899,0.09875175],[-0.14200403,-0.027401803,0.1489874,-0.010245588,-0.031594407,0.11050151,0.10443759,0.124288656,0.21380365,0.10886619],[0.008138268,0.26779586,0.03718481,0.07376325,0.08081754,0.096235804,0.09103371,0.012664022,-0.17631444,-0.058677632],[0.20119268,0.0139196515,-0.026381338,0.19759457,-1.1128831E-4,0.12822963,-0.077500746,-0.13013299,-0.005427257,-0.033285394],[0.008409014,0.043360893,-0.03397532,-0.07561337,0.0028250993,0.058637425,-0.06266019,-0.0072107296,-0.057423625,-0.08751119],[0.13027021,-0.094743915,-0.021132765,0.070060626,-0.033804394,-0.05043126,-0.016330853,0.055715516,-0.009404132,0.22344205],[0.09437356,0.01888469,-0.06358502,-0.08952571,-0.045364242,0.016688995,-0.0077952663,0.009560405,-0.06554183,-0.10934317]]},{"biases":[-0.13739589],"values":[0.0],"inputWeights":[[0.09153991,-0.095756434,0.013244587,0.03060258,-0.043918952,0.10737155,-0.14256473,0.11474424,0.10996247,-0.053683206],[-0.041662436,-0.0091712065,-0.023078568,-0.17320555,-0.09343918,-0.14459719,-0.028299473,0.019977529,0.06970334,-0.08788316],[0.01962185,-0.049128335,0.049034268,-0.2039862,0.2670779,0.059625138,0.16351736,-0.03156297,-0.035718147,0.0089023225],[0.043707382,0.028891757,0.020885082,0.22340567,-0.07487532,-0.10972639,0.051679805,-0.02355673,-0.014903271,0.2726224],[-0.07117539,-0.17980684,-0.070347086,-0.039961915,-0.005292432,0.004940439,-0.115633965,-0.008497943,-2.8209444E-4,-0.15645985],[-0.07494105,0.15406798,0.024141632,-0.2035763,-0.07836203,-0.03230062,0.006225373,-0.041368052,0.13701838,-0.11337615],[0.07904565,-0.049866885,0.0628929,-0.102673754,-0.07218892,0.047181174,0.049873978,0.031234566,0.007203078,0.07848698],[-0.09491013,0.13304913,-0.16854322,-0.06031781,-0.0834747,-0.12691918,-0.21902755,0.09339624,-0.025651498,-0.02992913],[-0.123663045,0.15419476,0.10281962,-0.044060584,-0.114767954,-0.20766945,0.016045699,0.08970742,0.01205026,-0.016353963],[0.025658395,0.0014412439,-0.14689821,0.048911043,0.11084929,0.21716619,-0.008030294,0.12284855,0.029460369,0.1825859]]}]}},{"fitness":0,"neuralnetwork":{"inputLayer":{"biases":[0.0,0.0,0.0,0.0,0.0,0.0,0.0,0.0,0.0,0.0,0.0,0.0,0.0,0.0,0.0,0.0,0.0,0.0,0.0,0.0],"values":[0.0,0.0,0.0,0.0,0.0,0.0,0.0,0.0,0.0,0.0,0.0,0.0,0.0,0.0,0.0,0.0,0.0,0.0,0.0,0.0]},"layers":[{"biases":[-0.0447979,-0.08148145,-0.03583639,0.08282972,0.05189033,9.677112E-4,-0.034307778,0.045606736,-0.13771267,-0.029777836],"values":[0.0,0.0,0.0,0.0,0.0,0.0,0.0,0.0,0.0,0.0],"inputWeights":[[0.078906864,-0.0039372155,0.15876882,-0.071197726,-0.025866356,-0.019770587,-0.014999376,-0.05109524,0.14524503,-0.019110221,0.019404449,0.07967344,0.040679473,-0.09280096,-0.093144946,0.12713163,0.10237363,-0.100578636,-0.046404835,-0.04044353],[-0.105793774,-0.047590327,-0.030639552,0.07556913,0.03492874,-0.09799877,-0.06910537,0.07714663,-0.08502994,-0.045217365,0.0886566,-0.05700747,0.034369208,0.06098676,0.07024763,0.052249722,-0.026884407,-0.06392058,-0.06825239,-0.10763609],[-0.08729966,-0.06777839,-0.0036663152,-0.053231865,-0.06815152,-0.08589603,0.108155176,-0.03803002,0.122748874,0.13782805,0.18231268,0.008069138,0.16057962,0.004986823,0.07034164,-0.08659312,-0.1934439,-0.088526644,-0.011759413,0.092628986],[-0.18597569,-0.10804831,0.025380896,-0.019498391,0.06403359,-0.064415745,0.14169021,0.050153017,0.12836793,-0.0064044977,0.023902772,-0.05870076,-0.16574447,0.0014484815,-0.04431101,-0.07179232,0.17753202,0.009713589,0.049595665,1.0681411E-4],[-0.21441868,-0.063530795,-0.05398618,0.15569742,0.065660514,-2.1429946E-4,-0.028554708,0.18621294,-0.13861483,-0.04352373,0.06402462,0.19721189,-0.04582355,-0.15131429,-0.0142909475,-0.0069979136,-0.035998553,0.15983965,-0.10531266,0.05300329],[0.001184197,-0.058779564,-0.16615316,-0.019491613,-0.039236266,0.09154719,0.05034418,-0.13822697,0.01736071,0.0069144163,-0.12600024,0.11280003,-0.057296947,-0.051385857,-0.074850924,0.14331134,-0.035960667,0.043071732,0.1369183,0.03759631],[-0.121540196,0.04122466,-0.1383307,0.15769562,-0.119275875,0.08601,-0.19837847,0.03817246,0.08223853,0.110523455,-0.049503192,-0.102951504,-0.014926433,0.015091611,-0.07364666,-0.12772368,0.15631747,0.063002214,-0.07947324,-0.058330107],[-0.012338566,0.1294773,-0.030594751,0.0044767126,-0.041460413,-0.00506938,0.0025451377,0.15837485,-0.086040296,-0.028201431,-0.18564706,0.04576262,0.16144936,0.045719564,-0.039564863,0.013193818,-0.06993497,0.047954973,0.0075757885,-0.23773248],[0.0059096115,-0.057257187,0.07888464,0.037529163,0.021470388,0.12111622,0.050194424,-0.043146163,0.105080314,-0.13812937,-0.082823716,-0.097467035,0.005296219,-0.113496475,0.05494397,-0.11419562,0.06804462,0.009662617,0.015902814,-0.06913418],[0.04963403,0.08737923,-0.032809515,-0.025601242,-0.0830567,-0.13788527,0.02276229,0.027797107,-0.10857026,-0.045714,0.27116415,0.06405798,-0.04937004,-0.011143923,0.20046759,-0.117389,-0.1112949,0.08005608,0.004754359,0.10063838],[-0.060447156,-0.06874162,0.041383304,0.018966537,-0.14662467,-0.25014973,0.14557569,-0.28886002,0.14144178,0.15591039,0.16021608,0.037033252,-0.13231488,-0.01653225,-0.03273203,0.05181828,0.05783753,-0.0039997357,0.053299285,0.117062405],[0.0042735096,0.028611902,-0.23397866,0.1281801,0.14425048,0.0049956697,0.07063,0.088978894,-0.048118077,-0.015125945,0.068333894,-0.08014078,0.10242347,-0.052674226,-0.024004618,-0.08949363,-0.11165507,-0.07720841,-0.029708426,0.15579723],[-0.068193816,0.07237523,-0.054984216,0.22593698,0.12196569,0.17563656,0.021658842,0.12688866,0.026907858,-5.090545E-4,0.03755647,0.0719476,-0.09862743,0.11732814,-0.14434144,-0.07276276,-0.1348393,0.12432514,-0.12495026,0.031269748],[-0.04010125,-0.06140796,0.04669014,0.25131387,-0.0931543,0.012621351,0.012137492,-0.14127973,0.041093804,-0.0069806594,0.022970418,0.04262361,-0.031151505,-0.24370049,-0.05799466,-0.11879833,0.17817995,0.22355437,0.06565579,-0.06983888],[0.1826185,-0.04842728,-0.15042397,0.008442946,0.019736484,-0.01711404,-0.09891545,0.09263206,-0.04256369,-0.07616165,0.020873535,-0.14456756,-0.014357143,0.028826738,0.014414177,-0.032825384,-0.18761404,0.107693814,-0.07874644,0.02996025],[-0.16349192,-0.019920455,-0.039489534,0.1051717,-0.16472442,-0.17624348,0.0018688188,-0.25252688,-0.051417213,0.0015108357,0.12571813,-0.07344678,-0.01111086,0.03256308,-0.1733034,-0.13887843,0.031118661,0.0830374,-0.045866843,-0.027877104],[-0.004470839,-0.15819454,-0.06792737,-0.03476219,0.10419011,-0.20974058,0.025284778,-0.051582128,-0.10021793,-0.02063522,-0.027644679,0.04910753,-0.04332063,-0.19143364,0.01733141,-0.054808106,0.16499087,-0.097939655,0.07969455,-0.046284277],[0.07492487,-0.13783343,0.09898822,-0.016954593,0.08736372,0.06259202,-0.045303226,-0.21338996,-0.22631487,-0.09794917,-0.0104772225,-0.11216342,0.0859324,0.1721261,0.1568579,-0.07842537,-0.018097855,0.06813706,0.021693256,0.0024388789],[0.13949455,0.0908809,-0.107190676,0.15209065,-0.059866425,0.08848588,0.01989778,-0.021109274,0.112389915,-0.004955286,0.0127258785,0.039504327,0.021826737,0.13836247,-0.2134347,0.032019056,-0.007639829,-0.045763087,-0.01699863,0.13870332],[-0.17561065,-0.05642424,0.0935891,-0.10920249,-0.016667644,-0.09297475,-0.06246719,-0.08419556,-0.16571492,-0.18155767,0.0047675064,-0.16122293,-0.0863348,0.11366397,-0.057400893,0.018502906,-0.09274319,0.13468063,0.1367197,-0.11417062]]},{"biases":[-0.07781113,0.02395347,0.04443936,-0.15265428,0.078711785,-0.25448063,-0.119790986,0.031108472,-0.041991636,0.018601244],"values":[0.0,0.0,0.0,0.0,0.0,0.0,0.0,0.0,0.0,0.0],"inputWeights":[[0.12919681,0.07285278,0.07957892,0.12856524,0.012164652,0.0393329,0.067347035,-0.10155268,-0.055505395,0.03065388],[-0.028099118,-0.038242016,-0.02070225,-0.25827557,-0.16738774,0.0057459073,-0.032429095,-0.13031335,0.075560234,0.12402663],[-0.100021325,0.018832454,0.011959515,0.061762463,-0.08354796,-0.11571122,-0.048918985,0.116250195,0.047227312,-0.084745474],[0.053470984,-0.04566713,0.109321825,0.04299206,-0.15491281,-0.15843475,0.08858912,-0.08575793,-0.085348174,-0.11356147],[-0.025214422,0.1073579,0.03503242,0.026480576,-0.09765555,-0.060306165,-0.08002839,0.01613753,0.028419213,0.1027214],[0.057078835,0.028779097,0.02745637,0.031662855,-0.090329915,-0.014898903,-0.02238189,-0.0672443,0.09450923,0.06930249],[-0.10651671,0.07235082,0.02039719,-0.10018059,0.03780766,0.07753408,0.018905345,-0.0031945158,0.03204964,0.029316299],[-0.023215408,-0.10200132,0.09817157,-0.083391614,0.08728015,0.12511866,0.32386485,0.0045124036,-0.02231004,0.07347178],[0.121573314,0.26509342,-0.016537433,0.02671185,0.033141,-0.16036902,-0.09082958,0.011952946,-0.04918257,0.14117251],[0.075134,-0.05102715,0.13859314,0.06708447,-0.03428326,0.008019129,-0.10367521,-0.13502748,0.09347409,0.1564335]]},{"biases":[0.053140048],"values":[0.0],"inputWeights":[[0.15990482,0.070891194,0.09113669,-0.048627965,-0.008187392,-0.075756505,-0.09229949,-0.08265992,-0.16776924,-0.016889554],[0.04581046,-0.09931589,0.08611434,0.033205785,-0.002836628,0.13804458,0.07810726,0.05694004,0.019030908,0.10255625],[-0.08212098,-0.010396541,-0.12856542,-0.11535563,-0.19105561,-0.029521197,-0.2062738,-0.16469455,-0.0038296327,-0.024568252],[-0.013385092,0.10158862,-0.023883726,-0.033653446,0.23265266,-0.036743633,-0.20459197,-0.05754639,0.020553768,-0.120250486],[0.11141226,0.0024535696,-0.13249716,-0.07241861,-0.025763959,-0.10022629,0.094378546,-0.094673306,0.16855106,-0.008557878],[0.2066149,-0.079463415,0.024997113,-0.034905538,0.09589707,-0.15604082,0.017097836,-0.30376765,-0.024092488,-0.10080317],[0.048590187,-0.026526041,0.19775856,0.10904241,-0.04210966,-0.002110231,0.044028435,-0.14485475,0.009972821,-0.081634216],[0.17750816,-0.1471197,-0.020695372,0.10339366,-0.052033532,0.03115901,-0.060071867,-0.037357565,0.0016303073,-0.008212795],[0.13359985,-0.0013128518,0.07103281,0.09708732,-0.13606563,-0.033744775,-0.080351375,-0.01093046,-0.18734209,0.036917113],[0.14195383,-0.0042718905,0.16825251,0.035119463,0.023215542,0.06369049,0.17631073,0.05099261,-0.07539598,-0.089981385]]}]}},{"fitness":0,"neuralnetwork":{"inputLayer":{"biases":[0.0,0.0,0.0,0.0,0.0,0.0,0.0,0.0,0.0,0.0,0.0,0.0,0.0,0.0,0.0,0.0,0.0,0.0,0.0,0.0],"values":[0.0,0.0,0.0,0.0,0.0,0.0,0.0,0.0,0.0,0.0,0.0,0.0,0.0,0.0,0.0,0.0,0.0,0.0,0.0,0.0]},"layers":[{"biases":[0.046013933,0.14939874,0.12131342,0.06296797,-0.043236036,0.0068256697,-0.041429415,-0.08782746,0.07014346,0.0016510182],"values":[0.0,0.0,0.0,0.0,0.0,0.0,0.0,0.0,0.0,0.0],"inputWeights":[[-0.059934843,0.026165841,-0.09107041,0.011695835,0.019982211,-0.009143649,-0.025025018,-0.05872844,0.031564888,0.23171856,0.06569632,0.01533127,0.17691599,-0.02546875,-0.10038503,-0.096699424,-0.0016625104,0.11587883,0.035944156,0.033467904],[-0.12086462,0.056888644,-0.06468897,-0.030871995,-0.06577146,0.19304986,-0.002095274,-0.08329017,0.012033368,-0.09986355,0.1174242,-0.0535372,0.1890681,-0.04528102,0.034295816,-0.0072724763,-0.028057193,0.035017498,-0.02955648,0.28203678],[0.01991014,0.12344558,0.04085736,-0.04084973,0.07703337,-0.13251023,-0.15734479,0.11938463,0.024010785,0.049247395,-0.13391536,-0.21806712,0.06945276,0.02954985,-0.03776761,0.19051778,0.20665099,0.062129963,0.19179298,-0.08992147],[-0.03583807,0.0069893007,-0.13469408,0.013470219,-0.044661894,-0.15277635,-0.09288758,0.005544526,-0.1268522,0.196282,-0.048781723,0.21960776,0.07653767,-0.2779988,-0.053926565,-0.044019546,-0.014626319,-0.118417725,-0.14649877,0.15667321],[-0.100426935,0.12497382,0.24418214,0.07003779,0.018631091,0.03433461,-0.07293113,-0.06952111,0.044076305,-0.062323473,0.06906166,0.13032162,0.21810083,-0.054289978,-0.034920275,0.041871782,-0.0472371,-0.06724358,0.024512352,-0.10561646],[-0.015243264,0.1550454,-0.11061629,-0.11907616,0.10459602,0.1251818,-0.2386752,0.12636317,-0.08519043,0.11568093,-0.2579132,0.33841208,-0.016034974,-0.020326564,-0.15008195,0.11004484,-0.083731845,-0.2007309,-0.14563693,0.05434767],[0.004678368,-0.01757444,0.14007014,-0.0847629,0.09983438,0.12717775,0.15367836,0.13549109,-0.157909,0.028516559,0.028696729,0.154442,0.0793335,0.06109465,-0.21457134,-0.02164536,-0.00904057,-0.11341098,0.010393668,-0.23570752],[0.0644272,-0.060048003,0.03512545,-0.11376811,-0.09487349,0.064117715,0.031461716,0.06822611,-0.0756314,0.16581737,-0.16514125,0.10429491,-0.07335084,0.06485314,-0.0046696723,0.10403368,0.00871662,0.11132336,0.10101035,-0.001599299],[0.019275017,0.103898376,-0.044807233,0.07981467,-0.06362231,-0.032687716,0.04478051,0.11826401,0.012610013,-0.11027076,-0.03311893,0.010722103,0.09908808,0.06733249,0.3555893,0.026345083,-0.09750088,-0.17065479,0.01358031,-0.11219553],[-0.056029223,0.018963363,-0.011161698,-0.056555033,0.027169159,-0.053538796,-0.05881801,0.07162853,-0.076381415,-0.029215604,-0.20130253,-0.107945085,-0.060969077,-0.08398384,-0.038744234,0.10718677,0.03983775,0.021463307,0.09967618,-0.004521374],[0.03647129,0.2673878,-0.053635024,-0.09722365,-0.118656226,0.02087023,-0.028705785,0.07905906,0.039930295,-0.12890218,0.10586247,-0.024837727,-0.07132426,0.021646002,0.060740355,0.014857378,-0.040523853,0.050777823,0.026112856,-0.09991346],[-0.13770658,-0.20645647,0.14606827,-0.17326157,0.17789002,-0.06275798,-0.13053676,0.039415017,-0.027111707,-0.054742523,-0.03923688,0.07537783,0.10975506,-0.09940207,0.060603574,0.054832242,-0.21428408,0.079233654,-0.14919668,-0.027031379],[0.13628715,-0.029428389,-0.0036309434,-0.029101675,0.1416404,-0.25360763,0.013138081,-0.14321318,0.070905216,-0.08697627,0.0048550237,0.0121722715,-0.0507043,0.03794447,-0.23219696,-0.027451782,0.06695359,-0.07524162,0.012042269,0.08459433],[-0.061489597,-0.08955139,-0.18003687,0.03031784,-0.06690906,0.039317578,0.033671957,-0.018763443,-0.028003627,-0.13921708,-0.12906659,0.0019825555,0.044863157,-0.06635301,-0.09704437,0.032422666,-0.1265478,-0.058066946,-0.029707722,-0.11362309],[-0.030738285,-0.065730825,8.096153E-4,-0.0052735414,0.09780948,-0.040137902,-0.03688869,0.10323426,-0.03189977,-0.1259325,0.09102896,-0.075648345,0.09956552,0.1218184,0.102360666,0.21203841,-0.045587026,-0.0015650988,0.083211124,-0.06792184],[-0.015956666,-0.04361857,0.3121905,-0.043692894,-0.03893215,-0.043489628,0.07346968,0.014328925,-0.07738058,-0.02671965,-0.01450509,0.14736973,0.03582142,-0.086622216,-0.11942094,0.006921765,-0.021827659,0.09267047,0.13829207,-0.2190823],[0.19525002,0.0042554103,0.1154382,0.06658394,0.03402981,-0.15754604,-0.12925531,0.02889262,-0.12049631,0.3118197,-0.11201844,0.17669725,-0.039800934,-0.04956494,0.019544307,0.104757115,-0.14410593,-0.016091976,0.029724961,0.04536215],[0.11918641,-0.06906709,-0.08157429,-0.16197161,0.039511845,0.28000447,-0.087894715,0.044557545,0.12867986,-0.062422473,0.16644427,-0.13373186,-0.09207386,0.108909085,0.04707434,-0.15072681,0.17752199,0.067734264,0.07514822,0.09127323],[-0.03335451,0.021147415,-0.014213687,-0.0014642923,-0.054931797,0.03258799,0.061235014,-0.029576998,-0.019014498,-0.04067089,0.01624615,-0.061099123,0.07586023,0.06389486,-0.08358605,-0.033019736,-0.10775671,0.035356715,0.05457592,-0.031633746],[0.07005567,0.031946875,0.13951829,-0.02196293,-0.13286175,0.20783897,-0.0769603,0.019833438,-0.06135031,0.08727038,-0.17175996,0.19394563,0.035649497,0.24584836,0.038045704,0.11350769,-0.08451826,-0.31507033,-0.08044341,-0.15754025]]},{"biases":[0.07410623,0.20297186,-0.2249864,-0.025083326,-0.17121693,-0.05362973,-0.06915846,0.14658123,0.35285145,0.025389493],"values":[0.0,0.0,0.0,0.0,0.0,0.0,0.0,0.0,0.0,0.0],"inputWeights":[[0.024942463,-0.025073146,-0.067097396,0.09528793,-0.08485031,-0.16323012,0.12637654,0.13054633,-0.04537104,0.0025554285],[-0.06707521,-0.014453063,0.02342852,0.051551446,0.17953663,0.14415663,-0.04096958,-0.025909435,0.14901881,0.22494192],[0.104285106,0.21016173,0.12112812,-0.06342271,0.16915669,-0.08889044,0.015937489,0.022104729,-0.11598892,0.0023048255],[-0.10842398,0.04085089,0.04898365,-0.16099703,0.024806945,-0.1255965,0.06375731,0.009465202,-0.10430686,-0.0056569013],[-0.035754386,-0.17341197,-0.008350771,0.090046935,0.0503405,0.10278597,-0.04223736,0.11873039,-0.0776065,0.053432807],[0.107001856,-0.06430591,0.038112547,0.06679019,-0.09228256,-0.20032631,0.082175136,0.19201192,0.0764357,0.15839835],[-0.050824605,0.061922606,-0.11803148,0.072373375,0.12594546,0.016684804,-0.038625155,-0.044944543,-0.24187197,0.16802959],[0.07716421,0.05896681,0.073845,-0.3568754,-0.01925497,0.08918333,-0.028182553,0.08012225,0.16444983,-0.1491427],[-0.089910455,0.057921354,0.24464421,-0.031788647,0.092674114,0.23772255,0.031177353,0.08729184,0.11220349,0.14338838],[0.028024212,-0.07793858,0.0525922,0.121081196,-0.10773988,0.039091676,-0.012381896,0.00820344,0.0482176,0.07192732]]},{"biases":[-0.0045980094],"values":[0.0],"inputWeights":[[0.14531538,-0.23454262,0.10713587,0.030717649,0.029673766,-0.063090965,-0.030055456,0.040128026,-0.14492218,0.010785025],[-0.22617094,0.027014168,-0.007104488,0.0213303,0.20331426,0.05561548,0.2044548,0.09016237,0.018138178,0.033050004],[-0.04824288,-0.015051786,-0.00970308,-0.07523646,0.21265888,-0.0051664375,0.14790429,0.13413194,-0.08148325,0.09074486],[0.008078248,0.04406741,0.057004344,0.03623817,-0.08853773,-0.109352425,0.05564969,0.09352018,0.02637725,0.023735616],[0.12584521,0.09142428,-0.060135923,0.050173067,-0.08255511,0.045284033,0.05316312,-0.09584469,0.022091592,0.044634566],[-0.0994159,0.03322062,0.05048426,-0.005662741,-0.031215576,0.19640173,-0.11578952,-0.21223892,-0.097898744,0.09871409],[0.0032885307,-0.10156904,-0.04069437,-0.029228788,0.1506589,0.02053664,0.021082995,0.034037907,0.053329445,0.09018119],[-0.068826936,0.19189021,-0.10988807,0.18346731,-0.0033346775,-0.07417382,0.13231847,-0.15332118,0.06232983,-0.02132697],[0.11099642,0.12707993,0.104237236,-0.108771585,-0.108081944,-0.07532541,-0.0050139776,0.054339983,0.014022464,-0.09226475],[0.22926651,-0.037256535,0.06325522,-0.12255233,-0.15828145,0.041515224,-0.26854935,-0.18978724,-0.07220941,-0.07007802]]}]}},{"fitness":0,"neuralnetwork":{"inputLayer":{"biases":[0.0,0.0,0.0,0.0,0.0,0.0,0.0,0.0,0.0,0.0,0.0,0.0,0.0,0.0,0.0,0.0,0.0,0.0,0.0,0.0],"values":[0.0,0.0,0.0,0.0,0.0,0.0,0.0,0.0,0.0,0.0,0.0,0.0,0.0,0.0,0.0,0.0,0.0,0.0,0.0,0.0]},"layers":[{"biases":[0.08661663,0.10511914,-0.018827653,-0.010074002,0.2862735,0.13593283,-0.07596062,0.17821693,0.0803054,0.09857582],"values":[0.0,0.0,0.0,0.0,0.0,0.0,0.0,0.0,0.0,0.0],"inputWeights":[[-0.029040702,0.04418159,0.07844267,0.060986336,0.12237068,0.17578238,0.043618675,0.13284154,-0.08099934,0.016198816,-0.10905085,-0.1228226,0.014724389,-0.0026099435,-0.036089372,0.027449202,-0.18581696,-0.09801862,0.018123616,-0.22167227],[-0.03702386,0.116127625,0.12702489,0.0041926047,0.19097944,-0.13144378,0.019725109,0.095818415,0.08940481,0.045943476,0.021757035,0.12669115,0.063503854,0.0044741216,0.0018765897,-0.055981357,0.035169534,-0.002919857,-0.2372121,-0.16594008],[0.03054257,-0.07839188,0.025122335,0.07552127,0.0040148413,0.01460401,-0.14184313,0.13105616,-0.002076351,-0.070957154,-0.0104319565,-0.045624487,0.09124751,-0.041692015,-0.11689102,0.008107877,0.03306941,-0.024397612,-0.005322059,-0.084521465],[0.16727799,-0.06459604,0.025290105,0.157495,0.052918646,-0.006996956,0.06874485,0.04780862,0.034377955,0.06294588,0.045967855,-0.04854616,-0.08630524,-0.19980681,0.06156831,-0.017505882,0.15188377,0.030241366,0.05661622,-0.120403804],[-0.18337063,0.10664451,-0.073304504,0.2030604,-0.05475441,0.014848755,0.20603469,0.07523822,-0.07631581,0.024933165,0.14967585,-0.09658168,-0.028921444,0.20627885,0.04548746,0.05599553,0.027568487,-0.1553652,-0.0035613016,0.0479168],[-0.07995315,0.1286921,0.027967116,0.15133934,-0.11552133,0.17708108,-0.007376825,0.017006183,-0.15100005,-0.018886589,0.16562985,-0.04891234,0.07429944,0.028802311,0.11027614,0.03443603,0.023432428,-0.16112371,0.05731054,0.06673549],[-0.14287752,0.011251265,0.18180703,0.033193663,-0.06345843,0.1982602,0.06234008,0.033939164,0.10565432,0.08057504,0.04760478,0.14624158,0.01809491,0.04063101,-0.051217645,-0.016877675,0.15253006,-0.11108847,-0.0086719915,-0.065754704],[-0.20323414,-0.099160776,0.11256678,0.12585595,0.06323439,-0.06689993,0.20361167,0.010775832,-0.14217658,-0.09775627,0.101411514,-0.042668268,-0.049572367,0.09005704,0.04514052,-0.069572054,0.07606636,-0.25695896,-0.035627168,-0.1635799],[0.023947328,-1.6539489E-4,0.03940958,-0.10128654,-0.18557706,-0.20558047,0.060989734,0.004961478,-0.09169745,0.14501858,-0.03498464,-0.18174498,0.040424418,-0.24405648,0.031346723,-0.121507876,0.04324143,0.092867,-0.029142922,0.0461619],[0.003071701,0.16622978,0.042887636,0.099712364,0.15750164,0.01885602,-0.06403583,-0.06626521,-0.22375274,-0.0119178975,0.16510451,0.21790272,0.14343424,-0.065756425,0.038965736,-7.0439285E-4,0.1360711,-0.12408487,0.010260341,0.17435841],[0.06888083,-0.009484017,-0.08598105,-0.052709084,0.15334791,0.03138184,-0.02199057,0.035345007,0.04173908,0.11676969,-0.026256729,-0.015039513,-0.13380742,-0.06219724,-0.07824588,0.034760877,-0.10145465,0.20309247,-0.2699404,-0.08293599],[-0.059182107,0.043142304,0.24359524,0.017728468,-0.0026734595,0.052148685,0.17618494,-0.1775046,-0.16410568,0.21111637,-0.068056606,-0.07896564,-0.018777246,-0.08929762,0.060441956,0.11757083,-0.07020887,-0.08092251,0.11228047,0.069807015],[0.116441056,0.061419144,-0.022812638,-0.07321441,0.18698901,0.07782445,0.021810617,-0.048964452,-0.34451953,0.015568352,0.15593901,-0.033371903,-0.035704046,0.08331395,-0.097193725,0.12130333,0.08912396,-0.18653683,-0.14863294,0.2348132],[0.0415549,0.07351782,0.044853527,0.16223572,0.09013271,0.30631068,-0.027574446,0.03697259,0.062616035,-0.12480393,0.20991781,0.06445829,0.05122955,-0.068870574,-0.030114433,7.0557155E-4,-0.042750474,0.074641064,-0.06416655,-0.07401019],[0.05825354,-0.20033489,-0.029255103,0.1904542,0.024214536,0.026693555,0.067408144,0.09163034,0.058494747,-0.08544561,-0.20453875,-0.012934204,0.16204593,-0.030114517,-0.096988454,-0.06974694,0.07495732,-0.09243703,0.09092429,-0.05012871],[0.09021764,-0.1617918,0.12646487,-0.03650111,0.01611014,-0.13474944,0.12890948,-0.11480624,0.20196687,-0.057315852,-0.14159492,0.07429424,0.11261318,-0.010402077,0.15854695,-0.16682155,0.013615681,0.016122201,0.048191104,-0.045288585],[-0.106263824,0.05420308,0.043812323,-0.2051168,0.15010229,-0.086645335,0.10960354,0.102595,-0.005016471,-0.06608332,-0.073055126,0.082109414,-0.09768302,-0.059470914,0.050094794,0.15940689,0.33243296,0.08919141,0.11881892,-0.15822436],[-0.013661192,0.07843935,-0.048090685,-0.015129507,-0.13283718,-0.26995116,0.011203416,0.12106413,0.03802065,0.1278485,-0.051873855,0.21526715,-0.1176813,-0.10434737,-0.16668627,-0.18896952,0.28640947,-0.1481599,-0.0025391509,0.0059892302],[-0.11758207,-0.07996761,0.22829516,0.1430408,0.14005238,0.043468535,0.07645618,0.010925287,-0.051817503,-0.12699424,-0.09496561,-0.053141784,-0.07061481,-0.051318556,0.10580149,-0.11265868,-0.089210115,0.08463348,0.18291959,-0.043977],[0.010023438,-0.043143116,0.07852538,-0.17117798,0.18361036,-0.038579825,0.026152534,-0.025650468,0.0284254,-0.19410717,0.059507005,0.0054782685,-0.1797334,0.044045653,-0.12904832,-0.0011236946,0.01557999,-0.034114566,0.009835973,0.086834796]]},{"biases":[0.042936683,0.1435598,-0.08815503,0.008891241,0.025286447,-0.04984986,0.030607717,-0.11946409,0.002696007,-0.060088694],"values":[0.0,0.0,0.0,0.0,0.0,0.0,0.0,0.0,0.0,0.0],"inputWeights":[[-0.15402007,-0.02644984,-0.045991693,-0.09315545,0.13630228,-0.03341782,-0.04060651,0.029541526,0.063054204,0.12847953],[0.0441939,0.12841232,0.060827006,0.0709509,0.012297551,0.03777424,-0.053208508,0.040475864,0.16392468,0.05434308],[-0.086660564,0.16973932,0.020745764,-0.047085594,0.038543683,-0.005228048,-0.061045405,-0.01067415,-0.05199882,0.10023831],[-0.05501529,0.0032006914,-0.1965411,0.035930406,0.261627,-0.1525841,0.025251249,-0.047435865,0.19025148,0.10934525],[0.07667188,-0.017861046,-0.07116061,0.047335662,-0.028704094,0.07752586,-0.12568146,-0.083392814,-0.019306496,0.016032346],[0.029884849,0.1673531,-0.045497194,-0.19674776,0.052980483,0.11132947,-0.13498275,-0.019772531,0.035418913,0.018167803],[-0.04683595,-0.025544092,0.0913961,0.043104373,0.026615953,-0.004000801,0.022129176,-0.12799841,0.14020096,0.009621158],[-0.13068308,-0.1464258,0.009658295,-0.1959357,-0.019485718,-0.02942841,0.09173479,0.13003045,0.047059745,-0.05345563],[-0.07312027,-0.023601497,-0.14495537,-0.10541473,-0.03026391,-0.12968919,-0.1881822,-0.05022332,0.013621132,-0.06918329],[-0.012228253,0.19077685,0.056728188,0.034424946,0.08814218,-0.10216115,0.031547923,-0.093900636,-0.12884879,0.13394341]]},{"biases":[-0.06926765],"values":[0.0],"inputWeights":[[0.0586129,-0.094723694,0.07530657,0.095439434,-0.0106116645,0.100710474,-0.18818443,-0.022709994,-0.03927864,0.09472217],[-0.024294402,-0.06422274,0.042211533,0.20327742,0.15669651,-0.13740607,-0.1005505,-0.030840859,-0.21013178,0.055274937],[0.14375873,-0.19083,0.13753481,-0.1506191,0.08338388,-0.12243509,0.0041357796,-0.044558663,-0.08514644,0.033854187],[-0.12878922,-0.07965949,-0.20820384,0.03882368,-0.061066773,-0.066672,0.051493626,0.085873544,0.07820958,-0.12932166],[-0.047273684,0.0385083,-0.058730237,0.1395153,-0.068169914,-0.062009506,-0.1150622,0.07194847,0.16410658,0.08741627],[0.12375463,0.07307471,0.06501913,-0.031208223,-0.055624053,-0.038688187,0.015801694,-0.13326229,-0.12175661,-0.052558653],[0.07358267,0.01421795,-0.1177187,0.22315659,0.0949421,-0.0048446287,0.09094716,-0.10025537,-0.028535534,-0.14005174],[0.06002735,0.12383529,0.07381857,-0.034927156,-0.116029635,0.051352922,0.08363894,-0.0059245178,0.07132076,-0.11135852],[0.067629255,0.01350347,-0.043818753,0.034131195,-0.061543003,-0.08584943,-0.14163935,-0.0654358,0.005390171,-0.068537824],[-0.088298045,0.16523254,0.14193882,-0.033705957,-0.26270324,0.05227582,0.077909805,0.20445698,-0.07108876,-0.041069094]]}]}},{"fitness":0,"neuralnetwork":{"inputLayer":{"biases":[0.0,0.0,0.0,0.0,0.0,0.0,0.0,0.0,0.0,0.0,0.0,0.0,0.0,0.0,0.0,0.0,0.0,0.0,0.0,0.0],"values":[0.0,0.0,0.0,0.0,0.0,0.0,0.0,0.0,0.0,0.0,0.0,0.0,0.0,0.0,0.0,0.0,0.0,0.0,0.0,0.0]},"layers":[{"biases":[-0.03693578,-0.06515883,0.17978224,-0.061845947,-0.15673661,0.024887916,-0.3752463,0.04079728,-0.06549234,0.06341109],"values":[0.0,0.0,0.0,0.0,0.0,0.0,0.0,0.0,0.0,0.0],"inputWeights":[[-6.9674954E-4,0.090717725,-0.1425249,-0.10580552,-0.032128226,-0.029277978,0.08116359,0.16259785,0.026852459,0.06643862,-0.08596886,0.11470401,0.0061725522,0.0815554,-0.09873055,-0.112023495,-0.03228396,-0.02473517,-0.14938213,0.020230984],[0.03140111,0.062463865,-0.12277444,0.061088443,-0.08182135,-0.00338794,-0.10590327,-0.13764004,-0.073703095,0.0013181327,0.04359068,-0.14456135,0.039883,-0.1615676,0.10662848,-0.07327178,0.08825893,0.049838364,-0.061732497,0.11255373],[0.13753329,-0.006974093,0.064417765,-0.05750851,-0.11844502,-0.01280586,-0.08886089,0.015928062,0.06198143,-0.19338168,0.033428274,0.13616474,0.0682418,0.13934052,0.14845365,0.056735713,0.008707359,-0.021041406,-0.010928646,0.07440166],[0.0034721538,0.033244967,-0.12016635,0.24245763,-0.11031838,0.061328646,0.16864865,-0.16819142,-0.03807147,0.097519524,-0.21364436,0.070031375,0.084202774,-0.15154071,0.008485839,-0.20038205,0.012097802,0.08064333,-0.08069802,0.012204465],[0.122849464,0.20019566,-0.13840143,0.0761358,0.09378538,0.11016273,0.13865116,0.24086013,-0.0078399535,0.096959,0.14861938,-0.12003441,0.2543699,-0.16209856,-0.15227209,-0.03272159,0.14372209,0.03767397,-0.018377533,0.09770425],[0.0019658145,0.15339735,0.001062309,0.078396454,-0.097843856,-0.1803585,0.0493054,0.19896957,-0.073555775,-0.092158414,-0.07542382,0.18952568,-0.05080452,0.028083194,-0.05045857,0.18486638,0.09121123,-0.014552641,0.106369086,-0.027578032],[0.001617906,-0.11635956,-0.15753423,-0.07332296,0.03806246,-0.043377537,-0.17563294,0.013893028,0.13872021,-0.0734161,-0.091997415,0.025358772,-0.066334076,0.05147422,-0.1680672,-0.18976782,0.03545758,0.10582114,0.023271866,-0.003256218],[0.16011815,-0.11217109,-0.00752884,0.061450083,0.06509486,-0.0036840995,-0.08567563,0.133106,0.01139723,-0.027678188,0.012515441,-0.15963793,0.06454832,0.113250144,-0.09514971,0.0857693,-0.089691825,-0.13108264,0.14944385,-0.17373583],[-0.10182155,-0.006598056,-0.008248341,0.03641704,-0.14085245,0.0064811995,0.04311562,0.038628936,0.036602624,0.038596846,0.06298916,0.19623637,-0.06300117,-0.06499136,-0.07716875,-0.013560499,0.090364486,0.09931823,0.116082124,0.007949998],[-0.012443357,0.083547935,-0.05245358,0.06717214,-0.16257676,0.058830176,0.14938784,0.024624102,-0.081774205,-0.09000271,-0.14612779,0.03416777,-0.06491091,0.05862723,-0.06059726,0.03028176,0.07609608,-0.06670839,-0.18006575,-0.15772939],[-0.06723496,0.070360065,-0.009057466,0.10136536,0.07562147,-0.0038298815,-0.08001809,0.076091565,-0.0998527,-0.025601132,0.09164434,0.21990654,-0.14436169,-0.030270824,-0.12006198,-0.14683543,0.008367592,-0.03201659,-0.06740152,-0.09670398],[-0.17794944,-0.07847697,0.08088607,-0.06984179,-0.028887881,0.10791104,-0.06505888,0.007236388,-0.017058386,0.14938377,-0.05778417,0.02818709,-0.0488733,-0.02539341,-0.1339799,0.102167755,0.105019055,-0.005944757,-0.09582089,-0.08696764],[-0.1597789,0.121906154,-0.062269893,-0.0669438,-0.09423543,0.036116052,0.007660826,0.06235361,0.03438301,-0.11405289,0.23191035,-0.059480958,-0.06650334,-0.05542533,-0.09535332,0.06542677,-0.06338392,-0.22592954,-0.16687708,0.06272582],[0.038003016,-0.041732155,0.11625789,-0.0854294,0.0273595,0.14819033,0.035088778,-0.1652356,0.1242288,-0.09110511,-0.02025544,-0.06535175,-0.0033285848,0.0661846,-0.10581069,0.03159441,-0.092656754,0.025876606,0.1002952,0.0032844609],[0.040300563,-0.0748783,-0.01752111,0.2464812,0.09455633,0.005513525,0.06811789,-0.16753243,0.077943824,0.05591878,0.087485425,-0.11730667,-0.0130511215,-0.06475721,0.11438892,-0.04146739,0.042363256,-0.052804556,-0.088885434,0.05793288],[0.053879544,0.07139881,-0.084584996,0.070401855,-0.14982723,0.008571161,-0.19931065,0.06235797,0.15862857,0.11663955,-0.02747506,0.100417726,0.0017508086,0.086286284,0.0864731,0.0121075455,0.0544524,-0.03527406,-0.1201546,-0.08194354],[0.021426935,0.025641134,-0.06974749,-0.31229535,-0.022463458,0.07233669,0.010919673,-0.15979801,-0.037993,0.062482,-0.016806988,-0.15746628,0.03548291,0.07098686,0.23432599,0.08058093,0.011641067,-0.015704125,0.0012560289,-0.03500811],[0.11024151,0.01578736,0.06594919,-0.09299699,-0.16572809,-0.056354184,0.065521665,0.21304248,0.025597239,-0.04308233,-0.013980427,-0.06399155,-0.11182698,-0.10980689,-0.012570724,0.11031801,0.019171646,0.035702635,-0.0187247,0.09924427],[0.05121445,0.03319757,-0.13565098,-9.738432E-4,-0.075045645,0.16390394,-0.084038585,-0.076453716,0.06715807,-0.11132527,0.10855576,0.08191037,-0.2335602,0.1050922,0.08574849,-0.119368926,-0.08795766,-0.0059073893,0.05057784,0.09547983],[0.0018446693,-8.7865745E-4,0.017814722,0.20491363,0.15164177,0.07614216,0.009219661,-0.013071922,-0.083886005,0.044001095,0.099213816,-0.027211746,0.10621435,0.02717788,-0.0032255533,