{"generationNumber":36,"Entities":[{"fitness":0,"neuralnetwork":{"inputLayer":{"biases":[0.0,0.0,0.0,0.0,0.0,0.0,0.0,0.0,0.0,0.0,0.0,0.0,0.0,0.0,0.0,0.0,0.0,0.0,0.0,0.0],"values":[0.0,0.0,0.0,0.0,0.0,0.0,0.0,0.0,0.0,0.0,0.0,0.0,0.0,0.0,0.0,0.0,0.0,0.0,0.0,0.0]},"layers":[{"biases":[0.010908152,-0.07819589,-0.0543563,-0.047584232,-0.03721873,0.07265465,0.1179555,0.045367848,0.053982515,-0.0055163843],"values":[0.0,0.0,0.0,0.0,0.0,0.0,0.0,0.0,0.0,0.0],"inputWeights":[[0.049953297,-0.19512081,0.035408292,-0.012304118,-0.060199928,-0.056465484,-0.16805068,0.047041617,-0.030009005,0.06705142,0.087336406,-0.012679977,-0.13789535,-0.11732803,-0.1048783,0.04943452,-0.16027011,0.14650276,-0.030122772,0.047586095],[0.046505373,-0.06794363,-0.22183517,-0.003581076,-0.11450631,0.05024972,-0.025915867,0.17091696,-0.08371657,0.11567309,0.06555332,-0.009004607,-0.20514603,0.1028539,-0.006149802,-0.03790715,-0.17392038,0.005278426,0.066413574,0.07804786],[-0.10364766,0.087909795,0.099004656,-0.03226339,0.038022827,0.0049908003,-0.11221112,-0.14693862,0.008310642,-0.04055487,0.14903346,-0.02370626,0.074444495,-0.038253266,0.0022444895,0.07610965,9.5172203E-4,0.07215209,0.097542614,0.13165838],[-0.06978118,-0.0035818606,-0.09884518,-0.15287435,0.15903871,0.13869256,-0.19949165,0.097458415,-0.16443565,0.037637454,0.10625006,0.10677351,-0.03865021,0.019393278,-0.006535819,0.021629062,-0.08641322,0.018728655,0.05357127,0.113617636],[-0.02782946,-0.028636675,0.028527146,-0.16789316,0.022018408,0.0120906895,-0.059341855,-0.10540731,0.029550672,0.09418568,0.016410284,0.20579177,-0.09978537,-0.032682963,0.03514116,0.19291666,-0.06773051,0.028862054,-0.034733165,-0.04077436],[-0.104012474,-0.009334086,-0.019791666,0.06301164,-0.06930286,0.2336069,-0.08798922,-0.10392221,0.06690242,-0.08239323,0.071891405,-0.038462717,-0.1074853,-0.15271513,0.031357374,0.014079329,0.05918548,0.077582866,0.10394789,0.0089528365],[0.11570403,-0.18437944,-0.19582076,0.067971885,-0.05574275,4.0004615E-4,0.19711207,0.15000726,0.047107417,-0.0061790464,-0.11345075,-0.1158385,0.014225003,0.13118917,-0.26177296,-0.0997305,-0.032165945,-0.07133586,-0.005252826,0.010258961],[-0.080164306,0.0064164004,0.116019204,-0.055949915,0.0019629006,0.080928475,-0.007479902,-0.021668425,-0.004460459,-0.1714337,-0.1596647,0.1636784,-0.07572953,0.07477824,-0.047264475,0.011626458,-0.10039654,0.031726345,0.057452712,0.053660568],[-0.027143335,0.11916064,-0.02672438,-0.030783936,0.09315764,0.0505109,-0.194782,0.020586206,-0.20356098,-0.24832514,0.13953567,0.011295446,0.016687352,-0.06790679,-0.15893057,-0.1733838,-0.054531287,0.17071114,0.011711733,-0.07885052],[-0.23445249,0.07279435,-0.014347338,-0.06109964,-0.021384157,-0.030057555,-0.120163426,0.09276896,0.094245225,-0.070265114,-0.026643923,0.104811214,-0.046762086,-0.081438646,-0.019841889,-0.22155786,0.27097523,-0.085949875,0.03356929,0.0050739283],[0.10735313,-0.11904078,0.17937832,-0.10091265,-0.13036276,0.043185554,-0.12040567,0.0014861347,-0.051676758,0.13792999,0.012999934,0.0022622747,0.036141433,0.062327962,-0.0076206396,-0.03427667,-0.2617531,-0.1391824,-0.037984826,-0.028087877],[-0.06516629,-0.01832016,0.02313549,-0.09992667,-0.016036108,-0.05886645,0.26014638,-0.025163522,-0.08542499,-0.0025818062,0.088270366,0.021470232,-0.106904104,-0.21269643,-0.085222766,0.034139067,-0.019490087,0.12259777,-0.045695078,0.036420565],[-0.093125746,-0.0067316005,0.13916104,0.089117974,0.084487386,0.09604227,-0.20602985,0.041372616,-0.10092336,-0.0452067,-0.24490908,-0.13143271,-0.069788605,0.01706169,0.16256085,0.13783489,-0.08378921,0.16801852,-0.16510907,0.093862705],[0.10377114,-0.050152287,0.087578624,-0.029765686,0.036748346,-0.08179014,-0.056362297,0.09839822,-0.12345199,-0.11126798,0.089423895,-0.03802768,-0.13670701,0.066734076,0.15689857,0.25656673,0.13612811,0.02186279,0.077047125,-0.064635746],[0.09089411,0.034349322,0.09474178,0.014018885,0.08061412,-0.016121494,0.12937711,0.1498854,-0.051977247,0.021146785,-0.0710347,0.08300503,-0.0043079383,0.004360032,0.043765098,-0.22439599,-0.113743156,0.062741816,0.11315569,-0.08885021],[0.06285415,0.17759281,0.0806154,0.08060547,-0.08730345,0.10784301,0.113014966,-0.157991,0.02214207,0.0126149375,-0.002787567,0.092646904,0.1873745,-0.01843513,0.01037777,-0.04459091,0.03529499,0.022485206,0.010211404,-0.049600866],[0.21596262,-0.31642213,-0.03215772,0.081781335,-0.067780405,0.0050089285,-0.0037724809,-0.04306494,-0.16078135,-0.022489918,0.059022956,0.035067223,0.2151507,-0.016831689,-0.02746441,-0.07916043,-0.01809536,0.05704803,0.061354607,0.010518833],[0.03430415,0.0961299,-0.003859428,-0.08016638,-0.120760314,0.13336019,-0.029994061,-0.06959709,0.120686635,0.020851638,0.022094648,-0.07139368,0.08791676,-0.05181725,-0.022259586,-0.09633104,-0.070892006,0.060284737,0.02153808,0.03596025],[-0.05211817,-0.1660146,-5.694016E-4,0.064986706,-0.016169215,0.08626257,0.01024801,-0.04710765,-0.076137036,0.024965264,-0.05566632,0.052857585,0.10031481,0.10169407,0.10148418,-0.09362348,-0.18921693,0.07871678,0.08071613,-0.07129282],[0.1498262,-0.0036133784,0.10320891,0.10676233,-0.0035768845,-0.04733041,-0.18229243,0.028040562,-0.010808948,-0.04258794,-0.0076958975,-0.07749884,0.09201387,0.03216973,0.14543366,0.07676615,-0.0075079566,0.046932578,-0.104952835,-0.05939386]]},{"biases":[-0.08973994,-0.093916014,-0.017360784,0.109480426,-0.03298639,0.081030205,0.03386218,-0.12171453,0.10389125,-0.1317887],"values":[0.0,0.0,0.0,0.0,0.0,0.0,0.0,0.0,0.0,0.0],"inputWeights":[[0.13098302,0.06412286,-0.097633325,0.06229595,0.16400997,-0.16593572,0.07160996,-0.09564123,-0.056481745,-0.071883366],[-0.0939392,-0.042709008,0.060857136,-0.1522174,-0.07861205,-0.05139812,0.03755995,-0.07183012,0.06663601,-0.11929479],[0.03778566,-0.13456735,-0.05595688,-0.01026411,0.09014686,0.16424277,-0.0145652555,-0.08338319,-0.0825124,-0.039717678],[0.023479374,0.011222132,-0.11689149,-0.05267875,-0.17970513,0.050611697,0.018289639,-0.044425722,0.04380027,-5.1476207E-4],[0.19768798,-0.022816325,-3.592908E-4,-0.17582075,0.08302326,-0.04793399,0.08728574,0.23011346,0.015532996,-0.059472837],[0.0776818,0.020667208,0.096036606,0.100352295,-0.123807125,-0.0138069745,0.058764543,-0.08738109,-0.01829553,0.043093953],[0.026499497,-0.016945072,0.039884154,0.07766034,-0.020852743,0.0013533968,-0.09553641,-0.065650865,0.03358539,-0.056464534],[-0.10788898,0.16516559,0.03732163,0.26051757,0.069218904,0.019800639,-0.01876747,0.043942254,0.1284789,-0.12244211],[0.022730934,0.08048609,-0.07667276,0.15293564,-0.062412396,0.0095699765,0.031265523,0.15183814,-0.1334936,-0.07422975],[-0.030989224,0.031603575,-0.08978584,-0.081061,0.034356426,0.026430475,-0.12853435,0.08598507,-0.04813063,-0.026534945]]},{"biases":[-0.011201868],"values":[0.0],"inputWeights":[[-0.06921763,0.16860417,-0.12758349,0.006498587,-0.008441657,-0.08824316,-0.017489927,-0.025917832,0.02777995,-0.11514557],[-0.10839247,0.03574675,0.0012473692,0.03046366,0.21870777,0.027442586,-0.13216235,0.024324043,0.029854976,0.05863243],[0.06803097,0.040902857,0.13621928,-0.016285334,-0.06827268,0.035842806,-0.027556956,0.06713686,0.09969473,-0.091668665],[0.0034908503,-0.122995995,0.01475215,0.046982944,0.0010175752,0.0050148894,0.1953308,-0.17619008,0.007451052,-0.06447504],[-0.17310593,-0.12697044,-0.07799078,0.26386347,-0.036864243,0.1088394,0.045169685,-0.07073359,0.049963802,-0.0062754685],[0.020479064,-0.045867413,0.14912501,-0.038074948,-0.08348767,-0.1142084,0.04610154,0.17359969,-0.030458972,-6.561419E-4],[-0.02943696,0.14488392,0.13954042,-0.0149823595,-0.03876202,-0.07884281,0.06090472,0.005695792,0.17513452,-0.087230876],[0.0051799174,-0.12921807,-0.015104842,-0.15446861,0.12957099,-0.12088271,-0.050138906,0.038764685,0.049665783,0.04708514],[-0.07407629,0.061110724,0.010779486,0.12984107,-0.006284791,0.15262109,-0.03236924,0.04785849,0.024453849,0.27587867],[-0.031356756,-0.15363878,0.028695738,-0.0068460046,-0.1925837,0.07398372,-0.110264845,0.027600314,-0.057302672,-0.056034576]]}]}},{"fitness":0,"neuralnetwork":{"inputLayer":{"biases":[0.0,0.0,0.0,0.0,0.0,0.0,0.0,0.0,0.0,0.0,0.0,0.0,0.0,0.0,0.0,0.0,0.0,0.0,0.0,0.0],"values":[0.0,0.0,0.0,0.0,0.0,0.0,0.0,0.0,0.0,0.0,0.0,0.0,0.0,0.0,0.0,0.0,0.0,0.0,0.0,0.0]},"layers":[{"biases":[0.08187181,0.13568684,0.009360463,-0.10222398,0.06595613,0.0027503115,0.02948576,-0.043262016,-0.15197867,0.043102864],"values":[0.0,0.0,0.0,0.0,0.0,0.0,0.0,0.0,0.0,0.0],"inputWeights":[[0.03349654,-0.07498409,0.011355579,0.1434299,-0.16310717,-0.0053912476,-0.033807985,-0.08402018,0.026533304,-0.09816676,0.058127645,-0.09703842,0.13355184,0.0027658027,-0.09748039,-0.026274376,0.15858547,-0.08868691,-0.08739356,-0.06757645],[-0.01376389,0.07846374,-0.21653898,-0.15292537,0.018257953,-0.0038499394,0.18239693,-0.13763003,0.0603424,-9.0815686E-4,-0.10740876,-0.031285737,-0.023585137,-0.03964858,0.03650933,-0.194136,-0.076813206,0.009968907,-0.10428827,0.13947745],[0.0015097394,0.048123132,0.024115868,0.04315885,0.0101526715,0.21083084,0.049495988,-0.09564837,-0.09666396,0.04756048,-0.20216253,-0.20603958,0.15816654,-0.02601069,0.016241398,-0.0021884483,0.0021505777,0.037034184,0.04551743,-0.016563654],[-0.1264799,0.16059303,-0.021386439,0.025834627,0.21651813,-0.0046243165,0.1616631,0.079150826,0.07313353,0.101925895,0.044091456,-0.027629426,0.07828585,-0.06273734,0.0715861,0.10246018,0.020265177,-0.008793015,-0.13293588,0.06727412],[-0.01253098,-0.095662855,-0.1060364,0.094089374,0.082271725,0.04349348,-0.06791729,-0.098880015,-0.09524416,-0.023403738,-0.08240335,-0.003760864,-0.04812971,0.02683494,0.09202942,-0.061644204,-0.038173433,0.0049908278,-0.16078697,-0.04446522],[-0.11038512,-0.05796213,0.00976928,0.2241245,0.09008322,-0.009932979,0.027592227,-0.1391605,-0.14112647,0.05024047,-0.012889079,0.013047259,-0.05451225,0.021044679,-0.14328839,-0.06161788,0.13830388,-0.017180515,-0.117027774,0.15019588],[-0.055924557,0.101721235,0.06473566,-0.039661188,0.012828248,0.027191155,-0.004809283,0.1255557,-0.14739834,0.28620103,0.031520553,-0.06987106,-0.025499249,0.025746984,0.07507628,0.20619732,-0.035333652,-0.14837672,0.13274701,0.05105964],[-0.118724816,8.825662E-4,0.14511502,-0.07943307,0.17181714,-0.21601216,-0.0759354,0.071767755,-0.06275194,-0.024174096,0.09286282,-0.116371505,-0.0039864336,0.11809107,-0.06971409,-0.06693053,-0.09345382,-0.0466489,-0.004512067,0.15198746],[0.12741876,-0.040346537,-0.16251864,0.111065984,-0.019604191,-0.05447097,-0.053504013,0.09526476,0.054368265,0.016073642,-0.010406803,0.011843061,0.10043659,-0.17855534,-0.03910864,0.02393091,0.1549701,-0.07421057,-0.0024822997,-0.12726536],[0.008410138,-0.13128075,0.007046652,-0.09853178,-0.19842562,0.08150534,-0.104342274,0.03110751,0.10034498,0.006796073,0.18435995,-0.0072388994,-0.108234465,-0.11318096,0.02849336,0.04566001,-0.06309245,0.073990956,-0.06350461,0.0051485496],[-0.1063023,-0.120215684,0.040276006,0.08538187,0.2089251,0.2375791,0.06863974,0.05864441,0.0163757,0.009999977,0.073214196,0.037463557,-0.09573175,-0.041404083,-0.062882684,0.12658446,0.013081029,-0.018383577,0.025232099,3.3769273E-4],[-0.08387053,-0.027961655,0.2280639,0.07901683,-0.14556795,-0.12070418,-0.13046284,0.043293893,-0.018412258,-0.063881874,-0.08144505,0.020195888,-0.010435591,0.015531719,-0.033994526,0.12363552,-0.091116756,-0.019681403,0.06215991,-0.06319744],[-0.04910114,0.12546495,-0.03090915,0.06733226,0.2938391,-0.12495093,-0.09695793,-0.022360012,0.18546203,0.038549688,-0.0598229,0.085996024,-0.0014060552,0.20350355,0.0065408354,0.057619914,0.025704008,-0.06629866,-0.08603615,-0.017766954],[-0.054975532,0.012807284,0.03247298,-0.056254268,-0.0034441794,-0.019476155,-0.004707372,-0.109170504,0.10870585,0.035373826,-0.14754203,0.010067302,0.028112682,-0.027669733,-0.040783584,0.06790665,-0.16049404,-0.0869969,0.02792641,0.12544994],[-0.08633798,-0.09617877,-0.0010274284,0.061586462,-0.22984485,0.112178974,-0.08406688,-0.00661716,-0.009773718,0.025038218,0.009762391,-0.12194409,0.11622145,-0.0044242204,0.052042663,0.07756131,0.20929629,0.10971094,-0.0714274,0.0044277073],[0.09367968,-0.08034126,0.20534417,0.13112399,0.051227957,0.0775118,-0.008850441,-0.037091993,0.080067374,-0.0025399313,0.17078575,-0.2598764,0.05519893,-0.07171148,0.07116185,0.10825216,-0.043276507,-0.021910174,-0.08089142,0.14795852],[-0.011312115,0.15957433,-0.09657305,-0.039938778,0.11088786,-0.07796879,-0.015669012,-0.1251056,0.15264414,0.064997904,-0.06851761,0.022598932,0.20268132,-0.010361461,-0.13945784,0.055902395,0.0048215296,0.24393499,-0.11151666,0.18633069],[-0.022094488,0.009461899,-0.058174286,0.1506132,0.062044412,0.27683333,-0.09714674,-0.06706064,-0.24862774,-0.015065632,0.0365149,-0.11730509,-0.022159372,0.026704675,0.015609544,0.024117105,-0.16422409,0.0071135745,-0.19740291,0.023360144],[0.040912196,-0.060363725,0.10345211,-0.072971135,-0.011457884,-0.041016996,0.06251982,0.019726831,-0.18521585,-0.006459518,-0.02904445,0.094349965,0.017911151,-0.09046571,-0.048973795,0.04278544,-0.16480245,-0.076633126,0.08544367,-0.11598997],[0.07237376,0.01381063,-0.007986496,-0.061957635,0.099457614,0.04760768,0.13360924,-0.10352092,-0.12763794,-0.14550057,0.03873941,-0.0073268446,0.10695376,-0.007266438,0.03819842,-0.12162353,-0.12579754,0.2067617,-0.08018603,-0.040966995]]},{"biases":[0.09310345,0.013131256,-0.18775125,0.16115828,0.08163236,-0.20776679,0.1033524,-0.19026764,-0.08539149,-0.10967576],"values":[0.0,0.0,0.0,0.0,0.0,0.0,0.0,0.0,0.0,0.0],"inputWeights":[[-0.08470935,-0.030469323,-0.016904015,0.070720986,-0.19969425,-0.15394376,0.06407305,-0.020117177,-0.07200137,0.07361821],[-0.076050125,-0.11827433,0.062389966,0.0054848297,-4.0538362E-4,0.079068266,0.022772398,-0.13810924,0.27102256,-0.086875506],[-0.1639374,0.09033746,-0.06305049,0.11876231,0.11962042,0.09048787,-0.011393834,-0.23085561,0.113269284,0.1253296],[0.044068314,-0.12295751,-0.055384453,0.090232536,-0.10165745,-0.07925189,-0.028503513,-0.21398078,0.021432739,0.08761853],[-0.1037568,-0.0058432478,0.134764,-0.09584123,-0.042886063,-0.13938247,-0.09629299,-0.042164892,0.046094254,0.1399748],[-0.056307103,0.010841039,0.054600127,0.010728289,0.07227085,0.013800106,-0.099484846,-0.016076334,-0.1711665,-0.093611486],[-0.0812803,0.027146306,0.116735324,-0.08866968,0.11126296,-0.045301884,-0.025192712,0.1474312,-0.098371625,-0.04107594],[-0.055121794,-0.17969383,0.117936276,-0.03808377,0.036074564,-0.0963009,-0.016906848,0.14853537,0.10846913,0.071715154],[-0.09604569,0.14278062,0.036411796,-0.11931736,0.045241352,-0.014249433,0.07220659,0.0039998274,-0.028149007,0.102670595],[-0.14617236,-0.11357498,-0.038202897,0.12014789,0.12252884,0.0141737955,-0.052388903,0.17819674,0.017553464,-0.012551382]]},{"biases":[-0.11930798],"values":[0.0],"inputWeights":[[0.23037803,-0.035464205,-0.108975664,-0.17558311,0.027338149,0.017319787,0.026760131,0.11134306,0.12503412,-0.112686574],[-0.07924001,-0.0914451,0.06675173,0.22739226,0.08901209,0.055693876,0.05905059,0.012900434,-0.010226374,-0.05056271],[-0.043676782,-0.03568749,0.01897528,-0.066678666,-0.052283328,0.114273,-0.25638828,-0.11197212,0.043161046,0.24371518],[0.0929006,0.012122165,0.009453213,0.060313974,-0.1158758,-0.04666988,0.013309929,0.13517034,0.061828658,0.058448028],[0.053194027,0.08919725,0.013134059,-0.03425444,0.19385977,-0.010017908,0.05422314,0.102995224,0.068571724,-0.07812726],[0.19709398,-0.035366945,-0.0712239,-0.057698548,-0.037654635,-0.07301501,0.061431658,-0.031874087,-0.052695565,-0.029787479],[-0.05292138,0.054386705,0.030111639,0.09439286,0.07767915,-0.020814264,-0.027629385,-0.06148961,-0.115676604,-0.007951874],[-0.06729702,-0.008842753,0.15520555,0.16614856,-0.19570506,-0.13393311,0.04328578,0.01596221,-0.06088958,-0.02824861],[0.16996595,0.03812496,-0.046472732,0.023301616,0.066070944,-0.029916264,0.107792474,-0.21858549,-0.05567578,0.12702155],[-0.13159895,0.09266986,0.088138096,0.042834207,0.05284685,-0.17909053,0.055543285,0.045215946,0.024131343,0.050378468]]}]}},{"fitness":0,"neuralnetwork":{"inputLayer":{"biases":[0.0,0.0,0.0,0.0,0.0,0.0,0.0,0.0,0.0,0.0,0.0,0.0,0.0,0.0,0.0,0.0,0.0,0.0,0.0,0.0],"values":[0.0,0.0,0.0,0.0,0.0,0.0,0.0,0.0,0.0,0.0,0.0,0.0,0.0,0.0,0.0,0.0,0.0,0.0,0.0,0.0]},"layers":[{"biases":[-0.055530854,-0.11231631,-0.02653062,0.12011046,0.022899691,-0.17468075,0.030874364,-0.062310986,-0.016328674,0.07667093],"values":[0.0,0.0,0.0,0.0,0.0,0.0,0.0,0.0,0.0,0.0],"inputWeights":[[0.003628333,0.029129636,-0.08370072,0.17860681,-0.060827497,0.005001966,-0.07426416,-0.0062812786,-0.103939384,0.05407531,-0.1353597,0.15149169,0.07920424,0.05458719,-0.24596557,0.12859608,-5.3775177E-4,-0.030795995,-0.13501972,-0.074294165],[0.104775146,0.13979943,-0.23129351,-0.035661984,0.17313756,0.046623934,0.006413313,-0.06655492,0.018130222,-0.12316303,-0.11687085,-0.21103817,0.15980686,0.09623471,0.015693102,-0.17013317,-0.09865422,0.055668753,-0.02114086,0.019308327],[-0.07474383,0.16075736,0.0532936,0.21276632,-0.0010370828,0.077890635,0.014281766,0.10146906,0.07463433,-0.041882683,-0.14835978,-0.21546367,0.05831242,0.3120329,-0.015026978,0.14248185,-0.13119306,-0.10985161,-0.07743421,-0.09338995],[-0.1301123,-0.004986573,0.105396815,0.17633948,-0.15587462,0.03514504,0.14758278,-0.23763578,-0.0013108078,0.029228052,0.088597566,-0.038282223,-0.21082272,0.092068106,-0.041769307,0.11269289,-0.006893707,0.119707756,0.014911992,-0.05090385],[0.012442318,0.0794485,0.043428313,-0.0010888639,-0.081654474,-0.19099241,-1.8523997E-4,0.017946113,-0.036833357,-0.08892465,-0.027235802,0.011138943,-0.054803018,-0.03252192,-0.12840532,0.14762527,-0.03920209,0.042599227,0.1376843,0.24157286],[0.013642445,-0.07351029,-0.014621975,-0.09708167,0.07890793,0.13339108,-0.023679303,0.09712959,0.10667823,0.044768132,0.05530734,-0.04923602,0.13387103,-0.17998388,-0.059436847,-0.21772666,0.005881803,0.1671429,-0.08067362,0.03431608],[0.06956642,0.021547358,-0.06391742,-0.101201594,0.021513648,-0.13488606,-0.18594109,-0.07740084,-0.09670532,0.26876777,0.002334203,-0.020372916,0.18288924,-0.03363947,0.15127574,0.12371375,-0.08157763,0.10783652,-0.0012170324,0.039968856],[0.032080647,0.048808947,-0.12156826,0.082570225,0.15698801,-0.019904586,-0.1129224,-0.060813304,0.05090062,-0.047659047,-0.119255126,0.13168804,-0.003369191,0.07470269,-0.040967282,0.0847378,-0.006878374,-0.20383576,-0.15486409,0.21339932],[-0.025567783,0.16447054,-0.031219717,-0.12738098,-0.13453342,-0.042117894,0.031796053,-0.044820018,0.06944509,-0.18829277,0.02433121,-0.10317839,-0.010696205,0.0991794,-0.13987488,-0.13995382,0.14971064,0.05429169,2.158171E-4,-0.10283952],[-0.007702217,-0.036124736,-0.028810043,-0.06155071,-0.059831128,0.08067511,-0.036493998,-0.11136043,-0.0037790204,0.09490501,0.13334797,-0.15235507,-0.08200602,0.05455805,-0.044249896,-0.15595852,-0.08373886,0.06034751,0.019596701,-0.03464316],[-0.013781781,0.01837726,0.02655925,0.14383069,0.11206057,0.019780803,-0.08703849,-0.13349727,0.038217112,-0.07965078,0.13562436,-0.06170344,-0.049702805,-0.05766562,0.074204735,0.030440798,-0.099493325,-0.06805504,0.12356264,9.004727E-4],[0.07416609,0.076847315,-0.06817169,0.004634422,-0.141212,0.0020474875,-0.04308858,-0.015290693,-0.12751548,0.08881046,0.008737709,-0.12348735,0.22965415,-0.0710243,-0.11532969,0.066846155,-0.14883918,0.070114434,0.17623453,-0.104882345],[0.2010483,-0.0020816918,0.0059610717,-0.124694735,0.09403998,0.04034864,0.06256166,-0.1460524,0.014599526,-0.06678988,-0.008674787,-0.14057408,-0.026203042,-0.05094019,0.03034477,0.1370054,0.050498925,0.17196386,0.094248906,0.018589346],[-0.092141666,-0.066141225,-0.08164123,0.10639691,-0.11227936,0.03407466,-0.003150398,0.039656997,-0.11749442,0.02356974,-0.083878785,-0.01889784,0.055696152,0.039132617,-0.026335457,-0.01470551,0.06236084,-0.04963849,0.03420781,-0.14844058],[-0.19087237,-0.043201465,0.06963927,-0.15016833,-0.14899333,0.22662637,0.086283125,0.06109362,-0.13224818,0.010636105,0.13336,0.0071527646,0.048921317,-0.10418643,0.0049327,0.13576953,0.05745564,-0.021661656,-0.123481125,0.051139418],[0.19650961,0.14778662,0.014064434,0.033411033,-0.124467745,-0.007838615,-0.03850777,0.09561851,-0.035358287,-0.15823607,0.1987545,0.021043234,-0.09696292,0.22181629,0.011750686,-0.06215502,0.1967445,0.0028819297,-0.18021822,0.13377818],[0.110843,0.06393391,-0.027084757,-0.15284939,0.11832185,0.009065966,0.18970752,0.037197877,-0.025714548,0.15971668,0.011141094,0.20968977,0.103814796,-0.021814331,-0.049791023,-0.022622114,-0.0109685585,-0.0123025635,-0.0017951467,0.03941701],[0.04657182,0.04713634,-0.18429919,-0.014848672,0.21687897,-0.08967081,0.04962791,-0.05915456,-0.023631737,-0.10387656,-0.092589796,0.21632206,0.09758961,-0.04480239,-0.13313061,-0.18790278,0.008903938,-0.016196726,0.011962161,-0.10171153],[-0.10476445,-0.19653505,-0.039585996,0.15710887,0.033909187,-0.02443054,-0.05984546,-0.31289685,-0.016464762,0.13173726,-0.11386514,-0.22892493,9.0443896E-4,0.070463955,0.0025106173,0.0300377,0.038693387,0.13810426,0.0705404,-0.042128377],[0.073287904,0.055414204,-0.16639759,0.1719137,-0.25295988,0.017120473,0.151882,-0.04846174,0.010290998,-0.0923438,-0.13096471,-0.07912276,0.17869979,-0.11352308,-0.093842514,0.07693188,0.07014287,0.043490753,-0.06948099,-0.034048997]]},{"biases":[-0.044744376,0.20815682,-0.039840817,-0.18709475,0.01751758,0.1312661,0.056266725,-0.04114507,0.071051545,0.039352864],"values":[0.0,0.0,0.0,0.0,0.0,0.0,0.0,0.0,0.0,0.0],"inputWeights":[[-0.15156752,-0.006848319,-0.24430457,-0.022440244,0.17133838,0.15409376,0.08613332,0.038678095,-0.026586624,-0.19347374],[0.14277968,0.055760358,-0.08406542,-0.26954165,0.19170046,-0.034437098,-0.15393922,-0.0043815244,-0.16775605,-0.027055096],[-0.094938666,-0.053305954,0.04855311,-0.079252526,0.10084735,0.0839633,0.09884312,0.017782658,-0.1294084,-0.061597858],[-0.030914754,-0.16501759,-0.047175314,0.08403705,-0.06414821,0.06927687,0.15265982,0.10131291,0.034700606,-0.041463934],[0.25285807,0.11477386,0.10820734,-0.18048044,-0.025880367,0.055611875,0.11742759,-0.1597678,0.0912017,0.070635885],[-0.013240155,-0.12284008,-0.09943843,0.1285252,0.026232779,-0.026676947,0.030289166,-0.06961578,0.027172623,0.07153996],[-0.014135476,-0.12945607,-0.031979028,0.04844317,-0.092738025,0.013632742,-0.13534355,0.11296865,-0.067740284,0.022256587],[-0.02419921,-0.018947264,0.07917659,0.028051047,0.07706898,-0.022018284,0.13655354,0.13092317,-0.07857307,-0.023860294],[-0.10881773,0.0840704,-0.08356277,0.04977386,0.024575818,-0.069413096,-0.038628258,-0.08540258,0.13702849,0.019382413],[0.17431444,0.045736678,-0.20821582,-0.058992304,-0.0999617,-0.1370094,-0.0025572693,0.030996645,0.14549933,-0.03413375]]},{"biases":[0.017634701],"values":[0.0],"inputWeights":[[0.015353825,-0.0120033,-0.12852214,0.10078266,-0.2057776,0.033473577,0.12797149,-0.1587762,-0.049385823,0.13788411],[-0.0662916,-0.10676062,-0.1097771,-0.049772274,-0.07486926,-0.17258662,0.026538463,0.30435586,0.14682725,0.02047587],[-0.02997184,-0.0022165198,-0.0023045833,0.0076209586,-0.04144614,-0.112211354,-0.23725541,0.08647567,0.22158094,-0.09400096],[0.16820513,0.039988156,-0.0014030972,0.05121871,-0.08631471,0.014317125,0.046803214,0.03423658,0.11614375,-0.04782047],[-0.07157348,-0.059917632,-0.21865626,-0.011366889,0.07431324,-0.03832937,0.13610093,0.11482888,-0.0030122302,-0.017795522],[0.04229161,-0.07864142,-0.15213,-0.07480524,0.0122667095,0.07800197,-0.07997514,-0.014273179,-0.04555246,-0.08824068],[0.07957732,-0.025963806,0.05233306,-0.23543446,0.042073954,0.16508006,0.010217664,-0.010460671,-0.20035295,-0.05401633],[0.11299869,0.08075017,-0.15034616,0.008487582,-0.007889725,-0.117015995,-0.12908858,0.022570472,0.10060265,0.064199835],[-0.021698646,0.14456008,-0.07475679,0.043892667,-0.14625922,-0.14509185,-0.012914267,0.05601715,-0.09856501,-0.15595408],[-0.05607832,-0.03125086,4.4764814E-4,-0.01490294,0.13219905,-0.026745692,-1.6033073E-4,0.13137676,0.06760721,0.05995487]]}]}},{"fitness":0,"neuralnetwork":{"inputLayer":{"biases":[0.0,0.0,0.0,0.0,0.0,0.0,0.0,0.0,0.0,0.0,0.0,0.0,0.0,0.0,0.0,0.0,0.0,0.0,0.0,0.0],"values":[0.0,0.0,0.0,0.0,0.0,0.0,0.0,0.0,0.0,0.0,0.0,0.0,0.0,0.0,0.0,0.0,0.0,0.0,0.0,0.0]},"layers":[{"biases":[0.02300414,0.08717306,0.10875493,-0.07853149,0.060806263,0.2439669,0.10868021,-0.0023606885,0.002998449,0.0938208],"values":[0.0,0.0,0.0,0.0,0.0,0.0,0.0,0.0,0.0,0.0],"inputWeights":[[0.0048745354,-0.09690127,0.0048867487,0.017447732,0.028904323,0.07204459,-0.059794597,-0.020510683,-0.056947116,0.0032813589,0.08380458,0.14596166,0.1356932,-0.031054229,-0.06953322,0.15039948,-0.0517127,-0.06583883,0.029206213,-0.008695292],[0.09591174,-0.006987742,-0.0024360723,-0.023721326,0.046671644,-0.13478565,0.10842598,0.08871908,-0.015279972,0.054330543,0.12605992,-0.1453368,-0.14388198,0.035471074,-0.078078985,0.12623404,-0.042785127,0.10149847,-0.16291836,0.22769457],[0.04109888,-0.020558368,0.095326506,-0.014051377,-0.005655832,0.020570653,0.12950289,-0.13865824,-0.08803413,0.048529305,-0.037954412,-0.023892747,-0.05723034,0.0576347,-0.08250277,-0.07906937,0.062976494,0.07649246,0.14410016,-0.08100259],[-0.035566114,2.200824E-4,-7.1738847E-4,-0.0714073,0.053095803,-0.025995009,-0.057383448,-0.035126653,0.03251453,-0.15657124,0.0452569,-0.0130118225,-0.054995712,0.017405964,-0.006443469,0.16190024,0.053783264,-0.04195645,-0.025434949,-0.0010815013],[0.00935759,0.12980114,-0.09568984,0.031626984,-0.04484433,-0.04377825,0.1620564,-0.19107631,0.041902326,-0.06446114,0.058560576,-0.02310184,0.049979012,0.011351841,-0.23819225,0.17288463,-0.10536717,-0.0018311264,0.097057864,0.04959962],[0.05389052,-0.12136727,0.014720342,0.21311699,-0.14557648,0.04031149,-0.03211777,0.06955965,-0.002938822,0.032053255,0.036085308,0.00115489,0.01812234,0.019126061,-0.114397466,-0.012655209,-0.047478132,0.06935781,0.013995114,-0.12337663],[-0.22160567,-0.01827789,0.041428514,0.2678565,0.18803531,0.010708086,-0.19703531,0.03176953,-0.048680816,-0.12767221,0.07670271,-0.031003455,-0.032470234,-0.17184648,-0.075072445,-0.0037238807,0.1544634,-0.020819362,0.01715561,-0.07224208],[-0.10456359,0.0017852709,-0.057330877,0.1101515,0.106568485,-0.04458862,0.016106157,-0.14189108,-0.0020683047,0.05644645,-0.093718626,0.0056363596,-0.071769185,-0.09501438,-0.026526567,-0.034269225,-0.14488201,-0.020014813,-0.16977367,-0.06187278],[-0.050249413,-0.06837734,0.0019873101,0.23914519,-0.096007526,0.22329436,0.00704468,-0.03131951,-0.08153972,0.16063446,-0.16379134,-0.119308904,0.025195323,-0.11338016,-0.017970303,-0.029547056,0.062178668,0.09686187,-0.23718132,-0.20553869],[-0.22988553,-0.043072283,0.012848553,-0.041772135,-0.017444333,-0.093457036,0.085822135,-0.057596307,-0.030256199,-0.015356962,-0.047916986,-0.14698988,0.02225039,-0.03065288,-0.038120236,-0.088518515,-0.04704195,-0.08375165,0.012571162,0.011337352],[-0.038335897,-0.16719085,-0.05031017,0.029753627,0.0076879775,0.09934124,0.04451834,-0.22972493,0.015628621,-0.06492008,0.08285336,0.011895539,-0.045534167,-0.05319997,0.104454845,0.034480654,0.06104117,0.060074568,-0.06928715,-0.07292165],[-0.009580695,-0.24345115,0.068015456,0.112455934,0.13508734,0.10399523,-0.08384597,0.12709568,0.046961017,-0.20138706,-0.15519747,0.15134938,0.0030856892,-0.051266983,-0.024095574,-0.058959376,0.009895093,0.12032644,-0.1343105,-0.054189585],[-0.06809073,-0.056725442,0.007986147,0.12960452,0.020441718,0.045845065,0.13530754,0.033861186,-0.1467864,-0.23256081,-0.08469424,0.11393942,-0.049546253,0.07350842,-0.03012145,-0.0041150865,0.036547497,-0.068113334,-0.04521437,0.10817111],[-0.0030056958,-0.1258838,0.12013461,0.072860666,0.1842563,0.02168563,0.11761282,0.012403725,-0.024171226,0.103419244,-0.0202434,0.08172569,-0.08956068,0.06340112,0.030387595,-0.018363383,0.1769471,-0.065264836,-0.12918916,-0.033453014],[-0.03199861,0.014843971,0.048496176,0.024544353,0.041684307,-0.07339969,-0.0035706568,-0.0026978182,-0.047080744,-0.06417974,0.0379177,0.08628018,0.016951945,-0.08962412,-0.15454662,0.11347431,-0.08555599,-0.118167154,-0.09005862,0.1316279],[0.02408605,-0.11678301,-0.0213546,-0.1417526,-0.130937,0.0056602233,-0.042794123,0.03354445,-0.11573247,0.15105161,-0.15184379,0.066243626,-0.11871679,-0.0025308407,-0.035261877,-0.20878921,-0.037829213,0.036641683,0.17057718,0.070200436],[-0.083765924,-0.06198701,0.027354896,-0.053466294,-0.048295822,0.08606299,0.03720325,0.13268349,0.030873604,-0.21275297,0.036462512,0.067645766,0.08662157,0.006118465,0.03764027,-0.0048177815,0.11690377,-0.103222065,0.07788824,-0.09150309],[0.16267872,0.057371046,-0.1244993,-0.04263797,-0.014505249,0.078635,0.029646805,0.10815752,-0.107390426,0.100223035,-0.13807578,-0.062584944,0.048444733,-0.054971643,0.058575746,-0.08994218,-0.13314618,-0.014676414,0.049773622,-0.052549712],[-0.06268272,-0.02309537,-0.028694425,-0.010063098,0.117877305,-0.0110703735,0.07105647,0.019165447,0.16144343,-0.02779867,-0.044356465,0.06754631,0.13981676,-0.13567777,-0.20278855,-0.071262464,-0.08494767,0.12631252,-0.060667068,-0.011071327],[-0.022160895,0.11492929,0.0459695,-0.15926754,0.05250113,-0.21161692,-0.04807843,-0.032247048,-0.040459007,0.07045655,-0.22634752,0.13312328,0.007378128,0.11564486,-0.10218093,-0.13847315,-0.10297914,0.07119774,-0.26820672,0.17053969]]},{"biases":[0.06701224,-0.12560025,0.048669398,-0.32457194,-0.13252334,0.010915099,-0.15380977,-0.08774885,0.052873265,-0.0342712],"values":[0.0,0.0,0.0,0.0,0.0,0.0,0.0,0.0,0.0,0.0],"inputWeights":[[0.11730015,0.0660962,0.018701576,0.18084337,-0.05143695,-0.03990614,0.08107137,-0.06962591,0.12214983,-0.0576902],[-0.19497861,-0.043403782,-0.030223995,0.06568948,0.039590396,-0.147656,-0.09471445,-0.1007149,0.06373261,0.021396276],[0.0037596528,0.009886376,0.13190342,0.016656883,-0.049889643,-0.04273831,0.10657451,0.04600335,0.002452052,0.022590451],[-0.05528391,0.089205354,0.084600985,-0.1546746,-0.025616486,0.044135157,0.11239379,-0.06172919,-0.04493013,-0.008775406],[0.019464467,-0.16415817,-0.03682825,0.087438114,0.07977349,-0.019972716,0.07053818,0.11778957,-0.07756931,0.21082781],[0.009764284,-0.024305908,0.104605906,0.08045089,-0.05449358,-0.16446534,0.047225885,-0.010257123,-0.07570867,-0.053978432],[-0.14197856,-0.12726259,-0.089768365,-0.079256184,0.03911915,0.06610938,-0.03997239,-0.17017688,0.1549668,-0.00445415],[-0.0078734085,0.15079756,0.09527864,-0.26390088,-0.036117148,-0.012471808,-0.012807618,0.026697522,0.062182665,0.042768423],[0.11195405,0.09278379,0.21051297,0.004132317,0.0052404287,0.06667788,-0.00779852,0.06927079,0.0019075208,0.19843063],[-0.08654275,-0.061926745,0.036058284,-0.07659481,0.28134644,-0.0024261666,0.008852762,-0.031161973,-0.042860262,0.17622481]]},{"biases":[-0.02170034],"values":[0.0],"inputWeights":[[0.029023325,-0.035684958,0.11689171,0.10025055,0.18423419,-0.08517387,-0.026211955,-0.022480264,0.05840094,-0.20981064],[-0.12606122,-0.061223395,0.034867905,-0.01837246,-0.14183971,-0.069190025,0.03971319,0.081283,0.09194011,0.049174786],[0.03672336,-0.004772697,-0.08952387,0.13706753,0.0698055,-0.07241946,0.10732982,0.08946157,-0.030572472,0.0772553],[0.032082494,-0.102222875,0.12283297,-0.07699993,0.05444882,-0.029000212,-0.0105042765,0.026110686,-0.15155406,0.1733452],[0.036508378,-0.12705888,0.033895336,0.07659055,-0.034708064,4.9268745E-4,0.13406514,-0.008875976,0.013040256,-0.10679479],[-0.046985287,-0.040382065,-0.069852166,-0.067923844,0.09464584,-0.053319827,0.09391012,0.072310545,-0.07812615,-0.08260342],[-0.07313963,-0.08961393,0.24659753,-0.14482938,0.060290765,-0.027856098,-0.07973095,0.02229598,0.0061528366,-0.031881575],[-0.07431801,0.025673827,0.16164178,-0.118678525,0.054964174,0.007408812,-0.17044704,-0.13610539,0.11743242,-0.029636068],[0.038987253,-0.13866451,0.02097226,-0.16495132,-0.00221884,0.034538202,0.11689347,-0.1374381,-0.09327544,0.03148723],[-0.102006786,0.032721743,-0.061758794,-0.11448483,-0.1209811,0.0063531087,0.0284398,-0.16148965,-0.07276817,-0.11063768]]}]}},{"fitness":0,"neuralnetwork":{"inputLayer":{"biases":[0.0,0.0,0.0,0.0,0.0,0.0,0.0,0.0,0.0,0.0,0.0,0.0,0.0,0.0,0.0,0.0,0.0,0.0,0.0,0.0],"values":[0.0,0.0,0.0,0.0,0.0,0.0,0.0,0.0,0.0,0.0,0.0,0.0,0.0,0.0,0.0,0.0,0.0,0.0,0.0,0.0]},"layers":[{"biases":[-0.12989256,0.0920579,-0.2502462,-0.113460384,0.0035031114,0.07373011,0.037405312,-0.035792436,0.09483586,0.038278673],"values":[0.0,0.0,0.0,0.0,0.0,0.0,0.0,0.0,0.0,0.0],"inputWeights":[[-0.0680362,-0.068404995,0.0025526984,0.021929557,-0.12051351,-0.0074609555,-0.056325402,-0.15902992,-0.008167582,0.086943954,-0.15300289,0.047443375,0.13878049,-0.06625352,-0.062243532,-0.032605097,-0.018687297,0.042810064,-0.05934634,-0.09424168],[-0.09246815,-0.10627922,-0.08465975,-0.058169067,0.21810217,-0.24361432,0.08660256,-0.10065383,0.009703584,0.07466149,0.0033583802,-0.11161246,-0.053894777,-0.1656544,-0.09533048,0.15828185,0.036871955,0.03296135,0.1984104,0.049664766],[-0.1706051,-0.06701716,-0.1419782,0.061416935,-0.010722153,0.14228226,-0.013220982,-0.074429825,0.081756644,0.09498052,0.13564846,0.09765705,0.10144842,-0.049118467,-0.038450442,0.07135375,0.1281666,-0.10659744,0.019144032,-0.17679341],[-0.05565971,-0.037446894,0.030470438,-0.095894106,0.09854785,0.001962825,-0.0869,-0.11538573,0.027879888,0.1450787,-0.109287076,0.19925153,0.14233284,0.0334521,-0.13004744,0.03384559,0.09376837,-0.040814687,-0.08871023,0.13277769],[3.2682653E-4,0.071493395,0.03710185,-0.18214245,0.015304029,-0.057466608,-0.05500574,0.10951861,0.21072428,0.094711736,0.018289067,-0.13861804,-0.18553297,-0.11443079,-0.061114,-0.004555466,0.010379128,0.015323951,-0.11025572,0.110676944],[0.106460765,-0.019380681,0.14401324,-0.0034324448,-0.06935077,0.08662421,0.11074387,0.014888215,0.05989288,-0.08286393,-0.08132219,0.043016396,0.041396707,-0.062089402,0.10103963,0.011731383,0.08244697,0.13511537,-0.026114365,0.02323044],[0.034092695,-0.061045114,0.16817443,0.107150204,-0.04999488,-0.010828531,0.1781271,-0.04156714,-0.11730064,0.030009232,0.039390452,-0.041145936,-0.2678206,-0.051085003,-0.017333103,0.10979297,0.023213783,-0.01717922,-0.013279141,0.021489684],[0.18744229,0.16166955,-0.023463866,0.08274859,-0.26928407,-0.049477827,-0.022533387,-0.040207278,0.090728946,-0.033166144,0.006997646,0.008183462,-0.058419984,-0.10448421,-0.14203668,-0.114316486,0.06098317,0.06629597,-0.03220778,-0.06530013],[0.014587554,-0.1862366,0.069646955,0.034959964,-0.17571019,-0.10895457,0.026495155,0.2506489,0.062369477,0.06847608,0.1337597,-0.085045636,-0.007089611,-0.079941645,0.03605216,0.018102998,-0.08884584,0.08329418,0.09348547,-0.0934903],[-0.091801144,-0.11713564,0.1501529,0.020795071,-0.03236725,0.116532914,-0.008459011,0.16470757,0.14538844,-0.033166017,0.075832665,0.07378409,-0.09422167,0.10388033,-0.030030541,0.024180707,-0.054348096,0.09747992,0.11385254,-0.11577435],[0.019339658,0.007829128,-0.14882362,0.0679954,0.07984088,0.2175272,0.08609129,0.11761095,0.048898462,0.0358755,0.074404895,-0.10824066,0.095525146,0.13789076,-0.14269237,0.053263053,-0.08569802,0.15831855,-0.12246509,-0.09041156],[-0.0050587296,-0.0911335,0.092638835,0.12412496,-0.16823304,-0.010536916,0.020785125,-0.05437502,0.09063833,0.10022138,-0.11013534,-0.025246667,-0.026885485,-0.1595951,0.16853572,0.08449726,-0.03381429,-0.039215595,0.12731704,0.037775796],[-0.018671922,-0.034150213,0.08320233,-0.059252463,-0.04314129,-0.11256573,-0.022768283,0.0073506553,-0.044013705,0.15551493,0.26505482,-0.109872185,0.029729057,0.04267915,-0.25243193,0.16175771,-0.13656299,0.124154024,0.13980092,0.21674095],[-0.07568232,-0.035213068,-0.25478107,-0.029445708,0.11249779,0.1620618,0.08687361,-0.107008226,-0.018119838,-0.065781526,0.0963992,0.040970936,-0.11772776,0.10377871,-0.10745961,0.16127272,-0.027343394,-0.10450634,-0.11520119,0.0028309436],[-0.043386456,-0.018123318,-0.11416382,-0.0349768,0.0016923292,0.012410057,-0.09074935,0.09240587,-0.29262587,-0.023967495,-0.17365061,0.040499583,-0.18575656,0.17304114,0.048863143,-0.047963887,-0.13559516,0.09547445,-0.006785703,0.15985598],[0.045803044,0.09787476,-0.12410428,-0.12689227,-0.016451677,0.05394862,-0.090818696,-0.06977667,0.12277679,0.09289183,0.09521809,0.00614761,-0.006274943,0.14445373,0.22041833,0.12319315,-0.10242213,0.005323695,-0.13831243,0.021021375],[0.10594117,-0.03911032,-0.1041571,0.17575921,0.13170485,-0.07750379,-0.080621615,0.05139079,0.07789124,-0.04990828,-0.01172739,0.0441766,0.102532215,-0.02587387,-0.116733834,-0.0071756383,-0.015316087,0.014694203,-0.05777824,-0.039668243],[-0.09832347,-0.060957156,0.016910495,-0.1145582,0.07339918,-0.012586239,-0.16657586,0.004252655,-0.07328659,0.04956012,-0.037354447,0.040615585,-0.11941784,-0.07695913,0.02574586,0.047855034,-0.1738753,-0.12096843,0.003796763,0.22990869],[-0.017106514,-0.15719736,-0.07216588,0.055014774,0.093470246,-0.022460908,-0.2247785,-0.12306788,-0.018977528,-0.1517988,-0.035547223,0.031471893,0.08790555,0.035881992,-0.08775008,0.04520659,-0.15827833,0.08502316,-0.024829343,0.08277436],[-0.021852871,0.01799046,-0.08837381,-0.13099779,-0.014994247,0.06561048,0.042488076,0.0049114004,0.105051756,-0.19920364,-0.017277764,-0.12938343,0.16916062,0.053107608,3.9194015E-4,0.1537316,0.030513877,-0.025192445,0.22812967,0.10768781]]},{"biases":[-0.14423493,0.04956644,0.06662071,-0.020688873,-0.13758078,0.11024627,0.058027502,0.013682561,-0.11871919,0.0017516208],"values":[0.0,0.0,0.0,0.0,0.0,0.0,0.0,0.0,0.0,0.0],"inputWeights":[[0.009593353,-0.00773131,-0.0657075,-0.052490305,-0.07817064,0.12020341,0.15073289,0.032484945,0.10668278,-0.16623276],[-0.12593204,0.04235789,0.063507475,0.21347864,-0.048286505,0.020858344,-0.0500159,0.026772216,-0.024672672,-0.047296938],[0.062350288,-0.052355014,-0.014043179,0.11584766,-0.020146698,-0.043885622,0.018818345,0.16342343,-0.03671707,-0.0466501],[0.07759947,0.0069016437,0.121036306,-0.08328053,-0.057359446,-0.07946619,0.040788174,-0.039643977,0.01021867,-0.043192316],[-0.06599091,-0.016904652,-0.07705376,-0.077776164,0.005639179,0.22197685,-0.029232,-0.00632239,-0.024200885,0.060703967],[-0.042927183,-0.11402824,-0.123396404,0.057138037,-0.023798475,0.12151288,-0.059700184,-0.19920896,-0.050073296,0.034830224],[-0.14920096,0.10576625,0.082283184,0.2056082,-0.059638847,-0.06435892,-0.075919874,8.038681E-4,-0.06826737,-0.15859853],[0.0077298176,-0.031798728,-0.087531365,-0.1734653,0.07441466,0.071853414,0.068534695,-0.015221331,-0.22324225,-0.06419848],[-0.0059299376,-0.29288378,0.041622534,0.018375514,0.04334734,0.14445847,0.14999698,-0.022968138,0.15060398,-0.104039796],[-0.1695462,-0.04775518,0.014454109,-0.15301062,0.03071765,0.04254659,-0.004115844,-0.30311203,-0.043497846,-0.18592098]]},{"biases":[0.110553965],"values":[0.0],"inputWeights":[[-0.22630554,0.011145709,0.025080232,-0.044494934,0.24510416,0.084663115,-0.1370179,-0.050670773,0.13695663,-0.20103472],[-0.15404023,-0.107554816,0.077189915,-0.1904161,0.115002945,0.14616443,-0.039953362,0.041257065,0.14356685,-0.13768111],[-0.045121543,-0.022432296,0.02247304,-0.056649882,0.025793068,-0.022159604,0.021446757,-0.13154887,0.06419979,0.025773471],[-0.06005241,0.052382663,0.19309977,-0.17156823,0.024458498,0.028356334,-0.12774295,0.14542572,0.14000772,0.08025889],[0.17951034,0.13325739,0.18043327,-0.056505155,-0.28787652,-0.15898584,-0.15393415,0.027630175,-0.03417446,0.1068506],[0.022172771,0.026328703,0.031781796,-0.12630998,0.07613519,-0.024722366,-0.033210058,0.09224074,-0.073318236,0.09403211],[0.050250534,0.03744562,0.032842908,-0.03207167,0.20834456,0.026962873,0.0037560062,0.032848947,-0.15325326,-0.18439466],[-0.15911041,-0.12853518,-0.08720205,-0.010019364,-0.17641614,0.10896843,-0.011599088,0.0025992703,-0.045690212,0.003555118],[0.102206044,0.1709849,-0.07384365,0.03152245,0.02465289,-0.1918972,-0.0032254423,0.1656512,0.043593496,0.13529208],[-0.11526242,-0.18600033,0.004527538,-0.15027688,-0.07012674,0.0017001837,-0.036656365,-0.06512961,-0.27419287,-0.086773366]]}]}},{"fitness":0,"neuralnetwork":{"inputLayer":{"biases":[0.0,0.0,0.0,0.0,0.0,0.0,0.0,0.0,0.0,0.0,0.0,0.0,0.0,0.0,0.0,0.0,0.0,0.0,0.0,0.0],"values":[0.0,0.0,0.0,0.0,0.0,0.0,0.0,0.0,0.0,0.0,0.0,0.0,0.0,0.0,0.0,0.0,0.0,0.0,0.0,0.0]},"layers":[{"biases":[0.09163061,0.08314152,-0.13861485,-0.09844437,-0.12508808,0.08646582,-0.10405661,-0.22575846,0.014988191,0.0062435116],"values":[0.0,0.0,0.0,0.0,0.0,0.0,0.0,0.0,0.0,0.0],"inputWeights":[[-0.14890563,0.02406649,-0.11500842,0.09731624,-0.24002177,-0.028880749,0.22438891,0.054292575,-0.06048032,0.06765776,0.20959935,0.17641963,9.116899E-4,-0.026917776,-0.19145153,-0.14358106,0.17396115,-0.048519034,-0.06164933,0.008883188],[6.077174E-4,0.017392237,0.06603105,0.034309503,0.0026013663,0.18921636,0.024406997,-0.07198316,0.009317318,0.21549232,-0.07847966,0.011322386,0.019311182,0.07981284,0.0010288974,-0.0865553,0.104632445,0.06512918,0.086454295,0.21906202],[0.050381742,-0.035581876,0.100446954,0.021203944,-0.017560422,1.6136955E-4,0.059578434,0.009584127,0.036258295,-0.022309074,0.09650528,-0.16805275,0.19860832,0.052034866,0.010625638,0.048642486,0.13662782,0.06292493,0.033295672,-0.07606222],[0.10258204,-0.06822581,-0.12176947,-0.04378773,-0.14964075,-0.111103475,-0.08806179,0.024479879,-0.07976815,0.12923792,-0.046824176,0.059376188,-0.06878804,-0.11777317,0.019777728,0.051658724,0.06291008,0.0012754983,-0.14361846,0.035796583],[0.00166804,-0.15788192,-0.0076242853,-0.109204136,0.07129404,-0.0666236,-0.09077143,0.016514871,-0.066420294,-0.2759835,-0.0843302,-0.09013717,0.04428389,0.02896941,-0.12020929,-0.165221,-0.14860553,-0.0043126554,-0.021534063,0.17938456],[0.08479827,-0.052972842,-0.04223939,0.05638042,0.09538449,0.06646254,0.014473974,-0.23257965,-0.08764435,-0.06885069,-0.16880539,0.13976401,0.005854331,0.17470834,0.101572886,0.04743606,0.032055642,0.012625026,-0.007893815,0.013912107],[-0.21066105,-0.1538529,-0.11223014,0.022835672,0.1781436,0.12313428,0.036595393,0.16762762,0.027030202,0.059341762,-0.055779584,0.06327272,0.15610085,0.094748214,-0.024375893,-0.058760855,0.07196656,0.039706673,0.07581079,-0.042079963],[0.0049946993,-0.08430331,-0.0772665,-0.046840604,0.015298688,0.07772313,-0.1580582,0.034472436,0.07252237,0.01640818,-0.067403436,-0.06270972,0.11632809,-0.06843508,0.019890143,-0.06325886,-0.18224122,-0.0053642043,0.023695244,-0.07457043],[-0.036051743,-0.091761686,0.13890925,0.22111471,0.05321354,0.12417329,0.016765397,0.016300691,0.015791984,-0.098191254,-0.13022324,-0.111018635,0.15609297,0.11749647,-0.009558234,-0.20221117,0.013543132,-0.114134535,0.020771457,-0.12530696],[-0.022306351,-0.14170206,-0.15586928,0.011500537,-0.019246602,-0.091413364,-0.23395105,-0.05869617,-0.11517514,0.064070135,-0.07530818,-0.00784805,-0.11928557,0.044002056,0.029982483,-0.03549576,-0.014222568,-0.035821468,0.11027687,0.0010736148],[0.050666377,-0.030373823,0.14033346,0.22879818,-0.07771744,0.04126401,0.015322873,-0.12441025,0.09802087,0.012365686,-0.058966827,0.07322717,0.06872747,-0.03016972,0.08762234,0.046654087,0.020866962,0.1347,-0.0019653258,-0.11372286],[-0.02746084,0.06473706,0.06606999,0.10718609,0.046566635,-0.25788406,-0.03526266,0.062913425,0.066430755,0.05894264,0.052614607,0.10097433,-0.1067035,0.07502282,-0.1516694,-0.056878675,0.030666212,0.0451355,0.1225643,0.020254508],[0.037525132,0.009963097,-0.07869661,-0.055366535,0.18253367,-0.07526415,-0.054449935,0.13886608,-0.16001433,0.066013135,0.021134114,-0.00557477,0.13899535,-0.088954516,0.012507712,0.11374251,-0.010659329,-0.049653802,-0.032985497,-0.020946905],[-0.0024445204,-0.0123000005,-0.1658462,-0.070108086,0.04001405,-0.08023549,-0.16391046,-0.024731385,0.023351444,0.1968336,0.031953134,-0.0048469016,-0.05633499,0.062352132,0.2304907,-0.026725207,-0.14998776,0.089049116,-0.011089847,-0.11682253],[0.113055766,-0.29715738,-0.10764119,0.07397202,-0.06344969,0.09568462,0.005203585,-0.22163406,0.07762898,0.115351915,0.022163905,-0.029946677,-0.14544408,-0.24000591,-0.11906184,0.11523188,-0.11682393,0.08770429,-0.031123158,-0.001409241],[-0.028079389,0.04278788,-0.16501759,0.13091157,-0.040424213,-0.04932396,0.012164385,0.0029890118,0.009939918,0.031173622,0.003964798,0.12109604,0.20019133,0.1074755,0.028980201,-0.11916312,-0.09873117,0.14250416,0.031600855,-0.23580857],[0.019855434,0.048326727,-0.057257902,8.030968E-5,0.13595009,0.08895908,-0.03762502,-0.11138891,-0.118330285,-0.13293464,0.020925635,0.050847027,-0.09937325,0.004696907,-0.0066315285,-0.04417175,0.0070382347,0.009162097,0.010943089,0.18801354],[0.041491646,-0.04987832,-0.064032726,-0.07492627,0.018547757,-0.07870199,0.04502521,-0.08725818,-0.13669215,0.022320122,-0.21108662,0.06163524,0.08197464,-0.12491764,-0.022178447,-0.058365878,-0.1061243,-0.104598254,0.09313375,0.06914571],[-0.023437703,0.03110111,-0.06396834,-0.027778598,-0.0097392015,0.11762101,-0.14796084,0.031047087,0.054721687,-0.15039524,0.013702033,0.010304042,0.011621116,0.016417101,0.1328681,-0.05485102,-0.08420284,9.849814E-4,-0.101227686,-0.10705024],[-0.13518047,-0.07767884,0.016533537,0.114779025,-0.023467815,-0.016701736,-0.06844596,0.0659101,0.09553453,-0.0052643614,0.18460262,-0.0040383143,-0.0755299,0.068092406,-0.041840352,-0.008127857,-0.004640594,-0.08325782,-0.10564207,-0.0687161]]},{"biases":[-0.0843985,-0.04812696,-0.015498351,-9.828579E-4,0.031536665,-0.03985697,-0.11694987,-0.09893783,0.06892165,0.07137633],"values":[0.0,0.0,0.0,0.0,0.0,0.0,0.0,0.0,0.0,0.0],"inputWeights":[[-0.10614065,-0.023753598,-0.19952326,2.1270624E-5,0.09222272,-0.075614415,0.07020156,-0.044995602,0.0020945522,-0.06498112],[0.011542109,0.21220438,-0.10167404,0.18127643,0.057697225,0.052501045,0.0059659765,-0.10771992,-0.06119428,0.15170538],[-0.024458556,-0.0759342,0.049831092,0.112988286,0.07928541,-0.13189381,-0.06633049,0.09673953,0.20445423,-0.036453575],[0.19121641,0.011712022,-0.043814197,0.05814852,-0.01279856,0.13215086,0.018215302,0.06538923,-0.021021986,-0.023471516],[-0.04071607,-0.11836804,-0.21980578,0.020868786,-0.24625027,-0.13879073,-0.11311888,-0.03465398,-0.094943196,-0.07164114],[0.1770848,0.04267246,0.15264834,-0.08106634,0.042224117,0.07296479,-0.13758296,0.11239787,0.038591195,0.003930783],[-0.14496109,0.02349121,0.101669155,-0.11158234,0.16489798,0.14588107,0.048937146,-0.026084373,-0.19712305,-0.048259478],[0.016898237,-0.089031726,0.069358505,0.051891886,0.07700074,0.022144264,-0.030255081,-0.07615808,0.12180321,-0.08954489],[0.055074565,-0.072755724,0.01413287,-0.15007481,-0.076296814,0.1428367,-0.021730997,0.06486345,-0.03750267,-0.0029134506],[-0.0017421304,-0.0132707115,0.060714863,0.08356903,-0.10080494,-0.06334472,-0.1087829,0.0031301777,-0.057474088,-0.020337991]]},{"biases":[0.14757696],"values":[0.0],"inputWeights":[[-0.043706823,0.08387576,-0.10251775,-0.21393761,-0.096460074,0.23900671,0.12352437,0.043461382,0.012618643,-0.04232966],[-0.06888529,-0.12682776,0.055385835,-0.0920935,-0.045041114,0.04286587,-0.12994514,-0.07188168,-0.17430183,-0.047334615],[-0.0713597,-0.0487456,0.03522682,-0.004947004,0.18611862,0.045253538,0.13463579,-0.030029636,0.04879916,0.054277048],[0.0036238348,-0.04430417,-0.115356885,-0.0045756944,-0.056163747,-0.07805724,-0.039688278,0.11720424,0.11987024,-0.105462074],[-0.25230622,-0.012138466,0.0040759533,0.112002976,-0.028351422,-0.084186584,0.18968563,-0.123173,-0.1782222,0.2549288],[-0.016626017,0.03144115,-0.327094,0.059469726,0.10149851,0.11960957,0.064207844,0.08274406,0.14873722,-0.0027602701],[0.05953746,-0.07839346,-0.15770835,0.11441011,-0.088907205,0.06730634,-0.09795291,0.07228656,0.06401482,0.103917435],[-0.11018769,0.07896679,-0.086926654,-0.08510562,0.19824785,0.09726726,0.041132953,-0.001946824,-0.0072593517,0.10511952],[-0.035005953,0.005968351,-0.03719805,0.071108215,0.09855548,-0.034092996,-0.12727158,-0.0067521757,0.1698861,0.05221573],[-0.031127589,-0.15354334,-0.037250362,0.06890336,-0.018155063,-0.09244862,0.053857867,-0.12704146,0.19632465,-0.019082319]]}]}},{"fitness":0,"neuralnetwork":{"inputLayer":{"biases":[0.0,0.0,0.0,0.0,0.0,0.0,0.0,0.0,0.0,0.0,0.0,0.0,0.0,0.0,0.0,0.0,0.0,0.0,0.0,0.0],"values":[0.0,0.0,0.0,0.0,0.0,0.0,0.0,0.0,0.0,0.0,0.0,0.0,0.0,0.0,0.0,0.0,0.0,0.0,0.0,0.0]},"layers":[{"biases":[0.10784708,0.11534987,0.057752788,-0.08209771,-0.024776049,0.10139719,-0.07355338,-0.034705475,-0.043164674,-0.07667991],"values":[0.0,0.0,0.0,0.0,0.0,0.0,0.0,0.0,0.0,0.0],"inputWeights":[[-0.16867223,0.045240626,-0.047175817,-0.021653518,-0.11219008,0.03566968,-0.14774776,0.26670864,0.018626697,0.09116674,-0.0101133995,-0.14900483,-0.11696618,0.020169796,0.04449355,0.12775731,0.07646479,-0.006361655,-0.049636796,-0.11673984],[0.047188938,0.008511223,0.31168276,-0.13680024,-0.028429497,-0.090264395,-0.13114603,0.00916508,-0.010029405,0.06705729,-0.012961942,-0.1184104,0.06906986,-0.05330388,-0.031049697,-0.024656998,3.467036E-4,0.02473964,0.029353349,0.0077567627],[-0.07390952,0.02419035,0.14797497,0.12200952,-0.0034782263,-0.07771212,0.09659894,0.1242799,-0.06234801,-0.0029921785,-0.12648337,0.033252146,-0.035347786,0.121628076,-0.047125008,-0.1803138,-0.09563315,-0.111598045,0.030056557,-0.065016985],[-0.0112055745,-0.044839557,0.16352959,-0.1038762,-0.07457423,0.2560415,0.062288824,-0.13024108,-0.08360274,-0.08875883,-0.12381812,-0.04546685,-0.0010994872,-0.0108054895,0.07546952,0.0362519,-0.122730486,-0.05956277,-0.006233139,-0.17206103],[0.06151569,0.06113423,-0.12225518,-0.15597756,-0.081964836,-0.081354834,0.05364435,0.03105857,-0.04474351,-0.2862839,-0.016704205,-0.018435175,0.10680432,0.04230773,-0.07666819,0.0659591,0.062335815,0.06929157,-0.17239301,-0.08302621],[-0.11266121,0.05266201,0.09334774,-0.03855028,-0.017200097,0.020678353,0.124410644,-0.05523691,0.10303864,0.028579663,0.007296184,-0.11383646,0.06137834,0.05285713,0.05389574,0.26639968,0.10344348,-0.0031969207,-0.17464165,-0.06490296],[-0.03459601,0.0830269,0.09656575,-0.24732636,-0.09597922,0.19574945,0.047035526,0.04161377,-0.17965451,0.032542635,0.13815218,-0.045873888,0.009754433,0.11604906,0.20436022,0.18329836,-0.0631611,-0.06782215,-0.036117777,0.10189094],[-0.08768117,0.039893307,-0.0855641,-0.121549256,0.19780932,-0.08695073,-0.016488723,-0.10049383,-0.20417313,-0.035764787,0.10675613,0.17274785,0.04929002,0.13608772,0.06848759,0.3459498,0.21341304,-0.040341422,0.026955156,-0.070351556],[-0.027160188,-0.09842879,0.21563329,-0.010582323,-0.018446648,-0.021094076,-0.16163555,0.011107177,0.09741874,-0.13125077,-0.048316047,-0.2515484,-0.1250858,0.029524382,-0.08234586,0.117160425,0.075333655,0.1791083,0.09899513,0.004796118],[-0.121474124,0.09763434,0.038312525,0.01764975,-0.009315316,0.069802746,0.23615219,-0.022859195,-0.05971497,0.069991425,0.09937993,-0.03928614,0.19951135,-0.11782313,-0.039640363,-0.22282633,0.09127625,-0.055159736,-0.20367926,-0.11704814],[-0.006906949,-0.15383151,-0.040445294,-0.018464847,0.033295248,-0.08240023,0.006421544,0.07829392,0.117038526,-0.0479036,0.005569876,-0.12610713,0.095581435,0.07412404,0.058429603,-0.20470734,-0.037102383,-0.113883406,-0.016657928,-0.047899347],[-0.016935114,-0.04123803,-0.14609985,-0.057310816,0.0376105,0.21133539,0.0016948953,-0.04447064,-0.08051579,-0.052249834,0.041373685,-0.04981999,0.030367749,0.09745319,0.106379285,0.098000206,-0.039735474,-0.00312186,-0.09724958,-0.08368911],[-0.16631478,0.035805948,0.03574022,0.079982296,-0.11272653,-0.10542025,-0.023939507,0.021733452,-0.006882756,-0.12177268,-0.06425576,-0.0483133,0.060774464,-0.054043617,-0.11747345,-0.0365343,0.1745543,0.053251687,0.17837541,-0.06681056],[0.11299545,0.15861279,0.06523011,0.02131483,0.054830413,-0.15170833,-0.04585339,0.12982847,0.14636607,-0.044624574,0.10465923,-0.08789529,-0.03171584,-0.15104896,-0.062091123,-0.07496356,0.14981602,0.0327877,0.034118325,0.08670724],[0.037601642,0.040759534,-0.063203275,-0.07852201,-0.024361065,0.13959457,-0.020103555,0.017420584,5.175554E-4,-0.058643624,0.29423994,-0.10111407,-0.071750805,0.3203843,0.06675082,-0.064069964,-0.10630144,-0.09497366,-0.05592941,-0.014317723],[0.23088239,-0.098597586,0.0743517,0.08843605,-0.14615601,-0.15979512,-0.103403024,-0.15755142,-0.10892003,-0.013832371,0.13474116,0.16718557,0.08376009,-0.03251871,0.17586549,0.12456525,0.114988685,-0.10051417,0.0942759,0.017424757],[-0.08103407,-0.11852244,0.065450534,-0.057998203,0.18329915,-0.02201698,0.010955078,0.052891232,0.005881324,0.093988605,-0.07957656,-0.027201064,-0.13814552,0.06826229,-0.09690751,-0.063853025,6.5820022E-6,0.13955386,0.04157158,-0.08928641],[0.024861442,-0.04414216,-0.028834723,0.20559321,0.09637518,0.21665624,-0.04073026,-0.093854345,-0.044506017,-0.07311266,-0.09980744,-0.2255851,0.06502261,0.09155191,-0.176363,-0.0120065315,-0.19604948,-0.16917737,-0.07404291,0.13230205],[-0.11516632,0.017432509,0.14203723,-0.07960342,0.018279,-0.16052523,-0.06770322,-0.073699154,-0.11718124,-0.0073244674,0.15322632,0.0022425225,0.21562652,-0.20834908,0.024107393,0.09502656,0.13005675,0.14421304,0.11011782,0.08403424],[0.059289772,0.041114528,0.0955093,-0.1616251,0.053929698,0.09043122,-0.00865319,-0.086292215,0.024552096,-0.20593573,0.07432241,-0.061173778,0.17379123,0.05305921,-0.006148003,0.06453228,-0.13892701,0.1282268,0.013190037,-0.16781953]]},{"biases":[-0.08756828,0.24362357,0.0341797,0.12936461,-0.048359282,-5.31103E-4,0.012592463,0.1229138,0.053679124,-0.005296855],"values":[0.0,0.0,0.0,0.0,0.0,0.0,0.0,0.0,0.0,0.0],"inputWeights":[[-0.10508577,0.05233865,-0.11709915,-0.0063208286,-0.09850082,-0.02934065,-0.01463371,0.03879981,-0.06908278,0.06975163],[-0.11214973,-0.07716777,0.036409233,-0.057633072,0.12576596,0.1950533,-0.100010075,-0.03395971,0.010419448,-0.21589544],[0.025057068,-0.11176051,-0.06430512,-0.06581981,-0.19078219,-0.014137242,-0.041418772,0.006497281,-0.010469275,0.012498972],[0.24247181,0.013959788,-0.13852727,0.012461167,0.07401525,0.0065067043,-0.033650022,-0.01273352,0.04354553,0.09604391],[-0.03530508,-0.073207766,-0.14997311,-0.041779406,0.018239401,-0.110152245,-0.19241187,2.5477164E-4,-0.11446388,-0.17378718],[0.06413473,0.105931945,0.059059195,0.0034096732,-0.018813489,-0.054623812,-0.06454179,-0.038352337,0.0024517023,-0.023130946],[0.15531594,0.02930199,0.08955602,-0.038648263,-0.07656237,0.17161343,-0.18414353,6.847992E-4,-0.09611589,0.072016954],[0.01270384,0.08586748,0.032742813,-0.07672945,0.12097395,0.07124696,0.14509843,0.085667856,-0.0026905667,0.012185099],[-0.047591347,0.014013322,-0.017914576,-0.10539987,-0.15398388,0.12152421,0.12678781,0.27027,-0.13567674,-0.008965567],[-0.032392167,-0.036851905,-0.039984956,-0.050587866,-0.091613,-0.05533678,-0.13379268,0.015294153,-0.18071851,-0.011337516]]},{"biases":[0.15002666],"values":[0.0],"inputWeights":[[0.13268644,0.00696485,0.07491465,0.032195326,-0.14358597,0.0013309198,0.02113659,0.047140185,0.10095367,-0.05656746],[0.14687978,0.14114909,0.13304913,-0.04711615,0.020943861,-0.060857266,-0.12496554,0.17141263,-0.24060507,-0.11906349],[-0.121738896,-0.1264242,0.13467146,0.11874265,0.08440292,-0.115952484,-0.02713355,0.12959324,-0.08117064,-0.023409627],[-0.018300042,0.007828421,0.085588746,-0.0022285485,0.110536374,0.056698907,-0.07368996,0.08698882,0.12835404,-0.13899273],[-0.094880134,-0.07008161,0.03654629,0.027443206,0.06694554,-0.10218137,-0.09313624,-0.084225155,-0.10731531,0.07596617],[-0.025890462,0.017711286,0.19207923,-0.06340321,-0.08955055,0.008938587,-0.18984035,0.05740283,0.026671771,-0.0978112],[0.03033556,-0.064094335,0.16016166,0.16738527,-0.004713639,-0.09551981,0.07242552,-0.023282785,0.2575495,0.092817955],[0.05740851,-0.31050125,0.08105396,-0.062153883,-0.18453324,-0.09196192,0.0018034022,-0.17803413,-0.0033994268,0.07302535],[0.027627092,0.2583983,0.053651493,-0.1308264,-0.11781465,-0.020224812,0.02196715,0.09541297,-0.10541968,-0.029389938],[0.089635655,-0.12996091,-0.14591415,0.044099953,-0.20833887,-0.075754836,-0.089644544,-0.038258716,0.12620088,-0.14917403]]}]}},{"fitness":0,"neuralnetwork":{"inputLayer":{"biases":[0.0,0.0,0.0,0.0,0.0,0.0,0.0,0.0,0.0,0.0,0.0,0.0,0.0,0.0,0.0,0.0,0.0,0.0,0.0,0.0],"values":[0.0,0.0,0.0,0.0,0.0,0.0,0.0,0.0,0.0,0.0,0.0,0.0,0.0,0.0,0.0,0.0,0.0,0.0,0.0,0.0]},"layers":[{"biases":[0.08357554,-0.019645311,0.17056482,-0.06977983,-0.017716018,0.015641667,-0.0033277916,0.02442585,0.07592393,-0.015663374],"values":[0.0,0.0,0.0,0.0,0.0,0.0,0.0,0.0,0.0,0.0],"inputWeights":[[-0.019196628,0.015095409,0.04537204,-0.007252163,0.1589099,-0.03005949,-0.17337044,0.072425894,0.052715,-0.115600094,-0.007345571,-0.13018405,0.09013341,-0.109786525,-2.1610458E-4,0.0015248535,-0.24358281,0.09841295,0.14740497,-0.04173684],[-0.054176085,-0.23387097,0.028335731,-0.1765694,-0.05166387,0.05234518,-0.056472868,0.100502454,-0.108320706,0.27660322,0.059531588,-0.14830759,-0.08985624,-0.003790967,0.17820865,0.04906434,-0.14206518,0.05435934,-0.1252215,-0.122324],[0.16665976,0.012140245,-0.034238134,0.045257956,-0.13785188,0.07849331,-0.06905511,-0.116460234,-0.109155625,-0.11148861,-0.11907413,0.055217285,-0.13266364,-0.046004415,-0.048073504,0.019115003,-0.007634586,0.020824663,-0.089797944,-0.028347593],[0.035053372,0.1490734,-0.031927787,0.0052751894,-0.07325266,-0.058791056,-0.081965655,-0.055800106,-0.17972694,-0.101909876,0.012523986,0.1002896,-0.22444691,-0.05119501,0.0162473,-0.006512951,0.002949155,0.07637291,0.07344714,-0.13484251],[0.10324616,0.15187597,0.1031871,-0.15469268,0.10552884,-0.09307401,0.22819453,-0.17008603,0.078928806,0.058064353,0.05101702,-0.15802978,0.0991415,0.07856218,0.15877703,0.068227954,-0.09393697,-0.036868215,-0.068217635,0.04236891],[-0.028662577,0.0066780676,0.1278366,-0.13957126,-0.04367953,0.1522887,0.06995787,0.059794944,0.15409318,-0.116016805,0.0734796,-0.06830054,0.20736192,0.14205489,-0.022970539,-0.101621,-0.11418246,0.017140241,0.059161358,-0.089844555],[-0.0032951154,-0.03519926,0.115676716,-0.09339805,0.078310736,0.10509739,-0.007855898,0.15535277,-0.018460095,0.08662539,-0.10965938,-0.017640043,0.09283996,0.010097766,-0.045992635,-0.1431758,0.04387955,-0.018686572,0.086973466,-0.059078313],[-0.005842882,-0.22118725,-0.17803617,0.01639877,-0.1532411,0.10245069,-0.20341681,0.10742048,-0.009138688,0.11597717,-0.072875,0.2829727,-0.12852025,-0.12737851,-7.436865E-4,0.022575075,0.08343313,-0.06497047,-0.0062815533,-0.17818892],[0.05052316,-0.018384285,0.10637493,0.048793033,0.13887058,0.16474363,0.1692953,-0.017963683,0.030491201,-0.10910218,0.09451934,0.052939642,-0.18012883,0.067716435,0.3225393,0.048814185,0.036622062,-0.17093676,0.012822903,0.07474159],[-0.016339015,0.0051151477,-0.023850268,-0.09267754,-0.105996884,-0.02199349,0.046318736,-0.03140464,-0.0026428201,-0.10001959,-0.054621812,-0.043760553,0.06562873,-0.047715988,0.015730398,-0.018737229,0.1477992,0.14436756,-0.07561406,-0.1385171],[0.16856767,0.01364172,0.09860082,-0.022037022,0.09860516,-0.1092493,0.015117377,0.11787478,-0.13351937,-0.11572912,-0.13738789,0.07994386,0.13059777,0.15461382,-0.050857663,-0.03196887,0.04134703,0.037178017,-0.13773593,0.056042153],[-0.16319087,-0.02578192,-0.036830842,0.15373176,-0.0063720886,-0.032248568,0.058870606,0.17625464,-0.0064015584,-0.023371475,0.09807734,-0.13488871,0.0025186012,-0.14071204,-0.13259757,-0.02005614,0.19740507,0.028849777,-0.008942999,0.17578708],[0.05118501,-0.13242197,-0.08852288,0.12105975,0.012474802,0.12023808,0.10448348,0.08736991,0.08442722,0.09719277,0.006860784,-0.18882681,-0.10699978,-0.055756312,0.25204816,0.098569065,-0.034456305,-0.0034457901,-0.11133005,0.19684948],[0.10591764,0.023254717,0.2456472,0.018734172,-0.0070844507,-0.03137508,-0.038354438,0.14240965,-0.01929068,-0.016343962,-0.06006068,-0.15387955,0.096222155,0.16884866,-0.07093,0.09514952,0.12510674,0.015533925,0.002296969,0.11040918],[-0.062202927,0.0660516,-0.093753465,-0.10863066,0.055144615,0.105118,-0.15657368,-0.01122253,0.083531916,0.09490493,-0.14898466,-0.122254595,0.11733529,0.055660576,0.24234506,0.04676423,-0.06480254,-0.06892522,0.13299252,0.07249454],[0.059739064,0.012518266,-0.08662521,0.07895382,-0.037723176,0.04855656,-0.12425653,0.07307327,-0.098551445,0.04378253,0.02242586,0.13764507,-0.17528787,-0.1419846,-0.01101182,-0.029065983,0.10493733,-0.15102752,0.057694316,0.016322654],[0.07079138,0.05820975,0.12575151,0.108263806,-0.08352099,-0.03926386,0.15324579,-0.023196401,0.07947097,0.11513537,0.051014636,-0.1442138,-0.038199704,0.16758184,0.015319736,0.16027164,0.14053497,0.01661001,-0.11479971,-0.042844843],[0.0034457233,0.07493026,-0.0019743287,0.059007775,-0.0010279518,0.0028387788,-0.047310907,-0.06277531,0.1678216,-0.008194045,-0.03054263,-0.10025949,0.025305789,0.12955654,0.008548092,0.012622711,0.054865316,0.03002887,0.0685819,0.24173959],[0.12062864,-0.07155249,-0.016438775,0.05607899,-0.062211134,0.15266095,-0.052126214,0.1705882,0.01610928,-0.17390992,-0.080916,0.09158142,-0.024590438,0.033022,0.063729085,0.0614364,-0.020838957,0.019858684,0.08048232,-0.16500549],[-0.079525605,0.040163163,-0.048179537,-0.029206395,-0.09497422,0.084647246,0.009134545,0.080648795,-0.027304996,0.21879442,0.18905632,-0.09369228,-0.047369774,-0.008878152,0.0760217,0.10361457,0.030037872,0.024681127,-0.09926702,-0.015395406]]},{"biases":[-0.025982281,0.08671497,0.045996122,0.26991022,-0.0043689804,0.14979056,-0.02646343,-0.014265942,-0.019983118,-0.046094198],"values":[0.0,0.0,0.0,0.0,0.0,0.0,0.0,0.0,0.0,0.0],"inputWeights":[[-0.07151083,0.13343005,0.04550272,-0.0068137906,-0.18976615,0.02084934,-0.038463812,0.11308409,0.07196156,-0.17020144],[0.045508992,0.10821766,-0.1278749,-0.039614458,-0.15655491,0.010668763,-0.12688926,-0.026177756,-0.016812827,0.18581174],[-0.1221837,0.030423462,-0.028110808,-0.06151621,-0.12830427,-0.10733225,-0.11905285,-0.056478865,-0.0061238264,-0.22371851],[-0.013598978,-0.069471404,-0.041917928,0.05469941,0.007478548,0.05603057,0.074997135,-0.05467795,-0.011600062,-0.19335975],[0.009885612,0.06602274,-0.007962571,-0.18583234,-0.035265725,-0.15528026,0.066293955,-0.019223044,-0.028266363,-0.19297431],[0.08137106,-7.9518235E-5,0.018530147,0.011195093,-0.019287322,0.15693353,-0.26305157,-0.088887244,-0.1760697,0.05889417],[0.11895582,-0.050705686,0.013953223,-0.15547353,-0.005155487,0.114659615,0.2672443,-0.107883506,-0.03639822,0.15221119],[0.049078763,0.10038274,-0.07276556,0.0117143765,0.08934542,0.07953026,-0.2474735,0.16135262,-0.094509035,-0.06420179],[0.117003106,-0.17158087,0.13987853,-0.039441284,-0.106376044,-0.12177046,0.16670674,0.0013967076,0.051367875,0.059064217],[-0.021634066,0.025132459,-0.11345589,0.05312335,-0.029227652,-0.102853365,0.14241223,0.14996053,0.030233394,0.123277485]]},{"biases":[-0.11617645],"values":[0.0],"inputWeights":[[0.06664973,0.04086035,0.05488653,0.010616342,0.055100907,0.04108648,-0.046847727,0.081800275,0.023285726,-0.18218414],[-0.012142805,-0.046854954,0.078779176,0.067416474,-0.14968021,0.12196495,-0.009902974,-0.037154928,-0.07985751,0.13998401],[0.017513772,-0.017015096,-0.018009849,0.03545371,-0.0045303856,0.12524676,0.03922764,0.021474747,-0.028015258,0.12492086],[0.019890143,-0.027352206,-0.19733594,-0.022352926,-0.018538065,0.049815726,-0.02758443,0.030888634,0.059788875,-0.20564395],[-0.040371448,-0.054067902,-0.103244476,0.0975013,0.1826804,0.050188344,0.030945214,-0.04131146,-0.0038430188,-0.06563681],[-0.03335526,-0.105533816,-0.03127112,-0.09687046,0.04652868,0.109595716,0.10356728,-0.0061957873,0.03337809,-0.05232616],[0.10057465,-0.25183666,-0.09660463,0.17237312,-0.274783,0.07716848,-0.12003099,-0.006178765,-0.007302083,-0.05369733],[0.101477146,0.047905058,0.049569216,0.042828493,0.118509516,0.14178255,-0.087494574,-0.016277872,-0.083913624,0.07645139],[-0.17319368,0.03797789,0.20817289,-0.0602524,0.05071237,-0.10553266,0.055147205,0.015017734,0.16439082,-0.22484307],[-0.060508724,0.114950426,0.14787766,0.07782751,-0.1242133,-0.13016845,-0.067041226,-0.117049806,0.19355439,-0.034958903]]}]}},{"fitness":0,"neuralnetwork":{"inputLayer":{"biases":[0.0,0.0,0.0,0.0,0.0,0.0,0.0,0.0,0.0,0.0,0.0,0.0,0.0,0.0,0.0,0.0,0.0,0.0,0.0,0.0],"values":[0.0,0.0,0.0,0.0,0.0,0.0,0.0,0.0,0.0,0.0,0.0,0.0,0.0,0.0,0.0,0.0,0.0,0.0,0.0,0.0]},"layers":[{"biases":[-0.14560021,-0.051561352,-0.032076783,-0.1741103,-0.12793544,0.038866505,-0.12727883,-0.054416966,-0.15159322,-0.107288405],"values":[0.0,0.0,0.0,0.0,0.0,0.0,0.0,0.0,0.0,0.0],"inputWeights":[[0.05937265,0.13877213,-0.0645566,0.056395162,0.053375352,5.9040956E-4,-0.0729708,0.012517763,6.89156E-5,-0.082970195,-0.02570439,0.2666978,-0.071494125,0.03699423,-0.06565784,0.15191834,0.0042632604,-0.02115435,0.13266848,-0.04963643],[0.039880745,0.023029555,0.091945715,0.06674789,-0.119755305,0.015939586,-0.05959417,0.10418021,0.20746513,0.14881517,0.09346286,-0.06450729,-0.06967023,-0.022813922,0.19408447,-0.057581756,-0.15654546,0.14235802,-0.036252834,0.06407173],[-0.15143043,-0.26889876,-0.15464662,-0.078182496,0.02197596,0.09956768,0.07230685,0.045146815,-0.10414574,0.073099874,-0.11474263,0.20129679,-0.17210785,-0.013208591,-0.01257145,0.15951316,0.11633121,0.014759875,0.09383942,0.06114767],[-0.14712422,0.12916088,-0.20383193,0.1520255,0.023919456,-0.09925945,0.27373496,0.19978465,0.16928841,0.046565883,-0.063423626,0.07143086,0.012924528,-0.008699079,-0.03804369,0.022056863,0.07772512,0.056481823,-0.011442036,-0.08202801],[0.016716635,-0.016270408,0.017967956,-0.025518375,-0.1185261,-0.059179824,-0.07622489,0.15550172,0.13493465,0.05108378,0.11103049,0.036821324,0.09434765,-0.07225406,-0.063218705,-0.07045401,0.03937663,0.07424796,0.11612799,-0.08896709],[-0.055407085,-0.10059401,-0.0073429286,0.032613184,-0.0017818216,0.10162723,-0.19755135,-0.10925422,-3.5594855E-4,0.1954808,-0.10541429,-0.0067816097,-0.11292575,0.05262026,-0.07896351,0.077659495,-0.029298315,-0.09102809,0.06588731,-0.051779002],[0.17337099,-0.0629444,0.015459233,-0.011135986,0.0067461235,-0.07532858,-0.031201722,-0.0017685479,-0.0033312656,0.16735297,-0.04708028,-0.07981984,-0.09126941,-0.03559705,0.12563993,-0.018816078,-0.08125271,0.06705556,0.15707065,-0.0720363],[0.03832033,-0.10518465,-0.08344324,-0.055756044,0.006761848,-0.18206617,-0.06017367,-0.02700569,-0.0044938363,0.007551127,0.021370163,-0.05369344,-0.12724937,-0.037439257,0.13673244,-0.009178613,0.03477611,-0.069637544,0.047228683,-1.5959292E-4],[-0.017129337,-0.07122635,-0.00718516,-0.037593555,0.3364871,-0.086729504,-0.1977332,-0.016281327,0.10070581,0.17967503,-0.01769999,0.02503804,-0.09019983,-0.03948818,-0.08687743,-0.17073177,0.104750685,0.058358118,0.06889398,-0.17229675],[-0.004874279,0.1090499,-0.12924398,-0.12674211,0.10398366,0.017434597,-0.061947245,-0.074914604,0.117980056,-0.23954763,0.15217994,0.05871405,0.031020986,0.1514591,-0.12335408,0.014646981,0.23106822,0.008697841,0.17593884,-0.114306375],[-0.053903457,0.21086621,0.13920265,0.005148581,-0.035367735,-0.0695732,0.1937977,0.059929274,0.10350122,-0.049414825,-0.010591824,0.046195038,0.19379286,0.016852126,-0.03239687,0.15435854,-0.008045603,-0.13550235,-0.032484856,0.024538588],[-0.05782807,-0.062108062,0.12570539,-0.021827769,0.036947135,-0.019660866,-0.13511065,-0.004471203,0.13026622,-0.014654903,-0.26647013,0.17201017,0.033375707,-0.06038188,0.049002293,0.024203531,0.20582928,-0.12348533,0.06439679,0.05002891],[-0.05431865,0.056074113,-0.07431504,-0.09013822,-0.04119249,-0.05225012,0.008857242,0.1151919,0.027592996,0.01802215,0.21637224,-0.09059111,-0.13333765,-0.09917271,-0.258977,-0.060700193,-0.0070147775,0.20796697,0.006167679,0.08464875],[-0.10507291,0.084037356,0.07250471,-0.05252405,0.07640123,0.018710166,0.13049088,-0.21652442,-0.067045435,-0.05141274,0.10017459,-0.06276101,0.081510685,0.0789397,-0.018388418,-0.08358093,0.050076213,-0.018977022,-0.21743046,0.029354405],[0.045064084,-0.076419674,-0.08721347,0.07692242,-0.07127761,-0.005003916,0.04238474,0.04071586,-0.038344778,0.16843548,0.05281074,-0.054983057,0.1992732,-0.03314083,-0.05695011,-0.0639841,-0.045608304,-0.07486325,0.18133673,-0.124114476],[-0.025539955,-0.16669169,0.06561088,0.07696038,0.012084018,0.01814753,-0.030631354,0.079159476,-0.15626043,0.05755239,0.2317431,0.003998805,-0.21253468,0.107008934,-0.1723545,-0.06282878,-0.02205315,0.034336552,-0.0261277,0.16168293],[-0.17411023,0.02308986,-0.025692306,0.09933934,-0.07453294,0.05583871,0.052982435,-0.10601226,-0.025136506,0.14004858,-0.0011999572,0.23308054,-0.06715993,0.06040806,-0.14039703,0.04363246,0.16904016,0.25333527,-0.021546872,-0.1066464],[0.1424497,-0.1724438,-0.058826063,0.15826079,0.12898166,0.10895756,0.042038504,0.05600279,-0.03087413,-0.027013624,0.08396421,-0.15476541,0.064260714,0.036749475,0.18707386,-0.11581277,4.5159034E-4,0.0075710504,0.14047222,-0.07212364],[-0.0622626,-0.10424439,-0.021961099,-0.0643719,0.022757567,-0.082531415,-0.11015521,0.081835635,0.07186755,0.05587282,0.06262075,0.009640071,-0.046752147,0.086576276,0.016254736,-0.10654938,0.06451038,0.037431594,0.12897196,0.032225788],[-0.0829451,-0.07096043,-0.04813889,0.027492,-0.12185895,0.13160942,0.050598823,0.02673328,-0.04050758,0.0016101713,-0.10301377,0.1515294,-0.0033269536,-0.021990461,0.023610178,0.065332115,-0.09310744,0.039798807,0.14806584,-0.083913445]]},{"biases":[0.049642775,-0.02986295,-0.119557664,-0.008292033,0.032904126,4.563878E-4,-0.12948954,0.08216912,-0.06338374,-0.027511034],"values":[0.0,0.0,0.0,0.0,0.0,0.0,0.0,0.0,0.0,0.0],"inputWeights":[[-0.006389542,-0.12756763,0.21434346,-0.23397367,0.09709039,0.14944988,0.07755064,0.094694525,0.0032797283,-0.04309149],[-0.063797936,-0.045564726,0.015196867,-0.13568917,0.037745215,0.106066,0.08696527,0.082048886,-0.13064858,0.0011773002],[-0.022823224,-0.10441229,-0.037476923,0.005113943,-0.23585194,0.13916475,-0.03697434,0.13307361,-0.121966854,0.24747339],[-0.037951477,0.07000458,-0.08811907,-0.003442879,-0.009414569,0.109724306,0.10028164,0.115413666,0.014318253,0.03229143],[0.14319608,0.042126767,0.06372563,0.13218692,0.061241854,-0.14019278,-0.037255675,-0.096829176,0.13615675,-0.07265273],[-0.12460567,-0.0045201583,0.1530399,-0.0089262845,-0.097641714,0.08771074,-0.02580194,-0.019224463,-0.07276149,0.09656193],[0.055162273,0.054293167,0.109519385,0.116611436,-0.033649985,-0.03202838,0.08736115,0.047160584,0.011381227,0.0066308817],[-0.08737291,-0.039487805,-0.09733518,0.010072462,0.12203047,0.018830422,-0.031322278,-0.061698668,0.010435085,0.0904704],[0.20395063,-0.07247463,-0.13073362,0.009525942,0.09316757,0.120908216,-0.14944935,-0.06782414,-0.08018304,-0.076640345],[0.017207464,0.17833306,0.097422026,0.2118742,0.09124172,-0.08704607,0.026453763,-0.0329259,-0.008269984,0.048612963]]},{"biases":[-0.25127545],"values":[0.0],"inputWeights":[[-0.17543347,0.1685237,-0.05964791,-0.012294213,-0.072374396,-0.055887822,0.08089009,-0.10202356,0.06571301,0.09247773],[-0.0071909893,-0.13630722,-0.051448237,-0.022032399,0.08541059,-0.076743565,0.016357765,-0.05197622,-0.034874283,0.062535025],[0.133969,-0.04614223,0.008639429,0.01802212,-0.051001135,0.0019628028,-0.12907605,-0.019491374,-0.024454046,-0.098651536],[-0.08499372,0.07471079,0.07369864,-0.09321399,-0.016740508,-0.10838671,-0.13915645,0.014518868,-0.031246157,-0.014832438],[-0.0376411,-0.08371869,0.20235576,-0.01011296,0.14611031,-0.043345228,-0.095216736,1.3463173E-4,-0.05388861,-0.095138274],[-0.034404896,0.008648338,-0.140289,0.06381671,0.07043662,-0.15834782,0.022895096,-9.918171E-4,0.1266007,-0.090731986],[0.019879166,-0.013087854,-0.13513318,0.06801698,-0.117843986,0.08859392,0.09414457,0.061449133,0.016244918,0.006276523],[0.0067234864,0.030266877,0.010755431,-0.09749819,-0.0071467306,0.02212961,-0.015960455,-0.011053191,-0.1651043,0.10273756],[0.00458224,0.1450685,0.03524725,-0.11545175,-0.034899566,-0.040671326,-0.089785606,-0.17913546,-0.09011455,-0.0024802652],[0.04569942,-0.06042106,-0.12059009,0.031685084,-0.035669334,0.09370147,-0.069694124,0.024048338,-0.058948882,-0.06367972]]}]}},{"fitness":0,"neuralnetwork":{"inputLayer":{"biases":[0.0,0.0,0.0,0.0,0.0,0.0,0.0,0.0,0.0,0.0,0.0,0.0,0.0,0.0,0.0,0.0,0.0,0.0,0.0,0.0],"values":[0.0,0.0,0.0,0.0,0.0,0.0,0.0,0.0,0.0,0.0,0.0,0.0,0.0,0.0,0.0,0.0,0.0,0.0,0.0,0.0]},"layers":[{"biases":[-0.07619739,0.064833716,0.09529299,-0.033186052,-0.18232219,0.14353998,0.05098353,0.075739056,-0.18176524,-0.07500999],"values":[0.0,0.0,0.0,0.0,0.0,0.0,0.0,0.0,0.0,0.0],"inputWeights":[[-0.012192391,-0.09397904,-0.034692407,0.021658858,-0.07193765,-0.012651569,-0.2663375,-0.100345716,-0.016435398,-0.1585112,-0.006725358,0.021892475,-0.10380436,0.12464935,0.014443848,0.07426732,0.016393369,0.033798616,0.2159958,-0.14730185],[0.034852944,-0.057551276,-0.13836417,-0.014005265,-0.052812397,0.12779848,-0.11505849,0.04777675,-0.098311536,-0.13662648,-0.08755489,0.09098714,-0.007409082,-0.072841026,0.1430125,-0.014257343,0.05204452,-0.062774405,-0.11659698,-0.05948062],[-0.05144629,0.11047351,0.078624696,0.15994963,-0.043615248,-5.6185563E-5,-0.114557795,0.071180016,-0.22911505,-0.086494364,-0.03351114,-0.025516756,0.038637187,0.15939419,0.066367626,0.08486745,0.12750064,-0.015576601,0.0042896233,0.112622835],[0.07897281,0.03307599,-0.06432385,-0.0074566184,-0.066295594,-0.17458397,0.00439311,0.06011082,-0.082974754,0.009137575,0.2582954,0.09754466,0.053537287,-0.048205674,0.07295047,-0.16376686,-0.10009073,-0.0448974,-0.19918488,0.108098075],[0.049188852,0.04527094,0.16141148,0.03735278,0.14654739,0.03519661,-0.020963289,-0.042795643,-0.06481677,0.015420716,-0.023171611,0.078158125,0.08125128,-0.08064303,0.04592404,0.06494988,-0.14723054,-1.5533005E-4,0.15556616,-0.15258865],[0.08329211,0.32555246,-0.13295636,-0.18781874,0.095034294,0.009528035,0.018004498,0.038510397,-0.04080938,0.05500883,-0.2442405,0.053969275,0.11276794,-0.026909433,-0.06427211,-0.056609124,0.09631085,-0.04327939,-0.010802965,-0.15778948],[-0.072143964,-0.12183949,0.054073174,0.02394918,0.04304345,0.09473052,-0.028146366,0.005813426,0.006375188,-0.019667048,-0.024463257,-0.012780739,0.0994107,0.075597286,-0.05291108,-0.059766736,0.1756243,-0.019207703,0.017423678,-0.035027724],[-0.012736722,-0.01857451,-0.06948612,-0.02868685,0.028923765,0.051548235,0.009612386,0.03299954,0.13698858,-0.14082584,0.03302158,-0.017060997,0.0023226128,0.16204916,-0.1756121,0.10603539,-0.06349763,5.62903E-4,-0.002607975,0.085440375],[0.133781,0.03545078,0.12814157,0.10929576,0.02881274,0.020149808,-0.011155232,-0.22433604,0.08021546,-0.09419671,-0.07868859,-0.031210775,0.009614309,-0.052175913,-0.100040175,0.07406583,0.17632645,-0.029233722,-0.22589524,0.08264271],[0.06263624,0.004333044,-0.067348294,0.16761947,0.25581625,-0.062982164,-0.117594674,-0.054485843,0.011562643,0.013813945,9.0385816E-4,-0.04002303,0.035367936,-0.110213466,0.03439163,0.025813429,-0.0053847735,-0.082687624,0.11028263,-0.012711933],[-0.013437688,0.015917566,0.13243304,-0.028541148,0.046249058,-0.00666272,0.09119675,-0.08721798,0.10117489,-0.06660284,0.07109111,0.04198061,0.14592586,0.07669937,-0.05470481,0.072300605,-0.009601199,-0.053821396,0.010779792,0.08597302],[-0.033823315,-0.034011167,-0.088515304,-0.042534776,-0.027698698,-0.045505643,0.2832441,0.0449483,-0.020252401,-0.05404557,-0.15714404,0.12650526,-0.04397983,0.084086,0.034491226,0.055183325,0.049861204,0.014751636,0.13617761,0.04859083],[0.08346779,-0.093594156,0.18713884,-0.21051545,0.04593996,-0.17102684,-0.011240866,0.037841737,-0.013998606,0.0064832796,0.16967902,0.07815758,-0.08669469,-0.04501226,0.082106404,-0.012373587,0.102781765,-0.005719853,-0.14020494,-0.04018734],[-0.0366769,0.011300281,0.085123084,-0.025751282,0.108520254,-0.14817841,-0.08114476,0.08813913,0.0010281154,0.06074627,0.09204967,0.055717528,0.010083775,-0.032146875,-0.04975508,0.07354917,-0.08980314,-0.18154001,0.07190191,-0.022670189],[0.10658285,-0.0035052388,0.20514151,-0.03805083,-0.09530135,0.21949846,0.023653384,0.031523,0.045873046,-0.0214728,-0.120144606,-0.040827226,-0.13095243,-0.14370489,-0.05793684,0.03658487,-0.17511281,0.044826254,0.06279085,-0.15634783],[0.077469006,0.021477219,-0.047454555,-0.11535038,-0.040291846,0.06073735,-0.120458215,-0.17764544,-0.022597497,-0.027905183,0.13606471,-0.13974197,-0.04932128,0.17057647,-0.08289523,-0.07088174,-0.081556454,0.15206628,0.15433681,0.123202845],[0.038012274,0.048050486,0.043933492,0.029729823,0.007129477,0.15439862,0.088051334,0.06658954,0.07268166,-0.13598205,0.07495907,-0.039532322,0.119202465,-0.14220618,0.09959179,0.024903383,0.011013463,0.074231856,0.12629056,-0.093872696],[0.30235416,-0.06520065,-0.16949369,-0.0055833445,-0.119047016,-0.05640131,0.06456043,0.096273564,-0.02259098,0.04299658,-0.09484108,0.105127454,-0.044431914,-0.0045517273,-0.012319093,0.09290388,-0.13619334,-0.0053476426,0.038452324,0.1996049],[0.03419301,-0.16724655,-0.018656127,0.27107498,-0.03814885,-0.048193093,-0.10609978,0.22537081,0.10821517,0.112397596,0.07994181,0.023486532,-0.0091449395,0.08718807,-0.18888855,-0.17621112,0.32725173,0.082346685,-0.062349625,-0.054779083],[-0.004051592,0.04471831,-0.0021116796,0.01854258,0.029202612,-0.14548443,0.18110164,-0.16476883,-0.029127885,0.04266689,-0.05493203,0.21428198,0.06644321,-0.03583728,-0.077328995,-0.024354799,0.018332016,0.0542344,-0.04468899,-0.007958549]]},{"biases":[-0.013454149,0.041878477,0.041715086,0.024465429,-0.14961931,-0.007562162,0.03277315,-0.11437229,0.052658413,-0.028602658],"values":[0.0,0.0,0.0,0.0,0.0,0.0,0.0,0.0,0.0,0.0],"inputWeights":[[0.08759318,0.045875344,-0.116939895,-0.07703836,0.14409962,-0.13613012,-0.113984756,-0.07594257,0.11226708,-0.045078073],[-0.10030407,0.09669114,0.029153489,0.14484519,0.08173491,0.08038527,-0.16744496,0.061931703,-0.0558226,0.21460916],[0.1067179,0.0050243936,0.071833,0.033043962,-0.063417725,0.13833496,-0.16057576,0.19158517,0.10933396,0.13760361],[-0.006894995,-0.16606699,0.20097634,-0.03948091,0.032543447,0.08442924,0.1733018,-0.096149005,-0.17070849,-0.069839165],[0.069268785,-0.050948758,-0.10673365,-0.08209614,-0.07163142,0.030867932,0.011181495,-0.09615694,0.012523661,-0.10943932],[0.103383295,0.065905266,0.1212269,-0.023398018,0.0028730908,0.032206837,-0.10353155,0.05834248,0.041647047,-0.18114282],[-0.17076494,0.005516327,0.1119341,0.028061246,-0.03168099,0.079587676,7.268424E-4,0.18648002,0.052520033,-0.14498454],[0.050975334,-0.01975299,-0.12023508,-0.0051680384,0.014563166,-0.14246467,0.27644128,-0.02209679,0.12087078,-0.014705131],[-0.19699876,0.0358972,-0.105952345,0.24290647,-0.033607032,0.1620011,0.053633936,0.06909893,0.056539886,0.12984726],[0.068964414,0.053928427,0.044612337,-0.057711244,0.09456571,-0.11705135,-0.14785536,0.1170446,0.037763253,0.03071097]]},{"biases":[-0.0031621435],"values":[0.0],"inputWeights":[[0.01624409,0.026915535,0.057215597,-0.15403205,-0.15166971,0.008741215,-0.037091516,-0.02362813,-0.029580621,0.09103313],[-0.08879403,0.07575405,0.016036399,0.14639913,-0.039020628,0.03551088,-0.02656579,0.05232205,0.050978962,0.09461609],[0.06432663,-0.013612387,0.17802921,0.09421818,0.08363344,0.0702482,-0.08947276,0.11060193,0.05872208,-0.06425985],[-0.22979607,-0.076046206,0.019622466,0.017950693,0.026426574,0.07780916,-0.095359564,0.16786192,0.115900874,0.011728936],[0.046224706,0.12751313,-0.05664125,-0.051245492,0.023473248,-2.3084368E-4,0.0071834153,0.078298606,-0.15304403,-0.009109507],[0.08529367,-0.13596648,-0.16927181,0.065029256,-0.12418675,0.046706185,0.06275702,0.024685202,0.023334598,0.13276327],[0.22324684,0.10736115,0.07033822,0.04437072,0.05472515,-0.16952044,-0.05580461,-0.007906802,0.0805828,-0.11902557],[0.15138435,0.19917023,0.04832169,0.021503503,0.041819725,0.011588228,-0.124882594,0.04836721,-0.26783445,-0.09140988],[0.02512721,-0.10496422,-0.09468415,-0.109844886,-0.07210736,0.015070419,0.27974337,-0.044601705,0.13421077,0.014172728],[0.017207054,0.020644182,0.17552613,-0.21091217,0.014016301,0.009015677,0.06156852,0.05634773,0.021824216,-0.034976695]]}]}},{"fitness":0,"neuralnetwork":{"inputLayer":{"biases":[0.0,0.0,0.0,0.0,0.0,0.0,0.0,0.0,0.0,0.0,0.0,0.0,0.0,0.0,0.0,0.0,0.0,0.0,0.0,0.0],"values":[0.0,0.0,0.0,0.0,0.0,0.0,0.0,0.0,0.0,0.0,0.0,0.0,0.0,0.0,0.0,0.0,0.0,0.0,0.0,0.0]},"layers":[{"biases":[-0.09941737,-0.07298384,0.102958634,-0.097172976,-0.06654885,-0.050004568,0.0019809024,0.080535986,-0.037500907,-0.10206656],"values":[0.0,0.0,0.0,0.0,0.0,0.0,0.0,0.0,0.0,0.0],"inputWeights":[[-0.053196277,-0.13415447,-0.014269444,0.020414444,-0.020251665,0.16813128,-0.060693383,-0.26358533,-0.13289349,-0.031928215,0.11458814,-0.099499084,0.08847068,0.30410773,0.09882721,-0.058501355,0.068739444,-0.037912115,-0.09134204,-0.018321399],[-0.0062441304,0.24983205,0.087144226,0.06133913,0.112014815,-0.05965055,0.19034915,-0.1034987,-0.009172554,0.071727626,-0.012610324,0.19712664,0.013905904,0.087897345,-0.035996225,-0.009540515,0.06153973,-0.056397155,0.11757761,0.05020658],[0.08685739,-0.042980157,0.08969264,0.03264402,-0.13920371,-0.07869291,-0.10555078,-0.02974403,0.032456305,0.13102569,-0.044504575,0.034213692,0.21445814,-0.01729925,0.02266708,0.22085625,0.01692182,0.13685784,0.24959876,0.0027223914],[-0.017681528,0.03270092,0.10734574,0.08375247,-0.14156586,0.058641784,0.13207732,0.12022276,0.15750644,-0.077668406,-0.2497942,0.22826219,-0.03340936,-0.055692594,0.17059876,0.20685111,-0.04616966,-0.12915125,0.026867159,0.06543737],[0.14162391,0.26251435,-0.06919427,0.06054934,-0.06538523,0.14514488,0.110096335,-0.10663495,0.13233802,-0.1391544,0.2121425,-0.062426034,-0.017528204,-0.0019016077,0.013292451,0.0649991,-0.0060315216,0.0057436265,0.05965592,0.1005948],[0.18682902,0.029686404,1.4522465E-4,-0.08670287,-0.0800621,-0.033789564,-0.12405659,0.015353168,0.084185265,0.026295926,0.1082569,0.024534835,0.16012749,0.075879835,-0.15802036,-0.07004265,0.116571814,0.024508636,-0.16991104,-0.117629446],[-0.053699072,-0.072741896,-0.11603246,-0.11733273,0.03702322,-0.024304625,0.004097811,0.23341107,-0.056902416,0.12939882,-0.08206883,-0.13297439,-0.004088652,-0.03271562,-0.08480882,0.04856304,0.022653317,-0.15865333,-0.15979022,-0.09180029],[0.038450234,-0.015812676,0.008660111,-0.080985434,-0.08626408,-0.10404177,-0.07320839,-0.083268434,-0.24989466,0.0018481364,-0.018932387,0.01037445,-0.016274756,-0.07488727,-0.028791117,-0.05880685,-0.057574447,0.20179231,-0.035487518,0.09990705],[-0.0546529,-0.053742886,0.06693188,0.14034303,-0.09076613,-0.08764078,0.15259264,0.10460141,-0.033560213,-0.019206535,0.05377004,-0.12947688,0.012457935,0.11968521,-0.15823737,-0.008825574,-0.018598028,0.058368023,0.121787235,0.11934978],[-0.13833158,-0.044086963,0.008349831,0.0060870675,-0.09948978,-0.0059434427,-0.123119734,-0.048446663,0.040435087,0.19778308,0.06597336,-0.041128658,0.1504345,-0.073427364,0.105093285,-0.09063366,0.13119256,-0.14180289,0.11403068,-0.050865963],[-0.1483188,-0.027223263,0.097984664,-0.03470176,-0.053289603,-0.08609348,0.0825261,-0.03584693,-0.094353594,0.21889918,0.13373865,-0.12699372,-0.09209808,-0.01008298,0.051611315,-0.040825646,0.014844287,0.047092143,0.038534727,-0.08408574],[0.15498039,0.08326502,0.10501266,-0.078520656,0.0014739624,-0.06657573,0.14079173,0.023512663,0.019430695,0.029212974,0.010825836,0.14299835,-0.07726597,-0.021870187,-0.03538974,0.04392268,-0.15515327,0.07415379,0.14059259,-0.051682416],[0.008268865,-0.09381187,0.059157226,-0.029023957,0.011439137,0.006408461,-0.12252471,-0.14947616,-0.0050174724,-0.07295645,0.028119842,-0.1070793,0.06362348,0.045092046,0.037079304,0.078000434,0.14279348,0.12115354,0.06644734,-0.08268844],[-0.08258219,0.006063713,-0.014203726,-0.076084524,-0.123771444,0.17909463,-0.10204118,-0.19726919,-0.0104510775,0.008839405,-0.05900889,0.045919884,9.111364E-4,-0.06378721,-0.16142142,0.10681193,-0.06952916,-0.09580644,-0.19591479,0.104727276],[-0.1756203,0.15247202,0.08073839,-0.273615,-0.011594787,0.027527753,0.14334932,0.10851076,0.07419946,0.11777812,-0.17517778,0.13029358,0.008323114,0.2081088,-0.09468626,-0.08070712,-0.11393402,0.0074029192,0.18036942,-0.0359442],[-0.001428023,0.050271403,0.065676786,0.026362102,-0.0115884645,-0.058883745,-0.19153973,0.07456011,-0.09709305,-0.006251235,0.20836602,-0.04816203,-0.13713883,-0.06538246,0.012384944,0.09481976,0.15522107,-0.101044886,0.05109734,0.049857743],[0.06418335,-0.041499373,-0.031601734,0.18663259,-0.08312283,-0.055409376,0.048717894,0.051725157,-0.072997674,-0.091797374,0.051199887,0.09636031,0.21674708,-0.07046624,0.05253519,-0.1069431,0.04640264,-0.09621641,0.023707047,0.017732445],[-0.06877777,0.16378856,0.20847163,-0.0391365,-0.058504824,-0.038512394,-0.076328725,0.1480304,0.12689188,0.09634436,-0.030394329,-0.17548546,-0.123796806,-8.1738096E-4,0.06345045,-0.082955055,0.033300117,-0.09533416,-0.22587767,0.08433091],[0.25752586,-0.20136489,0.011055496,0.1137348,1.0787081E-4,-0.15300837,-0.046360414,0.08316661,0.20018522,-0.07582388,0.2401647,0.06900474,-0.03993142,0.032704875,-0.011317108,-0.1738364,-0.053564597,-0.19424859,0.08212213,0.21410392],[0.14411499,0.07425042,-0.057639103,3.976828E-4,0.041614294,-0.15484735,-0.0853487,-0.03596021,0.022884306,-0.14065726,-0.0989369,-0.014136373,0.09964714,0.2175124,0.14702475,-0.13919899,-0.13404083,-0.08195009,0.0463801,0.110849604]]},{"biases":[-0.060123373,0.023150345,0.14761955,-0.06104144,0.22901136,0.003140037,0.0060618664,0.17573914,-0.004236965,-0.040797353],"values":[0.0,0.0,0.0,0.0,0.0,0.0,0.0,0.0,0.0,0.0],"inputWeights":[[-0.02296737,-0.08250582,-0.03710708,-0.2068151,0.18857415,0.120856784,0.1791065,0.10198648,0.118870966,0.0585921],[-0.022713082,-0.090339184,-0.10630821,0.09315159,-0.14965706,0.1472625,0.0061919703,-0.1588232,-0.11929984,0.02895668],[0.24075231,-0.14675601,-0.06968202,0.03123489,0.063192695,0.1527025,0.14588337,0.12168072,-0.2246322,-0.20734671],[-0.091488354,0.06569148,0.042232186,0.06904898,0.11003078,-0.083761945,-0.031684846,0.06278906,0.016218422,0.10024769],[-0.024495428,-0.07057437,0.011486499,-0.03840515,-0.08605444,0.25283933,0.030785555,-0.06251733,-0.058593713,-0.33241645],[0.07894201,0.06324457,-0.117640816,-0.022043647,-0.13368613,0.19509262,-0.16153778,-0.042816274,0.10196846,-0.066490225],[0.08921217,-0.05121735,0.16191645,-0.057015575,-0.094448954,0.052030694,-0.06832636,-0.03518443,0.054286703,0.101488315],[0.18788193,0.009637692,-0.21126668,-0.02686757,-0.019105375,0.014784333,-0.11731214,-0.016936362,-0.0036478846,-0.0674059],[-0.07414672,-0.08602239,-0.055005938,-0.106072545,0.03550196,-0.03301175,-0.14059392,-0.024053527,0.038105488,-0.112038985],[-0.14164265,0.008487354,0.06569377,-0.11344531,0.08925322,0.0032074586,-0.09352671,0.02973808,0.0044559883,0.073440105]]},{"biases":[-0.1910304],"values":[0.0],"inputWeights":[[-0.03965042,0.12197145,0.04864927,-0.074753955,0.20108065,0.19870208,-0.06766656,0.07083009,-0.05411156,-0.081013896],[-0.034764815,-0.16875018,0.0799811,0.19595137,-0.16929859,0.033680674,0.08984753,-0.047747135,0.03827515,0.02370345],[0.10712891,0.1775839,-0.17158113,0.06797129,0.15940182,0.006519506,-0.07416875,-0.008861007,-0.05866071,0.04832449],[-0.08812358,0.050202638,0.014893182,0.021162592,-0.022966636,-0.09524161,-0.21236947,-0.015928445,0.31248465,0.284056],[-0.15744641,0.076767586,-0.05624452,-0.037842985,0.04074371,0.031576835,0.061835155,-0.0020979608,-0.04522274,0.17101413],[0.016698517,0.11763349,-0.046987962,0.08179626,0.058977433,0.0179371,0.026860498,0.08879162,0.045181535,-0.032510232],[-0.008564972,0.067616336,-0.06506646,-0.16588545,0.082875654,-0.051641174,0.098836556,-0.00821594,0.07450005,-0.041032348],[-0.013007556,-0.15311006,-0.0031196303,-0.071644336,-0.052818984,0.15697591,0.045737006,0.037669923,-0.095768735,-0.04751006],[0.07770019,-0.051881634,-0.045408532,-0.16981553,0.12341252,-0.031385206,-0.19251764,-0.13227248,-0.09353514,-0.08460297],[-0.26163566,0.1529809,0.016063502,-6.4360484E-4,0.0021656412,-0.099485576,-0.077048734,0.074159555,0.02447968,0.09223892]]}]}},{"fitness":0,"neuralnetwork":{"inputLayer":{"biases":[0.0,0.0,0.0,0.0,0.0,0.0,0.0,0.0,0.0,0.0,0.0,0.0,0.0,0.0,0.0,0.0,0.0,0.0,0.0,0.0],"values":[0.0,0.0,0.0,0.0,0.0,0.0,0.0,0.0,0.0,0.0,0.0,0.0,0.0,0.0,0.0,0.0,0.0,0.0,0.0,0.0]},"layers":[{"biases":[0.009382974,-0.124879606,-0.011254766,0.035775032,0.15219592,0.1366367,-0.006169711,-0.25047535,-0.09144602,0.1389237],"values":[0.0,0.0,0.0,0.0,0.0,0.0,0.0,0.0,0.0,0.0],"inputWeights":[[-0.01885296,-0.11972888,-0.025904644,-0.0888721,0.15711102,0.038530927,-0.12231487,0.049669053,0.010323029,-0.2333759,0.01378276,-0.13852987,0.08280388,-0.027891476,-0.01454639,0.028793227,0.033595208,-0.13040975,0.09894794,-0.02987874],[-0.12066277,0.05394135,-0.017614877,-0.04966472,-0.12148888,0.1156373,-0.014446016,0.05632164,-0.022494737,0.02372228,0.11398539,0.053496126,0.076740436,0.081026696,0.021352379,-0.2400414,-0.13176328,-0.019664736,-0.14488208,-0.023705633],[0.02088792,-0.19818288,-0.12664565,0.029267097,0.02405749,-0.06317671,-0.037845876,-0.0661281,-0.040860094,-0.01292786,0.011676687,-0.079695255,0.06223507,-0.1428473,0.011334455,0.08006004,0.011662082,-0.07722399,0.13600546,0.055402983],[-0.17042333,0.10676134,-9.277107E-6,-0.110764965,-0.033779554,0.021783628,-0.07857068,-0.1216545,0.026743786,0.17600401,-0.094834805,-0.016254475,0.11405812,-0.070386104,0.14029121,-0.119651824,-0.111322336,0.17604214,-0.017628366,0.14122225],[-0.109921806,-0.028587341,-0.056594048,-0.007140218,-0.12657359,-0.0042336253,-0.14389102,0.1341154,0.11442499,0.11648194,0.06722331,0.11623087,-0.033937354,0.044083033,-0.054779906,-0.03270802,-0.19797656,0.044999223,-0.054096732,0.018386735],[0.22233965,-0.05961829,0.1784381,-0.030267447,0.11211966,-0.1097334,-0.12821911,0.005079105,-0.09465415,-0.04185103,-0.091302484,0.089438334,0.004245019,-0.022163203,-0.23496692,-0.23552491,0.06973991,-0.085811585,0.090232864,0.056571],[0.09933254,-0.027980851,-0.065092385,0.104619615,0.060845688,0.06522084,0.22515377,0.20480695,-0.04203035,-0.12762208,0.051704813,-0.017206287,0.13133338,-0.02235755,-0.2602894,-0.03491891,-0.18365261,-0.0343446,-0.14820181,0.010921192],[0.02001513,-0.30725372,0.0052493117,0.18302402,-0.003502973,-0.022945318,0.045565493,0.003942308,-0.034698077,-0.031405073,0.0237192,-0.1258407,-0.11160365,-0.10443844,0.02532056,0.025408681,0.0816983,0.07620087,-0.023010561,0.06348566],[-0.10942766,-0.08290332,-0.0042491234,-0.12861392,0.092071466,-0.13923517,-0.028398203,0.0951751,0.081144154,0.0991743,-0.122737736,0.08250721,-0.051219117,-0.062326774,0.0924153,-0.06967335,0.08361432,-0.032324556,-0.019664355,-0.037096485],[-0.044735495,0.05776776,0.08976123,-0.06440681,-0.24648724,0.18280257,-0.0030272244,0.09476887,0.03601387,0.13642456,-0.0012602824,0.013653967,-0.075910404,0.06601917,-0.0036590795,0.16273908,0.0037691623,-0.077345535,-0.11850891,0.101454854],[-0.041463826,-0.08662049,-0.14077066,-0.0021910109,0.24406318,0.02326282,0.037079766,0.13027635,0.12088697,0.22152902,0.015836637,-0.16457252,0.091179766,-0.09806764,-0.010948537,-0.0032049944,0.07365332,0.057384796,-0.21571693,-0.003816598],[-0.121440805,-0.11945863,0.010869555,0.040106118,-0.14341779,-0.07310321,-0.036419403,-0.063051276,-0.10652505,-0.08239412,-0.0207097,-0.04988194,-0.11437542,0.031495377,-0.112016015,0.034504823,0.014955585,-0.087923646,0.095237546,0.10653952],[-0.11612658,0.028823938,0.004924436,-0.031440083,0.012098884,-0.0072727804,-0.13401632,0.21832012,0.06231068,0.12879631,0.0129213035,-0.038498927,0.04278081,0.010703903,-0.17377359,-0.080701716,0.05490291,-0.119514875,0.05243514,-0.108356066],[-0.038462766,-0.14298134,0.055202235,0.043978654,-0.01580375,0.055172842,-0.05383931,0.059087045,0.08953407,0.08628793,7.715578E-4,-0.1540115,-0.018124491,0.090287745,-0.12819155,-0.19561727,0.13429567,-0.10596906,-0.07021756,0.040389773],[-0.13711558,-0.17933035,0.04468918,0.0027927526,0.19275348,0.07136817,0.08594019,0.17128196,0.098830536,0.13242589,0.07057964,-0.13510177,0.046294577,-0.22532964,0.09444291,-0.017135305,0.13978332,-0.0693171,0.157438,0.092780374],[-0.052753847,0.06958789,-0.042087786,-0.09342504,0.037641145,0.15285294,-0.044006724,-0.1363761,-0.1925901,0.04405441,-0.059836194,0.055499226,0.051729836,-0.0013570415,-0.007307346,0.08517874,-0.003953767,-0.001806632,0.102454655,-0.043349426],[-0.039925836,-0.025589634,0.03552077,0.060326457,-0.07509307,0.08207705,-0.13509215,0.04944671,-0.011272295,0.022341825,-0.022469986,-0.087610334,-0.09557772,0.060769673,-0.013173274,0.0027069538,-0.07784961,0.17553744,0.08765733,0.015048576],[-0.10167737,-0.12050747,-0.1676571,-0.16913134,-0.10278559,0.10277099,0.0033382706,0.17061655,0.02449212,-0.278649,0.048627224,0.10911435,0.025396086,0.023598341,0.12805738,0.041487835,0.053783026,-0.04619145,-0.058218293,-0.04778104],[-0.0060759634,0.13046815,0.038514663,-0.20368527,0.008873097,-0.055630047,0.03307475,-0.0036794238,-0.1363571,-0.097005345,0.0021738817,-0.14475112,0.12454422,-0.10211778,0.08177631,-0.061504774,-0.08003963,-0.10124859,-0.09060406,-0.039899778],[0.15530045,-0.037198257,-0.07575259,0.056815483,0.009113064,-0.13357145,-0.08432241,-0.027034841,-0.14030553,-0.12763986,0.042502973,-0.051300567,-0.18888845,-0.081314564,-0.041698188,3.9859288E-4,-0.056180738,0.15544938,-0.028970111,-0.07821609]]},{"biases":[-0.024710435,0.026913624,-0.06589041,-0.041948725,-0.22795323,0.14105105,-0.030024981,0.0626065,-0.07121835,-0.14916444],"values":[0.0,0.0,0.0,0.0,0.0,0.0,0.0,0.0,0.0,0.0],"inputWeights":[[-0.13239995,0.07187113,-0.11244304,0.05412936,0.08012823,0.11149681,0.11851012,-0.060037546,-0.09663006,-0.055548124],[0.06432416,0.014170287,0.11667758,0.13939975,-0.10307966,-0.1108546,-0.003978067,0.11291576,0.059538353,0.066694126],[-0.04889723,-0.02307132,0.04882752,-0.15065561,-0.2233799,0.04568664,-0.0382308,0.07040827,-0.042691406,-0.02644584],[-0.029708408,0.07555192,0.0705204,-0.020731557,-0.06335239,0.26168668,0.0034734895,0.1063538,0.10513377,-0.117303446],[0.097359724,-0.032609362,0.017579205,-0.12004092,0.074765846,0.005945955,-0.021600548,-0.0013644311,0.14124341,-0.05143585],[0.005002788,0.052072622,-0.0083349375,-0.08767163,0.08298997,0.09794539,-0.049260523,-0.09657559,-0.07374556,0.12236912],[-0.016790979,0.041515455,-0.02991179,-0.011439607,0.13756123,-0.023905903,0.09656794,-0.017596627,-0.050652187,0.04054319],[-0.031676598,0.008362477,0.09871472,0.22796182,-0.11727575,-0.05655048,-0.076649405,0.048021775,0.040796865,0.05718328],[-0.03302005,0.11420104,-0.160752,0.14242817,0.09408557,-0.0011683186,0.12334831,0.08197072,-0.022984928,-0.06612099],[-0.090677686,0.040206157,0.082283735,0.11266604,-0.032052983,-0.09327649,0.22992374,0.07199924,-0.1541373,0.001669049]]},{"biases":[0.016166342],"values":[0.0],"inputWeights":[[-0.21435311,0.018361395,-0.07197855,0.07402471,0.039883323,0.059177835,-0.10307869,-0.11728877,0.119865574,0.15467107],[-0.13224731,-0.026071839,0.21210141,0.05089421,0.009849613,-0.069719054,-0.16462894,-0.032148946,-0.029344589,0.010058785],[-0.07432899,-0.045230832,-0.11024999,2.876358E-4,0.120440334,-0.037240736,0.060346443,-0.0015158363,-0.10779417,-0.044293158],[-0.07674248,-0.03633749,0.27535415,0.023060506,-0.05375708,-0.043721065,0.18935356,0.15807769,-0.07599554,0.0020799898],[-0.05086528,-0.016313475,-0.11954064,0.07008458,0.034189355,-0.060873035,0.050723683,0.113820754,-0.06496904,-0.0641827],[-0.045902774,-0.10044328,0.14022279,-0.015211075,0.1843527,0.006490316,-0.11578471,-0.012677318,0.06460316,-0.08688258],[-0.09768429,0.029046478,0.015459439,0.16879185,0.13001294,0.14145651,0.12693574,-0.048042912,-0.043630764,0.14975874],[-0.16469978,-0.010187603,0.07453689,0.048148647,0.065091535,0.14147224,0.054658666,-0.041136034,-0.0010969271,-0.12800372],[0.050628994,-0.1521724,0.13660054,-0.056558724,-0.0076924707,0.05774604,0.0873735,0.060314182,-0.037849374,0.04000087],[0.06247959,-0.1934181,-0.1580974,0.087901555,0.02279683,-0.15672898,-0.11794372,-0.07881201,-0.020580135,0.10068863]]}]}},{"fitness":0,"neuralnetwork":{"inputLayer":{"biases":[0.0,0.0,0.0,0.0,0.0,0.0,0.0,0.0,0.0,0.0,0.0,0.0,0.0,0.0,0.0,0.0,0.0,0.0,0.0,0.0],"values":[0.0,0.0,0.0,0.0,0.0,0.0,0.0,0.0,0.0,0.0,0.0,0.0,0.0,0.0,0.0,0.0,0.0,0.0,0.0,0.0]},"layers":[{"biases":[-0.10837004,0.074929945,0.035056647,-0.13670999,-0.07184155,-0.0073030745,-0.07259247,-0.14721511,-0.01650065,0.16259179],"values":[0.0,0.0,0.0,0.0,0.0,0.0,0.0,0.0,0.0,0.0],"inputWeights":[[0.12084975,0.07040323,-0.03182198,0.1269162,0.18361607,-0.19580947,0.04151139,-0.118663825,-0.08600501,-0.007291089,0.09488636,-0.0073401886,-0.10640845,0.070193276,-0.036788296,-0.08999074,0.1394618,0.21823919,0.10477818,-0.04401818],[-0.040124264,-0.19718449,0.054135077,-0.16301633,0.14885631,-0.111204036,-0.106900536,-0.054863017,-0.017177526,-0.05950763,0.12781298,0.14470203,0.040148746,-3.4003856E-4,0.08882134,0.051260907,0.06824218,0.042746067,0.05221152,0.092182845],[0.024833638,0.006206097,-0.087572575,0.045808043,-0.060121987,0.16672322,-0.05675973,-0.10337276,-0.100141056,0.13398463,-0.014380346,0.021307379,0.0069127646,0.16103904,0.17600173,0.19318439,-0.062032707,-0.037312407,-0.05147399,0.04582906],[-0.05159586,0.020795958,0.116078064,0.019449266,-0.06926289,0.006849749,0.1063152,0.15147412,-0.19908573,-0.026954459,0.18844996,-0.13523017,-0.029992286,-0.1526074,-0.0018214139,-0.07762319,0.12918346,-0.031040901,-0.21204627,-0.004361665],[0.022400813,0.06709368,-0.24037479,-0.04616378,-0.048871715,0.08357627,-0.0033444995,0.061229352,-0.12981753,-0.1266646,0.004776214,0.03151758,-0.045079675,-0.073692665,-0.093111515,0.15322296,0.047534578,-0.10249996,0.08038666,0.12858327],[0.058299795,-0.10504369,0.12886895,-0.13717872,0.21444719,-0.019015606,0.028062955,0.17422813,-0.00792096,-0.056047194,0.0013790021,-0.06695712,-0.03155748,-0.19081052,0.12761354,0.076739736,-0.14611104,-0.078880034,-0.041239694,-0.052562866],[-0.050190516,-0.13011023,0.11582152,3.4032253E-4,0.08892612,0.082455,0.0032136287,-0.075322896,0.016499141,0.22624655,0.053450458,-0.022984276,-0.13542435,0.119628124,0.2747811,0.16755784,0.0033601008,0.08479211,-0.020674052,-0.13584588],[0.057092663,-0.091424875,-0.017706575,0.030124927,0.20272224,0.25430727,-0.03770985,-0.12398597,-0.11109588,-0.11186717,-0.012783112,0.050467115,0.15758829,-0.15168549,-0.11918351,0.025724256,-0.14082754,0.056980167,-0.23908518,-0.025028843],[-0.08754076,-0.036052722,-0.041821938,0.18724021,-0.05815075,-0.08370314,-0.011495759,-0.09622711,0.080480315,-0.07467285,0.15146956,0.11774395,-0.049446505,-0.07330651,-0.031847622,0.050740972,-0.06608242,0.13443612,-0.07595884,0.014389179],[0.20094514,6.568072E-5,-0.19341588,0.07530281,-0.08663062,-0.0021804923,0.0069238152,-0.008033569,-0.022963993,0.13048676,0.016205017,-0.06556354,0.0622081,0.025708482,0.021468833,0.014476079,0.10556086,-0.0035305086,-0.13615905,-0.11711965],[0.028938526,0.10341169,-0.015604541,0.010023254,0.033915002,0.07119326,-0.03245388,-0.10117721,0.018727416,-0.005942811,0.05726448,0.1409943,0.27419215,0.13298297,-0.15416008,-0.03057138,-0.038773336,-0.10978413,0.03188716,0.056575537],[-0.11984959,-0.025395047,0.113395296,-0.036526483,0.060746234,0.094637774,0.07749256,0.22354986,-0.045865092,0.10058392,-0.030589083,0.08087917,0.048889466,0.07190755,-0.05065382,0.21186116,-0.038135026,0.1443907,0.116830625,0.056644842],[-0.06474736,0.030490372,-0.07260571,-0.19875665,0.077685475,0.051061943,0.018525718,-0.20520526,-0.05244976,0.18477115,-0.1522322,0.037187688,0.0016423151,-0.18666673,-0.03660228,-0.06226947,-0.014144254,0.1459573,0.07882408,0.156282],[0.005766575,0.13226682,-0.05450364,-0.11692234,0.035168264,-0.041996233,0.069916,0.02749915,-0.08778501,0.11925023,-0.1290594,-0.21228956,0.029289404,-0.048240893,-0.18549265,0.12814517,0.046001058,0.07197064,-0.01806821,0.002020319],[-0.0780862,0.039662633,0.11778078,-0.022935491,-0.13829993,-0.01456941,0.059720505,0.13268766,0.1172722,0.02663353,-0.07089728,-0.052715935,-0.0543788,0.114697576,-0.24652493,-0.12143843,0.068996534,0.05152824,0.1398676,-0.07569764],[-0.046333674,-0.07004966,-0.07234329,0.06067802,-0.051604915,-0.06922556,0.011067998,0.12634271,0.08402405,0.04879402,0.0012534685,-0.21005954,0.039235223,0.04134708,1.8647629E-4,0.14177105,0.10165668,0.09369511,-0.03626244,0.08436249],[-0.054142002,-0.06518019,-0.035459302,-0.04767905,0.028610617,0.05663662,0.043943994,-0.091415085,0.020310132,-0.03097499,-0.08815102,0.022140712,-0.05293556,-0.08224984,-0.07761112,-0.10432605,0.12220278,0.025515975,-0.07107875,0.16543147],[-0.08940453,-0.17965339,-0.003086672,0.0058266497,-0.016964652,-0.041811973,-0.030861644,0.08345061,0.12353073,0.17925711,-0.06606314,0.028409785,0.03949175,0.075144015,-0.06930569,0.03813244,0.22736841,0.02329533,0.024545304,0.21376966],[-0.06304951,-0.005308661,0.04205897,-0.0058869584,0.10962169,-0.046428226,-0.04303203,